-0.050232992097785,-0.094621566032987,0.081982130506193,0.071928354650629,-0.154010026083716,0.173201520582452,0.172863866545751,0.051445168482059,0.058116804484485,0.109352111756653,-0.225457723725306,0.109699995775027,0.169516607711760,-0.121353214235009,0.165864792735569,0.071396062847934,-0.205140050641192,-0.041267263715621,0.194938524633929,0.071916332637816,0.067036616447845,0.028567171956541,-0.001805188236177,0.109531690445368,0.139883618735118,-0.073803521557008,-0.141522717608497,-0.159712565091359,-0.219273059661980,-0.099578118616473,-0.158152166728134,
0.003592334867718,0.091584862622327,0.029596766327443,-0.092066845114668,0.109981146449050,-0.135492966143123,-0.135073678776802,0.063588070999620,0.019260369882334,-0.143232531997347,0.232093129997538,-0.143568398342713,-0.106722639870695,0.127146001871360,-0.176156953711973,-0.118412668394539,0.192147878085106,0.056495687038717,-0.170825748583771,-0.118866812179834,0.058751147655332,0.085182289846194,0.068904445673796,-0.143426520133095,-0.161715399962996,0.096668963534926,0.156203235766203,0.150500944429195,0.257583724789485,0.130212435679226,0.181791253691376,
