-0.043658731449085,-0.002959791296575,-0.004433545078638,-0.100817029624513,0.174876371622571,0.036120454069827,-0.006924680308683,-0.061227399278120,-0.128584290470979,-0.101728443202740,0.079268627043645,-0.071770954931175,-0.099441670576925,0.206368457903927,-0.089980013382439,0.028446872932195,-0.001463070582518,-0.164313504493182,-0.095653051601460,0.192058639349609,-0.028751534003298,-0.099564105779164,-0.002689129749373,0.010460960509556,-0.126745762401051,0.004583072237638,0.111501530593991,0.272438972203947,-0.082296454835123,-0.011409062928005,-0.081692486060266,0.229553561436903,0.162091794343953,0.281600237233457,0.000637546576401,-0.095677585806470,0.236608334811807,-0.016086749327770,-0.000308999344426,-0.105006038459509,-0.109603943005365,0.137602499081337,0.267564653259085,-0.147600342753261,-0.004848973294884,0.002624679872119,-0.068797380147867,-0.145056283948326,0.102214265754206,-0.054379896400638,-0.001501588477767,-0.157665868683687,0.079239507354144,-0.042923523862988,-0.026329213722863,0.089664306373606,0.081019811843769,0.019494106801417,-0.074495046940598,0.086322618982732,-0.175050006135735,-0.113477353843912,-0.009376937448243,-0.000726610790742,-0.000997077645781,0.001369986584612,-0.137811344188521,0.260087650603510,-0.114209031523501,-0.107709838624395,-0.050977144664617,0.004017061941926,0.095205690923013,-0.000758426838446,0.036803921208146,-0.108353194678249,-0.020416790241091,0.006935990929903,0.007738723661213,-0.050432512096855,-0.000948861747496,-0.129935593861745,-0.018121795319111,-0.113938117425975,-0.004164667644359,-0.023446623618012,-0.112130408022397,0.334631065531341,-0.024230346966867,-0.044659229551466,0.030819276849042,-0.006187792850361,-0.001932712696261,0.064314144282622,0.090244148603426,-0.085722106347890,-0.045388576272104,-0.002160000000000,-0.003782602277031,0.004909918516184,-0.024093612949612,-0.029388805766464,-0.073363760694499,-0.102758815817498,-0.016333978506635,0.132272978922363,0.140869332283085,0.279216291079410,-0.000211152685079,-0.046087972534783,0.026478633252304,0.123053779578045,0.218304798304791,-0.113772605708175,-0.030064743703977,-0.005903300748304,0.376366012497681,-0.007161757059848,0.089959605894330,-0.003380000000000,-0.108072535997039,-0.081322331432236,-0.014462059846235,0.034892647062353,-0.200156190664260,-0.172041779073661,0.300201998634610,-0.004053304210689,0.056207423108770,-0.202553476910158,0.002018586554302,-0.016809759123366,-0.215619092328522,0.149051592202338,-0.113326747457702,0.079625571877037,-0.025104753644083,-0.054658562898488,-0.156022172412616,-0.011980596418774,0.190925011956678,-0.054263455061541,-0.003386602626638,-0.157239993279876,0.130849277120912,-0.027774124169832,0.003392196114699,-0.026637659346653,0.235648912959007,-0.127086645946401,-0.070325708542652,-0.145974763745751,0.074385772035740,0.026196274274782,0.002679189466476,-0.087918608890380,0.282732051651821,0.263566418401055,-0.022480893444724,-0.002136559676131,0.019957129709794,0.024937472459337,-0.036300266045907,0.018494672778922,-0.043886020002939,0.153151721307411,0.245834608296979,-0.089933545702560,0.001323660286611,-0.081778827606232,-0.126361302595835,0.109747127748110,0.004334766580220,-0.012003861048033,-0.029614821391726,-0.071498119256331,-0.053343636987983,0.003130766780442,-0.248754810946726,-0.077453215733236,-0.128990687256591,-0.158282125109959,0.002925863612870,-0.153593996203604,-0.000568422039331,0.274142627878551,-0.001039961390487,0.000389507016854,-0.105999443569310,0.222010316478285,-0.205575765551416,0.001658772915131,-0.012506218572064,-0.060795642934248,-0.086927542682285,-0.136442886629153,0.033433131754832,0.041225230973225,-0.058109662031664,0.347852716530643,-0.104540880359980,
0.511372278292292,0.014246056746240,-0.003177466687770,-0.176549547099947,-0.089223834835456,-0.222865873448095,0.001520701440695,0.140672263786334,-0.279418855689365,-0.308222899946284,-0.002291760458058,0.175107506400317,0.107038532912620,-0.048889751801901,-0.046818269909067,-0.076311341675710,0.004591292855694,0.271277165673199,0.029178643368131,-0.073703246522180,0.080651148170120,-0.082687691071922,-0.006665374334271,-0.015364162121032,0.296251859133459,-0.002490023864095,-0.026814210877118,-0.071923990573828,-0.168130438579258,-0.024124682583043,0.158243196585854,0.030474020155158,-0.124429665814389,-0.122626219817453,-0.004243596455533,-0.037314009145215,-0.042893432329397,-0.113458606130978,-0.000312846057682,-0.056593291691573,-0.094060988570755,-0.073035094965931,-0.026529121602629,0.148651530140720,-0.001239011556344,0.004073281859926,0.308014334230369,0.177330820061025,-0.104625650312318,0.014073353047669,-0.000108904227563,-0.011585209960777,-0.068886518479948,0.074453350029029,-0.103015982435812,-0.115078209031723,0.006713463029915,-0.148168549413413,0.292046518612406,-0.060197532200371,0.589299400818687,0.150705020566567,-0.003335853491424,0.083911479717420,0.003799586346894,-0.002890492409815,0.005218511166072,-0.000105760887747,0.047476148061930,0.228132097334695,-0.098011194789724,0.001258269919746,-0.137004168599450,-0.003157569943592,-0.175042217876919,0.033790075884870,-0.047924079789581,-0.148479921181271,0.095539313093655,0.115574169961811,-0.003868105340267,0.027720988099248,-0.048304642494084,0.183881889167144,-0.003508418916298,-0.020945322955547,-0.015296814853589,-0.035914636552013,0.232184494557194,-0.173026667555834,-0.085286711378531,-0.018817672577284,-0.001832823104100,-0.065841721021922,-0.077424311066623,-0.039058970043501,0.050920808203992,0.004065000000000,-0.004167146702411,0.003945469159962,-0.046918462551739,-0.095919632347619,-0.031190904019037,0.014400230644111,0.017388406644811,0.000891464029521,-0.020773596831798,-0.014760161168633,0.000397615155783,-0.061598872199586,0.007968207007882,-0.217734044741621,-0.066473199034060,-0.112440472138245,-0.037799079305809,-0.011020602864583,-0.090346364305909,0.026390171335539,-0.096828668905620,-0.002585000000000,0.013109513739492,0.156411591618787,0.184629246802060,-0.023299981100990,0.367190029488808,0.182112123334499,-0.018811619861110,0.002581200180883,-0.021170570357700,0.411233743179521,-0.004668487781475,-0.119810779211498,0.096418567450706,-0.123058763673460,-0.026413880349688,-0.131681524895068,-0.078095949434727,-0.126110912108706,0.174029593233072,-0.010534750165501,-0.081052956180240,-0.093266290831745,-0.002029129573001,0.169029916431824,0.191484790887533,0.072735171623413,-0.004820171957676,-0.043912921907551,-0.158913615171809,-0.197972834433456,0.008775170933105,0.101407299675459,-0.065546797514490,-0.019557675801986,-0.002063279150204,-0.114292785343990,-0.159592593363172,-0.016694205065716,-0.197069678004108,-0.002883942000081,0.012250039540615,-0.192696146006656,-0.088217282524557,-0.007665310060670,-0.142349938941583,-0.177540523079580,-0.083505524934348,0.189798085141604,-0.003242954826564,-0.050381597633535,0.012939316840783,-0.081353478948647,-0.039460754462777,0.029125592916189,0.009140097523703,0.108244147977613,-0.128176362276098,0.006742837133956,0.144720985144473,-0.076980470299322,0.090022081779804,0.272233220094905,0.004084711547439,0.031312764138685,-0.004112379654582,0.024433439212486,-0.016639830690281,0.204934004792834,0.303920965678851,-0.078371503171785,0.078812629406796,0.002723788414635,-0.080221638053469,0.248418668272196,-0.054481521638375,0.085002078925260,-0.041019307942060,-0.113510537707776,-0.019006511391214,-0.061391988627853,0.098392258502555,
0.024619068828293,0.031852176246954,0.000977406323488,0.007519341126480,0.052842256498835,-0.089061086356596,-0.009788394987414,-0.177156679929009,-0.162056451423458,-0.144927061090524,0.050625954643126,0.044773792780999,-0.126847399568425,0.075110989181784,-0.111181839624252,0.227963637981717,-0.001074382516729,0.344427645372647,0.229358234504355,-0.081619391994274,0.081049234743344,-0.134270948719333,0.009671891425100,-0.003318641319201,-0.043257387692656,-0.000516236830260,0.076112095137264,-0.112423061183112,-0.073416242096114,0.009403663886203,-0.068046344876678,-0.053149719947421,-0.002098130383698,0.244636547972367,-0.000397247891713,0.263779599449021,-0.106668428825962,-0.237450268031227,0.003512561024028,-0.048685613548905,-0.179848187280380,0.234602079782869,-0.104610378500339,0.380858642406030,0.001284010466889,-0.006600446938849,-0.152022195719027,0.065229754539633,0.140049897249110,-0.029512747437194,0.002202967625608,-0.081668749032585,-0.064454159433185,0.041969429883619,-0.104739536492573,-0.212484174260017,0.017222880763806,-0.031884380138559,0.109906700953445,0.210944797353491,-0.019221281363468,0.001229667937810,-0.012301201132266,-0.140565937612664,-0.003975298473657,-0.002430548695407,0.128269269184646,-0.080782351154130,0.111636153971251,0.098243125648582,0.292888675587769,-0.003078762103035,0.366734401025608,0.002691503746997,-0.216813660676147,-0.114518492250740,-0.019676081596657,-0.119114084565265,-0.145594108950609,0.061198424890848,0.000931074846819,0.163694810809626,-0.067854344625031,-0.069875283813575,0.002812927806791,-0.020479497237103,-0.071866259962752,-0.072128815626954,-0.124210692364694,-0.141488783786382,0.043664640119725,-0.009195459594634,0.003952580370356,-0.150094356461959,0.036675405880237,-0.054951370430530,-0.041429152925971,0.002190000000000,-0.001213539800860,0.004053722465628,-0.095715033584223,-0.010407962954449,-0.102449323959228,0.017191858796986,-0.029755863392001,-0.037854550695216,0.047304453639915,-0.031864058612076,-0.000120405177381,-0.010117727572151,-0.010613244955052,0.303553486171761,-0.057689809335759,-0.162906183562158,-0.093870470724213,-0.061103760588737,-0.166823564439101,-0.017679380260448,0.145555648078789,0.002345000000000,-0.198111454535834,0.170230608262606,-0.156839450239910,-0.053324971767303,-0.049044199779774,-0.103272392400009,-0.114847374681617,0.001496269187457,0.013127019583340,0.327289105096352,0.004518009270755,0.204834856245332,0.183119438251339,-0.124415194804666,-0.100419343604127,0.000322480805719,-0.163999679438118,0.258438457344052,-0.179888259410988,0.023003068292449,-0.087317510992915,0.046109145871265,0.003533018411739,-0.249770867763282,0.190492038205174,0.012774147700779,0.001340797969182,-0.020861703160102,0.281858355456737,-0.198934189619744,-0.133490699738629,-0.080878601662675,0.135222382491148,-0.037108998921322,0.001599172266595,-0.044061828086637,0.039002003295328,-0.027346243845394,0.177808954795520,-0.003927765413910,-0.019681699697665,-0.085995176942411,-0.068253392312287,-0.023419321471650,0.069323683299108,-0.167578241350479,-0.120182743382329,-0.058703687254036,-0.000746360694785,0.291526177743164,-0.100192415907193,0.074751621569525,-0.016287720867881,0.011746115158873,-0.047193280622745,0.025824607080427,-0.035347769958372,-0.007205469043110,0.245458189634314,-0.114075603851800,0.283346024384776,0.096162862959343,-0.003601411531736,-0.047406816345738,-0.007995305841870,0.220179162676862,-0.006679117842555,-0.060783120813084,0.070857119797055,0.113736510832304,-0.223061441556321,0.000263805926684,0.340132621442916,0.164400837684043,-0.062722260767952,-0.218613954993773,0.125317180506955,-0.097824370990016,-0.034648689934066,-0.022954748341814,-0.167109586406889,
-0.094136599054745,0.019575824928136,0.002102237194476,-0.058580478926300,0.342433124912503,-0.140584082948411,0.003453363083604,0.207296257445440,0.002555522684936,-0.088810482638246,-0.046409135687058,0.088172735822162,0.041972890622286,0.169642940660979,0.154834472197584,0.211725254155972,-0.000932244035854,0.131990980905634,0.010021158855768,-0.098761879936922,0.153182109892561,-0.063424828804832,-0.004001976303970,-0.036305148252307,-0.153070017716923,0.003465230688088,0.098147428676481,0.051536781114491,-0.101381668580353,-0.027452398061219,-0.094067506941547,-0.042555112021506,-0.150351269284368,-0.191479430438124,-0.001157275945855,0.114488083342258,-0.191938290974763,0.013024010399064,-0.003293439638748,0.112672953508869,0.073515222408268,-0.079041691245754,-0.179160902370547,0.086299193768845,0.002728865929875,0.028205326242630,0.060080839752044,0.445039314319941,-0.149647761241078,-0.024770749778121,0.004916814374986,-0.149305575268834,-0.052303086982046,0.077513809474687,0.120141162270824,0.207074278927836,0.070990763298081,0.151359808017794,0.231368563363268,-0.170438306510583,-0.173038064300643,-0.132350891308598,-0.032575062599906,-0.082961006743661,-0.004950275185847,-0.001960241392441,0.111208634301483,-0.115840209036778,0.241540882649210,0.340731801389279,-0.171281483879006,-0.008503215205992,-0.244221348681662,0.003726650660448,-0.075878055094067,-0.041631006791131,-0.057350330687072,0.147518347525625,0.214028411642322,-0.221778960875870,-0.002509572967998,-0.051987323094416,-0.077774996197966,-0.142848793160375,-0.001367001811538,-0.036341902131735,0.178524971376431,-0.016166227600767,0.023858161315063,0.136230952718247,0.266402592687413,0.003980973333303,-0.003957496594824,-0.069389115424214,-0.023329129553956,0.042224068618268,-0.024613362349371,-0.001690000000000,0.001801388430537,-0.000342206800901,0.089684002573345,-0.141114177488884,-0.040958203457538,-0.164773896331374,0.154471474905333,-0.128356334810302,-0.001633408823589,-0.081179507313885,-0.003675266849572,-0.032700695422109,0.020370517104387,-0.137429199240861,0.253311597482656,-0.078061309827554,0.160873402640222,0.005052628952878,-0.101015923671960,-0.002720441623709,-0.140545272309302,0.002960000000000,-0.223236823469587,0.115528486530533,0.003124166983926,0.074561685138251,0.181268099895837,-0.155164704540125,0.003718120157886,-0.004369041249976,0.117335619159201,-0.091883815496066,0.001063106355736,-0.044845089064063,-0.150023819295352,-0.200150854926604,-0.018320353611638,0.176238618512376,0.217169594306473,-0.064730555877196,-0.068013243199436,-0.000716326516265,-0.170966789073022,0.095913136418771,0.002377573375220,0.205354484877520,0.214261189710283,-0.040394990328282,0.000059595865365,0.059781567495421,-0.155609472446805,-0.016753209151907,-0.168314226740833,-0.172043283552533,0.326079553522697,-0.044814507737530,0.000109187302545,0.280031369046198,0.153291817375114,0.009697993714784,0.227221127109454,0.000833135637619,0.006793280074867,0.232380237222307,0.036467168057075,-0.093707277170375,-0.015414404864717,-0.098016962976223,0.113076586408654,-0.124975978454248,-0.003311334461935,0.123941510173866,0.019236925891726,0.022306120497615,0.081477701906202,-0.003969509087479,0.174685810524239,-0.072398073573520,-0.110877099376548,-0.025682882854589,-0.239397671549606,-0.165376234838562,0.210490161471759,0.089679718348560,-0.006164286860300,-0.218374487931100,0.019924618671030,0.095835231454632,0.018697688646020,0.106665818625179,0.044628141884021,-0.234063920755365,-0.115559659327990,0.003243791595907,0.002247036385415,-0.005113529690902,0.018849140007548,0.121930874176394,-0.055534573915948,-0.042872576735837,-0.006942483727798,-0.229869585313174,0.104838468386328,
-0.068478723418576,0.013173553816854,0.001632117581189,0.166067297104520,-0.121707714270223,0.146475688403971,0.009670555860989,0.027829870395860,-0.108021337942007,0.239462856930834,0.005884066446479,0.035434547930916,0.246480489115906,0.042731576074568,-0.094208227983955,-0.043593662901283,-0.003063674851476,-0.169616651191594,-0.099289237636629,0.118635716881232,-0.058179042524676,-0.272976427025766,-0.010456214268570,-0.047254402868575,-0.046983664242215,0.001352413624199,-0.085488141063127,0.021886831645386,0.104888605665435,0.098543278869936,0.023906263554790,-0.072437377735386,-0.021545339000934,-0.137777871685427,-0.002739315930968,0.028656165819943,0.021319994311416,0.287825621229018,0.003978458323283,0.069352181937955,-0.130777674431387,-0.190516872674460,-0.108467209129288,-0.113905528773350,0.004178047110101,0.010665950912037,0.227488587528005,-0.121252239242860,0.061125477398000,0.113461160362883,-0.002714050483929,0.091383081096040,0.162790564449529,0.000918547489469,0.186247890116994,-0.002562951508374,-0.024695318554939,-0.143578696289909,-0.064578149328470,-0.120325138802420,-0.085899682926555,0.208483428861226,-0.037863589807377,0.173623527240484,0.003965042856778,-0.002941703566883,-0.271195200188067,-0.127711042669115,-0.178127188057435,-0.188563589706760,-0.071153460230280,-0.008750155043138,-0.226485514016431,0.001664628501865,0.075685501540764,0.287451950960510,0.117558040378445,0.406296466307067,0.035764547571156,0.043066142701555,0.001355523818089,0.038568294540288,0.086793235669845,-0.131864080433548,-0.002327287123344,-0.058820219063918,-0.188800841826115,0.087319158276498,0.235959831370945,0.166578123302779,-0.095368617160446,0.039565944824535,-0.001227642235565,0.291457555981561,0.179341109037017,0.032958574376611,0.071031698346963,-0.002620000000000,0.001873878350745,-0.003097919831152,0.038789253435477,0.039860950982389,-0.072350040456558,0.219441722837748,-0.060517174577761,-0.124209423841644,0.165615228299479,-0.081502543105301,0.002728552242611,0.137419331652212,-0.022495446526801,-0.198443621776144,0.169974396047888,-0.165230750157304,-0.161376071366698,0.048901369658733,0.098441253104292,0.051617929009965,-0.197081012943259,0.000775000000000,0.325394774294150,-0.091446510060020,0.196273352132599,-0.042408250015298,-0.164014032184736,0.162901132988024,0.054564009331796,-0.005182870383436,0.064159555423888,-0.193332131147618,0.004593060323137,0.213633907802185,-0.270844392561704,0.139247724383365,0.398224226500216,0.081392073024469,-0.229017342134184,-0.149686079945943,0.301743308356765,-0.002292338206014,0.226283899321704,-0.077063150159603,-0.000231510108911,-0.179556111719527,-0.021451219154437,-0.093481940955461,-0.000342432661632,-0.075209257702843,-0.095092168955074,0.095814349631472,-0.016231854416411,0.111052532410368,-0.041985159126014,0.018975920890176,-0.004420218892220,-0.152605964526088,-0.231690492378356,-0.058391443698859,0.003745510506745,0.000847912683104,-0.031982346322145,0.125355760609580,-0.096393856528167,-0.067240212253951,-0.238609818545989,0.098383052948035,0.101573579533706,-0.006095086316639,-0.004001319263506,-0.193452356524725,-0.157881203048576,0.076003773054384,0.047853195028380,0.003709517491102,-0.063880831669896,-0.073051243851055,0.130034109398002,-0.027959420236371,-0.333975389034995,-0.045377306064791,0.063532877378680,0.117973864862189,-0.004288895935712,0.424106078043277,-0.001648462593775,-0.068998434292227,-0.032034224595860,-0.003457730729759,0.005944480444282,-0.194462880284547,-0.126655277197606,-0.004641194066244,0.029374417328582,-0.122688069398695,-0.110423536217223,0.124471368299036,-0.043579502200030,0.347436784479756,0.122805016101624,-0.015802701530218,-0.166198630733127,
-0.036902127165632,-0.033025792887961,-0.002276983473161,-0.066841607440598,-0.242157221841689,-0.035014061871736,-0.015327460189676,-0.111858509584040,0.232899478542851,0.028288916144574,-0.087347000047547,-0.071453380395162,-0.034135442230734,-0.110594967311970,0.290471225357449,-0.338180667159917,0.003470916183993,0.027544339062164,0.034384439837815,0.102221956451271,-0.090469150156298,0.281441644894537,0.017660504731981,0.065402904474014,0.103436951691822,0.002737306934147,-0.187476262550696,0.089785363910162,0.152145268435718,-0.062590224897288,0.023650017000020,-0.105334903976601,0.110935604516593,-0.044548571311721,-0.001078768588052,0.007898742776759,0.106587950307188,0.023284402779041,0.000336278377455,-0.089779287283289,0.359261936932564,0.037052973079171,0.007609933694819,0.027013594616800,0.002394691434622,-0.001608757122638,-0.138076759022383,-0.262431585413197,0.116891609426297,-0.001569028314865,0.002376356968635,0.190569777979099,0.101618466214518,-0.002704146265541,0.292728279045536,0.121520527676409,-0.086506713095793,-0.151573624507843,-0.143705625081429,-0.075843506701613,-0.053788840086163,-0.052442236301750,0.035560575954061,-0.023830424404322,0.000985018752595,-0.003164841530031,0.112452106162368,-0.015251325351493,-0.022972078140156,-0.304593511851088,-0.016230027323870,-0.009597692165815,0.017838368527293,0.002541705718165,0.333736735879562,-0.023810674976854,0.110430156432142,0.001509183412559,-0.183999001302825,-0.162112226648075,-0.002287519832245,-0.031226844603632,-0.009120789392426,-0.080065413739448,-0.004609281687726,0.070370859419428,0.180214207178390,-0.210472435029376,-0.152167641388788,0.026727869508425,-0.092992145201476,-0.015919063607570,-0.003197194069876,-0.065747234235171,-0.079948115452103,-0.143774886251360,-0.014778535481040,-0.001850000000000,0.003943905430658,0.003398451676677,0.200071537999147,0.037422135700782,0.242237909576824,-0.137076597367097,-0.004829694508761,0.057253288097315,0.100700450897908,0.001378820730669,0.001258453244114,-0.078891827425017,-0.023004220941958,-0.121908498877972,-0.111487871987028,0.109698935108437,0.122043677554853,0.021666558758221,-0.135354615138843,0.071153165241454,-0.019435826528486,-0.002795000000000,0.171754933563563,-0.137953975569861,-0.041001938285150,-0.030149794119119,0.156436602276579,0.193653808866109,-0.167909046981375,-0.003109763950461,-0.045445823679167,0.025638702848167,-0.002731902611584,-0.112811194357914,0.090939233598293,0.342076355471626,0.022541774773352,-0.179430053310951,0.295415775894980,-0.032345521039770,0.078633178483135,-0.023515101950710,-0.248254101817608,0.003539649052046,0.002563331354568,0.222952440898763,-0.254061910733925,0.004746262256517,-0.004766051357959,0.108011119567750,-0.343781226148442,0.206576577621582,0.059404069388179,0.005435057454071,-0.040176156187689,0.077373438456381,-0.001175817904568,0.057968785889238,0.062538813151640,-0.011552594661858,-0.254467165854810,-0.001423166100986,-0.008857439466367,-0.116559604713855,0.297172551091741,0.210198486000187,0.025983969495816,-0.114601240228509,0.066584069560542,0.072521902210750,-0.001346332405974,-0.057583098103274,0.265850828037432,0.005273726516244,0.078675123546015,-0.008282082267677,-0.038205381093410,0.128211194689375,0.209747625333685,-0.058135558675349,0.120452723260343,-0.124221601917538,-0.202815804350904,-0.207315692980396,0.000472937855123,-0.163362020650137,0.005710655570237,-0.186157571291819,0.063647283001833,-0.099640718193960,-0.047688156470778,0.231391634615162,0.220303901637633,0.002663780604639,0.032956297972887,-0.177970336770335,0.235315656017846,0.089815396011123,-0.064561214759558,-0.037145698223614,0.065884845803118,-0.054435333729112,0.297477179434618,
-0.036691066973763,0.004832229716500,0.004200453352842,-0.155303456553223,-0.117718169679899,-0.114114994064400,0.023721404691860,-0.048434267529737,-0.333773721213577,-0.279791952292896,-0.014767061636494,-0.033545204136307,0.105492309310034,-0.101253922033415,0.177647347482048,-0.006494042056035,-0.001859774053871,-0.050782840414423,-0.033316605643716,0.112930888557887,-0.013917597754435,-0.084427205446730,-0.002520300440487,-0.018694943086077,-0.077189471460941,-0.002034982655927,-0.038799480518224,0.137643614372624,-0.115994003590999,0.003627839802193,-0.004631757862745,-0.102250528838216,0.353448028311580,0.333625419971572,-0.003648920463530,-0.093409270594285,0.139177615628254,0.177192587242592,0.001162147567314,-0.201816302623852,-0.001572410549953,0.215763482566577,-0.153355189839458,-0.097259969914370,-0.002960424369709,-0.015374603401042,-0.082160976101426,-0.040309016689583,-0.046952799374514,0.072279818285025,0.002347253550130,0.153749712884012,0.040941940894350,-0.001111414810060,0.007766775525996,-0.002356949382250,-0.110447178144357,0.096403986334591,-0.071862922053678,-0.179910146839604,-0.003557315421981,0.082589448138262,-0.001452694672117,0.315975067434792,0.000254693430932,-0.004349240295496,0.191360465635332,-0.110550057087015,0.082677954989114,-0.018872673205357,0.159201691199561,0.007166900095718,0.285703263303960,-0.004218413282956,0.032906934820100,-0.068402972703283,-0.061677622682632,-0.101851074275994,-0.126239770372500,0.100668858819559,-0.004271718288502,0.086072450328603,0.200116466533532,0.149563330748793,0.000346793599013,-0.013135997737923,-0.043309719767385,0.157845298771893,-0.074768837031124,-0.101390094657293,-0.040415365201680,-0.020584630155681,0.000352672164032,0.176423511949301,0.071234561541865,-0.196129463992186,-0.003832341474010,-0.000275000000000,-0.004549806255667,-0.002586755387427,0.157344409727552,-0.036557970097352,0.122698465693458,-0.146359144492950,-0.010970599228336,-0.069985882483575,0.010707325810713,-0.141232765406713,0.000203734352484,-0.030143901315158,-0.020069230909490,0.400065987515928,-0.189994756656143,0.092095307934380,-0.103038879508474,-0.025772813077393,0.153157167964979,0.015447475320462,-0.269896652593884,-0.004815000000000,0.171059638374586,0.008730510173797,0.038346408283276,0.031990672123754,0.004310880245264,0.114030488449594,0.191821144214992,-0.001715070531867,-0.075569057111241,-0.111525939240620,-0.004816850445184,-0.031619388641143,0.219041456770250,0.280438127273067,0.008839541391550,0.028400648981543,-0.168193764520576,-0.156004966329803,0.065741472307013,0.031959688478053,0.252194581179477,-0.111058488472005,0.000083319900171,-0.005989328598573,-0.061196463460183,0.046231248861709,-0.000834218800245,0.118357626958355,0.053335279723157,-0.086689313671218,0.226380719323375,0.130836130014683,-0.129731418603808,0.032828411263369,0.003104199216013,0.207377228610854,0.251467102576361,-0.107054692658367,-0.206849820349553,0.002006922575937,0.001398955777197,-0.176974699569038,-0.167396213059413,0.059694604967213,-0.232900366592666,0.183649080464331,0.070888934720668,-0.013207287068008,0.003208665385959,-0.111135599250491,0.098226583012291,0.070038385645076,-0.057725584973947,-0.011154239820219,0.017295400618727,-0.053748301919331,-0.080554074208227,-0.015723968811059,0.181695863807131,-0.274210415661465,-0.105712128871652,-0.112178570003822,-0.004502327719301,0.098372340216043,0.005309721822828,-0.113847908879618,-0.039111250537721,-0.022672196500263,-0.078490240987874,0.101504133305686,0.224412544313655,0.000668780452416,0.061675501960739,-0.032059895579277,-0.144234016922776,-0.051354402060130,0.032256257393386,0.024783198505294,-0.036917842445214,0.026485098784431,0.095826779870417,
0.127301826504499,-0.015426259702608,0.001042497399401,0.128997350523920,-0.043536848628189,0.112550951703520,0.000017393953755,-0.076788748019351,0.219817200358834,0.273459621615931,-0.037316438400591,-0.051406667307577,-0.117907627288605,-0.012816287621046,-0.055702423239285,-0.224105720601127,-0.002341423475724,-0.047253670900040,0.012243650160382,-0.039410629189400,-0.067760477096996,0.080627811121618,-0.000866671654882,0.043464802823647,0.027658029951341,0.004570506488232,-0.078426908308385,-0.024201525825347,0.191116836265417,-0.003524652592238,-0.013061868836281,0.115468904510240,-0.145779217308743,-0.144413950033808,-0.002813156833376,-0.001374643787088,0.043964073892712,-0.232933465496988,0.002251239669697,0.044082898336062,0.069497077184642,-0.142432243035156,0.431969100253240,-0.013719699817524,-0.000124253340136,-0.008182040026006,-0.114380330643864,-0.013828780818096,0.176838379389557,-0.051735773319051,0.004157120796527,-0.085585472472835,0.073615822485846,-0.023523576039336,0.043830215306986,-0.057033383918701,0.075361407368578,-0.168337951444596,-0.082084991748471,0.208340239004164,-0.024008201652364,-0.037888038378704,-0.006405875732950,-0.124114211652966,-0.000345392940962,-0.003995824216827,-0.164995913452515,0.300223976714637,-0.124205019571554,-0.002716177277835,-0.082415120071116,0.006229211267236,-0.174642026443454,0.004796652372672,0.149214707155136,-0.004114049359417,0.135512454907257,0.100506190401372,-0.175602548473511,-0.086877042709124,-0.000902197962722,-0.089303502937762,-0.080245475762107,-0.050686515939559,-0.001250580720729,0.054771074268475,0.119418403602191,-0.066706374693324,-0.090577862945663,0.104361292595430,-0.065173372290562,0.062734664041517,0.004417586518958,-0.151626702049383,-0.014218865124311,-0.031131293089024,-0.023096741288855,-0.004320000000000,-0.002853446057977,0.004839024496704,-0.050403016017357,0.280213624109228,-0.079480407195227,-0.044650168150925,-0.041396331848875,0.202583394554991,-0.034407466407316,0.325022966684765,0.003124685082926,0.015466955768407,0.035992365352998,-0.221511667797514,0.164051315770037,-0.202667895251654,-0.058574653134464,0.001224826679210,-0.114208850368548,-0.013952366158795,0.322201470717625,-0.003515000000000,-0.146049631678671,-0.066243726839468,-0.098869799109663,-0.008749710082008,-0.078543240825361,-0.048133848470875,-0.079873433888268,0.005085272351900,0.047942395082294,0.017915068160717,0.002183676613571,-0.015553220406078,-0.083411090607215,-0.040108284269706,-0.118509514978860,-0.139056928394564,0.187880453678430,0.344394765640386,-0.117139482624744,-0.004358427480226,-0.157695405975303,0.093112180434475,0.002953434288602,-0.153398806778251,-0.120289871845202,-0.024523705367563,-0.001753375421253,-0.033678098821403,-0.067367015077771,0.048126194648505,-0.155010907971450,-0.097962864870866,0.000731616870605,0.017851060736797,0.003234194481915,-0.147945046855566,-0.156799678243650,0.139381867021641,0.176298373833070,-0.002920237820353,0.019295402932760,0.185454121616237,0.274963018832412,0.044705326390595,0.262079165820547,-0.252914869534943,-0.003790375597757,0.036760089543780,-0.002551333704360,0.077855229801961,-0.008851216265263,-0.027095867627053,0.028332900519000,-0.016639567790967,0.020035774626153,0.083546088888158,0.257273967557176,0.004584285928512,-0.034123572844401,0.136054813294304,-0.109547696017992,-0.132193407837815,0.003886722388877,-0.182535900412842,0.009320195994729,-0.027289592567755,0.075993336771005,-0.037741506682484,-0.039286352311425,0.009870447920458,-0.162020755309831,0.004198793435078,-0.089902891212961,-0.007696922823839,0.246220568924355,-0.154031098012742,0.001575915791853,-0.024582768827190,0.030390604735405,0.095747257632334,-0.067210998242981,
-0.339127200473993,-0.011669259430060,0.004125996665852,-0.055668212314580,0.267982787186733,0.122261993161421,0.000880804131080,-0.103084895193308,0.262181101892304,-0.000439387525795,0.057331798658988,-0.018233358380171,-0.138143357056867,-0.065992812805547,-0.145857689616278,0.358357932739898,-0.001064139072097,-0.157065816140111,0.018097214916529,-0.012234894381664,0.026517014517974,0.276180951254344,0.003982088540408,-0.032298415765562,-0.128046356646615,0.000417717069084,0.200927170257289,-0.184053251277620,-0.031010218982609,-0.048474741067263,-0.034282887980367,0.017025174097646,-0.010375324183320,-0.135821152311549,0.002062401170117,-0.093111740388972,-0.101689953472584,0.089223023588734,-0.001782925919853,0.028041634468586,0.120802926851679,0.032735336924623,-0.165126354646361,-0.107254445118015,-0.000754804780194,-0.003982851744017,-0.143442560220994,-0.187221470768671,-0.106847506468213,-0.008310184411159,-0.003462198313669,-0.113885838071743,-0.136156455175284,-0.035190308980283,-0.202171982413840,0.103430106484073,0.070781640625491,0.298225229554353,-0.095482549348189,0.062382995789716,-0.151051070534844,-0.117413010709492,0.005643630852080,-0.178192752940260,0.001474167233507,0.004448866999822,-0.017064559684869,-0.046499378026261,-0.057846717559925,-0.170511079997825,0.051513141595467,0.002476805957143,0.069681145836000,-0.002457987344414,0.024212265352843,-0.228565162066748,-0.108557456651265,-0.246856413739067,0.221484542139842,0.208646833966413,-0.001358901982280,0.107400860609425,-0.028202508328467,0.226600444564030,-0.003431916038179,-0.006450067455200,-0.077363948381540,-0.158531500078565,-0.092143511945132,-0.141928644432973,0.139923826242987,-0.043543544071791,-0.003102485440491,-0.028787947651905,-0.112669352277238,0.188928373726571,-0.007724777113482,-0.001850000000000,0.003288588366231,-0.003207204918376,-0.135144816258208,-0.142473391863161,0.062965579090135,0.128644871684425,-0.021967221288885,-0.025714961119108,-0.201193663550206,-0.150279441192149,0.004689149596095,-0.024783675084524,-0.011042718083312,0.232213959100262,-0.147687705553597,0.326799712444024,0.244791432176033,-0.014212645005857,0.179323245941675,-0.075213028883032,0.115428249082466,0.001075000000000,0.023533256503879,0.043950567306497,-0.150807160091024,0.051230723770052,-0.177630488189674,-0.197915185306129,-0.148219972907038,-0.003484132629551,-0.058338461716118,-0.126175342676772,-0.002322176138837,-0.058442462933316,-0.001941416603862,-0.231948247716788,-0.148434166307058,0.171508969253189,0.087751510499065,-0.101986794497660,-0.131260891745314,-0.011977844604720,0.173117122991184,0.045900731436606,-0.001041419764860,-0.053729381264790,-0.076940407969770,0.022289537816578,-0.000999909466109,-0.053341277363073,0.311702733550860,0.054982648414956,0.162627482065148,0.049712457582433,-0.088790875506693,-0.010924885862841,-0.002910791110705,-0.006022051148178,0.143485006464444,-0.100756250279228,0.013740675434760,0.000270711050210,-0.010084891657369,-0.064636213574053,-0.171706333681549,-0.096124154439564,0.117193745526758,0.306404308326558,-0.190328652323150,-0.085380453322588,-0.000391306786789,-0.140125553515851,0.023758960927119,-0.141829938670586,-0.064745095184735,-0.030509277853917,-0.063964860547130,-0.059976044072291,-0.184092158398539,0.078447004701423,0.111507282744914,0.160788522535197,-0.148777875359812,-0.055642160898855,-0.001190214157541,-0.059317445039328,-0.006639962536174,-0.098658575432426,-0.031761409584893,-0.026722764038488,-0.104122377516432,-0.023978915675367,0.163839705293875,-0.002534104869860,-0.193646738390165,0.025771860339398,-0.012750821371940,-0.031738248763512,-0.079869704730956,-0.074197182783976,-0.093587695281683,0.101406344938251,-0.113548291226291,
-0.041748725089287,-0.016018738137480,-0.001857713277680,0.316406343204238,-0.220355750965188,0.190866011350499,-0.006868687676212,0.204132107905928,0.295931353260460,0.380688832005145,-0.013994050562490,-0.094889017784001,0.001191274760710,-0.163876222247376,-0.078889581281807,-0.144448263415713,-0.000873500451416,-0.176407647874295,-0.083149446761176,-0.205692159215560,-0.083061705788295,0.089720799577246,-0.004479817945935,0.021202045605537,0.147730819383781,-0.003700003691105,-0.059618221347473,-0.176189734386704,0.126798316297884,0.059660979570725,0.086693375417217,-0.015144017680816,-0.170946481196672,-0.071180009579309,-0.003891665637491,-0.094800341665950,-0.113192863348668,0.022254443748516,-0.000562474001067,0.270395865355657,-0.095358959539312,-0.173855469513274,0.021100468881479,-0.162037974555876,0.004336852399778,-0.022460539654162,0.108781440345144,0.078914487960133,-0.189110911821047,-0.020400952034548,0.000126228187043,0.150074141531309,-0.127966081327923,-0.072722166918595,-0.227012607201252,-0.115908551360860,-0.093915757134553,0.078520071086166,-0.116742498428284,0.049528979924489,0.085950061603065,0.000858965038590,0.051022008078141,-0.030389130248081,0.003609535625541,-0.004765961477533,0.055298031064072,-0.072221503105609,0.000723895181067,0.132434846290703,-0.015405077424186,0.000461575336211,-0.055439811874876,-0.003543743590739,-0.179491132309417,0.259813525981042,-0.050638290069546,-0.053314684814925,0.055259890991256,-0.009343688010259,-0.003524720543397,-0.112209139889634,0.042399849915816,0.019782540032513,-0.004250567463632,0.045647696511535,0.035520410656765,-0.023700532998732,0.074006405399067,0.170785181859068,-0.110229124666470,-0.005223419342035,-0.001192484912230,0.005791864631071,-0.059220451588315,0.299537073433040,0.015460980353878,0.002990000000000,-0.000111219484224,-0.001362499377300,-0.126869262374382,0.085430229725529,-0.043119314578326,0.223314938196578,-0.000399018198889,-0.020179972654344,-0.198358655318193,-0.114574601696090,0.004914635038018,0.152443384132710,-0.017459861300959,-0.172680179931878,-0.233513765038785,0.297280261158246,-0.041209614627473,0.049577738235833,-0.211938361584265,-0.064726766921588,0.046147459507343,-0.002800000000000,-0.021686670794536,-0.113685219990633,0.051802233370122,-0.035393021009691,-0.034077460262681,0.014055356152574,-0.020733824019875,0.000366441235739,-0.103753099493267,-0.049280913813520,-0.002797022140420,-0.024346870310139,0.124371115326065,-0.189222453939173,0.075678463643959,-0.089794855853753,-0.115840845207256,0.075075169713124,0.036341497013116,0.007172628571707,-0.078583851409956,0.027181541311732,-0.003557015256889,0.198557647196186,-0.182017422760380,0.032758392562142,0.000748569715628,-0.053469395719901,-0.062961783889859,0.234326422506207,0.096835955700167,0.073216036694813,-0.173313917981492,-0.067959037297827,0.003414164324153,-0.005901098695451,-0.378374030529533,-0.089340848928059,0.083242915973645,0.001917989064592,0.022271569108313,0.067099248898551,0.033459606170651,-0.039936814740708,0.201604984805664,0.059578674123399,-0.192735482282965,0.067870961221946,0.001093616471343,0.124874114915118,-0.019801476892484,-0.107716469784669,-0.051289532090477,0.037402312302128,0.027112092032083,-0.009794255963046,-0.012684601083091,0.036442405076144,0.060796399784554,0.574081512537211,0.037538046841930,0.071392290565849,0.001651900800280,0.262499484184743,-0.016780659393093,-0.129503378758687,-0.024842513777062,-0.052796293476828,-0.066954136948392,-0.148020823264830,0.152534118291206,0.000203785591616,-0.084448388861881,-0.032096969098341,-0.037530665349199,0.162665873047495,0.087991818101527,-0.048967078689864,0.022837418171491,-0.187047060343489,0.02346870077534