-0.051700877002584,-0.027100000000000,-0.033450000000000,-0.025957801933384,0.007147805266293,0.035334381079770,0.023549748277538,0.017115482870610,-0.002634517129390,-0.027484517129390,0.036114958658926,-0.041054190215904,0.015938763141731,-0.006781157465299,0.050189995228192,-0.023403651231816,0.000580939380025,0.046850000000000,-0.008750000000000,0.021700000000000,-0.031250000000000,-0.020150000000000,0.045050000000000,-0.043337531202942,-0.036844708619900,-0.033076471521010,0.018433074758308,-0.016756225133945,0.033140178494747,0.041497574533418,0.019698657884017,0.033515894360079,-0.012963236007069,0.026724886543113,0.044894594661185,0.047111304943449,0.035016583613190,-0.035700000000000,0.001350000000000,0.044500000000000,-0.015550000000000,0.040000000000000,0.015350000000000,-0.035485909297671,0.031116951202759,-0.019807280693458,0.004531976452413,0.032611689319273,-0.041925236391161,-0.010860456790182,0.023290170464328,0.028122978362594,-0.020404968353340,-0.015245500727925,-0.049133133332838,-0.006390548055035,-0.012017542363060,0.036850000000000,0.025800000000000,-0.011100000000000,-0.034500000000000,0.001700000000000,-0.041050000000000,0.040575844789689,-0.036894165019559,-0.047568897631891,-0.001581276184598,-0.007530335041578,0.008297741005358,-0.022602258994642,0.017943867360034,0.035141595232393,0.038797715564621,-0.018991572043018,-0.034477882174337,0.016691852435941,0.001409785767169,0.004300000000000,-0.030950000000000,0.027350000000000,0.031000000000000,-0.019150000000000,-0.046400000000000,0.047135485532930,-0.012732900661632,0.038043573213407,-0.005791550444570,0.015786743292765,0.044988824743420,-0.038041764228575,-0.004885892631964,-0.030616534146578,-0.022772990806929,0.012381846547377,0.023941036047766,0.024597879364089,-0.043225743308724,-0.046021152693491,-0.004100000000000,-0.023350000000000,-0.008450000000000,0.005000000000000,-0.018150000000000,0.033094681993042,-0.015887398783848,0.041934691304590,0.044399631219577,-0.039398052218125,0.030640512446118,-0.031706356633442,0.000836957442392,-0.014182022737708,-0.007022864581249,-0.000410304464749,-0.039680941422284,0.039387704339401,-0.011307567889748,0.028116930049039,0.004750000000000,-0.024800000000000,0.048750000000000,0.014200000000000,0.007850000000000,-0.018104499509000,-0.033463989402442,-0.015675846258760,0.025894429206855,0.023993848481893,-0.048839938032697,-0.047784517129390,0.017274762454487,0.007002845953897,-0.004335384433787,0.031753701956721,0.044789292774563,0.018885125746922,0.004194931431260,-0.041388999342086,0.049950000000000,0.016600000000000,0.022500000000000,-0.035950000000000,0.037000000000000,-0.031747176578824,-0.003865486712916,-0.008422138509659,-0.044643552857217,0.034980023332506,-0.040325697711252,-0.021474767731848,-0.029021601544207,-0.003474308544731,0.023415233035724,-0.002575649169722,-0.033193518104592,0.004146541055248,-0.005404189639823,-0.021438999342086,-0.012350000000000,0.032750000000000,0.020100000000000,-0.032200000000000,0.030585320189888,-0.025290795961860,0.023923946034663,-0.030752641134122,0.025504593366227,-0.050451994369847,0.028437157917992,-0.033638388088450,-0.034139587119818,-0.008143275409361,0.016075456208711,-0.002923063129531,-0.024551041784670,-0.053384669008196,0.016344499144088,0.009211000657914,0.032950000000000,-0.026400000000000,-0.036150000000000,-0.013400000000000,-0.047236681057443,0.048250933412860,-0.032112976871006,0.042272528663315,-0.007833698066138,0.037192679372988,-0.044839673906266,-0.026353468205606,0.037281306564180,-0.005264862778986,-0.020961710959631,-0.030771111002601,0.033796334399195,-0.031878772429146,-0.035255500855912,-0.019488999342086,-0.009900000000000,0.025500000000000,-0.034900000000000,0.030650000000000,-0.003574907660814,0.020446982257021,-0.022380989468684,0.009900278129792,-0.025352582866781,0.027294370172498,-0.010056530440014,-0.035253258742615,-0.038244981479103,0.000906614247968,0.038394403109737,-0.026464048167682,-0.007374209707036,-0.017562984898339,0.009354790015013,-0.026373776039719,0.004600000000000,-0.033200000000000,-0.024600000000000,0.029350000000000,0.015125092339186,0.023344378081036,0.021325196537057,0.009517330149247,0.023106513145866,-0.018448959014570,-0.020781993919011,0.040123212981432,-0.008909250450107,0.011997658278886,0.023459531527891,-0.017052085588634,0.043348079918879,0.005337015101661,-0.027136275343201,0.030544070608876,-0.023550000000000,-0.035700000000000,-0.048250000000000,-0.041650000000000,-0.040195926212380,0.033232280333708,0.048210840770222,-0.040167905606935,0.041288096576883,-0.004508406049798,0.008945534468719,0.026696068012997,-0.038334145081655,-0.019679803933467,-0.041145235934592,-0.054191543975284,-0.039206275577368,-0.020095863148388,-0.032715571052568,-0.005800000000000,-0.006700000000000,-0.029050000000000,0.042750000000000,-0.043400000000000,0.043824390866593,0.022840908977152,0.044858344266293,0.049848935850088,-0.033121338014183,-0.016321737671560,-0.047555965812368,0.036355320462248,0.029803262321369,-0.027457615798792,0.041959129213845,-0.034559958849073,0.002548194116505,-0.015272045446214,-0.019742075744804,-0.024208774717814,-0.000008774717814,-0.006858774717814,0.042948404854617,-0.015950000000000,0.022063893384308,0.041588559467372,0.014253089392687,-0.027582129696771,0.001586877439580,-0.019874037401150,-0.041469628104046,-0.035071256010173,0.005794996346353,0.019403983430811,-0.021964646825874,0.033910763161371,0.040761372547663,-0.003430904171810,-0.041310085933904,-0.042008774717814,0.035791225282186,0.009391225282186,0.048691225282186,0.015700000000000,-0.030288017373290,-0.013705502144057,0.022141346147594,-0.023321587859576,0.020669845356109,-0.023905752269595,0.020970785312451,0.024490307211888,-0.043308518563080,-0.047603868451852,0.033352405679330,0.035382710527831,-0.043738302482875,-0.029237201704649,-0.036108774717814,0.049541225282186,-0.015708774717814,-0.023508774717814,-0.022758774717814,0.021450000000000,0.042929988867019,-0.002811271137791,-0.040495027364337,0.008257633962595,0.013471299361634,-0.031028700638366,-0.037728700638366,-0.046478700638366,-0.027528700638366,-0.037702292513578,-0.029353717122039,0.033004798202935,-0.047336546450142,0.033190720034407,0.015050000000000,-0.016950000000000,0.039200000000000,-0.036989423396618,-0.034108774717814,-0.032850000000000,0.008558866983146,-0.047739549085392,-0.004321178422653,-0.010153469898778,0.040707245087052,-0.004278901798202,-0.035478901798202,0.036245899513281,-0.035328607208018,0.026440725880368,0.030325250725330,0.045650054776941,-0.028248836081463,-0.044324427730149,0.009250000000000,-0.039400000000000,0.006300000000000,-0.042000000000000,0.026650000000000,-0.028000000000000,0.008400000000000,-0.026879850178417,-0.047974907660814,0.032575092339186,-0.035939549085392,-0.028618526904868,0.012307070720836,-0.049252690228882,-0.043110245491888,0.023961546457232,-0.013701662808689,-0.019673922852827,0.007439505298819,-0.035373829611022,-0.026400000000000,-0.049600000000000,-0.041650000000000,-0.049450000000000,-0.011100000000000,0.045050000000000,0.047500000000000,0.019403924465543,-0.040072001247331,0.031325092339186,-0.026674907660814,-0.029274907660814,0.015625092339186,0.040725092339186,0.016125092339186,0.042953587962404,-0.032495023582449,-0.042887718541907,0.041400000000000,-0.047200000000000,0.024200000000000,-0.035850000000000,0.025750000000000,-0.041350000000000,0.038250000000000,
-0.038700327429655,0.038150000000000,-0.016650000000000,0.009200000000000,0.048950000000000,0.005050000000000,-0.026200000000000,0.009950000000000,0.031200000000000,-0.010000000000000,-0.045150000000000,-0.024400000000000,-0.018800000000000,0.027150000000000,0.046200000000000,0.000900000000000,0.047900000000000,0.002750000000000,-0.041300000000000,-0.000600000000000,0.020950000000000,0.024850000000000,0.029000000000000,-0.014300000000000,0.000901492338457,-0.026409554255460,-0.043709554255460,0.010351492338457,0.013456338330979,0.002741240149674,0.044746374323637,0.008900000000000,-0.032200000000000,-0.029900000000000,-0.002050000000000,-0.036850000000000,0.007800000000000,-0.038250000000000,-0.009100000000000,0.035100000000000,0.037400000000000,-0.005650000000000,-0.016750000000000,0.013722450033328,-0.023725723475975,-0.043968064545412,0.033409488442839,-0.015439096725014,0.032408397282525,-0.048041602717475,-0.043065139194654,-0.021748743641651,0.034347221400276,-0.017581340692248,-0.035550000000000,0.018150000000000,-0.027250000000000,-0.016200000000000,-0.020900000000000,0.042000000000000,0.023600000000000,0.000900000000000,-0.027727830846880,0.004686272627877,0.006243099083966,-0.010992745180480,-0.046416592698811,0.002390184328773,0.046459469038109,0.001028849185161,-0.011314486190505,-0.043252585516745,-0.035538511529170,0.027811488470830,-0.040209637470017,-0.049058392114098,-0.013662129978113,0.007067821764775,0.004540445744540,0.043601492338457,0.003900000000000,0.027550000000000,0.023565314933006,0.027343099083966,-0.027499241985472,-0.020086389316411,0.030129503941684,0.030107936972858,0.044321651742115,0.019166421930142,-0.026811015792173,-0.008405066025565,-0.005435677900741,-0.047035677900741,-0.023985677900741,0.033710434597469,0.009896048346674,-0.042960733038566,-0.026074004159714,0.012303318829154,-0.037200000000000,-0.040311380746158,-0.045269806977179,0.000593099083966,-0.034818955451391,-0.000865171122197,-0.013724009811319,-0.031168674770778,0.025181325229222,0.003718618925361,0.021976586633312,0.035281868118523,-0.007399055723281,-0.044535677900741,0.034464322099259,-0.006285677900741,-0.011278676746008,-0.019953705173896,0.038684950181486,-0.006298173509303,0.035250000000000,-0.003388596560589,0.027574276524025,-0.033103859938672,-0.000452592447908,0.022926480133443,0.009238226145256,-0.048450614532223,-0.029438565121868,-0.037100860140824,-0.014866554496395,0.014833445503605,-0.036247166371571,-0.028484085831412,0.003190003529492,0.003040003529492,-0.007948813365512,0.038010816933816,-0.008991045658799,-0.027350000000000,-0.029150000000000,-0.001575723475975,0.017376558328787,0.017313941084541,-0.023578711447842,0.004122588074091,-0.016261773854744,-0.009206002343262,-0.033393038803640,-0.046719388124825,0.016630611875175,-0.009469388124825,-0.025971696426866,-0.022412830098937,0.010537169901063,0.031587169901063,0.017768822559940,-0.023900000000000,0.017550000000000,0.016150000000000,0.013000000000000,0.041974276524026,0.016181440172754,-0.006532743691113,0.000919462061461,0.029557614270081,-0.044985261450573,-0.015650042182589,-0.016001481559005,0.028830611875175,-0.048674654925789,-0.029452098808690,-0.043873393069361,-0.038862830098937,-0.021562830098937,-0.021970926436266,-0.003529638405683,-0.035750000000000,0.042050000000000,-0.047650000000000,-0.002300000000000,0.028224276524025,0.035995228691785,-0.018165049032866,-0.002490092193999,0.021435946682416,-0.032388474236324,-0.024265932827412,-0.001706821665799,-0.019542569208559,-0.026445238397895,-0.004990897749156,0.031787169901063,-0.046612830098937,-0.007896379998214,-0.016199050833138,-0.003336622177460,-0.038900000000000,-0.043450000000000,0.037150000000000,-0.024600000000000,-0.014396681170846,-0.041212980740053,0.022216747844031,0.040100193344736,0.009962662883138,0.041700713354047,0.030047934754323,0.044719060695169,0.008499672570345,0.036999672570345,0.039624907936407,0.017159553579100,-0.037323711095148,-0.015212830098937,-0.040377741165283,-0.013388473178466,0.031913377822540,-0.023950000000000,0.027700000000000,0.049650000000000,-0.041885634576929,0.035651490876020,-0.001568029227884,-0.022698320154869,0.042847386238472,-0.035260335993053,-0.030695619851773,-0.019580939304831,0.040899672570345,-0.009250327429655,0.005338347437924,0.019664322099259,0.026872100050506,-0.008248299464494,-0.029822384354397,-0.016961337760480,0.037866977349506,-0.028255266800964,-0.035900000000000,-0.016650000000000,-0.048250000000000,0.017404738595910,-0.004324303709218,-0.045564818287959,-0.010438044924066,-0.020509702479140,-0.000622767823794,-0.005491733618358,-0.045482748534763,-0.017323132854619,0.006536592030186,0.037645974758136,-0.051854025241864,-0.029028072189292,-0.017821119145138,0.003440488730217,0.024687169901063,-0.020484905206646,0.048900000000000,0.006900000000000,0.017200000000000,0.017204738595910,-0.015945261404090,-0.011831105668536,-0.048499957954258,0.012504746609012,-0.033250000000000,-0.011452773278531,0.011135350471085,0.031857826227170,0.012734816505387,-0.044331999070823,-0.029022847801804,0.038009128943308,0.035692453302772,-0.021278292260473,0.013687765677141,0.049868822559940,0.027050000000000,0.027100000000000,0.027450000000000,0.032554738595910,-0.024845261404090,0.028154780641652,-0.044611338700416,0.010406657010796,0.039579704741437,0.009651195110536,-0.018664649528915,-0.044507193995742,-0.038914568916104,-0.017625120082441,-0.042432819729717,0.045731892643845,0.037956781765814,0.028292247269375,0.018276414742642,0.037665047457068,-0.016550000000000,-0.029250000000000,-0.049350000000000,-0.043945261404090,-0.044545261404090,-0.009555784448611,0.023663231420067,-0.003796758769054,-0.036444999234630,0.042400984616191,-0.020230225012235,-0.024054619971658,0.009602391115118,-0.018962130560554,0.032364454078338,-0.035255066025566,-0.002343218234186,-0.043718826873818,0.023196799762811,-0.038450000000000,-0.042100000000000,0.026500000000000,0.030800000000000,-0.002956586536511,0.031126602133213,-0.014334035379805,0.040144007049766,0.011684991150535,-0.012192676369735,0.009584086642102,-0.001431488650455,0.025468227387759,-0.038103672042145,0.017494933974435,0.001044933974435,0.008744933974435,0.026215776333364,0.030735633708521,-0.001405626103879,0.042800000000000,-0.004900000000000,0.003500000000000,0.026750000000000,-0.014180123013689,0.028122800778089,-0.015702849170807,0.038557068649970,0.012231712408420,-0.024772992154851,0.047598453363258,-0.037554672959166,0.043725647231680,-0.010000588967086,-0.026709767261644,0.008395499539319,0.022047190794890,-0.036319044577437,0.042330479896096,0.029850000000000,-0.034550000000000,0.006100000000000,-0.027000000000000,0.006950000000000,0.003750000000000,-0.022062757823221,0.038652671789319,0.045359812932696,0.005401508951144,-0.028627880554052,0.026444344720871,0.028573468088771,-0.004636873322035,-0.052141842840617,0.025602875674171,-0.050856802089345,0.025457482925549,0.016697127260229,-0.045650000000000,-0.002900000000000,-0.018450000000000,-0.030100000000000,-0.027500000000000,0.002350000000000,-0.016050000000000,0.029019772562171,0.016042016694613,-0.020407983305387,-0.048942970501330,0.009030168903234,0.036380168903234,0.045480168903234,-0.007619831096766,-0.044000675405874,-0.015525348495855,0.047300000000000,-0.008150000000000,0.021000000000000,0.030400000000000,-0.012600000000000,0.002700000000000,-0.023300000000000,-0.011350000000000,
-0.063236273040392,-0.039176903088448,0.010067023963190,0.002947081168483,0.044089594541481,0.038525087447883,0.024651406418021,0.055794043967738,0.072446371858444,0.046892012968861,-0.004131098928093,0.022585117815094,0.028437764818297,0.022080364277619,0.028589667709005,-0.013609623060714,0.019409509241164,-0.000683187750169,-0.033655502145676,-0.000700000000000,-0.023100000000000,0.025636602591229,-0.018226505749867,0.025752254374977,0.048753571806751,0.031750007713378,-0.025382571683278,0.069709846187967,-0.000456570138462,0.075252251692968,0.111916281384812,0.057026203414933,0.001981142049143,-0.008854194698681,-0.029183115529100,-0.030730741584443,-0.032692270605446,-0.016579446110856,-0.020846034861675,0.039551696894177,0.018300000000000,-0.043610119050601,-0.016042646230967,-0.054368740606409,-0.024706858400774,0.020797658950300,0.002931491451796,0.067839852012144,-0.010152025122315,0.022561472399091,0.096553671139298,0.031905844635345,0.012995882406179,0.027531107751408,0.017836181695031,-0.001347489686975,-0.054381270769812,0.023233923318891,-0.030310327846411,-0.055992720438358,-0.020622952215605,-0.035374530893040,0.041570369159456,0.027537412003260,0.030533780978490,0.042525950836663,0.010468077468529,-0.029503345664928,0.031695402916669,0.037438602008192,-0.031822875375656,0.015854047982534,-0.022086058063119,0.050735623056056,-0.027434200043556,-0.041614091407663,-0.061317662625176,-0.067393019890051,-0.058100963604842,-0.003981827952084,-0.040944336759809,-0.034042699969397,0.017874296675631,-0.032862795975862,0.035860312512132,0.030977698914931,0.027167730583852,0.001446442156705,-0.029183022465056,-0.046503312914581,0.006981655410985,0.026485379653629,0.067602117761983,0.080444033201639,0.060370873197141,-0.028571960886551,-0.024532858710442,0.005994781457625,-0.030933376663471,-0.008743762674340,0.003740485080990,0.040348747115040,-0.001688081177589,-0.002430246671169,0.081155291364120,0.050470491734777,0.078658202941967,0.020110433797372,0.046647060146190,-0.043258099429597,-0.000827174588547,-0.003829009638461,0.077886438536721,0.076179285958965,0.064035367196070,0.014552213758138,-0.035616843556365,-0.042393497841910,-0.014992701286681,0.010433557705823,-0.020553272528217,0.041190039027525,0.004500252946257,0.087174288501820,0.059186804342173,0.017237173763465,0.039551294729084,-0.009332302867672,0.014874238821997,0.100188861784142,0.083782105352034,0.031590878813954,0.103711819051445,0.067950974055186,0.020442838022666,-0.012557104995982,-0.049819697225195,-0.029004301806539,0.055004380052612,-0.037059989792861,0.004776151756356,-0.028779984853305,-0.005765397584329,0.066588911271607,0.014951169462647,0.030102208041213,-0.032637560391415,0.042177410774259,-0.014851233052006,0.089787202012482,-0.020463797324927,0.046005688617064,0.037321152014613,0.021410733130049,-0.023622231699041,0.035604793566974,0.046904871331403,-0.031221432568347,-0.049178913940192,0.033931083179130,0.004759765542077,0.058495903934757,0.011716249208870,-0.001384582773479,0.074776388277819,-0.017066874183796,0.050103602504365,0.007127521409696,-0.015003835961668,-0.020196083542335,0.027875673733261,0.088667141105700,0.095378976731907,0.056614216967669,-0.035930134541793,0.011834392626164,-0.018430381091951,-0.001644680821006,-0.007040028182904,0.047367940002512,0.051225203007581,0.022892525096312,0.023764939207430,0.001266154211502,-0.027632485135083,0.017769758600898,-0.009767441989268,0.025138338539013,0.084056957909578,0.071235044940622,0.049129700939158,0.051746953230515,0.088052264363607,0.009583490153000,0.001701277141920,-0.060368379999357,-0.049038378108594,-0.044346133833037,-0.022051762618797,0.037277999653819,-0.007663505051328,0.063795702880101,0.033152560571602,-0.020010195686474,-0.024765695453008,0.003069613543311,0.048393585265928,0.059289151137903,0.002965274048123,0.040780203561671,0.078769743473516,0.092321994782696,0.057219724451096,0.029080641497358,-0.057290164415500,0.013622374768381,-0.016624265118653,-0.055788001817883,0.020585371265260,-0.017048306593251,0.054297926265123,0.059728125567564,0.024318877505965,0.058607562696500,-0.030814337288864,0.040041954560314,0.004034889896051,0.088958090651855,0.044282975157795,0.049555064039156,0.086627915862351,0.078340072384612,0.067369404165445,-0.039211954969797,0.004367769731453,-0.001264820311038,0.012913769857021,-0.020314640765557,-0.025314479133444,0.011345021519496,-0.033334857642174,0.043740737562870,-0.029061813991057,0.013092787989654,0.044933475436001,0.005008676055369,0.018024033561508,0.055730949936487,0.020479503459536,-0.020023820617072,0.037362830169748,0.025204657190178,-0.045502291093085,-0.067634388863665,-0.053212402796074,0.027132249741874,-0.015110625533790,0.045400849924377,0.004842926472762,0.016839003418843,0.025332493652235,0.037482206320846,-0.030770212981510,-0.024747858027480,0.042893947530251,-0.000672086371042,0.038247693594918,-0.026345894189869,-0.036657836748973,-0.007867573383730,0.013249678641644,-0.057499044330841,-0.096813565179548,-0.071458526260628,-0.026410016700424,-0.040636444483968,-0.005383547692386,0.038038290430564,-0.017208388317149,0.034269827026687,-0.012743337369341,-0.006539110072847,-0.042297114299853,0.036413396976218,-0.019675795991576,-0.040392236387895,-0.022746072076487,-0.045769072679579,-0.101225557321828,-0.079549540604304,0.005947401819660,-0.081526560928330,-0.104052193645843,-0.082410856893359,-0.059206755681849,0.008876619238856,-0.061824473949368,-0.053422907283703,0.018695539816162,0.048349569083777,0.042251306174622,0.042791471514681,-0.017132741353616,-0.050344560063651,-0.052327202188600,-0.039033829042455,-0.078747987160733,-0.107916512399087,-0.129648078676115,-0.088899643155883,-0.032446613757793,-0.052820388348362,-0.064793822199071,-0.019590545926335,-0.033080697872370,-0.019941599506682,-0.050714967845160,0.030258307883501,-0.023310922649937,0.010750893427691,-0.013189062345144,-0.002827008599630,0.002637033871503,0.019893135342085,-0.026360979933830,0.021496562345648,-0.039968624292273,-0.083797856607302,-0.055973056159111,-0.069482043712108,-0.006413445967432,-0.073436452250670,-0.049383352488706,-0.052890949925059,-0.015401823025864,0.023660911024007,0.020227029114607,-0.000334148409404,-0.038483531038550,-0.021252536068209,-0.021176829927249,0.023571953268357,-0.034758105369547,0.032486652861898,-0.037404931100858,-0.036321111124032,-0.030398889051229,-0.059055778986124,-0.032512913564830,-0.063491182304758,-0.037876930229857,-0.001825200849102,-0.060155105113924,0.028442184637804,0.008166651637446,-0.016859719725351,0.026184812069526,0.052593206527839,0.009229245559085,-0.022671142479075,0.017887710860072,0.050039053408522,-0.033272012167530,-0.034174857640901,-0.031186252855212,0.040759596779943,0.017190125439576,-0.056517614284915,-0.026219142534582,0.012197553831016,0.026163638890121,-0.018266812535499,-0.032409158438500,-0.040570363873047,0.071088537097449,0.064957987477347,-0.031487762216224,0.030580919159915,-0.036626166833376,-0.017203355606608,0.009337710860072,-0.007015834978364,-0.001374040034644,-0.023657478166560,0.039940197402235,-0.033944486372096,-0.026766487229213,0.019741579053203,0.030270706272629,0.054212075119918,-0.007894034556569,0.042583169187947,0.032379437951290,-0.009795434743883,0.025206405563507,0.018132929591564,-0.005684012286992,-0.046700000000000,0.025150000000000,-0.035750000000000,0.034300000000000,
-0.043746603043144,0.030004673041410,0.011278213143836,0.014871402110884,0.059891965279739,0.037464080785750,-0.017910161219144,0.001929980032752,0.053925421473532,-0.009062303682097,-0.012554163826229,0.003081248219484,-0.000181782762875,-0.000539491389744,0.028171705695907,-0.045282626841177,0.014062819910274,0.019193220972778,0.034492615067991,-0.007528781026163,0.018200000000000,-0.002347507325476,-0.030476380379444,-0.015210220205002,-0.006928720073051,0.036201330266913,0.034763301492838,-0.001422059667330,0.073489305689973,0.087093992330895,0.092522764666544,0.064210131792630,-0.028760902381883,0.039794233498585,0.055850979899739,-0.034515463453539,-0.009624543576647,-0.020666375298157,0.001982685514847,0.034754170598285,0.023145786016152,0.026243600595452,0.057858722931199,0.051770499953214,0.073538993011471,0.016387322682819,0.010429659481206,0.099235187203816,0.055115778997058,0.079520426569683,-0.002999850945385,0.019195626134417,0.014041491152214,-0.050765867784506,-0.012139554145396,0.028039616330598,-0.022867166529095,-0.042199774600967,-0.018243649581793,0.016715951052487,0.040619137878502,0.048176254816309,-0.011292766704507,-0.002237140583392,0.029234195069648,0.087932258219989,0.065896652255816,0.013927537436461,-0.009326525224347,0.034428131701724,-0.020527137294618,-0.009532574238654,0.007664817432766,-0.006503693256735,0.039019111107655,-0.076268033221270,-0.033677088075674,-0.007422038771984,0.001656557672315,-0.042546526282976,0.045265260315456,0.032716021614425,0.010696021561835,-0.005771083541814,0.011015410573919,0.073457616282740,0.069391833585863,0.044286934922592,0.028131606234255,0.024067767122531,-0.036180643963980,-0.022749748688417,0.044316526235029,-0.036613739200726,0.042970194203096,-0.036206970136643,0.020191033406478,-0.002819317324155,0.047550013219398,-0.012351333832527,0.030902582344373,-0.008220804856812,0.011923094168929,0.051773642961027,0.038152147417119,-0.001538366605094,-0.016638641739359,-0.051926236490518,-0.050134941932715,-0.049477675721612,0.001675141705606,-0.035377529041963,0.005162823032423,0.040575441496343,-0.023277930337974,0.024458257626550,-0.036075045838235,0.006880229694983,0.030674932207497,0.045695455447206,-0.011144240464889,0.026873475036348,-0.038855654011986,0.047163214389246,0.031986896712588,-0.052171081630791,0.004303563137093,-0.034029574246603,-0.014510948380999,-0.000170122480948,0.002055981112343,0.037310871495429,0.085129319523280,0.082905515676914,0.021556033452773,-0.012408494601350,0.045422380112905,-0.000323553096602,0.017184654335551,-0.031873225298756,-0.042450844397145,-0.042639865991845,-0.031178478354805,-0.056340030066747,-0.075338506559716,-0.095783632540892,-0.019562613494886,-0.058520223738305,0.004341018005747,0.084227115594972,0.083782118417921,0.068494131168980,0.022078280630486,0.068455650549355,-0.008189757075629,0.031609437381694,0.061193867111797,0.062869809280062,0.040105608497702,-0.006820105733707,-0.017399692297134,-0.034553004605315,-0.014624858083340,-0.059691062573736,-0.006262439471633,-0.061729595302286,-0.006474031580657,-0.015242983384150,0.020681899208046,0.035873574316257,0.104752397252499,0.046097204557271,-0.023741620482613,-0.021668216915658,-0.010722295842440,-0.010996705775156,0.010504508244297,-0.031108529860698,-0.002376123399744,-0.011657885687934,-0.037208903931075,0.011769834502546,-0.001753968979119,-0.072339067366763,-0.105906212359581,0.004484350056330,0.005632582121369,0.047504464823738,-0.018832066768225,0.029387225370957,-0.032336642762599,-0.015378503171092,-0.021490286642877,-0.058454072080851,0.042323088522333,0.006713106821164,0.059616708020532,0.054994819485079,0.032892186178904,0.039773577220542,0.043839023689006,0.041682425137131,0.016215018147323,0.011868223095688,-0.001611594876278,0.005622229052290,0.067501778591444,0.012999666085540,0.010326034867356,0.009362114463672,-0.006443588898962,0.000211536212385,-0.013957198424159,-0.004209922370089,0.020614248673308,0.025326280276032,0.048404388762312,-0.034981989978740,-0.007214056203808,-0.042726104401614,-0.045639300228934,0.052716120900530,-0.005585748669895,0.033699245912441,0.036970882154674,-0.004280620311166,0.031071848639515,0.072414994206180,0.005948160989374,0.005013078975801,0.005502978254888,0.013240109886534,-0.005743862313364,0.037545781212302,-0.034735632259907,0.010422473588280,0.000002650096545,0.031662908160393,0.027522690660213,-0.005446493172625,-0.023725906425840,-0.009368106342186,0.051965095374948,0.050779004583610,-0.004924848343502,0.003266783029588,0.045923004192940,0.039324549505394,0.033312387062274,-0.025795206137581,-0.008289706558814,-0.034069574975844,-0.015807680968280,0.054906120750616,-0.009422540333650,0.007041501500131,0.033639856527150,0.019692170241394,0.038255313112924,0.028664061169255,-0.000764092353651,0.003201156784794,0.023992572246850,-0.024293773004334,-0.003499859763244,0.069569631482890,0.071936961563623,0.051541553062456,-0.009763142867412,-0.040086728734853,-0.070073717310264,-0.001175463879567,-0.004010541826321,-0.001344943270086,-0.027120365341449,-0.038557183807625,0.028377332028767,0.000113059550426,0.020646050340863,-0.027563794238398,0.001009322845478,0.055795835490033,-0.023178070591896,0.004035282237678,0.004376154093296,0.037641358377016,0.001565259449475,-0.040677796560464,-0.071835967134801,0.009351713127695,-0.028416431945363,-0.017338285181693,-0.017847271813062,0.006009106456957,-0.015482345110770,0.004822426163419,-0.011101184644501,0.036226694007174,0.064027028027263,0.027622199750600,-0.011886415213007,0.010179142594098,0.016685718040471,0.023881547091727,0.021188992348680,0.050324727826122,0.022353742850894,0.005635639537964,-0.044282313510813,-0.087297716178927,-0.027650078734558,-0.010487819752600,-0.019505856735479,-0.062400727058604,-0.041569579906282,0.004333537141360,0.030691297380858,0.008439106736951,-0.002780192957624,-0.030479615329028,-0.005063514490448,0.024348449294527,0.045282137322848,0.074257385901894,-0.004591679001774,0.041688941701996,0.012185470320736,0.021408236167337,0.040535244568616,0.038617087365589,-0.029966517738048,0.021740169888990,-0.015245958248351,0.002936010274523,-0.025950555797460,-0.054486045312580,0.039238409358739,-0.037165434069278,0.008242784254699,-0.008487701251432,-0.017925372148625,0.048477178310204,0.002811823993246,0.073166598300326,0.067190659146216,0.032163789108700,0.053056452317364,-0.021970634864499,0.014565299320114,0.042178611751699,0.020125051584621,-0.036263862104270,0.003156050480840,-0.016868473570495,0.040442117288747,-0.000872921296032,-0.009208055939576,0.040845599621879,0.004928867220415,-0.038392382788437,-0.030346806189504,0.035749356033144,-0.018907118879626,-0.006196959848266,0.066688430803405,0.070561249965908,0.051008146194535,0.045963651810436,0.015102254757050,-0.015573432217404,0.000591429916266,0.013555253368933,0.036339506110129,-0.013645099696993,-0.003592450617813,-0.016127952186236,-0.044180982387931,-0.033394218936896,-0.019936715638665,0.024872184501622,0.008538344156945,-0.036533861329577,0.000470489692840,0.008618670526575,-0.029067553135150,-0.032715767608016,-0.027697715816870,0.024342294242822,0.022077092144042,-0.001113225310390,0.031947694939300,-0.008745846597818,0.006825590956339,-0.005066842050618,-0.046340244251030,-0.020913332159160,0.046622647250409,-0.027800000000000,-0.041500000000000,0.048050000000000,0.024150000000000,
-0.009495960411668,-0.042611105090003,0.016976718228792,0.043797972148666,-0.038524969713238,0.015614761623502,0.001048816953572,0.021435344860581,-0.005357410761086,-0.032637627648437,-0.023937534382279,-0.004707605595926,0.040752046677294,0.032248986945148,0.010791596958404,-0.042609667636575,-0.016687296150179,-0.026809237938450,-0.033429276286089,-0.022812254884091,0.016800000000000,0.022185204502908,-0.039428820581445,0.033434559267600,-0.034518713512265,0.041975797248875,-0.041302131507304,-0.034665755720519,0.029431768599892,-0.023169424982105,0.027704435433513,-0.042972325213773,0.033958287954260,-0.005589467506541,0.010811036175264,0.034793254483468,0.013821697263733,-0.026584721012489,-0.008190556586302,-0.028678040415859,0.003400000000000,-0.027104116507869,-0.039370599344682,-0.044517879823810,-0.011395771983893,0.039399978373236,0.006015163661308,-0.044177086944848,-0.046505576611921,-0.020573528573325,0.053935079869552,0.013018200981139,-0.026288141803115,0.011695036186153,0.015440102222222,0.030719044623489,0.035836592294805,-0.004018301097445,-0.049654146394895,0.008669151824375,-0.005457346914244,-0.017774597483192,0.033129312158932,-0.007082928706884,-0.047746348674443,0.003997885550476,-0.021081033416357,-0.023919475377978,0.046929760831359,0.040875256574431,-0.016165343984380,-0.002368769415435,0.008098492856298,-0.028151399140416,-0.002182533973383,-0.040104975025379,0.023212933246388,-0.025912828285976,0.021811165766734,0.008382447022928,-0.029200611616595,-0.036359318791225,0.027926840567148,-0.035804791579801,0.001824206620212,-0.041506873994644,-0.021447522614084,-0.050507603549811,-0.016057348930818,0.027722301523404,0.013478750303055,-0.017006798033413,0.057619083167304,-0.034342993569492,0.025531878638058,-0.034652197628895,-0.046353558744914,-0.013915095160587,-0.023120583061443,-0.012727615964624,-0.032044106836094,-0.048776376385826,0.048914645178923,0.010455595296746,0.007551457126231,0.018107546431030,0.032775796461599,0.019236539871240,0.011314161154293,-0.020298737581424,-0.002568727302554,-0.037366768330040,0.016735279163825,-0.034852417682594,0.025438451560300,-0.017709489648298,-0.008346500060809,0.027563795185467,0.023006972579285,-0.010193617978644,-0.043848506135905,0.049574633212348,0.048101571579668,-0.002182527546192,0.034102233857116,-0.048495134100051,-0.012832959885755,0.050384721865119,0.017639627392592,0.050636871112740,0.041683341492949,-0.049019714496158,-0.043993869914007,-0.027496564821572,0.014578815102081,0.039223272740596,-0.029058866010315,0.001141716531266,-0.032844561787965,-0.015625894293407,-0.036896055102989,0.041245532944956,0.021295572466790,-0.047972578688227,-0.029928146987219,0.031220159990822,0.019617020147320,0.021094984356327,-0.033710769316086,0.018530515899764,0.000868292339693,-0.024941866843047,-0.026548642196747,0.048648231543590,-0.038043605834148,-0.022544523570363,0.009727251688285,-0.038860818116748,-0.038229403853988,-0.015500595037392,0.043803944897011,-0.031747385479538,0.013897415416552,0.029282106365585,-0.014772538465383,-0.028039709755963,0.042373491004695,0.010148754416072,0.022201720541461,0.001373386628656,-0.028160933323649,0.029211761926157,-0.036537270749315,0.031018898034786,0.029554439336974,0.023714822475325,0.037038919714791,0.011876957515376,0.004143877738356,-0.020704621051762,-0.000390767834196,-0.009822728231110,-0.025579620473194,-0.038605271338831,0.030404329497091,0.027377745571981,0.028907482264580,0.042272704124072,-0.005964115925730,-0.043986937189256,0.002043196514181,0.005287544317764,0.037565806402897,-0.029561608904347,0.059413253642516,0.046243729876723,0.001195634615274,-0.041027696830768,0.035151643480548,0.019486622393048,-0.018895806416444,0.005369883061503,-0.046175026477388,-0.001187024010556,0.029004775372446,0.047286138747477,0.014091659128798,0.021370516788561,0.013906466027376,-0.041475045330889,-0.008648631759523,0.003886677949988,0.034146604942064,0.008493774341324,0.045120355207527,-0.013619716572701,-0.028761805376241,-0.014499970618165,0.049607080157697,-0.042955483150931,-0.030179538252915,0.042587075702024,0.037550895989059,0.001113566146133,0.046124217245933,0.018976800635873,-0.006641576414796,0.049885486219127,-0.035462155198543,-0.003384633499768,0.025782208755041,0.013228957998548,0.033670045490894,0.050057362237897,0.048818456773406,-0.025280160271358,0.024469784002158,0.031803416525978,-0.002556960157190,0.050421954470736,0.005963776537643,0.041792952766812,-0.009404304375761,0.022276916724164,-0.007688849890882,-0.026424864572291,0.034157329491535,-0.034402720415069,0.006349571097406,0.026266696889139,0.028667042678446,-0.023014970572816,-0.032275189761169,-0.011064905687256,-0.001542763418496,-0.008458392821745,0.020165955691811,0.006787938124843,0.021115478195173,-0.013357031906258,-0.001481001295412,-0.015573211275507,-0.038685223559453,0.044486240256423,-0.012468570227083,0.026938143392925,-0.019737265830016,0.027102849515593,-0.037772775721064,-0.005711511878434,-0.055570720581793,-0.041732798016014,0.014075901145315,-0.011912421260161,-0.007678272671675,-0.017628112315436,-0.046855650498057,0.045641522639697,-0.024529733678556,0.013014769632515,-0.049306558346070,0.018357941391457,0.038792691153084,0.044616817271155,0.039681857104271,0.024467818836816,0.019606209109987,-0.009457574761781,0.009213348037768,0.032489965949748,0.009556968323420,-0.021066742865999,0.037094453533026,-0.043097800107998,-0.006618599465433,-0.016318270052106,-0.016880684588632,-0.016989213950610,0.032329957640724,-0.012675356936219,-0.049079280520846,-0.048853190202941,0.052162566513940,0.007644783062140,-0.036264870252903,-0.048993229643099,0.016013089870064,0.031539595090547,-0.023342699130025,-0.048054774249435,-0.001212327511037,0.001830542396180,-0.020670397173463,-0.005980330429957,-0.017570716103288,-0.025685736220760,0.002100503967343,0.004391819876570,0.031635935538804,0.025128878103769,-0.033435405130283,0.014235544137269,0.018850312336404,-0.019772233055650,0.031867544425467,0.043020356031193,-0.027031785970914,-0.026230546096876,0.000974249279973,0.039377097277649,0.007578351063928,-0.029298161850616,-0.040900506009942,0.025807935337468,0.046418871796838,0.002788880925302,-0.009935899240021,0.000554804425173,0.011429929019537,-0.044956766147578,0.023049991059762,0.009980868397266,0.003865712737893,-0.045969642769076,-0.004392350581597,0.032329906421535,0.035894366945644,-0.024243536213445,-0.016180993274417,-0.007837014174856,-0.001081198051059,0.008020868312162,0.036118357442369,-0.026422919689981,-0.010114811019601,0.013346540713996,-0.015518391625312,0.021864579733708,-0.001920201341883,0.025626550801460,0.028728442311886,-0.039190768207741,-0.006350245030945,-0.009288961701570,0.013919378108382,-0.028196907615813,-0.009701629104694,-0.003397652927003,-0.022709727063369,-0.016421500129074,0.026228149690163,0.033554620080875,0.029235404885131,-0.034931635261392,0.014745400704030,0.038823873408228,0.036659237550771,-0.035316880263992,0.011274398692290,-0.035117930935159,0.033709420636991,0.028130891659558,0.021579924588761,0.022996378952303,-0.020094174148013,-0.025572341780609,-0.014310272915642,-0.001865974942383,0.036440945830488,0.005733233196822,-0.001172721311259,-0.048433181218968,0.018470823971179,-0.012503284688862,0.017104382345268,0.045470112319767,0.030413754312479,-0.017600000000000,0.041050000000000,-0.015450000000000,-0.038350000000000,
0.012302605712755,-0.042789177120670,-0.035980210430551,0.016358722989185,0.007386956702929,-0.020015872822628,-0.018543734149927,-0.038910199064028,-0.046445914158975,0.035348418243891,0.047847782739892,-0.034157323240506,0.035301059536592,-0.039867808825066,-0.020800000000000,0.005800000000000,-0.008150000000000,-0.000750000000000,0.021550000000000,-0.010200000000000,-0.019400000000000,0.037434723404516,-0.025895306867157,0.016416782701870,0.048037951100707,-0.043502347183500,-0.015028371130662,-0.040194643779598,0.030532065102130,0.010324925471105,0.045428868269999,-0.013796841315525,-0.027131165896458,0.044592329498688,0.017632191174934,-0.035600000000000,0.042700000000000,-0.013450000000000,0.027850000000000,0.002050000000000,0.029650000000000,-0.040961668969041,0.003766782701870,-0.031444966919337,-0.043959748970494,-0.012953992797118,-0.030087882475662,-0.018245062600093,-0.012803826913138,-0.037338886779412,-0.036686360034153,-0.016916425195465,-0.009140313783944,-0.045080741634424,-0.045626446395722,-0.013450000000000,-0.049050000000000,-0.044850000000000,-0.021650000000000,-0.013400000000000,-0.045800000000000,-0.022662871511189,-0.010625349705039,-0.047358957491771,0.044139567567413,-0.012923815861606,0.017380166477316,-0.047970221076741,-0.025000938611538,-0.009926742320481,0.043425696611438,0.008151307823889,-0.048607009624396,-0.015828902480135,-0.012622062834282,-0.026840306126455,-0.048700000000000,0.017500000000000,-0.033750000000000,-0.035900000000000,-0.001850000000000,0.003071495440891,0.029692430034184,-0.040937515756315,0.037046286311504,0.019317878278213,0.005586916890737,-0.012686286929273,-0.004284089997112,-0.002559584254015,-0.019960939614523,0.040888701457193,-0.003964541924465,-0.044093547542149,-0.028465523279407,0.034089830978356,-0.043328257628067,-0.027400000000000,0.049600000000000,0.003650000000000,0.031400000000000,0.025051202542148,0.030594904991015,0.049114864948201,0.038227510792814,0.030175697684047,0.034713472678527,-0.015790884359759,-0.026668417649269,-0.034228310729293,-0.005508813520419,0.040100990693765,-0.003591694847354,-0.007530761459083,-0.010666009785975,-0.039585812152853,0.016538458577865,-0.015031944169076,-0.014854865653781,-0.025400000000000,0.006450000000000,-0.015900000000000,-0.032833259403838,0.044377255739602,-0.020241601183565,-0.033842054328506,0.015449697274538,-0.012265306611850,0.032355499424824,0.004924529183111,-0.007361058592199,0.001060823184953,0.015415910435806,0.039492835481547,0.016608421772991,-0.039132443379131,0.007768429347740,-0.015583655090003,0.043387481078293,-0.016900000000000,-0.014400000000000,-0.041050000000000,-0.022397976799333,-0.032496791172539,-0.049269114920479,-0.022685036955344,0.039369111937465,-0.038642508508096,0.023540937865477,-0.030003146958744,-0.009308165472838,0.003995294993529,-0.028558174460738,-0.002490646241774,0.024206993102173,-0.026935877261128,0.029302632199234,0.004654327047973,0.000537075607144,0.010900000000000,0.009400000000000,-0.048384451437699,0.001847928632477,0.028208552803835,-0.019012845246174,0.022759376773112,0.048159207680594,-0.026499455362496,0.020300684339234,0.024875796458648,0.044034023611966,-0.014458009340094,0.044056866833861,-0.025823837783523,0.024082299543870,0.022894862771755,-0.048628460548344,-0.021195583915694,-0.010512924392856,0.019350000000000,-0.004700000000000,0.022273478056649,-0.034565851879175,-0.036914030595266,0.039497907458919,0.019352202420006,-0.043201407288234,0.038738504849981,-0.019591977454094,0.026499642518784,-0.038634744667747,0.042555352446435,-0.050050809845363,0.026501860751881,-0.039692142096491,0.014255061772159,-0.006257455328272,-0.025771675414610,-0.045116691648857,-0.012600000000000,0.011250000000000,-0.014169607060041,-0.037073157874977,0.030942516932039,0.000575843382886,-0.032766299223027,0.032098412095509,0.012223729543395,0.000492224258350,-0.034376023347363,0.030458851618564,-0.028261709725938,0.012402921704682,-0.019378351133080,-0.003223174044337,0.047839553458949,0.026745150228579,-0.029022931166610,-0.005667346103681,-0.043400000000000,0.050000000000000,-0.032093027798343,-0.013273667115862,-0.038677384090748,0.035492329935387,0.009089090257325,-0.042978452862952,-0.051707325955557,0.014171859908072,0.043068400598065,0.039230427007307,0.022060434427120,-0.035778988906960,-0.033689994526123,0.042515349524209,-0.004865571773013,0.033609955302483,-0.047472931166610,0.018644074420247,-0.046850000000000,0.024550000000000,0.022712290046906,-0.015879554570490,-0.043448347439302,0.003537026028396,0.006238318449326,0.021791428406036,0.021669662408418,-0.051967619273544,0.003603648120921,0.034615499802389,-0.039005264041942,-0.010358159081539,0.000488409599562,-0.047245260588929,-0.050178304720555,-0.033997701871758,0.026553264281323,-0.012277071293263,-0.027210942756099,0.035549523101604,-0.013132013947326,0.024875422220060,0.044611682774032,-0.031406832520169,-0.027798007699743,-0.000073357567402,0.011377798098607,0.027694910301283,-0.052569626054635,-0.002709492621765,-0.028024181605416,-0.001829929720519,0.022918483739157,0.034795143383969,0.036934236383232,-0.003739675573157,0.007833634801286,0.042540101331271,0.022794516274565,0.031501981754790,-0.022451519244137,0.022345047490909,0.029666642357268,0.042034310608611,0.004406155767109,0.005175869713765,-0.025462246030727,-0.037465690656729,-0.013891541542158,-0.045572561193876,0.028100511088759,-0.012169570972704,-0.010226981777893,0.027317437339849,-0.011268325693390,-0.042596206883275,0.015806201738784,0.034348594486430,-0.001571998075168,0.012222536850283,0.040774775378658,-0.016656034606827,-0.007376728656863,0.044291907802980,0.031925798207015,0.040653665206245,0.030419005830665,0.010489334739088,0.034878989423735,-0.049946316078275,-0.034519793944264,-0.007674198839631,0.026737896597113,-0.050993706057971,-0.054916207931242,0.000858644280374,-0.003245526930602,-0.021851715530541,-0.022701844089901,0.005859896047746,-0.019629254477684,0.007597924375433,0.042345675397874,-0.031386242428671,-0.037990616771181,0.018274610437577,0.031408807605670,-0.026253477515206,-0.020221568378348,-0.041781280926923,0.003203059384589,0.011815006792118,-0.027171665975633,-0.019168617873084,-0.009270724088418,0.030129275911582,0.000419561609324,0.043736612935648,-0.019631320325943,-0.037415771526297,-0.001038751675971,-0.011988643077305,-0.040711949311715,0.021353460249767,-0.037497422976893,0.031275540447119,-0.035445102236301,0.000076147739272,0.007190130751763,-0.029025096394459,-0.005295955630138,-0.014240145806797,-0.018349135579189,-0.015808042102559,0.027811248324029,-0.006338751675971,0.032269798027170,-0.017600000000000,-0.038200000000000,-0.031200000000000,-0.018250000000000,-0.012581459048597,0.029704553986037,-0.009299836618783,0.008368921406053,0.023271117342466,0.012751972799245,0.011745552423280,-0.047744001115136,-0.029302058938504,-0.041330714547295,-0.021639410466054,-0.011122973957914,0.013577400570922,-0.035750000000000,0.049300000000000,-0.025100000000000,-0.001650000000000,-0.043150000000000,-0.015250000000000,-0.023500000000000,-0.027015283748306,-0.044386912966528,-0.040078329227695,0.025762888587997,-0.010016915701189,-0.027714884159414,0.031016515200500,-0.030450000000000,0.037950000000000,0.004250000000000,-0.003550000000000,-0.026200000000000,-0.020050000000000,0.027900000000000,-0.025800000000000,-0.020900000000000,0.007600000000000,0.037150000000000,-0.023350000000000,
0.065693197214251,-0.023714238606530,0.022687571321942,0.024732112609391,-0.009811228921141,-0.037481215334667,-0.023198497581497,0.017230211288816,0.021408042905655,0.010742010153858,-0.044220785899590,-0.005202768997927,-0.027168717864052,-0.046968361424338,-0.019476928359062,-0.036808311256919,-0.049863517103781,-0.032673736321169,0.013288340790915,-0.010056695268306,-0.040750000000000,-0.004016515529284,-0.045146749610540,-0.001540668031754,0.028686992995026,-0.035245057199835,0.038324754978044,-0.015218003080620,-0.008306437537035,0.051214582315965,0.029037796504829,0.036457762005959,0.059643517344543,0.023485025308095,-0.008212222417744,-0.016897672991154,-0.023371434748351,-0.009856391452604,0.022810720653568,0.023285339296549,0.023212475525272,-0.021067054310525,-0.045935938437600,0.017481923114126,0.035764587984953,-0.033549159762476,-0.007764071870863,-0.036142112006003,0.039347582813614,0.080403540249729,0.038752818828197,0.070969171998172,0.016697652457355,0.019218485848884,-0.033457956576682,-0.064652626120106,-0.060654197256944,-0.025436015724532,-0.025574161300910,-0.033814382457636,-0.043851651619116,-0.027781875299677,0.047851752709084,-0.004857424979110,0.029499644685142,-0.024845363957626,0.011844677650085,0.035132767663826,0.052271081725188,0.023899232714292,0.025771907632726,0.045060402340710,0.008055825725060,0.024899311245010,0.036513923011523,0.028890586866620,0.023703462693435,0.025837166751361,0.008880330493412,-0.063779500164831,0.039328215848448,0.017728982938956,0.058343383430221,-0.053073899312814,-0.002872082141322,-0.035922981439506,-0.080894390651487,-0.057029485665616,-0.031125335667762,-0.030873748517956,-0.027061726955163,0.028853680446095,-0.006346122586045,0.068116502109364,0.045047029733579,-0.025861675080828,-0.039669412356386,-0.066356217027744,0.003130539002223,0.011601075770432,0.015620209077815,-0.014439543498830,-0.009732981740226,0.018888444055627,-0.063549586481685,-0.015538361176682,-0.100798586710085,-0.059832771908425,-0.043749054320309,0.043932024563971,0.063511831847545,0.028212892956561,0.030858039638348,0.007183307727415,0.030063217187462,-0.005815190176362,-0.014538366084578,-0.001795772897391,0.011259558393272,0.019486353093050,0.023114919913935,0.000993000794349,-0.016503495611267,0.042422263388525,0.038933709856284,-0.025434769868206,-0.035198619260494,-0.038548860875575,0.025152604516774,0.061014886637638,0.041660092182322,0.084787769891782,0.014567043740259,0.040686047523564,0.042466782393519,0.030819303979129,0.060745732975956,0.060250746338383,-0.008360116589775,0.014011571005732,-0.039236486333580,-0.008425347755528,-0.043726969596086,0.008495686825097,0.031531395018502,0.009098479160283,0.028285607983698,-0.013022192330563,0.029005695205348,0.040717012767484,0.132812025294993,0.088939963240695,0.107308359261602,0.067334244565897,0.081487873546738,-0.019422331670312,0.015306884323373,0.025498929597127,-0.013811534641405,-0.035515250211679,-0.005119215960905,0.041478430783681,-0.008057837066569,-0.028948370991285,0.007973388133524,0.013874717410047,0.035170906977579,-0.016616722158967,0.008352512913275,0.076606697562999,0.028673645140565,0.110718742893910,0.047773168849574,0.077824471218115,0.046717474570830,0.075465826748980,0.065123592369550,0.029356824563693,0.028192945953083,-0.042341522808746,-0.043172383511324,0.027721669832135,0.007009880813601,-0.034999389744840,-0.052994966886584,-0.007121256536795,0.038017968991373,0.040048064600773,0.005638392442346,0.016166488021476,0.080758926521990,0.040727124707270,0.101544528760092,0.045259550264677,0.016087793212155,0.093543268715084,0.075369308886955,0.070753619415119,0.001070911784899,0.053431111620244,-0.025084321620823,0.015687192983650,-0.006654500103058,-0.040236258173456,-0.017213435525617,0.015607056055216,0.040645773887348,0.019839542545255,-0.001403281123443,-0.017590838534534,0.016040319929067,0.027968402493931,0.016076988214164,0.056450469987193,0.009612909366562,-0.013367365428903,0.072678771329723,0.033360079373016,0.003231856193398,0.015927665364777,0.034112166598300,0.008241794671196,-0.034195664618376,0.050727275141167,-0.047558921043970,-0.037627993720114,0.008132017532183,-0.024061187160751,-0.003872088272644,0.045635499444351,-0.006893236199324,0.036970022029572,-0.019177681123471,-0.039578838576756,0.053928850088581,-0.009167002322818,0.031536808516840,0.074650989846639,-0.025476712835761,-0.027284111090184,-0.032387926877069,-0.034414090323501,-0.004116990635171,-0.015389012974602,-0.075781155934454,-0.040671619918955,-0.057170026914203,-0.011211634530635,0.032326985978520,0.011381416714701,-0.012982443553446,-0.009876777971764,0.005287608203880,0.000212954901995,-0.035869221653004,0.025561300276256,0.009045202616670,0.051290344641426,0.047093991740007,0.020964137757432,-0.012802791411632,0.044584066912295,-0.019797545904315,-0.030982111328363,-0.003283957992545,-0.030331898510246,-0.039693066077060,-0.057893746124210,0.022520666333760,0.010652901975585,-0.035785071049940,0.013487338389442,-0.090349824333301,-0.071946539348754,0.031591361516676,-0.034526828221060,-0.041518198809496,0.006740461514540,-0.041642777092919,0.022644234860417,-0.046564924036424,-0.006247437691351,-0.038333632963834,-0.063116299288191,-0.069196172658425,-0.001484296841463,-0.057203239785883,-0.021725816238497,-0.016183079395611,-0.044012133235232,-0.056654887635508,-0.034792611526078,-0.064974191534817,-0.024116300049987,0.055518258617939,-0.023462814929236,0.003973169858147,-0.027852740943754,0.019576342802792,0.000566933789848,-0.051545064228378,-0.005622772836661,-0.028199072109589,-0.051375639163334,0.023280022082649,-0.001975292050766,-0.031578038382041,0.004019213723351,-0.058211766939451,-0.077883921346644,-0.081452477913707,0.003813714560739,-0.022884118632921,-0.020747798356207,0.036216481388897,0.031612059458242,0.019569895803985,-0.043088942456433,-0.037487717155790,-0.022430078535949,-0.041104173823353,-0.049144038800297,-0.022153563000109,-0.006634220323532,-0.052625433002330,0.011226854949004,-0.047967567673872,-0.007110805225341,-0.037436917119976,-0.091660879217505,-0.025649584795056,-0.049457728445008,0.030384246449449,-0.013477368974889,0.010807495878626,0.064409183231670,-0.003130455403928,-0.041570687690464,0.039155004676908,-0.045815032498355,-0.019287383541185,0.012303905919581,-0.052979109583456,0.010569112333668,-0.047690482078827,0.031298692739043,-0.016016008975373,-0.037645239697371,-0.062793661751799,-0.015956991026637,0.031519487426960,0.055679505226758,0.007545195166292,-0.019175518273479,0.024446491372735,0.025132153162770,-0.003193637782096,-0.034965063515042,0.013034313380759,-0.023034537579383,0.023037993612967,0.016933320447509,-0.040389803919424,0.023514939475867,0.011385791373505,0.036603743589941,-0.013741224527532,-0.025167027815188,0.009199599975255,-0.016840079647100,-0.003174223342406,0.007585123961714,0.050351889402686,-0.003038890614092,0.081129790299890,-0.013707124841022,-0.022761720034695,0.024979236999618,0.023581185328598,0.020912065764219,-0.023796792716103,0.024952491245680,-0.028953123597555,-0.032817819144904,-0.038893847955979,0.024981757301877,-0.022371107991976,-0.059694367698622,-0.044875639030710,0.030056671101483,0.023357311140446,-0.012953974748197,0.057442114095710,0.037482114780210,-0.007824660494239,0.015314683588386,-0.025335181660991,-0.011850000000000,0.043950000000000,0.037100000000000,-0.019050000000000,
-0.000114516922748,0.036928208824039,-0.014897707566750,-0.018392043083476,0.025004168728381,-0.025863255622007,0.056326202203409,0.023464141715063,0.045812330875717,0.049064262316306,0.058864839331971,0.071748355011952,0.014781273357549,-0.024599460146513,-0.013425933851543,-0.030267866433597,-0.013908484690526,0.027292666439509,0.017934394154011,0.004972738469773,-0.027450000000000,0.043255086643793,0.042508383747245,0.006679835137739,0.043434023423201,-0.004371859255343,0.059540822381165,0.107477783216473,0.078963476720769,0.021224257374517,-0.009869390052089,0.022881947465265,0.066666179459813,-0.029347071808510,-0.037244388704310,0.049272818006273,0.055940549664328,0.016217726903597,0.038383109076949,-0.035281328772990,-0.003176629011859,0.042867477767871,-0.009594830036541,-0.004734271017378,0.002328364662082,0.076649570662278,0.097006615321630,0.051671986761507,0.024408054902353,-0.017313787294668,-0.052591089206556,-0.070880483965510,0.001759260107199,0.021480040602738,0.042171072838168,0.023268493415080,0.010520217428720,-0.004778679778115,0.055940814595063,0.028278019326726,-0.031812102331657,0.011198720135400,0.043727165834244,0.024975333176309,0.017319091165005,0.071969174418648,0.139033208331633,0.101847567915305,0.010461775252951,-0.007496445249306,-0.070313836167333,-0.013428637746728,-0.001412592824686,0.052598553323264,0.078281807096121,0.016526148606561,0.059369936594935,0.066112488631131,-0.006354465235933,-0.019992808061335,0.033036982301374,0.012403414561587,0.003884603832227,-0.037850415553865,0.019146859226469,0.101450351264416,0.137514083412485,0.099111276619886,0.014403009449913,-0.075710280231677,-0.022415831718485,0.040393473880479,0.028428217103033,0.026969409402552,0.086925875538451,0.077862734961505,0.077250950472328,0.019012735260433,0.050964150058126,0.033029072867475,-0.039199003419468,-0.028545531770258,-0.018641159062651,-0.014739144415463,0.066801005876844,0.110202867945361,0.128180457046772,0.106759244668140,0.081786068437721,0.006280952278500,0.042573876351287,0.069240978560418,0.096786882261410,0.121164821489803,0.118155969742462,0.035218155848977,0.060156850891179,0.078810611983255,0.035881402058066,0.012495613627643,-0.043013953729310,0.024098928929214,0.004788661857535,-0.019861624214524,0.009434620941959,0.004999125093601,0.102279133083414,0.044004980623559,0.024072716861767,0.062572142707665,0.035566172065423,0.019433185701572,-0.005909800520211,0.064913707574815,-0.014044871996697,-0.043405454063306,-0.003906916011846,0.041227770795338,-0.006115665759497,0.020924072274400,-0.046781008665908,0.010858604392118,-0.034028780611888,-0.008891075001016,-0.040852285720009,0.056961237522623,0.006771623581259,0.085345700990135,0.086384001317224,0.052148597808103,-0.021694212058513,0.030459704216709,-0.044778231933238,0.006381870697196,-0.002276289979583,-0.075295149262068,-0.046931680155919,-0.044229399004368,-0.029884489057117,-0.041350682497572,0.046582965141226,-0.025129984061310,-0.040379077726466,-0.003868892380093,-0.030182016977659,-0.003377494721981,0.039871681817830,0.037054288075836,0.047058074979189,-0.029396147391159,-0.054581996958307,-0.048183452060432,-0.031409536729742,-0.051634097133737,-0.105035930603805,-0.105678363765171,-0.117952045112315,-0.109062423740733,-0.076908886970545,-0.049091162291179,-0.040387545397410,-0.031942422389482,-0.029995147716743,-0.042201636128359,-0.056890102599784,0.038445454581057,0.037910150628999,0.032560266697054,0.011714581222740,0.009030141230611,-0.023330948858107,0.010676176297389,-0.069001726214157,-0.029333491571587,-0.064465826782925,-0.052925748233618,-0.122062034394247,-0.083234049899785,-0.051933133552979,0.036588668247767,0.038599268409118,0.040620024000856,-0.027794257012583,-0.067347444986493,-0.058838536605470,-0.021977790866126,-0.007889083974816,0.039384111278357,0.012884384650719,0.022548446100088,-0.027723571637836,-0.049798425730961,-0.057760353496388,-0.109662913248203,-0.076825882219057,-0.079738220359183,-0.095672078878137,-0.014036156529328,0.002668406107040,-0.040370395642612,-0.010013677277980,-0.042563366167909,-0.000138968693634,-0.052743576390409,-0.064337788797754,-0.119001929085123,-0.076212206944395,0.038124880903348,-0.011540816139112,0.050923316054617,0.050092466244669,-0.023717895772571,-0.060566134846919,-0.018511066981424,-0.059926588527303,-0.026586316945664,-0.017465544825405,-0.077022480123111,0.020489244585743,0.027775730385668,-0.017602405788951,0.045949959765475,-0.024541658120238,-0.130693767832940,-0.134670441265537,-0.151321879204266,-0.049392284394221,-0.063798742300945,0.004496379936969,-0.088485301121881,-0.022874703033514,-0.037555585898312,-0.021946066086646,-0.016471397192948,-0.016661299896195,-0.028287473797889,-0.051922676190812,-0.042013087405398,0.029643922875474,-0.047488684355584,-0.002419062696936,0.045067320863232,-0.047674793866129,-0.078833020252264,-0.033154515005611,-0.118288036981698,-0.072709104418828,-0.099341401016005,-0.083843152863661,-0.001660221553876,-0.065198058420450,-0.056454437125482,-0.022043833388617,-0.048490121573017,0.034453370275077,0.032859738588103,0.004435508370113,0.023947328414200,-0.034115280056210,-0.048746636165712,0.002819242704640,-0.024516443024016,-0.034435182931722,-0.017312345959530,-0.033643421756149,-0.056090387892320,-0.058651063528248,-0.009653789242603,-0.073837400500700,-0.008444953606838,0.007325040526341,0.010247878319496,0.027353925814537,-0.049726443926596,-0.023703702828290,-0.017344080076404,0.012705585136576,-0.020186587337658,-0.041096687180622,0.012555091596383,0.012914308635783,-0.005476322917878,-0.033665926891949,-0.053851337787027,-0.008003787701122,-0.009064204166133,-0.011796791749201,0.035474863670403,0.014569649693938,0.005894539933324,-0.021158168758487,0.051065232903688,0.000249206800905,-0.069023682826889,0.069509622842444,-0.009892428578253,-0.050936659706757,0.022891671055224,-0.011624668682825,-0.011151675509329,-0.039200001318482,0.018666849169417,-0.014046916154390,-0.037058926692199,0.054781090338321,0.016748566230133,0.013797403974689,0.008929825141495,0.047383399188234,-0.028991399520274,0.052525952632931,0.024881391765983,0.019932395575914,0.027268715407881,-0.042211606808792,0.018542370955441,-0.001879515886330,-0.032859858620171,-0.045447601499158,-0.001049938343993,-0.003270914959284,0.006525458687938,-0.064013873264891,0.013217590573761,0.009006718615836,0.034990819010286,0.101150313716517,0.009979573533861,0.040079366325877,0.028831240023904,0.064012000775452,0.042255284569323,0.033335010770324,0.015055195616967,-0.027311360320196,0.014371930265296,-0.007811547661042,-0.018044456862851,-0.001822300219364,-0.023604429674358,-0.020818376994904,0.039877306999156,0.020935304969504,0.026958956631742,0.000135423491538,0.002324331227897,0.046081618202157,0.087595266859760,0.010587837849924,0.005265016583134,-0.063175941634406,-0.016688965847307,0.030758124287808,-0.048714752332631,0.020260466535651,-0.017092465319243,-0.002002762455111,0.020737474467780,0.048008230662690,0.031490459520602,-0.013438781869061,0.016623379056311,0.027845637971951,-0.019664593619356,0.007290283363615,0.037665157008816,-0.005504825867338,-0.062373720538422,-0.026282524488634,0.039379095692630,-0.026718235869761,0.041425664706005,0.028647636925849,0.022056212093535,-0.044379193787580,0.043692000743907,-0.008072755345279,0.013800000000000,-0.005650000000000,-0.001850000000000,0.049150000000000,
-0.005088694336583,0.044028682619325,-0.032347357489694,-0.035047719539082,-0.045343343425634,-0.034043963827405,0.047437035158519,-0.000732042015689,0.006029767051939,0.052072193948162,-0.030749134024622,-0.017794877545256,0.044259163623611,-0.021414055585118,0.028875597523052,0.006233711457040,-0.033644674649938,0.037840809266735,-0.039201694630331,0.049700000000000,0.007850000000000,0.030252440070334,-0.002914566892434,-0.045846310494205,0.051896648230452,0.015667104167069,-0.017670103997468,-0.022443505189456,-0.025869633031097,-0.037205447146264,0.014353522890256,-0.036711064780670,0.046699500223277,0.050636636567951,0.011493596664541,-0.032856973571088,-0.041245875145332,-0.038658715455036,-0.015243321475061,-0.026554018731364,0.011100000000000,0.004856734715953,-0.026697006161419,0.014156765585829,-0.033650298425642,0.048681289964587,0.002204871709590,-0.027827401530912,0.032110107836486,-0.001194754692860,-0.019574175906149,-0.024190826471092,-0.026113221982857,-0.023295821054846,-0.006724549576355,-0.021104963690087,0.021021619073982,-0.006199581802168,-0.021087285173283,-0.032686657081819,-0.049205092485134,-0.033667109605234,0.043071631048457,0.004322533681156,0.025781188711866,0.056912386084417,0.021353914897698,-0.019711127915496,-0.018640259592822,0.005599341973295,-0.026562088826754,0.031783929836479,-0.040034290154350,0.001315607014377,0.017227136279448,-0.040244602887608,-0.055833148161401,-0.040433456826808,-0.024176204443192,-0.032154480859134,-0.033269733798755,-0.031754739908978,0.003641700666762,-0.050690207880476,0.062492318429066,0.022148751617343,0.039987218008972,-0.005784426260951,-0.032434217674696,0.037151116612136,-0.017588966422477,0.007395280016083,-0.007160971429987,0.013016545351079,0.052434134708080,-0.037468234679277,0.016873018708140,0.021344090737588,0.043010547281467,-0.030754137482322,-0.031594309141814,0.011734048793088,-0.015073786744058,0.037637003275626,0.056190880226739,-0.015206676343245,0.016376004593772,0.059767530396790,-0.005201183474070,0.046872864391089,0.003784538484909,0.073017961918969,-0.043384588993457,-0.036917907528859,-0.025822114227343,-0.007315940640699,-0.057421536298066,-0.045229413114319,-0.021428762943172,-0.009924248816352,-0.001727422738547,0.000043946113885,-0.006485401794038,0.041465061711045,0.036225429535367,0.027069633655853,0.059659290723098,-0.023963099480950,0.058221172567613,0.074955547107235,0.007392660137310,0.023049488347006,0.010075913297136,-0.037367038191637,0.046286772822318,-0.018141627466872,-0.008557913406030,-0.010114335019512,-0.027191727453977,-0.017420114556549,0.031110413893113,-0.023369743999387,-0.035748760835698,0.031126354412559,0.034038546799368,-0.001692508026159,-0.034248568613014,0.054696602525560,-0.028087994028507,0.061773525355653,0.015039248949842,-0.012265748975686,0.020425871499057,-0.050619949730514,0.040464386468509,0.017265177431477,0.047159162444861,-0.039204354079142,0.047621948358551,-0.041639586106887,0.036260413893113,0.053675723463990,0.010344250820029,0.011974954208388,0.029926187279407,0.002278609787914,0.001618977599320,-0.030852908035896,-0.016428108059366,0.054795771669306,0.013289352119622,0.028873128351365,0.012628188073928,0.010256841468030,0.054326655092885,0.057841811151721,-0.004729144312844,-0.021727032954155,0.015936180790748,-0.012275166842614,0.013357068669698,0.055977896073163,0.035208902754213,0.008496709441120,0.030969561198318,-0.032913627542800,0.006092970975840,-0.019730299607913,0.015038248337478,0.010616635183388,0.049308501319280,-0.013721455127620,0.008383746911996,0.054771415827437,0.041863024502782,-0.001221604881297,-0.021325435863987,-0.004399461803405,0.015921991146791,-0.030306214423868,0.049586068014038,0.044118035724885,0.055197560717865,-0.019113128340632,0.010844007374422,0.034225332879626,0.013859408335011,-0.034602190505812,-0.050739723378193,-0.018461140915313,-0.014936055420368,0.028998906697366,-0.033156832428632,-0.024774850489627,0.060732613207793,-0.026226796577954,0.032848261141810,0.041143011614111,0.000383332487641,0.000076742665082,0.005140580439578,0.013422863558255,-0.016681010903553,-0.004705910214340,0.020258999882327,-0.001424280786997,0.023725346011626,0.010216722886592,0.001627370715265,0.081113915575905,0.044490112258595,0.019410449688455,-0.010820345827439,0.012542546729350,0.039676039564548,0.046779335975403,0.040259418255418,-0.026139593453366,-0.032926285317275,0.020098812168006,-0.002331526687775,-0.006892900541598,0.012328881329867,0.038191946934491,0.004919622126721,-0.026864102156653,-0.018706505116772,0.007628257173801,0.007235255741124,-0.034754758929732,-0.023390560143825,0.058353597675884,-0.048925334164808,0.011320179280560,-0.032985020828555,-0.031482331049690,0.026489587797176,-0.022723390796431,0.042069421787008,0.005155073995261,-0.034025865460177,-0.045962022523297,0.031174179580318,-0.008181087617206,-0.019220835172590,-0.039429491351366,0.012451801029874,-0.042268697366939,-0.039034780724668,-0.014350373111251,0.002015437874142,0.030399996029472,-0.054806893314427,0.030807528641046,-0.044347332907234,0.010911087027113,-0.023611977622126,0.043657922990470,-0.013494269604469,0.046428293208313,0.042864963900273,-0.016163748017513,0.028813903672078,0.006660245335660,-0.033096566771466,-0.007222433212600,0.022477896115526,-0.043904063562465,0.027616739290602,0.000336892286130,-0.024623014456493,0.003344172003062,-0.041355751990363,0.031055509712803,-0.064383861039781,-0.037726582310529,-0.054590880352563,-0.039887961419908,0.022577024881531,0.034515552200272,-0.002605049308311,0.017812721685493,-0.032878718583870,-0.014047067763037,0.020288860790160,-0.012988751365979,-0.041241862058335,-0.010250904562427,-0.008610215763790,0.008638778918599,0.053324660923203,0.004635719751364,-0.048949787897067,-0.040395282532907,0.013586941256468,0.024285876369514,-0.043581162851997,0.025783819147596,0.047419826304771,-0.017017458582728,0.002728970433056,-0.020438272198200,0.033622778332990,-0.030850580072493,0.038965506657885,0.000070192324946,-0.036805366190146,-0.023194575293172,-0.002874764276577,0.067902026610083,-0.001875166557470,0.019482558186936,0.023275550109601,-0.058859054748973,0.028510354436817,0.005792228278965,-0.005160612539200,0.028351216169396,0.004533976291459,-0.007221649097395,-0.005228241351643,-0.015767024498755,-0.020494921423857,-0.050482925965162,-0.022346982687243,-0.045255619803823,0.033078755460624,-0.023946172885868,0.037224186683081,-0.000399336556299,-0.025193869927304,0.021531055829356,0.010069787534056,-0.004360202793463,-0.057139865918454,-0.037362231550697,-0.014775445779539,-0.014790008085816,0.005367919399488,-0.046404869380627,0.039052491870156,0.009543158273654,0.023801412263623,-0.015517127026042,0.045642350018898,-0.015443383085582,-0.017410954901483,0.048432539678842,-0.033679869772074,0.055940889526504,0.030746157737867,-0.045206584646483,0.032583008718822,-0.035131143998318,-0.043014764384225,0.004690124502066,0.035541297332368,-0.046516628218104,0.001494384753653,0.045474494811797,0.019583719477296,-0.016743299953168,0.008840146735903,0.022056981302770,-0.045700974790989,-0.029338204142463,-0.017750211778992,-0.019904741102181,0.017902213110900,0.008309049104835,0.038434659374686,-0.032066696258524,-0.029671826141259,0.010168788242859,-0.050847510642773,0.014002676632312,-0.002983682121600,0.039300000000000,-0.000200000000000,0.035150000000000,-0.027500000000000,
-0.051129348250184,-0.037862817795449,-0.024000987792239,-0.021882188024444,-0.006037664516921,0.041191259805764,0.000277065496013,0.010615245745528,0.023213829867492,0.036855743788531,-0.021119641955363,0.036246684894193,0.030120563249457,0.000697449643129,0.056512032247445,0.040980458480912,0.044017230875795,-0.004095318048645,0.031864258403204,0.046398710156784,0.034650000000000,-0.016436957093730,0.040550986679325,-0.023659985738026,0.041700567852984,-0.011555724247736,0.001327986863457,0.069226940760885,0.024996800235484,0.070004127811704,0.087463413988815,0.073400531716876,-0.014620993809330,0.028195805865711,0.062211003477146,0.042931838873406,-0.014843344776966,0.027581183569368,-0.024533279456710,0.039452452239867,-0.017141774778969,-0.008321419596991,-0.036063426036736,0.031605990078037,0.030666805226764,-0.003952198386348,-0.030179273338419,0.067612111228401,0.032300280593785,-0.000189632785688,0.055228314948413,0.003641836653935,0.007927011807731,-0.011230512988249,0.059265406462319,-0.017110827214201,-0.022434674529277,-0.060085982362822,-0.011953919720779,-0.033079925592748,-0.029381825014869,-0.040447775881657,-0.037106547842740,0.015199979950757,-0.046501117063997,0.009140945325920,0.040888226732517,0.047327268377091,0.023737537656790,0.055069357297688,-0.033951325351853,0.027257933896069,-0.015842185691215,0.029595274139828,0.002322995021585,-0.039295385617015,-0.042547612331984,-0.059185291977125,0.037030271502329,-0.004522249161202,0.017208997497317,0.009782897632398,-0.016615419345521,0.005903679595606,0.002359679349361,0.046244787957073,-0.025560444329954,0.021004205643588,0.038996325029998,-0.000210173939361,0.077680200719760,0.013423940298759,-0.026790445632908,0.034425872427955,-0.019876057612204,-0.004063820773763,0.012624557866655,-0.045908376939151,-0.050769345296553,0.028792641709627,0.041220432375399,0.047009640229789,0.026564291667267,-0.022752804036547,-0.027963307065214,-0.046529172716088,0.015276552469671,-0.008895169384083,-0.036349223968189,0.004178751924460,0.018122066083919,0.048557474198551,0.052134128359546,0.018859521391701,-0.029059590669833,0.030452721842945,0.033339826593827,0.036384058545161,0.032173403139411,-0.044150114808160,0.001406326336166,0.004480195212562,0.044842506586347,-0.023786296322703,0.036574392871598,-0.033342931695137,-0.001709807318041,0.002234293642984,-0.050787775852053,0.028003618629180,0.079076052162802,0.086819885416904,0.045658079793625,0.036076856382207,-0.004112413351857,0.035490662120091,-0.024653758922610,-0.029200153658276,-0.033420332845804,-0.034598835165430,0.003918964211212,0.032593966670677,-0.055129206989846,0.041829757523290,0.058716162425757,-0.054175140843111,-0.061878061754390,0.012549767404561,0.042862361613175,-0.003180092518070,-0.011264552703741,0.063629813814480,0.034868072631363,-0.004760622006820,0.061644681228865,-0.013930795436792,-0.001932078133816,0.029746494671031,-0.021731698902331,0.023051946432658,-0.049083721311121,-0.043605096403398,0.014848127735410,0.028823239190830,0.037278416753880,-0.069389238542550,-0.035793421911228,-0.041796147850898,-0.026109714794249,0.008394635505783,0.010863837738335,0.028175323566598,-0.037100868348027,0.048863395647153,-0.004321105819388,-0.032624357764713,-0.005703934441938,-0.039182784172314,0.015447773084315,0.003968282942783,0.040208368113199,-0.019629001462402,-0.007850840666270,-0.005481583933579,-0.045316297164053,0.041978679090794,0.020483337704131,-0.050983726642126,-0.035772075183570,-0.002714887481994,-0.013644348839770,-0.057037873021068,-0.004369968060198,0.001343253632049,-0.005168411457903,-0.038937098525427,-0.029850600622833,-0.020126615417415,0.021899433102953,0.042861800862397,0.039578620554602,-0.022570083564728,-0.046361051445562,0.037707052779660,0.042769556146913,0.018142726778353,0.042502615443729,-0.013622759385781,-0.062979161949665,-0.075630807625347,-0.091153384118276,-0.069348114795601,-0.070394038288712,-0.052957814295673,-0.028314633197927,0.035785984236955,-0.053198191945409,-0.019227089619533,0.055243922318623,0.044458080628918,0.013587055244587,0.006239335784682,-0.007564697709284,-0.013996780361326,0.051134266737635,0.086701607730165,0.010028831962299,-0.004052518826293,0.035807388063408,0.003375079492744,-0.066348548644975,-0.029137139049741,0.031605438218895,-0.025219703419732,-0.050873710617550,-0.038203189205525,-0.023221153984436,0.014906785770235,-0.048330585737390,-0.041802283831220,0.016057139295508,0.016421780120044,-0.025354158513072,0.018080204658162,0.035182306072087,0.049013849823616,0.026229122886185,0.047301770398189,0.030338081824119,-0.028089396616741,-0.078247633902046,-0.031326488939332,-0.019787215973213,0.024838054890162,-0.008939986248090,0.024902096340519,0.051252692600136,0.014785278646041,-0.031926599893992,-0.041067707240431,-0.012244411530536,-0.028031139406357,0.026144989675610,0.056723085648209,0.101764374737274,0.039844772801445,0.075990930626802,0.013133668129954,0.031112225157565,-0.045224366675862,-0.011614791782768,0.015298564089160,0.018079121839345,0.060841148125656,0.018480499186739,0.020760160111830,0.010520295670521,0.015976033318513,0.044840424870568,0.037474389049397,-0.019536691948495,-0.020112075814543,-0.002800580641504,-0.011621791381432,0.070418300198782,0.042199704123738,0.029724071730632,0.078799619480910,-0.020348281646004,0.047625263521984,0.032163489417428,0.024607688645123,0.051280117877698,0.033882597313570,-0.048723629203321,-0.026453360590420,0.046199228376394,-0.005111510692648,0.011003442149776,0.051495416275690,0.021980233275389,0.029944176676776,0.020806224400739,0.001383128268464,0.075909460833681,0.015828101856543,0.019329759276697,-0.009272249130753,0.032143762027726,0.048579583419019,-0.021390514060671,0.033459216765201,0.018559304952737,0.026839758382546,-0.004549018957567,0.007370227513191,0.035544746445748,0.014298974875493,0.046685361259371,-0.031154071432213,-0.031543048735103,0.024589721048159,0.035566252345711,0.056643189397707,0.018963949653330,0.011250374593315,-0.067023736467349,-0.042723542576109,0.053264072986315,0.050236872256364,-0.010148783648959,0.008330654447510,-0.015412709990402,0.032471108762697,-0.046378748465622,-0.052991147676274,0.050750219705535,-0.006147142395356,0.015161563976856,0.036902193680631,0.013387817744374,0.030780232643454,0.040899102595073,0.022850905098304,-0.038282720685447,0.038850517375130,0.036488943508621,-0.050647507624596,-0.043787653613069,-0.045959311697884,0.018669120109320,0.056540981054473,-0.016581559688391,0.003205120154946,-0.002859381480550,0.027443675113699,-0.029008537596631,-0.018244926963078,-0.023656969622167,0.009798270739350,0.001098389084104,-0.029923895661462,-0.009910846077314,0.038063427314414,0.014365447235775,0.026439633063472,-0.012240300161872,0.048095472993423,0.022299090860213,0.065163624232555,0.073692704774052,0.012182979231563,0.032809860543478,0.029250276887877,0.028242192174147,0.015890516293655,-0.029921668355593,-0.041941535222552,0.021925611429258,0.040924885207488,0.049768181375183,-0.010274272480777,-0.023611004788088,-0.053449325802327,-0.047927325195201,-0.005666369002913,0.056570793637962,0.042090740825513,0.001892949304670,0.038131094559374,0.015269191814184,0.005912972128009,0.002052476753149,-0.037676023634099,0.015100546019413,0.003773204585763,0.030161235594299,-0.027650000000000,0.048650000000000,-0.019650000000000,0.009550000000000,
0.049838136082389,-0.012559309800537,-0.019939060694447,-0.004572420012997,-0.034605054376838,0.034680978858047,0.010557956261248,0.021817933881228,-0.035107249740278,-0.012936967682868,0.036520558721250,-0.021940234766897,-0.015083376470755,-0.035640343776472,-0.021758943227066,-0.042438320520807,0.039928215965391,-0.042360594528006,0.040393540420432,-0.044100000000000,-0.012500000000000,-0.015848618943389,-0.018780774512256,-0.018294395456837,-0.032960695454385,0.013856921246873,0.042962180909993,-0.049126050445702,-0.041152196016308,-0.000552341472301,0.048398675855837,0.000889546519295,0.031333409318135,0.024326633804506,-0.021833854544755,0.011135232295844,0.022654223436406,-0.036435913393513,0.047243506097634,0.026262636160006,0.046738660193763,-0.014572010678346,0.027372392740958,0.009166160922456,0.032791426021667,0.006741210412275,-0.001631386423115,-0.034085193251133,0.043275917820850,-0.018492194384470,0.005877643234144,0.015181784272370,-0.029108594622534,0.007519142568323,0.031908237033820,0.017053779716133,0.010113247816790,-0.048340559326696,-0.028740646815158,0.007478764430227,-0.020574243202297,-0.035369946623142,-0.014909602053969,-0.042516415071308,0.003281016751036,-0.053066049046774,-0.002622376046938,-0.022950850737445,-0.014380503821929,0.044353251665906,0.022170228409961,0.002095265021353,-0.018900192585232,-0.042615929194196,-0.052727607644666,0.003983783941983,-0.016998148228633,-0.002966374300565,0.046945176933992,-0.036285326420018,0.029350131983210,0.030370071377152,-0.044366272530780,0.021356519819222,-0.028265642865079,-0.061119029497984,-0.041777112121887,-0.060408446379434,-0.020378350606306,0.082079815185036,0.023504357313190,0.066248304530742,-0.051444623851733,0.006443597190027,-0.068665843087530,-0.018785668237588,-0.019831578551436,0.033839220937282,0.045479087901290,0.022411683257117,-0.013377719442730,-0.040984589736912,0.024206387687157,-0.043095000106903,-0.018042326206636,-0.067989042148516,0.007452392818170,-0.023367741361686,-0.004177432263337,0.043049976192683,0.045051829278330,0.066982602887526,0.027563664947264,-0.064479186367081,-0.073611538756850,-0.054504530135011,0.019440700161935,0.029874398239587,-0.006824862182656,-0.045038616119111,-0.022573872945423,0.005993410462509,-0.029087018732903,0.033554413912079,-0.051368431684754,-0.065485521414845,-0.003294688574994,-0.057407383367265,-0.007509085846359,0.056038959479546,0.052764626422986,0.067572277873673,-0.042027981569191,0.035019159460368,-0.032633775224012,-0.036036177321413,-0.046034421553298,-0.049138747041101,-0.015085442210400,-0.013507865797018,0.027889127628733,0.029952692314647,0.045646139717303,-0.008833410348769,-0.051058679751200,0.017784118371937,-0.063307819435512,-0.062178838147197,-0.005111243486090,0.075015886002150,0.012172890413655,-0.012424515297221,-0.018440254995979,0.003906055283522,-0.045206899420420,-0.033640300171208,0.026300566880538,0.052330034673740,-0.033703925678642,-0.024154429005640,-0.003271778317186,-0.018586294290110,-0.004533954993148,0.016847100188737,-0.013655272792615,-0.008989430674383,-0.021197546470769,-0.056976719124476,-0.037432482279475,0.065219420554967,0.008688482899948,0.037582560403948,-0.015989010260310,-0.005797911728850,-0.008477009795779,-0.007959508593514,0.038469539794728,0.021623692569810,-0.019104591636774,-0.004194245011183,-0.014697731565396,-0.006894713428744,0.018381027502560,-0.010713719946243,-0.043783461875079,-0.059633119625393,-0.061655191253493,0.001346433102701,0.015256791922295,0.010072539725140,0.018853893320986,0.049848125790223,0.009819410766248,-0.019079313528315,-0.039000734152140,0.041596625227674,-0.024583077980317,-0.009939472608175,0.012376839188594,-0.044098306289588,0.012402268434604,0.023463154926679,-0.005942548615238,-0.026640199026273,0.028868736975691,0.010768375384323,-0.021986002403589,-0.062151949321503,0.000655454547142,0.039389389479954,0.008787389771092,0.015823601961999,0.010628777990639,-0.026188214698562,-0.043968086872490,-0.036442214097457,0.029157948457328,-0.029532378011309,-0.005971730625930,0.009575564464362,0.024302268434604,0.028932145780597,-0.046020680378576,-0.042071091297615,-0.011932246402062,0.044484223839722,-0.030547739061138,-0.036673283237854,-0.057831164037830,-0.030696992106566,-0.010861463195035,0.001647350766072,-0.020490579649985,-0.003158440694073,-0.011311405983071,-0.052100408718100,-0.038481886347706,-0.005216913742151,-0.027754812580178,0.034103175493594,-0.046000000000000,-0.047222363073264,0.052350308594714,-0.018880621819731,-0.027110736441779,-0.042916369944418,-0.002643552550993,-0.006004268154974,0.036893706251568,0.013791106225175,0.061535958383649,0.066259763383177,0.013065000655762,0.017298436780136,-0.005220788777217,-0.050134622305213,0.022943136654119,0.035758147789136,-0.030780061905054,-0.031636148968682,0.023953854757577,-0.045982670105556,-0.009450670292318,-0.006586113933675,-0.029276374590516,0.039301259760163,-0.035415103319987,-0.031258176699073,0.004247883231180,-0.013892119611727,0.056539962207902,0.032578899299248,0.051734225008192,-0.005590928253093,-0.051442551177027,-0.046844898454022,-0.016759378377699,-0.047673091208783,-0.013548407829005,-0.024059430792388,0.012675471902699,0.048754948874386,-0.017570889520947,0.038486702935649,0.046092361620129,0.008013470913174,-0.026669571931270,0.001756014279904,0.028611124654927,0.004121491377905,0.047275370549251,0.005843415658458,0.021553946927549,0.014173521219251,0.025668678008944,-0.040850611477822,0.012338559583822,0.015231369087516,-0.016822373269505,-0.022144902354997,0.026212024681349,-0.022102219115634,-0.035757154046423,-0.027333827492771,0.049530554323008,0.032590332581471,0.012177961072375,0.009899853436714,0.032944603927878,0.055264964705794,0.058515194965465,0.008013442076784,0.046394392204914,0.059190630769864,-0.055109021272924,0.032824682422507,-0.044346691139452,-0.027610469673691,0.036016456012138,0.037972202871312,-0.032459622608428,0.011389426385108,-0.035282465419934,-0.008763294012405,0.015488491706712,-0.000539236304055,0.021603897090069,0.029755953262639,0.045901894656212,0.049204385735458,-0.018721059006839,-0.017027618108094,-0.004393355785572,0.028026148130545,-0.013902143303097,-0.024571855190410,0.009926878565975,0.034801925238745,-0.000013868132082,-0.029281542496665,0.020806809942861,-0.010446209932371,0.008022885396446,-0.041774653414082,0.050709134462889,0.025510300533574,-0.014334465944369,-0.021934472962138,-0.014675824721196,0.015934665968089,0.001713312518968,0.002266250351027,-0.033000996177486,-0.005718631440759,-0.025870401868567,-0.026907255438651,-0.040589045752183,0.052899951682819,0.053221555522081,0.046130563032256,-0.032074670696438,-0.021348607595932,0.040214351283922,0.029387429995149,0.044005202795178,0.055009297424672,0.006661808979308,0.001731932572362,-0.017014083970991,-0.033837344227463,-0.026312540801657,-0.035083899534099,0.002844100202693,0.037082242211817,-0.014255302406248,0.044518554675112,0.033072521810917,-0.031383311457695,-0.012895954620236,0.033421107238998,-0.019893293999591,-0.001516143776219,0.049988863697887,-0.039520919048659,-0.040843677534938,-0.040537595114237,-0.013628108079063,0.043317126577797,0.018866887490053,-0.016678847166056,-0.051560848164813,0.012680463158188,0.018836479931344,-0.037557608061048,0.023808815094243,-0.032250000000000,0.015800000000000,0.003250000000000,0.022500000000000,-0.041400000000000,0.046500000000000,
0.032841462927364,0.028426877353953,0.018905565207926,0.019258795712296,-0.049086053960916,-0.053498280689593,-0.033027482069368,0.013765428183893,-0.000895501946047,-0.038833009174867,0.002277516484236,0.020694276507002,-0.007821061263764,-0.043595012958460,-0.020190243445927,-0.043167784146310,-0.008393772785697,0.046125786641626,-0.020075956969875,-0.041481335823104,0.039500000000000,0.027463314843932,0.019745511863998,0.011175577913699,0.015605237383324,0.003082389118413,-0.002445903300768,-0.079882273503927,-0.089955367342802,-0.055562480161831,-0.032657216504081,0.017073732021183,0.001515240591463,-0.038477953108643,-0.024184781905956,-0.041534319468785,0.028796030505114,0.001448851183007,0.022457450355044,-0.000429704329121,0.040154675576133,0.040766812519079,0.027663297945194,-0.058048582555217,-0.042705334576413,-0.060581343526353,-0.063840514930411,-0.039076834171262,-0.061411675741385,-0.021835519889957,-0.010407544811570,-0.036377620744349,-0.036436747550680,0.021215917325307,-0.057019732771179,0.023060828958512,0.004571341991112,0.030777878293722,0.027875275544638,0.004282636997342,-0.028090843735845,-0.026282956762069,0.028268640944589,-0.014615885400714,-0.070322570323149,-0.079013017061711,-0.076142406434280,-0.026189601818044,-0.068425423953192,-0.019909594991502,0.004846241599395,0.023988446020566,-0.020185480700701,-0.039374901959426,0.021436107719197,-0.034126551580463,-0.031369193990942,0.055762177674652,0.031921123375770,0.028297333485076,0.024518491793964,-0.020729155643168,-0.019878736296481,0.026529059396619,-0.051388274392793,-0.003832595537307,-0.064334621219477,-0.040680642291554,-0.004724170558457,0.024398964799184,0.009523807118055,-0.007639029405065,-0.017062282611637,-0.040887486713592,0.008249817526121,0.016478526768529,-0.002579865752424,0.057315268928703,0.007021354890565,0.006754900197968,0.029925129379573,0.004938489304790,0.029434066163483,-0.024042508671556,-0.034934093894868,-0.049791975760630,-0.052152270413230,-0.026869398144320,-0.009508038109454,0.025243365236000,-0.059363429324490,-0.026006977641122,-0.034342730673123,-0.052174450238087,-0.078270616201550,0.011620693879542,-0.059400805308345,-0.009820603833497,-0.038652822757996,0.052097659654814,0.038223850062720,0.037886299044719,-0.029098935325164,0.004090603447895,0.026438415191619,0.022897772458391,0.012305631622988,-0.062317922393419,0.001845630364484,-0.000390762905208,-0.068087709037743,-0.023664377840069,-0.092405213027511,-0.042517736592681,-0.053709722096502,-0.075504806270806,-0.011884077062413,-0.057391941628018,-0.031113227401042,0.023914512519743,0.048173720083551,0.041361318132791,-0.022288212474422,-0.025244143700595,0.043864561124091,0.035867547990682,-0.022730705123001,0.025038322868438,-0.030122762601527,-0.030387154758407,-0.009746025458294,-0.043110606802996,0.011953832028519,-0.057385315095241,-0.059578674383255,-0.000943942122362,0.032716445672868,0.012781862628169,0.025333790168725,-0.007199113294499,-0.025095598961276,-0.017269202511457,0.048970903575052,0.050366171787440,0.066988136975608,-0.009489857834771,0.054588152878624,0.067281297378230,0.058205135662559,0.083220315403949,0.044536672176133,0.057985470949110,0.021184286112651,-0.022912209737293,0.015547533467778,-0.032348233752779,-0.042920339897144,-0.021383663527086,0.051141474290091,0.001647309479402,0.033750201986268,-0.034107164079616,0.047090027985677,-0.005325171629720,-0.006395274801968,0.041727188053486,0.069196815313974,0.014497986290179,0.015875946997312,0.076215859994432,-0.008451152249575,0.009714384321810,-0.027272358039357,0.012229555157712,0.030751708370708,-0.003932374891634,-0.012461548802900,0.001381500530406,-0.004176870066915,0.022965849999538,-0.004460446866322,0.041941034176279,0.033195387594810,0.011446513237543,0.089705362191988,0.012829714785073,-0.009173568610119,0.064025644753397,0.055351529073974,0.109647967570804,0.100931804971403,0.104779825185664,-0.012442410151035,0.067522232549526,0.023462950826140,0.077524765890891,0.009287980160115,0.049730483957214,0.014220372036459,0.022244138553870,0.005294188452581,-0.007094646613100,-0.031060029509234,0.071587595693520,0.029038757310599,0.050925433287687,0.034197336715425,-0.025416617521110,-0.018340749363563,-0.013099764245596,0.026508084312689,0.037590343338446,0.013875880781855,0.013425618538595,0.059811839336644,0.024365001258064,0.075988817313326,-0.009537002848334,0.016407652146453,0.051284176072225,0.018621974527010,-0.036798737650850,-0.003176069881317,0.058084464704904,-0.007393196588922,0.015546161854789,0.016736914429071,0.049316715799615,-0.029356284445587,0.003206402537921,0.044128487571190,0.000426603943409,-0.028640485750271,-0.017918710403884,-0.049233186123845,-0.011651301136970,0.049363381015817,-0.022476973079704,0.027201900569169,-0.033479246849920,0.022872540624500,-0.017750764605651,0.013284020971705,0.010722217041465,0.000946216783854,0.044178652598974,0.014831928488966,0.061069790392878,-0.007993624935106,0.036308135287129,0.003232451638401,0.062060006398170,-0.006398819271855,-0.052403922990323,-0.056181482707422,-0.019575358830883,0.033620643738194,0.044072810932303,0.005869820428482,0.033796809341383,0.025907479376957,-0.010417744771427,-0.049988007375661,0.050091137482535,-0.019623827833003,0.018227921910775,0.039868391515988,0.023656859368406,0.018593130104053,-0.030560318219368,0.004233108482449,0.048288483511294,-0.018128739489561,0.025268695639021,-0.024850638603296,-0.042280752627457,-0.007561207862732,-0.044665384857091,-0.021250631275683,-0.041391919321372,-0.005802206124766,-0.009648930199326,-0.024098072474024,0.001481941015012,0.023740957737107,0.028898893502384,0.048025865199702,-0.011199182041659,0.031868208710167,-0.011620297219871,0.044891852982991,-0.049449162716107,0.033698692384847,0.046340022644111,0.026779881642754,0.022530088998548,-0.001616753086270,0.002683294855012,-0.028449173781256,-0.007094929107540,-0.054747171333022,-0.024827413293523,-0.022434102907631,0.025853534763428,-0.055697906327817,-0.056990750352518,0.016193176332584,-0.013044021810100,0.037131534970698,0.048419123846618,0.053537765038274,-0.010862710433320,-0.014909592698174,0.016470790970298,0.038144300827564,-0.034954473511031,0.034316318149378,0.003882600654104,-0.039826863340439,-0.053758351525009,0.014299726841051,-0.017424889308266,-0.035033764126020,0.022714495261344,-0.001555666549911,0.026182080423328,-0.000298905838288,0.008550457960988,-0.020157555641352,-0.010130939614801,0.025515086231321,0.019548428098085,0.029629242403157,-0.037455336438166,0.005655579663213,-0.036789386022940,0.014641885202217,-0.003822077777154,0.023760080375999,-0.018758135999859,0.027617529763661,0.006756679688230,0.014837974413036,-0.009582138886556,-0.017583376946732,0.004717604165563,0.025564386038883,0.047907353363770,0.038496346790104,0.062978692121243,-0.003276502178197,-0.024209831747377,-0.025980511262004,-0.013307206778592,-0.002185798686147,0.012424070343862,-0.011146650122938,0.001001781140242,-0.025576942650183,-0.027777251869996,-0.022969223673155,-0.046780518284802,0.007523276280287,0.043872410829256,0.017914944451344,-0.040912577907223,0.016805273777719,0.045684113475869,0.020350598272361,0.015359215638154,0.032549295687810,-0.027625299443853,0.026656568363701,0.025919124287455,-0.022207958034591,0.006522024732237,0.032750000000000,-0.043050000000000,0.049250000000000,0.030800000000000,0.007950000000000,
-0.029987919921206,-0.016759484507264,0.029446517230763,0.028458845715570,-0.040109634993733,0.034523962276564,-0.040240068732781,-0.046021160349333,0.013377377902360,0.005615260119813,0.007990177943763,-0.018365002220695,-0.033500437751950,0.001928541041215,0.020080372135439,0.021411646672342,-0.050101921372278,0.003841839500366,-0.007670368786966,0.034898072445509,-0.046850000000000,-0.012309596127471,-0.001897665483225,0.026818903213900,-0.010475529718899,0.042978181228042,-0.011982606609244,-0.032759755485548,-0.004806318585616,0.066204727445897,-0.025701863022611,-0.019105878113848,0.005380575057235,0.047823637632061,0.002177147231796,0.020453654629453,0.011398475752109,0.038123897856405,0.032645342190589,-0.013262071639333,-0.017410965599080,0.016490037062160,-0.033652918537229,0.045818272387256,0.044892791753504,0.007230877823110,0.024759690185994,-0.008288197602492,0.068004493694737,0.084395096309633,-0.001057881241672,0.020388361981774,-0.036450644865296,-0.014597491852876,0.044960534380188,0.017871866964994,-0.040900714041698,-0.036249441991460,-0.044249271682527,-0.061568851612700,0.005979753598266,-0.019924959714306,0.010988513544563,-0.033481535682719,0.013381642410686,0.043483957876958,0.036291850588052,-0.012030222339365,0.026723480417636,0.045119441752439,0.055494047245881,-0.018283035977182,-0.004961395146419,-0.038541509032282,0.010737998518148,-0.010912365725472,-0.065117556823970,-0.006350790220834,-0.009385730448782,-0.009560500090178,0.008363119027291,0.047884116137982,0.036484305111335,-0.000912382186723,-0.009628303850331,-0.028085212391953,-0.032363529124272,-0.032108925164890,-0.018747687706195,0.024675555678328,0.013126324035249,-0.019041656763831,0.004211665579084,-0.012579878105088,-0.006606715574469,-0.067157963230494,0.004242058430372,0.020675906558172,-0.058586968311180,-0.021983918176319,0.006119982604531,-0.012661972418060,0.037843418799627,-0.032538329228019,0.005355500542792,-0.015114343713535,-0.037613955502434,0.029308513537572,-0.018592107979975,-0.027068392244601,0.014942151527117,-0.045232270837247,-0.051694192510586,0.014153372281345,-0.051929012236747,0.031511363921020,0.036959956948208,-0.036012924254280,-0.041299275641997,0.034424126609315,-0.024756834416269,-0.042920453813414,0.027236270744091,-0.002990357884381,0.019126669388493,-0.051232960608590,-0.048159447926157,0.021592883493037,-0.067014328285576,-0.017674847412045,-0.019379053901341,-0.024189196550856,0.050743203680187,0.042613854691489,0.008171963631130,0.015793464363221,0.011997566295084,0.033855873235170,0.012594962865468,0.006617645283938,-0.021611546267645,0.032741494621272,0.033545769577756,0.033400115584918,-0.005145791680222,-0.072882223926194,-0.059561069844192,-0.001360152628744,0.009216304811142,0.020598265421437,0.061151544608549,-0.004819429198758,0.026185793786829,0.097655680620797,0.067430947925409,0.015755385095811,0.008290963659505,-0.019318609599191,-0.025109567430929,-0.004077160141019,0.012570607638647,0.021820506501459,-0.040970179418673,-0.050434021634924,0.007020223730163,-0.021761972821185,0.019232795357809,-0.035104801016854,0.015853235850101,0.002436899067565,-0.023005553661746,0.057973105307748,0.058042891397294,0.035898305480185,0.011168485656130,0.053102946546631,0.061639692906342,0.051607494755004,0.032883692007869,-0.035560343384373,0.034099092705968,0.036596692189942,0.018683044222434,-0.010285338380478,-0.059735224477311,-0.056612784366496,-0.032052183025255,0.014837043855665,-0.044973489674113,-0.057329552269732,-0.047871270415656,0.008054162640831,-0.010483667512538,-0.047476714823285,0.060232348428851,0.069806622244481,0.054214954844645,0.018603385848758,0.016905929017403,0.015975596024152,-0.016914464814724,0.024998799199701,0.022873244897954,0.059784691271912,-0.001563125400206,0.020138986682550,0.025533656517146,0.026437466030207,0.004906303566096,-0.042617313454701,-0.081242543950092,-0.060956463585681,0.019851294118093,-0.009997327886214,0.034775483001082,0.040858379366528,0.004399429362297,0.048951282005870,0.021146248649831,-0.036062329189587,-0.009016788981446,0.028499226499733,-0.040392094514382,-0.022094637960816,0.016986300222016,0.069688071255684,0.041725645334942,-0.018225782845509,0.008534014164175,-0.013576069357101,-0.019055646962480,-0.018591816568368,-0.027225655310846,-0.011316006417238,0.069112171180200,0.043401406257267,0.015072437737678,0.004780247387559,0.007095448612760,0.038829394180189,0.009330635277287,-0.025782407380087,0.043404118782965,0.077338405318365,0.058228621199594,0.084819166779611,0.064050682916038,0.017025773996121,0.015457333374685,-0.080538381982224,-0.068949726210774,0.000112724583236,0.018103187587843,-0.006193097633294,-0.003283586028967,-0.021624932292359,0.042304790737133,0.001888273144726,-0.038925835380321,-0.004949837524717,-0.017172413510297,-0.051575188813986,0.022335063448091,-0.000894566608648,0.016118966952006,0.045327494113874,0.085913780391442,0.073435066616247,0.051658663859115,-0.057248768760391,-0.049087550124634,-0.040211773257511,0.008432030225960,0.000815628952419,0.068423177749911,-0.003618363729555,0.025260631913446,0.014424246969427,0.038409344499424,-0.031235827330262,-0.044896411001195,-0.051888995812378,0.022133891989192,-0.005619027552102,0.074722517355740,0.089425063766170,0.074960838637355,0.038389663227881,0.024070909778153,0.069424606261669,0.025044595109933,0.029998009032727,0.061516211347389,-0.002174403670026,-0.015178967375769,-0.036983039059851,0.055526105385122,0.057444034512393,-0.028161067252903,0.048565395407541,-0.015579461740462,0.044625646892987,-0.014711764877498,0.033326187257122,0.066827778552111,0.023203078262641,0.032471799596075,0.067718734928462,0.047516106260757,0.068605221966028,0.063084609684690,0.051029535926979,0.024428575684688,0.059777246933917,0.012583092809991,0.012232736139272,-0.043837372705285,-0.009095565179386,-0.037264283064840,-0.015287905955467,0.007859284779312,0.050068294600187,0.018702129491502,0.064839814166956,0.064557165444095,0.001045013984910,0.014024448570106,0.024904943951668,0.007594017019562,-0.024872452457055,0.062948646322003,0.055236893327545,0.012351095609872,-0.063722800575450,-0.032886721779175,0.027995486335022,0.001300090276844,-0.022837424875087,-0.047370444780098,-0.047212592911441,-0.051545651402664,-0.003259937763411,0.035070161573059,0.043220150190973,0.047929519527303,0.036323880058652,0.022002386065707,0.051390003828088,-0.004481161782497,0.006779953740864,-0.013927625709641,0.000227075132569,0.007947671849462,0.019235321818747,-0.035490016991943,0.016722355452745,0.030396638113072,-0.049003209526801,-0.050783099790368,-0.029294405024281,0.039068415126608,-0.010462154898297,0.047734304974629,0.022603590602923,0.030017891720140,0.009301616303365,-0.007382437788618,0.026233943818002,0.042452869147825,0.040023093338811,0.025726358768358,-0.006857979238358,0.047847069062198,-0.001949638682908,-0.032173524038665,-0.041557033455005,-0.040534861675611,-0.003428763784006,0.018592524747840,0.029533101354914,-0.050437733138687,0.005602742942030,-0.049305238762648,0.026761774812028,-0.027345506851043,-0.021047692135774,0.041637242722933,-0.032038063900567,0.045167913225571,-0.030963252354344,-0.020519736181204,-0.021243247803888,0.005248173048692,-0.054844235664517,-0.014611250793899,-0.041005585009601,0.036258693733655,-0.028700000000000,0.014550000000000,0.024150000000000,0.046350000000000,
