0.002501458788524,-0.000561100173043,-0.000737048147505,-0.000739049738221,-0.000393332936155,-0.000038966888367,-0.000991089839957,-0.001868760827025,-0.002890632028202,-0.003902296969324,-0.002705605239965,-0.004184726494808,-0.002888012408573,-0.002674769171778,-0.000828208899058,-0.001921978109899,-0.001451904938658,0.000034156344348,-0.000040746961322,0.000550701965685,-0.000625000000000,-0.000464279721846,0.000748622879582,-0.001395396499091,-0.001313539145369,-0.000522819179648,-0.001655517980534,-0.003253272713357,-0.003238726819025,-0.002275823387535,-0.000744930448853,-0.000018327941462,-0.000980723420691,0.001279901524019,0.001767477031573,0.001821510252640,0.001558524525439,-0.001638525250588,-0.001038675828913,0.000844952947901,-0.000154567065467,0.000676147103221,-0.000012219713772,-0.001196284315432,0.002616633305993,0.000743267782084,-0.000107149150796,-0.003825233654799,-0.004411775351974,-0.000352100468445,0.001219770203903,0.001154741852009,-0.002038143471777,-0.000953858352262,-0.002190920002969,-0.000703999859067,0.000320812584422,0.000644673456532,-0.001316945266979,-0.002345848614538,-0.000462714894205,-0.000211853233706,-0.001710468583022,0.001624679780729,0.001567033716480,0.001744480944798,-0.000711079922838,-0.002763378426508,-0.001468488653657,0.003233112526366,0.004362621874271,0.003781370990312,0.001267703773590,-0.002657216478545,-0.002668030836015,-0.001590648215723,-0.003382503969104,-0.001066194863634,-0.003668562441685,-0.001693362310008,0.000399183734638,-0.000619999578394,-0.003144411128626,0.002664199308035,0.002881054904293,0.001887452235868,-0.000823889481839,-0.001464224177357,0.000252079461180,0.003904986051238,0.005391740965245,0.001009279959287,-0.001376990255069,-0.006081958475347,-0.005249830603492,-0.002915465801348,-0.003711934773218,-0.004137316601499,-0.003253303556519,-0.002896362346731,0.000477900535129,-0.000838930507723,-0.002064119961498,0.001041883036185,0.001518483116424,-0.003884885996581,-0.005522523779264,-0.006039692456646,-0.000827385771777,0.004058389942126,0.004461097532295,0.000476997804091,-0.003249908758187,-0.004949196177218,-0.006724439788632,-0.002938826518858,-0.002798928915688,-0.000706998369504,-0.001531527925860,-0.001200951101502,0.002144015303938,-0.000544736551196,0.000008493051482,-0.001553196288732,-0.002363147059515,-0.006292803692162,-0.003691032063386,-0.004349767771793,0.000159094759787,0.000677649849563,0.004695281803992,0.001538779306845,0.001075300991851,-0.000728385323345,-0.000223175954027,0.001799736496245,0.002598200062247,-0.000259763759823,0.001010360907209,0.000605650698434,0.001067881699687,-0.000547915466411,-0.000041558962187,-0.003784700476642,-0.004103448078518,-0.007180180025365,-0.008191342294549,-0.005552611757203,-0.005113856596687,-0.001995672072987,0.003913596474391,0.003338256887535,0.003867685210217,0.000149474077040,0.002118476166803,0.004583369621301,0.003298186297988,0.002847633700775,0.001725267352403,0.001108897076128,0.000624060362410,-0.000714431226581,-0.001386063604759,-0.003286153158489,-0.004475497161637,-0.008366691488653,-0.006374091167372,-0.008121990044250,-0.000386078878283,0.004248955240311,0.008864281441811,0.006821613545020,0.007211237085791,0.002301357892463,0.003047063026676,0.003825918141460,0.008621764349311,0.005922375898753,0.003469598764493,-0.000605105971657,-0.000605825027280,-0.001319150738942,-0.002779390548389,-0.002510735050281,-0.004905275993477,-0.003968570485760,-0.007307461201964,-0.003975452712129,-0.001104748927379,0.002648584849920,0.005332243393693,0.002450696563448,0.002099700949290,-0.000257282542399,0.000384315184272,0.003237816608862,0.007373077547574,0.005347744989101,0.002844386014845,0.001196669779468,-0.000022846202070,-0.000236661276983,-0.000892429218697,-0.000568470951734,0.000280526413847,0.001729267633316,-0.001085820090638,0.002092068201775,0.001586458853948,0.002068610898840,0.002271635947756,0.004355374418546,0.001886856507867,0.002024766922033,0.001652030751991,0.004031175560384,0.009174856726906,0.004769351956847,0.002677650350584,0.000226540810066,0.000253220038609,0.000530296602910,-0.000994928335365,0.000500670850124,0.004113408440623,0.006733800418281,0.004318989836477,0.002565783456417,0.003749767073165,0.003384035833045,0.001868692076081,0.004289769222005,0.003949218274667,0.003594076873474,0.003961910361408,0.005638797006170,0.006464524966806,0.005277622069973,0.000871820551091,0.000422566260009,-0.000183574894476,-0.001853900248730,-0.000079288191027,0.006310957524819,0.007433311932374,0.005185420537193,0.003921495132899,0.001009618919982,0.001616454649434,0.005328177529510,0.002971062371844,0.003000933130232,0.004074677568335,0.001167115807521,0.001031469866138,0.004943330835094,0.004737997359935,0.002770165064750,0.001435060585698,0.000495360194049,0.001557600950917,-0.002233723106978,0.001760438050529,0.006416182152680,0.006080768824143,0.007860143776464,0.004995262134937,0.005407671124256,0.005089154002041,0.007178333570704,0.005305930330895,0.006002763510923,0.004933257194838,0.003085980153454,0.003333367953861,0.001716500852776,0.003017052972643,0.002404550681167,0.003136055126826,0.002456387908806,0.001917816125847,-0.000467477649467,0.001955027455928,0.005370563056043,0.002839838960889,0.003676402165048,0.001114448118939,0.002853254719085,0.003281759149076,0.002481681046972,0.002104209948614,0.005029381321051,-0.000269521455562,0.001269785062597,0.001816030764711,0.002954709552423,0.004369507036134,0.003731992824479,0.005501482247316,0.003064096144612,0.002334108871201,0.001282298680329,0.001767783616125,0.004700736480224,0.005375964035304,0.004516960426701,0.004189950465531,0.001398535214739,0.000866159075421,0.002583634313003,0.000287897887107,0.000716237785142,0.001061713688306,0.002251648717715,0.000022345645142,0.003299609348759,0.005615060417185,0.006557339106536,0.004797828735894,0.002555382873051,0.001881720174595,0.001398286532230,0.002853036277662,0.003153469732031,0.001845971413985,0.002421430010057,0.001700394991581,-0.000975280273245,-0.001115119435304,0.000105873968660,-0.002521008664294,-0.001565264674424,-0.002943929488259,-0.001956535040772,-0.002989104463419,0.001308097509062,0.004694070196409,0.003237703140945,0.003232243494066,0.001158145643894,0.001127918415005,-0.000221435417831,0.002082915004743,0.002234321844411,0.003669336519027,0.002170118048459,0.000676184451632,0.000458738785716,-0.000588415429139,0.002389136071850,-0.001087689344456,0.001303595608895,-0.001131703578789,-0.004079255644630,-0.004325795667542,-0.001268675898443,0.002343810441455,0.000520044576495,0.001274016274187,0.000408429735728,0.001758717303469,-0.000631995698470,0.001473451686741,0.001602305395038,0.002297547285464,0.003634314607556,-0.000246891351111,-0.000227314514006,0.001420984175864,0.001423617691186,0.000162468339679,0.000554506137776,-0.002193955174955,-0.003064403400892,-0.004385956019402,-0.002578689543086,-0.000377823700455,-0.000847151598847,-0.000529838335668,-0.000748540231676,-0.000083834117149,0.000683107172820,0.001520478447264,0.001835508732530,0.000056952181050,0.001436475251218,0.001759784649616,0.001938609308908,0.002010570585272,0.000683460778664,-0.000971248657015,0.000030616792108,-0.002881234520229,-0.003775474616410,-0.002554231419538,-0.001660440704531,0.000508952863793,-0.000717000000000,0.000515000000000,-0.000827000000000,0.000765000000000,
-0.000830278537897,0.000763000000000,-0.000333000000000,0.000184000000000,0.000979000000000,0.000101000000000,-0.000524000000000,0.000199000000000,0.000624000000000,-0.000200000000000,-0.000903000000000,-0.000488000000000,-0.000376000000000,0.000543000000000,0.000924000000000,0.000018000000000,0.000958000000000,0.000055000000000,-0.000826000000000,-0.000012000000000,0.000419000000000,0.000497000000000,0.000580000000000,-0.000286000000000,0.000025000000000,-0.000512000000000,-0.000858000000000,0.000214000000000,0.000271000000000,0.000058000000000,0.000897000000000,0.000178000000000,-0.000644000000000,-0.000598000000000,-0.000041000000000,-0.000737000000000,0.000156000000000,-0.000765000000000,-0.000182000000000,0.000702000000000,0.000748000000000,-0.000113000000000,-0.000335000000000,0.000282000000000,-0.000456000000000,-0.000867169740764,0.000668980271030,-0.000315559654352,0.000614000000000,-0.000995000000000,-0.000876000000000,-0.000437000000000,0.000684000000000,-0.000353000000000,-0.000711000000000,0.000363000000000,-0.000545000000000,-0.000324000000000,-0.000418000000000,0.000840000000000,0.000472000000000,0.000018000000000,-0.000550000000000,0.000109000000000,0.000141000000000,-0.000224002918283,-0.000959283786497,-0.000014229079039,0.000868267710208,-0.000029670613632,-0.000270392831871,-0.000871392831871,-0.000720392831871,0.000546607168129,-0.000813392831871,-0.000988392831871,-0.000275206280421,0.000151440345648,0.000107000000000,0.000879000000000,0.000078000000000,0.000551000000000,0.000486000000000,0.000563000000000,-0.000540169740764,-0.000414274699382,0.000546887556331,0.000542721462103,0.000828845326213,0.000327363823463,-0.000574959670870,-0.000185278537897,-0.000129278537897,-0.000961278537897,-0.000500278537897,0.000655685113644,0.000190415855701,-0.000858470624558,-0.000501277781761,0.000264000000000,-0.000744000000000,-0.000801000000000,-0.000888000000000,0.000028000000000,-0.000715921134252,-0.000065704690645,-0.000326565574271,-0.000676278537897,0.000450721462103,0.000059899124596,0.000425721462103,0.000691721462103,-0.000167278537897,-0.000911278537897,0.000668721462103,-0.000146278537897,-0.000242287625012,-0.000389336897460,0.000796556124011,-0.000115000000000,0.000705000000000,-0.000051000000000,0.000570000000000,-0.000647918215969,-0.000053996354324,0.000390290907543,0.000115721462103,-0.001028922245683,-0.000622885706026,-0.000742860816331,-0.000304885706026,0.000289114293974,-0.000735885706026,-0.000584885706026,0.000047114293974,0.000044114293974,-0.000166003838515,0.000764699642197,-0.000177166094228,-0.000547000000000,-0.000583000000000,-0.000013000000000,0.000371000000000,0.000357031098219,-0.000519978180095,0.000011721462103,-0.000394278537897,-0.000217003838515,-0.000676166094228,-0.000931000000000,0.000336000000000,-0.000186000000000,-0.000522000000000,-0.000454000000000,0.000205000000000,0.000626000000000,0.000353000000000,-0.000478000000000,0.000351000000000,0.000323000000000,0.000260000000000,0.000858000000000,0.000347000000000,-0.000163791628644,-0.000040978180095,0.000518721462103,-0.000976287625012,-0.000351388505734,-0.000334490555789,0.000580000000000,-0.000971000000000,-0.000589000000000,-0.000883000000000,-0.000783000000000,-0.000437000000000,-0.000444000000000,-0.000072000000000,-0.000715000000000,0.000841000000000,-0.000953000000000,-0.000046000000000,0.000583000000000,0.000720000000000,-0.000393834337133,-0.000092978180095,0.000363577943916,-0.000722278537897,-0.000563278537897,-0.000122278537897,-0.000478278537897,-0.000591702407651,-0.000122515941486,0.000630000000000,-0.000938000000000,-0.000163000000000,-0.000327000000000,-0.000068000000000,-0.000778000000000,-0.000869000000000,0.000743000000000,-0.000492000000000,-0.000270000000000,-0.000835000000000,0.000433339668856,0.000769581474257,0.000150174592704,0.000777721462103,0.000541721462103,0.000834721462103,0.000113721462103,0.000683721462103,0.000754721462103,0.000316297592349,-0.000764525028600,-0.000310000000000,-0.000813000000000,-0.000272000000000,0.000637000000000,-0.000479000000000,0.000554000000000,0.000993000000000,-0.000829000000000,0.000693000000000,-0.000041000000000,-0.000457000000000,0.000873009087115,-0.000721347513274,-0.000658441101785,-0.000451278537897,0.000761721462103,-0.000241278537897,0.000051721462103,0.000372721462103,0.000515568856801,-0.000162637160427,-0.000586000000000,-0.000338000000000,0.000752000000000,-0.000566000000000,-0.000718000000000,-0.000333000000000,-0.000965000000000,0.000309000000000,-0.000125000000000,-0.000945169740764,-0.000207019728970,-0.000399559654352,0.000017000000000,-0.000075000000000,-0.000916634777949,-0.000382827928921,0.000078721462103,0.000735721462103,-0.001054278537897,-0.000591265048970,-0.000352840522565,0.000081000000000,0.000488000000000,-0.000412000000000,0.000978000000000,0.000138000000000,0.000344000000000,0.000305000000000,-0.000358000000000,-0.000296002918283,-0.000992392831871,0.000228403805991,-0.000665000000000,-0.000245000000000,0.000187000000000,0.000602000000000,0.000209895792867,-0.000902108797134,-0.000595278537897,0.000744577943916,0.000708809370653,-0.000402000000000,0.000278000000000,0.000995000000000,0.000541000000000,0.000542000000000,0.000549000000000,0.000612000000000,-0.000536000000000,0.000501607168129,-0.000909392831871,0.000199607168129,0.000789643707786,0.000160000000000,-0.000409000000000,-0.000926000000000,-0.000807847227201,-0.000363960688947,-0.000875278537897,0.000896721462103,0.000755021819905,0.000599000000000,0.000381000000000,0.000752000000000,-0.000331000000000,-0.000585000000000,-0.000987000000000,-0.000918000000000,-0.000930000000000,-0.000255304530329,0.000441732737580,-0.000091267262420,-0.000751670613632,0.000824050432061,-0.000412000000000,-0.000497000000000,0.000203291663679,-0.000382470098566,0.000619721462103,-0.000722278537897,-0.000050978180095,-0.000840000000000,0.000476000000000,-0.000769000000000,-0.000842000000000,0.000530000000000,0.000616000000000,-0.000097000000000,0.000579081784031,-0.000358482043628,0.000738415855701,0.000175306810326,-0.000301836707860,0.000157329386368,-0.000060101168192,0.000477841782954,-0.000777314886356,0.000332721462103,0.000003721462103,0.000157721462103,0.000521021819905,0.000642000000000,-0.000030000000000,0.000856000000000,-0.000098000000000,0.000070000000000,0.000535000000000,-0.000302000000000,0.000509387390433,-0.000375432575425,0.000709317656111,0.000171518099965,-0.000569278537897,0.000894721462103,-0.000809278537897,0.000852721462103,-0.000220278537897,-0.000553278537897,0.000149721462103,0.000422855725677,-0.000731721846141,0.000857000000000,0.000597000000000,-0.000691000000000,0.000122000000000,-0.000540000000000,0.000139000000000,0.000075000000000,-0.000474594435338,0.000717414651776,0.000842567424575,0.000024164726034,-0.000668278537897,0.000441721462103,0.000510721462103,-0.000128278537897,-0.001076278537897,0.000478721462103,-0.001045144274323,0.000497278153859,0.000334009087115,-0.000913000000000,-0.000058000000000,-0.000369000000000,-0.000602000000000,-0.000550000000000,0.000047000000000,-0.000321000000000,0.000573136306718,0.000305414651776,-0.000423585348224,-0.001000432575425,0.000152114293974,0.000699114293974,0.000881114293974,-0.000180885706026,-0.000897851400712,-0.000310990912885,0.000946000000000,-0.000163000000000,0.000420000000000,0.000608000000000,-0.000252000000000,0.000054000000000,-0.000466000000000,-0.000227000000000,
-0.018665322119513,-0.001097183196703,-0.000744315477034,-0.000448270665841,0.001571311862674,0.001888497856772,0.000216248123878,-0.000699563067679,0.007312654439889,0.014443385548394,0.019701274535045,0.018568907386359,0.016669447764401,0.013045868373991,0.007127836595737,-0.000443060052738,0.000173238568615,-0.000983316409126,-0.001604199384084,-0.000396615950384,-0.000462000000000,-0.000493546089424,-0.000570561784449,-0.000099830455172,-0.000891520303194,0.005705669263301,0.006994479227456,0.008023719375023,0.019517367133939,0.029866820796596,0.025176705566493,0.023985474776256,0.010682210528652,-0.001892581974766,-0.000755882641863,-0.003938403001100,0.000076829023500,-0.000932121442759,-0.001483243991252,-0.000155282986252,0.000366000000000,-0.001160921544817,0.000925435784930,-0.007666598327492,-0.005821764293614,0.014558735665922,0.011799885238203,0.007832798323564,0.001102624965608,0.009866478923655,0.018142666154908,0.020260965389412,0.034744837509882,0.009302505447353,0.005320510635681,-0.016788617741690,-0.016568245332516,-0.017249442667223,-0.013275163779794,-0.007464562124853,-0.000423333401898,0.000854126755061,0.004177728848261,-0.007147441622488,0.014215364026215,0.033205188367366,0.038851342995316,0.019165903357707,0.028982735114684,0.025172222973540,0.015534619280131,-0.010036503908666,0.011411236403801,0.028599142591611,0.019339732975765,-0.015918297854571,-0.015741885640158,-0.026024759728174,-0.012704879909236,-0.011766284160786,-0.006104730854213,0.001607842131469,0.012734364171387,0.003128924466198,0.036885688745264,0.035262956605156,0.034427989011929,0.023586929034883,0.030353787960499,-0.009570695429676,-0.016375049814690,-0.000037842580470,0.013208362040666,0.045267784668555,0.029825525403386,-0.016292479700698,-0.007987491831666,-0.017591409369151,-0.007757281673085,-0.010885673688104,-0.010611237578419,0.007815356099155,0.011994571430776,0.028374720932278,0.052632202789021,0.058499571966266,0.049019508561987,0.015072179259042,0.023885927362737,-0.012652302412379,-0.003463141490815,-0.005332547559706,0.020622500932138,0.032770980483613,0.034508022582521,-0.002651559792918,-0.000844642964173,-0.005229974657941,0.000959053240057,-0.007862040346371,-0.005293981169588,0.008240302569932,0.012014952265914,0.031030347916733,0.048873905060309,0.057561492295737,0.020459251198344,0.005034895857172,0.016626013400914,0.025712079477184,0.005995264670547,0.020189936691325,0.038080715164767,0.040689933971924,0.034236388703063,-0.000801060158153,-0.009036264083772,-0.004041633577460,0.007070309622756,0.001214953375092,0.000483357955103,0.002585470888429,0.015723340334161,0.018053256147581,0.039657627480772,0.043810039179195,0.013219159455086,0.023209814127019,0.024150351818120,0.021743925882472,-0.002180702643405,0.025205695940232,0.030967454875456,0.040615925090740,0.019693671494144,-0.003992601981924,-0.004844023341111,-0.009972710745302,-0.004704154573063,0.001169963550917,0.000243636022089,0.009390508278437,0.011885807156421,0.003742590688690,0.024808506506898,0.034520130602594,0.016657895712529,0.029058079067185,0.011517886292853,-0.002140201965047,-0.010583221372366,0.006646462024938,0.031810902334220,0.037758436005200,0.022119555292438,0.008699111209385,-0.007179175479031,-0.011863536499394,-0.006502794571159,0.001828303537191,0.004315960115871,0.015835916016519,0.006969986603672,0.008179683382771,0.014645802325853,0.038327448544646,0.043412258571077,0.043691649661015,0.034790479882170,0.024696380791545,0.039386376323845,0.039747525763202,0.055867912820290,0.016308393801257,0.025752129546456,-0.009365237797807,-0.002303447057352,-0.011344731231811,-0.007065857474611,0.004450671077898,0.006234764908954,0.019363751294612,0.016428812530509,0.014671990496396,-0.014268010501447,0.009140124408479,0.019575090270582,0.027222786638518,0.024993118856808,0.036846862083865,0.039016598127434,0.028939251648892,0.035317118810061,-0.003737855463064,0.004123774918998,-0.015221673780003,-0.005844853367680,-0.012986509985557,0.002271449704518,0.005460800897794,0.007933962319074,0.020479831196492,0.021807310516901,0.009617080242420,-0.029065373806815,-0.013142883615226,0.008766906619725,0.048824987532512,0.045782634124612,0.076662056746099,0.061795243387744,0.030410889723687,0.016099217994917,0.001572429298400,-0.005824047350033,-0.006151330669032,-0.007507669768988,-0.008806047739814,0.010411258925884,0.011394156530341,0.005683216037623,0.014375937341657,0.007068152240450,-0.015349566928788,-0.024634884258636,-0.021532843658400,-0.009205176439100,0.015523118044381,0.022235743408248,0.018243480855557,0.006823379487843,-0.007361631703934,-0.041002802538923,0.005203834584760,-0.003316567190715,-0.010481961994979,-0.021506459560089,0.006150901107169,0.005143140592877,0.007001380102321,0.006078402981837,0.009228379457878,-0.002191958731133,-0.024656718916182,-0.026070136306058,-0.021042833669066,-0.020297740472715,-0.025896344532619,-0.023263984199856,-0.020192748676730,-0.008150123251521,-0.044330447018513,-0.048387760860598,-0.008278093827593,-0.014508831967780,-0.009231142183100,-0.028631394588243,-0.016561107029650,-0.007649622035357,0.001273983333246,0.001232129137156,-0.001348266095722,-0.006822162596122,-0.018341533814033,-0.036715500106488,-0.023256341817865,-0.042956784442549,-0.042484847304132,-0.062834259420058,-0.053557415776214,-0.036322486434345,-0.071838016132937,-0.060864827212639,-0.039732843224937,-0.021698750838259,-0.012092813692248,-0.040729830058953,-0.028959930624491,-0.011291641824559,-0.002963310918493,-0.001136043609764,-0.007273046358034,-0.021216757417691,-0.023811879918349,-0.029057821162832,-0.028631906584130,-0.044646622448850,-0.056310621896647,-0.082129017802343,-0.073523444171711,-0.047069838021010,-0.066137243331872,-0.065573008279232,-0.040619406713111,-0.006336464697385,-0.009995255309606,-0.028625966169233,-0.016245792968188,-0.006186406980019,-0.003436886557614,-0.002021292402659,-0.008188279596489,-0.019669460826338,-0.016073158724294,-0.013380024747942,-0.007315636675032,-0.028007716308800,-0.045663178807003,-0.066152348957009,-0.039114210391246,-0.026851095146705,-0.059129604483973,-0.065446703811044,-0.032478233729748,-0.005803376190274,0.005204890737710,-0.015783991541126,-0.010265452860114,-0.005896840754414,-0.005356656986473,-0.001442254934939,-0.007571046221833,-0.013189022063675,-0.021908759900092,-0.012281730115175,0.000883461710461,-0.017600606360861,-0.042251561217123,-0.054775835995638,-0.027606871254195,-0.003524252760627,-0.009680641868457,-0.022601964504307,0.005890067902539,0.022769655458843,0.015727818591593,-0.012372773981667,-0.003832470106100,-0.005052792392886,-0.005837607779556,-0.000143896223853,-0.002781085746248,-0.007341949175685,-0.020195747401453,-0.016528599967663,-0.009954840557291,-0.017654887049217,-0.037909271632629,-0.042859898032878,-0.005161678495436,0.007078185837928,-0.000004592550917,-0.019445972851636,-0.001536209659806,0.027145805726944,0.013377830268486,-0.009993862276773,-0.004690397725624,-0.006404791539595,-0.003915590086164,-0.000314896223853,0.000492107759883,-0.001464170098896,-0.007626406372187,-0.011935331105977,-0.007758869849877,-0.015937839651691,-0.023088637394000,-0.019945287017488,0.014468952467811,0.017902502238160,0.010437871831472,0.010247302379880,0.018679414086327,0.025360820014372,0.008028081159761,-0.000218557919032,-0.000934000000000,0.000503000000000,-0.000715000000000,0.000686000000000,
-0.046107095775519,0.002201654888433,0.005656884888388,0.010477942186166,0.017862933039619,0.022962430738005,0.028584350781359,0.030085439969572,0.023596930466339,0.010100800292129,0.006554508098065,0.001711648860338,-0.001948546900593,-0.003693895309472,-0.004032466866224,-0.011186458929430,-0.011917046836634,-0.008506769753457,-0.003153944138901,-0.001426103658393,0.000364000000000,0.005091392767054,0.008416744603823,0.019672653761185,0.025998961218732,0.035259004441850,0.037459512770384,0.049398134781959,0.054725002642081,0.052462824004472,0.039181728980172,0.021217191599563,0.009273676462671,0.019542742648693,0.014678598340361,0.001673883807494,0.000851374045472,-0.000072219227277,-0.003424652853949,0.000156799221827,0.002287618574161,0.008040247073760,0.015456078081429,0.028139642402221,0.038464348502644,0.052671718289691,0.047033326380097,0.063913079117730,0.058725088153615,0.052753895992547,0.033360956656157,0.011669187267614,-0.019455509367251,-0.012087930897808,-0.000051492901452,-0.001344156942860,-0.002096352470394,0.003658251822753,-0.005610597710598,-0.007236849817193,0.008231785403998,0.012371301053923,0.014284588066903,0.030771570182080,0.038787953445175,0.075424341244286,0.062334693030497,0.053391850561725,0.042772791177853,0.034787314727433,0.021400048167383,0.020055522658848,0.017664442725582,-0.004093717045300,-0.009654139713860,-0.005078711089735,-0.016040717609601,-0.011811442040360,-0.006228472804356,-0.008115362060704,0.004805757602524,0.010363122663040,0.010626372212835,0.026702926553079,0.036102736499924,0.032081491333458,-0.002658086041466,0.009484840778245,0.002930176256812,0.025674491172187,0.025826402963135,-0.022442176125324,0.000859093721894,-0.019171948500634,-0.019242308938283,-0.023858691570328,-0.014932957474292,-0.019053329346709,-0.000089618261673,-0.004221099564641,0.005043940466540,0.002482132408962,0.004374515040585,0.018857869981401,-0.003636347371447,-0.063349469984011,-0.070564151189926,-0.020394149016149,-0.016602075666079,0.001970500512392,0.009302361418177,-0.016635828825653,0.004089812702077,0.030311165817278,0.004528332189249,-0.009828369800348,-0.001738923248876,-0.002336378389397,0.006684829419728,0.003027165901824,0.009207190639988,-0.004448104634225,-0.014216149009068,-0.012313781891980,-0.026106669968493,-0.062925436351566,-0.052862315250988,-0.056679138091054,-0.015153333962014,0.008875012157248,0.047577018706932,0.027953816657573,0.037087148716859,0.052787286262547,0.036838430864532,0.027482149058249,0.036142950515990,0.026747534659054,0.033151853153418,0.010031831670565,0.008691658066421,-0.010105080810392,-0.024841656089393,-0.031852796086301,-0.065873588911220,-0.077648173245680,-0.058962883076550,-0.037714654576959,0.004637347715845,0.045096986514615,0.072528187775772,0.032390405987487,0.053523490961529,0.064556368465154,0.052858503494420,0.045269948466102,0.027826489855782,0.032993744292790,0.039983475569681,0.012164564523437,0.003982494213341,-0.021430382509358,-0.030412095829797,-0.034290257757947,-0.059247263921868,-0.075641261591193,-0.034869232750248,-0.028154782766199,0.025968981594251,0.039631798120656,0.051571210022392,0.016090599344122,-0.009896587167361,0.016342765867298,0.044346828737992,0.047879170609592,0.052008289600368,0.030888530729746,0.022021688787483,0.000253116871374,-0.003101734908634,-0.030748335090851,-0.028446081175279,-0.042085459721849,-0.065114225933085,-0.049506207845838,-0.024123790495089,0.000126055576540,0.009021139142662,-0.008431016523116,-0.027646357954064,-0.052505262427581,-0.060439654917035,-0.028287687262316,0.016236005495268,0.046458794102472,0.044941356714575,0.035431868766374,0.016914778492494,-0.000950203877489,-0.002321762923182,-0.025239900215304,-0.004259525353460,0.002412718114879,0.008726405992801,0.009482009370764,0.039641593043814,0.029259930330257,-0.003035936331835,-0.048970409315502,-0.069564393780783,-0.070622640540825,-0.043996545698993,-0.012446542653640,0.015854084027594,0.038647574692506,0.039882549557127,0.040748470921604,0.012512664358572,-0.003087534721327,-0.004561839011421,0.001828103245960,0.006404634193783,0.018581334844859,0.029933124217314,0.045422393784720,0.057601537300384,0.020323884209647,-0.016940483848042,-0.075521332016896,-0.088071903945967,-0.057628731109750,-0.023606051942688,-0.007692379890996,0.010430546679531,0.031838856282533,0.043577761567518,0.042600784342346,0.011569549610047,-0.002497215680002,-0.003365584887015,0.006200369382617,0.031419388189630,0.047886725915912,0.059690126025345,0.051427702246182,0.044883155796962,-0.003955103737093,-0.019783267019363,-0.079568061136676,-0.050798085444336,-0.025753038626185,0.034695530027918,0.041414103702707,0.027401541707704,0.046645055885483,0.041996204642879,0.027897774736768,0.023393324995695,-0.000545814245522,-0.004083604490966,-0.004657022527052,0.009032602814539,0.026390768382527,0.060776385783419,0.054933364447724,0.065361029719977,0.026858684816935,-0.009052906944220,-0.065146404317720,-0.050809788764695,-0.013702055626258,0.007998021568685,0.046662331673219,0.018442036404411,0.025821038684607,0.027255751884899,0.017567297262476,0.028427911867416,-0.000066008322105,-0.002177432380511,0.006687499538632,0.017415274608704,0.031970566816804,0.053411579888999,0.035186001216263,0.039711524393449,0.019755088684998,0.013126489051460,0.013076002452062,0.029004342761702,0.016142243026906,0.027410273589230,0.046135135372477,0.008696041828022,0.016248676073201,0.024114190481622,0.010567121224707,0.025893449189776,0.004381347811778,0.000066987992919,0.016368748202775,0.039161199491595,0.043848236446467,0.077256040027950,0.047598142837251,0.067227959552928,0.034948136089743,0.025745547573775,-0.003776250401538,0.035922427133547,0.021909465112053,0.015903935809705,-0.008274431301275,-0.022443087533941,0.002743264943829,0.006536068353229,0.004994487260053,0.003634989584755,-0.000373992493317,-0.003552934384001,0.016599808894375,0.031531804335370,0.055749442839583,0.063113140937892,0.016065543188180,0.020062720131016,0.027407839549795,0.044463000294851,0.041961389646873,0.046878413550471,0.031981696774992,0.000226978123247,-0.028950230691355,-0.023242290223884,-0.007725129718310,-0.002821985816026,0.002366672685975,-0.000478231940555,0.000794686850188,-0.006981152354585,0.015935136577398,0.012518375590384,0.054329463338293,0.059430163104547,0.040355583408623,0.041465340785339,0.045996316498274,0.045143286285230,0.032312252863214,0.016435086111977,0.032344546956434,0.015629109383017,-0.032707213096833,-0.034910345541626,-0.010438933731486,0.001336120675220,0.001449581263039,-0.001765900619390,-0.002947834097639,-0.008756943878836,0.009353623092953,0.004353349962390,0.024398267677549,0.037479926213338,0.042310346104796,0.027567584044964,0.049334119309189,0.054185960140176,0.047215627029737,0.036802785812241,0.028021777859622,0.008534280970520,-0.022722563199675,-0.025875437376150,-0.010054822010606,0.001987510922885,0.001577462196187,0.001850530051643,0.000521915904830,-0.002996734166011,0.003933466445019,0.000550058179246,-0.001182487812325,0.004929187110417,0.011507652370357,0.025210291802479,0.035555079032694,0.035064920967588,0.019510640892103,0.007221003786112,0.002065469172523,-0.008354532782367,-0.016809838661450,-0.025942527625666,-0.006852798475029,0.000983201630493,-0.000556000000000,-0.000830000000000,0.000961000000000,0.000483000000000,
-0.023262346334660,-0.000540881097231,0.001502239352063,0.004386725801619,0.007190233908969,0.012451628046570,0.018270892282027,0.025946493932438,0.032057012540966,0.035286855138664,0.038144389114480,0.037590231833043,0.035329120016107,0.029874513107594,0.018751006825106,0.006669878153955,0.005221405248491,0.000664176538832,-0.003953201951125,-0.002030619563008,0.000336000000000,0.001442589813049,0.002245378460542,0.008851096609097,0.012541535738065,0.024544165445728,0.024916804468580,0.023282890278906,0.042796980303221,0.055853412539421,0.046803420582603,0.034757673658742,0.018434298292323,0.009914243046334,0.009882743335525,-0.005135216341354,-0.006049570771518,0.000678854340083,0.000751881460415,-0.003114507371345,-0.000425009107935,0.001855298432534,0.005756599596765,0.004228520008569,0.006393817601430,0.023173953696541,0.014027587031438,0.021519195650074,0.017691656576389,0.026208090365459,0.028806762018404,0.013931797197906,0.018549479712169,0.013073623134347,0.016810965238162,-0.003251410387951,-0.015217229267472,-0.011782807890910,-0.004620244037317,0.000825988402355,-0.002406321358996,0.004866457007941,0.009192602593881,-0.004654536855025,0.014703033847330,0.017264094221679,0.028030585915453,0.011360416368804,0.012816800615093,0.005423518798398,0.002663289865653,-0.010350908536178,0.012607788203692,0.029806987184153,0.013884662072297,-0.009256186436765,-0.012602630273774,-0.018930632192531,-0.001093094638843,0.000664510052535,-0.005431985582187,0.004476619365685,0.013819235149551,0.002009941848694,0.025356912960222,0.025235103241419,0.018685708526277,0.016425493872722,0.032975998478416,0.002777118497191,0.003791853883229,0.012639737189576,0.019109878124856,0.049585141932358,0.038224180348870,0.001365884081280,-0.007480298238627,-0.009300510818773,0.002685595986166,0.001342142186990,-0.008048732129925,0.006691034498364,0.015667923508457,0.022710988573196,0.050391975608884,0.058357956262753,0.065275445222251,0.049184674901964,0.033020031893180,0.000797811238248,0.008769460711083,0.016018357749189,0.037104156505569,0.042336613985075,0.033036488091364,0.002131883044270,-0.000931941709343,-0.002207994237523,0.007190398330782,0.000883950928934,-0.005309215757755,0.010203324179655,0.018978724566023,0.033264085225091,0.059963232065840,0.060789054901503,0.048295994993684,0.049394270455570,0.034219910164394,0.044086075138554,0.027120826630767,0.037842977263069,0.042644019920872,0.044679037160587,0.033199863962730,0.010569721953166,0.005126801346247,-0.003774488629782,0.007215339972961,0.001062835445257,-0.002637777179636,0.007009220253190,0.021785161046390,0.028368719332001,0.057597072844065,0.043311319064576,0.041485456355670,0.048867095242057,0.038814641136693,0.045203867434368,0.004867756801451,0.028740390641476,0.030205370141312,0.028247857665985,0.014334662499296,0.004635228052793,0.012898314431283,0.000777336673926,-0.001451451811799,0.000984672286249,0.000281482260960,0.007495578928194,0.014435853690015,0.022044863595871,0.040896576727828,0.039402986962338,0.038999353613717,0.043554688376895,0.020395527541211,-0.001504375885525,-0.031690826806545,-0.003857607639974,0.003709071785093,0.012633573882619,0.022774103168768,0.011393978208655,-0.002463131334854,-0.005886834945559,-0.003469581805689,0.004312288845069,0.002296802362462,0.011247214568789,0.009321020675756,0.015810645861213,0.020798794599504,0.034864156591878,0.048139724725710,0.046314837500956,0.027299705170853,0.003363490770602,0.000743374400996,0.004196908582317,0.008097332791078,0.005124913554558,0.036659486464623,-0.002652248617227,-0.003773923705720,-0.007806027130822,0.000453790779852,0.008230340297536,0.004619345024470,0.010306717756478,0.009631806576779,0.016203422800963,-0.003477462031248,0.011642746536832,0.035654132367636,0.022471799530938,0.005593363192254,0.005100378289119,-0.003257700262886,-0.017526792677924,0.003849731056013,0.002228752593806,0.017646532831718,-0.004970301748346,-0.002697023884004,-0.008011888218338,0.008192416368310,0.008650577190977,0.004691425264555,0.007836972335253,0.016529638658749,0.011269930280195,-0.011627708984293,0.001679959346206,0.035252851269464,0.047693738737246,0.023540741164733,0.039227336868883,0.015239292458692,0.002639984502605,0.003435150587700,0.000799745060881,-0.001062947578503,-0.004988299023567,0.003009651346706,-0.003272350952178,0.013436928785098,0.014543151705100,0.005126390810863,0.009145199051797,0.004722239741076,-0.009246370918103,-0.004261708030447,0.003100241311512,0.031873153086840,0.034266652956889,0.023667774716544,-0.008560603897055,-0.017150464309426,-0.015249616200587,-0.039556994791577,-0.003653531391148,-0.007348461278383,-0.018028087510361,-0.004145784592396,0.011021374087309,0.006567725992966,0.006921342509385,0.002519474021912,0.007328935722800,0.002682601728491,-0.007771782719586,0.006161878925778,0.007824952768432,0.020851920212393,-0.005053336068739,-0.015642261664677,-0.042169301576411,-0.022256289355392,-0.032880944645579,-0.040926629279761,-0.011080415778362,-0.032973473899622,-0.022684282590934,-0.012183344143822,-0.007034242574466,-0.006346174221550,-0.002148084272380,-0.002150140728961,0.001884665451634,0.002343874353918,-0.009701224860005,-0.004269633538833,-0.005591906830968,-0.001395341920303,-0.019409807953562,-0.027721793960657,-0.028162767778067,-0.002071385457994,-0.037707819450353,-0.029196070964432,-0.021642340620830,-0.032776290729623,-0.022639373398342,-0.020207153783541,-0.020655658222811,-0.006944406005751,-0.005231715378314,-0.004722612178683,-0.003341610860751,-0.002477518753133,-0.011522585956011,-0.018613703189606,-0.025214118130959,-0.027838277178862,-0.041966742799621,-0.046299311236311,-0.046314336418763,-0.005437553687691,-0.030687703452030,-0.029604424087567,-0.032434475606202,-0.013459269011776,-0.014693626527877,-0.018982637154413,-0.011082258333111,-0.001810697133065,-0.001880340224313,-0.003450539293237,-0.002101882030552,-0.002205741014167,-0.003437027531836,-0.009699674207327,-0.011833835586392,-0.026302698689683,-0.032837330265754,-0.034761610917350,0.000209419822487,0.013708398500846,-0.013050285558086,-0.024162778368851,-0.020555196311906,-0.003911763828259,0.000989496929764,-0.012292103849368,-0.003411281839862,-0.000409437096769,-0.001805184190735,-0.002365396181822,-0.002262367787331,-0.003529067861454,-0.013887863045345,-0.013281110004434,-0.007135045259991,-0.016390884833193,-0.032553863226815,-0.043282825812805,-0.023220676962146,-0.003558103700126,-0.006226635973423,-0.009686010161155,0.002276666430817,0.014601410915488,0.007909863671177,-0.008987113429278,0.000401164846666,-0.001092246530946,-0.001448108780492,-0.001647020963139,-0.000566172529478,-0.001211710924746,-0.014331647080099,-0.019661183285471,-0.018864000791417,-0.014427808432339,-0.019462225771436,-0.023543848773992,0.009066568612686,0.021818168077924,0.018244402137342,-0.004989136899973,-0.002251082119405,0.019611965740717,0.011889708721002,-0.002762173387436,-0.002633409222971,-0.003018758300228,-0.003559943504669,-0.001520020963139,0.003153790686031,0.000738054636466,-0.004962764682913,-0.009510812803643,-0.005234651334992,-0.006925213637940,-0.007133347841110,-0.004174471793234,0.016598353526833,0.015548704109836,0.008457593091274,0.007806154983528,0.016615838757465,0.022959818603901,0.007825110269349,0.000682159508655,-0.000352000000000,0.000821000000000,-0.000309000000000,-0.000767000000000,
0.000555033681203,-0.000850793100761,-0.000710891640748,0.000254284989487,-0.000048438865827,-0.000507315638956,-0.000418458717251,-0.000734008008041,-0.001237423756580,-0.000267562709327,-0.000142947916572,-0.001856803398727,-0.000675670553669,-0.002128199630551,-0.001354626994115,-0.000372030477064,-0.000387409793990,0.000032679088571,0.000718037905583,-0.000040715936604,-0.000388000000000,0.000764705468390,-0.000594176080247,0.000139822700659,0.000945965689996,-0.000569844770549,-0.001298081117233,-0.003159886824420,-0.002365910896659,-0.001634908211643,0.000406407835782,-0.000931315365700,-0.002016363339450,-0.000396004639934,-0.000741866919988,-0.001498560322031,0.000639846899379,0.000124596430589,0.000954061297242,0.000524612253867,0.000634023494827,-0.000873866518249,-0.000152802762849,-0.001019060431190,-0.001477220791907,-0.002047718689493,-0.004277015908911,-0.004676396368478,-0.001579176314120,-0.000269084210622,-0.000382736444567,-0.000405490601772,-0.000460643111103,-0.001209669042803,-0.001282966858647,-0.000191087230390,-0.000331179535761,0.000518487343978,0.000571682062290,-0.000029735921183,-0.001043128985746,-0.000668124389490,-0.000597418916862,-0.002205022875891,-0.001193016573471,-0.003029897574127,-0.003476833584968,-0.004081677035122,-0.002377354223112,-0.000617799657863,0.000888693730095,0.000102435111972,-0.001132715415074,-0.000121704390919,0.000023435836082,-0.001124410317818,-0.001521629511012,0.001583256269694,-0.000330579707399,-0.000009428909930,0.000001421054254,-0.000184748006074,-0.000239918254882,-0.002651396689106,-0.002038195976563,-0.003857743352835,-0.003304688080601,-0.003895784838724,-0.003238102314963,-0.001980395763772,-0.001625088514345,-0.000274435933024,-0.001142911178961,-0.001397163888636,-0.000144365091349,-0.000408686097089,-0.002237347052415,-0.000938929332859,0.001051210248236,0.000708183732936,0.001820560564221,-0.000051462609024,-0.000325819102533,-0.000477023473962,-0.001152991594115,-0.003995133309822,-0.001974460298233,-0.003091178534205,-0.002873221924714,-0.002270942311684,-0.002309595166199,-0.001081042474674,-0.002289808240537,-0.003368050232098,-0.002142538787701,-0.004795606533329,-0.004081256874448,-0.001503661695872,0.000374703277066,0.000717330265742,0.001163439304406,-0.000799600293328,-0.001086263057045,0.000524439440583,-0.000772912854456,-0.002874751552543,-0.000322565850800,-0.001402817621227,0.000841855588425,-0.001219247963340,-0.001005108810607,-0.002072041122963,-0.003188363580370,-0.004317281536173,-0.002543722568062,-0.003943633419468,-0.002727258133686,-0.001499051108585,0.000662789101021,-0.000405199232407,-0.000184680284565,-0.000796945584197,-0.000606269129273,-0.001923905859749,-0.001615813421933,-0.001663089213663,0.000827006886786,-0.001719294296679,-0.000563975545949,-0.000139204182158,0.002256128311927,-0.000944091609055,-0.001999614094664,-0.003274159291792,-0.001900497347235,-0.002994943008820,-0.000866067983914,-0.000091503119539,0.000010233522453,0.000203693448918,0.000210341546379,-0.000751135488969,-0.000433802598612,-0.000772223821883,-0.000672672487791,-0.000228222848056,0.002051399514721,0.001678496116223,0.002655743651738,0.004842377872304,0.005754542197599,0.001885966366318,0.001973720447080,-0.002248395522104,-0.000934082542175,-0.000240713055572,-0.001537608762737,-0.000207142515709,-0.000284621698555,0.000246425928615,-0.000059130934722,0.000762417853031,-0.000747970137351,-0.001764851568092,0.001554827278729,0.000779294791537,0.001322613250014,0.003489392767948,0.001950959254292,0.005121830396809,0.002763955241682,0.002601277177662,-0.000535308833509,0.001236650266156,-0.000609404737425,0.001673425672223,0.000819281371700,0.000360102972115,-0.000546380110986,-0.000031112404211,0.000508415234263,0.000339426625659,-0.000574661556022,0.001641650624634,0.003324878124127,0.002782833275778,0.005865087251834,0.004688703753907,0.003659692767831,0.003913016556234,0.004600123584127,0.002808750609888,0.002116842409668,0.003276861428215,0.001936454756982,0.004208003981802,0.004176193155466,0.001578253827075,0.000509978417692,-0.000611574433971,0.001318478427529,0.000107432151167,0.000008744320237,0.001436341355408,0.003979589383344,0.005283871571261,0.004782800848795,0.001927590300046,0.002983639657415,0.000331000932986,0.000378080820350,0.002421176486901,-0.000780273364442,0.001013184770541,0.002074890078211,0.002390900534516,0.004186374031019,0.002147006093993,0.001060210524789,-0.000636721665619,0.000835911269754,0.000914978054854,0.000671170842612,0.003069129842011,0.003797593709584,0.005089297180275,0.005729678987234,0.003273492994027,-0.000343989082291,0.001763685193653,0.001926025577112,0.000151942745293,0.000596231598662,0.000721593406746,-0.002523016230706,0.001073373633327,0.001854865079261,0.002553242418232,0.000223196758752,-0.000683777623926,0.000582579597914,0.000009656521977,0.001215486231306,0.004397024430866,0.000209702967349,0.002604080040697,0.003910947331381,0.003015373375398,0.001599429785711,-0.002324691800450,-0.000553721630751,0.000624092057643,-0.001640162447266,-0.000697221166864,-0.000700245391064,-0.000207871572762,0.000558842451822,0.000857502977321,0.000452671715471,-0.000013081800798,0.000379918872242,-0.000552905941838,0.000369392291067,0.002570352051434,0.001351285409761,0.001450165145709,0.001820304020325,0.001593969711692,0.001459980340785,-0.001866853771129,-0.002074701593525,0.001894835292807,-0.000202298280000,0.000178481664091,0.000030223647643,-0.002119736593491,-0.000408188530345,0.000182695657147,-0.000578188972279,-0.001068722908652,-0.000230239835522,0.000750358384577,0.000110734286183,0.000548544461791,0.001175350596350,0.000979850565128,0.002074646057062,0.000897474276561,0.000276572495912,0.000600085928498,-0.001628230726073,-0.002997989294202,0.000518125260866,0.001020268810748,-0.002076325138100,-0.002170688723085,0.000368345846334,-0.001335444907313,-0.001715553311622,-0.001294473401454,-0.000451100234966,-0.000456972886003,0.000968992113829,0.001913573632730,-0.001265705742250,-0.001790651675844,0.001937351504810,0.001729522096697,0.000280608106953,-0.000008198950695,-0.000426206318104,0.001038050815822,0.002739656230639,0.000944355744422,0.001094619609878,-0.000206305801309,0.000538317936509,-0.000715680059231,0.000276683059154,-0.000899080054270,-0.001168682954961,0.000369207646395,0.000919115025792,0.000741988668038,0.001744592341301,-0.001047973591493,0.000759580494070,0.001170633988604,0.002221705694632,0.002259866884259,0.000156635064026,0.000903060736834,0.000652258011040,-0.000310866552061,0.001210324607531,0.000821189355976,0.000469047662033,0.000517107983922,-0.000357064201982,-0.000770715399414,-0.000763814320856,-0.000057343562314,0.000907284842561,0.001831210405253,0.001016103096892,0.000718179796216,0.000332912963943,0.001001997721240,0.002381540714304,0.001736189547472,0.001565037444364,0.001307659616775,0.001979754131550,0.002879468769973,0.002254226511204,-0.000290284997055,0.001428042139810,-0.000507312299853,-0.000036678749681,-0.000922152038036,-0.000444814320856,-0.000492362431487,0.000000935697761,0.000165463635709,-0.000229644516904,0.000800103027994,0.000598202373916,0.001217279564232,0.002435029336422,0.000281712996063,0.001212754113408,0.000922541867974,0.001115048734534,0.000346078178792,-0.000064536530059,0.000333631880520,-0.000516000000000,-0.000418000000000,0.000152000000000,0.000743000000000,-0.000467000000000,
0.019619605310665,-0.000799136690033,-0.000641360400757,-0.002449775494742,-0.006647335678950,-0.008599422077266,-0.010683215712036,-0.016757278758688,-0.015401185537693,-0.011967336416789,-0.007310156049761,-0.005629910627445,-0.007819235064582,-0.011877308351000,-0.013303992708173,-0.014547893365387,-0.011597975165521,-0.006391023721057,-0.000452827546390,-0.000276184245361,-0.000815000000000,-0.001122563547190,-0.002317575866054,-0.008131271107417,-0.013026086002639,-0.008806334268522,-0.001132126783432,0.002220985955730,0.012368256461870,0.024266460291451,0.027312013158461,0.027992919671176,0.022378228206362,0.001087396605555,-0.006376041817231,-0.003570878075543,0.001142270955682,0.002122804682954,0.000264489651757,0.002510657912018,0.002083845622591,-0.001550526122281,-0.003269017342767,-0.008823663037497,-0.011185772540703,-0.008228460997641,-0.000614507937800,0.005012899241991,0.034237972185691,0.044010551292098,0.056760168828558,0.063991047491519,0.046655646133629,-0.006149967351957,-0.019968130779967,-0.026073821106276,-0.018343846586996,-0.010858652995206,-0.010253592020966,-0.008837599562334,0.003081975566176,-0.001601619335441,0.000424357309582,0.001674967742888,-0.019902860682806,-0.003553846014400,-0.014324778394619,-0.000148036779068,0.024881661453181,0.040758338815728,0.047841318964564,0.044734372176802,0.032901150429534,0.014336335284042,-0.002933782270530,-0.025631455268328,-0.019238954016638,-0.027509225491612,-0.009145348212765,-0.011584388058598,-0.000923735605845,-0.000215060898198,0.008729422466712,-0.005087109016193,-0.019106429880071,-0.035747375818710,-0.041914869674622,-0.029965618232435,-0.022834302797297,-0.005181102601754,-0.011846653116444,0.009492113008492,0.007996885911712,0.006675437789109,-0.008936228655733,-0.046590171581134,-0.019312730270952,-0.034278201815714,-0.007180855231216,-0.006563005560000,-0.002308028021962,0.001751755564170,0.000088226433107,0.001799905908472,-0.034389473941421,-0.056400455589098,-0.078264206194306,-0.068670294019807,-0.017585789010826,-0.000804761486949,0.002234528800895,0.013321503214300,0.010988662499550,0.008716693993426,0.009775010203803,-0.019504760791402,-0.006413307731326,-0.009847734963414,0.000759752307753,-0.000821997238749,0.003949067902398,-0.002574788512690,-0.008837686599988,0.002540374020774,-0.016074359306276,-0.025267593291317,-0.056866530467010,-0.043852191550110,-0.004668289688794,0.016607532003596,0.033135031329648,0.043899886334619,0.032466931396332,0.021168760789114,0.024313971446617,-0.002526584768830,-0.006801878890075,0.017930359330863,0.011819331407911,0.005300357567858,0.004960043383043,-0.008423043331595,-0.004687738663427,-0.002143658221626,-0.009490583683165,0.001468560452894,-0.026061939004567,-0.017780665576943,0.015079205382576,0.032707220818602,0.074164359518308,0.063874180155745,0.054277443555542,0.056331448303723,0.035369903008760,0.007739619333506,-0.006654506984719,0.005612872607056,0.011837322357620,0.003539506391551,0.001844943761171,-0.003508201109616,-0.000285659608331,-0.005035339981362,-0.005582087703299,-0.004767146789681,-0.009079284291590,-0.004045552176223,0.014526305529432,0.030442607078941,0.071570967616677,0.068769623713414,0.062852693209833,0.057354217267573,0.037622880853779,0.027621467751099,0.015950935328187,0.003002716926154,0.005650829171339,-0.001040625115096,0.000692379445783,0.005333376891405,0.001866624991370,0.002885558994774,-0.003493408799053,0.007124712305199,-0.000867947034656,-0.013291601512215,-0.004877564737067,0.028700309413791,0.067079241054170,0.066104250033101,0.070593904678765,0.030483532637340,0.024980412006583,0.029219446179805,0.021340748339966,0.007228595020593,-0.002465558938180,-0.000792073921942,0.000998577161334,0.009452518998446,0.008302510266598,0.009507701515492,-0.017468981030004,-0.009343849075540,-0.019513166223832,-0.001287020421051,-0.004969698098334,0.016754950530541,0.032473021155769,0.040057584381104,0.048011562180011,0.029595442151445,0.021571466090766,0.022930319494912,0.014328441085521,0.015708596925038,-0.000278820446080,-0.001751974731795,0.002093112375119,0.012624603770339,0.012418225068757,0.005588098443881,-0.032254508584591,-0.033401826843194,-0.037735037853610,-0.020146327701224,-0.014876084411737,0.008636248313472,0.013753650778782,0.022160467633903,0.002333351645461,0.008498315609595,0.010383677351651,0.017581517937243,0.011053098225709,0.023376284035219,0.006410148866033,-0.000739704709481,0.000293493889493,0.011338953820911,0.007772776517708,-0.012555493709948,-0.028334254085089,-0.041621442018308,-0.054973231412976,-0.033436031156936,-0.023253810804602,0.005673758847871,-0.005273384773870,-0.002934501320271,0.001492110648397,0.006726958342381,0.005062010656797,0.016380445999843,-0.015100428499542,0.007305066046684,0.005927381621337,-0.002473571511881,0.001538743821649,0.010037387964784,0.001888124340403,-0.020066550868805,-0.034735372318064,-0.030163755731707,-0.038523266705497,-0.028444372061588,-0.028048142701546,0.001552048048750,-0.007992166679585,-0.024870399067687,-0.030751057685909,-0.016607909689721,-0.001902535511968,-0.013489609698370,-0.025469141314588,-0.016673310787119,-0.010000170448648,-0.012900189613514,-0.003022515677706,0.000923123038736,-0.004479906736576,-0.013947584916607,-0.026152375701149,-0.012354549111631,-0.039503194259994,-0.014567010097655,-0.020659477513601,0.000242722683929,-0.011573704323420,-0.012175675530609,-0.016191676194311,0.001259942204320,0.012303916266223,-0.011965956507383,-0.026735940503259,-0.021759238780020,-0.023893876191070,-0.014975810700217,-0.005690162441879,-0.005257253230313,-0.014602415471163,-0.024156761894019,-0.015509591765085,-0.015835571189551,-0.021334987840117,-0.016968128994515,-0.041793893137937,-0.024219758925810,-0.026233450552735,-0.009478388949356,-0.010106675648566,0.009309032131959,0.003007564384709,-0.008402883040446,-0.022002694759998,-0.022369801276711,-0.022409712403141,-0.011577873655696,-0.007018099110092,-0.006117792633126,-0.010404804562695,-0.014777995444083,0.003981375158517,-0.001486965328526,-0.011730812280497,-0.016500395178763,-0.020427205532281,-0.022107833662881,-0.006227591144742,-0.005324154675239,0.005737835843560,0.021376725230929,0.020399900458065,0.013437118534660,-0.007157706828964,-0.011861199159580,-0.004284263386782,-0.005789111176749,-0.002126130907376,-0.004803050335286,-0.006862396461099,-0.009834982199992,0.008739224383007,0.016320526575803,0.000749325280942,-0.016605910614376,-0.009265881312595,0.010560828114487,0.030829938970415,0.026036128265057,0.021125027236194,0.015076773728664,0.014337494086734,0.009314990805823,-0.009027388835295,-0.005160293795614,-0.002345713944549,-0.002669479134729,0.000904458654501,-0.001040885384557,-0.002378428258958,-0.003697050440112,0.004343399954847,0.011815080445372,0.007094825249820,-0.007407831597603,-0.003812153061604,0.011555970915397,0.017177736505542,0.005207897797615,0.004589708698498,0.011098041499313,0.025291643300653,0.008610355607386,-0.003750887242982,0.000301414747750,0.001003416594983,0.001806137029797,0.002108930800248,0.000406249083045,-0.000061410802793,0.000033830348550,0.000176862450571,0.005639532104878,-0.003843990646937,-0.012662676543260,-0.009715223416470,0.010363998022033,0.018419363790392,0.009059158308106,0.016569108348145,0.012039972464064,0.012786662092600,0.002621730460636,-0.000459757832243,-0.000237000000000,0.000879000000000,0.000742000000000,-0.000381000000000,
-0.048979152528764,0.001666987680239,0.003023763999282,0.007493097525670,0.015873809658845,0.023064849563544,0.039815640387485,0.049700903627895,0.057650025261332,0.057059002742308,0.062648129395881,0.055551759897819,0.044730096069656,0.027996639156183,0.021734345490191,0.012543614271460,0.012285945640543,0.004870194114859,-0.005599199783467,-0.003184946052058,-0.000549000000000,0.003843793807432,0.008294337387023,0.015996300168300,0.016684963934086,0.021958465458574,0.062064663063749,0.081266435135239,0.090075645774665,0.082368404894916,0.056054568503649,0.047232555288740,0.023889876512444,-0.005127033674968,-0.004884798928731,0.001596518395341,0.005444482451738,0.013267351922643,0.012319724307199,-0.000693034712594,0.000071827442612,0.006870011487345,0.014197499459070,0.014452833789280,-0.001298445149335,0.053859242402648,0.075414474592727,0.098918446139170,0.056443807960779,0.007686107269314,-0.005781040590212,0.001480771301389,0.032614801953344,-0.002961302797878,0.013036283357489,-0.004772318661327,-0.001305201835971,-0.008021999481894,0.005924315978099,0.016815153868136,0.006386876580174,0.012150072079172,0.024835405080144,0.011522531752932,0.028740702752015,0.077240026500679,0.117202835939909,0.096872184260930,0.076457986973676,0.000974345802119,-0.015274070917105,-0.021588777191907,0.020984912546460,0.046500647491436,0.045244947299659,0.001714963382217,0.027557967453622,-0.008956191711551,0.020142139597374,0.011570872910602,0.005262182904154,0.011741274914328,0.048304053567991,0.015511000772485,0.044466742536025,0.065353351369856,0.085461303255568,0.087221087040844,0.048773824539747,-0.037412251926590,-0.053877795400725,-0.009288841953274,0.035509160825099,0.092617606028242,0.084840605227564,0.021182452862572,0.041458943789073,0.010522365812085,0.027528505102689,0.014837998417208,-0.013772961963008,0.019537171427494,0.038006217807810,0.039944192821646,0.027344333195026,0.073760491689246,0.084060518246221,0.061431303121431,0.040945881692469,-0.031313070465847,-0.006369036684985,0.019476359959326,0.073185844441469,0.109331366446441,0.118259885229399,0.047382046074521,0.066473554500696,0.025979567237319,0.025174012912821,-0.000649184469923,-0.010935770999684,0.013662334923398,0.002749292556506,0.027030808767315,0.020234536326776,0.054063833276805,0.033800704205935,0.008580078498357,0.011437370444398,0.043244213608166,0.019189857929698,0.044405264738349,0.044388742834520,0.060377042122264,0.066240658909173,0.008504758103304,0.015109082755671,0.031273352998638,0.027420527452581,0.006843500373962,0.001876986271941,-0.006813519228671,-0.000627616405666,0.022166602596837,0.005363426271436,0.043069271145193,0.029063352006108,0.044875915522576,0.065055941194360,0.064836513666573,0.017958191903972,0.012945351284203,0.010271710796905,0.034370317497945,-0.000706222571838,-0.028837257893894,-0.020509251582148,-0.019699859818455,-0.003084473163612,0.001017201857569,0.002264126713477,-0.010186872460533,0.005437430073052,-0.010339648679793,0.000515302537845,0.044291972526123,0.021509990194551,0.061350082118960,0.038599144984759,-0.005308735483762,-0.024486973287462,-0.035276288579928,-0.061640718851789,-0.011229980449427,-0.036787553373635,-0.045966634878856,-0.066599044830459,-0.055839835271570,-0.030902956100713,-0.006529354178872,-0.002247699002532,0.001116987037099,-0.004327921587702,-0.009980095549485,-0.017994766436952,0.032510133006964,0.057988412136445,0.076790028968767,0.052966008571857,0.031632743235177,0.034554429178958,0.013579409333704,-0.015594734633752,-0.032121512007898,-0.002124782427598,-0.039571670736999,-0.066571282621377,-0.058844749897631,-0.041230737749772,-0.011672224738102,-0.003449937257178,0.009406182492797,0.005910241291728,-0.007266505909702,-0.048648602503300,-0.032642559603257,0.023581664076745,0.051025511528174,0.041000500923386,0.023363639831590,0.019244483842600,-0.016183087927926,-0.009674838253169,-0.067817292457127,-0.035779917089827,-0.046222882868832,-0.080492715841180,-0.059663300570747,-0.032736306319491,-0.013739739032086,-0.004623001431168,0.020235907146168,0.020744239739768,-0.005940448721171,-0.079346670411037,-0.086439630262684,-0.015237022740434,0.036913064562807,0.024095381344282,0.048576874579943,0.042258823036900,-0.013417387771959,-0.025639257732864,-0.048317032216552,-0.055645486161877,-0.045550604100144,-0.063730631220549,-0.051484022172143,-0.010234680139800,-0.009148637621899,-0.003956873389388,0.031553813505357,0.009338818822091,-0.056158811241339,-0.084098644531169,-0.080189286250168,-0.047428024501136,-0.004110233701599,0.018201261994887,-0.043823417135621,-0.008849802464648,-0.020982568821615,-0.044644753575402,0.004146561248094,-0.007950479993190,-0.031594873461476,-0.066674045493577,-0.030673886324638,-0.002483446966673,-0.008843973938629,-0.001870358260329,0.024034361458685,-0.001384163094441,-0.059596118409844,-0.070191745820855,-0.099782126357392,-0.093103481612769,-0.073990659710391,-0.064856150562905,-0.075442036343264,-0.029480477229004,-0.081107627891558,-0.042857089116078,-0.016428840707278,-0.015785056918763,0.006466312941894,-0.048576801254074,-0.035889626665719,-0.012172101227977,-0.017125389154102,-0.005532262307102,0.012485431835126,0.000714598909433,-0.022830220492877,-0.035953698206443,-0.056698908033152,-0.042088895226356,-0.051352525036942,-0.084354955218999,-0.046350956463989,-0.008266430637312,-0.064251910876350,-0.008162030953713,-0.021880421569850,0.005873429531992,0.007574718845716,-0.044655784987188,-0.037307936725353,-0.015811749007279,-0.014736146988351,-0.007403055716574,0.004743656444432,-0.009347397516387,-0.023859247349997,-0.007403738412036,-0.012440263296993,-0.009291237611057,-0.013252444861829,-0.044971232388220,-0.054399359561853,-0.009338855912510,-0.022724846996264,-0.033533483524231,-0.044499593727409,0.013804703587232,-0.001541733257859,-0.029418634039704,-0.018095820248520,-0.007613974732586,-0.008271408116082,-0.007830264158426,0.005176943859162,-0.013716139747488,-0.002978279135994,0.020674338733131,0.025726365589230,0.015048784660005,0.015644912281353,-0.008206872728012,-0.003868236048091,0.041705977404408,-0.008483432102826,-0.020250184185887,-0.003199456336662,0.016553026850551,0.023333772172609,-0.015186345100031,-0.009931091098322,-0.004060385631321,-0.004753336984221,-0.006396503685244,0.004779721243946,-0.020598782595131,-0.013344054090824,-0.001418756441933,0.022103405206976,0.042838526562943,0.007581384163603,-0.011760745077068,-0.016271293889131,0.029939930182573,0.010899828670015,0.009324399408203,0.032999995504530,0.035052885845908,0.030870734276105,-0.012400044826238,-0.003631863718459,-0.004914452691675,-0.006610372063783,-0.004684040252728,0.007480766526285,-0.010032113275937,-0.018695933129276,-0.017203498384000,0.001209861144860,0.014121414241155,0.007583050861335,-0.013516110847276,-0.018775535023440,-0.012604935894210,-0.014587969571791,-0.013925882110986,-0.004158416550579,0.050795998077850,0.025241280999772,-0.008298616657267,-0.004963091331282,-0.006629918511843,-0.005479925634470,-0.004085860196099,0.008160225101191,-0.002774462048736,-0.016761075735171,-0.012268123395000,-0.002160453847863,-0.018222130779842,-0.031329497107423,-0.024455552065085,0.013593059674808,0.024974608717267,0.007960214394324,0.016930108808445,0.025532207574653,0.030862839789551,0.010428900067024,-0.000449953021955,0.000276000000000,-0.000113000000000,-0.000037000000000,0.000983000000000,
-0.017940858637855,0.000568732039948,-0.001483611700178,0.000974118411516,0.005804800843082,0.006963980830440,0.009171527249117,0.011261705370589,0.023825898764843,0.037167855134216,0.042925845920526,0.041942550523326,0.040183101182870,0.033113745824150,0.020309061838777,0.005778510692721,0.003957195691527,0.001346243765923,-0.004766402391947,-0.001089403890973,0.000157000000000,-0.000395443038499,0.000888853903232,0.004963107702881,0.009490436284733,0.021203104373383,0.028793780604090,0.028220119091880,0.048016170948948,0.055222554398611,0.038135158340237,0.034474501417424,0.023096568098543,0.007781698208000,0.006612563463089,-0.005359758104921,-0.001368416439684,0.002767983339918,0.001542710389549,-0.002924828606974,0.000233364996719,0.000629833141507,0.003932870620272,-0.000625771225322,0.004481939633767,0.041607276722588,0.037597436964928,0.028589446804751,0.004324694013805,0.006965434096733,0.018576792659711,0.019202745176770,0.041029723213393,0.021933844979817,0.015885260440037,-0.014296411164911,-0.020250245389766,-0.022033931483280,-0.012334508492831,-0.001485116356205,0.000932385033659,0.003509350616288,0.009671157304963,-0.010435869126981,0.035746729687352,0.068334382137027,0.082265271281684,0.042823598355428,0.043799425832429,0.029724181031432,0.019224151220923,-0.016507862801179,0.016804708200109,0.054787507109918,0.037019688638076,-0.008331271582858,-0.001213258782293,-0.029841792438559,-0.003755078338626,-0.008359061496678,-0.004784478747642,0.004543748391926,0.023621331132403,-0.001512951467009,0.061943519130305,0.062337779308383,0.064232824403599,0.048110516516088,0.059023475590685,0.001370132305824,-0.007864217985494,0.013054165160731,0.025746749426845,0.087003014182973,0.066039083320311,0.000344344714160,0.015194763806319,-0.006489613473252,0.005485325243250,-0.006227496645724,-0.016657962393536,0.012885443403670,0.023187937017198,0.039453092171401,0.080930984654825,0.105735858898452,0.102491199047712,0.060867031212726,0.062681256335444,0.008830315534329,0.020935442214566,0.022668866132926,0.048118420526888,0.072263677383931,0.068539077078465,0.018787948411364,0.027929489227875,0.014542496669041,0.012467984218983,-0.007202419921171,-0.008757449090729,0.014724086750361,0.023365740396896,0.042526370011207,0.079555897016892,0.105999148077948,0.063739870590863,0.033904948861448,0.040613798804543,0.067552595198793,0.030484689103073,0.049331466567105,0.055819185608327,0.069524599459627,0.062294422887005,0.013678311343856,0.011468172538873,0.017190954272610,0.017483673619657,0.006695727262695,0.001498223242138,0.007495730810625,0.029427355038524,0.032859182181688,0.072747504746076,0.082731951367474,0.058481443652784,0.066896552627822,0.066104287265610,0.065226731763016,0.003560847258098,0.033894170106665,0.032530100049729,0.054424701536106,0.031307338871377,0.005315737594522,0.014676104914623,0.003640032379646,0.000270081293229,0.003392997975813,0.001332677217198,0.015939334207421,0.025418347472042,0.017376521734149,0.048997404894269,0.071360244079464,0.054450434229848,0.061166591881270,0.025052340787906,-0.015719927821134,-0.050116730264691,-0.014433873222407,0.014886999295426,0.037473999569382,0.038216321507624,0.025457749309667,-0.000416933744413,-0.007105757117743,-0.005396541267995,0.004688124258845,0.004998176370445,0.026122614612847,0.016789146912383,0.021925081982095,0.029781844195744,0.063488381508034,0.081442664183168,0.071538977888903,0.041260946297322,0.013329232070509,0.026053182094905,0.025721549082140,0.042706947200844,0.016321061853717,0.056354644183253,0.000482113573100,0.003345494852218,-0.007005310959530,-0.005935040673570,0.007389127272527,0.009295886188556,0.028922954810021,0.030399251620420,0.025742052107511,-0.020058321726652,0.006681116944130,0.024229774605880,0.031895232828298,0.016997209560337,0.028923136037167,0.024492112301857,0.006215694988436,0.026489787328281,-0.006808231208755,0.027817913035273,-0.006057599940135,0.001229904131881,-0.010139759326625,0.006602567488915,0.010951364378725,0.008776038434663,0.029253206101011,0.035916917902111,0.007708840744130,-0.051595274094228,-0.037699275431221,-0.001362949780567,0.060109863470926,0.045140220821121,0.097721055553768,0.069441332330305,0.015832233425847,0.006294360426475,-0.000992398626435,0.008206563205324,0.003017516798872,0.006392498837179,-0.003102993838869,0.022024122321961,0.019273697608705,0.007804145522695,0.020272033216051,0.008881078076172,-0.044610652524858,-0.061944835770919,-0.049951777398617,-0.022972588144166,0.012706302146957,0.027621957958227,-0.000196703476427,-0.008128229708748,-0.020290009938716,-0.060989447128742,0.015300817892731,0.016674316063007,-0.010998788666259,-0.019751780668112,0.018525406189678,0.012905281043344,0.010660145551764,0.006889891793657,0.012122064956813,-0.008063322540616,-0.054414245749254,-0.052473229712529,-0.050465858071634,-0.038869190138712,-0.053644357501396,-0.044807382499823,-0.050049509628198,-0.022270085010122,-0.070732970320603,-0.066272654535137,-0.010529798204716,-0.022908883782460,-0.015063434092354,-0.039066980610146,-0.023313465950282,-0.013021179899471,-0.005843318018132,0.000458802405393,-0.002219341610534,-0.014941713272439,-0.039098073985964,-0.052521637444588,-0.035714227159385,-0.048864689280415,-0.061833788413508,-0.082307801629247,-0.064728389480002,-0.039002410603765,-0.094173601314516,-0.059501099912623,-0.040422023450676,-0.027904594230084,-0.019216240110899,-0.059015125713634,-0.045876732551401,-0.024465411753428,-0.012002124715658,-0.006324436494554,-0.012695882438011,-0.035866164338593,-0.041598274047158,-0.040440363575345,-0.031841506265134,-0.047548624843370,-0.058344566923020,-0.089426585931328,-0.082897634826432,-0.035346544662662,-0.066635061122805,-0.067282781334729,-0.054664199973325,-0.006138138014410,-0.019342932273906,-0.044706663096707,-0.025480735870611,-0.013565643212526,-0.008518026099722,-0.005941338787415,-0.013475255451404,-0.030403300806996,-0.026263721332151,-0.013388733762825,0.000607701123839,-0.028080782207108,-0.044751608420281,-0.073105464212721,-0.023025380438799,-0.007709073842707,-0.055291070236348,-0.068768486197687,-0.034133248800246,-0.000417629515320,0.008297074580076,-0.022890093034403,-0.011861258960597,-0.006057706153300,-0.006348815581240,-0.003522210477625,-0.013280972700505,-0.020757606055160,-0.036022684871917,-0.022101602451610,0.005046640171233,-0.004834558556596,-0.043795393393414,-0.067956898829299,-0.034256950688274,-0.001498973186443,-0.003965688744313,-0.016762440135047,0.017562025458891,0.028595645210222,0.014402463430083,-0.019365774862434,-0.005571419972372,-0.005513688893073,-0.007172340068753,-0.000308432266236,-0.004852950151742,-0.008852566128897,-0.028606829050989,-0.026540572297465,-0.020907125369459,-0.018200723009997,-0.033441768586835,-0.053480682335149,-0.004051071873436,0.010716975408515,0.002019490582511,-0.025657241341728,-0.007440111956958,0.031103828525481,0.014581787769809,-0.010180766626186,-0.007295521143603,-0.007246087631610,-0.003879394902336,-0.000710432266236,0.001529277988339,-0.001897693173055,-0.010247316067179,-0.019681899884078,-0.012209334064673,-0.022418700011678,-0.031656893827021,-0.026337201298608,0.022602385852461,0.027526421874578,0.014776915908154,0.015600496313598,0.032436687789330,0.037768020717168,0.011443557335659,0.000006461356163,0.000786000000000,-0.000004000000000,0.000703000000000,-0.000550000000000,
-0.004707831434934,-0.000446494253302,0.000563678949138,0.001184794333845,0.002460396010406,0.005585301903493,0.007398589810596,0.009672687132020,0.010057805513847,0.009771208606919,0.008645969851076,0.010540357723941,0.009216134041139,0.006939281324713,0.005729312595281,0.002396244020328,0.000658220320111,-0.001142382055848,-0.000395540887807,0.000553113179011,0.000693000000000,0.000668289270656,0.002504791132232,0.002436268460658,0.005272912156403,0.005881592470381,0.003813463079087,0.007468840127248,0.013241980449260,0.019474966496552,0.019692895268527,0.013629093603274,0.007575138246258,0.009063730176208,0.008578017144943,-0.000095368681370,-0.004870277706293,-0.003687469421627,-0.004282066342705,-0.001671663903883,-0.000660708838063,0.001266828217028,0.002110079705137,0.003629034178789,0.003087076305670,0.000388657106552,-0.003091892210862,0.004644534878949,0.009592830637939,0.013709193967105,0.012223831749942,0.003450032757659,-0.001672547586156,0.001975155870431,0.007157132615864,0.001943358579155,-0.005563914158184,-0.005720088460944,-0.004469092472705,-0.005584561211422,-0.002696589299065,0.001324353799314,0.001338609342556,0.002275164541518,-0.000581687405208,-0.006811578085192,-0.006637018705659,-0.005615944348826,-0.003854358613156,0.002447380277258,0.002749232611200,0.006705897431167,0.005847925864643,0.001158096764209,-0.005919056123282,-0.004702844996191,-0.014202778618979,-0.009022962947400,-0.005582480703000,-0.003538530983918,-0.002520995923528,0.001990968953241,-0.001480320675120,0.005655496576327,0.001591048456898,0.001006353440764,-0.009617679777635,-0.002793783302323,0.005791602421722,0.009359903053148,0.015248717807155,0.007980337681111,0.004680482564236,0.002186821642258,-0.006129025042176,-0.001542488158252,-0.012129642978475,-0.010261531296702,-0.006983290830778,-0.002738970437309,0.000397868481573,0.001085549557604,0.000241290391467,0.002769586052533,0.009027258012788,-0.001483265028466,-0.000549068331264,0.006767644850619,-0.000955472395271,0.002777534825466,0.005890344243717,0.007226973231793,0.007665798330147,0.004213079332959,-0.009781124749913,-0.005665764574623,-0.011049165051553,-0.007695422620031,-0.004557506593050,-0.001082716497491,0.000331405803893,-0.000164250551425,0.002450987429989,0.003918673012644,0.010114603654167,-0.003706820409880,-0.001263943681809,0.011586140030499,0.006333902560851,0.007889469234957,0.010467809563496,0.012775031095609,0.014681198970569,0.013276130029032,0.001965865136270,0.007172340610083,0.002317191817542,-0.009805776294684,-0.002926957369193,-0.001534343317131,-0.000719504579977,0.000959284963399,-0.001124142300863,0.002842172634300,0.009214021507633,-0.011606762309981,-0.008181808459836,-0.002163827598739,-0.004247645168182,0.001711869155683,0.000098514428741,0.014184760918219,0.015770028043487,0.006610474824921,0.005966821238108,0.010284303441847,0.006217611370873,0.001567432602407,0.001444215671766,0.001121327202039,-0.001121545219833,-0.002154710419935,-0.003579316045658,0.003798575686346,0.004091859284172,-0.010916977259847,-0.006279516120951,-0.009182880443975,-0.002528405135980,0.003828381095102,-0.002537330796861,0.006740567076517,0.004561232072754,0.004867456509510,0.008809581045429,0.006158028579294,0.006576869388733,0.003663000613012,0.002590642414386,0.002400202205121,0.000932672368417,-0.004219046239944,-0.002911072282400,-0.000938767514214,-0.003579789699764,-0.004329550198208,-0.007881869427254,-0.006446416360938,0.000436239031965,-0.006587494418787,-0.011735990183603,-0.007180580140135,-0.004690446095025,0.001401566217146,0.004221274016027,-0.000967771842095,0.003150329180329,0.001704608604826,0.004442312866907,0.004098693258629,0.001402180889217,-0.006252406403565,-0.006209297745022,0.000109760696464,0.004952428361819,0.006231864554644,0.009773743270751,0.000807707758121,-0.004225181663057,-0.011586239719398,-0.016813245344181,-0.015863062288482,-0.009371424489680,0.002162187873174,0.000433510369461,-0.002419136779767,0.001078160062706,-0.000863161701018,0.004782993181981,0.004221217163113,0.000913051056373,-0.006630364616821,-0.004103317602576,0.003840228384267,0.015122916063950,0.020934263066629,0.023032500406526,0.011598823041670,0.003110234964287,-0.004678386722118,-0.016105564099178,-0.001303558977828,0.005836197320065,0.002551986968843,-0.004522255518914,-0.003801806712727,-0.000478556088033,-0.002806242823392,-0.000338991529979,0.002298606980665,0.000908748118104,-0.003028708461243,0.001027317461937,0.015983437964088,0.028889894684331,0.027362090538394,0.029735815403816,0.020568323292187,0.009438111343463,-0.003877401008692,-0.013671711149113,-0.000770078970903,0.000727073349602,-0.001353461496933,-0.008879503554927,-0.006266726841197,0.005007969745937,0.000335085216136,-0.000579919876871,0.002155032572709,0.000268901631747,-0.001846704443633,0.007167115444928,0.020121799329656,0.034462815634140,0.033677335431257,0.036278609542175,0.023308120684256,0.013014531452390,-0.001512053193476,-0.002623459347298,0.011532433112661,0.002834658476685,0.010444556814011,-0.006907247276777,-0.004521272892491,0.009095581709623,0.006231778801565,0.006586357252361,0.006186145523384,0.001257355375808,0.000460945546441,0.009280110932278,0.011459636682724,0.021251495726460,0.016088845212646,0.017455547673491,0.014377953303225,0.012652392354444,0.009350140592995,0.011291168788286,0.011623408104532,0.002995645141254,0.008644654375730,-0.011295649827055,-0.002230451661125,0.011579079560793,0.006138773913368,0.011515304158990,0.007360557210980,0.002885429499996,0.003687960633848,0.012762880004938,0.012451677017889,0.010472031403622,0.001820378784148,0.002788275761312,-0.003555263665856,0.003393934763985,0.002497157980848,0.007795255027046,0.007576891088993,0.006425566353433,0.007180172410963,-0.001468214090239,0.005497718450474,0.009771035417248,0.010512810343961,0.012672438288709,0.006610235867678,0.003974209175401,0.003571849364057,0.010803144773013,0.010205832830625,0.002913927301079,-0.002720880341399,-0.008998191908160,-0.008224257872459,0.003701794629031,0.008759673584998,0.004309713687617,0.007989691254320,0.004260999403931,-0.002163853280106,-0.004964971574370,-0.001932483842255,0.005272079410669,0.007033855458549,0.006040521607223,0.006005233034944,0.003541183978846,0.003107001470248,0.006004841743672,0.005743747230582,0.002791478618376,0.000369737491812,-0.005578475576944,-0.005410184907844,-0.006118808259361,-0.002323451166986,-0.000831821852051,0.000359052566546,-0.001287579024324,-0.005554506232321,-0.002783807563850,0.001584751589968,0.003207429063927,0.004597922443633,0.003689560391541,0.004129489474455,0.002367342634393,0.000594567511590,0.001594608267813,0.001265706181020,-0.000582281473522,-0.000806113812026,-0.003467738473882,-0.000845839022899,0.002941931989981,0.011540109216805,0.014077645576167,0.011396285349777,0.004556674495696,-0.002397482506403,-0.004505281040024,0.000417581474479,0.000539312528294,0.000535032709607,0.001522107891896,0.001366482909426,0.000789801592488,0.000505404988055,0.000065439310471,-0.001588116085948,-0.000990225498927,0.001275008285187,0.005800719972933,0.007659100525316,0.006314018036793,0.003690946082455,0.001054035450569,0.000996040082994,-0.002871955293749,-0.004610687426370,-0.002317147972870,0.000171047063654,0.000625962736360,-0.000553000000000,0.000973000000000,-0.000393000000000,0.000191000000000,
0.031738258724071,-0.000305940420936,-0.000556203910909,-0.000580000037111,-0.001687212030585,0.000514052615181,-0.000414952989935,-0.000435222907111,-0.003483085989518,-0.006798964612782,-0.008268404661878,-0.011205964981121,-0.010703950644606,-0.008974950829305,-0.006159104312789,-0.005944971229378,-0.003147437193481,-0.003060479533079,0.000977214477693,-0.000692331431883,-0.000250000000000,-0.000492642183836,-0.000499626254319,-0.001552783954822,-0.001196355767882,0.003707011749298,0.000749632959206,-0.005571667246131,-0.009781936586920,-0.002555592302944,0.004825811320447,0.001886299161272,0.002242969021287,0.002281811892851,-0.000069456473190,0.002396993743427,0.004419172781891,-0.000413884794158,0.000286404893545,0.001591778311126,0.001733417859597,-0.000454474915090,0.000477655146811,0.000129612973504,0.008458698129743,0.006590195113963,0.006224111528915,-0.005245429660644,0.000148141458368,0.001488896297945,0.003158627589965,0.003454223771928,-0.005906716328907,-0.005106979332570,-0.010226491331107,-0.006231926363359,-0.000903358372302,-0.001779230854180,-0.004716828406191,-0.003186317882345,0.001763722280144,-0.000796142117761,-0.001107865742518,0.003642064458237,0.004905423329433,0.010453798798663,0.002684565323437,-0.002988461546842,-0.006042202957301,0.012165824787318,0.014921664958988,0.018989537197804,-0.001356612352839,-0.007453386433962,-0.013162212650955,-0.007870700647053,-0.008014284697611,-0.005682909350993,-0.005359927796388,-0.005545276202851,0.001166463646500,0.000608043182166,-0.004006298173740,0.006021143201848,0.005349651957816,0.001626979442960,-0.004103817206351,-0.013074696011166,-0.015367510194498,0.018920360746736,0.015221097611172,0.008522390305158,-0.009907851481309,-0.024101188024410,-0.024054845599927,-0.017504913485720,-0.009519095179861,-0.010543781025415,-0.005086055323785,-0.004652552084098,0.000138793837958,-0.002291761480939,-0.000817816146151,0.001771709533291,-0.002576409065708,-0.021897454814594,-0.028752682939982,-0.029024745180944,-0.012844158277034,0.025033821020893,0.030476525423198,0.024093494273840,-0.009033453376222,-0.017485750467367,-0.021731252839231,-0.009583696492964,-0.001940794728087,-0.001980403444394,-0.003850379638222,-0.003667664055447,0.001743498771495,0.000445971926319,0.001728513589584,-0.001263426512316,-0.014967428923355,-0.025506191625328,-0.018181128006352,-0.029336359759565,-0.001672270565993,0.019237509526155,0.040447915693931,0.022992142347958,0.005393173073773,-0.009499231925440,-0.013505356653581,0.000881613300245,0.005900080864550,0.006378111941842,0.002235455895440,0.001083133632621,0.002953768889806,0.004114271079116,0.000209525147507,-0.007022530454796,-0.022344711049277,-0.024456960043333,-0.028195393243571,-0.029513502099392,-0.002447390101899,0.023444887976593,0.051077707518514,0.024096118685183,0.009671301581766,-0.011587230618205,0.000354538895085,0.013345191551312,0.010293721934119,0.014537425233318,0.006817798608233,0.000498624567224,0.000597229088838,0.001516021191144,-0.003992297444739,-0.007505653867164,-0.020186336448296,-0.027842872078312,-0.032821794389273,-0.031864912263252,0.005139097275716,0.030392568537855,0.059070901849329,0.035107847665094,0.015746375022547,-0.004164175803081,-0.000815314698928,0.011976336059084,0.023010022833509,0.018430709192694,0.009416263671762,-0.001077534740548,0.000400539485458,-0.002187054663435,-0.004074334431385,-0.011881951632961,-0.017571758272189,-0.014233046345686,-0.035029593813344,-0.025185119906522,-0.007252327227879,0.016850488151147,0.035259861380432,0.023568194305078,0.004295584003796,-0.003423495439609,-0.011928083079423,0.013861691508356,0.020988983884238,0.018644205324794,0.008970976485863,-0.000402217622791,0.002111596865166,-0.000723976647430,0.000057198495636,-0.004974169956342,-0.002557092715015,0.001150194833032,-0.019927544504033,-0.005251121296190,-0.004138788978827,0.013682785141729,0.026147425514841,0.032838507873173,0.009533765088619,0.005695711576954,-0.001760622767879,0.017503516356689,0.026403085910414,0.016976692644928,0.006418717180933,0.000992650996093,0.002500099148814,0.003256715961780,-0.002566321787811,-0.002170264111938,0.003309346138509,0.010877530561535,-0.006909638048032,-0.003375274437474,0.001090381007457,0.013018129062065,0.026231272900390,0.031112932701509,0.014733167273248,0.005093657004879,0.003561759517644,0.017928734093519,0.022749218875177,0.016324472482270,0.003937331359431,0.002034542979810,0.001078138061900,-0.001917781931322,0.002812999848519,0.006210630845668,0.003646076782951,0.002450619182498,-0.012397323023110,-0.013192681974248,-0.002910847269822,0.018474253025018,0.036132640576259,0.028277769144376,0.019392202499519,-0.002907910764103,0.001980019740845,0.015639431028578,0.014813899134116,0.007294855083478,0.004188137870114,0.000449734002465,0.002622236928966,-0.004538234733837,-0.001024692047200,0.007086653442727,-0.001907952671600,0.001027448203297,-0.012149485334051,-0.001319982679753,0.006998832694019,0.028484600522221,0.027344528865222,0.026965268037883,0.013168437576070,-0.006489943046610,-0.004548237807034,0.003224333359921,0.005578187985593,0.001591105673669,0.005595107817195,0.002828466212412,0.002401581121001,0.000363179053434,-0.000712488025836,0.010464306014629,-0.002618821332055,-0.002182697881737,-0.019390990572468,-0.005040287174975,0.000877709359589,0.021082510333880,0.013457371996234,0.027317866883667,0.006434483936904,-0.006562117737368,-0.002658297355204,0.007629686495892,0.010264708403169,0.010110228444543,0.006360425955792,0.003284841566557,0.002851435626189,0.001779798740857,0.003127312105834,0.013565707546244,0.014885071406754,0.015938021477674,0.007687129205046,0.011313476387163,0.004012651853430,0.021020165055042,0.004787864690872,0.023178438717177,0.004540604146333,-0.000378971016397,-0.006706037586012,0.008042641929062,0.012842184911525,0.010248505404957,0.008925859040117,0.005245225522336,0.002854046301924,0.002448280172518,0.003237440996975,0.012620296737639,0.017913179445895,0.015515296867617,0.012794410278852,0.013355014549845,0.013856116612823,0.018715143827705,0.004523977885461,0.013463796172016,0.003097578225043,-0.000787914252862,-0.003779968082845,0.006558981985196,0.014645458224858,0.009699201137000,0.007906646746658,0.004943308156559,0.004687615207226,0.000768159614373,0.004956409036261,0.011899539147751,0.019108476285688,0.016442691476829,0.012046436550635,0.013174532159664,0.010651357273252,0.013350704600069,0.001987142771493,0.004627094403220,-0.007205868716900,-0.015844340676076,-0.014237246897781,-0.001054475815358,0.004939012810344,0.005818670749186,0.005799318530153,0.005877344389163,0.002773261623712,0.000134643130548,0.006021037060097,0.009413422507975,0.014696686210047,0.014103591294333,0.009240139532865,0.010351607038677,0.006195732452739,-0.001717919196865,-0.008423755187447,-0.009922251301127,-0.013535452431257,-0.012385680963714,-0.010985004198227,-0.001176259002225,0.004076556605552,0.003161510079923,0.003934581164805,0.004079955670904,0.001850300110091,0.000136241265421,0.003575700113552,0.004681560209081,0.001932096699767,0.001031811972500,0.008316154330988,0.007917929170932,0.003736080927870,-0.006329835895112,-0.009457062648673,-0.004962885699289,-0.009704485986115,-0.013447631204113,-0.013672148529312,-0.004101156396880,0.000316000000000,0.000065000000000,0.000450000000000,-0.000828000000000,0.000930000000000,
0.030640627451936,-0.000277500285635,-0.002477234100797,-0.005724748798011,-0.011990616320739,-0.013822565320368,-0.016787057294217,-0.016162394257476,-0.015631650868943,-0.015252956581408,-0.017721867631322,-0.019964463110234,-0.018599601355801,-0.012744970230417,-0.009667463712157,-0.006735615684642,-0.002179144689984,0.001653425847196,0.002117428100406,0.000434396428649,0.000790000000000,-0.002165105083080,-0.004392058808012,-0.012207218928159,-0.011319527942250,-0.002218217319674,-0.011233780805228,-0.028888914474590,-0.035488256893576,-0.020753347949894,-0.004576511457679,-0.005078603379099,-0.009845477547200,-0.007175879971813,-0.006605171977245,-0.003515321751141,0.004595816154967,0.005533805667847,0.004095340301980,0.004021404464828,0.001260865100914,-0.003217744311383,-0.007121743681916,-0.014673729713750,-0.007553230095315,-0.022306913537767,-0.016583401929317,-0.030658340334950,-0.020414698743697,0.009991781194692,0.020602057352218,0.017699571052287,-0.000893235340250,0.002282454361821,-0.010927124455675,-0.003892065713406,-0.001106171310087,0.005848832652847,0.002476954561302,0.000483262568248,-0.000692318070518,-0.006754107087444,-0.008730583664000,-0.012995659752818,-0.029070526147860,-0.026218210915041,-0.027487010254766,-0.033573054538908,-0.031130453237625,0.006146213613900,0.008694319649561,0.006997862528904,-0.005654114490075,-0.001019308706471,-0.007317369526221,-0.005038634877947,0.001031536858895,0.004574240714364,0.000335689722542,0.001132725684590,-0.000473235056435,-0.005766541941446,-0.013784956365293,-0.012410397582160,-0.026174228364967,-0.026621584469935,-0.022144466576551,-0.049160359857457,-0.041662568049706,-0.010237979493337,-0.008231967431955,-0.010277923004492,-0.015460100230735,-0.020464137186844,-0.010464290120983,-0.017017696462726,-0.007509746529490,-0.006413450312744,-0.002487359334650,0.000706598826037,0.003067063845193,-0.005596743132980,-0.006292999525106,-0.002870900946777,-0.010271700705272,-0.026573220260679,-0.029467887389090,-0.050948047690366,-0.021103607732333,0.011400225415238,0.002236962000837,-0.001163269839652,-0.024595103105024,-0.035718893364233,-0.028251035502555,-0.022050767974171,-0.016822635710489,-0.007343079469271,-0.002216019426744,0.003478253149241,0.003738136163460,0.003590374104304,0.018564466961047,0.018603154955465,0.009482927172490,-0.001682775071502,0.001264693371186,-0.002570046937673,0.012893574070831,0.003123133248240,0.006875259518194,-0.005300981471384,-0.008130806820261,-0.032559781760594,-0.027768242633654,-0.018093523576909,-0.012707035539155,-0.000008796878208,-0.005544310905879,-0.001245193662766,0.001813786903122,0.013988391046963,0.027537595960620,0.018149483895742,0.017924169685835,0.017294707552488,0.004463172764549,0.007142636788437,0.016743361428617,0.022520445678725,0.033541631173646,0.006073076642737,0.000406392443038,-0.027624793096310,-0.007660375929437,0.000776494903592,0.009681854110326,0.021059949786134,0.004249257927460,-0.001888626279033,-0.000540181405009,0.019524481070075,0.023861249381387,0.025459900974372,0.024412955557455,0.013336666793164,0.011853572893479,0.021125278506726,0.033397693869525,0.045113061545373,0.056913009698269,0.032424176706749,0.044330725238317,0.007281704601360,0.009366308851253,0.011894016219637,0.027418190073699,0.026421239108251,0.017044467040945,0.002097396839523,0.004091311224438,0.020544759973458,0.023163233685944,0.017845187386930,0.028013884337365,0.025801458392256,0.015483073332483,0.004409948160233,0.013463247285763,0.049149815889433,0.059818844014633,0.043459352036041,0.034480645588844,0.028190111926715,0.022766507032424,0.023451176872727,0.033107825661159,0.031524437290292,0.020582556900603,0.009152448723670,0.007504360712784,0.023344020385487,0.025555235233941,0.020938482826546,0.021501035274550,0.019713255651547,-0.001242919489904,0.013691819987722,0.025332744230028,0.058812340559725,0.059013085062447,0.066186906154611,0.048121093074950,0.062026693353776,0.048263463711441,0.056944976195985,0.059037076145020,0.040358241030496,0.021644407355966,0.010876230080737,0.008350581197955,0.016393032004767,0.015110603763975,0.012666875600891,0.009211710339265,0.015826987435782,0.003538839108327,0.011079803195351,0.030206965650821,0.042320104107058,0.050808868248594,0.053532839400403,0.037484984938910,0.047144166794885,0.046264484371281,0.052963099726205,0.059923194488800,0.044424787492796,0.016456210423286,0.013412270715807,0.007963890223068,0.000632930814861,0.001391175692118,0.000239215741307,-0.009920547107242,-0.004382288278215,-0.006592065807434,-0.004506062801793,-0.002824520591847,0.042530920724008,0.041119941655192,0.015625886604308,0.013647926585979,0.006218228790057,0.015016947715304,0.034825695297289,0.034312454118142,0.022477473332123,0.005321136461549,0.004119735291357,0.005255671313937,-0.002544868625944,-0.004884463506049,-0.000795590644853,-0.028618719200011,-0.013557357805797,-0.013669639021367,-0.011085085929641,-0.005574706411824,0.021761334244211,0.016702887413073,0.013582958746722,-0.009152689414010,-0.025167184073675,-0.015675338630316,-0.020881807216101,-0.004284740152904,-0.006632899958198,-0.011256249227697,-0.003138420304661,0.001459821879586,-0.006818398072867,-0.016320726342125,-0.004770075121493,-0.027043261648900,-0.009006452631216,-0.023080093893683,-0.010528983461594,-0.002262238189751,-0.000343317855317,-0.014734514293569,0.014550285264267,-0.020285176462057,-0.027020867986630,-0.015898082227494,-0.029385663769088,-0.013969491649728,-0.014171431248529,-0.021306926788678,-0.009861534006441,-0.002535089699980,-0.008899684310402,-0.016862993220652,-0.006463367121463,-0.016221681779583,-0.000670981514786,-0.012944835488146,-0.004224738541896,-0.014576668097611,0.008196755654486,-0.017086658303565,-0.006177292342865,-0.010413037083889,-0.010681659425239,-0.018210576641874,-0.024190608611352,-0.012387904796218,-0.018410607908101,-0.016576717541548,-0.007971835530987,-0.004867036636930,-0.009177145280216,-0.007317342596695,0.000350251535018,-0.008674160995955,0.002245306484954,0.002684047803508,0.003064053446019,-0.008056868975485,0.007536565507311,-0.010800158701898,-0.006403283208521,-0.004724358262443,-0.000480705054492,-0.001672527240218,-0.013993076285661,-0.005391683234875,-0.012431862102490,-0.006716215303593,-0.006558802920818,-0.002006759391779,-0.007988304747192,0.004162855230281,0.004539812581155,0.004500568788578,0.003628105257726,-0.004062642405769,0.005338201736403,0.005844129232634,0.023632015983285,0.005183267370286,-0.003536528301979,-0.008140132420405,-0.014103522386580,-0.005923618570831,-0.014428389768966,-0.007234981091062,-0.005910338382017,-0.002671829285758,-0.003102213875855,-0.000297288117236,-0.003474333824618,0.010018734463245,0.009658659231101,0.010548561372867,0.002847107720448,0.000381243856098,0.001689968561166,-0.002301718305394,0.006984753689739,0.003191259579954,-0.002447988338127,-0.007335901231941,0.006026251669429,0.001669997675899,-0.006640469647522,-0.002861947607085,-0.001069108653351,-0.001088094396470,-0.000601899549777,0.000216348454907,-0.003826873515213,0.005254526631609,0.014331120525569,0.006074136155660,0.001128719352335,0.008828410185403,0.011840840372238,0.009101327642997,0.003807385840036,0.000141536732842,0.004585906603304,0.003341616389444,0.003690653808923,0.002261289047956,-0.000985420580846,0.000655000000000,-0.000861000000000,0.000985000000000,0.000616000000000,0.000159000000000,
0.005413680729998,-0.000579503113269,-0.000193731484554,-0.000022362857730,-0.001559740375264,-0.004308744287947,-0.012398967451071,-0.016696786475058,-0.015114782398485,-0.006208770052237,-0.008489368801392,-0.009767236598636,-0.007739735943395,-0.001331674096454,-0.003098717718288,-0.005244535380982,-0.010414036900289,-0.006688172084596,-0.002478790177171,-0.000318290437176,-0.000937000000000,-0.001030030821740,-0.000979956754167,0.000834384548685,0.002526824962841,0.003610969893136,-0.004641178070206,0.006062918865537,0.015432267042321,0.008292600215248,-0.003827315497121,-0.003989491964188,0.007026963990689,0.022859064146410,0.015294696443832,0.005790847541939,0.001426028467126,-0.007007323583587,-0.009437247623012,-0.005292560880661,0.000211359357250,-0.000528885925223,-0.001969922031470,0.002891384051252,0.017681524302058,0.013316668577486,0.019288030483222,0.009255340471103,0.001270034219785,0.013440917279016,0.014385041268475,0.005911179969439,-0.016618067902794,0.007887205037894,0.004726153565656,0.002494655219609,-0.004047714424905,-0.004341307651739,-0.014619731825744,-0.014938073392162,0.002403418601133,-0.001215486918896,-0.004419702327879,0.001273876615132,0.021985533655158,0.036729473556755,0.025886144397275,0.012476800120655,0.015757011366902,0.034657716325059,0.025214486681034,0.004204902595742,-0.001255838195080,-0.015017543754777,-0.015946187938243,0.001478704378458,-0.015320263372843,-0.007882707364421,-0.012062770402827,-0.015949002767244,-0.000368800856562,0.000495788445029,-0.012370346617102,0.001941000748870,0.025492285727166,0.022543175891540,0.002975383226787,0.004889710633748,0.014427802147929,0.034059882566148,0.044732490110473,-0.002326697894087,-0.006141657403759,-0.032719471374557,-0.036618968098231,-0.019277566947132,-0.013415284462235,-0.009146243725728,-0.013081533793635,-0.015483672449783,-0.001515397963669,-0.004833081848734,-0.009481407033994,-0.000124219178497,0.017248999727205,-0.006599387039286,-0.026299396328353,0.000720493696548,0.011897432801181,0.030689725259144,0.032500369689338,0.001080434448600,-0.006645973275831,-0.003604882602471,-0.029088556164382,-0.012023790249862,-0.005379777277615,-0.000287871082819,-0.009231845470358,-0.005789281728608,0.001514676056130,-0.004211431920325,0.000660348986756,-0.013960698386327,-0.000378319198905,-0.008236081640032,-0.022724481034786,-0.023321855706462,-0.009013071363765,0.003717055427635,0.022009106864336,0.009701482796346,0.023675012982474,0.035700560695015,0.011623786145320,0.014913374510221,0.020743704347175,0.012826643380089,0.006553381181261,0.007086182972845,0.003140353594298,0.003211530053550,-0.000612059544845,-0.015919646403743,-0.012313545679498,-0.022106530126388,-0.023338704582295,-0.019276057767310,-0.003951051835304,0.005644596172244,0.010855339945595,0.018373058016935,0.033113469940877,0.048181780962960,0.044415932194437,0.040725150858932,0.027887246422375,0.024978874889372,0.015829747511974,0.008646724448816,0.002076319908006,0.001494111620225,-0.005224092975512,-0.002014160799495,-0.013000875628710,-0.029085111634536,-0.005319761376303,-0.032243790725393,-0.007281503760939,-0.005297902779062,-0.010635985458442,0.010602726120461,0.037124440922191,0.040244455255323,0.060226673284819,0.055129848770571,0.056981029236790,0.040251050164373,0.023309692977764,0.006724136799741,0.001603446247891,-0.006235094477406,-0.001763265381453,-0.000423023131989,-0.011506944938785,-0.024960738022019,-0.011524107657085,-0.020466917812376,-0.013792487392403,-0.029896599927802,-0.034738384720122,-0.029586016833809,-0.004416448843946,0.008515046966257,0.032188434610457,0.038588545146607,0.048490697851659,0.040383639873552,0.024337392460316,0.009309713565083,0.001229676336657,-0.007221379135902,0.008886851034594,0.011345392284480,0.016733520441820,0.005282689827533,-0.006518825351102,-0.013645720983926,-0.020297176983340,-0.040334821010961,-0.052943304375757,-0.037703921864356,-0.011106736244663,0.015356860396543,0.034412123905747,0.031220648767154,0.045487454020818,0.040496952261045,0.022548734861034,0.009074570017224,0.001257857314844,-0.000257360006525,0.004462805155149,-0.001413130543302,0.025187995463482,0.024111720434440,-0.000525567165439,-0.008396242971663,-0.009877589071516,-0.023973235985055,-0.035212360410586,-0.031610452254795,-0.003462945142599,0.010132253744560,0.040363772219373,0.030668282592798,0.041426032819192,0.036214294154521,0.017023519237074,0.010244193011692,0.001056045293459,-0.011670073529374,0.006449920701475,0.010557489203447,0.023515389902632,0.012923931776014,0.004008065863503,-0.016491454241249,-0.010988813563146,-0.019884597979313,-0.026089468449343,-0.011024130137741,0.029303462225702,0.017134305221145,0.038024085637120,0.031328354957861,0.039197472793216,0.029925856367773,0.017192914505147,0.007506397398479,0.000283970698210,-0.017312992147136,-0.008417805272226,-0.004165002235276,0.027247370441533,0.026004104107208,0.038362765070119,0.017297388076351,0.016475125415358,0.005410102037969,-0.009060175224960,0.007711916180431,0.022333906895015,0.024734086066417,0.021112536662339,0.008354046131510,0.022168064086623,0.018983834033363,0.020091404668957,0.005274181784749,0.000291524676352,-0.008476210954620,-0.003976779282543,-0.008097592835802,0.020046556386763,0.027616403374060,0.021765203036045,0.016348332951739,0.030396836871248,0.032016384495057,0.027187185585497,0.014232483195323,0.011239896273205,0.014663793058231,-0.001029944207969,0.000300693239070,0.013838670318668,0.013355610405313,0.017531816775199,0.009014254867415,0.002870814101612,0.000283952258740,0.003957145331236,0.006758644525854,0.028158892048738,0.024959790180636,0.025170995634545,0.023909808310629,0.034468384074353,0.032386556242000,0.046123970757082,0.031389143719486,0.016097611856250,-0.002462976086066,-0.018636646251612,-0.008286734698384,0.000330132045920,0.009388367091587,0.002200083347555,0.004046879876508,0.003579228446701,0.000395690642426,0.004357652081392,0.009904978709287,0.020887246578087,0.008034930004441,-0.002547616757817,0.001293406944473,0.018357074974436,0.033871155087880,0.017497855105776,0.006126662338409,-0.022524894810073,-0.043065483371893,-0.040166597551654,-0.024475726166957,-0.005017059916570,0.000585290346291,-0.002202950529501,0.000865543487533,0.000253100449509,-0.003620376485419,0.002387338189496,0.013592272148443,0.017335285097671,0.018396935357974,0.010432735422971,0.010950147356347,0.014829743378285,0.024625081601987,0.009107791947890,0.017872243344541,-0.001667393812782,-0.034638812597304,-0.048250122824929,-0.030721663419592,-0.002687367491849,-0.003445056928199,-0.003147048649719,-0.002122939993931,-0.000600491649586,-0.004424144273369,-0.001540913737588,0.008540552021521,0.017757100269736,0.017549565453558,0.010871764989303,0.018383639075042,0.017700575502673,0.024557872440800,0.021741887649796,0.009781011229823,-0.010065757437455,-0.036338067115087,-0.056811893730539,-0.028229253429694,-0.003537649666965,-0.000918524395500,0.000640352620199,0.000655313665993,-0.001298439202239,-0.002669030734490,-0.003365443337761,-0.000010275264339,0.001231900811820,0.004810061476335,0.015148849972060,0.017384694904728,0.017885750649493,0.007427835058705,-0.004158856583794,-0.006340553796620,-0.015791068852938,-0.020145265781555,-0.024762427904577,-0.007273724549510,0.000553400210957,-0.000574000000000,0.000291000000000,0.000483000000000,0.000927000000000,
