0.059482940713764,0.000462148105726,-0.138206571340561,-0.164680048823357,-0.000140499992995,-0.000830267905258,-0.074164786222631,-0.002773233958775,-0.126807212829590,-0.092865905173792,-0.288557350635529,-0.001238816767000,0.000162555734278,-0.000521463225596,-0.000479358510347,-0.000305499997921,-0.000834563921671,0.004582948610268,-0.060137837920207,-0.000228499993682,-0.047992076724768,-0.000446916121291,0.013130689806935,0.000663457438350,-0.000080500001786,-0.000727854378056,0.010850869172228,0.000201999995625,0.001662988215685,0.002919146791101,0.000988692161627,0.000012999999853,-0.002432761166108,0.092972099368546,-0.004279076587409,-0.000081503014371,0.000164500001119,0.000315000012051,-0.000211047634366,0.000476499990327,-0.000418643612647,-0.000758292619139,0.000038999998651,-0.000977527815849,-0.000053499385103,0.006536927074194,-0.003949290607125,0.017705655440010,0.000036214274587,-0.000102748046629,0.000002593669251,-0.000358680728823,0.003243061946705,-0.071255728602409,0.000230000005104,0.000095499999588,0.000021448169718,0.000200499998755,0.000243999995291,0.000484271411551,-0.000476999994135,-0.153583892314250,-0.000395999988541,-0.074314233960045,0.006985167263843,-0.040995400398970,0.000373499991838,-0.017889499510853,-0.009188167750835,-0.000346340064425,-0.004862532019615,-0.005557301919907,-0.000127213425003,-0.000475500011817,-0.000692013185471,-0.079986652632762,0.000406000006478,0.037521023303270,0.000218000001041,-0.001093189464882,0.000142911681905,-0.000799819652457,-0.000311999989208,-0.115592584013939,-0.017472027784651,0.000247499992838,-0.133400976657867,-0.010993908159435,-0.000941900827456,0.014962512395140,-0.000073097449786,-0.001321304938756,-0.007274770177901,-0.000058143574279,-0.052055947482586,-0.000963526952546,-0.087539247030674,-0.038794675523899,-0.110370383017794,-0.003148125653174,0.001699335989542,-0.000185116776265,0.004153053276241,-0.002154252259061,0.000410000007832,-0.021820077998794,0.000192568550119,-0.007653612520668,0.001390664954670,-0.018134666228730,-0.120792008936405,0.000063999999838,0.000125999999000,-0.001577742630616,-0.013985769476126,-0.000676806841511,0.002743439804987,-0.031284438360074,-0.063630566000938,0.012607020653888,-0.000070792324550,-0.000757662714326,-0.241560205817223,-0.000099857759778,0.000445499987109,-0.000285949645331,-0.000011509458091,-0.353029280900955,-0.088257213660601,-0.235789880156517,-0.072026577504237,-0.000257110281382,0.000268815958407,0.002279913751408,0.031089822354870,-0.000104999999166,0.000056491990108,-0.067144462327508,-0.126059263944626,-0.000217698456254,-0.000085980864242,-0.000794123858213,0.001199472229928,-0.064861813652220,0.001078456407413,-0.701744437217712,-0.482989728450775,0.000155999994604,0.035847352008748,0.001444227411412,-0.000476499990327,-0.000838360807393,-0.000214955405681,0.000402275531087,-0.071893855929375,0.002242057276714,-0.006635620462829,0.037814414828983,0.020344525183575,-0.000234999999520,-0.706416130065918,0.003738776780665,-0.056739542633295,0.000784665578976,-0.000814024126157,-0.000491000013426,0.001260875025764,0.000395000010030,0.001336277113296,-0.000445254787337,-0.102579750146772,-0.002524576149881,-0.000261466280790,-0.002078313631299,-0.004557131323963,0.003189879430792,0.000487999990582,-0.052475994633278,-0.005552150543487,-0.028606100007892,-0.001166135771200,-0.001105276984163,-0.721781611442566,0.001809591078199,0.000852370871954,-0.008170324377716,0.000096131981991,-0.000460500014015,-0.007160684066617,-0.038874326974609,-0.026168616119963,-0.000279500003671,-0.001296985661611,-0.061145398765802,-0.057322375476360,-0.357924014329910,0.000425000005635,-0.132630527019501,0.000296973390505,0.001339607872069,-0.001946535659954,
-0.152203224578918,0.000609453651123,0.128601476550102,0.129365324974060,-0.000097500000265,0.000306885398459,0.138377862678377,0.003545433445424,0.096328943967819,0.121048865666400,0.246608942747116,0.000571908720303,-0.000422881916165,-0.004421367775649,0.000000628318730,-0.000044000000344,0.000556576356757,-0.003088164235823,0.127809506392437,-0.000386500003515,0.057639956474304,-0.000262303656200,-0.019661617937095,0.000260626402451,-0.000075999996625,-0.000326915964251,-0.016004052923690,-0.000258499989286,0.001303070690483,0.002680586418137,0.004598253872246,0.000371000001905,-0.002540804811074,-0.069100129726070,0.003847098210827,0.002178327646106,0.000264000002062,0.000342999992426,0.000167259524460,-0.000445000012405,0.000350064306986,0.002112291520461,0.000103500002297,-0.000309731753077,0.000261402194155,-0.003488593501970,0.008140656165779,-0.020889675279669,-0.000082779341028,-0.000411407934735,0.002818208886310,-0.000494568317663,0.002198191126809,0.053766224533319,0.000226999996812,0.000091000001703,0.002992852358148,0.000245000002906,-0.000237500004005,-0.000095417977718,-0.000067499997385,0.260486794556156,-0.000462500000140,0.092949018210141,0.023192321334940,0.032903712242842,-0.000368000008166,0.048507207553426,0.032063107937574,-0.000425249716500,0.004463494755328,0.009564566425979,0.000461381889181,-0.000134500005515,0.001078190514818,0.158956236245152,0.000039499998820,-0.026940092444420,0.000463000003947,0.000295520963846,-0.000214892846998,-0.000288015842671,-0.000478500005556,0.090259373188019,0.021879958350141,-0.000024000000849,0.105334639549255,0.025541640818119,0.000288049661322,-0.014349229403411,-0.000369218090782,0.000640522630420,0.014466971158981,0.000169503240613,0.042842503637075,-0.001451720483601,0.144152101190478,0.116607459893053,0.264936056681320,0.002922963024751,0.002623052569106,-0.000027618349122,0.001044066273607,-0.000355025811587,0.000488999998197,0.020028505674506,-0.000151204731083,0.016069825775897,0.009310540743172,0.031191043909528,0.103289678692818,-0.000186999997823,0.000019999999495,0.000744699791539,0.024898085466930,0.000732464075554,0.026511443654064,0.056701655891816,0.053976844996214,-0.002632659304354,0.001330661820248,-0.000047853977532,0.188838347792625,0.002273092744872,-0.000060999998823,0.000490130041726,0.000233349928749,0.287495911121368,0.140084254920515,0.171260759234428,0.155044425631256,-0.000337482139003,-0.000265208189376,0.000718644238077,-0.046583397046381,-0.000059000001784,0.000411991961300,0.136624714182255,0.098802052438259,0.000033777621866,-0.000438996008597,0.005679065361619,0.004314616788179,0.114040683074875,0.009681135416031,0.558965981006622,0.392059594392776,0.000080500001786,0.032749965403491,0.006486764177680,-0.000083500002802,0.000381914316677,0.000462646450615,-0.000179967377335,0.061305221170187,-0.001910094706063,0.015982888578471,-0.012552889373557,-0.012725151010046,0.000392499990994,0.553153395652771,0.001391217228957,0.041910149157047,0.002114652656019,0.000521177367773,0.000232999998843,0.000949290522840,-0.000097500000265,0.000504076480865,0.000630474125501,0.199367545289458,0.004269339609891,0.003217732068151,0.000594265518742,0.008468185551465,-0.002422220523904,-0.000236000007135,0.172356380816546,0.002098058942193,0.016312686726451,-0.000584458466619,-0.000103006343124,0.586593747138977,0.002779059577733,0.001932137107362,0.008637218736112,-0.000288884679321,0.000079999997979,0.011743544604143,0.083262186717270,0.099440065204292,0.000234999999520,0.002044063061476,0.052155371755362,0.061700578778982,0.282973170280457,0.000091499998234,0.102333113551140,0.006214177235961,0.006642132531852,-0.000235336250626,
-0.094692341001472,0.000569224008359,0.060234565287828,0.032451473176479,-0.000169999999343,0.000758032780141,0.076171155106557,0.000269264027613,0.057034272700548,0.092354626720989,0.119788229465485,0.001941597904079,0.000312795513310,0.000271795637673,-0.000433709588833,-0.000427499995567,0.000700058939401,0.004599981561163,0.038500475889477,-0.000430999993114,0.014270101673901,0.000887537957169,-0.014897205664580,-0.000012102495020,-0.000333500007400,0.001758372643963,-0.006812140267246,0.000065499996708,0.002166397636756,0.000312019546982,-0.000396970222937,0.000107499996375,-0.006582425711165,-0.012227150639154,0.006622101645917,-0.002088950714096,-0.000342000013916,-0.000166500001797,0.000769823440351,-0.000192499996047,0.000747135665733,0.001524210325442,0.000194499996724,0.002643513958901,0.001493367250077,0.000396534829633,0.013046392239630,-0.015760513318123,-0.000188476813491,-0.000283812929410,0.005902488250285,0.000203468560358,0.000520747504197,0.033928841352463,0.000409500004025,-0.000342000013916,0.004902218934149,0.000069000001531,-0.000142499993672,-0.000006350850526,0.000132000001031,0.073615232302220,-0.000119999996969,0.032768386358180,0.010962900148851,0.008192373439670,-0.000302500004182,0.014837794431553,0.022440053522587,-0.000382120750146,0.004609381780028,0.011872613802552,0.000133378038299,0.000487499986775,0.002291277982295,0.051065151127790,-0.000406000006478,0.006472725886852,0.000445499987109,0.001491399016231,0.000033130967495,0.000613170152064,-0.000142000004416,0.045842085033655,0.029687872059704,-0.000385999999708,0.058372210711241,0.021079186350107,0.000066141976276,0.021860077524738,0.002242410555482,0.002251677913591,0.010494302958250,0.000152643740876,0.019009115174413,0.001559554948471,0.080959421854857,0.008964555861680,0.047761251028477,0.007350627378784,0.002512939041480,-0.000432119413745,-0.002416631206870,0.002826729090884,-0.000101500001620,0.009519385161265,-0.000264952832367,0.032797622415977,0.004479348659515,0.020316004435815,0.050494376569986,0.000385999999708,0.000312499993015,0.000949151057284,0.029659860869477,0.000627940520644,-0.006736310204977,0.030347039052595,0.035127907991409,0.014290798865987,-0.004379849415272,-0.002068764991746,0.095430098474026,-0.001736200647429,-0.000301499996567,0.000032433727029,0.000145979574881,0.138432860374451,0.010761216855031,0.090533062815666,0.022114862699790,0.000549330608919,-0.000893153832294,-0.000785564945545,0.018890596783066,-0.000020999999833,-0.000435008027125,0.028102910035571,0.057253554463387,-0.000106661260361,0.001475211465731,0.007504426408559,0.000576142978389,0.039956340889462,0.002044900553301,0.130116939544678,0.084895275533199,-0.000336500001140,0.015253300463870,-0.005681576207280,-0.000180999995791,0.001368961296976,0.000387420994230,0.000218772125663,0.030123258009553,-0.006631033026417,-0.016112607144622,0.002995379835800,0.008711796837372,-0.000486500008265,0.113300286233425,-0.000710108492058,0.023421624675393,0.000407774001360,0.001580294803716,0.000342000013916,0.000575478596147,0.000334499985911,0.000470025464892,0.000712314213160,0.024576565623040,0.005852435249835,-0.001883365679532,-0.000426699081120,0.005272710695863,-0.000646761139760,-0.000083999999333,0.033419521604910,0.024527085440329,0.014253467321396,0.001981478650123,0.000956545001827,0.129676520824432,-0.001683041220531,0.022993390075033,0.010308794677258,0.000274131132755,-0.000349000009010,0.013724888548874,0.013220729741242,0.043856116293042,0.000424500001827,-0.000485105469124,0.027091639116406,0.034698143601418,0.061005856841803,-0.000471500010462,0.058718912303448,-0.002388879191130,-0.001301986048929,0.002608801703900,
0.018935425212388,-0.000255664461292,0.238268718123436,0.331625580787659,-0.000129499996547,-0.000525371578988,-0.014267891828766,-0.002397056239320,0.152101263403893,0.005509553397458,0.565254151821136,-0.001465558540076,0.000383802369470,-0.002312842290848,-0.000105574683403,0.000373999995645,-0.000805049610790,-0.002577311583649,-0.032857774997842,0.000480499991681,0.078363679349422,-0.001125830458477,-0.014396558604445,0.000107464467874,0.000318000005791,-0.001001490512863,-0.006659095015410,-0.000491500017233,-0.001665273099206,-0.001589012099430,-0.001591772073880,-0.000294500001473,-0.002972674261455,-0.032402300540986,-0.004671866074204,-0.000063316503656,0.000118000003567,0.000242499998421,-0.000506337906700,-0.000224000003072,-0.000764023687225,0.001533099100925,-0.000173499996890,-0.001273114001378,-0.000962364894804,-0.008521593175828,-0.008147139102221,-0.016309170786016,0.000083365717728,-0.000285916990833,-0.008246288634837,-0.000313531025313,-0.006340778898448,0.117513455450535,-0.000341000006301,-0.000264500005869,-0.003631761530414,0.000093000002380,-0.000487000012072,0.000258305197349,0.000472499988973,-0.023810481485161,-0.000419999996666,-0.007643172400586,-0.018092374152898,0.088310480117798,0.000440000003437,-0.009872319760552,-0.004029046278447,0.000384802813642,0.003722572466359,-0.001771779730916,-0.000404525373597,-0.000191500002984,0.000768997357227,-0.010908828886076,0.000204500000109,-0.004012364428490,0.000299500010442,-0.000886955705937,-0.000167228805367,-0.001042775344104,0.000467500009108,0.214444532990456,-0.006660021927192,0.000302000000374,0.226179808378220,-0.008384051732719,-0.000363894476322,-0.009157763158932,-0.000951988156885,-0.001589919440448,-0.002333757234737,-0.000361295446055,0.066329464316368,-0.001085353083909,-0.029200538558330,-0.020368810339112,-0.045551718061541,0.000038641255344,-0.003573834663257,-0.000185116747161,-0.004358145873994,-0.003307748818770,-0.000147500002640,-0.001931071470772,-0.000010096122423,0.005062561411021,-0.003927486017346,-0.004071888323279,0.229844182729721,-0.000213000006624,0.000468999991426,0.000246061914368,0.000156104387149,-0.000110117471195,-0.009070208677844,-0.006574708433308,0.133568540215492,-0.009776653234696,0.000100178578577,-0.000029172627321,0.452065676450729,-0.001107794465497,0.000449999992270,0.000510598707478,-0.000134875270305,0.618377447128296,-0.030877104168206,0.417881250381470,-0.024591998992463,-0.000577040307689,-0.000671616697218,-0.002387390006334,-0.000200941574155,-0.000050999999075,-0.000144507997902,-0.011238863897534,0.230556398630142,0.000431984371971,-0.000819970795419,-0.003456010483205,-0.003327463986352,-0.011886662650169,0.000786710064858,1.410079836845398,0.981250345706940,-0.000228000004427,-0.023029767628399,-0.001755662146024,-0.000099500000942,-0.000940754020121,0.000305930676404,0.000227276192163,0.101416908204556,-0.005097681237584,-0.013023925783432,-0.023027255284293,-0.007206895277324,-0.000306500005536,1.365285277366638,-0.001393817598000,0.097231477499008,-0.001564611913636,-0.001039843657054,-0.000197999994271,-0.001463510910980,-0.000141500000609,-0.001110043725930,-0.000109388733108,-0.022686371464353,-0.002336360048503,0.000597974227276,-0.000963257877377,0.000738948583603,-0.001743576417789,-0.000369999994291,-0.035123443131274,-0.001607812417008,0.041799254715443,-0.002025099238381,-0.000248738855589,1.471769452095032,-0.000734378234483,-0.001995982242777,-0.004794412292540,-0.000071363974712,0.000029999999242,-0.005354838513619,-0.016289564496239,-0.017946133247264,0.000021500000003,-0.001199906459078,0.081059545278549,0.068323262035847,0.692833602428436,-0.000228000004427,0.237928837537766,-0.001301317010075,-0.005842076148838,-0.002275226404890,
-0.141502609063548,-0.000181870331289,-0.298376917839050,-0.366845101118088,0.000489500002004,0.000061860497226,-0.002937114869636,0.006020601139185,-0.175633966922760,0.011927902259487,-0.707302093505859,0.001416201586835,0.000212797938730,0.002282038796693,0.000246622104896,-0.000437500013504,-0.000207917735679,0.000334031969928,0.027234293973479,-0.000338000012562,-0.107864022254944,0.000830875127576,-0.020055645389854,-0.000437937880633,-0.000264500005869,0.001558145508170,-0.008076650225968,0.000282499997411,0.000276437873254,-0.002347630448639,-0.001343659940176,-0.000425000005635,0.013486030209642,-0.069208467375329,0.004925110843033,-0.000278052146314,-0.000286499998765,-0.000391999987187,-0.000633186835330,-0.000276500009932,0.000336117664119,-0.001101088011637,-0.000049999998737,0.001855588750914,0.000268848933047,-0.009798946790397,0.012685016728938,-0.015352128221467,0.000187660261872,-0.000311120675178,0.008045550435781,0.000025968514819,-0.000411938235629,-0.144200116395950,0.000037999998312,0.000254499987932,0.002530055586249,-0.000403499987442,-0.000493499974255,0.000386687228456,-0.000334999989718,0.045419291384992,-0.000365499989130,0.021505171331224,-0.007375386557501,-0.096198372542858,0.000376000010874,0.007479112598694,-0.000145157900988,-0.000490723294206,-0.006489236373454,0.003144158050418,0.000062560036895,0.000310000003083,0.000722080818377,0.011698369106469,-0.000115000002552,-0.019623020663857,-0.000281999993604,0.001244370476343,-0.000201143222512,0.000881334184669,-0.000012000000424,-0.258725553750992,0.005764975015208,-0.000314500008244,-0.275462299585342,0.008813292719424,-0.000266797316726,-0.011618180504256,0.001305875834078,0.001199839753099,0.006475585512817,0.000278378080111,-0.077792860567570,0.002109169960022,0.035214145711602,0.009537423688007,0.010848007484765,0.001896860476061,-0.002286925213411,0.000298882077914,-0.001002143137157,0.002195953391492,-0.000457499991171,0.012905890778502,-0.000422341166995,-0.007757442388215,-0.000995611422695,0.024223256717420,-0.292166382074356,-0.000292999990052,0.000491500017233,0.001242944155820,0.001254719710859,-0.000023996602977,0.019215008931951,0.000154467749883,-0.176638528704643,-0.001709471519843,0.000522547634318,-0.000195046154749,-0.549191355705261,-0.001125884591602,0.000028500000553,-0.000537611893378,0.000306832516799,-0.748352587223053,0.056300948501595,-0.493576794862747,0.020397043902801,0.000226511154324,-0.000656742544379,-0.001119254622608,-0.041778152931844,-0.000321500003338,0.000276491977274,-0.003854975975867,-0.288540989160538,-0.000235239043832,0.001851311651990,0.002492120256647,-0.002406187122688,0.023621928845186,-0.006097093224525,-1.554283022880554,-1.082103133201599,0.000422999990406,-0.016622797848898,-0.002693446120247,0.000076999996963,-0.000186021366972,0.000121166100143,0.000388772983570,-0.124548010528088,-0.000150849256867,0.032347463119828,-0.045889245080318,-0.004262270286542,0.000028500000553,-1.506946682929993,-0.002245562151074,-0.117565616965294,0.002652386669070,0.000940033758525,-0.000044000000344,0.000861572683789,0.000023000000510,-0.000829371565487,0.000271408120170,0.029373117812627,0.002420612843707,-0.001425066846423,0.002077396454830,0.000422249606345,-0.001741997235429,0.000292999990052,0.012650116335471,0.002410188395360,-0.051274482160807,0.002412384608760,0.000931949936785,-1.625824689865112,-0.002085743006319,0.001062329163269,0.009509706869721,0.000052205283282,0.000230499994359,0.000217366266876,0.006763706748043,-0.008076911814816,-0.000318000005791,-0.005430909805000,-0.106489188969135,-0.092765897512436,-0.771587550640106,-0.000232000005781,-0.304708391427994,-0.001195036806166,0.001733750337735,0.002525705378503,
0.097515076017315,-0.000439482158981,-0.282795667648315,-0.441412985324860,-0.000368500011973,-0.000584445195273,-0.018887278390657,-0.002858609420778,-0.182879984378815,-0.024599144241776,-0.628781080245972,0.000439523486421,0.000127301653265,0.000599651481025,-0.000419425807195,0.000497000000905,-0.000490795297083,0.001899088571033,-0.012170936295590,0.000331999995979,-0.101790674030781,0.000230288234889,0.005506506871332,0.000385023624403,-0.000006499999927,-0.000870718678925,0.007250018156000,-0.000060999998823,-0.000910116650630,-0.000077386663179,0.003868989879265,0.000151000000187,-0.000373864122009,0.044190835002371,0.000332466908731,0.001280699856579,0.000014999999621,-0.000055500000599,-0.000285199406790,-0.000326999987010,-0.000114452974231,-0.002123047830537,-0.000219499997911,-0.000318214355502,-0.000313262396958,0.000900858663954,-0.001665010931902,0.014673202602379,0.000366999884136,0.000198893510969,0.000356237083906,0.000369968707673,0.007845258340240,-0.134644314646721,-0.000220999994781,0.000339999998687,-0.000711272063199,0.000224999996135,0.000444000004791,-0.000472895917483,-0.000454499997431,-0.044063932332764,0.000484999996843,-0.008396078290950,0.004234852156865,-0.114926144480705,-0.000056500000937,-0.005241251758459,-0.001470654504374,-0.000396441610064,-0.006886307615787,0.001740121981129,-0.000015151225853,0.000108499996713,0.000361298298230,-0.016404073878603,0.000010499999917,0.015875590965152,0.000021500000003,-0.000641688646283,0.000073170507676,0.000171767140273,-0.000446499994723,-0.235853463411331,-0.002096765743157,-0.000017500000467,-0.256432920694351,-0.001599501236342,-0.000098141288618,0.000292097966364,-0.000085301733634,-0.000370699766790,-0.001564481877722,-0.000113022644655,-0.084272883832455,-0.000229392331676,-0.014282595505762,-0.003874969965630,-0.013774376085739,-0.003648623357046,0.004661733750254,0.000489382829983,0.007445790804923,0.001993137411773,0.000359500001650,-0.000795173387456,-0.000238084117882,0.004912556519747,-0.001393107115291,-0.006904724181490,-0.260074287652969,0.000385999999708,-0.000058500001614,-0.000713162065949,-0.001780167565389,-0.000303767243167,0.001035197280426,-0.007520691297050,-0.145801246166229,-0.006088773985086,0.002351635368541,0.001052674640020,-0.494072645902634,0.002671974245459,0.000132999994094,-0.000488376186695,0.000377408665372,-0.690445601940155,-0.012509850231072,-0.450087308883667,-0.020514140395261,0.000707834842615,-0.000574255827814,0.003991058096290,-0.004300374615905,0.000425000005635,-0.000327008019667,-0.024104603540528,-0.259062349796295,-0.000394032307668,-0.000459219270851,0.002550297649577,0.007603604346514,-0.008477795383597,0.001003431505524,-1.879642128944397,-1.307496666908264,-0.000422000011895,0.014579156398893,0.006539099384099,0.000186999997823,-0.000147952130646,-0.000323545595165,-0.000046225988626,-0.128613784909248,0.003098430552879,0.000000649468806,-0.001307816583612,0.001884473320060,0.000033000000258,-1.827615261077881,-0.000514814222697,-0.106460340321064,-0.000771066290326,-0.000241720932536,0.000344000000041,0.000553000078071,0.000195999993593,-0.000438402406871,-0.000266791786999,-0.024474842459934,0.001793133094907,0.001816778443754,-0.000751460352976,0.001880941097625,0.000514854050110,0.000307000009343,-0.005274262160099,-0.002235347998002,-0.042555347084999,-0.000226675838348,0.000514965213370,-1.955299377441406,-0.001188292400911,-0.004872139452393,-0.000773313688114,0.000285635323962,0.000477499997942,-0.001416062011109,-0.003113301128133,-0.004384996423057,0.000308999995468,0.008149649947882,-0.111869364976883,-0.094998992979527,-0.932758212089539,-0.000034500000766,-0.275139749050140,0.003701691748574,-0.001121358480304,0.000447770551546,
0.139868091449291,-0.000153410350322,0.298543393611908,0.455697238445282,0.000092000002041,-0.000575567421038,-0.055302693103944,-0.008684353897502,0.169748246669769,-0.049692442258498,0.719529271125793,-0.002099734963849,-0.000406483071856,0.002234256127849,-0.000227343945880,-0.000246500014327,-0.000284344074316,0.001470495419418,-0.027191433267713,0.000391500012483,0.121855542063713,-0.001192497787997,0.000206322019405,0.000033675438317,0.000276000006124,-0.001856139046140,0.006202067115641,0.000175499997567,-0.001886613434181,-0.002953792689368,-0.002000506035984,0.000207499993849,-0.001867640458068,0.042072053641925,-0.006704330444336,-0.004404196515679,0.000345999986166,-0.000234000006458,-0.000093322669272,-0.000039999998990,-0.000180088522029,-0.001667684526183,-0.000350999995135,-0.002167734317482,-0.000682246754877,0.004907955881208,-0.011429077945650,0.013493621644538,-0.000049612808652,-0.000158613504027,-0.005222352687269,0.000268968316959,-0.003652405459434,0.136491656303406,0.000256500003161,-0.000169999999343,-0.005210516974330,0.000481499999296,0.000099500000942,-0.000220153204282,0.000036500001443,-0.108108848719764,0.000346499989973,-0.044886349433456,-0.001317764153451,0.115551881492138,-0.000367000000551,-0.015072556004728,-0.016890211030841,-0.000116024006275,0.005005415529013,-0.007136105559766,-0.000411170942243,-0.000172500003828,-0.001718763029203,-0.047426638803222,-0.000427499995567,0.004124609287828,-0.000063999999838,-0.001966798445210,-0.000300712854369,-0.000800366047770,0.000187500001630,0.262023836374283,-0.011015469045284,-0.000204500000109,0.269991695880890,-0.019898526370525,-0.000075371171988,-0.001142298690767,-0.001693936181255,-0.001562099787407,-0.019092842936516,0.000494441308547,0.081913977861404,-0.001363056362607,-0.044478809968885,-0.030027456467393,-0.078436973117732,-0.003292602900264,-0.003382621333003,-0.000404941296438,-0.003243566257879,-0.000068853034463,0.000352000002749,-0.015822669618052,-0.000135713024065,-0.000801011409476,-0.005644870921969,-0.017559162148527,0.297996401786804,0.000416499999119,-0.000255999999354,-0.001424650545232,-0.007895475022760,-0.000535854720511,-0.004425113755230,-0.020516024521671,0.173441782593727,0.003377932620553,-0.002290358534083,0.000336352572086,0.552452623844147,-0.001773341326043,-0.000333000003593,-0.000462672527647,0.000200722177397,0.751082360744476,-0.049197866014669,0.503527402877808,-0.076873978947021,0.000453251006547,-0.000994568923488,-0.001619894406758,-0.007438728786648,-0.000480499991681,0.000418991956394,-0.063165733116467,0.285861045122147,0.000317302590702,-0.001931090839207,-0.005388003308326,-0.001814293093048,-0.021610646808968,-0.010446913540363,1.911939144134521,1.345278620719910,-0.000103500002297,-0.000576949685820,-0.003823196282610,0.000337500008754,-0.000722508004401,-0.000775799737312,0.000164772456628,0.132148250937462,0.003284471758191,-0.016126838842891,0.004847052213707,0.006276402108528,0.000468999991426,1.876839876174927,-0.002858839696273,0.119441792368889,-0.003262258600444,-0.001249043154530,-0.000398500007577,-0.002529885387048,-0.000096000003396,-0.001668068463914,-0.000308713671984,-0.082480813313979,-0.005439208354801,-0.000419541174779,-0.001966951176066,-0.004922591149807,0.001525858181369,-0.000112499998068,-0.060756637031655,-0.000141696808843,0.050936665385962,-0.002940300386399,-0.000515466206707,2.012633323669434,-0.003207645844668,-0.002472324794521,-0.012499341741204,0.000164630124345,0.000342999992426,-0.000925119065380,-0.019520530783694,-0.018647328626115,-0.000449999992270,0.000436227972386,0.112753815948963,0.088678479194641,0.959904074668884,0.000427499995567,0.304340153932571,-0.003120256587863,-0.007078317459673,-0.002897613914683,
0.051487588418196,0.000142983510159,-0.004288611933589,-0.007053166627884,0.000121500001114,-0.000054137279221,-0.037683898532593,0.007206760196755,-0.012150296010077,-0.065514382616994,-0.011915020644665,0.000895766483154,-0.000361487240298,0.001528467400931,0.000528229167685,-0.000167499994859,0.000408997409977,-0.010747557395580,-0.071965117231917,0.000000499999999,-0.011251851916313,0.000561174936593,0.062984526932280,-0.000261772744125,0.000142000004416,0.000244434573688,0.012897348579220,-0.000193500003661,-0.000700847129337,0.002441533142701,0.001980142900720,-0.000270999997156,0.000799766896116,0.008556046895626,-0.002710669534281,0.004206516314298,0.000050499998906,-0.000380999990739,0.000368849519873,0.000218000001041,0.000511796853971,0.001626486424357,0.000167499994859,0.000724861572962,0.000416754890466,0.007556244265288,-0.009488350711763,0.020064081231694,-0.000048809830332,-0.000378044089302,-0.006468953564763,-0.000293531484203,0.005828717723489,0.008474224247038,0.000457499991171,-0.000316499994369,-0.001601645839401,-0.000232999998843,-0.000356500007911,-0.000438864284661,0.000127499995870,-0.054678946526428,0.000424500001827,-0.012326854641649,-0.005641837593521,-0.000428880011896,-0.000036000001273,-0.019680089750768,-0.024443803355098,-0.000401322846301,-0.000052854451496,-0.015303621068597,-0.000205157950404,-0.000122500001453,-0.001168518909253,-0.070554375865979,-0.000338999991072,-0.013333055190742,0.000224999996135,0.000151769156219,0.000269752083113,-0.000456990703242,0.000014500000361,-0.001948681659997,-0.017705552006770,0.000099999997474,0.001940022222698,-0.018914330750704,0.000429100065958,0.018116614842156,-0.000468990008812,0.000337364355801,-0.001967249903828,0.000181390816579,-0.006158059928566,-0.000203492832952,-0.092829586501414,-0.035800361776497,-0.062564855979114,-0.003050716089782,0.003750535659492,-0.000387118227081,0.006179342512041,0.002266803523526,-0.000439499999629,-0.005108945234645,-0.000148433653521,-0.039780560958683,-0.003540733363479,-0.054477692340623,-0.003501018974930,0.000148999999510,0.000342999992426,0.000196566630621,-0.027801997403256,0.000318779173540,-0.031306391479996,-0.020783495633006,-0.008044997230172,0.005469948535314,0.002315122867003,-0.001332799530505,-0.000474520144053,0.001921583083458,0.000019999999495,0.000371405476471,-0.000331110757543,-0.008358859457076,-0.044564056905796,-0.011449956335127,0.020696682172475,-0.000094412738690,0.001810149871744,0.003621223615482,0.073350357100301,-0.000119999996969,0.000107991967525,0.022485369189306,0.007455362007022,-0.000445715733804,0.000510776008014,-0.008369542658329,0.002657534787431,-0.108282723551744,0.004954144358635,-0.006705360952765,-0.021803878247738,0.000004999999874,-0.064193371816526,0.004277022089809,-0.000253500009421,0.000504756986629,0.000284106790787,-0.000455726549262,-0.005079148337245,0.000788448355495,0.001317416865057,0.082130365713556,-0.005529079115025,0.000055500000599,0.029615221545100,0.004722299985588,-0.002501649549231,0.002857765881345,-0.000186553428648,-0.000329000002239,0.002187096513808,0.000207000004593,0.001846935949288,0.000024938222850,-0.016215951585210,-0.003977430984378,-0.002485124394298,-0.000092576855639,-0.008892836980522,0.002349485647260,-0.000449000013759,-0.047673598514427,-0.015898169087957,-0.001795074786060,0.001704880502075,0.000007312187336,-0.025537047535181,0.004316848237067,-0.017729840270137,-0.009327490814030,-0.000397869938752,0.000318500009598,-0.017274645905548,-0.029293760122739,-0.077313348941054,0.000453999993624,-0.003134102560580,-0.000092198257335,-0.011297101154923,0.021535195410252,0.000383500009775,0.013087282888591,0.001574959373102,0.014175187796354,0.000395840703277,
0.106587306185927,-0.000442383490736,0.056567519903183,0.170377090573311,0.000461999996332,-0.000641473860014,-0.003672367325102,-0.002309999176729,0.034690812230110,0.017001551592256,0.150306403636932,-0.000295226986054,0.000054301683122,0.000547062547412,-0.000740949704777,0.000217499997234,-0.000269054376986,0.008119638607290,0.019303660592492,0.000180500006536,0.025430059060454,0.001053889398463,0.004319791723665,-0.000480857357616,-0.000423499994213,0.000417303672293,0.011293764781789,-0.000053499999922,0.000224375093239,0.001115680672228,-0.001453813049011,0.000049499998568,0.003995889544895,0.072359697165987,-0.001173697412014,0.000526260468177,-0.000118999996630,-0.000121999997646,-0.000745698227547,-0.000118999996630,-0.000441771146143,0.000431191088865,-0.000342999992426,0.000475886045024,0.000189692495042,0.005408311262727,-0.005075764842331,0.019664361689436,-0.000353433628334,-0.000142108590808,-0.002735722577199,-0.000496030959766,0.001013548928313,0.024346683174372,-0.000127999999677,0.000094000002719,-0.001111532328650,-0.000255499995546,0.000312499993015,0.000059129841247,-0.000399000011384,-0.008326962980757,0.000224000003072,-0.012851727630385,0.002644449696835,0.041868425905704,0.000411999993958,-0.000934042583571,-0.006246248260140,-0.000106646955828,-0.000641051097773,0.002143773715943,-0.000775505090132,-0.000042499999836,-0.001131151570007,0.016679303699542,-0.000409000000218,0.027490148320794,-0.000360000005458,0.000057268527598,0.000415848684497,0.000968186592218,-0.000038499998482,0.054724626243114,-0.003052634240406,-0.000178500005859,0.054100282490253,-0.008256644010544,-0.000308268383378,-0.003077325007039,0.001440885826014,-0.000178451969987,-0.007805721834302,0.000110866327304,0.018749762326479,0.001308511127718,0.026206325724717,0.005000262110134,0.007390256411231,0.002041145300856,-0.002440619515255,-0.000326616078382,-0.000264564499957,-0.000844662485179,-0.000403999991249,-0.002552107569697,-0.000484072457766,0.014369807681324,-0.000883113534655,0.030961640794602,0.059723533689976,0.000367500004359,0.000165000004927,0.000863745051902,0.007589153872976,-0.000214291678276,0.015498697233942,0.000597087564330,0.037621077150106,-0.002304041226833,0.001207452267408,0.000887064998500,0.116886459290981,-0.000569274823647,0.000312999996822,-0.001006468781270,0.000169588456629,0.159622073173523,0.006473467877207,0.113427385687828,-0.034412786979174,0.000003888095762,0.002512561390176,0.002107212087139,0.004555797813417,-0.000479500013171,-0.000495927757584,-0.023901432707166,0.052938349545002,0.000403814483434,0.000232022532145,-0.001288150087930,-0.002768662525341,0.055556417344111,-0.004981993697584,0.700983405113220,0.498535096645355,0.000059499998315,0.039605272057660,-0.000287695467705,0.000024499999199,-0.000208136392757,-0.000242735739448,-0.000092720452813,0.023630512878299,0.007704529928707,-0.007916484021003,-0.003656399368669,0.009158065945462,0.000216500004171,0.677525281906128,0.003373988671228,0.025273064151406,-0.003556696232408,0.000760153518058,0.000062999999500,0.000955851341132,0.000207999997656,0.001413906109519,-0.000686784624122,-0.008846366052053,-0.001972126308829,0.000002009081982,0.000957069700745,-0.001858661649749,0.002367999619010,-0.000215499996557,-0.004894449917746,0.004831353575183,0.010246905498207,0.001373785315081,0.000610243412666,0.741580188274384,0.003470104187727,0.004527768530154,-0.002893195021898,-0.000487864046590,0.000413000001572,0.008636404347951,0.006092072525468,0.033062082334684,0.000339999998687,0.003354937070981,0.019800830632448,0.013941874727607,0.340612351894379,0.000174500004505,0.054468322545290,-0.000294798141113,-0.011000133119524,0.001589650521055,
-0.086630619752709,-0.000241999485297,-0.059316754341125,-0.139143586158752,-0.000310000003083,0.000601484440267,-0.006999785251245,0.002293193378570,-0.012436360120773,-0.014879542803139,-0.165098473429680,-0.000039660546463,-0.000472202547826,0.000648900517263,0.000248380907578,0.000209000005270,0.000375591655029,-0.006014650881141,-0.009036985388235,0.000483999989228,-0.029148802161217,0.000076780634117,-0.016581847353803,0.000322922627674,0.000307500013150,0.000542362162378,-0.010693109548596,0.000024000000849,-0.000441418844275,-0.002557148458436,-0.004269869066775,0.000114499998745,0.000015486484370,-0.076957151230185,0.003786861896515,-0.000778293877374,0.000363500003004,0.000466500001494,0.000699362019077,-0.000426999991760,0.000691863649990,-0.000765666365623,0.000165999997989,-0.000026528910894,0.000548807904124,-0.003101185662672,0.006309050135314,-0.017360423203387,0.000423372810474,-0.000258120620856,0.004487249068916,-0.000231531623285,-0.010757406242192,-0.024144275113940,0.000171499996213,0.000396499992348,0.001737159676850,-0.000070000001870,-0.000385499995900,0.000094288610853,0.000361499987775,0.013238573149514,-0.000226499993005,0.014187371639607,-0.016453296748648,-0.035326134413481,0.000128999992739,-0.003795285964236,0.007141101639718,-0.000061933584220,0.000535118510015,0.000970085617155,0.000682904443238,-0.000163999997312,0.001083600218408,-0.014239183162636,0.000376000010874,-0.028070591390133,0.000142000004416,-0.000646197237074,0.000394663948100,-0.000021989548259,-0.000107499996375,-0.055338278412819,-0.000615876072784,-0.000343499996234,-0.050016071647406,0.012645350769162,0.000542080611922,-0.014380039196242,-0.001385142211802,0.000471566512715,0.007704467047006,-0.000206762022572,-0.008269952610135,-0.000574689707719,-0.018804864819197,-0.010018053074139,-0.019385685402065,-0.001096675248087,-0.005520097445697,0.000035881967051,-0.008621210232377,-0.001608074642718,-0.000138999996125,0.005039768427532,0.000480329646962,-0.017052169406915,-0.000597633421421,-0.005375279104629,-0.065259717404842,0.000226499993005,-0.000257500010775,-0.000167114252690,-0.013229503604394,0.000280652369838,-0.013786889213894,-0.001654390400601,-0.039121620357037,-0.012289598171161,-0.001873096800409,0.000294206487989,-0.119491271674633,-0.001060792012140,-0.000368500011973,0.000964511651546,-0.000398885924369,-0.154318377375603,0.011736086961273,-0.105296358466148,0.009512058772297,-0.000454269902548,-0.001692482386716,-0.005049951374531,-0.029211874757314,-0.000155999994604,-0.000259508029558,0.006423512245318,-0.059940379112959,-0.000157532267622,-0.001066061435267,0.000454410561360,-0.006001761183143,-0.018119267589588,0.003133692545816,-0.570430696010590,-0.408051878213882,-0.000291000003926,-0.036062147158467,-0.004333536140621,0.000422499986598,0.000096601565019,-0.000277235027170,-0.000270228920272,-0.017726980149746,-0.004421782238049,0.008730540968864,-0.040914075615350,-0.016473915827193,0.000379500008421,-0.575087130069733,-0.005167144350708,-0.024052929133177,0.000356882577762,-0.000000472485311,0.000020999999833,-0.003020768752322,0.000472999992780,-0.001791837392375,0.000817297957838,0.004094060280819,0.002165184589103,-0.000510431535076,0.000437029828632,0.004271695390344,-0.003128020986996,-0.000126500002807,-0.012839017302022,-0.006852982206055,-0.008633530698717,-0.000959364755545,-0.000418028270360,-0.612149238586426,-0.002720006741583,-0.006422694784342,0.007804853841662,-0.000143751254654,-0.000125999999000,-0.002292856059092,-0.004828689159002,-0.024127534486813,-0.000413500005379,-0.004153870977461,-0.013264267705381,-0.009255125187337,-0.294900715351105,-0.000245500006713,-0.058741550892591,-0.003015508409590,0.001113212550990,-0.000576553866267,
