-0.000600852421485,-0.000622503808700,-0.000519894470926,0.000187357800314,0.000808536948171,0.000548942247406,0.000395653216401,0.000005743347174,-0.000489322876092,0.000761852425057,-0.000837070052512,0.000239124987274,-0.000131935594254,0.001062945579179,-0.000466145167593,0.000038146841689,0.000993015011773,-0.000118733783893,0.000491570273880,-0.000595758436248,-0.000408210384194,0.000964815146290,-0.000748920720071,-0.000678365526255,-0.000552016892470,0.000490210077260,-0.000235560713918,0.000768462661654,0.000919892394450,0.000441719661467,0.000764455879107,-0.000144114441355,0.000611605762970,0.000970975554083,0.000995987327769,0.000720778189134,-0.000652211660054,0.000069838133641,0.000869361101650,-0.000294777768431,0.000886991037987,0.000404505582992,-0.000568324641790,0.000752806314267,-0.000270539487246,0.000194208012545,0.000759288552217,-0.000749409606215,-0.000112463327241,0.000586698588450,0.000690985238180,-0.000278761144727,-0.000190273203771,-0.000904134707525,-0.000086799453129,-0.000223310664296,0.000787134806160,0.000550144352019,-0.000173955224454,-0.000651829817798,0.000066359265475,-0.000766694778576,0.000907506328076,-0.000652031507343,-0.000874736462720,0.000075790674600,-0.000031559971831,0.000307967362460,-0.000303143635392,0.000470541242976,0.000854551384691,0.000946329557337,-0.000215604683035,-0.000613246869761,0.000373181508621,0.000018740087398,0.000134873655043,-0.000538842519745,0.000604277476668,0.000684826576617,-0.000318509875797,-0.000869114883244,0.001001320662908,-0.000238879612880,0.000817498425022,-0.000018803882995,0.000410201464547,0.000947649066802,-0.000693061680067,-0.000039184236812,-0.000530966266524,-0.000338684796588,0.000354781164788,0.000591316493228,0.000606408808380,-0.000815197359771,-0.000868729315698,-0.000052802177379,-0.000425699661719,-0.000117207564472,0.000152602427988,-0.000317234371323,0.000685227510985,-0.000292617653031,0.000942258164287,0.001021513016894,-0.000639146077447,0.000718591501936,-0.000560577434953,0.000075736708823,-0.000222040966037,-0.000088907028839,0.000013693194887,-0.000769914360717,0.000845017202664,-0.000194351523533,0.000614825170487,0.000148414241266,-0.000450054532848,0.001018091687001,0.000305650784867,0.000145821119077,-0.000403851736337,-0.000683833262883,-0.000249153818004,0.000666352862027,0.000613107287791,-0.000923608837184,-0.000903124047909,0.000400591467042,0.000211864506127,-0.000005958113888,0.000761123315897,0.000993095221929,0.000474701781059,0.000147241720697,-0.000776029832195,0.001032232772559,0.000370065274183,0.000496458145790,-0.000650253961794,0.000810349301901,-0.000552522484213,0.000009268413123,-0.000029697064747,-0.000756752269808,0.000781234761234,-0.000790237914771,-0.000429366773460,-0.000568642455619,-0.000012432084077,0.000559965090360,0.000089686567662,-0.000531759986188,0.000212969258428,-0.000040780032577,-0.000373451126507,-0.000203835326829,0.000702284742147,0.000459158705780,-0.000583927030675,0.000669857079629,-0.000413911126088,0.000584589666687,-0.000551805773284,0.000525119365193,-0.000958542630542,0.000631075992715,-0.000649862398859,-0.000701303884853,-0.000149425322888,0.000418669136707,0.000042674539145,-0.000468057696708,-0.000996462651528,0.000421059812652,0.000240579189267,0.000654927629512,-0.000520751578733,-0.000684842991177,-0.000216254193219,-0.000926484121010,0.000964590290096,-0.000584178487770,0.000986539409496,-0.000079811543401,0.000797778426204,-0.000818308675662,-0.000463715143269,0.000789106008597,-0.000079314268078,-0.000383104954381,-0.000579932238907,0.000760196940973,-0.000591887277551,-0.000673807051498,-0.000294992903946,-0.000123151374282,0.000570936303120,-0.000663822516799,0.000579376064707,-0.000145797806908,0.000400389020797,-0.000427107006544,0.000257290870650,-0.000443796627223,0.000591920223087,-0.000156278139912,-0.000669003406074,-0.000770232523791,0.000010312045561,0.000873393437359,-0.000367447966710,0.000018146982256,-0.000265902286628,0.000249866221566,-0.000460309762275,0.000136327464134,-0.000639128265902,-0.000471106526675,0.000642853905447,0.000351455179043,0.000545243499801,0.000499119283631,0.000269531708909,0.000524022558238,-0.000363426079275,-0.000425102334702,0.000771431834437,-0.000215970285353,0.000301599007798,0.000619608908892,-0.000158562572324,0.001083071692847,0.000209925652598,-0.000507700198796,0.000625843589660,-0.000486996519612,-0.000726819387637,-0.000939921475947,-0.000795602158178,-0.000765459320974,0.000711211177986,0.001018410897814,-0.000756895053200,0.000842373061460,-0.000073634211731,0.000211284655961,0.000556775310542,-0.000758816779125,-0.000311197043629,-0.000681937555782,-0.000896765443031,-0.000629028538242,-0.000309992552502,-0.000600127270445,-0.000065444466600,-0.000096456918982,-0.000533795042429,0.000910618226044,-0.000814378319774,0.000889010261744,0.000472421437735,0.000925616302993,0.001020623138174,-0.000644663174171,-0.000294525641948,-0.000917264085729,0.000743342214264,0.000602564658038,-0.000487348443130,0.000937274831813,-0.000578678911552,0.000107204134110,-0.000247690593824,-0.000340407044860,-0.000435132707935,0.000041435778257,-0.000087454354798,0.000911155075300,-0.000265088892775,0.000447483937023,0.000829778145999,0.000283477071207,-0.000548299634829,0.000046410827053,-0.000371198577341,-0.000762270239647,-0.000659079931211,0.000128313156893,0.000469081336632,-0.000346701679518,0.000777766515967,0.000865443202201,-0.000049048394430,-0.000782933784649,-0.000788609264418,0.000767387216911,0.000234338353039,0.001024322235025,0.000363720580935,-0.000582543434575,-0.000266237650067,0.000461282004835,-0.000396201503463,0.000489551399369,-0.000403289246606,0.000489416124765,0.000559756706934,-0.000819727370981,-0.000898893806152,0.000768782512750,0.000809334916994,-0.000812254729681,-0.000527157564647,-0.000666304258630,0.001041027018800,-0.000272496487014,-0.000431276275776,-0.000416950351791,0.000480959890410,0.000916753546335,-0.000006367611604,-0.000749398372136,0.000249234377407,0.000354946037987,-0.000545921153389,-0.000695314083714,-0.000862840795889,-0.000476722081657,-0.000679009128362,-0.000503625196870,0.000776972796302,-0.000837093510199,0.000753945438191,0.000341200822731,-0.000308116781525,0.000842412526254,-0.000679740682244,-0.000641269085463,-0.000617900921497,0.000219610417844,-0.000901877181605,-0.000036276411265,-0.000159233022714,0.000878797203768,-0.000000724940776,-0.000624094798695,0.000790489779320,-0.000651951122563,0.000605279812589,0.000689380394761,0.001026224112138,-0.000476616987726,-0.000817761174403,0.000234355582506,-0.000732998538297,0.000177751921001,-0.000770729209762,0.000599460676312,-0.000500044261571,0.000230576086324,-0.000494742300361,-0.000933646457270,0.000682966609020,-0.000684024591465,-0.000527217576746,0.000306862348225,-0.000924560357817,-0.000800953188445,0.000551460892893,-0.000204899872188,-0.000324274733430,0.000213850245927,-0.000647822569590,-0.000486802717205,-0.000938843470067,-0.000779934751336,-0.000931651855353,-0.000167720587342,0.000955832132604,0.001007307320833,0.000450065766927,-0.000744217017200,0.000672237365507,-0.000481828872580,-0.000527093943674,0.000371574889868,0.000861292646732,0.000368352833902,0.000906490779016,-0.000590317824390,-0.000789519341197,0.000883311731741,-0.000888804323040,0.000549329677597,-0.000653027091175,0.000566881848499,-0.000781975686550,0.000801707501523,-0.000709908781573,0.000813081220258,-0.000280720443698,0.000239713932388,0.001041029579937,0.000161697331350,
-0.002310739597306,-0.003320066258311,0.001979288179427,-0.001048377132975,-0.010365542024374,-0.005754999350756,0.002216807799414,0.006215567700565,0.004082524217665,0.001804743427783,-0.005636543035507,-0.003228946588933,-0.007205404806882,-0.004475825931877,0.007839141413569,0.001364377210848,0.002705883467570,0.003349326085299,0.003545877756551,-0.021143332123756,-0.017714275047183,0.003063994226977,0.009257768280804,0.009820296429098,-0.004648337140679,-0.006938536185771,0.002341681392863,0.002250625053421,-0.025977404788136,-0.017878526821733,0.011302277445793,0.017310433089733,-0.000805490009952,-0.010683652013540,-0.011628428474069,-0.002919234801084,0.000178403599421,-0.012475129216909,-0.003733012359589,0.009851686656475,0.013665472157300,0.001272267545573,-0.012633945792913,-0.007805929053575,-0.005392330698669,0.000356641976396,-0.003026668913662,0.000016117710402,0.008043965324759,-0.000569416559301,-0.001411132630892,-0.002197008812800,0.000388609390939,-0.003688414115459,0.002306757029146,-0.003728549461812,0.006276664324105,0.008671638555825,-0.007161029148847,-0.003647983307019,0.006004234775901,0.004635141696781,-0.001136167207733,0.002006548456848,-0.005433985963464,0.006775064859539,-0.001551111694425,-0.005518916528672,0.001855956041254,0.006976424716413,0.002606314606965,0.000260366039583,0.001883186632767,-0.007464397232980,0.001016182592139,-0.006169904954731,-0.004054655320942,0.001586695900187,0.003869384760037,0.000170677114511,0.000642789877020,0.002309564268216,-0.000726741272956,-0.000416538096033,0.002801068825647,-0.001086184987798,0.003671655198559,0.003629985731095,0.003296944079921,0.007205352187157,0.006279826629907,-0.001253675785847,-0.008350491523743,-0.019076708704233,-0.013817000202835,-0.005744858179241,-0.005242463201284,-0.010221921838820,-0.016680236905813,-0.006501753348857,-0.009078400209546,-0.008556491695344,0.003111165249720,0.011068666353822,0.014350883662701,0.004235159140080,-0.000771298829932,-0.007651046384126,-0.003949467558414,-0.002915289718658,0.002424221951514,0.010032889433205,0.011238669976592,0.001961387461051,0.001911867759190,-0.005292438436300,-0.007907689549029,-0.006515676621348,0.005749482661486,0.012724490836263,0.017330724745989,0.011501312255859,0.005786279216409,0.005521705374122,0.004649356473237,0.004696135874838,0.000458758353489,0.007783760316670,0.007858596742153,0.010067499242723,0.010584932751954,0.014500205405056,0.018092732876539,0.018721539527178,0.011449042707682,0.007014342583716,0.001420878455974,0.002286075847223,0.003033454064280,0.000759934308007,0.002653575036675,0.009081570431590,0.009645769372582,0.006991123314947,0.007956797257066,-0.002226429292932,-0.003148841438815,-0.007802836596966,-0.005504717584699,-0.002585900714621,0.001907977974042,0.002478896407411,0.002881952794269,0.002091249683872,-0.000086128835392,0.000402596080676,-0.001656589214690,0.000561145425308,0.002333034528419,0.002138080541044,0.000729559338652,0.001487342524342,0.001496598008089,-0.003451503813267,0.000719554256648,0.000914218660910,-0.007290144916624,-0.004093933850527,0.000327554793330,0.007229072041810,0.010700380429626,0.007201999425888,-0.005998700857162,-0.014831331558526,-0.020302556455135,-0.017916960641742,0.000131812994368,-0.006229450926185,-0.005795353557914,-0.010229558683932,-0.002603283151984,-0.026432605460286,-0.035766132175922,-0.023854726925492,0.002128343097866,0.021936114877462,-0.001161011168733,-0.018565883859992,-0.013639331795275,0.000093622271379,-0.032492343336344,-0.033833079040051,-0.003261849749833,0.032257672399282,0.022508228197694,0.001461164094508,-0.028190366923809,-0.016963832080364,-0.007673178333789,-0.010454603470862,-0.010187534615397,0.019531903788447,0.034434266388416,0.014908586628735,-0.016438024118543,-0.013058478012681,-0.010534577071667,-0.010408486239612,0.004243343137205,0.011825604364276,0.031734313815832,0.023601867258549,0.009568321518600,0.012831189669669,0.016220116987824,0.001900602481328,0.001463205437176,0.000873596640304,0.009801983833313,0.024703931063414,0.003667525015771,-0.001742028398439,0.021297624334693,0.020247792825103,0.004616924095899,0.004443551879376,-0.007880870252848,-0.000791564176325,-0.004919613245875,-0.018691923469305,-0.011608075350523,0.008550561033189,0.004801872186363,0.000092526453955,-0.000736320624128,-0.011370493099093,-0.007025182712823,-0.014221269637346,-0.014096152037382,-0.003894010558724,0.010740282014012,0.005300806369632,-0.001311833737418,-0.001111678080633,-0.000221119000344,0.002303187735379,0.000888649781700,-0.003341386560351,0.000401412980864,0.002000449923798,0.001422525267117,0.002663355320692,0.003218072932214,0.001055754139088,-0.002152134431526,0.001449503819458,0.004352035000920,0.006140222772956,0.000065050458943,-0.003054312430322,0.004400713834912,0.004399986937642,-0.003152161603794,0.001277950359508,0.005642727948725,0.006359204184264,-0.000609710812569,-0.000954051734880,0.002982526319101,0.000305815454340,-0.000975492177531,0.000752038729843,0.000645733263809,-0.000017393194867,-0.003153443103656,-0.000333120668074,0.006083234678954,0.000389160763007,-0.002342602470890,-0.002085082000121,0.003353378735483,0.001861402299255,-0.004666366614401,-0.002348729176447,0.006549702957273,0.005628737621009,0.006034756544977,-0.004436630290002,0.000312954100082,0.004423603415489,0.002469500759616,0.002410337096080,0.001142486929893,0.004922289866954,0.008948807604611,-0.003506290959194,-0.002463118871674,-0.000591005431488,0.001359463785775,0.005143274553120,0.003002887824550,0.002335834084079,0.004526389762759,0.004748752340674,0.003784145927057,0.005654328968376,0.000736661255360,0.002465833676979,-0.002078952966258,-0.000178561516805,0.003920995630324,0.001202213345096,0.001761257881299,0.005376434884965,0.004789466038346,0.004627516958863,0.001340191229247,0.000131295790197,-0.000050194379583,0.000752898049541,-0.001222179969773,-0.002220320748165,0.001175017561764,0.002398867858574,0.001646062941290,0.001006317208521,0.001185983070172,0.003201079787686,0.003589549334720,0.002910092240199,0.004274652339518,0.004145336337388,0.005465474911034,0.003571267472580,0.000999012845568,0.001181738451123,0.000033732558222,-0.002391816116869,-0.000015076894670,0.001881993259303,0.003583834972233,-0.000400568387704,0.002186990575865,-0.000796445179731,-0.003538126591593,-0.005904202815145,-0.003681523492560,-0.000272735895123,0.001426398172043,-0.000896495592315,-0.004810984246433,0.001131344004534,-0.005108908750117,-0.005380477290601,-0.005417205393314,0.000020923234842,0.008974016644061,0.006363576743752,-0.004356500692666,-0.003695351071656,-0.001219081459567,-0.004055292345583,-0.006334087345749,0.000731008476578,0.006346199661493,0.009651723317802,0.001521809608676,-0.005834120325744,-0.005527635570616,-0.002397294389084,0.002413758542389,0.000412092223996,0.005036093294621,0.002658085199073,0.001591794425622,0.002327408408746,-0.000486548320623,0.000525463896338,0.000458518887172,0.003791786031798,0.001250382512808,0.007723955903202,0.004780875053257,0.004723426885903,0.004512948915362,0.005167065188289,0.004924960434437,0.003266478190199,0.000930852373131,0.003106824588031,0.005053692031652,0.001911584986374,0.003666420001537,0.006607276387513,0.006086715031415,0.004242305643857,0.001727823633701,-0.000644433777779,0.000028372727684,-0.000842374574859,-0.000481170194689,0.000199916481506,0.001996993785724,0.003517143428326,0.002729693427682,0.000227711541811,
-0.002956710988656,0.001019074930809,0.004196316935122,-0.007323115598410,-0.020715985447168,-0.010057104751468,0.002337961224839,0.010274883359671,0.005874028895050,0.002248717239127,-0.005626575555652,-0.009630764834583,-0.015927756205201,-0.005323299672455,0.012645810842514,0.004730081185699,0.005791932810098,0.004676565527916,0.005592866800725,-0.031212830916047,-0.029708627611399,0.007943499833345,0.012267264537513,0.007863684557378,-0.006465708371252,-0.014130952768028,0.004056054633111,0.004013321828097,-0.036973237991333,-0.016290552914143,0.020676665008068,0.017822798341513,-0.012470111250877,-0.018457250669599,-0.021407051011920,-0.006033010315150,0.001832572510466,-0.013359651900828,0.004480022471398,0.016261303797364,0.011556877754629,0.001402868074365,-0.014067424461246,-0.012637359090149,-0.008398646488786,0.000498585344758,0.005146038718522,0.005811812821776,0.008678331039846,-0.010232313536108,0.000905346882064,0.005711516365409,-0.000852717610542,-0.006372358184308,0.003391304286197,0.009190411306918,0.020316356793046,0.004432665649801,-0.019887832924724,-0.000121491364553,0.020960168913007,0.005477244034410,-0.002148439409211,0.002314219949767,0.006820976268500,0.025509303435683,-0.011828534305096,-0.018580563366413,0.008309337310493,0.018736401572824,0.004391471855342,0.000548155454453,0.001736993202940,-0.004330888856202,0.009956194087863,-0.014300364069641,-0.011276828125119,-0.000452833337476,0.006406608503312,0.001134461257607,0.000300809653709,0.003460582578555,0.003016632283106,0.003768458496779,-0.000657019030768,-0.011805180460215,-0.002350517315790,0.004419209435582,0.009213391691446,0.016198379918933,0.010833091102540,-0.005197179038078,-0.022506102919579,-0.039456423372030,-0.021602556109428,-0.000292811600957,0.002695225412026,-0.008446831256151,-0.024085355922580,-0.012961236760020,-0.022013710811734,-0.010036505758762,0.021380625665188,0.035948220640421,0.031462140381336,0.009543464519083,-0.001884440542199,-0.012548429891467,-0.008160423487425,-0.003659373847768,0.012925054877996,0.021467471495271,0.013107556849718,-0.002587685128674,0.000552622543182,-0.007128051016480,-0.018699709326029,-0.014988625422120,0.013763719238341,0.018651125952601,0.017985586076975,0.013743391260505,0.010659493505955,0.008214903995395,0.002003049477935,-0.002524754265323,-0.006242183502764,0.017697187140584,0.016765695065260,0.017949404194951,0.013698736205697,0.023586312308908,0.035931196063757,0.033392719924450,0.019256131723523,0.009719499386847,0.003911112435162,0.010997904464602,0.016258271411061,0.003901077667251,0.008744178339839,0.016013585031033,0.016336301341653,0.012690239585936,0.012674306519330,-0.000776558707003,0.000360476435162,-0.002775368979201,0.006395680364221,0.010469824075699,0.010628242976964,0.005301931407303,0.003305393038318,0.003199469530955,-0.001291721477173,-0.001307476661168,-0.005101215559989,0.002134049311280,0.005759640131146,0.003475565696135,0.003321866737679,0.003400385612622,0.003047392005101,0.002133984118700,0.012179117649794,-0.002127022715285,-0.020547408610582,-0.014802899211645,-0.003699246095493,0.018506748601794,0.023821387439966,0.014807363972068,-0.007429929915816,-0.029714934527874,-0.045939095318317,-0.041455551981926,-0.004244619049132,-0.001278775627725,0.005652004387230,-0.013980596326292,-0.006229440215975,-0.049521267414093,-0.065234914422035,-0.029525903984904,0.019508212804794,0.040449701249599,0.007334775757045,-0.020927734673023,-0.024389540776610,-0.000287248985842,-0.055314153432846,-0.037272520363331,0.010333679616451,0.052865684032440,0.026242665946484,0.004552650731057,-0.045124899595976,-0.034083846956491,-0.016959566622972,-0.012952978722751,-0.005387821700424,0.031443372368813,0.041885539889336,0.015765510499477,-0.027149429544806,-0.031056927517056,-0.032130945473909,-0.021370267495513,0.021410107612610,0.038611866533756,0.055303063243628,0.026829652488232,0.009744046255946,0.025553125888109,0.028641076758504,-0.001842863275670,0.002276302082464,0.019428154453635,0.036088950932026,0.041112408041954,-0.000399965181714,0.001773987431079,0.047384750097990,0.036198716610670,0.005417065229267,0.007094029802829,0.001720047090203,0.018150044605136,-0.003039452014491,-0.023112593218684,0.000295676290989,0.030612796545029,0.014078326523304,0.002827340504155,-0.000734949077014,-0.008917253464460,-0.001307814964093,-0.018772853538394,-0.015354461967945,0.008615132421255,0.028125731274486,0.009526650421321,-0.002894254168496,-0.001197447651066,0.002967125270516,0.001522142789327,-0.002082238206640,-0.004187837243080,0.001868917373940,0.005576363299042,0.004473951179534,0.003148813964799,0.005881168413907,-0.000923610350583,-0.005709597375244,0.004574952647090,0.007688316516578,0.009892977774143,0.001402279827744,-0.004478788003325,0.006888827309012,0.008767693303525,-0.006147805601358,0.006053202785552,0.009722452610731,0.005451639182866,-0.001782444887795,-0.001081057707779,0.005941830575466,0.003582248231396,-0.000824300921522,0.001629641861655,0.002093256916851,-0.003598932409659,-0.008351766504347,0.001928557874635,0.009740245528519,0.003990121185780,-0.004325624089688,-0.001683300593868,0.004804103635252,-0.000957734533586,-0.008635888807476,-0.001397127518430,0.015680957585573,0.008652260527015,0.010079178959131,-0.005463812034577,-0.001387440483086,0.006869800388813,0.003724028123543,0.002012772019953,-0.000013063237020,0.009324078448117,0.015332205221057,-0.004101689904928,-0.004093648400158,-0.004347281064838,0.003411701880395,0.011995932087302,0.006012233439833,0.004146659746766,0.006979205645621,0.006513635162264,0.008442287333310,0.007748550269753,0.000682314916048,0.003587161889300,0.001377397216856,0.002571800490841,0.009041511453688,-0.000313891650876,0.005133928265423,0.011938977986574,0.008377315476537,0.006044540088624,0.002125946572050,0.000255235383520,0.002966788364574,0.001578436698765,-0.003034229623154,-0.000489137601107,0.005491965450346,0.004039010964334,0.002314161276445,0.003947294782847,0.003728805808350,0.005807273089886,0.005307139363140,0.000887944537681,0.003123902715743,0.004982917103916,0.009370837360620,0.005908103194088,0.002677308628336,0.001626280718483,-0.001267794519663,-0.004884464200586,-0.000515000021551,0.000648081011605,0.006888471078128,0.001039261347614,0.001896265544929,-0.001973544014618,-0.010579887777567,-0.009201541543007,-0.004830897785723,-0.000491709040944,0.002163901459426,0.002137247240171,-0.007729174103588,-0.000919758400414,-0.008635194040835,-0.008697317913175,-0.002529742661864,0.003017846262082,0.011662810109556,0.009311172179878,-0.007720204070210,-0.007193036843091,-0.003770335810259,-0.006904821377248,-0.010073379613459,0.001601646537893,0.011058763600886,0.015295792371035,-0.000631898932625,-0.010388440452516,-0.012033404782414,-0.007188334595412,0.005103012546897,0.001312697888352,0.008092234842479,0.003972331061959,-0.000041603700083,0.002387034473941,-0.000374655559426,-0.002392417518422,-0.001537028118037,0.009606713429093,0.007299036718905,0.015441916882992,0.002799844136462,0.003886714112014,0.009535101242363,0.013198846019804,0.006614959798753,0.004346906673163,0.003343589371070,0.010563140735030,0.010691686533391,0.007195136975497,0.007355510722846,0.013608200475574,0.013415604829788,0.008477799594402,0.002927666297182,-0.000981216435321,0.004208206664771,0.001011850545183,0.001025285222568,0.003742036176845,0.005456564482301,0.006304114591330,0.004304463509470,0.000581465137657,
0.000379000004614,0.000487999990582,0.000761999981478,-0.000125999999000,0.000364000006812,-0.000104999999166,-0.000759000016842,-0.000541999994311,-0.000525999988895,-0.000030999999581,-0.000192000006791,-0.000890999974217,0.000534999999218,0.000567000010051,0.000784999981988,0.000592999975197,-0.000820000015665,0.000581000000238,0.000946999993175,-0.000664999999572,-0.000246000010520,-0.000520000001416,0.000012000000424,0.000667000014801,0.000427999999374,0.000422000011895,0.000910000002477,0.000758000009228,0.000965000013821,-0.000604000000749,-0.000586999987718,0.000907999987248,0.000214999992750,0.000753999978770,-0.000578999985009,0.000201999995625,0.000472000014270,-0.000683000020217,-0.000041999999667,0.000943000020925,-0.000207000004593,-0.000837999978103,-0.000308999995468,0.000361999991583,0.000684000027832,0.000776999979280,-0.000482000003103,-0.000459000002593,-0.000040999999328,0.000445999990916,0.000018999999156,-0.000725999998394,-0.000791000027675,0.000316999998176,-0.000624999986030,-0.000430999993114,-0.000065000000177,-0.000283000001218,0.000974000024144,-0.000992999994196,-0.000230999998166,0.000216000000364,0.000096000003396,-0.000834000005852,0.000844999973197,0.000480999995489,-0.000078999997640,-0.000677999982145,-0.000516999978572,0.000668000022415,0.000961999990977,0.000638000026811,0.000531000026967,0.000669999979436,-0.000342999992426,0.000052999999753,0.000981000019237,-0.000820000015665,0.000780000002123,-0.000180000002729,0.000723999983165,0.000411999993958,0.000864000001457,-0.000307999987854,0.000604000000749,-0.000306000001729,0.000022000000172,0.000403000012739,0.000543000001926,0.000503999995999,0.000182000003406,-0.000776999979280,-0.000775000022259,-0.000569999974687,0.000303000007989,-0.000509999983478,-0.000153999993927,0.000116000002890,-0.000890000024810,0.000638999976218,-0.000865000009071,0.000186999997823,0.000453999993624,0.000861999986228,-0.000319000013405,0.000452000007499,-0.000743000011425,0.000705000013113,0.000783999974374,-0.000375000003260,0.000460000010207,-0.000037999998312,-0.000180999995791,-0.000111000001198,-0.000571999989916,0.000174999993760,0.000870999996550,0.000758000009228,-0.000297999999020,-0.000643000006676,0.000380999990739,-0.000418000010541,-0.000180999995791,-0.000763999996707,-0.000981000019237,-0.000837000028696,-0.000413000001572,-0.000841000000946,-0.000674000009894,-0.000964000006206,0.000295000005281,-0.000831999990623,0.000052999999753,0.000922999985050,0.000483000010718,0.000669999979436,-0.000487999990582,0.000648999994155,-0.000743000011425,0.000209999998333,0.000855999998748,0.000770999991801,0.000276000006124,-0.000258999993093,-0.000394000002416,-0.000530000019353,0.000125000005937,-0.000575000012759,0.000838999985717,-0.000292000011541,0.000501999980770,-0.000140000003739,-0.000146999998833,-0.000067000000854,0.000881000014488,0.000253000005614,-0.000261000008322,-0.000399999989895,-0.000410999986343,-0.000555999984499,-0.000339999998687,-0.000950000016019,-0.000260000000708,-0.000203000003239,-0.000731999985874,0.000479999987874,0.000426000013249,-0.000638000026811,-0.000941000005696,0.000583000015467,0.000385999999708,0.000829999975394,-0.000644000014290,0.000323999993270,-0.000965000013821,-0.000075999996625,0.000478000001749,-0.000572999997530,0.000829000025988,-0.000237000000197,0.000735000008717,0.000800999987405,0.000593999982812,0.000831999990623,0.000882000022102,0.000967000029050,0.000325000000885,0.000338000012562,0.000364000006812,0.000228999997489,0.000783999974374,-0.000395000010030,0.000247999996645,0.000641999999061,0.000423999998020,0.000531000026967,0.000205000003916,0.000262999994447,0.000495999993291,0.000232000005781,0.000636000011582,-0.000996000017039,-0.000172000000020,-0.000811000005342,-0.000907999987248,0.000803000002634,-0.000367000000551,0.000518999993801,0.000842000008561,-0.000538000022061,-0.000380999990739,0.000876999984030,0.000186999997823,0.000844999973197,0.000986000057310,0.000684999977238,-0.000082999998995,0.000771999999415,-0.000433000008343,-0.000075000003562,-0.000472000014270,0.000338999991072,0.000480999995489,-0.000100999997812,-0.000486000004457,-0.000521000009030,0.000536000006832,0.000488999998197,-0.000809999997728,-0.000761999981478,-0.000000999999997,0.000560000014957,0.000827000010759,0.000839999993332,0.000482000003103,-0.000216000000364,-0.000479999987874,0.000524999981280,-0.000203999996302,-0.000222999995458,0.000385999999708,0.000203999996302,0.000543000001926,0.000568000017665,-0.000034000000596,-0.000044000000344,0.000273000012385,-0.000927000015508,-0.000816999992821,0.000620000006165,0.000487000012072,0.000820000015665,0.000261000008322,0.000781000009738,-0.000421000004280,0.000571999989916,0.000153999993927,-0.000592000025790,-0.000523999973666,-0.000841000000946,0.000448000006145,-0.000081999998656,0.000068000001193,-0.000624999986030,-0.000004999999874,0.000953999988269,-0.000797000015154,-0.000525999988895,-0.000506000011228,0.000362999999197,-0.000409000000218,-0.000811000005342,-0.000931999995373,0.000715999980457,-0.000395000010030,0.000009999999747,-0.000253000005614,0.000050999999075,-0.000116000002890,0.000148000006448,-0.000325000000885,0.000709999992978,0.000922999985050,0.000440000003437,-0.000260000000708,-0.000048000001698,-0.000190000006114,-0.000138999996125,-0.000608999980614,0.000452999986010,-0.000395000010030,-0.000100999997812,-0.000402000005124,-0.000874000019394,-0.000322000007145,0.000193999992916,0.000018999999156,-0.000620000006165,-0.000432000000728,0.000237000000197,0.000515999970958,-0.000001999999995,-0.000334000011208,-0.000759000016842,-0.000127000006614,0.000237000000197,0.000522000016645,0.000743000011425,-0.000900999992155,0.000607000023592,0.000087000000349,0.000292999990052,0.000912000017706,0.000670999987051,-0.000827000010759,0.000572999997530,0.000046000001021,0.000563999987207,-0.000255999999354,-0.001000000047497,0.000717999995686,-0.000930999987759,-0.000006000000212,-0.000322999985656,-0.000335999997333,0.000739999988582,-0.000111000001198,0.000778999994509,0.000557999999728,0.000092000002041,0.000601999985520,-0.000830999983009,0.000237999993260,0.000914999982342,0.000510999991093,-0.000837000028696,0.000052999999753,0.000186000004760,0.000971000001300,-0.000081999998656,-0.000254999991739,0.000648999994155,-0.000018999999156,-0.000857000006363,-0.000561999971978,0.000561999971978,-0.000495999993291,-0.000377999996999,0.000901999999769,0.000872000004165,0.000783999974374,0.000461999996332,-0.000098999997135,-0.000858000013977,-0.000322000007145,0.000087000000349,0.000811000005342,-0.000063999999838,-0.000155999994604,-0.000369999994291,-0.000960999983363,-0.000763999996707,-0.000452999986010,0.000483000010718,0.000211000005947,-0.000852000026498,-0.000052999999753,0.000172000000020,-0.000609999988228,-0.000835000013467,-0.000911000010092,0.000063999999838,0.000051999999414,-0.000487999990582,0.000257000006968,-0.000427999999374,0.000068000001193,-0.000130000000354,-0.000867000024300,-0.000391000008676,0.000931999995373,-0.000555999984499,-0.000829999975394,0.000960999983363,0.000483000010718,-0.000261999986833,-0.000853999983519,0.000331999995979,0.000859000021592,-0.000797000015154,0.000273999990895,-0.000006000000212,0.000418999989051,-0.000108000000182,-0.000640999991447,-0.000492000021040,-0.000119999996969,0.000794999999925,0.000632999988738,0.000228000004427,-0.000814000028186,-0.000297999999020,-0.000523999973666,-0.000682000012603,-0.000464999990072,0.000335999997333,
0.000386820203857,-0.000773284991737,0.000639098230749,-0.000690944085363,0.000839858083054,-0.000787214084994,-0.000563976354897,0.000701889395714,-0.000468560698209,0.000505179748870,-0.000940362748224,0.000595933990553,-0.000067223023507,0.000331702583935,0.000809106742963,0.000359569530701,-0.000461739080492,-0.000094379880466,-0.000528685690369,0.000100747507531,-0.000554668135010,-0.000758946000133,-0.000823335081805,-0.000184888922377,0.000873604149092,0.000328188383719,-0.000683289428707,-0.000940559722949,-0.000532595789991,0.000927555549424,0.000141845433973,-0.000599972088821,0.000214971980313,0.000435051071690,0.000817982305307,0.000889145419933,0.000035896948248,-0.000938268029131,0.000247520365519,-0.000049024329201,-0.000241429705056,0.000716873328201,-0.000095064206107,-0.000800966809038,0.000269470736384,-0.000205369957257,-0.000355778640369,0.000912860734388,0.000685050443280,-0.000421491276938,-0.000168813814525,-0.000052558512834,-0.000770219368860,-0.000110882232548,-0.000598828133661,0.000698089133948,-0.000462816009531,0.000570127042010,0.000352564326022,-0.000516955158673,-0.000743831042200,0.000574948673602,-0.000613337557297,0.000232138496358,-0.000732450105716,-0.000365698622772,-0.000903988955542,-0.000251303630648,0.000525570649188,0.000220428526518,-0.000429965090007,0.001026010722853,-0.000837306142785,0.000480421003886,-0.000658958801068,-0.000766305427533,-0.000010786521671,-0.000236607083934,-0.000119218042528,-0.000589308911003,-0.000931952847168,0.001039766706526,0.000361149897799,0.000175572451553,0.000461932300823,0.000743323005736,0.000368218024960,0.000222910981392,-0.000424246187322,-0.000037255031202,-0.000754593987949,0.000210879676160,-0.000795829109848,0.000435765861766,-0.000278259947663,0.000011919591998,0.000674486451317,0.000527916883584,-0.000206683616852,-0.000872188829817,0.001023241551593,0.000993804773316,-0.000034807595512,0.000597625796217,-0.000947673921473,-0.000333535572281,0.000727357924916,0.000205938515137,0.000943690771237,0.000942067825235,-0.000901318038814,-0.000880855019204,-0.000595689751208,0.000237375017605,0.000803911883850,-0.000501872738823,0.000234577295487,-0.000540616514627,-0.000280793494312,-0.000710525084287,0.000848998315632,0.000445092446171,-0.000904199783690,-0.000721876509488,0.000546144903637,0.000345190812368,0.000306731963065,-0.000583493965678,0.000465137709398,0.000229817582294,-0.000421848730184,-0.000593945325818,0.000843352754600,-0.000915907265153,-0.000540158129297,0.000203474264708,-0.000700141419657,-0.000718823110219,-0.000344123749528,0.000822863366921,-0.000689450534992,0.000322086154483,0.000658151111566,-0.000269553478574,-0.000535327824764,0.000804852345027,0.000015432946384,0.000353763141902,-0.000083122547949,-0.000511832651682,0.000542609486729,-0.000928632041905,0.000436439295299,0.000402852310799,0.000333211850375,0.000671078509185,0.000202247625566,0.000104290913441,-0.000390076485928,0.000030577208236,-0.000192624822375,-0.000466075754957,-0.000735581154004,0.000529643963091,0.000445600220701,0.000418942450779,0.000722980650607,-0.000198562454898,-0.000913899100851,0.000090205670858,0.000111523178930,0.000559224688914,-0.000761248578783,0.000942654325627,0.000796857755631,-0.000047265832109,-0.000887097616214,0.000596017227508,0.000334538868628,-0.000412424473325,0.000104977865703,-0.000897751946468,-0.000169287610333,0.000387681939173,0.000721954449546,-0.000015481398805,0.000233139493503,0.000228063858231,-0.000897720281500,-0.000198252979317,0.000040658753278,0.000454861408798,-0.000137132738018,0.000796638254542,-0.000269918295089,-0.000697288487572,-0.000330730224960,0.000961866811849,-0.000862778804731,-0.000685754872393,0.000789642566815,0.000673972943332,-0.000112469271699,0.000737383670639,-0.000057990273490,-0.000569606781937,0.000739293405786,-0.000894118158612,-0.000259263615590,0.000470029714052,0.000131700231577,0.000732254236937,0.000915155804250,0.000857527833432,-0.000569478201214,0.000407138431910,0.000598344951868,-0.000166017955053,0.000866963702720,0.000008549009181,0.000880983308889,-0.000187439451111,0.000142995515489,-0.000488867342938,-0.000874246179592,0.000397147989133,-0.000958550663199,-0.000054398456996,0.000340099679306,0.000668511318509,-0.000516389147379,-0.000587974616792,-0.000240406778175,0.000132955203298,-0.000080352576333,0.000330779264914,0.000026359928597,0.000335231045028,-0.000274936232017,-0.000024813101845,-0.000301829568343,-0.000810252851807,0.000617249577772,-0.000483580603031,0.000207841847441,-0.000659367709886,0.000442190357717,-0.000732957676519,0.000045050976041,-0.000962282065302,-0.000832227349747,0.000500794150867,-0.000197331261006,0.000085663035861,-0.000208134617424,-0.000941850477830,0.000949371547904,-0.000453281507362,0.000293506629532,-0.000960086996201,0.000401683442760,0.000754333974328,0.000759586633649,0.000674752111081,0.000319553335430,0.000381851248676,-0.000187799421838,0.000219794877921,0.000904037966393,0.000337995879818,-0.000329115544446,0.001008410588838,-0.000771972176153,0.000128236570163,-0.000179395952728,-0.000302117201500,-0.000296397163766,0.000683537800796,-0.000212608254515,-0.000934140232857,-0.000947179738432,0.001034096232615,0.000079257231846,-0.000710353138857,-0.000888786918949,0.000451419677120,0.000856337195728,-0.000248832395300,-0.000712575681973,0.000093002032372,0.000262113666395,-0.000315718963975,-0.000102618068922,-0.000204860101803,-0.000501865521073,0.000028177524655,0.000077110329585,0.000640914891846,0.000524409522768,-0.000660797930323,0.000291672360618,0.000345808977727,-0.000407217507018,0.000729011662770,0.001003823126666,-0.000385705352528,-0.000255938270129,0.000296739162877,0.000959708762821,0.000219113586354,-0.000510257028509,-0.000772635918111,0.000626399996690,0.000970185268670,0.000009812708413,-0.000182529111044,0.000050292263040,0.000291769771138,-0.000845398113597,0.000501575530507,0.000228534641792,0.000054511270719,-0.000878858438227,-0.000028291318813,0.000817519612610,0.001035106601194,-0.000177252441063,-0.000014761242710,0.000007028665095,0.000058751604229,0.000146403937833,0.000843132787850,-0.000396093790187,-0.000282431981759,0.000180096845725,-0.000309824448777,0.000496588356327,0.000057002907852,0.000606203335337,0.000631237810012,-0.000754237931687,-0.000130781845655,-0.000116729723231,0.000419652613346,-0.000403874524636,0.000058134028222,0.000297359249089,-0.000163136108313,-0.000236402440351,0.000526866118889,0.000632972049061,0.000631385832094,-0.000738257134799,0.000230819336139,0.000704375968780,0.000808066863101,-0.000584986701142,0.000344768312061,-0.000598245533183,0.000763148069382,0.000613019510638,0.000451187748695,0.000463734933874,-0.000365391373634,-0.000451484665973,-0.000200901791686,0.000065695247031,0.000834405305795,0.000181760871783,0.000051360377256,-0.000920144724660,0.000412089575548,-0.000234331295360,0.000323546701111,0.000929999921937,0.000645578780677,-0.000331425573677,0.000855799182318,-0.000263355002971,-0.000734572007786,0.000365875312127,-0.000825638708193,-0.000664770253934,0.000391277280869,0.000185440832865,-0.000377102493076,-0.000334542244673,-0.000735096167773,-0.000894185039215,0.000736344838515,0.000973003392573,-0.000646947300993,0.000763270538300,-0.000750265025999,-0.000371941510821,0.000166454905411,-0.000109381515358,0.000027676833270,0.000463451840915,-0.000197595407371,-0.000368299253751,0.000790278834756,-0.000479412177810,0.000374133524019,0.001002420322038,-0.000831541023217,
-0.002603481361807,-0.009739798422738,-0.010604460447094,-0.001051401701631,0.014779386983589,0.009385491936634,0.000010401290570,0.002478329535738,0.002416003799231,0.001581482310944,-0.012878825817092,-0.017204956541182,0.001432129997016,0.019513610467519,0.007568358980284,-0.003464965799466,-0.000577445702433,0.000582112229315,0.001184336396256,-0.021182982180103,-0.023730061816525,0.002317954122745,0.025710338797585,0.008526727793344,-0.003861310956919,-0.004601548292810,0.000171688838131,0.001023223044269,-0.030679603967651,-0.033588267731023,0.001855970744700,0.033823885094539,0.015872768774833,-0.005452010243966,-0.008255323324188,-0.002138238329276,0.001569940197446,-0.028839932683691,-0.029206832739067,0.002554721699753,0.038950337597962,0.012009777199642,-0.015651125059618,-0.008309470876264,-0.000587611271835,0.002066031402142,-0.018053578141912,-0.015964449126678,0.008107123761255,0.029770579260007,-0.002212799781769,-0.022870750914461,-0.009584123768628,-0.000254507593175,0.002456670930774,-0.008897851150318,-0.013406834021483,0.004010693637628,0.024090506579476,-0.007147370766684,-0.019498354705453,-0.003634034522063,0.001465512161308,0.002613375267179,-0.004304543997928,-0.010499982092365,-0.003327472208295,0.015502446386139,0.000075600975621,-0.008613913022955,-0.000035857507096,0.001779751573854,0.003971971875221,-0.000716120865031,-0.004459088597282,-0.004433091193273,0.008791799591934,0.006031840241378,-0.001193710421478,0.002399463044644,0.002977465816007,0.002727773577140,-0.005830492287710,-0.015699365383053,-0.017814024141566,-0.006260472163529,-0.001414943423943,-0.011780807254527,-0.018944961206312,-0.011204751645838,-0.001188079853776,-0.002392385316848,-0.006043029178188,-0.009624977671282,-0.002948526771753,0.000265044107441,-0.009139886986300,-0.014110333215281,-0.010508806199239,-0.003530295274811,-0.006058846529409,-0.011750197448411,-0.010840088915906,-0.006404787723421,0.001388660216626,0.000897483268953,-0.003755607197568,-0.003694788481875,-0.000429670953958,-0.005825252201243,-0.008137635815724,-0.010564058814234,-0.007531282475705,-0.002882241208927,-0.005482961861108,-0.009430474181374,-0.005081728553055,-0.001843848427593,-0.002555257569834,-0.000868713412269,0.003080891417304,0.002204266369123,-0.002990646216854,-0.012914905253633,-0.013253064867863,-0.006740178738660,-0.001510175197242,0.006370967790649,0.009173531156198,0.007728795591906,0.004248249389197,0.001138538676681,0.002793810401277,0.009589677747504,0.013355804692412,0.010137290757219,0.006294046133921,0.004126920202912,-0.009581160660668,-0.017032991679043,-0.010911441810657,0.002903612926192,0.015939322296803,0.019032424386755,0.015095039341763,0.002922995552585,0.002889930341557,-0.008009253930136,-0.015421599078759,-0.014344569224700,-0.002844789093396,0.005936965417282,0.007525886479930,0.007183029387311,0.002027951950372,0.001506213053294,-0.000919770960531,-0.001375683163128,0.000992136554492,0.002143506031648,0.001337750303724,0.003158337973223,0.002185197152362,-0.011847958829089,-0.024831425061542,-0.023176560119589,-0.009093422482937,-0.003398218105523,-0.018287584102542,-0.018878194027334,-0.008635874682218,-0.001800762981955,-0.017026401985272,-0.031259673284918,-0.023271858794859,0.000748094463291,-0.001282677533763,-0.023932111918531,-0.025071153845525,-0.012808011487017,-0.002655322438574,-0.026310456845745,-0.045257843650175,-0.029375101368687,0.011672293262580,0.016235866081673,-0.011703141806038,-0.018224539835281,-0.010652460528817,-0.000339676646030,-0.033449932861909,-0.056895982093407,-0.032974148086102,0.017283595768839,0.028444231255947,-0.009059167311639,-0.022892767743563,-0.012996965228390,-0.001362211814917,-0.030708059597596,-0.044455054766727,-0.018378542653115,0.031500117892521,0.024510966128990,-0.026417952271646,-0.032622054459995,-0.016790889996311,-0.003214636710752,-0.014340733107015,-0.019468682264137,0.004913708384250,0.037589250020661,0.019382919374956,-0.030211090077950,-0.017039574800464,0.002310715752764,0.008359251614825,-0.006499159078880,-0.013258449547577,-0.001141590442972,0.019601915097333,0.002259374673948,-0.026028929388916,-0.003032192576752,0.017474594972417,0.014026614908294,-0.003471964433625,-0.011853568184956,-0.013513401682093,-0.005385574938481,-0.013916459362841,-0.021231515906641,-0.003416022770718,0.008715801943258,0.009363422241227,-0.000672655807643,-0.004567956480964,-0.008653525192126,-0.004704980772184,-0.006576402403164,-0.008543963473126,0.001603410300963,0.004740348156706,0.003764496488661,-0.000921009852386,-0.001908341729639,0.000783539597708,0.004206478855028,0.002767748476313,0.000488326546160,0.000402495712515,0.002226299084774,0.002919901698992,0.000937907794655,-0.001885989107803,-0.001592304248919,0.002236396118374,-0.000313188316810,0.000096722746146,-0.002166169636299,-0.001408642442820,0.000920664169338,-0.003015295298605,-0.003477558422669,-0.001319289150247,0.001267212956690,0.002627087975357,-0.000271826095787,-0.005310395195916,-0.004049123385191,-0.000367167963614,-0.001399717804811,-0.002809196872472,-0.005013480259637,0.000123336362718,0.004316751656430,0.000864503170808,-0.000949870271630,-0.000265176919124,0.000909161592067,0.000917703449891,-0.001196677725597,-0.005439710139315,-0.001907004169625,0.000470619734594,0.002515686691834,0.000760504332902,0.000339484950462,-0.001044358754366,0.001299649140497,0.000021444908275,-0.002610386671037,-0.001835514064801,0.001509900961959,0.003090726515443,-0.001275780030350,-0.002034960945276,0.000123923198416,0.002193540522062,-0.002080692373051,-0.003740739052439,0.000949905471412,0.004632261046315,0.006011394728026,-0.003328673703431,-0.002570736382249,0.001659546504664,0.001899003587828,-0.000615517770707,-0.003544392458930,0.000360573623057,0.005037215597580,0.003536598576119,-0.005609446365479,-0.000572329836945,0.006590751816710,0.001621159679421,-0.000117933626821,0.000135945401785,-0.000898992222569,0.002625382576302,-0.000832654134484,-0.004376639387635,0.000429205161944,0.002476964216844,0.000638978423017,-0.002761358324274,-0.003641550013775,-0.001293567648839,0.001067314186888,-0.000263006707807,-0.001473090313079,0.000112415297712,0.000751421945962,-0.000562814691871,-0.003493413723841,-0.004322611840121,0.000969597309529,0.001752561303954,-0.001537150809222,-0.005058626586329,-0.001978208878871,0.000823108617459,-0.001464018760084,-0.005500761721119,-0.004756541447401,0.001785521391946,0.006390991226003,0.000962698553853,-0.005707320220604,-0.001410429750551,-0.000031471732057,-0.001741731934085,-0.010732687938794,-0.009555677408040,0.002141527424816,0.009786678659088,0.002281917672894,-0.004218186939764,-0.000772493471227,-0.000336141312796,-0.002541443494915,-0.008992099132224,-0.009605103628397,0.003954430390416,0.009994034380702,0.001016466294961,-0.007692343118509,-0.003242781779438,0.000077837246868,-0.001730278529062,-0.005764677118345,-0.003268937878079,0.007395863455882,0.009149317885562,-0.000994933505572,-0.008105384777069,-0.001742418453722,0.001885293471792,0.001419259422623,-0.003243341505363,-0.000864018861841,0.008156667533504,0.009169785744772,0.001183878240336,-0.002466579045008,0.004537538058373,0.004953664332793,0.001525033452713,0.000833559211974,-0.001864949635997,0.000533060512854,0.003218599653114,-0.000078980684899,0.001342280666592,0.006192495969501,0.006189488411114,0.000570334754234,0.000570997739492,-0.001733935134321,-0.002394677068873,0.001055976679713,-0.001455272593371,0.000037910807810,0.003698264086784,0.003263974866063,
0.000337221372151,0.001228456236445,0.000843466935113,0.000140211889855,0.000245135961952,-0.000386170220294,-0.000119826875629,0.000478188067232,0.000304546029098,0.000327778656525,0.000602664335189,-0.000787309414884,-0.000143512980650,0.000763858637336,-0.000461505874968,-0.000061610198533,-0.000782955360464,0.000193390686218,0.000827615474545,0.000598296665144,0.000029408335020,-0.001381874157428,0.001643530060561,0.001314210767998,-0.000145824565032,-0.000904409060989,-0.000468461253479,-0.000340123910831,-0.000300542804156,-0.001952787720203,-0.001211504874132,0.002148686875613,0.001421485472500,0.001578737017722,-0.000745732602640,0.000396435436583,0.000692309546308,-0.000530986206117,-0.001778600014351,-0.000868048941098,0.001013555803980,0.000046535302259,0.000276465987631,0.000725572264481,0.000808634471637,0.000751818206650,-0.000825605911645,-0.001057842966734,-0.000887026356830,0.001908909729705,-0.000205212217965,0.000219508344731,-0.001422191911288,-0.000032667681511,-0.000575561050768,-0.002854167516320,-0.002730469634303,-0.000027094773787,0.000977893175580,-0.000996848135232,-0.000469264921206,-0.001009850527671,0.000876296919328,0.000560807730095,-0.001557174171298,-0.003193991058483,-0.001317704253297,0.001471688754720,0.000608013321780,0.000139159486272,-0.000534908936801,-0.000307554062432,0.000290139167360,-0.001694408976449,-0.000889829683560,-0.001216445500008,0.000827321509071,0.000096091783395,0.000969363588752,0.000857651375723,-0.000225460625929,-0.000214833857003,-0.000301035735733,0.000367179192531,0.000259339005320,-0.000336047648486,-0.000409309909855,-0.000837177506719,-0.000818072418224,-0.000624515642949,-0.000339103724934,0.000286941645923,0.001308399510299,0.000558318399038,-0.001398855258393,-0.000780561214755,-0.000830426437291,-0.000463591106213,-0.000298066654804,-0.000575617570114,0.000417621511757,-0.001353519556872,-0.001055511662395,-0.000979497613732,-0.000054415835948,0.000728024612342,0.000467471088944,-0.000682941146637,-0.000002622622391,-0.001256044753804,-0.000722764092474,-0.001243533464203,-0.000264332851402,-0.000191072887219,-0.001087850893919,0.000401974375671,0.000125021887890,0.000483255975438,-0.000441504325694,0.000589098748774,0.000137181945848,0.000395788712818,-0.001433351226128,-0.000713050048775,-0.001586602593733,-0.000054311175955,0.000399023649988,-0.001002960754535,-0.001179737071483,-0.000373855818738,0.000351483015845,-0.001102594592833,-0.001319954087934,-0.000230874287640,0.000012505754480,0.000683127119656,-0.000899295005924,-0.001147617152869,-0.001092851660191,-0.003438281399809,-0.001146687111321,-0.001450991075263,-0.000067402474948,-0.000035284541640,0.000633216081211,0.000316351765092,-0.000531177592906,-0.001474074586271,-0.003499138900055,-0.003165944744809,-0.000607012959717,-0.000124721340230,-0.000640724177915,-0.000876793321199,-0.000417501348979,0.000205262895348,0.000616947622062,-0.000317824193020,-0.000681273846398,0.000267045423412,-0.000432277218182,0.000582523145736,0.000471874922537,0.000157091093739,0.001684458327004,0.001265299388453,0.001449044732868,-0.000359244212811,0.000067844721791,-0.001748806408470,-0.000766035313754,-0.000692424556367,0.000254734808719,0.001031630365579,0.000376338240247,0.000598215952824,-0.000185683877545,-0.000996497872783,-0.001909280398010,-0.000973578797017,-0.000213039330241,0.000861680102558,0.000731309689581,-0.001780151525633,-0.001487336859545,0.002039829527099,0.000832164454081,-0.000167578926700,0.000094293352855,0.000514399855214,0.000339014830557,-0.002169291325845,-0.000669892349385,-0.000184645637162,0.000745912013418,0.001267180575488,0.000096733839969,0.000613263270186,0.001191386687593,-0.001380339181027,-0.001610356220045,-0.001264824411471,-0.000690534593222,0.001218426169004,-0.000601011230877,0.000616465152440,0.001492019870622,-0.000251581215691,-0.002762774038105,-0.003617420546668,-0.001916156252388,0.000908024374637,0.000340845080596,-0.002153607756954,-0.000942742505941,-0.000368249105799,0.000346021548635,-0.001228684592037,-0.003298663488844,-0.001964849758158,-0.000110582266780,-0.000875886920784,-0.002529942573904,-0.002168130827611,-0.000169810900473,0.000583086828725,-0.000950587131060,-0.002164274719520,-0.002136701502474,-0.001964763142397,-0.001522252771153,-0.002557636027519,-0.001168806094569,0.000715111873602,-0.000112339275633,-0.001096621421142,-0.002197869620262,-0.000460505983769,-0.000235259190780,-0.001144872568223,0.000303910168610,-0.001306111142016,-0.001059536738298,0.000558391530090,-0.000487001819978,-0.000367573052574,0.000294611274613,-0.000943299384267,0.000640647875423,-0.000960960948702,-0.000238136866284,-0.000640690996713,-0.001086264648451,-0.000482426406792,-0.000022545780115,-0.000886903171356,-0.000370586396149,-0.000047535550030,-0.000762819892236,-0.001118180372882,-0.000367921180629,-0.000880208020776,-0.000600412695180,0.000520117577422,-0.000346726135543,0.000591760304658,-0.000239566525147,0.000646269975810,-0.000266835999186,-0.001446637959566,-0.000252797586602,-0.000444618435553,-0.000488681402034,0.001046710755251,0.000188163254775,-0.000379497203232,0.000741120335676,0.000062257240911,-0.000788948007370,-0.001025978857628,0.000759623330110,0.000133995559905,-0.000461761488165,0.000739492489347,0.000234270730884,0.000606898817540,-0.000535722862287,-0.000318516405485,-0.000088834789325,-0.000745289118471,-0.001096361232898,-0.000364484566518,0.000074017364475,-0.001294380390052,0.000260899858573,-0.000846307430493,0.000604149282109,0.000346118774483,-0.001075148847862,-0.000643296898319,-0.001224007896464,0.000598257554513,-0.000665903400645,-0.000389788562368,0.000342569485097,-0.000284432579914,-0.000682943084907,0.000697041887348,-0.001368668894260,-0.001088429158530,-0.000200599822102,-0.000903119713197,0.000205573425438,-0.001740066626492,0.000166232481026,-0.000185694946699,-0.000089744342235,-0.000788233682955,-0.000572556545934,-0.000017718830181,0.000570178173972,-0.000455351601312,-0.001113311554004,-0.000443208694482,-0.000041747352783,0.000023109562049,-0.000512059635925,0.000372221190309,-0.000325632675171,0.000525811932150,0.000229692435748,-0.001048595538800,0.000383830175835,0.000102455508860,0.000518989163707,-0.000304048709781,-0.000267429358760,0.000438152231645,-0.000631844827303,-0.000509106227810,-0.000298914433704,0.000471296608527,-0.000722246123098,0.001048877919116,-0.000436382750026,-0.000461607327528,0.000328885159824,0.000598165115831,0.000566276165215,-0.000647978947940,0.000239179534655,-0.000720812570711,-0.000571496118768,-0.000867303900863,0.000154944871535,-0.000567111056384,-0.000873928033414,-0.000314136489194,0.000707889487100,0.000217729957681,-0.000384885268262,0.000874173387443,0.000173593867826,-0.000770194077707,-0.000028473567784,-0.000682906618884,-0.000190412330926,0.001066425696374,0.000964768438949,-0.000253336711298,0.000165182169608,0.000113911021059,-0.000786356944947,-0.000422708583932,0.000445780347437,-0.001068118675648,0.000452398188181,-0.000310605141482,0.000105212737422,-0.000184444001037,-0.000406085429690,-0.000033397406601,-0.000335485428829,-0.000833611956738,-0.001110945341041,-0.001427458580287,-0.000893451079668,0.000317899856041,0.000115931561764,-0.000597811976890,-0.001474436987168,0.000231685265110,0.000379110810566,-0.000600118859514,0.000269790723047,-0.000422680448686,0.000246435778705,0.000567630366446,-0.000365557123418,-0.001471368628531,-0.001281449487409,-0.000349255806045,0.000653702442092,-0.000737803438655,-0.000932055325224,0.000639686328382,
-0.001392507925630,-0.000837555679027,0.003865197533742,0.000476874090964,-0.002605090383440,-0.000359730271157,0.002669223817065,0.004367975518107,0.003071700688452,0.002586505608633,-0.000734467292204,-0.001744404900819,-0.004832333885133,0.001186334178783,0.008317688480020,0.001225423999131,0.001646084827371,0.003117328742519,0.003359198803082,-0.011149298399687,-0.013781681656837,-0.000303647480905,0.012220760807395,0.012326765805483,-0.003154568141326,-0.005248161032796,0.003122358815745,0.003186286659911,-0.018514078110456,-0.015332841314375,0.008325127884746,0.019176587462425,0.004262120462954,-0.007460972294211,-0.009984548203647,-0.001164869056083,0.001474006334320,-0.012561822310090,-0.004819367080927,0.008333014324307,0.015093832276762,0.004795385524631,-0.012637322768569,-0.006646966561675,-0.002243959344923,0.001692601828836,-0.008589153178036,-0.002877990948036,0.007615197915584,0.008048451505601,0.000716355396435,-0.005590647924691,-0.001516193733551,-0.003065610071644,0.002914304379374,-0.006751279346645,-0.000862128275912,0.006082825362682,0.003112455131486,-0.002354334574193,0.001973812701181,0.001748906215653,-0.000170275627170,0.002715484471992,-0.006470582913607,-0.002270166762173,-0.002577510895208,0.002010653726757,0.004930122289807,0.006342109758407,0.002882243134081,0.001963365823030,0.003101322101429,-0.004035858437419,-0.001262482954189,-0.004099436569959,0.003306573024020,0.005008283536881,0.005302168428898,0.000861707550939,0.000747760233935,0.003059030976146,0.000659945944790,0.002347591798753,0.002714354544878,0.000558207626455,0.002797794761136,0.001470246701501,0.000751314510126,0.001829373883083,0.004899994935840,0.002754932967946,-0.004003833048046,-0.015307229943573,-0.012670238502324,-0.006619531661272,-0.006335345562547,-0.007809051778167,-0.012919331900775,-0.005460639018565,-0.005607901141047,-0.006564520299435,-0.000555189035367,0.008294928818941,0.010148225352168,0.003077007364482,-0.001341684721410,-0.004891294986010,-0.003094626357779,-0.001981566194445,-0.000595878751483,0.009363005869091,0.010823951102793,0.004415513947606,0.000842832145281,-0.002708946121857,-0.004838431254029,-0.001675945124589,0.004245947115123,0.007196549326181,0.011478038504720,0.008821488358080,0.003535636467859,0.001307132188231,0.003580430988222,0.003364186501130,0.001234901952557,0.007151888683438,0.005650451872498,0.006246014498174,0.007365349680185,0.007254171650857,0.010373595170677,0.012461422942579,0.009045854210854,0.006129426881671,0.003126238239929,0.000785289215855,-0.004269995260984,-0.008606206625700,-0.005694904830307,0.002908579539508,0.007010387256742,0.006164006888866,0.005870204418898,-0.000028181086236,-0.001142821158282,-0.007538494188339,-0.009440048597753,-0.005940996576101,-0.000144841687870,0.002237727632746,0.002067023189738,0.002062817569822,0.000494000036269,0.001437237253413,-0.000399187381845,0.001826561754569,0.001994323683903,0.002025991678238,0.001239958568476,0.001714992686175,0.002128701424226,-0.000250173325185,0.005266864318401,0.004079394042492,-0.001725126523525,-0.001099435263313,-0.001036439556628,0.002960516139865,0.005293707828969,0.005560846533626,-0.001014917390421,-0.006819413974881,-0.016105094924569,-0.014773931354284,-0.002604153938591,-0.007626445032656,-0.008064116351306,-0.010079118423164,-0.001922210794874,-0.013050382025540,-0.025419363752007,-0.021566264331341,0.003880416043103,0.020867038518190,0.001825548359193,-0.013223050162196,-0.010294073261321,0.000071597867645,-0.022967893630266,-0.027606112882495,-0.004199712071568,0.029876958578825,0.025946129113436,0.004527613054961,-0.021052679046988,-0.011153304949403,-0.004707191605121,-0.012240555137396,-0.013206792064011,0.011102836579084,0.030017849057913,0.017453130334616,-0.013023631647229,-0.012155597098172,-0.007874170318246,-0.005761446431279,-0.003788872389123,-0.000063956584199,0.019878862425685,0.021096656098962,0.009979743510485,-0.000225881754886,0.004796525463462,0.001293007400818,0.002214477397501,-0.004646134562790,-0.001274248934351,0.009860695339739,0.003264267696068,-0.004813967272639,0.004762344993651,0.007969181984663,0.003468048991635,0.005171112716198,-0.007278713863343,-0.006482795346528,-0.008691717870533,-0.014508053660393,-0.011363307014108,-0.001977200154215,0.001460303785279,0.002043568063527,0.000080986937974,-0.004477902315557,-0.005220164079219,-0.010127090848982,-0.004445540718734,-0.000124324069475,0.008135541342199,0.005055221728981,-0.000602984393481,0.000058471108787,0.001567056984641,0.002277078805491,0.000447392609203,0.000193129642867,0.002330864313990,0.003022921504453,0.001259065815248,0.003278102958575,0.003606457263231,0.002278882777318,-0.000833880330902,0.001926534227096,0.004183818120509,0.005061430856586,0.000827994721476,-0.001922397990711,0.003608415136114,0.003865415230393,-0.002244082512334,0.000932678871322,0.005430016200989,0.005284484941512,0.000517903128639,-0.000782606599387,0.000874823483173,-0.000718449125998,-0.000230050703976,0.000487736891955,0.001681853318587,0.001341436989605,-0.002468968741596,0.001420417218469,0.004472045693547,0.000811626727227,-0.000209961683140,-0.000273247889709,0.001725066453218,0.002509070793167,-0.003234873525798,-0.000213144579902,0.005349826067686,0.005697376560420,0.005561645608395,-0.002097599208355,0.001371537568048,0.002863651840016,0.000833056285046,0.000534327002242,0.001993763027713,0.003118482185528,0.008001637645066,-0.000512251514010,-0.000085646926891,0.001335195847787,0.001340393908322,0.002196642104536,0.000432273256592,0.001665361924097,0.002559517044574,0.005278176162392,0.002545594703406,0.003469154471532,0.000461917719804,0.003041673917323,-0.000645468418952,-0.000732532178517,0.003872299566865,0.001256981980987,0.002332005882636,0.002840425586328,0.003481619758531,0.004344335757196,0.002391327172518,0.000470802537166,-0.000116120696475,0.000331817573169,-0.000384691811632,-0.001923077390529,0.000207985125598,0.001701078959741,0.001316527486779,0.002711820416152,0.002397547475994,0.004611168056726,0.004564328119159,0.003666516160592,0.004104086663574,0.003832929069176,0.003550425404683,0.003686031792313,0.001003712182865,0.002130532637239,0.002002495108172,-0.001774547155946,0.001138948136941,0.000677550560795,0.002154247369617,0.000475004315376,0.002457210561261,0.002286489121616,-0.001998337451369,-0.003292813431472,-0.001239176956005,0.001023968798108,0.002236806089059,0.000991151900962,-0.003744474146515,0.000013436075278,-0.001837821444497,-0.002789208432660,-0.004112888593227,0.002455142326653,0.009385715238750,0.007254154421389,-0.003844839287922,-0.001729447976686,-0.000216447340790,-0.001503907842562,-0.004980612080544,0.000233378639678,0.007089762482792,0.009139266796410,0.003236095653847,-0.003845658851787,-0.003955779597163,-0.001729988609441,0.000858395709656,0.000102414633147,0.003471481380984,0.004498093388975,0.005317501723766,0.001573201967403,-0.000973799556959,0.001309416373260,0.000586267036851,0.003199445316568,0.000535129453056,0.003346288343892,0.004737704526633,0.003541564103216,0.003998001106083,0.003681293688715,0.004423893056810,0.002604180946946,0.000612222822383,0.002250437159091,0.001078406930901,-0.000005490610874,0.001906151068397,0.003500527469441,0.003531836671755,0.004466591402888,0.002173157408834,0.001794779440388,0.001801898004487,-0.001239205128513,-0.001040302566253,-0.000228805918596,0.000599558348767,0.002316499361768,0.001879725488834,0.001906807883643,
-0.000789212678270,-0.010011088331752,-0.009853282667462,-0.002124798485511,0.011793466307057,0.007266118984560,-0.000033816487981,0.001496914196237,0.000859606840591,0.000543213177067,-0.013607720141821,-0.016261526610284,-0.000705580317442,0.016427082465884,0.006613013105876,-0.002356175168378,-0.002103558326719,-0.000332789882034,0.000177988697017,-0.023262297963314,-0.026230675529468,0.003101789436542,0.025242317239232,0.010225656308894,-0.005266459205030,-0.007929249435900,-0.001726997932565,0.000324866441830,-0.034121072148495,-0.038180961634744,0.004428204193019,0.034222820545025,0.014404903622267,-0.010181802553647,-0.013273172309213,-0.005444751815461,-0.000329832484071,-0.030893635233455,-0.031718916620839,0.004353612239712,0.036807779024009,0.009376385020501,-0.022803331732054,-0.012329635390431,-0.004139225227349,0.001050452647674,-0.016276529287510,-0.014985471008067,0.010969270092760,0.028434175769276,-0.005208887388521,-0.029239344370920,-0.011885518347492,-0.000585651329583,0.000450647221938,-0.005779101742022,-0.012070893401787,0.005928410947464,0.021825800584346,-0.011546805729680,-0.023208681702187,-0.005030389792006,0.000711989447651,0.001708258995264,-0.001110850479976,-0.008942292300575,-0.003077851301926,0.014181842231505,-0.003473354554383,-0.013223250726888,0.000332708540141,0.000138855063184,0.000850689077693,0.000009763902695,-0.002686374350973,-0.004963241746240,0.005931392765762,-0.000083417662889,-0.005864785848185,-0.000333052066211,0.000481011713915,0.001165602767784,-0.005594246783816,-0.014289252979216,-0.017365786038627,-0.007867797510232,-0.004037222658554,-0.011389790626261,-0.017923308016411,-0.011897150019202,-0.002807162615466,-0.002195696575158,-0.006360686147929,-0.009718779120707,-0.006358336203217,-0.001518299799003,-0.008427647171133,-0.017041577254944,-0.014104025970858,-0.005572461615524,-0.008018200514429,-0.013107336981955,-0.009763991298663,-0.002978883928632,0.004524057285229,-0.000189460187359,-0.005041970410645,-0.008082038020306,-0.002769098845833,-0.006117234235220,-0.008505649162047,-0.005835081276274,-0.003440491881512,0.001825668200581,-0.002425277896244,-0.005315019746624,-0.004033996458877,0.000038709466522,-0.001245983057246,0.003487107115276,0.007536457560235,0.007598397375798,0.000085093710864,-0.007695308183842,-0.008156162798508,-0.003233921929625,-0.000476635680567,0.007606275616623,0.011697911428697,0.008226957874782,0.002145727436594,0.000179449044936,0.004037565555833,0.012808817210085,0.016537658900410,0.012075233511939,0.006078768292851,0.006031465487964,-0.008075520624929,-0.017116859055118,-0.011493225398012,0.004353296682784,0.017569158777250,0.020544564122743,0.014098475458510,0.002186601636409,0.001936233723014,-0.004734522426092,-0.012022836362534,-0.011750442204588,-0.002684668929107,0.005112103889174,0.007122795800156,0.005610492783077,0.000644067917661,-0.000449469949175,-0.001036277502366,-0.000846317150221,-0.001335850563422,0.001415170500464,0.001370976101085,0.001849300814270,0.000661344184251,-0.012059726981037,-0.020240559839886,-0.019868737836158,-0.008348977930176,-0.006580298764753,-0.017839044570765,-0.019858550259148,-0.009280622787230,-0.003587701095336,-0.015184263927453,-0.026919663861343,-0.023555341348187,-0.002286426816111,-0.001429554755827,-0.022587292701445,-0.026213009528491,-0.015456953548864,-0.005792891126875,-0.027208896582537,-0.047589709110934,-0.029288521184209,0.013992436974690,0.023370588707482,-0.007597319264051,-0.021271673529281,-0.013694314642741,-0.003211596171604,-0.036892337953263,-0.060466700293500,-0.027788061886868,0.029435870059946,0.037028512824351,-0.005660089514606,-0.026882684407523,-0.014852148002251,-0.002453051503338,-0.030857438450270,-0.040451840557534,-0.006571064475766,0.043008938339647,0.030053157553836,-0.026098640155796,-0.033950514611606,-0.015244555648183,-0.002130204094708,-0.012193539408558,-0.013283589891355,0.013123163304722,0.041210144582999,0.018413151276544,-0.031050356773914,-0.017368128715385,0.003519931487499,0.008556389021165,0.000142714813179,-0.006722588661965,0.004068858231622,0.020341183258476,0.001337281886541,-0.027250467520533,-0.002453924639816,0.017632706285282,0.015762456464059,0.000586965270982,-0.006105600153618,-0.006331877321563,0.001394191889098,-0.011715296342644,-0.025206060611681,-0.003338759337724,0.007655058293081,0.007742492719031,-0.000051481092172,-0.001593129588813,-0.006356927794926,-0.000175672449348,-0.006010818887367,-0.011505426136368,0.000321638665397,0.002383740855790,0.002503396714515,-0.002198094265126,-0.001376614862810,-0.001052200295989,0.002769277046631,0.001604629657820,-0.000925798948772,-0.000264432435114,0.000058200613470,0.001662424653246,-0.001234134072960,-0.004411027574646,-0.002712172181465,0.000617282471510,-0.000227411022495,-0.001260566938727,-0.003770908601774,-0.002638888475856,-0.000482069692959,-0.004331508414411,-0.003510992038586,-0.000384879556125,-0.000011498372609,0.001848415897261,-0.001752894056909,-0.005815425185077,-0.004032671505483,-0.001029443590256,-0.003793467996233,-0.004444267829471,-0.004929680343824,-0.000214337614416,0.002047414752312,0.002170824626286,0.000369049091381,-0.002668142780252,-0.001309664333761,-0.000467102679480,-0.001869736002349,-0.008710784853728,-0.003177134152980,0.002028913796165,0.003353805306977,0.000372179821203,-0.001798873500088,-0.000785379317180,0.001807190132737,-0.000954415412210,-0.003553424692574,-0.001934597799164,0.003086025061102,0.003616007049046,-0.001353796860435,-0.002375047863718,-0.001668485922765,0.002098942179642,-0.001833458659761,-0.005005133959509,-0.000271588109222,0.003241151269349,0.005418344134572,-0.004292479944937,-0.002882512953565,0.000124182452230,0.002623314973376,-0.000423613989782,-0.003630329152160,-0.000469791213818,0.003768025869312,0.001144917207570,-0.007976748483688,-0.001488299668013,0.005909055775554,0.000304632889807,0.000359283567874,-0.001359937359170,0.000374076986687,0.001605893140137,-0.001175503895352,-0.006867608024374,-0.000145333951515,0.001435337243080,-0.000880190865659,-0.002369421762936,-0.003827033353527,-0.000183713444779,-0.000365636895762,-0.002496070071183,-0.002250354938827,-0.001065616381706,-0.000507279455038,-0.000743047562950,-0.002835694463514,-0.005213119657220,-0.001383172536460,0.000824119882001,-0.002397575574322,-0.006687255315486,-0.003611379352784,-0.000697702392178,-0.002001628508382,-0.006809227397256,-0.005632791510842,-0.000045668725814,0.005630589792914,0.000208510250146,-0.005614540302717,-0.005106158457025,-0.001863264265401,-0.002791571659558,-0.013384861168974,-0.010827386128775,0.001870699870129,0.011146351576432,0.002699814385383,-0.005326310271586,-0.003595334706419,-0.002760374448784,-0.004142577522956,-0.012014164818042,-0.010139262612037,0.003632195329242,0.011278462792197,-0.000333592703921,-0.009409811618015,-0.003733127200906,-0.001506836731509,-0.002524913750180,-0.005441204407774,-0.002628744870979,0.007115247285661,0.010180551954864,-0.001682669343000,-0.008137753710470,-0.002491808524488,0.001308219860717,0.002644498370997,-0.002085489682444,-0.000846820473523,0.007091318254241,0.006561827462973,-0.000010871073092,-0.003339990648705,0.003762998598697,0.005597474290467,0.001643445230498,0.001857349536791,-0.000277667244021,0.002020853274371,0.001716631143350,-0.002190608141072,0.001197150015807,0.007286379791104,0.005209737694300,0.001196865636799,-0.000022916439279,-0.000896419743598,-0.001162886731849,-0.000500878780671,-0.003856383027100,-0.000763133396917,0.002277449708841,0.001620255065560,
-0.003697199746966,-0.008146851323545,0.002321338281035,-0.005593405570835,-0.027935249730945,-0.016283415257931,0.005440444685519,0.011775748804212,0.007091160397977,0.002483209362254,-0.016261110082269,-0.005268512759358,-0.013820894993842,-0.018135063350201,0.011483583599329,0.000473601976410,0.003605814650655,0.007668280974030,0.006251974496990,-0.046275135129690,-0.030872989445925,0.011630930937827,0.011154329404235,0.015380788594484,-0.017210284247994,-0.016807347536087,0.005040790885687,0.006101390812546,-0.055042922496796,-0.030776116997004,0.027760477736592,0.028321372345090,-0.009872884489596,-0.030007440596819,-0.028692461550236,-0.007590404246002,-0.000442779157311,-0.021778699010611,0.002548960968852,0.027513530105352,0.017345366999507,-0.002444250043482,-0.030134934931993,-0.016746986657381,-0.010809548199177,0.000384744722396,-0.000364976935089,0.010699033737183,0.020618939772248,-0.013573470525444,-0.003383383387700,-0.001494608819485,0.002288758987561,-0.011009929701686,0.003959856927395,0.002237321576104,0.027622988447547,0.019884664565325,-0.029438963159919,-0.010242776013911,0.020142156630754,0.012057236395776,-0.006767834071070,0.003462627530098,-0.004643175285310,0.028637278825045,0.001530500361696,-0.024157317355275,-0.000877108890563,0.018978565931320,0.007499542552978,-0.000095614690508,0.003810323774815,-0.019066305831075,0.006289070472121,-0.011994349770248,-0.015932336449623,-0.005520225968212,0.007545679342002,-0.000470691826195,-0.000893830321729,0.002455523004755,-0.005773057695478,-0.001832579728216,0.009349188767374,-0.002675386844203,0.006451173685491,0.012640498578548,0.015221441164613,0.019004747271538,0.013572892174125,-0.002506334334612,-0.017340075224638,-0.038012053817511,-0.021269788965583,-0.004094129428267,-0.003785545006394,-0.016516998410225,-0.032475892454386,-0.014894539490342,-0.020414547994733,-0.013280116952956,0.013137511909008,0.028291035443544,0.031039077788591,0.007546441629529,-0.001998967025429,-0.016857340931892,-0.010706800967455,-0.006448105443269,0.009366569109261,0.028665333986282,0.028493998572230,0.010225432924926,0.006709032226354,-0.009216794744134,-0.019175237044692,-0.014550950378180,0.015265903435647,0.029751447960734,0.041395153850317,0.032470162957907,0.021124148741364,0.023888997733593,0.018572479486465,0.012491025030613,0.001348520047031,0.021134044975042,0.020264994353056,0.023789957165718,0.025989742949605,0.034388478845358,0.047139525413513,0.047917876392603,0.029766691848636,0.015621689148247,0.003134738653898,0.007960410788655,0.016373809427023,0.013787044212222,0.015803545713425,0.023556457832456,0.024162294343114,0.018625887110829,0.017309095710516,-0.006427129264921,-0.005608012899756,-0.012086327187717,-0.003632317297161,0.001113641541451,0.006303576752543,0.005705763585865,0.004282013978809,0.003073930274695,-0.001095783896744,-0.002697468735278,-0.007469512056559,0.000791933620349,0.004690983332694,0.002797521185130,0.002928901463747,0.002486703684554,0.001999510917813,-0.010386737063527,0.003881537122652,0.004590797238052,-0.018625479191542,-0.012144786305726,0.005623104982078,0.025681637227535,0.027135206386447,0.018363388255239,-0.015499258413911,-0.026333138346672,-0.037694700062275,-0.039291333407164,0.001723476452753,-0.002546723000705,-0.003668961580843,-0.019598677754402,-0.004735926631838,-0.058658551424742,-0.070449464023113,-0.039896983653307,0.007224642671645,0.044766832143068,-0.003697801381350,-0.041237451136112,-0.031168647110462,-0.000384798273444,-0.070411071181297,-0.060978617519140,0.007241140119731,0.070066094398499,0.046567771583796,0.003948114346713,-0.063042707741261,-0.040819648653269,-0.021597992628813,-0.015379408374429,-0.009255633689463,0.057602029293776,0.076123483479023,0.031012330204248,-0.034289378672838,-0.027127228677273,-0.024164915084839,-0.022846581414342,0.021570747718215,0.049084130674601,0.084626026451588,0.046224474906921,0.018498562276363,0.038028661161661,0.042463753372431,0.008165725506842,0.001138440566137,0.013910009525716,0.042761597782373,0.067950353026390,0.010005742311478,-0.001608698745258,0.062604509294033,0.052390843629837,0.012951891869307,0.009169717319310,-0.012362625449896,0.010048951953650,0.002915991470218,-0.035018563270569,-0.020986901596189,0.026746416464448,0.018512519076467,0.001352133112960,-0.002989929635078,-0.024068325757980,-0.014527454040945,-0.028337532654405,-0.029473802074790,-0.009327070787549,0.026859933510423,0.013552295044065,-0.005463753361255,-0.001892855856568,-0.000925705768168,0.004181312397122,0.000095556904853,-0.006945247761905,-0.000039783491957,0.004059787839651,0.002909342758358,0.003593465313315,0.007227735128254,-0.000159865230671,-0.004628200083971,0.004091882612556,0.008269069716334,0.013355690054595,-0.000010978491446,-0.004401210229844,0.010146176442504,0.010795443318784,-0.006553821731359,0.004516563378274,0.010540588758886,0.013062602840364,-0.000244595808908,-0.001343478448689,0.007339458912611,0.000444285804406,-0.000886000227183,0.001560815027915,-0.000042663647037,-0.001687693758868,-0.008503473363817,-0.002037282567471,0.012043900787830,0.002815312705934,-0.007351331878453,-0.003379613626748,0.006417259108275,0.001580562209710,-0.010203805752099,-0.003542622784153,0.017396755516529,0.014993134886026,0.013596427626908,-0.008673825301230,-0.003588723018765,0.007195022422820,0.005818582605571,0.004973915871233,0.002312024356797,0.013627826236188,0.022375285625458,-0.004749970976263,-0.003223350737244,0.000090177178208,0.002268114592880,0.013143360614777,0.011435831896961,0.007068732753396,0.006003206130117,0.009630344808102,0.011463478207588,0.013912945054471,0.001597771304660,0.003306757425889,-0.001799325109459,0.003165163099766,0.012349640019238,-0.000855098885950,0.004462815821171,0.016002690419555,0.010861073620617,0.008031082339585,0.001849404186942,-0.000799659173936,0.001676744665019,0.001296429662034,-0.004271652549505,-0.004442267119884,0.003196895821020,0.006829301826656,0.002034300472587,0.002478129928932,0.001352350111119,0.006849918048829,0.006498183123767,0.002504584379494,0.005834617651999,0.009035485796630,0.010411561466753,0.008377678692341,0.002102157566696,0.000697007926647,0.001212080125697,-0.008292789570987,-0.001376442960463,0.002748420694843,0.010903117246926,0.001485565677285,0.001882467768155,-0.000507495366037,-0.010102557018399,-0.011797622777522,-0.007229283917695,-0.003768423572183,0.001688723335974,0.000648709479719,-0.011863515712321,0.000002801892151,-0.009677757509053,-0.012151248753071,-0.008995982818305,-0.000865696871188,0.016801796853542,0.012221020646393,-0.013137171044946,-0.011972506530583,-0.003603694960475,-0.008063043467700,-0.013471109792590,0.001790910260752,0.014586203731596,0.023554874584079,0.000228663775488,-0.011460121721029,-0.014857387170196,-0.007995815947652,0.007690922822803,0.004533856641501,0.014262051321566,0.007566472981125,0.001329516642727,0.005058565177023,0.000497060129419,-0.000164787736139,-0.001157694030553,0.009933370165527,0.008013768121600,0.021078165620565,0.007238212972879,0.005596700590104,0.010551685467362,0.016173750162125,0.012331074103713,0.004923027940094,0.003232121700421,0.008197221904993,0.014978067018092,0.007750520482659,0.007523369044065,0.017721902579069,0.015468149445951,0.012685713358223,0.004235849715769,-0.002260501496494,0.000170725412318,-0.001646994380280,-0.001271571265534,-0.000131025895826,0.002084542298689,0.006522727664560,0.003979356028140,0.000889529241249,
-0.000083455161075,-0.000482064613607,0.000192499690456,0.001028900151141,0.000717398012057,0.000360942329280,-0.000897102640010,-0.000414038600866,0.000308760558255,-0.000288544921204,-0.000514059676789,-0.000181417475687,-0.000662773149088,0.000336818717187,-0.000826764560770,0.000308683404000,-0.000216361499042,-0.000054569500207,0.000729745544959,0.000252172205364,-0.000442734657554,-0.000297129095998,-0.000643024395686,-0.000410787557485,0.000588438531850,0.000017120028133,0.000193025465705,0.001099011627957,-0.000614578195382,0.000536647916306,0.000587720831390,-0.000489921541885,0.000857390172314,-0.000132054410642,-0.000781505252235,-0.000210076235817,-0.000744097633287,-0.000261181412498,0.000866507354658,0.000034188597056,0.001287905965000,-0.000664598774165,0.000391582929296,-0.000835575396195,0.000107918291178,0.000049542937631,0.000743892334867,0.000849442149047,0.000585683388636,0.000112164270831,-0.000790997641161,0.000423356395913,-0.000734089175239,-0.000043290317990,-0.000702778692357,0.000594793644268,-0.000294118130114,0.000175004301127,0.000567015551496,0.000208596291486,0.000516519241501,0.000895135162864,-0.000812119804323,-0.000845356087666,-0.000912853400223,0.000354363059159,0.000710035208613,0.000206440920010,-0.000731212203391,-0.000404660968343,0.000271844561212,-0.000389389286283,0.000846532231662,-0.000838831183501,-0.000982591533102,0.000269024138106,-0.000403543555876,0.000051447234000,0.000684966740664,0.000259492488112,0.000836090417579,-0.000654461327940,0.001101440750062,-0.000211533057154,-0.000489965896122,-0.000662303296849,-0.000784052012023,-0.000324848719174,-0.000326892390149,0.000544078706298,0.000712641165592,0.001150157186203,0.000202996976441,-0.000483955402160,0.001076479908079,-0.000601431936957,-0.000451367493952,-0.000115504873975,0.000770926650148,-0.000840123277158,-0.000689821259584,-0.000271956407232,0.000320025224937,-0.001060740440153,-0.000743865908589,0.000581050058827,0.001063834060915,-0.000673535221722,-0.000389036431443,-0.000010904924238,-0.000425478123361,-0.000021979043595,0.000497686269227,0.000020808180125,0.000434811227024,0.000254370039329,-0.000256431638263,-0.000765665841755,0.000637067714706,-0.000901243649423,0.000395119568566,0.000010543612916,0.000054578478739,-0.000243160015089,-0.000350573885953,0.000656151620205,0.000450701918453,-0.000358719902579,0.000078698605648,-0.000075248535722,0.000106784857053,0.000583853281569,0.000023447650165,-0.000502441602293,-0.000597596110310,-0.000108351887320,0.000997370574623,0.000708461971954,-0.000323119107634,-0.000608364760410,0.000399873737479,0.000355271564331,-0.000189538171981,-0.000205993434065,0.000973731977865,-0.000564951507840,-0.000357577257091,-0.000066193970270,-0.001253961701877,-0.000018592272681,0.000455327681266,0.000004261656613,-0.000319118291372,0.000786469085142,0.000447171420092,0.000284282228677,-0.000817909487523,0.000288721203106,0.000561445893254,-0.000185792014236,-0.000186038509128,0.000149072337081,-0.000610896735452,-0.000551608391106,-0.000727452512365,0.000494006439112,-0.000591493444517,-0.000120672601042,0.000078317563748,0.000414484005887,0.000528097851202,-0.000823605165351,-0.000590242561884,-0.000031895822758,0.001083451090381,0.000046579578338,-0.000142037213664,-0.000898527097888,-0.000916315824725,-0.000537622952834,-0.000570363481529,-0.000515959283803,-0.000029987846574,-0.000173624095623,-0.001059632049873,-0.000724579556845,-0.000227036798606,-0.000541094865184,0.000721099553630,-0.000814454979263,-0.000925744068809,0.000735005771276,-0.000837909989059,-0.000705569982529,-0.000689805659931,0.000399923213990,0.000279495608993,0.001097623957321,0.000296699668979,0.000598521204665,0.000288843235467,-0.000255138118519,0.000672537484206,0.000299795327010,-0.000975487520918,0.000431196793215,0.000842168461531,-0.000448923936347,-0.000887432135642,0.000153955770656,-0.000915925775189,0.000240973779000,0.000039642916818,-0.000811283302028,0.000732890213840,-0.000310386880301,-0.000444522360340,-0.000117753414088,-0.001127675175667,0.000572564138565,0.000080220954260,0.000712497683708,-0.000425303383963,-0.000765091623180,-0.000595375138801,-0.000091185072961,-0.000956172007136,-0.000576199556235,-0.000900222279597,-0.000011729976904,0.000674660550430,-0.000692385539878,0.000709678803105,0.001118410145864,0.000366668129573,-0.000203422285267,-0.000095743736892,0.000060896461946,-0.000835243670736,0.000491191342007,-0.000624596432317,0.000106941166450,0.000093061476946,0.000665812229272,-0.000741239171475,0.000317923288094,0.000383334583603,-0.000198189416551,-0.000361315876944,0.000595481134951,-0.000336516706739,-0.000614826800302,-0.000508478435222,0.001079470501281,0.000808042008430,0.000439205876319,0.000164405326359,0.000400360848289,0.000470923521789,0.001028075930662,-0.000419338728534,0.000692745961715,0.000974159396719,-0.000891657546163,0.000763282063417,-0.000719664501958,-0.000357823242666,0.000921311380807,0.000798224180471,-0.000566382310353,0.000352926464984,-0.000656362273730,-0.000212694809306,0.000246585404966,0.000096658484836,0.000626373686828,0.000618360994849,0.000570794101804,0.000662971811835,-0.000439231458586,-0.000722256896552,-0.000406087841839,0.000328322639689,-0.000258244515862,-0.000573390396312,0.000196172899450,0.000781739654485,0.000020965306248,-0.000533187296242,0.000498216133565,-0.000084164137661,0.000243022805080,-0.000885920599103,0.000825650757179,0.000428821047535,-0.000192176172277,-0.000359402532922,-0.000243602466071,0.000389251712477,0.000204498661333,0.000058732970501,-0.000603754073381,-0.000026835612516,-0.000350900198100,-0.000527386146132,-0.000772956875153,0.001116508035921,0.001072100014426,0.000874016783200,-0.000700411968865,-0.000375400442863,0.000885725661647,0.000558388943318,0.000676417432260,0.001052500330843,0.000319481419865,0.000156477166456,-0.000209180914680,-0.000430399260949,-0.000229683704674,-0.000468888145406,0.000098171549325,0.000705380167346,-0.000223917726544,0.000912657473236,0.000672784168273,-0.000632534211036,-0.000285603164230,0.000654882634990,-0.000378587283194,0.000065742700826,0.001043498865329,-0.000720959505998,-0.000722275872249,-0.000679455639329,-0.000211309306906,0.001001649419777,0.000628084235359,0.000092902293545,-0.000620403618086,0.000449345709058,0.000494438107125,-0.000569747877307,0.000665554369334,-0.000483653682750,0.000490917358547,0.000206666547456,0.000622953870334,-0.000672328227665,0.001019162358716,0.000181291878107,0.000696195522323,0.000529258104507,0.000564849877264,-0.000778490386438,-0.000803348666523,-0.000255142484093,0.000652801129036,0.000328627153067,-0.000472528452519,0.000490181380883,0.000943766965065,0.000342835963238,-0.000450200808700,-0.000061114835262,-0.000627802335657,-0.000025509798434,0.000985063845292,-0.000343709747540,-0.000723899749573,0.000844783731736,0.000599258637521,0.000533790211193,0.000516336702276,0.000619488884695,0.000180945760803,0.000307129434077,-0.000813742401078,-0.000777522742283,-0.000410194188589,-0.000351163034793,0.000762216572184,0.000699810800143,-0.000313376600388,-0.000140785050462,-0.000684568833094,0.000727337028366,0.000104157348687,0.000471996492706,-0.000051070888730,0.000819674402010,0.000920958700590,0.000780945585575,-0.000897806952707,-0.000609172391705,-0.000511346035637,-0.000389134947909,0.000135069247335,-0.000827914453112,-0.000543986097910,-0.000128583211335,-0.000455803470686,-0.000193836895050,0.000685203529429,-0.000805109739304,0.000518625776749,
-0.000182967138244,0.000269666692475,0.000320912018651,0.000027139918529,-0.000493740546517,-0.000413773639593,0.000730583327822,-0.000022032858396,-0.000937032804359,-0.000901032821275,-0.000819556764327,0.000045876950026,-0.000808570708614,-0.000344613945344,0.000296646525385,0.000719350879081,-0.000014266150174,-0.000761249160860,0.000499851070344,-0.000759007525630,-0.000702735444065,0.000592589145526,0.000481135823065,0.000409536412917,0.000507040240336,-0.000303244654788,-0.000142272430821,0.000824829156045,-0.000438642542576,0.000562852306757,-0.000881660729647,0.000037094778236,0.000654525007121,0.000710838066880,0.000341967126587,0.000091967136541,0.000184967138921,-0.000536526902579,0.000323509972077,0.000365292100469,0.000073897397669,0.000995649490505,0.000100560202554,-0.000008148997949,0.000364967127098,0.000261967128608,0.000714833731763,-0.000258270156337,-0.000611660536379,-0.000571018725168,-0.000749474333134,0.000167738908203,0.000462433206849,0.000800956564490,-0.000765032833442,-0.000381956808269,-0.000111503490189,-0.000274025165709,-0.000871133641340,0.000947773398366,-0.000271156372037,0.000085548992502,-0.000914032803848,0.000775967200752,0.000584775523748,0.000816063082311,-0.000871216005180,-0.000173484062543,0.000153623390361,0.000520945934113,0.000229967132327,-0.000959032797255,0.000309967115754,0.000454967113910,-0.000854345853440,0.000151581712998,-0.000871571130119,0.000369363988284,-0.000238054053625,-0.000789032841567,0.000473967113066,-0.000706032849848,-0.000406548671890,0.000526365824044,0.000982238212600,0.000698128016666,-0.000903748499695,-0.000813253922388,0.000365691696061,0.000425709236879,-0.000703674566466,0.000702755525708,-0.000158354479936,-0.000477743335068,-0.000464861135697,-0.000391061737901,0.000832120538689,-0.000356140342774,-0.000807405507658,0.000413587142248,0.000837712548673,0.000172246509464,0.000625557440799,-0.000096768882941,-0.000486781325890,-0.000579646090046,0.000653699622490,0.000444849370979,0.000668967200909,-0.000616090139374,0.000671868911013,0.000860120111611,0.000957673357334,0.000850008684210,0.000133385285153,0.000923824904021,-0.000012326289834,-0.000385032879421,0.000295991776511,-0.000608035479672,-0.000929141067900,-0.000666952517349,0.000922817387618,0.000060267830122,0.000654013769235,-0.000942484766711,0.000622757710516,-0.000477032881463,-0.000865824171342,0.000439945230028,0.000994246103801,-0.000119830052427,0.000056646742451,0.000395633338485,-0.000972162350081,-0.000411153363530,-0.000792032806203,-0.000222966817091,0.000424159487011,-0.000340950617101,-0.000445797020802,-0.000239687753492,-0.000240469118580,0.000422967132181,-0.000156032867380,0.000563967158087,0.000444967125077,-0.000168516591657,0.000993067398667,-0.000582291511819,-0.000868045550305,0.000736967194825,0.000408967112890,0.000918967183679,0.000796967186034,0.000873967190273,-0.000935032847337,0.000170967134181,0.000080967132817,0.000993967056274,-0.000504032825120,0.000617967161816,0.000212967133848,0.000392409681808,0.000031436571589,-0.000283886969555,-0.000714178837370,0.000980445882306,-0.000068920235208,0.000075867341366,-0.000028106838727,-0.000801680667792,-0.000981610384770,-0.000742932723369,-0.000070589769166,-0.000131099048303,0.000137216004077,-0.000191633429495,0.000805186282378,0.000090240842837,0.000919402227737,-0.000707099912688,0.000253193953540,0.000973230169620,0.000305876164930,-0.000674749026075,-0.000100304416264,0.000599128426984,-0.000623140134849,-0.000350140151568,-0.000267415278358,0.000738497648854,-0.000559141742997,-0.000723400793504,0.000231212281506,-0.000537225569133,-0.000869746669196,-0.000028218020816,-0.000653032795526,-0.000545076909475,0.000507788208779,-0.000685686129145,0.000513926323038,-0.000669003813528,0.000431764521636,-0.000304954533931,0.000183534008102,-0.000328136171447,0.000143178345752,0.000659900251776,-0.000034137181501,0.000905473774765,-0.000419596763095,0.000474407512229,-0.000354557530954,0.000601334788371,-0.000028032858609,-0.000361800892279,-0.000806582160294,-0.000183012307389,0.000535474624485,0.000834375270642,0.000237470740103,0.000725056219380,0.000531411380507,-0.000045032862545,-0.000839157495648,0.000745200959500,-0.000383079808671,0.000292284647003,0.000721626158338,0.000122856363305,-0.000475588662084,-0.000591032847296,-0.000010032858881,0.000454967113910,-0.000430230807979,0.000691014225595,-0.000415231043007,-0.000466639728984,-0.000335032877047,-0.000894032826182,-0.000122032870422,-0.000646032800432,-0.000048129368224,0.000006910372122,-0.000381567340810,-0.000144419827848,0.000628525333013,0.000613671028987,0.000839822634589,-0.000269080861472,0.000144967139931,-0.000864155532327,0.000594475190155,-0.000848419731483,0.000335988297593,0.000854339392390,0.000801303191110,0.000735867477488,-0.000088799155492,0.000382802856620,-0.000216355925659,0.000098688542494,-0.000911106471904,-0.000297595688608,-0.000462813972263,0.000314202567097,-0.000903704785742,-0.000831418612506,0.000052842948207,-0.000595096498728,0.000293822085951,0.000571406329982,0.000955539639108,-0.000377176882466,-0.000860974017996,0.000228354881983,0.000577805563807,-0.000534032820724,0.000778967165388,0.000437692069681,-0.000542276771739,-0.000852947647218,0.000440473901108,-0.000256690429524,-0.000872465316206,0.000217695254833,-0.000293032877380,0.000614967197180,0.000176053130417,-0.000186529257917,-0.000928664696403,-0.000771666178480,0.000468363490654,0.000476192479255,0.000594844808802,-0.000523091119248,0.000014967140487,-0.000462345225969,0.000336149096256,0.000110314205813,0.000584719527978,-0.000272722943919,0.000641814258415,0.000160820476594,0.000074774325185,-0.000478032889077,-0.000594149343669,0.000040440878365,0.000510328041855,0.000900341081433,0.000442182645202,0.000977366580628,-0.000362256134395,-0.000748145277612,-0.000932032824494,-0.000832032819744,-0.000245032890234,0.000359739904525,-0.000232740712818,0.000054030755564,-0.000484548276290,-0.000530145305675,-0.000436032889411,-0.000862119428348,0.000060960170231,0.000601927225944,0.000196817811229,-0.000814849860035,0.000235978281125,0.000612280855421,0.000006760350971,0.000300810759654,0.000763784977607,-0.000566181668546,0.000342312676366,0.000404258462368,-0.000425593898399,0.000228008109843,0.000664657389279,-0.000850205018651,0.000995797454379,0.000626791559625,0.000169581253431,-0.000218691013288,-0.000326645676978,0.000592438038439,0.000574370496906,-0.000778642715886,0.000730932282750,-0.000742230331525,-0.000837037863676,0.000424345344072,0.000266535818810,0.000313588709105,-0.000255498132901,-0.000537545594852,0.000177466208697,0.000558967178222,0.000580967171118,-0.000781908747740,0.000231422134675,-0.000102740137663,0.000721350195818,-0.000926976732444,-0.000241969901253,-0.000043113392167,0.000552839715965,-0.000229032870266,0.000755189161282,-0.000217473207158,-0.000776712549850,-0.000436442467617,0.000938188168220,-0.000903012347408,-0.000721089774743,-0.000175243651029,0.000576967198867,-0.000166946629179,0.000394584960304,0.000270629912848,0.000891743460670,0.000833928352222,-0.000185976401553,-0.000351114547811,0.000328769645421,-0.000679032818880,0.000877967162523,0.000621818297077,0.000024732982638,0.000421192322392,-0.000546066439711,0.000891162781045,0.000984769663773,-0.000633107032627,-0.000001032859359,-0.000668032793328,-0.000169032864505,0.000958677905146,0.000456990790553,-0.000601003703196,-0.000629487331025,-0.000656032818370,-0.000955032825004,0.000095967137895,
-0.000430348649388,0.000428284896770,-0.000766806944739,-0.000013639185454,0.000194457999896,0.000151818981976,-0.000863717519678,-0.000010991127965,0.000157415619469,0.000503348885104,-0.000469326041639,-0.000062436629378,-0.000533539394382,0.000326479697833,-0.000150870590005,-0.000923390733078,0.000106389510620,-0.000001988307076,0.000038411002606,0.000575374928303,0.001306596561335,0.000650487432722,-0.000408529827837,-0.000268993026111,-0.000857237493619,-0.000664240447804,-0.000732437358238,-0.000644728948828,0.000103188089270,-0.000476537388749,-0.000510041660164,0.000057171808294,0.000496841093991,0.000684739672579,-0.000907052890398,0.000488254619995,0.000828677322716,-0.000988944317214,-0.000259972963249,-0.000064868647314,-0.000280245993054,0.000887356465682,-0.000798828667030,0.000102020298073,0.000351404014509,0.000092706955911,0.000690846063662,-0.000439869589172,-0.000611238530837,0.000194961670786,-0.000849210075103,-0.001101284869947,0.000251626188401,-0.000660193560179,0.000788470846601,0.000812905083876,-0.000765955715906,-0.000649893481750,0.000819770561066,-0.000777393230237,-0.000941602571402,0.000676710507832,0.000042355110054,0.000297396240057,-0.000648674322292,-0.000569092808291,0.000881582032889,-0.000826492672786,-0.000160154711921,-0.000650964560919,-0.000594521232415,0.000643908279017,0.000172957428731,-0.000318369537126,-0.000328823341988,-0.000147085840581,0.000682036392391,0.000063104496803,0.000093063470558,-0.000475823006127,0.000774532090873,0.000882515043486,0.001057105371729,0.000397152209189,-0.000670328503475,-0.000540438923053,0.000536564271897,0.000746243167669,0.000615873024799,0.000896152458154,-0.000510048819706,-0.000094431299658,0.001240496989340,0.000744251359720,-0.000296373356832,-0.000073781637184,-0.000559725740459,-0.000855923921335,-0.000221782844164,0.000238808905124,0.000749432074372,-0.000456342822872,-0.000975328439381,0.000305447843857,0.000144317236845,0.000621046230663,-0.000018819391698,0.000474134372780,-0.000086083171482,-0.000622671970632,0.000676325056702,0.000729967781808,0.000140520089190,-0.000806313415524,0.000271508179139,0.000445479934569,0.000688107567839,0.000358587451046,-0.000826421193779,0.000776901200879,0.001224146457389,0.000904916378204,0.000048477631935,-0.000756736437324,-0.000557237595785,-0.000321233092109,0.000676768424455,-0.000558827014174,-0.000696076778695,-0.000363068887964,0.000686719780788,0.000144452380482,-0.000901511579286,0.000921224069316,0.000917343830224,0.000459892908111,-0.000075023883255,-0.000082865495642,0.000041389372200,-0.000631714588962,0.000474796164781,0.000417894916609,0.001153926597908,-0.000181305920705,0.000257964886259,-0.000036417812225,0.000154615147039,-0.000023034077458,-0.000672395166475,-0.001084798830561,-0.000770963262767,0.000618413672782,-0.000474433938507,0.000261875218712,0.000358686200343,-0.000483060081024,0.000308496120851,0.000009956896974,-0.000863220950123,-0.000165724108228,0.000581191328820,-0.000871508324053,-0.000650431436952,-0.000052960382163,0.000930450856686,0.000520337722264,-0.000387493317248,0.000313572061714,0.000559750944376,0.000736697227694,0.000022582014935,-0.000667480693664,-0.000102105383121,0.001689024502411,0.000893389340490,-0.000045175878768,-0.000276059436146,0.000246787472861,0.000838121748529,0.000229678524192,-0.000389824825106,0.001151112024672,0.001563452184200,0.000245943141636,0.000530968303792,0.000717130373232,0.000577320926823,0.000652271090075,-0.000874380872119,-0.000619826954789,0.000562123255804,-0.000115615599498,-0.000901704886928,-0.000636273936834,-0.000713926681783,0.000566265487578,-0.000040753056965,-0.000737818365451,0.000073256880569,-0.000216647866182,-0.000775275751948,0.000592540483922,-0.000144820398418,-0.000455929141026,-0.000031856252463,0.000640507787466,0.001117672305554,0.000949825858697,-0.000823153415695,-0.000596734113060,-0.000832893420011,0.000088695283921,-0.000927406421397,0.000716445036232,-0.000105329796497,0.000326349167153,0.000151424348587,0.000447696802439,-0.000715201545972,-0.000881852174643,-0.000985173974186,0.000106127401523,-0.000649109832011,0.000760577095207,0.001147437957115,0.000786209187936,0.000050258982810,-0.000664723862428,0.000567852752283,-0.000301295105601,-0.000090192719654,0.000523506081663,-0.001045950572006,-0.000705408630893,-0.000896819576155,0.000601302250288,0.000726216821931,-0.001066240365617,0.000772344530560,-0.000563687935937,0.000658766890410,-0.000626390392426,0.000327653368004,0.000569195603020,0.000041057479393,-0.000097764670500,0.000890974944923,0.000145175581565,0.000932832772378,0.000453839922557,0.000644988613203,0.000056736658735,0.000771425780840,0.000340044090990,0.000229936296819,-0.000956502510235,-0.000342506216839,-0.000710202264600,-0.000333165284246,0.000130497006467,0.000919824233279,0.000132941306219,0.000915862910915,0.000800351437647,0.000095074123237,0.000516630767379,0.000588584167417,-0.000195766449906,-0.000966867955867,0.000851871154737,0.000927340995986,0.000301452178974,-0.000882468943018,-0.000209002042538,0.000864655943587,0.000145769517985,-0.000366438413039,-0.000791622733232,-0.000897503574379,-0.000969997083303,-0.000074567913543,0.000684609462041,0.000421471864684,0.000436825037468,0.000261278066318,0.000461410178104,0.000918689998798,-0.000448911217973,-0.000243612113991,-0.000433377397712,-0.000367956818081,-0.000101058591099,0.000857261125930,-0.000233643033425,0.000733850814868,0.000737981288694,-0.000861075823195,-0.000837758416310,-0.000481648603454,0.000820873654447,-0.000254387676250,0.000972376263235,0.000200586262508,0.000188559584785,-0.000211121514440,-0.000146048056195,0.000401125493227,0.000418427400291,0.000100769502751,-0.000238548804191,-0.000623122206889,0.000742119154893,0.000169641032699,-0.000149777813931,-0.000451707106549,-0.000675856368616,-0.000045161574235,0.000392410584027,0.000591938965954,-0.001008827937767,0.000117644980492,-0.001073807710782,0.000427295308327,-0.000624528853223,-0.000505558156874,0.000662541773636,-0.000901545048691,0.000566485512536,-0.000812463520560,-0.000514005136210,-0.000387505337130,0.000140585878398,-0.000950334477238,-0.000016069378034,-0.000678327574860,0.000855655234773,-0.000451250642072,0.000342526211170,0.000512956932653,0.000964722770732,-0.000702190503944,-0.000627234054264,0.000037030462408,-0.000500928610563,0.000762171752285,0.000262539979303,0.000031677449442,0.000886541965883,0.000167044068803,-0.000333766569383,-0.000039252849092,-0.000281372689642,0.000966225634329,0.001018086564727,0.000276519829640,-0.000883384782355,-0.000908743008040,0.000832355406601,-0.000155041969265,0.000039788254071,-0.000464267679490,0.000876605219673,-0.000360398553312,-0.000763273099437,0.000148402614286,0.000730133033358,-0.000217468375922,0.000687733700033,0.000052534920542,0.000307675771182,0.000408280378906,0.000896436686162,0.000514842045959,-0.000235657920712,-0.000030684834201,0.000307170179440,0.000872334756423,-0.000688113912474,-0.000502939743455,0.000418660987634,0.000670617213473,-0.000877974322066,-0.000839077983983,0.000832955061924,-0.000003394604391,0.000243366841460,-0.000568247225601,-0.000226797114010,-0.000836567429360,-0.000652905378956,-0.000985377700999,-0.000809663091786,0.000154604509589,-0.000411557324696,-0.000792426988482,0.000803964445367,-0.000706132326741,0.000049936883443,-0.000462066585897,-0.001000946387649,-0.000444147503003,-0.000261176377535,0.000287402770482,-0.000334371288773,0.000193974439753,0.000549395801499,
