-0.010135436598708,-0.005079367845859,-0.006959673464940,-0.004929933554768,0.002399244540656,0.007921608879559,0.005334088681608,0.003995996740736,-0.000013328079983,-0.004934563401292,0.007148713491664,-0.009232892112824,0.003119508368668,-0.000676188633469,0.010311359053846,-0.004681754688968,0.000336518517788,0.009810455399884,-0.001197477181527,0.004805473895418,-0.006164725141478,-0.003183521646120,0.010122318825572,-0.008155526325214,-0.006720195350545,-0.005933827338358,0.004581633261378,-0.002398840068668,0.007953009091880,0.009478602159526,0.004992424343067,0.007813105384448,-0.001958559035100,0.005949651783700,0.009108493184521,0.009488750630934,0.007004030433932,-0.006232794165399,0.000852681765956,0.008881531077925,-0.002661741809164,0.008838389885779,0.003940879457537,-0.006256061151805,0.007156321607734,-0.002906323608679,0.002525502567941,0.008167153998423,-0.007505359608340,-0.000958911048996,0.005919849025316,0.006699351664042,-0.002860257398414,-0.002072360643222,-0.009190193913594,-0.000384102981977,-0.001302987572496,0.007888825442089,0.005430293260281,-0.002068008426377,-0.006901650077397,0.001031858257234,-0.007725993460527,0.008962219037600,-0.006744132434168,-0.008180118098758,0.001096477779489,-0.000262293891805,0.002652019396394,-0.003463236199462,0.004887965319110,0.008426305674005,0.009409371804979,-0.002566678512691,-0.006104064766745,0.003874303251855,0.000505853838058,0.001269325614339,-0.005748478667052,0.005973277284257,0.006689437615642,-0.003258911616819,-0.008944894591625,0.009082960422906,-0.003163715921751,0.008111471367602,-0.000180219283959,0.003911252734963,0.009425687397607,-0.006970330137819,-0.000364497991718,-0.005407340047810,-0.003611336080832,0.003695335327517,0.006197680401150,0.006184388551116,-0.008254796483378,-0.008873262508577,-0.000784834414674,-0.004516900421616,-0.000909763696858,0.001978683948571,-0.002399647635577,0.007405504137946,-0.002545630621445,0.009802920818480,0.010302420480983,-0.006509877300866,0.007053679878039,-0.005633092874235,0.000882538770316,-0.002511538758547,-0.001303750953131,0.000244516699452,-0.007034331425683,0.008771245752029,-0.001829157422918,0.006164130352316,0.001499512963700,-0.004383487510719,0.009922389732546,0.002683499068183,0.001621540138180,-0.003716845606920,-0.006525783513075,-0.002151778149724,0.006875224931162,0.006244789477053,-0.009151867898791,-0.008750505127961,0.004062028679977,0.002168885663665,-0.000046854741642,0.007615137088114,0.010115622050561,0.004902740471567,0.001395359086670,-0.008084862472918,0.010564989473878,0.004223040589894,0.005204238051387,-0.006517275609047,0.008243372557369,-0.005516098863401,0.000042806099923,-0.000588368613428,-0.008106043243823,0.007202318392026,-0.007975637722729,-0.004083123188540,-0.005254623595315,0.000007497597422,0.005513052162819,0.000795720834961,-0.005446102520003,0.001959771499267,-0.000713915095907,-0.004053895396872,-0.002171442479469,0.007049590916257,0.004553741675995,-0.005894719664261,0.006655436598708,-0.004465151109980,0.004606744665561,-0.006154950090245,0.005377854059649,-0.009589547374429,0.006010546673998,-0.006560637497665,-0.007116934476209,-0.001453080622769,0.003765210266109,-0.000712656809544,-0.004269918784852,-0.009071902855834,0.004221136360535,0.002243374829100,0.006738692147812,-0.005557591241795,-0.006940343807323,-0.002168672808219,-0.009060154580234,0.011158111743063,-0.004150693767234,0.010072979488560,-0.000926413644936,0.007728954125698,-0.008978387443269,-0.004842327291667,0.008077455385939,-0.000517580318166,-0.003290682381482,-0.005092644543386,0.007964381882533,-0.005884367875813,-0.006727162797051,-0.003584718555426,-0.001533000604444,0.005941011403324,-0.006039525630029,0.006245877370274,-0.001040880807678,0.004415398601345,-0.004088559438248,0.002565299910588,-0.004658073874711,0.005783147648160,-0.000889344926227,-0.005516731928593,-0.006803100825681,0.000524938011976,0.008986517992672,-0.003973910981097,-0.000054356292472,-0.002739068129262,0.002451091645729,-0.004246295480048,0.002429704159375,-0.005495043446201,-0.003901437968083,0.006451904855813,0.003375356969873,0.005341352157661,0.005198174588604,0.002495787357089,0.004835345965299,-0.003413785542646,-0.004091164184404,0.008076969910276,-0.001916780519890,0.002818471306871,0.006477459413558,-0.001525418045425,0.010540341440045,0.001639612282319,-0.005295005934438,0.005920658266369,-0.004944195587742,-0.007272451023333,-0.009506982551254,-0.007761760161778,-0.007746254395585,0.006933142031240,0.010003567383057,-0.007844479834651,0.008516711135335,-0.000606367994331,0.002102505565306,0.005547172261091,-0.007561958336594,-0.003203213735918,-0.006883988416601,-0.009095602821309,-0.006296298533026,-0.003102185625171,-0.005943059103441,-0.000714960985353,-0.000938175810396,-0.005349767501669,0.009063189247637,-0.008217521675371,0.008975792680069,0.004788256207973,0.009172839797216,0.010200230521309,-0.006298960297916,-0.002967848496256,-0.009267067985693,0.007454269890047,0.005853828301055,-0.004788980872903,0.009365967250349,-0.005869533423713,0.001132200806885,-0.002267218635866,-0.003336594298712,-0.004437040837909,0.000309260813819,-0.001095054136065,0.009104103734605,-0.002674705507745,0.004269875719685,0.008294577380288,0.003053408799860,-0.005369683804227,0.000561388456585,-0.003733565566659,-0.007808154192500,-0.006694578340637,0.001365209990046,0.004816360524796,-0.003559440411249,0.007799524000062,0.008630004882840,-0.000398136208513,-0.007791774613496,-0.007963332757436,0.007565351072458,0.002465320360481,0.010510778339967,0.003808513076689,-0.005852083415723,-0.002764205580553,0.004633666982663,-0.004129980380346,0.004856503631632,-0.004139502900707,0.004900237626681,0.005780361266966,-0.008063151372732,-0.008903802594087,0.007742835557440,0.008016303177169,-0.008239613000691,-0.005212066693247,-0.006756544689450,0.010258779503625,-0.002763832050205,-0.004298819538832,-0.004059834049268,0.004797081936468,0.008969886090101,0.000069943372721,-0.007539232427241,0.002366977950027,0.003360854082025,-0.005659127504343,-0.006927692247028,-0.008649102855414,-0.004887702491830,-0.006852574090872,-0.005062993904888,0.007714913341861,-0.008480341581436,0.007231206990224,0.003175035848581,-0.003045269462902,0.008303638250495,-0.006975194269216,-0.006457685461684,-0.006296448498263,0.002074969958481,-0.009088480033896,-0.000430309877327,-0.001498456148081,0.008891451767028,-0.000062653373577,-0.006433706775718,0.007824299537010,-0.006640490529574,0.005902919609585,0.006909825882897,0.010231251945049,-0.004682614904120,-0.007934545569518,0.002468047104066,-0.007351660218082,0.001779923148411,-0.007900399671369,0.005837179251788,-0.005015303119549,0.002287626163728,-0.004979219603727,-0.009249983661511,0.006903352908869,-0.006790098871510,-0.005240349154206,0.002890473921003,-0.009334089075136,-0.007974363227368,0.005732641237465,-0.001977659727006,-0.003280622600716,0.002244944433516,-0.006471957216231,-0.004914156757958,-0.009468432394412,-0.007832866839838,-0.009307111308388,-0.001358771570359,0.009884999635791,0.010230494117370,0.004549784190708,-0.007515483899109,0.006583233547191,-0.004797065276397,-0.005316376851453,0.003625553889695,0.008646798544520,0.003795130479296,0.009272366568392,-0.005699829407687,-0.007899546239683,0.008717161048096,-0.008831114615500,0.005394189980601,-0.006669111615587,0.005525023203210,-0.007920799522985,0.008062920876975,-0.006961186333046,0.008130114249383,-0.002792352502321,0.002377899259703,0.010311867869895,
0.000663130737262,-0.004886537597067,0.002251067534291,0.006520671886883,-0.001681228360498,-0.008678508660626,-0.004532443257107,-0.003420034919525,0.005776869262738,0.009586869262738,0.000490359785448,0.009752499098135,0.000821899812609,-0.007913470809987,0.000208217312030,0.004548191298705,0.005302621480342,0.006142819348207,-0.002515304705298,0.000519445855125,-0.004940387644862,-0.008249402636934,0.002481488990482,0.002989925272915,0.000954061615234,0.009310346746496,0.002122384928542,-0.006095713900647,-0.005696945724442,-0.000180253121227,-0.007042794265325,0.001861909941081,-0.007334919601704,-0.001438456191365,0.007367840205480,0.007824640473449,-0.000784470449260,-0.003055561600054,0.003041447244233,-0.004261152621889,-0.008308134515943,0.007271041289196,-0.002667573279934,0.006483868106956,-0.009605572417393,-0.008414694828766,-0.004046182429178,0.007083205310391,-0.003254741171142,-0.006835460423464,0.003987811509411,-0.005084106989975,-0.002904101640005,-0.003833328795517,0.008746869262738,0.005058308314005,0.000473013094949,-0.005213165511568,0.001372521744457,0.001733828896770,-0.001703471501838,-0.008898373639329,0.000790530191666,0.009606869262738,0.000371087122350,-0.002152534810999,-0.008143257111296,-0.006636947582828,0.006035958355818,-0.007566265926007,-0.009301151978253,-0.002190504072202,0.001956869262738,0.001389227316833,0.009098984119052,0.001110872521249,0.005808226029855,0.005195510250196,0.005964386425618,-0.004984132645571,-0.003413130737262,0.006496869262738,0.006643954059654,0.009412816929716,0.004299910822853,-0.004750762194350,-0.000803761970203,-0.000211082414773,-0.008505929008450,-0.003861772051814,0.007688795775073,0.002867246427886,-0.007840341895249,-0.004640058818982,0.002953239273803,-0.007121485364273,-0.007666855101723,-0.008544390532995,0.000612806775853,-0.006505753222055,0.000293832403467,-0.002111221937186,-0.005569161112844,0.005685377290431,0.001728692922587,0.005409627027998,0.008089873260849,-0.000491889048586,-0.007926649887280,0.007874627963321,-0.000272573798822,-0.001321967579866,-0.003275902631557,0.008472371908999,-0.000813141326483,0.007393192657260,-0.000180012787300,0.006037330204996,-0.006044549938419,0.000350760320238,0.004999057485597,0.002243349860474,-0.009274278631384,-0.005347228672471,-0.006696479105998,-0.002150652889557,0.003813816081764,-0.006430816276670,-0.004932619332987,0.001381366664551,0.001361859795969,-0.000854844514356,0.008232758877544,-0.001335339549629,-0.005180923676933,-0.005524503699553,0.000208115682578,0.004023922177911,0.004287309792114,-0.004287549668223,0.001322171260843,-0.002763495068807,-0.001376459394489,-0.006276321239922,-0.008982865316853,0.003697596303199,-0.001527968901386,-0.004887357280897,-0.004224754633271,0.002364091437556,0.006593590075502,0.003875920792985,-0.004433604971896,0.003856869262738,0.003576869262738,0.002951468388961,0.008930986075479,0.003802180118484,-0.000769402009586,0.000504833878358,0.006376869262738,-0.008583130737262,-0.002543130737262,-0.002759228205931,0.006048772625740,-0.009556731886676,-0.005731499398353,-0.008640521560277,-0.007595841845052,-0.004107566062326,-0.004135553885525,-0.000388670752179,-0.006844055706439,0.008534690907433,-0.009375515598941,-0.000243825752193,0.006070200944393,0.007469714455449,-0.003204865494073,-0.000043384496145,0.004803460315080,-0.006103145423710,-0.004606332714297,-0.000140855338790,-0.003624143674375,-0.004960811213927,-0.000641267797016,0.006625296091603,-0.009046769524427,-0.001287781164078,-0.002972665418149,-0.000456778633071,-0.007548948251008,-0.008541999642019,0.007607624811213,-0.004654974646186,-0.002348151284204,-0.008022660681648,0.004829734604919,0.008469240904815,0.002417495428480,0.008793849060898,0.006382392055008,0.009400255356495,0.002270006166759,0.007974229885320,0.008702575935349,0.004233726970403,-0.006979866296628,-0.002826843595916,-0.007882979888956,-0.002495340154426,0.006643494133279,-0.004489432320252,0.005785961301245,0.010201939542108,-0.007981169354631,0.007267877419703,-0.000131098385492,-0.004307184865350,0.009015653094736,-0.006702537650060,-0.005640764873033,-0.003420352199699,0.008744407311111,-0.001251666916889,0.001672786407880,0.004851365158874,0.006270421613347,-0.001096553826739,-0.005568703143030,-0.003081390389312,0.007817389575888,-0.005318207605738,-0.006833130737262,-0.003005913596039,-0.009338230603791,0.003401740435440,-0.000993192681142,-0.009122975515251,-0.001571033703388,-0.003571047920803,0.000516869262738,-0.000403130737262,-0.008673334431509,-0.002895598543341,0.001948802461900,0.008547521592313,-0.009349881407005,-0.004914060427802,-0.002949333526299,0.001155859469529,0.005226760238182,-0.003794063691675,0.010100257877845,0.001717178163048,0.003781501454079,0.003368205144797,-0.003250701175422,-0.002389816058278,-0.009335426242677,0.002870486275931,-0.006309406351576,-0.002106760618959,0.002201597896697,0.006321056580899,0.002831310713017,-0.007917811985659,-0.004780594001483,0.008609702115604,0.007978652744890,-0.003677091784513,0.003119897085859,0.010257432933712,0.005718765784303,0.005777072005045,0.005830951615232,0.006449138798339,-0.005012931208744,0.005613629443902,-0.008495121191624,0.002586564270433,0.008322795857810,0.001915734322719,-0.003756337416931,-0.008944231913124,-0.007621879000495,-0.002863340575963,-0.007566164989142,0.010150208432750,0.008460080208844,0.006315839808388,0.004121901544689,0.007836832448552,-0.002998637858378,-0.005520038564633,-0.009540057919272,-0.008835641900125,-0.008958785465398,-0.001885662089370,0.005245752034015,-0.000069999734107,-0.006831574061591,0.008685896828717,-0.003782199097812,-0.004641685502639,0.002438539628438,-0.003139836926714,0.007380782625556,-0.006034172348677,0.000383877346973,-0.008062621781276,0.005103461446508,-0.007338343834324,-0.008089327973363,0.005625030463805,0.006506869262738,-0.000624542898725,0.006206942915725,-0.002668115717861,0.008370499427785,0.002634904077412,-0.002169283488732,0.002265032571266,0.000076869262738,0.005743478623444,-0.006630456521904,0.004486803480209,0.001195277275682,0.002734464121856,0.006101217158075,0.006741081404850,0.000040067643586,0.008903923231928,-0.000622654983072,0.001016136069455,0.005652058642461,-0.002712436502457,0.005688000049751,-0.002980741632277,0.008007039098071,0.002886381811689,-0.004506307140867,0.010144997614379,-0.006947288029971,0.009675676408858,-0.001039073076321,-0.004376339294006,0.002656393640907,0.005281481325189,-0.006624761412324,0.008913172800916,0.006325775517997,-0.006592572975541,0.001524419236846,-0.005068015183205,0.001712258258687,0.001067288148056,-0.004077887260778,0.007833563275380,0.009216869262738,0.001309125130401,-0.005512574437958,0.005562822738609,0.006249170969436,-0.000136211624684,-0.009602576911861,0.005989400551050,-0.009380949008559,0.005674029936101,0.003703207461187,-0.008805584890842,-0.000277918510625,-0.003398100362587,-0.005703717453681,-0.005181914682634,0.000803316169545,-0.002886836558909,0.006218105803850,0.003720602538139,-0.003579448758492,-0.009234902214070,0.002445395096029,0.007900042377721,0.009716030622154,-0.000897760832324,-0.008283298192907,-0.002768704191456,0.009806768970535,-0.001295931883767,0.004536335452214,0.006410300526284,-0.002190198022061,0.000869481170166,-0.004330217584252,-0.001933862648409,-0.009400198998152,-0.007553130737262,0.002119685765769,0.000682723173310,0.008814438344527,0.006496647132788,0.002515585775631,0.007748823963443,0.009486869262738,0.003926869262738,
-0.007965984747545,-0.002203431389744,-0.000379961609775,-0.000057875840317,0.003494799723143,-0.002429747186736,0.004445238840235,0.000525984747545,-0.006174015252455,0.000235984747545,-0.004436242255447,0.004920104768320,-0.003824811659922,0.005611373622903,0.009974315229287,0.003705244239767,-0.008921361202275,0.009423203252172,-0.008285399659753,0.002035497729062,0.009373471670649,0.001028440926272,-0.005280989427749,-0.003695674220993,-0.008180839941597,-0.005472125362008,-0.005764268178380,-0.002622839935836,-0.003331125733090,0.008102313676359,0.004001453256819,-0.008675275131584,-0.004019036221054,-0.009481074128076,-0.002342084542615,0.001597140516318,-0.001677412972060,0.010333093001517,-0.007280051023151,-0.003288070137388,0.009597382508605,-0.001447236184197,-0.004904548675928,0.003924800859247,0.000377470696557,0.001657616123621,-0.007412075578332,0.008705111208516,-0.003531392815316,-0.009537438188726,-0.003509739187047,-0.007906152373127,0.007188193430864,0.006827141447820,0.006973210632348,0.006419450781231,-0.000752369730782,-0.006111811784972,0.004571448180985,0.004754715844617,-0.009883633170295,0.002907714920901,-0.007472056162858,0.004892996732276,-0.006925905919957,-0.003470715744352,-0.006576397942667,-0.006926167805508,-0.008237952457360,0.001362775515865,-0.006568070821611,-0.007585403653472,0.001310979397189,-0.009557902388710,0.002083732457362,0.001147538924896,0.003570472692394,-0.001174915933989,-0.009326866271972,-0.008199635728144,0.003786140514086,0.002921484992495,0.009292783262293,0.006879241861530,0.006314150008476,-0.001007919935945,-0.000954783049215,0.005612785526445,-0.005138391525952,-0.000377799796080,0.003172485750415,0.006807900753262,-0.003203719480041,-0.007734411961253,0.004177474982724,-0.000465944120129,0.008497535066771,0.003643275986779,0.008926419674520,-0.007221481009629,0.000512385291479,-0.003392469015626,0.010063161655569,0.010179861046767,0.009641079929015,0.008160143283700,-0.004735536993743,-0.005757583800948,-0.002936207321407,0.003497846241901,-0.002625202301693,0.006157536919435,-0.002642529567020,0.009610279098524,0.000741520124708,-0.005290508142170,0.004974684251049,-0.007293179488508,-0.004597269316708,0.009994017791909,0.009988098901679,-0.004834402488777,0.005417552388986,0.002918587935578,-0.000242185266435,-0.000923969205061,-0.009027962439941,-0.002784651580975,0.009833250991419,-0.007253176418414,0.001356374582132,-0.007583478666900,-0.004342567694854,0.008191127839104,-0.006643153920260,0.000620462302173,-0.007731508642146,0.002902093638474,-0.009156888521448,0.009768686585927,-0.008882956879611,-0.002698799453563,-0.005009501831463,-0.002159405199573,-0.005985917170453,0.008368813899683,0.009724525987348,-0.004357229651071,-0.008711005755214,0.006968150083880,0.001307020334810,0.009240152812594,0.000993711122363,-0.001745362680194,0.010040474293029,-0.008380738436098,0.009819048666630,-0.002905149250184,-0.008691034353849,-0.009622436241372,-0.000274015252455,0.008205984747545,0.007605984747545,0.003774501304541,-0.009685231588795,0.001800777119867,-0.002248270243529,0.002025416630158,0.000748056475632,0.009012744834294,0.009927582878371,0.001067597556197,0.003480495215951,-0.001512213264318,-0.008507724485340,-0.006936524413102,-0.008332430433191,-0.001799234245494,0.006699113985165,0.006391199763693,-0.003351104394766,-0.003600615362328,0.003271056892044,-0.002727486480179,-0.002623517134065,-0.008968582078041,-0.008776334825486,-0.007385989417849,-0.003109635860091,0.005609523415108,-0.002696135147040,0.008914687982114,0.004411123594817,-0.005615782241831,-0.001535369883268,-0.001649621452323,0.005626793557103,0.007588191652150,-0.003149964621635,0.001317598955558,0.007103285869358,0.009870632296295,0.003711142194682,0.007114909345918,-0.009572986894967,0.007092682959608,-0.002408995860366,-0.009050601519988,0.003287460351430,-0.005709604864145,0.009197496738157,0.008919921226511,0.001429702203501,0.009435638658008,-0.002672759914381,0.007594413868609,-0.005694016417102,0.005327393214939,-0.001796132804746,-0.007188692787206,0.003499035242781,0.006384172502694,0.008898007196623,-0.007107815128250,0.004802909791318,0.000316228300859,0.001419571212299,-0.003638414092193,-0.008673554887458,-0.001675696177395,-0.008896780417790,0.005472679425520,-0.007044783514932,0.003120933258534,0.010106009772036,0.001690154556332,0.000798137519867,0.003658580613858,-0.002638372940964,-0.007362382532487,0.004994120070241,0.007342804063982,0.001611902723137,-0.008682117509181,-0.005341726130657,0.009865653546209,-0.002567521928371,0.007292909785263,0.000335089807690,0.000872299133259,0.002942830310488,0.005135412621027,-0.007334015252455,-0.005551998343891,0.009362419447470,-0.001054751956531,0.006944979708215,-0.004833846555789,-0.005011622680564,0.002211339377901,0.004953143380320,-0.003428884315941,-0.008061690626158,-0.009484633837483,0.001746636770448,-0.005874314085941,0.000665919211328,0.009583306563144,-0.003278230823047,0.004719251863450,-0.003676403820246,-0.001679458780633,-0.008656059358898,0.008491439713443,0.003158778695966,-0.003671467404327,0.003160384868391,-0.001773430314857,-0.006220498597379,-0.005244197267943,0.009143120162860,-0.004190666079652,-0.006652496891905,-0.003958991623147,-0.002068170029289,0.005976699275363,-0.006419243879863,-0.005754553160965,0.004414379868429,0.009213522595643,0.008575243458825,0.008840711718754,-0.001638886785291,-0.007492383912272,-0.005278617589093,-0.000500677445732,-0.002961598540297,-0.007325813154606,-0.004579967503630,-0.000312126704299,0.005797620548633,0.001810954464747,0.001864127752243,0.006873088262788,-0.003049059267467,-0.001756487958896,-0.006155731882891,0.007750139591268,-0.005785698188807,0.001730595211926,-0.002535514638144,-0.000293177352920,0.002208783290339,0.005942461464273,-0.003366630768067,0.006799246314881,0.001057881844406,-0.004598528340988,0.005480938036363,-0.004895557006720,0.006468865971382,-0.004422029637135,0.002572396389371,-0.004044952789239,-0.000594226658947,0.004969560415249,0.005816134482453,-0.000154780961061,-0.008070813262414,-0.004596151550158,-0.004245388292210,0.004999718506198,-0.006326480254930,0.009454120626597,-0.006275816499105,-0.006488854258788,-0.000594804116450,-0.000628831154075,0.007607755787795,-0.006462393327553,-0.006434545765023,0.003099828838262,-0.005774498660140,0.006730585479244,-0.002718751444567,-0.008226034743335,0.006108667897539,0.009772062392716,0.001530347459176,-0.004732470452030,0.003638356654624,0.010357800400574,-0.006280055456387,-0.003408262676805,-0.003156464879968,0.010049071768012,0.006376160501088,-0.004138357553386,0.003083564110757,0.001207353523453,0.001841889602777,-0.005939921316138,-0.003215467420727,-0.007790401515447,0.009071301526928,0.008508362930991,-0.005856721895225,0.006117409406380,-0.007093646534486,-0.003296956487504,0.002031385514389,-0.001444526101524,-0.000179938699425,-0.003700526909631,0.009782985278283,-0.006865539889882,-0.005466823046375,0.006036365263018,0.008403013915076,0.006160720055916,-0.007596489163145,0.004710967285196,0.006602853246411,-0.003513128911885,0.000852387943582,0.001843331353473,-0.000852293302443,-0.009032024097533,0.005383984747728,-0.006861417489956,0.007171407194323,0.006073316128561,0.006189506564213,0.001834896822106,0.001837491789037,0.009903857761341,0.003772420679590,-0.009440003174267,-0.007107292609826,0.004447857622920,-0.004696746913044,-0.005492241228273,-0.002123248127598,-0.001924926942161,-0.000688440648947,0.005770515755538,
-0.008200000000000,0.003790000000000,0.004880000000000,0.007620000000000,-0.001260000000000,0.003640000000000,-0.001050000000000,-0.007590000000000,-0.005420000000000,-0.005260000000000,-0.000310000000000,-0.001920000000000,-0.008910000000000,0.005350000000000,0.005670000000000,0.007850000000000,0.005930000000000,-0.008200000000000,0.005810000000000,0.009470000000000,-0.006650000000000,-0.002460000000000,-0.005200000000000,0.000120000000000,0.006670000000000,0.004280000000000,0.004220000000000,0.009100000000000,0.007580000000000,0.009650000000000,-0.006040000000000,-0.005870000000000,0.009080000000000,0.002150000000000,0.007540000000000,-0.005790000000000,0.002020000000000,0.004720000000000,-0.006830000000000,-0.000420000000000,0.009430000000000,-0.002070000000000,-0.008380000000000,-0.003090000000000,0.003620000000000,0.006840000000000,0.007770000000000,-0.004820000000000,-0.004590000000000,-0.000410000000000,0.004460000000000,0.000190000000000,-0.007260000000000,-0.007910000000000,0.003170000000000,-0.006250000000000,-0.004310000000000,-0.000650000000000,-0.002830000000000,0.009740000000000,-0.009930000000000,-0.002310000000000,0.002160000000000,0.000960000000000,-0.008340000000000,0.008450000000000,0.004810000000000,-0.000790000000000,-0.006780000000000,-0.005170000000000,0.006680000000000,0.009620000000000,0.006380000000000,0.005310000000000,0.006700000000000,-0.003430000000000,0.000530000000000,0.009810000000000,-0.008200000000000,0.007800000000000,-0.001800000000000,0.007240000000000,0.004120000000000,0.008640000000000,-0.003080000000000,0.006040000000000,-0.003060000000000,0.000220000000000,0.004030000000000,0.005430000000000,0.005040000000000,0.001820000000000,-0.007770000000000,-0.007750000000000,-0.005700000000000,0.003030000000000,-0.005100000000000,-0.001540000000000,0.001160000000000,-0.008900000000000,0.006390000000000,-0.008650000000000,0.001870000000000,0.004540000000000,0.008620000000000,-0.003190000000000,0.004520000000000,-0.007430000000000,0.007050000000000,0.007840000000000,-0.003750000000000,0.004600000000000,-0.000380000000000,-0.001810000000000,-0.001110000000000,-0.005720000000000,0.001750000000000,0.008710000000000,0.007580000000000,-0.002980000000000,-0.006430000000000,0.003810000000000,-0.004180000000000,-0.001810000000000,-0.007640000000000,-0.009810000000000,-0.008370000000000,-0.004130000000000,-0.008410000000000,-0.006740000000000,-0.009640000000000,0.002950000000000,-0.008320000000000,0.000530000000000,0.009230000000000,0.004830000000000,0.006700000000000,-0.004880000000000,0.006490000000000,-0.007430000000000,0.002100000000000,0.008560000000000,0.007710000000000,0.002760000000000,-0.002590000000000,-0.003940000000000,-0.005300000000000,0.001250000000000,-0.005750000000000,0.008390000000000,-0.002920000000000,0.005020000000000,-0.001400000000000,-0.001470000000000,-0.000670000000000,0.008810000000000,0.002530000000000,-0.002610000000000,-0.004000000000000,-0.004110000000000,-0.005560000000000,-0.003400000000000,-0.009500000000000,-0.002600000000000,-0.002030000000000,-0.007320000000000,0.004800000000000,0.004260000000000,-0.006380000000000,-0.009410000000000,0.005830000000000,0.003860000000000,0.008300000000000,-0.006440000000000,0.003240000000000,-0.009650000000000,-0.000760000000000,0.004780000000000,-0.005730000000000,0.008290000000000,-0.002370000000000,0.007350000000000,0.008010000000000,0.005940000000000,0.008320000000000,0.008820000000000,0.009670000000000,0.003250000000000,0.003380000000000,0.003640000000000,0.002290000000000,0.007840000000000,-0.003950000000000,0.002480000000000,0.006420000000000,0.004240000000000,0.005310000000000,0.002050000000000,0.002630000000000,0.004960000000000,0.002320000000000,0.006360000000000,-0.009960000000000,-0.001720000000000,-0.008110000000000,-0.009080000000000,0.008030000000000,-0.003670000000000,0.005190000000000,0.008420000000000,-0.005380000000000,-0.003810000000000,0.008770000000000,0.001870000000000,0.008450000000000,0.009860000000000,0.006850000000000,-0.000830000000000,0.007720000000000,-0.004330000000000,-0.000750000000000,-0.004720000000000,0.003390000000000,0.004810000000000,-0.001010000000000,-0.004860000000000,-0.005210000000000,0.005360000000000,0.004890000000000,-0.008100000000000,-0.007620000000000,-0.000010000000000,0.005600000000000,0.008270000000000,0.008400000000000,0.004820000000000,-0.002160000000000,-0.004800000000000,0.005250000000000,-0.002040000000000,-0.002230000000000,0.003860000000000,0.002040000000000,0.005430000000000,0.005680000000000,-0.000340000000000,-0.000440000000000,0.002730000000000,-0.009270000000000,-0.008170000000000,0.006200000000000,0.004870000000000,0.008200000000000,0.002610000000000,0.007810000000000,-0.004210000000000,0.005720000000000,0.001540000000000,-0.005920000000000,-0.005240000000000,-0.008410000000000,0.004480000000000,-0.000820000000000,0.000680000000000,-0.006250000000000,-0.000050000000000,0.009540000000000,-0.007970000000000,-0.005260000000000,-0.005060000000000,0.003630000000000,-0.004090000000000,-0.008110000000000,-0.009320000000000,0.007160000000000,-0.003950000000000,0.000100000000000,-0.002530000000000,0.000510000000000,-0.001160000000000,0.001480000000000,-0.003250000000000,0.007100000000000,0.009230000000000,0.004400000000000,-0.002600000000000,-0.000480000000000,-0.001900000000000,-0.001390000000000,-0.006090000000000,0.004530000000000,-0.003950000000000,-0.001010000000000,-0.004020000000000,-0.008740000000000,-0.003220000000000,0.001940000000000,0.000190000000000,-0.006200000000000,-0.004320000000000,0.002370000000000,0.005160000000000,-0.000020000000000,-0.003340000000000,-0.007590000000000,-0.001270000000000,0.002370000000000,0.005220000000000,0.007430000000000,-0.009010000000000,0.006070000000000,0.000870000000000,0.002930000000000,0.009120000000000,0.006710000000000,-0.008270000000000,0.005730000000000,0.000460000000000,0.005640000000000,-0.002560000000000,-0.010000000000000,0.007180000000000,-0.009310000000000,-0.000060000000000,-0.003230000000000,-0.003360000000000,0.007400000000000,-0.001110000000000,0.007790000000000,0.005580000000000,0.000920000000000,0.006020000000000,-0.008310000000000,0.002380000000000,0.009150000000000,0.005110000000000,-0.008370000000000,0.000530000000000,0.001860000000000,0.009710000000000,-0.000820000000000,-0.002550000000000,0.006490000000000,-0.000190000000000,-0.008570000000000,-0.005620000000000,0.005620000000000,-0.004960000000000,-0.003780000000000,0.009020000000000,0.008720000000000,0.007840000000000,0.004620000000000,-0.000990000000000,-0.008580000000000,-0.003220000000000,0.000870000000000,0.008110000000000,-0.000640000000000,-0.001560000000000,-0.003700000000000,-0.009610000000000,-0.007640000000000,-0.004530000000000,0.004830000000000,0.002110000000000,-0.008520000000000,-0.000530000000000,0.001720000000000,-0.006100000000000,-0.008350000000000,-0.009110000000000,0.000640000000000,0.000520000000000,-0.004880000000000,0.002570000000000,-0.004280000000000,0.000680000000000,-0.001300000000000,-0.008670000000000,-0.003910000000000,0.009320000000000,-0.005560000000000,-0.008300000000000,0.009610000000000,0.004830000000000,-0.002620000000000,-0.008540000000000,0.003320000000000,0.008590000000000,-0.007970000000000,0.002740000000000,-0.000060000000000,0.004190000000000,-0.001080000000000,-0.006410000000000,-0.004920000000000,-0.001200000000000,0.007950000000000,0.006330000000000,0.002280000000000,-0.008140000000000,-0.002980000000000,-0.005240000000000,-0.006820000000000,-0.004650000000000,
0.003026479779145,0.004755541423025,-0.007766877875683,0.006741711129954,-0.006984133067242,0.007817516707067,-0.007927974274363,-0.005596479779145,0.006863520220855,-0.004846479779145,0.004908755275186,-0.009554741822675,0.006306634325469,-0.001041980757973,0.002687776643276,0.008036400344927,0.003662403415523,-0.004694181111664,-0.001105245869246,-0.005495812778974,0.000871156380694,-0.005172317173782,-0.007750368288067,-0.008789061637917,-0.002245502470320,0.008448532520717,0.003215681645998,-0.006985013616433,-0.009613118201534,-0.005340735363692,0.009754858647247,0.001412564110494,-0.006634611004206,0.001598330262159,0.004022536272188,0.008073520220855,0.008783520220855,0.000122658983583,-0.009098316820184,0.002743131728284,-0.000495813203395,-0.003376539414754,0.006779051942760,-0.000925235801061,-0.008176479779145,0.002593520220855,-0.002238158817699,-0.003068106929155,0.009440583069151,0.006963235299806,-0.005253721858621,-0.001802792850799,-0.000170045493888,-0.007746367364409,-0.001216479779145,-0.006232299028468,0.007446129182424,-0.003942340965913,0.005785801354709,0.002607108391997,-0.005153389323494,-0.007074777737517,0.005830137330981,-0.006256479779145,0.002068342451017,-0.006868242450512,-0.002654884459818,-0.008645094265369,-0.003365743956985,0.004765880583163,0.002010583570590,-0.004390426240941,0.010103520220855,-0.008587123965102,0.004922247720645,-0.005947026745140,-0.007270764890915,-0.000909264101080,-0.003080497804541,-0.001659837408413,-0.006106479779145,-0.009496479779145,0.010263236126478,0.003439337751054,0.001758822277549,0.004457599546258,0.006744182405280,0.003034797636595,0.002170104103671,-0.004095782709879,-0.000270802468100,-0.007613164640503,0.001883634679689,-0.008178041209875,0.004224469969449,-0.002851986342566,0.000221511381997,0.006977590629447,0.005415394632799,-0.001899945285118,-0.008712688298477,0.010098134053786,0.010008023318013,-0.000003422901472,0.006409099080302,-0.009527803986153,-0.003485979561895,0.007176073622103,0.001971289875443,0.009307124712681,0.009463192597190,-0.008884958514006,-0.008824621723557,-0.006002064619252,0.002230053869197,0.008170917255335,-0.004843059131724,0.002236146172704,-0.005512162742299,-0.002648773013932,-0.007141255409568,0.008203711173113,0.004263436633698,-0.008881453053982,-0.006482223723519,0.006159480275910,0.003645745535928,0.002949437509096,-0.005924453300556,0.004664488994154,0.002076713165606,-0.004667225548731,-0.006146855538289,0.008409717239060,-0.009142373923958,-0.005504357797034,0.001800716902464,-0.007165280992880,-0.007084635187565,-0.002787935189189,0.009091921016960,-0.006310515536922,0.003277100693431,0.006265044886434,-0.002966938839105,-0.005615879149531,0.007946159249856,0.000302101004469,0.004234691837237,0.000176734028933,-0.004337208445731,0.005620130755858,-0.009438174510775,0.004113520220855,0.003851390967087,0.003124612085805,0.006593190969029,0.002064663077070,0.001169423059261,-0.003913402813645,0.000153520220855,-0.002106479779145,-0.004836479779145,-0.007473554608017,0.005238720698799,0.004948650856276,0.004564448210310,0.006786108468530,-0.002339097324776,-0.008854973748891,0.001044266338843,0.001193718414371,0.005573661812432,-0.007733401876540,0.009821801586471,0.007924992503923,-0.001102554274138,-0.008850090295996,0.006697097661200,0.003623818801831,-0.003864906579182,0.001049368421779,-0.009011189012112,-0.001068275503063,0.004441481645050,0.007358543455623,-0.000201521601278,0.002781942139319,0.002337711469518,-0.008930118581289,-0.002118839301014,0.000579352426722,0.005467591990478,-0.000517644953890,0.007862249591675,-0.003240147719189,-0.007135849746530,-0.003255815380961,0.009563520220855,-0.008729732204208,-0.006230817916860,0.008890053995846,0.007324911231575,-0.001598071024955,0.006877238495393,0.000030327969466,-0.005176952595501,0.007564617854471,-0.008999901412136,-0.001796570002311,0.005786447423944,0.001799614320407,0.006222552027196,0.008395442783346,0.009170676500131,-0.005358898354424,0.004037028062109,0.005796474049056,-0.000977624327808,0.009865322929846,0.001022849634548,0.008656451136154,-0.001947611944544,0.001987240020875,-0.004656802399397,-0.008930479489817,0.003646163253124,-0.009055644511550,0.000803389363328,0.004963089802031,0.007521796703266,-0.004491117831993,-0.005193656859931,-0.002059246172272,0.001213520220855,-0.000932671883229,0.003460265036325,0.000837814439844,0.004006450829147,-0.002809209957514,-0.000412011456434,-0.003171781372411,-0.008276479779145,0.006103520220855,-0.004903620161325,0.001898187337158,-0.006666241448425,0.004216128770678,-0.007491013775864,0.000415154440362,-0.009656080683735,-0.008395969847872,0.004833520220855,-0.002140103030639,0.000631567426173,-0.002251855441541,-0.009446502320622,0.009446929666269,-0.004701336264904,0.002768525406554,-0.009629563780440,0.003882886601677,0.007388979159225,0.007440005774687,0.006767840873572,0.003139485925953,0.003681988367664,-0.002147216924717,0.001981810115888,0.009134326698024,0.003310121962502,-0.003390146931770,0.010029151913946,-0.007834314127841,0.001245109272711,-0.001871329618513,-0.003149875175472,-0.002905857137188,0.006841222235839,-0.002184432123079,-0.009445186896044,-0.009550335619328,0.010087808671098,0.000723238813767,-0.007267675966043,-0.008957489099397,0.004472640389299,0.008402369616267,-0.002645235527110,-0.007297598252610,0.000816813656099,0.002606705722299,-0.003293234376438,-0.001163197080553,-0.002061977346082,-0.005163302012780,0.000330512238219,0.000704139738733,0.006259821089451,0.005101011601230,-0.006544358519219,0.003085542369751,0.003451333552735,-0.004336844829110,0.007060397631550,0.010093494820001,-0.003950339235556,-0.002691651960191,0.002866450379710,0.009675767269682,0.002392048489279,-0.005102926842428,-0.007924560621879,0.006090292592839,0.009730605855862,0.000084616823087,-0.001997379514018,0.000357265923428,0.002866320547441,-0.008425454749237,0.005090215462623,0.002148041484081,0.000460578940669,-0.008841958536099,-0.000376479779145,0.008039697460358,0.010193185906722,-0.001847236666106,-0.000177387949974,-0.000120167605568,0.000286227648727,0.001290350575439,0.008355717255615,-0.004114818304741,-0.002966721426712,0.001635819411818,-0.003150031086372,0.004865904140655,0.000216018177538,0.005713231729634,0.006190762718519,-0.007593138283796,-0.001324676902660,-0.001268084727615,0.004003113888058,-0.004095914990317,0.000509613577566,0.002817716948563,-0.001856879162672,-0.002565407701344,0.005132881511908,0.006345618274165,0.006209086434302,-0.007523066135166,0.002235239193461,0.007162391038743,0.007935270562438,-0.006164998994665,0.003193411918202,-0.006150945444869,0.007513520220855,0.005979257258576,0.004444013367724,0.004636630627454,-0.003686176813377,-0.004742068680155,-0.002364433346790,0.000485880426499,0.008322350908386,0.001703520220855,0.000394481556818,-0.009156879440070,0.004226579804434,-0.002376152047519,0.003027849452626,0.009028585908761,0.006382974421578,-0.003176009284790,0.008540654131929,-0.002754491903770,-0.007360419682139,0.003706574204479,-0.008206613145815,-0.006870583294618,0.003518562955644,0.001692254012451,-0.003752644001694,-0.003464302181026,-0.007525800342303,-0.009013305801297,0.007463104008131,0.009994650257460,-0.006411262847366,0.007478592715379,-0.007635756776078,-0.003830782484158,0.001489668715062,-0.001298382584814,0.000166216111148,0.004594950200743,-0.001758607107083,-0.003588027954374,0.007753809330682,-0.004912851876914,0.003583520220855,0.009863520220855,
-0.009582259770254,-0.002989186471916,-0.007931679326499,0.007391363752076,0.003160509737619,0.009541206094126,-0.001952253020885,-0.004587740229747,0.009842259770254,0.004382259770254,-0.007063701463304,0.008600357124597,-0.001490660619460,0.006643765188384,0.000825239520466,0.006795583629813,-0.007399250539032,0.001517203768001,-0.005525086323598,-0.008728974490425,-0.002541683017827,-0.004956721762155,-0.001992018188736,-0.001514408936416,-0.006141340689177,-0.006492761318358,-0.002644062964510,-0.001006088749912,-0.008380083762857,-0.008529018302294,-0.002112375598288,-0.008541483648239,-0.007930324295359,-0.003246537882232,-0.001911666731593,-0.008400441873765,-0.003776795386151,-0.002204596359370,-0.009026744899866,0.009599033196819,-0.000900643621233,0.004819233366897,-0.008003683548233,-0.003419760160611,-0.000560387675417,0.009823266726090,0.001480916539133,-0.008921397094717,-0.002027218037146,-0.000840371747854,-0.005163865197471,-0.009548910203554,0.004307328372388,-0.005990323600293,-0.006389597524362,-0.000498674582637,0.001072487534771,0.006643836029201,-0.006606041004947,0.007733135705788,0.005034553968814,0.003161287621371,-0.000385247596372,0.001315898367107,0.000590366881666,-0.003236807502250,0.009320611946006,0.001404144703547,-0.007751605010020,-0.004565070975192,0.007731739953507,-0.007885609556832,-0.004624870756972,0.010396463055508,0.000857050540852,0.006642634197551,0.006268166529725,0.006922715997798,0.010766423635250,0.009000163297580,0.007908888615912,0.009114852973015,-0.001251254627521,-0.003715443313528,-0.005235958033787,0.000944717521132,0.009702846301334,0.000609494119448,-0.000200013557404,-0.001079730959837,-0.006842477496960,0.004229963209305,-0.002304612281807,-0.002856725933416,-0.005200591949719,0.001589480876806,-0.002826582662092,-0.005978311900766,0.009448085967757,-0.003042053020873,-0.005259700566908,0.004617005306148,-0.001799060599373,0.006743481221358,0.002042362024806,0.000105185609085,0.001974374098236,0.004829477643925,0.009434506310469,0.004289325659685,-0.007186329258114,0.002377422487983,-0.002267241627773,0.009539917544561,-0.002778351336823,-0.002430087778658,-0.007429645887083,-0.003651610044723,-0.005977619620811,-0.009389936361433,-0.003622824249230,0.009075386216698,-0.006826073360062,0.005002727228503,-0.005686923702125,-0.000765461979056,0.002633154662694,-0.004024941879915,0.001073067986855,0.006150511962230,-0.004040608441159,0.006986073237273,0.001450534794568,0.000638451671065,0.002988025153037,0.002811235181357,-0.008816019027174,0.000998192334263,0.005418993255544,-0.004081387135603,0.004477219998993,0.010365697369011,-0.004402170509311,0.005003663619052,0.006222057001504,0.010193746110503,-0.001385120602901,0.009629546257584,-0.004723087360065,0.005201095074244,0.005435176503885,-0.008754163783376,-0.003446239922181,-0.001308642344514,0.004630373439500,-0.000268181111072,0.005134512309322,-0.006216229189274,-0.006655179171076,0.008525321644701,0.004482259770254,-0.007927740229746,0.008542259770253,-0.003542621540755,0.005439221962290,-0.006549788462289,0.010401780022927,-0.008772357839699,0.006061410988451,-0.006821495594409,0.003936038533698,-0.000268577942651,-0.005032784309954,-0.009112786821404,-0.001921207745338,0.003065473806904,-0.002918290727402,-0.007618252796292,0.006706666282475,0.000417234869276,-0.006035359033874,0.006473385041755,0.002456238987947,0.000772546025446,-0.006406554322090,0.006606521187174,-0.004883620449179,0.003874536004374,-0.002644323609944,0.000568232010769,0.010297033919491,0.005362987426592,-0.005943340486672,-0.000557930663107,-0.008155456039449,0.010608182100135,-0.005640908971847,-0.001967813213621,-0.007412260545418,0.006574820338350,0.001319844606526,-0.008364816553250,-0.008433987486096,0.004144032731957,0.009371629081152,0.009054766075114,0.005361589687220,-0.005865419882392,-0.006738136501207,0.008687987639253,0.000315442262622,0.008649365926998,-0.008636605374523,0.003407517910587,-0.008790914161847,0.005734133647494,0.005456174133201,-0.003357228779048,-0.009154129251706,0.000601214626617,0.002260396082253,0.005529805366434,0.005098054881441,-0.008628875882427,0.002386018257759,0.008240218493681,-0.007469988897448,-0.001831933664797,-0.000296697818935,-0.008897948081054,-0.009685045227760,-0.006656588335094,0.006158600062872,-0.001643771260965,-0.004522392166649,0.007696098968770,-0.002357861363398,0.005237448628970,0.009434916757381,-0.005521495636732,-0.004434603579397,0.001885278275049,0.004146051377460,0.007465713880092,-0.008931575509467,0.001149597726416,-0.003936026112655,0.001460134801558,0.006253114902948,0.008865142023723,0.009256321713903,0.000933356535698,0.003162259770254,0.009790220476255,0.005577869890828,0.006972750476839,-0.003600707129849,0.005483600249849,0.006862608128747,0.009355553306030,0.002463245318759,0.002974006146400,-0.003153190091914,-0.006086811631387,-0.001553611961884,-0.007628624349585,0.007049325015984,-0.000756078049078,-0.000607866902773,0.007322264613305,-0.000324998095701,-0.006889830256233,0.004829178718946,0.008298293461276,0.000848883934057,0.003370598444905,0.008829194253570,-0.002577788097485,-0.000471013226797,0.009907637742545,0.007630358605061,0.009653152576792,0.007705560377563,0.003369932099464,0.008083904391909,-0.008845531184447,-0.005330592708798,0.000107740696285,0.006858387971147,-0.008616584726149,-0.009309169661854,0.001729697864371,0.000932642882984,-0.003281878184446,-0.003458887242011,0.002061865890215,-0.003019622250505,0.002427059158965,0.009362392440545,-0.005492794123313,-0.006633355188892,0.004914668471556,0.007503352391850,-0.004286982199035,-0.003583882001887,-0.007611990714447,0.001359628108402,0.002999820186550,-0.004933071367525,-0.003184570269759,-0.001057317590979,0.007032585035751,0.000973362621134,0.009280603191725,-0.003080312188673,-0.006514041085918,0.000648785921246,-0.001571662865380,-0.007434532201243,0.005116892771043,-0.006340485701183,0.007112445017236,-0.006363024155163,0.000655300158551,0.002138728055174,-0.005070810943066,-0.000598531019415,-0.002263255822023,-0.002704749360561,-0.002168019362506,0.006351535441721,-0.000365803308043,0.007296985175296,-0.002724166713446,-0.006861159319108,-0.005674619467020,-0.003036811431170,-0.001662560817242,0.006660944866597,-0.001100085089723,0.002834253718172,0.005687955223328,0.003485144002302,0.003147102357142,-0.008858671483828,-0.005235726874255,-0.007697307380535,-0.003642339432066,-0.001636405963464,0.003557899278781,-0.006451150796772,0.010647751141248,-0.004340701681079,0.000466271555200,-0.008081974590542,-0.002400218624565,-0.003901476318208,-0.004613556787984,-0.008074927133194,-0.007186637310424,0.006152822946395,-0.001171770654291,-0.004955114086202,0.006775736541044,-0.005325742511721,0.008440925247612,0.001542604571665,-0.000021114616164,-0.004470858887335,-0.003221391101290,0.006045679821920,-0.004647535051504,-0.003404373074249,0.002441592460943,0.008208359721744,-0.003970037193255,0.007035451713750,-0.003964189954772,0.005440996035375,0.006004078956713,-0.000349508696253,-0.005658084996217,-0.001616873515869,0.008446721636610,0.008160370213002,0.004775780970164,-0.006767269345117,0.001329911661093,-0.002015378442439,-0.005406892585622,0.000780330593608,-0.001838765247437,-0.005319880739254,-0.003985202931680,0.003450980940750,-0.001321851953413,-0.007333173390422,0.000033764580140,-0.008160539705568,0.001363861638296,0.007472301218369,-0.007395600800593,0.007554994016127,-0.002617956332959,-0.003107398160050,0.005731903143540,
-0.000419913322952,0.002551524388109,0.008775262492163,0.006719083769361,0.001823611204009,-0.000681128224236,-0.003013021296202,-0.001090086677048,0.006169913322952,0.004679913322952,0.004439971385512,-0.004207541954320,-0.008527233320378,0.004834049015790,0.007369938708922,-0.008153845612037,-0.001187641324604,-0.005367718721072,0.004121184426469,0.009731148802180,-0.001982268225433,0.004204014151347,-0.002581719054872,0.008725963155181,-0.000050187863321,-0.006736028572892,-0.007573972284584,-0.002915189492945,-0.002071061789618,-0.003413058261407,-0.009318555291473,-0.005052913666814,0.009605243172299,-0.001524394432860,0.008378129605261,-0.008803594720874,0.004618990908934,0.007280179799568,0.006222591479532,-0.003718794158453,-0.004945288037712,0.002121242193495,-0.004649615171816,0.001870459686823,0.006186983944849,0.008888531707381,0.007836427754272,0.009018040952056,0.004765175679577,-0.009197481302790,0.008294380154767,0.003721293254449,0.009981062783017,-0.009362366704124,0.001083689743248,-0.005019751538587,-0.009287362303678,-0.005734507458481,-0.001172559893676,-0.004269636524835,-0.003144890955343,0.004146227991266,-0.003350085882451,0.010033598257770,0.006522063357386,0.001019768058059,-0.008054332311678,-0.008799239379116,0.001072715999657,0.004057596907241,0.002663909337416,-0.002849579688698,-0.002131449120719,0.004051137164051,-0.008712518213829,0.005022646047269,-0.007022784103258,-0.001180677767186,-0.005585274099344,0.005950326306749,0.009087766588392,-0.001341417073015,-0.000929162079366,-0.005410385364671,-0.003201989904519,-0.000685480307979,-0.004877616656183,-0.000961157632446,-0.000515685299548,0.002887678010084,0.002765710257189,0.000788179268518,-0.001997905445570,0.008342950733793,0.008685002345711,-0.004560629341357,-0.000498116043455,-0.001948111347508,0.001659768707016,0.002767462481105,-0.003157658326554,0.003494021402053,-0.006710182084485,-0.000187283085603,-0.002541458339113,0.003332011532010,0.010006239696323,0.006189075327517,-0.006213040098902,0.000857649152440,-0.009197596418948,-0.000411433766521,-0.008418076755153,0.003090516445331,0.008459252761714,-0.002835741715381,0.005925186445837,-0.002587809158921,0.000518535820532,0.000114769491725,0.009233326579914,0.001906111702896,0.007454699012828,-0.002959257610798,0.005380434556752,-0.009435438887235,-0.000264162989650,0.001183789079260,-0.007628637458070,-0.008640201293460,-0.001169798239729,0.008832220728920,-0.001537638386453,-0.003229207925025,0.004333446662680,0.002300209563216,0.006702424622600,-0.007095313336430,-0.003349114686720,0.008450432976085,-0.009342995326093,0.008048044109029,-0.004783618008879,0.002740259048687,-0.000766320159006,0.005751403065663,0.006280919015421,0.002054374427097,0.002732156876186,-0.008656214566607,-0.008469819844627,0.004332104263098,0.001050304393508,-0.005958252415274,-0.008084851797955,-0.002391245803586,0.004997637143421,0.009596789377046,0.001538251088570,-0.002591827708897,0.004419913322952,-0.003110086677048,0.007079913322952,0.005879098373458,-0.002711883013883,0.009766972429366,0.007171698669744,0.009776643820348,-0.001317483889721,0.010327814239840,-0.005281505356808,0.001146267443772,-0.002924294916497,-0.010035045716369,0.001513718909225,0.005436218636069,0.009919514685564,0.002870269138095,-0.000040602765677,-0.007128224873955,-0.001389997219060,0.000670230238475,-0.003890489233952,0.006526479912401,-0.003387380288919,-0.008987523329890,0.008580338901484,0.000840018749435,-0.000751080802342,0.002896205002705,0.006294712239810,-0.001137915234621,-0.009428580350986,0.009297939037047,-0.001517073807369,-0.002605387661264,0.006359366037243,-0.004370484266575,-0.000104387207930,0.007233666361550,-0.003227032174672,0.004506348093811,0.001267172655768,-0.007551270789991,0.008287425411591,-0.005426005489317,0.002573483428165,0.008328423513588,-0.008070459058721,-0.006885803500148,-0.006962340843190,-0.008232022737335,-0.000934591799894,0.000361321221739,-0.008045719257066,-0.000931215606357,-0.003424543888542,0.000741519330696,0.009067975595118,-0.001308462100619,-0.000667771326755,0.000873873780077,0.003980754623067,0.000555453625978,-0.007619093658011,0.001411104474452,0.004223528187949,0.007629430946765,0.007470537114217,0.004029459967173,-0.003245472552406,0.007849206294842,-0.002682656822663,-0.001765638008222,0.008723195884105,-0.000812768601252,-0.003521207230902,-0.009044240127647,0.007446823238913,0.002002025860307,-0.004454157797322,0.010198407966878,-0.008866464480396,-0.009607024592845,0.006444831926470,-0.005636112427673,-0.003813537895849,0.003952639269888,-0.007353439947335,0.006793773253548,-0.008699350508937,-0.000479561374970,-0.004820086677048,-0.009113214971138,-0.006109713819513,0.001200990376550,-0.005370758856941,-0.003796404990224,-0.001507496290139,-0.006547741403757,-0.006782627407995,0.000081449390382,-0.006411756805287,-0.004226304561309,0.008188907751739,-0.003439060361191,0.005016953372687,-0.001677078376806,0.008063585288524,0.002715517048153,-0.009067941437032,0.000309517502056,-0.001460262813563,-0.004227648322414,0.010105173022103,0.004630822857995,-0.001937046087115,0.006608675864695,0.000300221503283,-0.006543742744889,-0.008862540636164,0.009698946876636,0.000832263723447,-0.004712825545945,0.008452909981302,0.007194280300094,0.007835172765844,-0.004343803876890,-0.002932881689891,-0.001776540566058,-0.006044835599656,-0.008410416899761,-0.001382560954168,0.002765205536687,-0.008234948574648,0.006343051444008,-0.006333807437742,0.006053781218601,0.002192591222964,-0.008685551902195,0.000760758675952,-0.003758873265667,0.009652762674528,-0.005587132890786,-0.003216559401168,0.007799879556618,0.000327107850524,-0.005708943338985,0.009757184842583,-0.007362261235072,-0.002464091382073,0.003960428475918,-0.008613041227797,0.005296175545451,-0.009647968753518,0.006111574132800,-0.000223649045131,0.001221981557862,-0.004906953974291,-0.000316211049029,0.004634852742083,0.008159578746731,0.000325662121362,-0.005731281002461,-0.001182572763512,0.000830013269655,0.001129298668021,-0.005114996723405,0.004172918554940,-0.003066209218519,0.005648670180068,0.004014426597126,-0.007057823417297,0.006691624879007,0.003034600128728,0.005453110473783,-0.004413981309879,-0.002076320121470,0.004958908916690,-0.004868510877409,-0.002495984199752,0.001325865596510,0.009124123350918,-0.005165134022673,0.009692255347626,-0.005975469255900,-0.004129450817571,0.005394580382604,0.004877633383479,0.004357158580179,-0.004838382163301,0.005340417227372,-0.005462918220235,-0.006004158982421,-0.007277066602042,0.004231238846431,-0.003782334318672,-0.009431917261064,-0.006079002783194,0.004998720730714,0.001989101131311,-0.003316498643499,0.009537799436208,0.005312032827448,-0.004574878734945,0.002468441816801,-0.004868311144162,-0.002122293892175,0.009078708993124,0.007744279299981,-0.003662167268717,0.004859792720738,0.007559932337877,-0.003127805312767,-0.004549728406205,0.003050112072194,-0.008298606525062,0.005750434856071,-0.002739521454013,0.000993084737122,0.002841786175585,0.004020499590959,0.006984690088593,-0.003408384502072,-0.009293196805910,-0.006731881605886,-0.009292613274471,-0.006143223498251,0.004111861058535,0.004655952172693,0.001726625749574,-0.005279277128935,0.008590542545292,0.007766062303458,-0.000600061556392,0.006556879855669,-0.002298082073002,0.002893527958624,0.007926531986513,0.001096395658233,-0.006760264435667,-0.006639070407246,0.000754976797391,0.010262389662688,-0.005060449294960,-0.007629028641887,
0.006456808962040,0.012574771204431,0.001985366183907,0.005368257563432,-0.007015781881431,-0.000827355423397,0.008180947179663,-0.003063600103031,-0.002310042465407,0.001043191037960,0.011106669381261,0.005685736874919,-0.004422133421729,0.000489546963512,0.005514991300201,-0.003501573009280,-0.007968427988363,-0.001750752079488,0.000120090008759,0.008595817342476,0.000391739308221,-0.005705332915600,-0.002475056990445,0.012680900050347,0.001665380925142,-0.008044468111783,0.001478690665377,0.006075589628742,0.009123611390098,-0.004949185457479,-0.002122774978394,0.010032302713105,0.012637906260505,-0.003730869404189,0.003853403914318,-0.006260625969770,0.005211373810029,0.002245925428880,0.006861965862369,0.004293078631430,-0.004919454645242,0.001361513223116,0.010535748238549,-0.006288677360660,-0.007364173597157,0.005175515820056,0.000061835590546,-0.006145244861829,-0.010222229848606,-0.004879498298400,0.007914046714845,0.009729407957497,0.003740725743821,-0.003205812447361,-0.006375278537632,0.003821600840225,0.004799155975869,0.000476680333966,-0.001958080673424,-0.000417165697057,0.003353127970302,0.003732031464311,-0.004236351911182,0.004383316886904,0.000980459820789,-0.010433535142743,-0.010288197687527,-0.005552417901098,-0.004594892362191,0.009952343502380,0.007021462928473,0.005393186338136,0.010115148036726,0.008381303980646,-0.002124178163181,0.002782493892583,0.012112071759859,0.012809998269002,0.012032538519790,0.006075760818855,-0.003533200265595,-0.001092812820295,0.012262081422513,0.009358313907902,0.008686442079047,-0.002877442201738,0.004252813835573,0.003075878591484,-0.003558822375747,0.004578747677938,-0.006927653093990,0.012026747544457,0.010389833351887,0.002664590540949,0.002747692984607,0.000213511808146,-0.003278756143655,-0.008320666452423,0.005093808495263,-0.009363692970272,-0.007171429607204,-0.004257025427129,0.001645763713809,-0.003639134061969,0.004884041218351,-0.008636258761677,0.002455402859929,-0.004102526833790,-0.002234632662661,-0.004834106631066,0.005762542780479,-0.004962194204988,0.009377041243822,0.003225424791926,-0.000234142357413,-0.003311432755558,0.008079079736288,-0.003070460584450,0.006289020829614,0.007907610871504,-0.005063842200907,-0.003928862507850,-0.004394280133043,-0.002980059623389,-0.007633781255934,0.010678982426955,-0.002367296166626,-0.008022482058284,0.004560384508508,-0.003480151114440,-0.007329491286970,0.003142833576378,-0.002900941146253,0.003696625651851,-0.001449998587915,-0.003296506952203,-0.001788494555820,0.006977948402746,-0.005497079490870,-0.012309581816296,-0.012209017241469,-0.008387303883618,-0.009516773205442,-0.005887629473047,-0.007555317521426,-0.007538125770760,-0.006050278477107,-0.008023382023695,-0.008649080022684,-0.011590268167755,0.002523665266833,-0.003212728944341,-0.006053714688149,-0.009098355287327,-0.002606903272564,-0.007028650228090,0.003269254182213,-0.007753967660271,-0.001634977827970,-0.007278214541709,0.000537609756348,-0.007772401360757,-0.004381602667645,0.004308112643701,0.016328604624125,0.014622559730105,0.012460188154955,-0.002081109263389,-0.004455622148572,-0.003152232787649,0.004431909336775,-0.002184744560325,0.011121764129805,0.003293014966065,0.007555609640099,-0.005356600132027,-0.006632882622062,-0.008925154356399,-0.011503797935404,-0.010349555430692,-0.007283247375323,0.004345275002099,0.012703516031491,0.005089828325345,-0.007974677446056,0.002800608990251,-0.005740572914248,0.001439979254358,-0.000927573496385,0.002189653426239,-0.000164526731974,-0.007449514907603,0.004381740389618,-0.003027200972247,0.012308858994794,0.008389747934204,0.004467899255750,-0.005982500287931,0.007206525504533,-0.003213595028516,0.002966292814573,0.005800017019077,-0.006461608220751,0.006924427849856,0.010130689327164,-0.001066602672041,0.009876962235191,0.000608867393953,-0.009973393738851,-0.008062754538462,-0.011663232050294,0.004014734838443,-0.007283164399067,-0.002157623158799,-0.007980464548180,-0.003456229844432,-0.000493566823406,-0.000216407475724,-0.007846361934591,-0.008755943216664,-0.002048485265321,-0.003260864214159,-0.007028069389851,0.005534097008348,-0.007051953804913,0.000998187680270,0.005984152778658,-0.011488245691436,-0.007483714975299,0.004632088154216,-0.003012271670248,0.004011163385604,-0.004209446768601,-0.004108175760633,0.010280637856670,-0.007698280785847,-0.000452040227225,-0.005972519422712,-0.007360407186547,0.010008023833986,0.001731059844887,0.006454792975200,0.008898396855815,-0.005952548325026,-0.006676779312951,0.002377186161221,-0.005367158071789,-0.004231809926527,0.005682215889964,0.002394454237970,-0.000197230797522,-0.005120550689110,0.008842686424225,0.004817733114511,0.006675585904723,0.006351957652557,0.010123841044974,0.000918349393800,-0.008786080692347,-0.007596927248170,-0.007775180675067,0.007996036382334,-0.000449565746779,-0.006634043963378,0.003966225128903,0.004673140840755,-0.001437627735270,-0.003543799388229,-0.005546841876816,-0.000329439054932,-0.004202919820460,-0.003138448861744,0.004235690802869,0.006294222043578,0.003954549095150,-0.003586783880839,0.007451956733882,0.000379573794121,-0.008862964949678,0.010356564127969,-0.000975701625229,-0.005842299595876,0.006812847040146,-0.001643215696791,-0.002109607583235,-0.006264229339648,0.004033428051408,0.001028907279973,-0.001798924304019,0.010452316548894,-0.005341732767454,-0.003765985368690,-0.006522540431056,0.005138001026376,-0.008175604960587,0.005341131762038,0.002427610587302,0.004171917897402,0.003400352029179,-0.009424990884734,0.002417151096349,0.000487683816020,-0.006300442924582,-0.008813385617320,-0.000109565353417,0.000991525844442,0.000981755858661,-0.008870839285771,0.007051751684572,0.007255360515862,0.005529228661498,0.008438432680344,-0.005608395237693,0.003055440877205,0.007205551509561,0.009964372867584,0.007237139106818,0.004230286481496,-0.003705794977971,-0.007157122400498,0.000954226953757,-0.001525269704908,-0.003882890800839,0.000257751125584,-0.003518564358427,-0.002040291626179,0.008455825762802,0.007412766065790,0.009802964573331,0.005467311590603,0.002242911207135,0.003095931747788,0.007877152258536,-0.000712470371338,0.005961020319474,-0.004830598977109,0.003301516109617,0.010626965979884,-0.005537490639691,0.002785127544930,-0.004652047947905,-0.001096954823868,0.004551863358951,0.011742297744472,0.008801650544143,-0.000677644561993,0.002080838931985,0.006881634414904,-0.000268866909047,0.003171839543859,0.006727424770285,0.000127380954178,-0.008586390541234,-0.000530146895339,0.008104621999249,-0.007350095225045,0.009036070993837,0.008866383056469,0.006251960605008,-0.008185939304536,0.009173493622139,-0.001071958588729,0.003585908923071,-0.000086628999407,-0.000006015699149,0.010172841368834,-0.002488326593597,0.010319273178096,-0.005404288889027,-0.005991267145710,-0.009563059270907,-0.007383145858521,0.009318831083875,-0.000909699734974,0.000471435598439,0.009645148708924,-0.006328123422191,-0.002717798084101,0.009509339028141,-0.005241146275628,0.004776503269900,0.000670685271260,-0.006379719557723,0.008647470570326,-0.007218148651006,0.009744539953345,0.002193974605038,0.006744928827398,-0.000133290521458,-0.010565797697979,0.007368243105910,-0.000626714305568,-0.004969611949250,-0.003889132621977,-0.004572696382868,-0.007807904393795,0.003068984683386,-0.006804826110072,0.009627307057331,0.008233422462761,0.001400080834208,-0.004972513142883,-0.007494164418693,-0.007289886909173,-0.002406380125514,-0.004589498685807,
0.001403364040475,0.001085303553625,-0.005595336401912,0.003613441472714,-0.007311727706148,0.006177296055952,-0.000954820970334,-0.002986724930983,0.010758973378446,0.002226635959525,-0.001843265514563,-0.003633552432187,-0.003802065549857,-0.006552254630934,-0.000268990914656,-0.001869242675816,0.006176002602917,0.000289239512220,-0.002567467602814,-0.004937572206990,-0.010950220727482,-0.008122513266921,0.009620518554747,0.006133541273793,0.003364293593052,0.006037953935795,0.000874341324350,-0.003173189317980,-0.002916995308276,-0.002616822444535,-0.007291017816076,0.009482190052089,-0.002891807137649,-0.002187870401903,0.002668115766855,-0.006619290000191,-0.009145840699021,-0.010070602051631,-0.005932494201996,-0.004108002857866,-0.001325666983714,-0.004719797453011,-0.001536719533979,-0.010040188339664,0.008840018983420,0.001074455684021,0.000383125427833,-0.003452688048015,-0.005581196693621,0.009051505182085,-0.005951955452567,-0.004481919883890,-0.001746438247464,0.000615202870267,0.009532082476802,-0.010722134356334,0.000325003355054,0.005072198799404,0.012723072397714,-0.005255440902854,-0.006590141944372,0.002542551845348,-0.002913294969149,0.007274276259019,0.003115360481811,-0.011621670122660,-0.002947842099067,0.013096072860520,-0.001303354678569,0.004996741248793,-0.003416328160130,0.010629863554341,-0.008516645691127,-0.008401147168672,-0.005341039367112,-0.000332556268241,-0.005920537462992,-0.005817490329501,-0.003056815694204,-0.000579051659893,0.000659879970445,-0.000035964055378,-0.003061879459305,0.008641221682496,0.005745328957944,0.005418597836363,0.010566549937383,-0.004499100804871,0.010038216403323,0.009089059533470,-0.002754860907116,0.001652474196040,0.000916618063256,-0.009855891469792,0.008572826967095,-0.004125948299333,-0.002412091761739,-0.001508661761858,-0.006252180326086,-0.003161106326737,0.006409709344488,-0.007389704425666,-0.011679572616825,0.003641313641684,0.003803266509837,-0.001411351997731,-0.009883984020638,0.008648948062950,-0.007299206081794,0.005247664855196,-0.002347587681026,-0.004585539449462,0.007022302973877,-0.005661066910283,0.007649731757476,0.001770796950402,0.007475555619243,-0.009265199374767,0.009246440732746,-0.008652234939344,0.009291074881613,0.011202434320831,0.001357771836618,-0.000424580463772,0.002147564516697,-0.001446831147321,-0.000667966507907,-0.007214540788305,-0.005330020207826,0.009599811867607,0.002459476753380,0.002088880949495,-0.001519011869597,0.002685953067375,0.010384513761448,0.009894997801610,-0.002728001817094,-0.006469324182619,-0.000352250922255,-0.007065782628401,-0.000631806735696,0.009180070438670,0.008374587723478,0.004589195372347,0.007819083422155,-0.007315838573043,0.000348154053852,-0.007102278727293,-0.001560294041098,-0.001945406336284,0.006996071967564,-0.004372502956411,0.001266531991552,0.009298574813471,0.006241389484213,-0.001210652293108,-0.006170746695903,-0.003707794378617,0.002284471569550,-0.006584396347639,0.009862249056184,0.007546470806212,0.009855684371988,-0.003882716584631,0.003350120183891,0.008041394973313,0.006289360442184,-0.004640997514108,-0.007739267832630,-0.005443291266410,-0.005301799801085,0.002491258125863,-0.007952621949681,-0.007462044725709,0.010689932955270,-0.005657328419509,0.002002423600516,0.005688678882008,-0.001747021471228,-0.001772806355485,0.000809256176026,0.002042486658454,-0.007430174965027,-0.005021847585660,0.001060652166732,-0.000962262640892,0.003957556425873,-0.002079978466681,-0.002668376407293,0.010462243878085,0.001757673161532,-0.005782171094030,-0.008895943359329,0.003928886667771,0.011890403143104,0.012205133778627,0.001436297608145,-0.009135024041535,-0.008899517174756,-0.002154668513770,-0.007352262889699,-0.003056799750504,0.008232178047807,0.014608217407546,0.001271580637850,-0.009493184040477,-0.006327875538608,0.001946416477446,-0.005102515371335,-0.014095881886991,-0.008616244365238,0.013553355833999,-0.006543591563220,-0.001062200972968,-0.007346896335803,-0.004095869499142,0.004676018383293,-0.012889442192663,0.001084300817783,-0.003547026399334,-0.007281671429739,-0.009722072564751,0.003973401977790,0.000531619371756,-0.000253126832772,-0.005731632376589,-0.000667957786556,-0.011109498321075,-0.011584845457681,-0.002946468393920,-0.000873081091123,0.003120679768854,-0.009066510021528,0.009114421729673,-0.003305970996525,0.003827686953813,-0.006207410806089,0.005974818350769,-0.002823737377950,0.009708992559050,0.008675905468553,-0.001946028847438,0.007842540831846,0.003046151922976,-0.003400612678244,0.000625547383483,0.008132225894288,-0.004324891831098,0.008304168556697,0.002796262542186,-0.003228981537616,0.002819748252881,-0.005744081357810,0.010441560249710,-0.007201568100073,-0.004392305260780,-0.008484358641322,-0.005696465577171,0.005926896107988,0.007385825000827,0.000414031288823,0.004807796236390,-0.004777738495031,-0.002384955311615,0.005485229553261,-0.001073042330466,-0.005006391180341,0.001887874425179,0.000496907480599,0.003146352415024,0.010222056641346,0.001246559773979,-0.008126505126719,-0.003707135423014,0.007330747617574,0.008479555408977,-0.007919603321946,0.005878343306589,0.010107128816065,-0.002588818916625,0.001123191844292,-0.002661830794287,0.008449496576068,-0.005460333325753,0.007886779473839,0.000641336100201,-0.004109933346840,-0.002519788129263,0.001160567081139,0.009652880828731,-0.002648453525582,0.002853077176235,0.005664290294521,-0.008283605808475,0.009498405719136,0.003734140140207,-0.000856106539660,0.005885792213989,0.001446307667518,-0.002401602784462,-0.002150042728336,-0.002150006045743,-0.003312035183854,-0.008411837266859,-0.004413488929057,-0.008565183073431,0.008553500673262,-0.003128094873623,0.009415348234148,-0.001473419456680,-0.004334444989945,0.003663701879713,0.002506301814709,0.000584351375097,-0.008707380557444,-0.004418690378351,-0.002164817295912,-0.002927929702459,0.000843448688578,-0.009323198125035,0.008360972222207,0.002512154759885,0.004215508268448,-0.002547554294633,0.010136448358784,-0.001553011341750,-0.002413854656479,0.010124212743582,-0.004714997454099,0.010999321098973,0.005983204222899,-0.009222926646329,0.009347983120708,-0.004248550547931,-0.005885292893752,0.002796129112024,0.007688088058648,-0.008421356012981,0.001010837733369,0.009837891757174,0.004744995859311,-0.002832261398519,0.002206243113227,0.004752328140992,-0.007757510203228,-0.004769149901700,-0.004474216345808,-0.004551444239374,0.003641026113014,0.000796368965217,0.007472354175475,-0.006427983885122,-0.004590180777970,0.002460884341527,-0.010098168809632,0.003402371428945,0.000977752714917,0.009471319463443,0.000585285492044,0.007270153647293,-0.004993851658639,-0.006609885347254,-0.007950377099867,-0.004694531335587,-0.003298546384623,0.000126425038817,0.007450790742877,-0.004229507130684,-0.003211752380257,0.000285504382802,0.003167197681877,-0.009788012092349,0.001550413807076,0.001863968055764,-0.002260806212496,0.009117615590932,0.006334300921831,0.008740692801015,0.000518687622111,0.007011066282746,0.008788854982957,0.006579488243222,-0.003223285054630,0.008268816716644,-0.004981439527553,0.007322501002857,-0.004037867939559,-0.001859852333069,0.008892187776034,-0.004507244422665,0.001493745996692,0.006453247869355,0.006802482037783,-0.008686177912361,0.000900018536494,0.009184837090743,0.009262536199262,-0.001153207332189,0.007142160055065,-0.004293796931775,0.008876579505129,-0.002502664972259,-0.001491945615632,-0.007984997606080,0.006139309482309,0.005965476885372,
-0.001760783673250,-0.007165993692505,0.006300181650637,-0.001951503620126,-0.008779797519479,0.003607768576657,-0.002609945500871,0.000110783673250,-0.003509216326750,0.008190783673250,-0.004880636571264,-0.001721106263748,-0.008874607571304,-0.000457924794058,-0.005171301684342,-0.004919222597487,-0.008868913782029,-0.008125986633670,0.001467149416100,-0.009612297955911,0.003856558677732,0.008474497751411,0.008076679249526,0.003893048151297,0.009814708206300,-0.009585663666769,-0.000332279706506,-0.007758905236993,0.004870246009068,0.002015983954164,-0.006243228626836,-0.003245431294740,-0.006366305872085,0.009659580744603,0.000245827782967,0.004727082964816,0.001201955933648,-0.004319335294973,-0.002939479470769,0.000184559014134,0.009182346379891,-0.001490740647585,0.003578018539282,0.003739330923552,-0.005432938286597,0.008185402396247,-0.002961921413193,-0.009653737259608,0.005620606234738,-0.001516400178752,0.000346836062454,0.007777393426366,-0.004725808347261,-0.008303530282398,0.006478301685176,0.009018074236846,0.008558740802000,0.005128745876637,-0.006789391149644,-0.008339352211548,-0.008063719454711,0.005270126652539,-0.004707861009122,-0.007934294568514,0.000339103576317,0.000434050245913,0.006607328517772,0.006848825467308,0.000275327485602,-0.002610395099987,0.007517210396962,0.009217259769293,0.009475636695167,0.008670057432128,-0.008649123063998,0.000938391094187,0.000881590417298,0.009504106051502,-0.006757245820781,0.005622990292170,-0.003083811732570,0.003911792355867,-0.002562575003810,-0.009337006943463,0.004812838357708,0.009642595434507,0.009909420321584,-0.000399911302487,-0.001590686514883,-0.002144590167284,0.003129600576358,-0.007616851957408,-0.003634024767894,-0.007216983801770,-0.007165726436717,0.001083373017566,0.006583206878052,-0.009909283067607,0.007390551227741,0.010282697683171,-0.004375429526548,-0.007631662955491,0.005086416596110,0.009529090802141,-0.002677377601395,-0.005063679764959,0.004157603891809,-0.002239838740479,-0.006424636428676,0.009472378574807,-0.007835419606485,-0.002791664619618,0.005407768824635,-0.006171045333197,0.004327811056966,-0.009389364063906,-0.007029818290962,0.005400292133579,0.005012057689075,0.007792833923102,-0.008202657673419,-0.002571309132675,-0.001125109824681,-0.004876154384853,0.001065102255738,0.002931362919134,0.001348849882476,-0.007036200807427,0.008845292329674,-0.002804956039724,-0.007343507440049,-0.002814335568420,-0.008145061814674,0.002381989877095,0.000570800184765,0.008890258667677,-0.001031387709923,0.000395655408947,-0.001130867455605,-0.007859391242641,0.009383130933171,0.007647816732409,-0.006936060882992,-0.006870232326547,0.005307573254241,0.004378477011642,-0.007211311113363,0.004300522668072,0.000665137937678,-0.001252691667997,-0.006604724225400,-0.006081432138581,-0.003732095859786,0.003178732474713,0.008084719074565,0.008505574540708,-0.000814167843745,-0.006797462095556,0.008339858206982,0.007087568592922,0.002030783673250,0.003940783673250,-0.004059216326750,-0.009676468865496,-0.006951573216248,-0.008056514301356,-0.003790118565531,-0.008147493218976,-0.008117623744063,-0.003646820818199,0.008703753318730,-0.009106148945272,-0.003404818132868,0.009586638827371,0.008384783756586,0.003209731805037,0.004261971043228,-0.000527341583163,-0.003984824766578,0.004222342637926,0.010273579178557,-0.007268960298197,-0.004985014647006,0.009411642649301,0.006351926140347,-0.003896091583414,-0.002647356095536,0.004185183819851,-0.003349299671310,-0.006333488696791,-0.006767584423877,-0.004607388836025,0.004505729254263,-0.009701275000773,-0.008335865751203,0.004052161402858,0.004951744848188,-0.005032032539198,-0.000787456567200,-0.005336411780971,-0.002578165046192,-0.008164378825685,0.001811648981158,0.003006864670685,0.000309838530392,-0.008988316272242,-0.004477304381930,-0.004906169983131,0.005344562807461,-0.000163444392957,0.007885492061810,0.009085941739610,0.003510794032115,-0.006608776656342,-0.008137320032397,-0.001318261897660,-0.004644645049878,0.002988978090205,0.005840810568206,0.005258447942258,-0.007136689763547,-0.001575709652225,-0.007806558823704,0.003328626561776,-0.005517116243618,0.000963906888564,0.000321025156798,0.001812792664763,0.007169899244693,0.004639579530721,0.005193098528550,-0.003215799666789,0.000788926123460,0.007431741270881,0.006867609207963,-0.003656339887204,-0.004606958380323,-0.004547549015845,-0.005552881440640,0.003855504296839,0.000664052081851,-0.003982690541350,0.009172528116312,-0.008214225239847,0.003375378976258,0.000041089519464,0.000940961939590,0.008138537033104,0.002401619707403,-0.007554483686330,-0.005307773240297,0.004679281763448,-0.003149216326750,-0.001603528337864,0.008550533181768,0.003778702557644,0.004651022728258,-0.000871392860508,-0.003044471010458,0.009992947330304,0.002017859029769,0.001743272243960,-0.003440464043102,0.002599118056331,0.007776338472818,-0.009497609670857,0.000511314454142,0.000032898412311,0.002621106783952,-0.001298619524208,-0.000122497356284,0.005420652258180,-0.000043446175126,0.006039293066372,-0.008249143296211,-0.007435990244621,0.003471280620543,0.003233010514608,0.009126492964645,0.000546310121511,0.002389904760155,-0.009491491206283,-0.006747703806430,0.006612966623283,0.004798924453075,-0.007940039302027,-0.004896235282783,-0.006971014973105,0.007294486806976,-0.007571685461821,-0.009471908247117,0.009750740746992,-0.003488758401981,0.000753830467669,0.005293650037759,0.001938868560379,0.005349895831329,0.007032194165519,0.003151494308537,-0.009486367968784,0.006375490331195,0.008111525455864,-0.009066747056410,-0.008059065800809,-0.009803942396762,0.001883839154445,0.009292801036631,-0.006351278632945,0.001635698593778,0.001900808413278,0.006694893746419,-0.006224649061364,-0.005639022223297,-0.006517486476871,0.000639425602274,0.000115986649923,-0.006304761541041,-0.001658122173751,0.008281938069509,0.003488717661014,0.005630174581379,-0.001375511307399,0.009160276037624,0.002427238893434,0.008071014121390,0.007277800805164,-0.004317323361581,0.003224148744270,0.008431056971663,0.008936138299526,0.003805454810531,-0.006481482394814,-0.009302218832544,0.003865890102628,0.007954516273585,0.010133801895402,-0.002393993788085,-0.004214239664752,-0.009120590452127,-0.009101138879635,-0.001686985118227,0.009634092298930,0.006100782625547,-0.001769455138550,0.006402140442917,0.001972888889569,0.000834598167989,0.001354690485760,-0.005854095059089,0.004577253882287,0.001238026403677,0.006462548870306,-0.005223451572024,0.009995171548532,-0.003755391196394,0.002144911258349,0.000688486243325,-0.002060956854381,-0.003650150008605,-0.000725383842533,-0.006911827187774,0.006665017027512,0.001741261124368,0.004317586405239,-0.006252615796789,-0.000787772474184,0.008873279303574,-0.002776655831445,-0.001395041969591,-0.005755039292537,-0.003545434072420,-0.008000874334055,0.008737679189462,-0.007734033570203,0.008512701486971,-0.008499607022734,-0.002300089677206,-0.002829926759249,-0.003562661902693,-0.003746439113655,-0.007305062820521,0.001749507113777,0.008984298050905,-0.008035303133290,-0.006709722871434,-0.000210924873185,0.008608377904781,-0.000503800599507,0.005803032189760,0.004933244371750,-0.003600295144677,0.002375336808204,0.004566639212121,-0.007083153373373,0.010051515598139,0.005743137077266,0.009752415744563,-0.002656393301633,0.005517338116086,0.001612314837593,0.005993788615754,0.002774412264372,0.001756180783259,-0.004989708535858,0.007956541187575,-0.004553056362563,
-0.002715057609812,0.002075164132665,-0.006864554949235,0.002125961967169,0.012786679024206,0.007144202314033,0.003867404053048,-0.007588887741763,-0.003404942390188,0.003855057609812,-0.003705604310921,-0.008864723502576,-0.001641754328792,-0.003265398426898,0.002294379628607,-0.008256081707465,0.004757925208477,-0.001149126018051,0.000314009692978,0.005149251996904,-0.000757205197422,-0.003538438994434,0.001450678723915,-0.007309840127276,-0.004187507502685,0.006060273821811,0.001219904614442,0.002701268737666,0.008294772648442,-0.008574657531469,0.007525511143646,0.011585064224530,-0.005324736020217,0.008339178063011,-0.001280590799607,-0.007122648187228,-0.001531674575431,-0.010595905557754,-0.004276982507496,0.010142109106341,0.005905135468562,0.012298623539178,-0.005799271873230,0.005473438528818,-0.007760336677512,0.001692040647776,-0.002742463943328,0.007452543236596,0.009013206239463,0.009894190294223,-0.000649486652861,-0.006604129539088,0.007375934129288,-0.006126954141155,0.000426403832862,-0.009798582192128,0.005397441603431,-0.001163050983263,0.005910545780223,0.003676019085398,0.002950636577649,0.008442816829339,0.010000714301537,-0.007335450898344,-0.011055010609181,-0.010822266350181,0.005269645254972,0.012507712838581,0.003094513841644,-0.007192773579209,-0.002700873851216,0.003128503410771,-0.003197437362108,0.007364857530547,-0.010165390684475,-0.009297690148604,0.006990522178055,-0.002403271703997,-0.000217160480418,0.007090404648358,0.002923317951251,0.009035336573713,-0.006502882393936,0.009660236327892,-0.003658808560220,-0.004639601573451,-0.006802688428615,-0.010719398261210,-0.004549518264664,-0.001184627627215,0.007820221559723,0.006978934839668,0.009326659485526,-0.001013430288995,-0.005335277696741,0.011630738035017,-0.006769414501016,-0.005019092986177,-0.000356369767132,0.009072543518035,-0.008890077939105,-0.008369524055820,-0.003796631317485,0.002674025901563,-0.009000151801367,-0.005433041348295,0.006945208272811,0.011713014801138,-0.005637871324077,-0.004032595112760,-0.000884070190392,-0.005335462045998,-0.002711175949182,0.003523785686918,-0.000231817077384,0.004477673742077,0.002797279723660,-0.002845670627885,-0.008901628524440,0.005488475069360,-0.010210408981217,0.001482836341411,-0.002454802271597,-0.002169566238996,-0.002826106949988,-0.003161477183812,0.006652526043267,0.004278372250711,-0.003680510296150,0.001096089385769,-0.000156607202525,0.002549291524062,0.006538704602246,0.000403395197523,-0.004369982089903,-0.005600403582588,-0.001474436251762,0.008579731334934,0.004722086353018,-0.002721269951494,-0.002352680702293,0.008608073854583,0.005727257231642,-0.002242230747315,-0.002855130254217,0.008835342532913,-0.005736671865122,-0.004527859202770,-0.000634223845268,-0.010068084404338,0.003562973047330,0.006517405504518,0.000693016554372,-0.002884484864672,0.008392557273631,0.004837056834070,0.003357666652951,-0.007238954421276,0.004142306646009,0.006770202198299,-0.001136574500792,-0.001187938411131,0.002207716938500,-0.006430428127996,-0.009317745568162,-0.010920685476038,0.004053298490639,-0.007765948453327,-0.004555519481717,0.001383110253569,0.006791694272026,0.007590411456180,-0.009630704147240,-0.012523664874903,-0.004417786281497,0.011552149891943,-0.002505616989613,-0.005330061990893,-0.007776021908946,-0.006554616268187,-0.003408253134402,-0.009216325185139,-0.012258129726478,-0.003593611040322,-0.000590397391484,-0.010723281174146,-0.010505951783361,-0.000416348651953,-0.003975105929606,0.008937102434220,-0.011883410507517,-0.015478260851958,0.004499496813749,-0.006622908449044,-0.008147958437060,-0.009328878112084,0.003689851513155,0.002429996504700,0.011246274544494,-0.002050268638250,0.000678453600499,0.000066371357325,-0.001110406297541,0.003986773142133,-0.001571294375898,-0.010368026570144,0.003551886870450,0.008283170509391,-0.008637947637499,-0.010725396422191,0.001916300958072,-0.005809123867527,0.001094960284884,-0.003177937258160,-0.005553868508588,0.008376067518608,-0.002802205229710,-0.008225294152811,-0.003383958688619,-0.012540420988139,0.009408074322439,0.002334229887683,0.007872818188957,0.000628574154597,-0.005472775739520,-0.006615231026714,-0.004879824010537,-0.013254603154583,-0.008205705010783,-0.006660364589395,0.003306457655512,0.008910706625914,-0.003161760163849,0.008098228680518,0.011013097410945,0.002890620566443,-0.003883802217241,-0.002084214828244,0.002619580203054,-0.005734239808479,0.005185455204701,-0.005538793875617,0.001505646646322,0.001436725991390,0.007325495949525,-0.007608483325885,0.003666046925876,0.004492634780522,-0.002303347016168,-0.003627478037433,0.006904082128642,-0.002264809845752,-0.005414942390188,-0.004806550470498,0.010576224827927,0.007884046066622,0.004791919812054,0.001849629428660,0.004031104846379,0.004612224503871,0.011334290166190,-0.002887824626730,0.007201708663693,0.009791266929769,-0.008670817291077,0.007416852286590,-0.006287225573430,-0.003120426234285,0.008037520774703,0.009339913644097,-0.004442877750353,0.003626809935883,-0.006552026417724,-0.002292752041241,0.002221920261384,0.001334567090840,0.005997290522335,0.006139511286465,0.006475442887024,0.007520130473169,-0.004434469983053,-0.007113775710746,-0.004762334519088,0.003095942692748,-0.002639075442141,-0.005686593486331,0.002794785971530,0.008058847376898,0.000713495658936,-0.005128146987917,0.004964444878570,-0.000999281954459,0.002241202001944,-0.008803694172949,0.008371222668432,0.004752517225170,-0.001397072403686,-0.003497530020109,-0.002078682631308,0.003474950794376,0.002479559735777,0.001863805639822,-0.004820669420471,0.000203480894095,-0.003688374786351,-0.004221006143892,-0.006894074678605,0.011640790219078,0.010657833631822,0.009035521767640,-0.006009338680666,-0.002248040296100,0.009786466216705,0.006163761174048,0.008736939067131,0.011707418929405,0.003378838850154,0.001888389524185,-0.001840044698764,-0.004152025186196,-0.001097683199345,-0.003431218513372,0.002285268114372,0.008463453389636,-0.001722856162217,0.009562962925968,0.006859057293077,-0.006452656395133,-0.002287357995602,0.007062584599467,-0.003722543081537,0.000972277465993,0.011826475284279,-0.006262759252211,-0.006787204320579,-0.007017933442766,-0.002635301991404,0.010860467024561,0.006933540067924,0.000215837357644,-0.006467470019146,0.005733755729591,0.006075600000098,-0.005661443554563,0.006181779129307,-0.005551863635838,0.005473469531137,0.003069717426565,0.005849241838159,-0.007020354077421,0.011170161452085,0.002789268537807,0.006989396381637,0.004926998069382,0.004931028598650,-0.006646686936885,-0.006447306487412,-0.002689179071518,0.006851991265892,0.003764974655986,-0.004003181466037,0.004661181407722,0.008752261623711,0.002796964772434,-0.003746541749927,0.000214541968763,-0.006847626994094,0.000221201402587,0.010081004253730,-0.003083284925493,-0.007775854099165,0.008403215747060,0.006107070114053,0.005867911704182,0.005570003582192,0.005608088822576,0.002126880578899,0.003983408473428,-0.007472710579546,-0.007802321534255,-0.003887977222980,-0.003245771766896,0.009436575099514,0.008323861163801,-0.003125384784370,-0.000871919297536,-0.005510976672120,0.007784397101759,0.000982511797005,0.004537391843665,-0.000813950915720,0.009122607921746,0.011167844733983,0.008979223349366,-0.007914498765377,-0.005192043647791,-0.004939453986735,-0.003898931577141,0.001377997778687,-0.008753731291680,-0.004903788207388,0.000434738290211,-0.003427025752410,-0.000982129042667,0.007567995175432,-0.007461568681344,
0.003733997158955,-0.001553997158955,0.002744573520004,0.003244028707437,0.000320025172106,-0.004896648049820,-0.004080528162589,0.007366002841045,-0.000163997158955,-0.009313997158955,-0.008953997158955,-0.008172050844173,0.000475985388631,-0.008038218432392,-0.003378451904634,0.003027695065726,0.007246694665039,-0.000095301951504,-0.007560065498786,0.005048994594532,-0.007573697124236,-0.007003691848521,0.005984085872537,0.004880718762818,0.004158804927710,0.005116270748279,-0.002986514575662,-0.001371207712650,0.008291641655179,-0.004369400630033,0.005655078875511,-0.008758392517126,0.000426578383552,0.006613899684881,0.007157108527628,0.003475612511424,0.000976002841045,0.001891516521632,-0.005351963421407,0.003262874694511,0.003719092008000,0.000807435343910,0.009996803329551,0.001045492312433,-0.000024387488576,0.003706002841045,0.002661516521632,0.007162173404995,-0.002548870838545,-0.006035635437114,-0.005644589188874,-0.007454401645397,0.001698514893944,0.004685059658402,0.008066002841045,-0.007607163050704,-0.003785474581179,-0.001073324230245,-0.002682014200436,-0.008651134427913,0.009532809733844,-0.002676604868119,0.000916164841734,-0.009083997158955,0.007812468394110,0.005885080532481,0.008206583391234,-0.008643865688329,-0.001672918224505,0.001597248045727,0.005265676929909,0.002356164841704,-0.009533997158955,0.003156002841045,0.004587842976282,-0.008487233426329,0.001586941083882,-0.008658538541923,0.003754894528073,-0.002323997158955,-0.007833997158955,0.004796002841045,-0.007003997158955,-0.004015501958173,0.005288016256241,0.009840582787242,0.007004415239183,-0.009002624991406,-0.008091080980415,0.003701768893393,0.004292470941256,-0.006973997158955,0.007070916326619,-0.001550592427621,-0.004739272147806,-0.004597609689936,-0.003850178473823,0.008372958925035,-0.003514053534469,-0.008042569878570,0.004189054858325,0.008418349843386,0.001762252928047,0.006294635628068,-0.000942551687093,-0.004835415658716,-0.005751127792058,0.006587586991846,0.004498317936658,0.006739181143272,-0.006115416685250,0.006761090127078,0.008630837201503,0.009614670527663,0.008536009342106,0.001367128777417,0.009280280414164,-0.000064192323666,-0.003794537229494,0.003006405084400,-0.006041934084244,-0.009240705548502,-0.006601449792873,0.009304776542368,0.000654822280761,0.006582000664424,-0.009375136370801,0.006286002841045,-0.004718525808275,-0.008614552506767,0.004428941536815,0.009973727408795,-0.001150272393135,0.000613722112602,0.004008469817462,-0.009665587965784,-0.004053997158955,-0.007865443871875,-0.002184183763577,0.004278216387858,-0.003384712491866,-0.004425475284937,-0.002356290069925,-0.002344075451158,0.004286671808527,-0.001503997158955,0.005689667141774,0.004494733526269,-0.001635982050145,0.009990861272352,-0.005763980953211,-0.008623997158955,0.007426002841045,0.004146002841045,0.009246002841045,0.008015796671891,0.008779441413987,-0.009308463268574,0.001761644257168,0.000866002841045,0.009996002841045,-0.004983997158955,0.006236002841045,0.002186002841045,0.003969421615419,0.000325081932163,-0.002836125529859,-0.007129542764164,0.009831106391608,-0.000645564832333,0.000800008818633,-0.000247846340680,-0.007953997158955,-0.009795789880448,-0.007440268213128,-0.000705356198371,-0.001285343887149,0.001438934771932,-0.001873545095731,0.008084668219201,0.000931914784478,0.009246612067122,-0.007060551774153,0.002535700895156,0.009758588535882,0.003098302742851,-0.006701444070866,-0.000958464277650,0.006022560968505,-0.006180851441920,-0.003462500418997,-0.002669554368007,0.007386955341650,-0.005573559898660,-0.007199426545948,0.002360840156337,-0.005349942794377,-0.008664629825464,-0.000223997158955,-0.006492197181249,-0.005456836532202,0.005079795281130,-0.006816323683116,0.005195127802431,-0.006637278988321,0.004348070036480,-0.003021265828378,0.001890604704765,-0.003241966874105,0.001432322014642,0.006609042847957,-0.000302381283590,0.009107634550951,-0.004156205763039,0.004763133819786,-0.003528423704304,0.006080950531718,-0.000235489485664,-0.003585944287316,-0.008034743438214,-0.001791133132954,0.005390430489793,0.008353535434551,0.002382365526773,0.007286132237688,0.005379524925874,-0.000396211946097,-0.008352492289890,0.007485675245373,-0.003782830536395,0.002962684238307,0.007253393307532,0.001263129388867,-0.004693997158955,-0.005853997158955,-0.000043997158955,0.004586629661702,-0.004260106719730,0.006958716351157,-0.004109000113235,-0.004617828465477,-0.003293997158955,-0.008883997158955,-0.001163997158955,-0.006403997158955,-0.000428945282544,0.000116147969425,-0.003761821110984,-0.001386309773341,0.006341739315720,0.006184153909574,0.008453495011053,-0.002633997158955,0.001506002841045,-0.008593438078345,0.005996917533723,-0.008431787451848,0.003410617563975,0.008592745974694,0.008057849142684,0.007407628361414,-0.000832581151826,0.003882978140471,-0.002110190509671,0.001039142909404,-0.009066942422151,-0.002928269833978,-0.004577343152490,0.003198606728900,-0.008982295952726,-0.008263763350853,0.000582855309991,-0.005896848067877,0.002988115972450,0.005757283454566,0.009607090967401,-0.003725001585165,-0.008556251160402,0.002339685582529,0.005829560175260,-0.005283997158955,0.007838410147510,0.004429276496431,-0.005368347268412,-0.008471558945292,0.004453814188059,-0.002512000068192,-0.008680497320400,0.002234539105552,-0.002873997158955,0.006202071301833,0.001797028651389,-0.001816576158556,-0.009237184207249,-0.007655591149641,0.004733090148380,0.004817747677602,0.006000099390919,-0.005173997158955,0.000201676992550,-0.004574170812881,0.003408796229270,0.001155012557196,0.005906532008140,-0.002671338115701,0.006462140958311,0.001653380766981,0.000806002841045,-0.004729308869994,-0.005889190127886,0.000453365239656,0.005153386048101,0.009059405674852,0.004467262589224,0.009815363240451,-0.003568385525989,-0.007423997158955,-0.009267483685718,-0.008264537145660,-0.002394992779660,0.003659254049019,-0.002273086022417,0.000590184266889,-0.004792441515458,-0.005243997158955,-0.004303997158955,-0.008565561844182,0.000658631540259,0.006063335286743,0.002009565176008,-0.008100958943420,0.002415887784592,0.006175197875823,0.000117831749044,0.003066002841045,0.007693531369358,-0.005616398392426,0.003467619253861,0.004086378474167,-0.004206702487844,0.002335377593010,0.006700647641979,-0.008452863663058,0.010016002841045,0.006323813924086,0.001739482364019,-0.002137405545915,-0.003209614461446,0.005987116402799,0.005806445755779,-0.007735340508685,0.007355684664266,-0.007367758842542,-0.008317574596835,0.004287350963156,0.002710404778580,0.003182673714836,-0.002506385656938,-0.005326970721419,0.001827671210924,0.005646002841045,0.005861108813956,-0.007772579994925,0.002357609281589,-0.000979677816680,0.007271022435287,-0.009210300913891,-0.002374553368072,-0.000385534847857,0.005586002841045,-0.002238860478424,0.007597242953779,-0.002130600724434,-0.007715225857138,-0.004309200601968,0.009435780770522,-0.008983959860738,-0.007168269859246,-0.001692802801112,0.005824114322331,-0.001621661295133,0.003998035136093,0.002754870240657,0.008966657751471,0.008389705113220,-0.001812090348994,-0.003465802657688,0.003347511035465,-0.006733997158955,0.008834352306363,0.006267114799794,0.000293935142354,0.004258172621481,-0.005412045239088,0.008960705733812,0.009902125918570,-0.006273997158955,0.000046002841045,-0.006627521952617,-0.001639282223466,0.009646524104735,0.004634910905971,-0.005948908059619,-0.006235281221347,-0.006503997158955,-0.009493997158955,
0.000643845194738,-0.004120030319782,0.003064496746818,-0.008692894336363,-0.000017167768558,0.003115586717283,0.002751331624515,-0.008684695626657,-0.000047265391949,0.001716154805262,0.005071682712607,-0.007655082770777,-0.003860292467514,-0.004655766336390,0.005755716600980,-0.001142802426277,-0.009122835084960,0.001502745804199,0.000265877922274,0.000735003666629,0.002554609287778,0.009546154560900,0.008489515527112,-0.002727202594889,-0.004693935970985,-0.009048963058560,-0.006377704581739,-0.007295645601120,-0.006078589943594,-0.000894671893926,-0.005613633960597,-0.002775887568285,0.001057554025548,0.003050535906015,0.006040155316191,-0.009353117697927,0.004503247886405,0.008305079880556,-0.009988512298499,-0.002564793855326,0.000827205879700,-0.002029906746925,0.009577040389195,-0.007859662075778,0.000521214556736,0.003256467479410,0.001012645615413,0.007733158711071,-0.003874593065715,-0.006273617530192,0.001224999224563,-0.006168655457503,-0.009060988858199,0.002929763409348,-0.006460059740484,0.008316486599156,0.009335313706577,-0.005742909732993,-0.007509861557223,0.006627885014171,-0.005674206246857,-0.007223233475232,0.007365922603045,0.000468960428985,0.003532714542685,-0.005139795450744,-0.003006576763569,0.009145426686170,-0.009231610051806,-0.000443660012645,-0.006117800985909,-0.006066293463238,0.006336154805262,0.002048586617303,-0.002092486907048,-0.001364435784352,-0.000795342107030,0.005853670943354,0.000947092530149,0.000387945337120,-0.004882585036526,0.007746154805262,0.008671230200833,0.009543256525500,0.001410196621160,-0.009157282706372,-0.006587269148254,0.005255492243134,0.007442927581680,0.006118391477735,0.009320910098491,-0.004926732236802,-0.002303843219486,0.009119226474981,0.004809958926750,-0.003529266745119,-0.001146071114277,-0.006848452926887,-0.009226021986019,-0.002178212153569,0.002623342179736,0.006442967822209,-0.005147516851745,-0.009086899342204,0.004143882862849,0.001822037105201,0.006383905381772,-0.000331647371149,0.004823513664280,-0.000559666429327,-0.006149778201213,0.007725877489430,0.006942014116907,0.000376534700532,-0.007546941146106,0.003260367109708,0.003819244782786,0.005016821578538,0.001807762046170,-0.007953167537384,0.007334994503533,0.010479607183600,0.006717087067312,0.000063051204411,-0.007670294506263,-0.006803966696164,-0.004951363170008,0.005344784525558,-0.006254766226701,-0.007667478898586,-0.004176210563417,0.007030852448293,0.002137915580729,-0.008978536915623,0.008382713684490,0.008168820374574,0.003730229885432,-0.001087413278655,-0.000401842472500,0.002915957743193,-0.002602397549094,0.007930488566810,0.004906282260654,0.010109010817082,-0.003981206373387,0.001072246186926,0.000601919285591,0.003476785222097,0.003105251506488,-0.002335606657911,-0.006880979507767,-0.005484595587086,0.006853698720613,-0.004487927089242,0.003051294286960,0.003891468560593,-0.004169533812266,0.003840248514995,0.001023093730982,-0.007923074739064,-0.001524054025359,0.005926154805262,-0.008563845194738,-0.006523619945272,-0.002442081536236,0.006482966848582,0.002271117572777,-0.004652961902808,0.003538998365640,0.005448957770358,0.007491601587203,0.000591831890975,-0.006625494271567,-0.004540981510769,0.010660851774109,0.005388290725408,-0.001013843280346,-0.003411684478823,0.000552202404200,0.007927985505730,0.002499782466991,-0.003748982119581,0.006943789169122,0.009938315854135,0.001588830317871,0.007360676005243,0.005466704755049,0.003592887675828,0.006045641247808,-0.008751914781791,-0.005898339905933,0.002809355735787,-0.002741242628956,-0.008104813820654,-0.005887830948220,-0.009225740947055,0.004489354700195,-0.002231452623327,-0.009514635694864,-0.000621151824852,-0.002371607196406,-0.008180414409165,0.004844171212871,-0.002822681712057,-0.005665617932138,-0.001671965090027,0.003862810533183,0.008075089513012,0.007772311772303,-0.007063614771973,-0.004822089690311,-0.009337999224571,-0.001481748955230,-0.009072087569629,0.008502630755588,-0.001672426975388,0.001661078112367,0.000480820208588,0.005650759125806,-0.005623207478588,-0.008581634908099,-0.009749936224116,0.003692214223707,-0.002375296991111,0.007794199960009,0.009619859314553,0.006585911267459,0.001938095331364,-0.003250934317121,0.009053341000738,0.000135990277449,0.004582120157734,0.010569179604883,-0.009042724025609,-0.007171966148619,-0.008692775872473,0.007439303487651,0.009637361079567,-0.008750171159549,0.008882203967143,-0.003398120615763,0.008432668208335,-0.005514390788415,0.003786154805262,0.006052296211399,0.000092924051756,-0.001508465589872,0.008715391896090,0.002130677638328,0.009618588234974,0.004672859537284,0.006707333349080,0.000729197096979,0.007925596335604,0.002752066044188,0.001345359584320,-0.009381663183561,-0.003214689515177,-0.007505525844986,-0.003144441630877,0.001613567622021,0.009442696010041,0.001648443808163,0.008916373233921,0.007849060771426,0.000683371225819,0.004495326407190,0.005529643827877,-0.002165781156219,-0.009611345844505,0.008700244986135,0.009488890942876,0.003145635636901,-0.009131874712973,-0.003277903599040,0.008446245964837,0.001841683423653,-0.004066307709473,-0.008330360709939,-0.008991832788991,-0.009664676330048,-0.000894706429722,0.006026729165666,0.003416837042688,0.003881574358630,0.003252856496727,0.004329084954432,0.008859560159402,-0.004473998188016,-0.002836866730985,-0.004528538001016,-0.003581573078571,-0.001412725852651,0.007977527505128,-0.001956147637769,0.007620905788914,0.007299696397630,-0.008998379786350,-0.009093816471820,-0.004788649868272,0.008970738639459,-0.001676309253615,0.009912440797298,0.002075185016962,0.001846150062901,-0.001670129382353,-0.001231075764565,0.003943680681622,0.004646328953994,0.001789898468649,-0.001643992974215,-0.005627957583707,0.007754379963830,0.002332892480523,-0.000163161472099,-0.004127486640962,-0.007186519041712,-0.000202187058157,0.004168985119793,0.006426719170412,-0.009551111140278,0.001436251160966,-0.009368917282124,0.005588605039927,-0.005922050491857,-0.004971010457155,0.006545935197349,-0.009320060332964,0.005336335475464,-0.008090801593436,-0.004780200641856,-0.003646840819792,0.001677144643888,-0.009357105360532,-0.000101590016721,-0.006897661748991,0.007682667368425,-0.005481869357746,0.003116839816762,0.005000134361013,0.009558906687864,-0.007032404670828,-0.006014633000620,0.000398564299782,-0.005472319467660,0.006219037352232,0.001588940099775,0.000383796528166,0.008573036014734,0.001017481739339,-0.003558312058547,-0.000200834633747,-0.002670429441586,0.009209520129031,0.009411597741432,0.002538466394916,-0.008403084316466,-0.008879596181346,0.007966665059077,-0.001872341330832,0.000163875393406,-0.004798356168033,0.008816910080062,-0.003770561972682,-0.007955149085136,0.001477269095469,0.007713150921467,-0.002035260384448,0.006191618914821,-0.000449347267939,0.002345379189148,0.004301299032341,0.009089268788219,0.004884034478917,-0.002787269188269,-0.000393242712580,0.003495806878465,0.008633751146394,-0.007486028939002,-0.005429672590484,0.004469948652144,0.007250891968266,-0.008261326548072,-0.008493907861312,0.007974385536204,0.000754035451953,0.002911544262075,-0.005924527642297,-0.002533102838690,-0.008311996250678,-0.005828062882443,-0.009014519301023,-0.007758452873521,0.002188411413628,-0.003144568554746,-0.007661482875143,0.007671928799855,-0.007333902482937,0.000908425773830,-0.003939818759589,-0.008901678014749,-0.003644690981990,-0.001619922965893,0.004020161270826,-0.002893510743339,0.002176154805262,
