-0.009629492583774,-0.005401309374996,-0.006736927039257,-0.005107359894380,0.001673440992892,0.007272399024493,0.004814497213925,0.003490856947063,-0.000468159887492,-0.005440507416226,0.007022807162135,-0.008803868564158,0.002733896034600,-0.001676806123400,0.009689819376213,-0.005038400446144,-0.000021901458864,0.009400529611412,-0.001712977124881,0.004410540574902,-0.006274425525505,-0.003890198673653,0.009156462600011,-0.008459035499560,-0.007163362292097,-0.006235881589001,0.004154702264935,-0.002895724454025,0.007254998364783,0.008939015851534,0.004510951232772,0.007194733408412,-0.002428538659139,0.005262836082232,0.008693041203628,0.009054290087598,0.006578170298735,-0.006853093843345,0.000444914042686,0.008859136100591,-0.003210315598308,0.007995206328097,0.003088455816590,-0.006821858191319,0.006681634495216,-0.003348972516080,0.001778821584873,0.007396941509608,-0.007611872179644,-0.001422449239369,0.005413776513761,0.006328308855914,-0.003507232154716,-0.002550310707037,-0.009691308503552,-0.001048549487616,-0.002488419428039,0.007402317931324,0.005110343458181,-0.002109403528776,-0.006880779985533,0.000409717435913,-0.008169396578207,0.008458944174563,-0.006833001120259,-0.008842336473271,0.000418551675315,-0.000685400761053,0.002571303823225,-0.003640759629259,0.004372918519255,0.007975921875908,0.008867483709447,-0.002615269967136,-0.006270122279446,0.003529424021077,-0.000048437569361,0.000809910036980,-0.006218543312838,0.005494034575062,0.006230188840517,-0.003792800419901,-0.009270998310687,0.009311611989994,-0.002746419432824,0.008165149023670,-0.000467614508698,0.003657618064631,0.009207446878415,-0.007085541512128,-0.000660300945765,-0.005742616188361,-0.003866885063168,0.003210179570775,0.005430852756407,0.005395743267664,-0.008794983277475,-0.009176256516076,-0.000866713900748,-0.004698432788251,-0.001615053620036,0.001154325457511,-0.003410880974313,0.006656291784215,-0.002962303832486,0.009302303439331,0.009739411158162,-0.006937286680791,0.006607267653903,-0.006156788853987,0.000329074709468,-0.002631528062340,-0.000958616685574,0.000528175194981,-0.007349631105701,0.008271357533477,-0.002366352617667,0.005674389500905,0.001097011286762,-0.004792963795135,0.009789278721323,0.002778213128156,0.001603634416176,-0.003608439688930,-0.006508732082301,-0.002445997460091,0.006453301467982,0.005804554287493,-0.009579719255638,-0.009475295676585,0.003410451561566,0.001607737515891,-0.000531122163698,0.007229848523580,0.009631632812263,0.004320780411249,0.000955967193702,-0.008253684052737,0.010078058644492,0.003494723698530,0.004631917217882,-0.007119027920457,0.007473801849628,-0.006177940951935,-0.000583789020581,-0.000936156277085,-0.008046979457143,0.007684171979410,-0.007649883596473,-0.003992693104332,-0.005701752403085,-0.000586845213010,0.004970206221649,0.000282336756281,-0.005912071486989,0.001591575844281,-0.000924506351202,-0.004168435084799,-0.002408820795472,0.006592194505424,0.004058522546569,-0.006400308073534,0.006149190400210,-0.004703517521395,0.005279822874715,-0.005327825056241,0.005701310554574,-0.009671206800871,0.005973203400386,-0.006654461579809,-0.007177379897011,-0.001792919700885,0.003702944467217,0.000013849835004,-0.004156970168883,-0.009891274971740,0.003479206039977,0.002000041017010,0.006601976838481,-0.005372267399080,-0.007264260148813,-0.002580927323172,-0.009388934072772,0.010218501936559,-0.005554139593339,0.009487061301925,-0.000963368865195,0.007804599921955,-0.008883347829351,-0.005315912847775,0.007441795342184,-0.000943732237319,-0.003443683831919,-0.005129142417732,0.007954542802819,-0.005969035208842,-0.007078774857192,-0.003917524791979,-0.001974897473407,0.005452898872096,-0.006529551842821,0.006387606152781,-0.000715735162519,0.004366077659694,-0.004156351721917,0.002389559966687,-0.004933410853133,0.005419264249755,-0.001578167810549,-0.006429807825081,-0.007443170454654,0.000060014172123,0.008450730702516,-0.003994630381372,-0.000205737323497,-0.003150536111578,0.001963410581516,-0.004763790623802,0.001433339065142,-0.006390660316905,-0.004859593002782,0.005976698164376,0.003155215323680,0.005004048038717,0.004480824904626,0.001907024879913,0.004829103734762,-0.003511640183163,-0.004038972148322,0.008083308780166,-0.001852608324871,0.002930953159671,0.005885685859218,-0.002059803984081,0.009999582266838,0.001546695058370,-0.005241132258889,0.006268990260103,-0.004580733563360,-0.007007546376700,-0.009530280943735,-0.008253067109338,-0.008144446433817,0.006475005039478,0.009571156964279,-0.008119999066004,0.008084200313151,-0.001162023370254,0.001572118742658,0.005140669522938,-0.007995906072813,-0.003639330325711,-0.007359317102036,-0.009515006084046,-0.006790908812267,-0.003586862243393,-0.006449412027716,-0.001108727682801,-0.001307796036348,-0.005758576564040,0.008592689603515,-0.008647807377287,0.008397024300801,0.004244331322688,0.008739391378104,0.009868077314358,-0.006798974335125,-0.003541573329340,-0.009728323357445,0.007017517806160,0.005562477683330,-0.005306212984879,0.008865345533353,-0.006202478147128,0.000743415912999,-0.002865246218575,-0.003899118292450,-0.004832544666456,-0.000039021991858,-0.001424761947269,0.008623168635433,-0.003134590338474,0.003936610459475,0.007856301351017,0.002572991634267,-0.005797442584661,0.000015526786853,-0.004185159456528,-0.008277524282349,-0.007121351057331,0.000822716092941,0.004204250337040,-0.003897375740532,0.007533886678386,0.008334077515370,-0.000802735022555,-0.008310623205916,-0.008446540172637,0.007130743662279,0.001923297301561,0.009838724757861,0.003241273794543,-0.006267952359871,-0.003174439751241,0.004211563104285,-0.004472411210787,0.004360949149174,-0.004538974909332,0.004494918691351,0.005224621047784,-0.008611486423209,-0.009462290591485,0.007148050963154,0.007600562630983,-0.008665451650879,-0.005791494967588,-0.007233776393921,0.009916320583096,-0.003116168881447,-0.004706161193780,-0.004568980297735,0.004352647521610,0.008630132416060,-0.000521749826896,-0.008023709251735,0.001883283763140,0.002979036128173,-0.005928496411569,-0.007265550675784,-0.009014791977446,-0.005220255231990,-0.007223127514854,-0.005483042756975,0.007255346239447,-0.008908764342053,0.006949526444210,0.002996966007907,-0.003414273967786,0.007833272729035,-0.007404841990190,-0.006871278760481,-0.006565126316897,0.001711413457958,-0.009515040397732,-0.000862478186901,-0.001941459355367,0.008368724270039,-0.000602006032774,-0.006867104076162,0.007441133969133,-0.006924437595519,0.005508862077498,0.006415372931750,0.009728399851568,-0.005140828631647,-0.008534962583114,0.001914522032225,-0.007858629331955,0.001261811122345,-0.008377745582765,0.005360431430391,-0.005538767406364,0.001759416923737,-0.005357685050328,-0.009600138773462,0.006506623868390,-0.007217075663150,-0.005747082999966,0.002453539827788,-0.009831337787170,-0.008472059049514,0.005133669836941,-0.002432129370829,-0.003580841962951,0.001824112926257,-0.006872851114431,-0.005272188444946,-0.009906485598116,-0.008298131717396,-0.009750685498378,-0.002052919856854,0.009140220709717,0.009543456813076,0.003926252120968,-0.007984147079066,0.006267072125668,-0.005325795834475,-0.005841767921635,0.003201872409168,0.008228769169791,0.003308813323224,0.008727515879092,-0.006315846286629,-0.008438058764309,0.008322393335905,-0.009402033349191,0.004879736441293,-0.007108647798217,0.005222904378300,-0.008169265198991,0.007752246072160,-0.007381053094383,0.007691288663822,-0.003265315814529,0.001883486525392,0.009831227729477,
0.001060394320947,-0.005174414664140,0.001998947022185,0.006143839200694,-0.002034336592821,-0.009042246618240,-0.004919470557716,-0.003816074722528,0.005375679712941,0.009189605679053,0.000237720112450,0.009474691950777,0.000406185820676,-0.008261159853846,-0.000149840656234,0.004187586703456,0.004941678458114,0.005766871105680,-0.002906298541071,0.000246672432550,-0.005295962127433,-0.008689651648648,0.002185356208919,0.002660227349264,0.000623460858503,0.009008897560957,0.001766005899342,-0.006482627505848,-0.006004908503674,-0.000506054597395,-0.007395960026603,0.001574874801346,-0.007683832731012,-0.001710773906073,0.007083733204082,0.007472399098867,-0.001173158488318,-0.003355397239237,0.002706630649185,-0.004638146592457,-0.008697121425320,0.006884938535966,-0.002848877090695,0.006209403406397,-0.009964029338324,-0.008806508258168,-0.004366195951690,0.006719588703482,-0.003684230806533,-0.007294278032334,0.003633906240406,-0.005238715295992,-0.003168481221295,-0.004197755854886,0.008348176564332,0.004695308714260,0.000141213936865,-0.005612149713697,0.000949968763972,0.001432705677516,-0.001922272535273,-0.009223059954216,0.000418657232728,0.009207574009711,0.000027697896768,-0.002459205199802,-0.008546962766045,-0.007045566969511,0.005721438270414,-0.007903684942195,-0.009667201078603,-0.002574058249004,0.001553345328092,0.001053783849959,0.008784599227026,0.000693384774608,0.005390469601030,0.004853243603462,0.005566878889432,-0.005366410852634,-0.003800596647232,0.006095049562861,0.006293419199920,0.009199684143911,0.004098943057115,-0.004963160641619,-0.001021951990989,-0.000481980971720,-0.008808789546209,-0.004189289442874,0.007317418512785,0.002492790094819,-0.008252983497729,-0.005077054269891,0.002517258785064,-0.007545595171287,-0.008102868903057,-0.008958322122490,0.000227094213807,-0.006883960008698,-0.000098841128322,-0.002514883562155,-0.005971477714025,0.005322057166054,0.001374047140384,0.005109823959946,0.007777657716296,-0.000827322346201,-0.008293786549503,0.007483436904296,-0.000645173881557,-0.001675078575522,-0.003735298795476,0.007945488778995,-0.001262972225900,0.007057923163428,-0.000514603564337,0.005648879919494,-0.006443395164672,-0.000061813986904,0.004564402916158,0.001694034560006,-0.009846095759934,-0.005850715264388,-0.007081413197727,-0.002508337066201,0.003428853295481,-0.006876471338694,-0.005370588609212,0.000969688280104,0.000935904513837,-0.001260368075591,0.007849282647439,-0.001759669844991,-0.005611846160081,-0.005936527423651,-0.000228314424097,0.003620297214978,0.003921591653778,-0.004618513923106,0.001047792240327,-0.003110951785469,-0.001861450378960,-0.006790516319914,-0.009460166453223,0.003312790065158,-0.001857266893737,-0.005187137041318,-0.004519215820993,0.002066398692672,0.006254818226161,0.003476475471766,-0.004845419343516,0.003453874211130,0.003178334916872,0.002559114398403,0.008548669018598,0.003423809112179,-0.001157833407988,0.000108730124824,0.005981608631935,-0.008980236441087,-0.002939966940363,-0.003031481533876,0.005919088107990,-0.009711675072614,-0.005886919873979,-0.008808106744831,-0.007841414848236,-0.004407346517259,-0.004471020501208,-0.000770528528964,-0.007097230954103,0.008312489556118,-0.009718647736659,-0.000543404513452,0.005748362176965,0.007114977953328,-0.003534473076677,-0.000373170004941,0.004434972523202,-0.006403672434483,-0.005004624857398,-0.000585434753042,-0.003990717196942,-0.005236973907743,-0.000820889405811,0.006470701405602,-0.009278918537220,-0.001628314949701,-0.003308364437998,-0.000761126249865,-0.007927246842584,-0.008900068353248,0.007199840709739,-0.004906756512272,-0.002489550361134,-0.008245271989137,0.004471936183741,0.008159213077930,0.002087695150269,0.008325556475657,0.005826487212073,0.008843936475196,0.001988270100215,0.007847003205055,0.008447238768953,0.003868874237121,-0.007342773775742,-0.003223852708121,-0.008352881979599,-0.003044920648563,0.006197460028505,-0.004649112916543,0.005670195291888,0.009901256102340,-0.008363336869581,0.006847264699760,-0.000515231360230,-0.004746191115889,0.008563578391947,-0.007001292518967,-0.005770884946732,-0.003661457164643,0.008334487365868,-0.001700837211496,0.001314884648086,0.004543494206424,0.005934095848578,-0.001409950851778,-0.005779666662463,-0.003242693183891,0.007528229633440,-0.005710802295830,-0.007242360319276,-0.003352722589647,-0.009644732112681,0.003051740085661,-0.001345119171745,-0.009385181469353,-0.001907207619810,-0.003965758082539,0.000143664477829,-0.000788972383579,-0.009041513405391,-0.003254688519610,0.001562194286232,0.008157072642691,-0.009745100279053,-0.005289338463338,-0.003319842601311,0.000768344565362,0.004828502086391,-0.004179465515674,0.009708264989444,0.001339748290756,0.003401719446258,0.003014533980709,-0.003615943064602,-0.002758221103559,-0.009715095977542,0.002482521366120,-0.006701130363511,-0.002485772897900,0.001817499877726,0.005942666086692,0.002469617305074,-0.008273487975114,-0.005136100632610,0.008229028684285,0.007587133012037,-0.004068451355281,0.002722927787142,0.009861040868856,0.005300177806342,0.005365151402302,0.005472487764217,0.006096079479074,-0.005368844436480,0.005245141609980,-0.008899615881656,0.002185274507958,0.007924050648466,0.001497382451945,-0.004183499288605,-0.009326742281557,-0.008004316988251,-0.003219927432221,-0.007938972304700,0.009748258495113,0.008071447976678,0.005936028270763,0.003698448012794,0.007429063506057,-0.003409782745181,-0.005896970637465,-0.009886586526929,-0.009217985885420,-0.009361518906248,-0.002254718731501,0.004864277199577,-0.000473946115187,-0.007228590152798,0.008266553123419,-0.004140380016262,-0.004978910561623,0.002070929415787,-0.003525361217013,0.007002333196519,-0.006420448980261,-0.000018502611696,-0.008452332892893,0.004712175866081,-0.007676287198198,-0.008451227610277,0.005225987153778,0.006111544549838,-0.001009673534027,0.005823208916579,-0.003053072825793,0.007982598775327,0.002281533785549,-0.002501864636023,0.001891743932836,-0.000316062865264,0.005358455358586,-0.006974162870404,0.004147285434478,0.000856425722653,0.002396662879138,0.005735735123887,0.006378934180657,-0.000340312979488,0.008511222334533,-0.001006731445922,0.000680919655740,0.005295353486788,-0.003058582632972,0.005344689504811,-0.003386605931654,0.007635315496168,0.002508474256674,-0.004895831921506,0.009741479741847,-0.007329097649020,0.009283711790502,-0.001416144579328,-0.004741653183930,0.002277887070308,0.004916780999856,-0.006984371032909,0.008527440126073,0.005923096719100,-0.006977014003655,0.001164572157220,-0.005452271317891,0.001329740456800,0.000712005858887,-0.004411161989619,0.007485554881700,0.008834461586032,0.000917327563937,-0.005894680458986,0.005172813056154,0.005841349303013,-0.000569153508537,-0.009978754189143,0.005651294522795,-0.009729244914485,0.005284719266524,0.003306399800855,-0.009174377269722,-0.000673499750197,-0.003823218239151,-0.006139485870539,-0.005560492119528,0.000495381869599,-0.003220980125877,0.005838569043582,0.003307623024514,-0.003971583998482,-0.009628308240008,0.002030921922196,0.007494189184277,0.009348573480810,-0.001245274696600,-0.008667410113444,-0.003160228062634,0.009394964493034,-0.001693297008879,0.004138542819265,0.006021544577132,-0.002561356087249,0.000496618636650,-0.004726106692870,-0.002346567021850,-0.009811858056523,-0.007948239962857,0.001747843493459,0.000312760931652,0.008433168307754,0.006133194547342,0.002156886195510,0.007356733920725,0.009094456539410,0.003533222237418,
-0.007541810149504,-0.002513487170841,-0.000636725777698,-0.000535180811549,0.003136562635111,-0.002870068126142,0.003990844410491,0.000107727607800,-0.006600840211659,-0.000188189850496,-0.004677099341384,0.004797012808324,-0.004288737238124,0.005185932573436,0.009600394355542,0.003290276487004,-0.009324308578396,0.009008384076846,-0.008705483727373,0.001785334044424,0.009199183960394,0.000527885340086,-0.005707567322367,-0.003987818109499,-0.008495123457069,-0.005868046951466,-0.006157914300883,-0.003025577739781,-0.003798562894235,0.007817337173513,0.003564757262424,-0.009076586326009,-0.004405638113424,-0.009802988867772,-0.002739018426016,0.001244031437627,-0.002048060215217,0.009995715237151,-0.007606428088980,-0.003664716559857,0.009251185845150,-0.001808202361310,-0.005289313579924,0.003538563801955,0.000026789812408,0.001273066770538,-0.007768772893218,0.008247094146338,-0.003935456947746,-0.009877954861790,-0.003856533388342,-0.008186126844942,0.006808849838264,0.006464650438552,0.006550606999372,0.006135966517670,-0.001196661647250,-0.006525870021957,0.004169694385058,0.004406390274395,-0.010092907563712,0.002542912499439,-0.007826491433610,0.004469724452236,-0.007160852674319,-0.003798477374583,-0.007092983460801,-0.007396151199380,-0.008581512319012,0.001052866397044,-0.006955620010295,-0.007946121036389,0.000903874981749,-0.009892512092023,0.001840300268618,0.000724235743632,0.003166336589934,-0.001542649525725,-0.009733908950881,-0.008622630972064,0.003409830527819,0.002515197771595,0.008912068668872,0.006667871441807,0.006176310588912,-0.001120832831086,-0.001114430509987,0.005514349744246,-0.005364062536989,-0.000726642075350,0.002755102617727,0.006442183495233,-0.003488295949069,-0.007923345173186,0.003860148259527,-0.000952558418907,0.008132201905978,0.003392499344172,0.008617920888888,-0.007593638795900,0.000043038956223,-0.003887716735275,0.009555337566892,0.009831656011295,0.009310622971161,0.007732329037172,-0.005129348917826,-0.006166634060743,-0.003344841221306,0.003033149909955,-0.003022765507537,0.005889258074019,-0.002927425086996,0.009218597300877,0.000296838387506,-0.005758459787418,0.004631246357442,-0.007605782897086,-0.004998928976658,0.009569830568482,0.009572191474549,-0.005208212981342,0.004986795467194,0.002538353400297,-0.000626157228543,-0.001298185993817,-0.009344703610822,-0.003196174105657,0.009474308017405,-0.007656378310358,0.000963452742669,-0.008055340805966,-0.004731551424626,0.007915966070143,-0.006953714340642,0.000268001567854,-0.008149618786587,0.002600072700883,-0.009421014135038,0.009452431521824,-0.009307248545920,-0.003140635265550,-0.005494325873167,-0.002604904784600,-0.006407277574595,0.007956996632183,0.009349912903812,-0.004653374607350,-0.008986865640768,0.006724552227728,0.000961380523148,0.008792903884916,0.000551237220017,-0.002177370287042,0.009614105440157,-0.008802885178608,0.009397318739089,-0.003298559908696,-0.009059068867991,-0.010019094464876,-0.000698387512300,0.007781912714655,0.007182331093574,0.003462708137293,-0.009827167350110,0.001647108092867,-0.002344828778326,0.001933052002154,0.000628695278454,0.008744302811641,0.009559703249139,0.000642508394364,0.003230732788284,-0.001568363095866,-0.008755857737263,-0.007168090746403,-0.008556805721636,-0.002013375191965,0.006508016614022,0.006091202660760,-0.003717727497990,-0.003956879106905,0.002989058114829,-0.003193389571854,-0.003093396438101,-0.009262615763636,-0.008966477606068,-0.007644927922920,-0.003474836505644,0.005249533766618,-0.003183184032363,0.008603116687673,0.004037241366665,-0.005898679655491,-0.001766833945263,-0.001935661500726,0.005285567998320,0.007319748235910,-0.003406138506316,0.000889879859899,0.006705299904821,0.009460401304486,0.003348120307220,0.006786819684438,-0.009778839493062,0.006839981057066,-0.002597100064139,-0.009287886967615,0.002914616835503,-0.006087855120996,0.008746408615146,0.008521446693357,0.001099583739325,0.009229704678538,-0.002738837154103,0.007447245841948,-0.005967420277680,0.005005943348553,-0.002166591037223,-0.007536195878245,0.003167055487784,0.005938598471521,0.008667956306342,-0.007319423578837,0.004475126361956,-0.000040974252582,0.001142734861176,-0.003919999068162,-0.009002064375684,-0.001916180105276,-0.009176376018105,0.005269123484010,-0.007314325231644,0.002733863705978,0.009739670812797,0.001333654354277,0.000536372646748,0.003386009740549,-0.002873180434355,-0.007518724137900,0.004746654629849,0.006974821331460,0.001244206887277,-0.009058813947657,-0.005744376828007,0.009490845508896,-0.002947230805946,0.006877098019816,-0.000098008965896,0.000479180031289,0.002534296274474,0.004714131603184,-0.007758731626749,-0.005944922599622,0.008989077832804,-0.001434981460920,0.006482508006969,-0.005208555418358,-0.005354006419725,0.001817633474702,0.004543667223730,-0.003847440050548,-0.008504782301666,-0.009895525243627,0.001394233899547,-0.006202349321693,0.000269776982831,0.009190410400295,-0.003617272046273,0.004362925288682,-0.004078426490830,-0.002104860522496,-0.009075332263398,0.008106954539551,0.002709350829450,-0.004102388618503,0.002763145905171,-0.002149618861915,-0.006608940833603,-0.005658406502074,0.008734131256252,-0.004628914816899,-0.007065511931507,-0.004354452968123,-0.002486407853848,0.005601821511564,-0.006807637093204,-0.006143262434031,0.004022678625165,0.008820542322785,0.008119152202327,0.008425659559962,-0.002021307576625,-0.007900441866206,-0.005613594619188,-0.000871980729882,-0.003409140444117,-0.007688601572366,-0.004988925498864,-0.000701388277188,0.005409513372418,0.001347955272182,0.001450141187494,0.006484800082808,-0.003411867307329,-0.002108058316093,-0.006528284542806,0.007335106861985,-0.006154781657562,0.001300236479284,-0.002965251404168,-0.000699710230064,0.001739870331880,0.005530825697870,-0.003748369666570,0.006406067785642,0.000631276873466,-0.005013731775478,0.005109050262262,-0.005297223444692,0.006076162200857,-0.004830977612855,0.002205362769511,-0.004431119786500,-0.001005519818148,0.004549322990648,0.005429591946694,-0.000575585867119,-0.008497462189046,-0.004941879285125,-0.004607834301885,0.004569650891758,-0.006747784172012,0.009029716394347,-0.006700077041973,-0.006809057563249,-0.000930637251220,-0.001018514981014,0.007223785773851,-0.006796225082161,-0.006812432373423,0.002704615029427,-0.006187324281785,0.006291085798277,-0.003095091534000,-0.008582661626601,0.005710954754773,0.009380459565772,0.001197123041815,-0.005072288807315,0.003238813949536,0.009946377718129,-0.006725642839334,-0.003829079883568,-0.003560121095799,0.009619568037992,0.005954818038571,-0.004495373258584,0.002685056397770,0.000801913135290,0.001456043465958,-0.006360076046438,-0.003627649489432,-0.008144349531193,0.008682943878042,0.008102937067792,-0.006207444830826,0.005719838146139,-0.007492484431962,-0.003665184862533,0.001583162840081,-0.001903343508028,-0.000607297371156,-0.004094276493596,0.009369517214684,-0.007251013540048,-0.005832891234182,0.005659728260449,0.008032232419204,0.005749730352088,-0.007995742346782,0.004274276936258,0.006115713904587,-0.003959617556976,0.000484033068835,0.001505602080342,-0.001236176964769,-0.009413727317488,0.004957642739735,-0.007229531806469,0.006783411886261,0.005662820733586,0.005775802835763,0.001433900574560,0.001437039788294,0.009499793551542,0.003369954077682,-0.009870206736615,-0.007491657604809,0.004125371536438,-0.005049257834013,-0.005846716438655,-0.002486955276291,-0.002327536281354,-0.001102706656780,0.005360399433932,
-0.008200000000000,0.003790000000000,0.004880000000000,0.007620000000000,-0.001260000000000,0.003640000000000,-0.001050000000000,-0.007590000000000,-0.005420000000000,-0.005260000000000,-0.000310000000000,-0.001920000000000,-0.008910000000000,0.005350000000000,0.005670000000000,0.007850000000000,0.005930000000000,-0.008200000000000,0.005810000000000,0.009470000000000,-0.006650000000000,-0.002460000000000,-0.005200000000000,0.000120000000000,0.006670000000000,0.004280000000000,0.004220000000000,0.009100000000000,0.007580000000000,0.009650000000000,-0.006040000000000,-0.005870000000000,0.009080000000000,0.002150000000000,0.007540000000000,-0.005790000000000,0.002020000000000,0.004720000000000,-0.006830000000000,-0.000420000000000,0.009430000000000,-0.002070000000000,-0.008380000000000,-0.003090000000000,0.003620000000000,0.006840000000000,0.007770000000000,-0.004820000000000,-0.004590000000000,-0.000410000000000,0.004460000000000,0.000190000000000,-0.007260000000000,-0.007910000000000,0.003170000000000,-0.006250000000000,-0.004310000000000,-0.000650000000000,-0.002830000000000,0.009740000000000,-0.009930000000000,-0.002310000000000,0.002160000000000,0.000960000000000,-0.008340000000000,0.008450000000000,0.004810000000000,-0.000790000000000,-0.006780000000000,-0.005170000000000,0.006680000000000,0.009620000000000,0.006380000000000,0.005310000000000,0.006700000000000,-0.003430000000000,0.000530000000000,0.009810000000000,-0.008200000000000,0.007800000000000,-0.001800000000000,0.007240000000000,0.004120000000000,0.008640000000000,-0.003080000000000,0.006040000000000,-0.003060000000000,0.000220000000000,0.004030000000000,0.005430000000000,0.005040000000000,0.001820000000000,-0.007770000000000,-0.007750000000000,-0.005700000000000,0.003030000000000,-0.005100000000000,-0.001540000000000,0.001160000000000,-0.008900000000000,0.006390000000000,-0.008650000000000,0.001870000000000,0.004540000000000,0.008620000000000,-0.003190000000000,0.004520000000000,-0.007430000000000,0.007050000000000,0.007840000000000,-0.003750000000000,0.004600000000000,-0.000380000000000,-0.001810000000000,-0.001110000000000,-0.005720000000000,0.001750000000000,0.008710000000000,0.007580000000000,-0.002980000000000,-0.006430000000000,0.003810000000000,-0.004180000000000,-0.001810000000000,-0.007640000000000,-0.009810000000000,-0.008370000000000,-0.004130000000000,-0.008410000000000,-0.006740000000000,-0.009640000000000,0.002950000000000,-0.008320000000000,0.000530000000000,0.009230000000000,0.004830000000000,0.006700000000000,-0.004880000000000,0.006490000000000,-0.007430000000000,0.002100000000000,0.008560000000000,0.007710000000000,0.002760000000000,-0.002590000000000,-0.003940000000000,-0.005300000000000,0.001250000000000,-0.005750000000000,0.008390000000000,-0.002920000000000,0.005020000000000,-0.001400000000000,-0.001470000000000,-0.000670000000000,0.008810000000000,0.002530000000000,-0.002610000000000,-0.004000000000000,-0.004110000000000,-0.005560000000000,-0.003400000000000,-0.009500000000000,-0.002600000000000,-0.002030000000000,-0.007320000000000,0.004800000000000,0.004260000000000,-0.006380000000000,-0.009410000000000,0.005830000000000,0.003860000000000,0.008300000000000,-0.006440000000000,0.003240000000000,-0.009650000000000,-0.000760000000000,0.004780000000000,-0.005730000000000,0.008290000000000,-0.002370000000000,0.007350000000000,0.008010000000000,0.005940000000000,0.008320000000000,0.008820000000000,0.009670000000000,0.003250000000000,0.003380000000000,0.003640000000000,0.002290000000000,0.007840000000000,-0.003950000000000,0.002480000000000,0.006420000000000,0.004240000000000,0.005310000000000,0.002050000000000,0.002630000000000,0.004960000000000,0.002320000000000,0.006360000000000,-0.009960000000000,-0.001720000000000,-0.008110000000000,-0.009080000000000,0.008030000000000,-0.003670000000000,0.005190000000000,0.008420000000000,-0.005380000000000,-0.003810000000000,0.008770000000000,0.001870000000000,0.008450000000000,0.009860000000000,0.006850000000000,-0.000830000000000,0.007720000000000,-0.004330000000000,-0.000750000000000,-0.004720000000000,0.003390000000000,0.004810000000000,-0.001010000000000,-0.004860000000000,-0.005210000000000,0.005360000000000,0.004890000000000,-0.008100000000000,-0.007620000000000,-0.000010000000000,0.005600000000000,0.008270000000000,0.008400000000000,0.004820000000000,-0.002160000000000,-0.004800000000000,0.005250000000000,-0.002040000000000,-0.002230000000000,0.003860000000000,0.002040000000000,0.005430000000000,0.005680000000000,-0.000340000000000,-0.000440000000000,0.002730000000000,-0.009270000000000,-0.008170000000000,0.006200000000000,0.004870000000000,0.008200000000000,0.002610000000000,0.007810000000000,-0.004210000000000,0.005720000000000,0.001540000000000,-0.005920000000000,-0.005240000000000,-0.008410000000000,0.004480000000000,-0.000820000000000,0.000680000000000,-0.006250000000000,-0.000050000000000,0.009540000000000,-0.007970000000000,-0.005260000000000,-0.005060000000000,0.003630000000000,-0.004090000000000,-0.008110000000000,-0.009320000000000,0.007160000000000,-0.003950000000000,0.000100000000000,-0.002530000000000,0.000510000000000,-0.001160000000000,0.001480000000000,-0.003250000000000,0.007100000000000,0.009230000000000,0.004400000000000,-0.002600000000000,-0.000480000000000,-0.001900000000000,-0.001390000000000,-0.006090000000000,0.004530000000000,-0.003950000000000,-0.001010000000000,-0.004020000000000,-0.008740000000000,-0.003220000000000,0.001940000000000,0.000190000000000,-0.006200000000000,-0.004320000000000,0.002370000000000,0.005160000000000,-0.000020000000000,-0.003340000000000,-0.007590000000000,-0.001270000000000,0.002370000000000,0.005220000000000,0.007430000000000,-0.009010000000000,0.006070000000000,0.000870000000000,0.002930000000000,0.009120000000000,0.006710000000000,-0.008270000000000,0.005730000000000,0.000460000000000,0.005640000000000,-0.002560000000000,-0.010000000000000,0.007180000000000,-0.009310000000000,-0.000060000000000,-0.003230000000000,-0.003360000000000,0.007400000000000,-0.001110000000000,0.007790000000000,0.005580000000000,0.000920000000000,0.006020000000000,-0.008310000000000,0.002380000000000,0.009150000000000,0.005110000000000,-0.008370000000000,0.000530000000000,0.001860000000000,0.009710000000000,-0.000820000000000,-0.002550000000000,0.006490000000000,-0.000190000000000,-0.008570000000000,-0.005620000000000,0.005620000000000,-0.004960000000000,-0.003780000000000,0.009020000000000,0.008720000000000,0.007840000000000,0.004620000000000,-0.000990000000000,-0.008580000000000,-0.003220000000000,0.000870000000000,0.008110000000000,-0.000640000000000,-0.001560000000000,-0.003700000000000,-0.009610000000000,-0.007640000000000,-0.004530000000000,0.004830000000000,0.002110000000000,-0.008520000000000,-0.000530000000000,0.001720000000000,-0.006100000000000,-0.008350000000000,-0.009110000000000,0.000640000000000,0.000520000000000,-0.004880000000000,0.002570000000000,-0.004280000000000,0.000680000000000,-0.001300000000000,-0.008670000000000,-0.003910000000000,0.009320000000000,-0.005560000000000,-0.008300000000000,0.009610000000000,0.004830000000000,-0.002620000000000,-0.008540000000000,0.003320000000000,0.008590000000000,-0.007970000000000,0.002740000000000,-0.000060000000000,0.004190000000000,-0.001080000000000,-0.006410000000000,-0.004920000000000,-0.001200000000000,0.007950000000000,0.006330000000000,0.002280000000000,-0.008140000000000,-0.002980000000000,-0.005240000000000,-0.006820000000000,-0.004650000000000,
0.003506189574566,0.004361438953649,-0.008112614186818,0.006290053399989,-0.007454964619052,0.007377702274770,-0.008337404993596,-0.006070115379442,0.006382067662738,-0.005326189574566,0.004596728108535,-0.009848807419077,0.005792785753019,-0.001516079567220,0.002392980060422,0.007618511657266,0.003179425424571,-0.005183691949603,-0.001587803510058,-0.005742322401092,0.000538981594376,-0.005708083785490,-0.008113413602496,-0.009064767121119,-0.002710603475740,0.007972072794816,0.002728754524418,-0.007465987008700,-0.009916184028957,-0.005693631104527,0.009231614461817,0.001085352008475,-0.007030131263524,0.001091586758701,0.003557815206308,0.007603696995611,0.008317948071488,-0.000171944384894,-0.009393589462944,0.002278154831748,-0.000986340876339,-0.003876712439551,0.006241624155921,-0.001397703269957,-0.008644192060602,0.002127188799181,-0.002589246829709,-0.003402254014649,0.009006447116899,0.006551622034346,-0.005726504677039,-0.002268915720367,-0.000645457213053,-0.008225303942424,-0.001695614347087,-0.006597999670224,0.006996786239160,-0.004434440398215,0.005430385070697,0.002207090466584,-0.005504469152035,-0.007536181511925,0.005362709474156,-0.006736360299191,0.001724607776298,-0.007303600239403,-0.003168699775156,-0.009059628575019,-0.003785442357652,0.004387459292345,0.001555719872339,-0.004856382596978,0.009621579767169,-0.008977872759359,0.004600118646054,-0.006296072098179,-0.007657857895067,-0.001383601380555,-0.003544606373434,-0.002131177075788,-0.006580966093556,-0.009977787444126,0.009809037602752,0.003109537283316,0.001388210012604,0.004054513696464,0.006367606553871,0.002757554828699,0.001837699583127,-0.004539247879739,-0.000783080272313,-0.008022357157949,0.001479176720404,-0.008608138276385,0.003712055068864,-0.003326423210313,-0.000122419363862,0.006620517843538,0.004986397882814,-0.002382820689328,-0.009143840648497,0.009665232526737,0.009560562047591,-0.000376272844488,0.006000467215967,-0.010054297034474,-0.004006909356131,0.006672584107398,0.001490285183549,0.008863415724456,0.009063810018080,-0.009104092791239,-0.009059694501822,-0.006450692794853,0.001790982662086,0.007790762319167,-0.005197559334978,0.001865210604620,-0.005931374687749,-0.003043154907350,-0.007456243350462,0.007901412133923,0.003857017149073,-0.009206813630571,-0.006768174272272,0.005823567504967,0.003271238751480,0.002548933705129,-0.006323111758539,0.004138711096738,0.001500207774282,-0.005193324391733,-0.006568258907806,0.008030921065547,-0.009570512266162,-0.005973741699265,0.001337216425964,-0.007638297067357,-0.007618961079228,-0.003377787404363,0.008487013271744,-0.006849705183796,0.002770805459290,0.005774337402920,-0.003462426157196,-0.006101732704308,0.007514058909925,-0.000014436506202,0.003947080668214,-0.000158447268699,-0.004730191607473,0.005152618218963,-0.009919722175732,0.003634366618088,0.003373055173828,0.002692270655741,0.006209301332314,0.001675948938465,0.000721108204565,-0.004381986632463,-0.000324886853359,-0.002586021740943,-0.005316409230701,-0.007849583539489,0.005013393627543,0.004733332273012,0.004264467103821,0.006467414744161,-0.002581142642457,-0.009228920908560,0.000579287724395,0.000682596122277,0.005283217137467,-0.007921646694290,0.009466079447583,0.007522273633570,-0.001366883033198,-0.009018786682505,0.006349009278385,0.003175811195339,-0.004369352790763,0.000800781817649,-0.009276852312989,-0.001499711541679,0.004047428466793,0.007226653544717,-0.000440876310435,0.002319559045057,0.001859405744537,-0.009417179130718,-0.002390952171410,0.000312033237500,0.005175144674952,-0.000612108059566,0.007688438413656,-0.003659841323444,-0.007539641438361,-0.003592288271872,0.009182247713259,-0.009016098606867,-0.006382671928151,0.008751446135093,0.007169522580624,-0.001873793297148,0.006599024726741,-0.000215795557269,-0.005442732490412,0.007210750951776,-0.009310331824574,-0.002001268175561,0.005471501660020,0.001432107567850,0.005846916479982,0.008067666881942,0.008870411661161,-0.005753249619496,0.003597281784990,0.005464427981206,-0.001353198917430,0.009354408301280,0.000536730133080,0.008126807564054,-0.002410996248780,0.001598845165231,-0.005171911202945,-0.009418538694975,0.003337456248910,-0.009364496011663,0.000462862096013,0.004760735634244,0.007265606111368,-0.004788276279905,-0.005523127619643,-0.002523766255176,0.000741349646940,-0.001332588831225,0.003171707637682,0.000662947465498,0.003914523378407,-0.002982105806624,-0.000694251330803,-0.003568959764496,-0.008730708935134,0.005638755338731,-0.005363519785710,0.001463526482126,-0.007133396226720,0.003743395957624,-0.007911610380222,-0.000016075759405,-0.010117055152364,-0.008880808134816,0.004352398638616,-0.002586745550541,0.000171297061169,-0.002710853692448,-0.009894045960730,0.009055172745966,-0.005146268035531,0.002317664119638,-0.010094347061399,0.003397963467399,0.006929629365909,0.006989787917783,0.006310150538593,0.002734187165234,0.003187814639614,-0.002612175587226,0.001592485611867,0.008695514781876,0.002836506319358,-0.003841591733768,0.009605101715802,-0.008232284873555,0.000740910141235,-0.002357425911713,-0.003530698379460,-0.003323119960662,0.006378609736249,-0.002658793278144,-0.009892928216132,-0.009977403524490,0.009647365137191,0.000245926579849,-0.007713326814657,-0.009374308205716,0.004004605052430,0.007931272330642,-0.003096545886788,-0.007744637410192,0.000330970619819,0.002148325671530,-0.003673750292656,-0.001594159462969,-0.002469647675131,-0.005591646364919,-0.000120876967011,0.000277921423673,0.005790743589951,0.004620859342554,-0.006995914379591,0.002620355419565,0.003000381046804,-0.004765806298777,0.006606578608979,0.009643010101626,-0.004413747435148,-0.003158568107314,0.002444060167310,0.009246817878126,0.001911680379040,-0.005595937721761,-0.008426053408205,0.005598147878349,0.009266552678644,-0.000402014401949,-0.002467382379259,-0.000072453930700,0.002440017606243,-0.008893587241512,0.004632815942032,0.001690366841597,0.000026960628273,-0.009280402024762,-0.000846468760393,0.007573196185370,0.009753297187741,-0.002281400275068,-0.000613326658684,-0.000563865776241,-0.000157398895231,0.000827449303860,0.007871756441476,-0.004600668235327,-0.003438752140507,0.001223292339047,-0.003579179551846,0.004400188709552,-0.000246197967842,0.005305459877520,0.005763577808642,-0.008062265161273,-0.001822216332569,-0.001731070470650,0.003575858731521,-0.004545466497716,0.000034820863609,0.002386985960904,-0.002252912856498,-0.003007890540205,0.004665382035595,0.005850055447288,0.005747180307276,-0.007970018574939,0.001793262023040,0.006678991371563,0.007518070428517,-0.006581845326150,0.002719848669082,-0.006607412651937,0.007049798676199,0.005509601893478,0.004022601685314,0.004222491694422,-0.004113105229457,-0.005189484990274,-0.002820486382583,0.000038050331081,0.007895643639969,0.001269903434150,-0.000067737960095,-0.009575135481834,0.003825475192793,-0.002780672785666,0.002592489447229,0.008595180718553,0.005963503696264,-0.003604918442419,0.008097516050765,-0.003197272599663,-0.007804504804229,0.003223958708711,-0.008710194158694,-0.007347386648408,0.003061720368488,0.001238891134005,-0.004238758365924,-0.003939617184350,-0.007969862485326,-0.009456057115873,0.006991337876148,0.009529850651053,-0.006852487963851,0.007013594404461,-0.008085134007334,-0.004318513009844,0.001012583020735,-0.001758053644706,-0.000269290587113,0.004192379435729,-0.002135779992873,-0.003989185100052,0.007330928327106,-0.005355500297534,0.003109664641158,0.009389154442040,
-0.009070844866278,-0.002887414678777,-0.007952113006624,0.006406590741535,0.002510272107758,0.009369055428757,-0.002523127853961,-0.005101254927750,0.009331693683421,0.003870844866278,-0.006976370020968,0.008590978777945,-0.002431759028877,0.005967456154374,0.000697204046781,0.006155248592150,-0.007934799573513,0.000996237136402,-0.006039762012238,-0.008798895356565,-0.002564951194898,-0.005535328517798,-0.002923826061991,-0.002011380016538,-0.007013602210818,-0.007013142032595,-0.003154084006902,-0.001508599231764,-0.008781367315977,-0.008850254959601,-0.002425555893369,-0.009404171951284,-0.008676259689322,-0.004108114021907,-0.002439562766884,-0.008892248634614,-0.004259179010900,-0.002092295964578,-0.009384173845734,0.009154789586312,-0.001625313110485,0.004623100748210,-0.008484437593023,-0.003973976342218,-0.001056228251858,0.009329350886705,0.001731059969186,-0.009342829557373,-0.002613304548313,-0.001748356483767,-0.005075390303519,-0.009602143426613,0.003736503302770,-0.006487195452150,-0.006899060021851,-0.000398005521637,0.000646326050558,0.006125373850690,-0.007725865938322,0.008018285218113,0.004913670632902,0.002610975630627,-0.000873401778579,0.000800719086050,0.000576847613223,-0.003188320562524,0.009101106410232,0.000347892913216,-0.008022771051785,-0.005019845244711,0.007211325532165,-0.008364941891802,-0.005201354322480,0.010070953863092,0.000855098904284,0.006476220269661,0.005415124416089,0.006480199962976,0.010126896253267,0.008478423080740,0.007433843574573,0.008549415212255,-0.001596991859057,-0.004109199607814,-0.006026081866028,-0.000051298528989,0.009124827561882,0.000463608611965,-0.000489037585443,-0.001547342104281,-0.007367855509858,0.003680451258248,-0.002847482701641,-0.002842069142913,-0.004894582678447,0.001437173696559,-0.003089984886075,-0.006439578144392,0.009050231343069,-0.003485569763643,-0.005731370333510,0.004135912260950,-0.001766250818767,0.006905433446754,0.001795453419061,-0.000467647797172,0.001321880662411,0.004246018345378,0.008944438724999,0.004003375836438,-0.007323189821165,0.001951992756957,-0.002861543386351,0.008962042074608,-0.003133627365890,-0.002677871247659,-0.007974210402985,-0.004191008156681,-0.006266854504832,-0.009462369418227,-0.003988713812735,0.008332637829964,-0.007478990082277,0.004768699364791,-0.005762595080007,-0.001242488985712,0.002093683262408,-0.004448542970513,0.000699411122633,0.005546371949867,-0.004908790783605,0.006195648361958,0.001067425591048,0.000254478506185,0.002380308997251,0.002128469213093,-0.009445093022272,0.000582301372073,0.005791827177103,-0.003644189504580,0.004591099876778,0.009694160894051,-0.005274503817559,0.004231296907680,0.005508779267996,0.009750146277846,-0.001737310164234,0.009783773976153,-0.004486633935383,0.005332427778919,0.004992760403877,-0.009336341415841,-0.003955156836450,-0.001814564452791,0.004149993172805,-0.000674547491902,0.004697115001964,-0.006646826277910,-0.007052875740049,0.008068469932030,0.003971766326394,-0.008439030465616,0.008032032542314,-0.003512453635427,0.005581963669499,-0.007126150545369,0.009612861752161,-0.009072600493587,0.006004735453169,-0.007238885426069,0.003458503996837,-0.000791480647028,-0.005031240218731,-0.009136552632871,-0.002515192003491,0.002470836897549,-0.002671878644622,-0.007404237332379,0.006128299955813,0.000028501457207,-0.006501742006492,0.006358478788036,0.002379962397398,0.000432082770413,-0.006312385892037,0.006705246508140,-0.005203965021572,0.003033893014847,-0.003102852122990,0.000078004963280,0.010042114807208,0.005559810595175,-0.005751103983407,-0.000880138661805,-0.008407236054861,0.010152132293223,-0.006309535674181,-0.002439662247934,-0.007917046749801,0.006891922107055,0.001647741719077,-0.008296671775842,-0.009261407639567,0.003765381748768,0.009357151805136,0.008542340091930,0.004850501847358,-0.006384605145616,-0.006313778529562,0.008780140701385,-0.000438956220645,0.007339477137636,-0.009209320835060,0.003696793854838,-0.009350425470541,0.005082947669869,0.004817825639599,-0.003222206476175,-0.009299060476973,0.000595238244694,0.001739709948459,0.005400572548751,0.005319317480639,-0.009369023381395,0.001585865713657,0.007542609377924,-0.007570396149030,-0.001690587298333,0.000333332669850,-0.008847712786627,-0.009388401520754,-0.006436012232013,0.005596446480137,-0.002153259086736,-0.005114167287548,0.007336022067744,-0.002455484227356,0.005157028230274,0.008870934162833,-0.005847931742437,-0.004832510385692,0.001269631384549,0.003667161171817,0.006946494888870,-0.009346250099631,0.000599425733379,-0.004587217997301,0.001011214152128,0.005878360486308,0.008455784508019,0.008712579593557,0.000417486406832,0.002651213052029,0.009257534399671,0.005121822659508,0.006735712119626,-0.004101718233113,0.004929153648198,0.006276318843877,0.008868955551855,0.001957671353539,0.002458234839759,-0.003671195156763,-0.006391923893519,-0.001917318326549,-0.008138154282678,0.006458599258749,-0.001259462459771,-0.000972289855353,0.006865512412909,-0.000797650056841,-0.007265790722629,0.004349767102111,0.007826941596824,0.000389626949950,0.002955287606658,0.008499206361391,-0.002996006962295,-0.001020282674447,0.009432871620937,0.007272396036615,0.009167614774819,0.007168084095850,0.002891568959909,0.007694065213287,-0.009112735740427,-0.005903551925912,-0.000445084704841,0.006345022314249,-0.009035210886269,-0.009750545285922,0.001384441592970,0.000459185821498,-0.003546854801694,-0.003916397989383,0.001643511045630,-0.003546803572752,0.001898712110228,0.008806593024059,-0.005756587070991,-0.006925618839067,0.004380418646139,0.006945408095496,-0.004911348022774,-0.003816756395183,-0.008126087355067,0.000822411823419,0.002496561386979,-0.005236394773545,-0.003485288769409,-0.001442037903687,0.006488062614424,0.000508929316063,0.009027351965927,-0.003580380169673,-0.007106697952946,0.000136411651005,-0.002086492696214,-0.007906157359111,0.004767000062516,-0.006872918998306,0.006797448651726,-0.006798545996262,0.000130022984659,0.001634487501162,-0.005589891207478,-0.000889728987939,-0.002697467115045,-0.003383775157874,-0.002827541230704,0.005920349990136,-0.000932705165055,0.006773678516504,-0.003238364764371,-0.007378481653179,-0.006028934311519,-0.003451001389476,-0.002253629250525,0.006193781704393,-0.001429717435004,0.002250544807378,0.005223485074136,0.002976612294905,0.002611854179102,-0.009304464144517,-0.005615133647187,-0.007986790543364,-0.004062010697311,-0.002021204565710,0.002929461017296,-0.006910106592165,0.010135064617747,-0.004779490584537,-0.000107130265393,-0.008412254662369,-0.002774686802169,-0.004397932205825,-0.005135918996095,-0.008644667256857,-0.007696728500948,0.005643520683339,-0.001564045677430,-0.005321366657180,0.006402212668597,-0.005792529696827,0.007914427187074,0.001122422731433,-0.000481745281836,-0.004988463932658,-0.003738981762825,0.005803154219425,-0.004978609689428,-0.003977760963277,0.001802649747301,0.007739324283029,-0.004423045051489,0.006874792164508,-0.004473186300654,0.004927432210646,0.005660672155050,-0.000772163567094,-0.006169957871292,-0.002208953511414,0.007797490184271,0.007757961734733,0.004466145712697,-0.007359745527237,0.000772631748786,-0.002516554690537,-0.005797266262331,0.000503190081996,-0.002267795531103,-0.005879261732490,-0.004434472497043,0.002834386056631,-0.001910380916253,-0.007877759363301,-0.000478636763739,-0.008555970610650,0.001140144215768,0.007105991719524,-0.007766573348563,0.007143223219597,-0.003173591404051,-0.003613851217972,0.005229725551084,
-0.000136149216047,0.002470600204585,0.008768323053122,0.006329612221179,0.001457014132166,-0.000833761947993,-0.003332866454679,-0.001377482974875,0.005887324908684,0.004396149216047,0.004245133495690,-0.004182386013826,-0.008912626338980,0.004469515246746,0.007264959740064,-0.008555007868202,-0.001462969494260,-0.005640779629423,0.003841062991667,0.009424959018020,-0.001983530155466,0.003917841484327,-0.003019108617993,0.008442737262551,-0.000536291022052,-0.007005774848899,-0.007860086877407,-0.003215866014802,-0.002436845735642,-0.003525146767835,-0.009482548961583,-0.005388037715511,0.009208937057220,-0.001960765033643,0.008113137187796,-0.009146048405041,0.004279696877719,0.007113272274416,0.005934071421885,-0.003983306930777,-0.005188337046744,0.001958957144293,-0.004873598161693,0.001628885782601,0.005831651678098,0.008566191439033,0.007731732206139,0.008645455208486,0.004422124575460,-0.009550838541069,0.008180487071287,0.003686297934673,0.009738973456586,-0.009719631977078,0.000796848717743,-0.005152267727973,-0.009590462137831,-0.006029570227456,-0.001646978494670,-0.004372589880041,-0.003227362309810,0.003874113706579,-0.003704691097332,0.009746765278545,0.006347780324243,0.000951850436234,-0.008212711606246,-0.009294588868261,0.000807109501204,0.003878238712875,0.002391419674800,-0.003198034510878,-0.002442491864458,0.003743852402954,-0.008877340699344,0.004839749159422,-0.007388340615264,-0.001435825153074,-0.005837022802582,0.005681825359302,0.008745756908410,-0.001651963203332,-0.001244294126516,-0.005715835412149,-0.003538546465191,-0.001137905158192,-0.005151832844337,-0.001124230445323,-0.000755794685382,0.002663095620060,0.002526605711432,0.000395525759358,-0.002411927869446,0.008128136200117,0.008535326971957,-0.004790430008368,-0.000818258899607,-0.002364670762139,0.001294834712402,0.002443754181799,-0.003437879310662,0.003198391594216,-0.006805616224193,-0.000178924353761,-0.002665635087603,0.003066622242370,0.009717060965974,0.005891535224174,-0.006513273057570,0.000671737237063,-0.009395981745474,-0.000744898394787,-0.008752634179306,0.002770477034087,0.008296587689874,-0.002904282646898,0.005654185980624,-0.002920720567727,0.000283088335109,-0.000082206605063,0.008999561594176,0.001593744426901,0.007166340323267,-0.003152455835228,0.005280428455804,-0.009671856198995,-0.000590992347568,0.000914514283042,-0.007884338459135,-0.008986488294819,-0.001595550638122,0.008476221457139,-0.001781597549081,-0.003520014931733,0.003969302549065,0.001946766593665,0.006384955991121,-0.007288763722572,-0.003236144542634,0.008496908879485,-0.009413694512120,0.007743310602203,-0.005161524212078,0.002362207700617,-0.001124859761484,0.005456829310624,0.005990650266008,0.001924472935289,0.002606121586017,-0.008801169123750,-0.008729819698556,0.004033538230191,0.000774725235131,-0.006238599645184,-0.008381597964867,-0.002714210816760,0.004648233034914,0.009304247904200,0.001297251305014,-0.002851636272605,0.004137927348951,-0.003393896753780,0.006796882797529,0.005713570833567,-0.002778689386526,0.009571869521621,0.006841197406738,0.009608416243564,-0.001458370954071,0.010064339290373,-0.005488474236587,0.000900956218164,-0.003191134071533,-0.010133184911389,0.001182684049269,0.005062667339175,0.009857515697256,0.002678208210920,-0.000492211987658,-0.007425886337395,-0.001718073418539,0.000313783301414,-0.004015966287477,0.006399327100409,-0.003426225778620,-0.009010178551685,0.008288547152241,0.000391110030192,-0.001020299045228,0.002569415319169,0.005943846039997,-0.001170842684575,-0.009471865816065,0.009109285028415,-0.001680208194086,-0.002839425589677,0.006131577477706,-0.004659796869402,-0.000504471975887,0.007180942127181,-0.003342498356651,0.004282592883104,0.000890338296849,-0.007723503652775,0.008207484412731,-0.005564049903927,0.002239698902798,0.007907889345919,-0.008114613253425,-0.007139673628735,-0.007473747530058,-0.008783004491714,-0.001293445539695,0.000340983551914,-0.008261300938774,-0.001363922152778,-0.003854277775384,0.000620781122491,0.008852182276197,-0.001387609152085,-0.000869816648300,0.000704208141534,0.003978222191787,0.000278526602366,-0.008065536554338,0.000983280246376,0.003981167860762,0.007486955749865,0.007529396833141,0.003847404150471,-0.003312858023317,0.007883454048064,-0.002887994330061,-0.002128035705724,0.008336766971353,-0.001150020523563,-0.003814147734176,-0.009339803162237,0.007063630330723,0.001752366786156,-0.004652658228852,0.009907110071862,-0.009216440693349,-0.009951727494862,0.006178008896229,-0.005906312553186,-0.004129834809757,0.003673634758611,-0.007610812305027,0.006529982931284,-0.008999209466517,-0.000756021862493,-0.005101362190045,-0.009457064577126,-0.006369958255007,0.001006897820712,-0.005637252940928,-0.004083219997720,-0.001854046044980,-0.006857872968535,-0.007070813882727,-0.000191481432547,-0.006705840850172,-0.004443260343166,0.007970573225426,-0.003724989920124,0.004699295952160,-0.001956172622908,0.007802125433608,0.002399929881588,-0.009351215243542,0.000074784922615,-0.001800423605124,-0.004492824089581,0.009886725290566,0.004386726739294,-0.002135804855743,0.006334912504052,-0.000042536330207,-0.006825357177423,-0.009115979950210,0.009379450813363,0.000540942831209,-0.004985941665493,0.008194666389002,0.006999760653402,0.007547978277796,-0.004659108582975,-0.003212236249680,-0.002035701850565,-0.006296174776941,-0.008659036825422,-0.001695579884152,0.002525058460610,-0.008474316377842,0.006067736943307,-0.006568061170936,0.005750514114884,0.001895537078776,-0.008876620021812,0.000530662957016,-0.004124647342284,0.009339979862787,-0.005933093683642,-0.003423596611817,0.007510494238002,0.000028299108683,-0.006006683939017,0.009529938840356,-0.007594029985507,-0.002711414600329,0.003672490052369,-0.008878513093726,0.005089224683397,-0.009910806541211,0.005794859980566,-0.000523033644696,0.000901125894427,-0.005187921384524,-0.000533865483179,0.004347773440549,0.007932940515683,0.000100021519067,-0.005993765238064,-0.001491985486723,0.000530930178571,0.000943812959328,-0.005313805796372,0.003906375208297,-0.003378391610984,0.005399657494280,0.003728571806828,-0.007324093288937,0.006415118662842,0.002708112960794,0.005208702950283,-0.004666587825711,-0.002387057384668,0.004734802130817,-0.005105367781910,-0.002823223504108,0.001048354380574,0.008833678708682,-0.005509600336330,0.009422036555441,-0.006230673128423,-0.004375799885738,0.005150397979382,0.004626880481251,0.003987963404213,-0.005124375616799,0.005049797646361,-0.005776213495809,-0.006309593988420,-0.007468248297983,0.004007262446614,-0.004059663763811,-0.009709228121322,-0.006390864019910,0.004722073668211,0.001684803498003,-0.003584131183873,0.009277583027802,0.005074683195766,-0.004812287750755,0.002228516131478,-0.005099042431245,-0.002353845820058,0.008809524942188,0.007427981897086,-0.003843936156464,0.004604758439091,0.007213645402538,-0.003438136068601,-0.004810573157865,0.002808860237218,-0.008418338335751,0.005479664672270,-0.003056267170367,0.000758866901858,0.002547635118257,0.003724201971734,0.006721251600707,-0.003726979445321,-0.009547060132855,-0.006917064113686,-0.009612632399965,-0.006470179133140,0.003813848975240,0.004406662231218,0.001529864017237,-0.005506829549667,0.008290912083137,0.007504220363102,-0.000891358562985,0.006233229776748,-0.002619207982294,0.002580198199514,0.007649881992774,0.000876540520566,-0.007005675236299,-0.006872522923689,0.000497778706655,0.009977254319482,-0.005359853084428,-0.007932516121353,
0.007275041813338,0.008509713021829,0.000036330244552,0.004461706859505,-0.007692826881623,-0.000835397161248,0.007804239050809,-0.003941102082296,-0.003024798032133,0.000224958186662,0.003998501736320,0.003158632827651,-0.004054591791238,0.000853822821571,0.003348910112115,-0.003896725117547,-0.008460141171643,-0.002311566426499,-0.000498864964514,0.001768186830343,-0.001360977957681,-0.003445755748230,-0.003650157283723,0.007867822525885,0.000112408394948,-0.007968064808104,0.000819284959810,0.005385689431454,0.004733648533165,-0.006259615509247,-0.000769537716364,0.008591639146185,0.008069159486598,-0.006179915891733,0.003841505566617,-0.007376291645330,0.004211613990094,0.001249753207053,0.005381033734158,0.005428370251379,-0.005229250821612,-0.000593267303024,0.008897797140757,-0.006976412050033,-0.008553267369854,0.004217783591160,0.001029206983944,-0.005557379052435,-0.009362678928588,-0.006751055616705,0.008155721932758,0.009786242643981,0.003005346740927,-0.004101005954575,-0.007251199418560,0.005616853645152,0.008020987348159,0.000963999182270,-0.005527669453427,-0.000325796915466,0.004364078417349,0.003059963735636,-0.005235587251777,0.003518301784587,0.002623981280628,-0.006401034680111,-0.008546482025991,-0.009002420939843,-0.006874203773122,0.009044447356169,0.005888372330866,0.004337493688123,0.009250260711213,0.008421206299104,0.000006000089401,0.004151176318518,0.008933503857930,0.009676404351257,0.009781634243061,0.004918261656494,-0.004519686540727,-0.001959764425248,0.008932733405577,0.003856031042283,0.004064874729426,-0.006007444518534,0.002303328200862,0.001512459772006,-0.003413202171281,0.005394320820587,-0.007095731721382,0.008724029498342,0.006959979860362,0.001590670840601,0.004486970082930,0.002040069357720,-0.002641251655629,-0.007755177375081,0.006379263154908,-0.009686305929395,-0.009047456354154,-0.004232323287706,0.002864696542239,-0.003625339839357,0.003991545925422,-0.009537242641375,0.001638486412926,-0.004365703821074,-0.002799766248872,-0.004939509066100,0.006531200219880,-0.006937736541674,0.007677844185875,0.003426242515412,-0.000322943616393,-0.004316340814729,0.005946430864300,-0.005147906067093,0.006111505397761,0.007234545183028,-0.006193794488582,-0.004170420252952,-0.003234659120282,-0.001276806158700,-0.007688873171506,0.009185296561466,-0.004014122894214,-0.008994184075191,0.004639465446356,-0.003004634147027,-0.007141827365666,0.003710462828394,-0.001676896712213,0.004418370513734,-0.001867308827009,-0.004236686911287,-0.002168768964230,0.008168482625718,-0.001924417860870,-0.007887685346748,-0.008849370933319,-0.007250096037006,-0.009536724969591,-0.006787022951679,-0.008559836857390,-0.007857958400777,-0.005508601247217,-0.006082553656518,-0.004889011407743,-0.008091554616119,0.003841981576572,-0.003329383615089,-0.006501610564720,-0.009823183159071,-0.003384506955142,-0.007425713978834,0.003057994030696,-0.007683734203899,-0.001652179148357,-0.008033505064810,-0.000312474138950,-0.008585445750754,-0.005196238035594,-0.000991957291842,0.010174952377585,0.009322816395371,0.009040586955764,-0.004566191609358,-0.005336633539717,-0.002456910252107,0.005109894346875,-0.002315643228714,0.003074235436103,-0.003293190524728,0.005169529578039,-0.004702455705217,-0.006941085673474,-0.008756038156795,-0.009782173765929,-0.008957526663719,-0.007618274991945,-0.003719599920222,0.008558931694341,0.006640392121808,-0.005712947160416,-0.000413480329769,-0.008272597735731,0.001058889749463,-0.000698909373736,0.001650894379983,-0.004783043797402,-0.009084566825848,0.005308817453275,-0.003232058400781,0.008153605344283,0.005117610474218,0.003059245339907,-0.007620288434222,0.005164620435174,-0.003988153450742,0.002702795274484,0.006889352851559,-0.006524071744649,0.006075232925591,0.008194361901760,-0.002103520546567,0.007381540758357,-0.001692796732560,-0.008389975859011,-0.004666598143851,-0.008908639764670,0.003665175805218,-0.007238628315513,-0.000441068221882,-0.007891362912539,-0.004782281361007,-0.002073604562108,0.001692806482984,-0.003302315139607,-0.003265214078075,-0.000270324489990,-0.001269772905882,-0.003275603631872,0.006512164774061,-0.008079672875459,-0.000192750455972,0.007348953983066,-0.006647074353305,-0.001161334886094,0.008478862489981,0.000026144777952,0.007317906882659,-0.003965132881862,-0.005044980463924,0.009443620023362,-0.007821637132045,0.001045120790792,-0.004005166993928,-0.007903838512615,0.008477895819061,0.001109429796039,0.005551386115500,0.007979679971415,-0.006698985136638,-0.008633303368660,0.000902884909229,-0.006225174868389,-0.004577272334644,0.004593510656442,0.001479852997564,-0.000782964386803,-0.005877664799880,0.008186937604358,0.002830923851683,0.005311880283753,0.006050784141821,0.009071905423684,-0.000714994468710,-0.009860189160641,-0.008121812734492,-0.008093011958093,0.007374235369652,-0.001425978841856,-0.007583137696936,0.002914450724960,0.003086269650716,-0.002313667032289,-0.004884323951201,-0.005691491992377,-0.000303947946719,-0.004634784464416,-0.003524482130570,0.002628119210829,0.004485928757888,0.003598808109292,-0.003889225604066,0.006318624334527,-0.000693636045553,-0.009749196279269,0.009746571681985,-0.001893127419705,-0.007626520873356,0.005348506303719,-0.002561773064188,-0.002245402725727,-0.007006932074665,0.002547755780223,0.000359113134516,-0.002892297538615,0.009675993816822,-0.005579500469327,-0.004670636035390,-0.007669140390567,0.005264139198902,-0.008534929901806,0.004392791688017,0.001653912588571,0.002930595041415,0.002772124701515,-0.009272345617982,0.003017506378214,0.000253356359291,-0.006960509318187,-0.009366691969071,-0.000198826577632,0.000316633711153,0.000109628996088,-0.009515144442385,0.007186812578293,0.007746562855224,0.005979757674570,0.008221339407869,-0.005744528175857,0.003642471439732,0.006762533983145,0.009079740609563,0.006481746045852,0.003533697611491,-0.003908038697815,-0.006896115334307,0.000719086843998,-0.001769161850161,-0.004038287979662,-0.000413525687757,-0.004480310268380,-0.003401413995973,0.006761271252436,0.005646015821576,0.008241499459523,0.003981733894755,0.000993867663462,0.002717947106173,0.007125200916723,-0.001396148545954,0.004309655375755,-0.006877983245787,0.001473735859025,0.009362100013614,-0.006263660025951,0.001776135518391,-0.005027681322310,-0.001177374641504,0.003915160459450,0.009844296778872,0.006647496127339,-0.002351181758753,0.001864071362478,0.005907517703314,-0.001855761682624,0.002392204608191,0.006800296672500,-0.000500800651569,-0.009920443394895,-0.002456969876167,0.007039064453982,-0.007687510222886,0.007793263767185,0.006755257813385,0.004680319471688,-0.008747463163658,0.008222622598008,-0.001755725634857,0.002655659905520,-0.001208326454182,-0.000514578157922,0.009645747840543,-0.003815890519142,0.008804449805499,-0.006530151281922,-0.007334743523207,-0.009868456294400,-0.007637978293031,0.008864543706996,-0.001452907629583,-0.000352174559343,0.008804020883681,-0.007042321600159,-0.003747991500958,0.008450639021161,-0.005549621193215,0.004994096497639,0.001184248217845,-0.006732440898907,0.007552809912430,-0.007907958905563,0.009860030385268,0.001496136479198,0.005932106215869,-0.000809552136653,-0.010135935546354,0.008561043846811,-0.000000519738335,-0.005104061917227,-0.004286136755287,-0.004772728830727,-0.008521773519812,0.002164104109265,-0.007569016487615,0.009043988638271,0.008855025765756,0.001712979253542,-0.005782346698380,-0.008260186993939,-0.007962742176313,-0.003058486657880,-0.005381532087998,
0.002038791866237,0.000939915709152,-0.005683060216338,0.002283683363247,-0.009058975569803,0.005924587657833,-0.001257430266665,-0.003592908407289,0.010131150568946,0.001591208133763,-0.003203408697226,-0.004046472083239,-0.004534464619992,-0.007594391417128,-0.001498699863274,-0.002336047235510,0.005926441288079,-0.000392136371644,-0.003202267510646,-0.006027608564174,-0.009705232250960,-0.006831700417304,0.008167226004775,0.002412833767407,0.001597389348257,0.006035061410864,0.000242419710620,-0.003793759684160,-0.002265578328497,-0.000111045381090,-0.006217119469991,0.006522009793584,-0.006544128610760,-0.002839303834328,0.003399887798175,-0.006858354221520,-0.009737118675075,-0.007150884806166,-0.003967101145818,-0.005199746787528,-0.005763802215575,-0.006445413209724,0.000827385754007,-0.009078678613144,0.008574311506291,0.000472989992136,0.004946694814878,-0.000923098778925,-0.006994963616913,0.004667233369167,-0.006451596478388,-0.001597057142178,-0.001301065176819,0.000052429464668,0.008903951924545,-0.006782406856413,0.004191785176549,0.004716896298268,0.008937741647829,-0.005313714658194,-0.005522414251976,0.002483352060817,-0.003444956339787,0.006624704065993,0.005202354132638,-0.007890600884345,-0.001746194115675,0.009367742943357,-0.002972402859087,0.004081865291694,-0.003952118941314,0.010079496734244,-0.009269604276995,-0.008133383414096,-0.003507323034417,0.000721442936202,-0.009447436790098,-0.008657121544321,-0.004507241153250,-0.001241198331134,0.000070794400045,-0.000761191402054,-0.003787585185592,0.006980371550812,0.003017390571740,0.001384235969022,0.007382386031257,-0.005854971569023,0.009614246277108,0.009037024113620,-0.003474594399501,0.000130472652165,-0.000708437393840,-0.009685910848060,0.009857641910713,-0.002453514057079,-0.001453154072687,-0.001105250316822,-0.005566703602550,-0.003353634036037,0.006190727563046,-0.006523177187486,-0.009588304139342,0.005428790483297,0.003596138234617,-0.001500001952882,-0.009299375562018,0.009182780936487,-0.007503832702546,0.005729236267890,-0.001151753214780,-0.005830216808660,0.003267618454390,-0.009210996623602,0.007441577031012,0.002797763547860,0.007624995420898,-0.009694527183222,0.009940693640826,-0.008269977374917,0.007444624032511,0.008682364609786,0.001015825421447,0.001885809799240,0.004287174148139,-0.000852175310923,-0.001211233194807,-0.006966742001201,-0.005514009348329,0.009108725300097,0.002295899414023,0.003496355363601,-0.000480260783244,0.001296181128302,0.007996599372575,0.007816048263361,-0.003483375826772,-0.006835192687306,0.002753301609884,-0.002740891992240,0.002531434148778,0.009362746170835,0.006584615050704,0.002465055645740,0.006081894575948,-0.008139261793259,-0.000008824400080,-0.005412779010603,0.001424982792499,0.000105009839727,0.007058822551065,-0.004849676384460,0.000510925081784,0.008645124492555,0.005550944672358,-0.001816360054936,-0.006272572888905,-0.003371037717242,0.002358874659913,-0.007042418222559,0.009230318285425,0.006910845301993,0.009211216977294,-0.004211967524721,0.002477804972689,0.005915169244394,0.002672734448315,-0.007486086202956,-0.008538811327840,-0.005841504064131,-0.005558645321855,0.001751913879785,-0.009760126600772,-0.008621934871610,0.009910786187057,-0.006111930453994,0.002629405788426,0.006589928797484,-0.000966149392184,-0.001166092689513,0.000293279263710,0.000789741432475,-0.005414489708493,-0.000683929594853,0.004914729782141,-0.001869358205267,0.003127153522721,-0.001014322176128,-0.001869815245344,0.010069457387539,0.002694120765378,-0.001515943958455,-0.005135872595457,0.000858986666633,0.005896652929287,0.008066516825660,0.003235688725503,-0.008257150955944,-0.009316634917079,0.001812108239292,-0.001748690673014,-0.001600859214250,0.002720005389433,0.009362764963105,0.002547233818156,-0.005386711980926,-0.004897788781547,0.001469962979382,0.000637832020700,-0.007722240703259,-0.007485784450588,0.009405818449664,-0.008765099630945,0.002722881946434,-0.006160055343033,-0.005575522373793,0.002729533240233,-0.008462825643790,0.006483631134331,0.000018329265054,-0.007500800010766,-0.008747507183633,0.007368281481689,-0.000544377119228,-0.002640384245628,-0.007843436894118,0.001547798097599,-0.006658283064321,-0.006571880120707,-0.000863703569055,0.001072338475992,0.005381385639146,-0.008866487430416,0.008520502248812,-0.003927734936434,0.004110631933647,-0.004835848738504,0.007977028302382,-0.003548778905536,0.008693623239712,0.008400492001184,-0.002527743530185,0.007535208891332,0.002566420679834,-0.004111892333422,-0.000358253882504,0.007105563200550,-0.004828838532697,0.007884589291798,0.002377058349531,-0.003641627296516,0.002146150380358,-0.006396109276448,0.009227180810552,-0.007614815224772,-0.004276142637476,-0.008884199734468,-0.007062227390690,0.004778719206649,0.007089504166788,-0.000070315086102,0.004195730346071,-0.005042171677236,-0.002321757016585,0.005036025075871,-0.002214778590338,-0.005831106378383,0.001409688066083,0.000875355055111,0.002993327949688,0.009630583736383,0.001147081345112,-0.008746156136650,-0.004628898756840,0.006886309976011,0.008412287045709,-0.007195208833244,0.005670129786522,0.009874657801407,-0.003165841868253,0.000958024055572,-0.003490518960649,0.007656550858098,-0.006029803393525,0.007594637186970,0.000071699289386,-0.005419585729771,-0.002958601169715,0.000820032023258,0.009234209052073,-0.002718765681215,0.003291317217923,0.005265418070875,-0.008732528943899,0.008538307773388,0.003010902217384,-0.000541228095975,0.005547323341869,0.000756697893565,-0.001646506013253,-0.000944241229882,-0.002384951400989,-0.004059040499018,-0.009659179215022,-0.004083638739940,-0.008804391413118,0.007816829075814,-0.003599567629831,0.009820804977443,-0.000548418292974,-0.004396312433908,0.002976096359204,0.002545404789557,0.001326784691901,-0.009227027624309,-0.005557820204251,-0.002662418537385,-0.003138258051601,0.000910558515774,-0.009392070240708,0.007929216205909,0.002325590934447,0.004164258103952,-0.003024164903799,0.009618493566982,-0.002228598252980,-0.002818507119823,0.009589374435269,-0.005728609870358,0.009557652343985,0.004781853188586,-0.009732575206703,0.008698483917945,-0.004927385520255,-0.006571124026599,0.002051734480055,0.006933852242371,-0.009441098860334,0.000145985558918,0.009003554180169,0.003936451602453,-0.003157687456848,0.001545971854603,0.003837845043788,-0.008628315793452,-0.005134796408157,-0.004431351228071,-0.005130441496876,0.002569960596372,0.000104314322042,0.007580439322715,-0.006932829194009,-0.005168820899330,0.002102954341815,-0.009885977345402,0.003116805485905,-0.000406295277005,0.008057272940267,0.000136673961307,0.007198324768409,-0.005329265187855,-0.006840252244120,-0.007611286968880,-0.005070296854823,-0.004855087304619,-0.001989397237205,0.006177496621344,-0.003903991983568,-0.003118896747350,-0.000080587997524,0.003557497125182,-0.008708359499839,0.001430043184864,0.000520862802830,-0.003879485893041,0.008643397186295,0.006845473981933,0.008676405660449,-0.000197640115734,0.007241510993951,0.009699227193976,0.007094671311079,-0.003409020056848,0.007381894675094,-0.005503418748697,0.007002346617750,-0.004932829730502,-0.002937048860849,0.008702513897345,-0.004130484140144,0.002586206101005,0.006982004110301,0.006526902144658,-0.009000938617781,0.000276384223401,0.008285650701304,0.008396669814648,-0.001565759078635,0.006787163187224,-0.003780581500066,0.008960442995112,-0.003191874140650,-0.002128086894785,-0.008548218545357,0.005582128103579,0.005418203232042,
-0.001374059115458,-0.007176595192798,0.006083060276114,-0.002682451808699,-0.009290514788530,0.003422253433793,-0.003032978746573,-0.000280365256433,-0.003900883705127,0.007804059115458,-0.004958262537902,-0.001921906692247,-0.009471780956597,-0.000921639920154,-0.005377568132692,-0.005400759557683,-0.009254132463369,-0.008507943252003,0.001085838221746,-0.009681269624470,0.003743846620393,0.008129661767945,0.007554960699030,0.003404093532466,0.009167113798938,-0.009946562184432,-0.000701557923255,-0.008124845603467,0.004676797293720,0.001870663042722,-0.006494099538245,-0.003720043855182,-0.007012807147197,0.009019026152378,-0.000131651371905,0.004373783571236,0.000859982013904,-0.004365123352577,-0.003164854429123,-0.000048716801600,0.008719304837582,-0.001767950044149,0.003221481314855,0.003353406485958,-0.005788136389519,0.007830512301829,-0.002980629165139,-0.009961999305365,0.005140051351284,-0.002164786175810,0.000367131129603,0.007684484210163,-0.005128506929773,-0.008663996571102,0.006098727606763,0.008973167191320,0.008275586670061,0.004605961392887,-0.007499025828294,-0.008281090563805,-0.008261443317586,0.004812785918827,-0.005082721112610,-0.008320982372472,0.000084181540643,0.000340825140067,0.006367189261531,0.006256703496338,-0.000070344560369,-0.002979458194801,0.007051676174206,0.008850432374454,0.009016002624768,0.008220516969719,-0.008896364633640,0.000764085458254,0.000406098036392,0.009132552389306,-0.007192259013778,0.005233051819502,-0.003422551879508,0.003464265697232,-0.002792120282460,-0.009694667876915,0.004171884863243,0.008968440646407,0.009508553966631,-0.000522783450214,-0.001749336342199,-0.002426710110473,0.002742082670597,-0.008071806606722,-0.004066986587531,-0.007163784971890,-0.006895535001904,0.001084885435942,0.006475795396606,-0.010143066783799,0.007137484423316,0.009937524622222,-0.004679456426217,-0.007836548955706,0.005138795810457,0.009617943157297,-0.002822742615993,-0.005403094664113,0.003780543511298,-0.002662208193351,-0.006811945913388,0.009190258573199,-0.008068102947535,-0.003056964125768,0.005215789932261,-0.006488942399457,0.004113008645172,-0.009619030433387,-0.007382976239865,0.005073337518778,0.004689226296373,0.007601417013029,-0.008486045190036,-0.003137522806042,-0.001651304044230,-0.005102589338487,0.000861267403516,0.002552802050001,0.001034034006899,-0.007319941981144,0.008623948613229,-0.003215191981296,-0.007974505439742,-0.003246696185573,-0.008454676973641,0.001914191376582,0.000034621933323,0.008313881273190,-0.001486607356208,-0.000017924885670,-0.000983221734545,-0.007443882863694,0.009600877625537,0.007207105385271,-0.007449024468522,-0.007405282734313,0.004767703170086,0.003955970877336,-0.007641454536652,0.004093376298623,0.000572890650022,-0.001342195285810,-0.006979764265324,-0.006519577972295,-0.004099541445208,0.002812349901588,0.007693603379674,0.008106335394729,-0.001254192607539,-0.007190443672335,0.008021016427403,0.006745891713093,0.001643216883068,0.003553988079258,-0.004445335326305,-0.009692602906881,-0.007049853140395,-0.008647132928263,-0.004457177894347,-0.008401717349193,-0.008217329074709,-0.003857077960385,0.008394382458971,-0.009502937404141,-0.003511540777071,0.009376685408017,0.007993952393538,0.002882411750985,0.004375445745982,-0.000406246037326,-0.004213175360556,0.003997117319683,0.009924818115432,-0.007375415176284,-0.004959334590751,0.009325749787408,0.006612673160848,-0.003810166864154,-0.002981109436240,0.003627065968634,-0.003705475246940,-0.006686061654751,-0.006907210819309,-0.004509954389272,0.004578956110374,-0.009638476075701,-0.008482772501229,0.003624232073875,0.004445106366046,-0.005333518431460,-0.001077539993183,-0.005391009595563,-0.002489686751960,-0.008072837238238,0.001276235469659,0.002594985056017,0.000203142912452,-0.009389459100268,-0.004775158338630,-0.005182257666185,0.005464296542347,-0.000103139952211,0.007366038084404,0.008104138587418,0.003123857575156,-0.006380386886540,-0.008560363138577,-0.001787080352436,-0.005137535302263,0.002951919072668,0.005695046963149,0.005154325625642,-0.007305151278494,-0.001607370321176,-0.007666412698447,0.002848140128652,-0.006112014261299,0.000444943084509,-0.000011666740579,0.001628835649044,0.007273257638061,0.004728906310722,0.005355353593181,-0.003206538829761,0.000492011685855,0.007092383206991,0.006435003678824,-0.004130505714186,-0.005011056072279,-0.004871327838292,-0.006028885541956,0.003522381912621,0.000312628395712,-0.004393268517792,0.008825748763521,-0.008606232890608,0.003057517186066,-0.000416714122588,0.000485787078669,0.007808038531423,0.002095043582978,-0.007889781443435,-0.005698685938507,0.004294293349765,-0.003538512337377,-0.002056428381635,0.008207738370684,0.003586326705227,0.004265596115863,-0.001310530305316,-0.003492888843351,0.009626083182402,0.001656594568296,0.001356626286252,-0.003793302204233,0.002367844050287,0.007450128574686,-0.009860750058606,0.000059199672355,-0.000352956891078,0.002370923442112,-0.001593883712710,-0.000485798762572,0.005092367250659,-0.000398078895276,0.005732504046605,-0.008583319045527,-0.007743788931416,0.003232515351832,0.002903190159882,0.008718928799112,0.000167271391562,0.002046147474727,-0.009815382319087,-0.007137291517578,0.006217042855398,0.004574846474621,-0.008119978205392,-0.005354325980056,-0.007402872815715,0.006925633648517,-0.007916654444984,-0.009854040511082,0.009419645506230,-0.003824102242645,0.000555213784770,0.004907085941206,0.001587102913641,0.004911469215945,0.006677909997688,0.002737349924097,-0.009733539148575,0.006147901165982,0.007757594838690,-0.009535820232290,-0.008526844704460,-0.010018413909624,0.001480572035832,0.008896028547862,-0.006771460854845,0.001347020768042,0.001666122707629,0.006377210514855,-0.006621516152497,-0.006013563736823,-0.006722645079060,0.000284285139224,-0.000364059506291,-0.006706294913782,-0.002080867436341,0.007859224761306,0.003157347362143,0.005294931221014,-0.001633083382531,0.008793743379092,0.002074902520470,0.007700631801741,0.006901915704822,-0.004573435134061,0.002826600636746,0.007894804659564,0.008452895176079,0.003419707668516,-0.006897422961810,-0.009676294085947,0.003477043777107,0.007596397745341,0.009826112628804,-0.002716580547491,-0.004625796837958,-0.009500636656493,-0.009336947791131,-0.002074286652684,0.009335521866999,0.005719168019936,-0.002146470048808,0.006054893943279,0.001667333641075,0.000575332348369,0.001097811800662,-0.006137397590257,0.004171711235469,0.000937301209398,0.006081041504669,-0.005551378358810,0.009640992858996,-0.004025621411900,0.001895430431229,0.000316749734459,-0.002488598528724,-0.004069562070190,-0.001088587281579,-0.007278211186681,0.006338750354548,0.001452690629654,0.004053231067483,-0.006543787374886,-0.001183547884528,0.008554633939902,-0.003144342590517,-0.001752699515693,-0.006113915011067,-0.003819420642199,-0.008263922495684,0.008293574799033,-0.008199789690273,0.008170125882830,-0.008846732361802,-0.002520503907686,-0.003216575478214,-0.003927169472845,-0.004065845738090,-0.007579350896638,0.001353157174848,0.008590372884403,-0.008430395119048,-0.006977298771369,-0.000510637636874,0.008174844832571,-0.000942949213751,0.005403807753657,0.004601797266009,-0.003849622777735,0.002069488479428,0.004182856077864,-0.007392679958324,0.009616594486182,0.005314104380169,0.009347152767937,-0.003073263439028,0.005120185447870,0.001337289815570,0.005687538785715,0.002456378640577,0.001401246909881,-0.005410219321758,0.007580640937924,-0.004922927822430,
-0.000863684316940,0.000518962525378,-0.006301481067629,0.001696132570013,0.009770020279902,0.005611499894606,0.003024197906448,-0.009441893432938,-0.005255468542195,0.002003684316940,-0.004287322038494,-0.007525254062068,-0.002842363651960,-0.007740882239102,0.002300970100971,-0.008998200975582,0.003024590454198,-0.002998057676919,-0.001537139512329,0.005976266760729,0.000384302900880,-0.005568470222041,-0.003067457182291,-0.008275522191013,-0.006532528401321,0.004462632234853,-0.000784841324246,0.000897959326574,0.009652652421026,-0.007147126670582,0.006071879716324,0.006374706420026,-0.008000752497973,0.004962044062344,-0.003445618511707,-0.009160624232359,-0.003260683431396,-0.008812958775062,-0.001643453912392,0.010010936018323,0.000416082425588,0.009151967343084,-0.008891434266817,0.003274304363902,-0.009664616515357,-0.000076397635238,-0.000694880973197,0.009306293345830,0.009586816583225,0.005162886646244,-0.002616362226110,-0.008183901468169,0.005710842617818,-0.007796939684866,-0.001414631141967,-0.008215250854184,0.006879753812598,-0.001005864535950,0.001335415667493,0.002044815927679,0.002464773778920,0.007080325814192,0.008535846976251,-0.009194139743152,-0.009645451663960,-0.008656364944616,0.006107089585091,0.007918923569885,-0.001073190197865,-0.008844220715474,-0.004512695785005,0.001604719986377,-0.005112546850713,0.007273062632650,-0.008419967865161,-0.008275366269257,0.003521185790214,-0.006914177351247,-0.002160352790489,0.005079380689684,0.001211460845569,0.007146399363788,-0.007861757670119,0.009316276903830,-0.003938475991362,-0.006711353210765,-0.008829842256410,-0.009286270235118,-0.003291885019812,-0.002698721825989,0.005571356541009,0.006325094386166,0.009578969671644,-0.000652325923270,-0.007363430353569,0.009145719013984,-0.007250454151689,-0.005241547388563,-0.001422328384282,0.007475183012238,-0.009270312126161,-0.008260206702677,-0.002971908449743,0.004236799303287,-0.009024532509577,-0.007566260171778,0.004804627378811,0.009765157298180,-0.007405456972955,-0.004802997405189,-0.000492086386180,-0.003407808313549,-0.000162684535065,0.004326007731074,-0.000199924775730,0.004545850069297,0.002572756648841,-0.003760542073435,-0.009166502613148,0.006445514343133,-0.009283732774704,0.002217639352618,-0.002187293855957,-0.000016945612053,-0.001551228952529,-0.003136135255142,0.005813947901388,0.003166364325460,-0.004758781903486,-0.000658769105404,-0.002746060642473,-0.000905025198344,0.004566890434283,-0.000345804154482,-0.005837927856481,-0.007564863453670,-0.002978232491745,0.008085360394482,0.005783749684334,-0.001510350549985,-0.003121247749808,0.005607663869054,0.002655693393763,-0.004847319611011,-0.005177305146243,0.007247468787959,-0.006560834508099,-0.003394053005376,0.001699621008884,-0.008713942089669,0.002655183322240,0.004878374120815,-0.001227795648032,-0.004786025231567,0.006594084523889,0.003349303976590,0.002122317173445,-0.008421686530656,0.002821200927654,0.005081610693047,-0.002968713563265,-0.003035743467706,0.000335287347729,-0.007471563703780,-0.007286792035381,-0.007847685637691,0.004560326871110,-0.007071679852668,-0.001752765380853,0.001802195473022,0.004922295845001,0.005273678057234,-0.009207809332975,-0.008653775279196,-0.002375757666376,0.008919354425227,-0.001465785329335,-0.002300605310612,-0.007825769072989,-0.008212151447421,-0.005373264607927,-0.006830647528845,-0.007872527754338,-0.001522503878632,-0.000812614504401,-0.009543539992157,-0.008452204925098,-0.001925630609602,-0.005695259689338,0.006872597430876,-0.009297656452806,-0.010330186066820,0.009637255150543,-0.004483503213527,-0.006821254661505,-0.009808676626351,0.002570632457259,0.002115044224531,0.010020015278601,0.001388817152211,0.007632437404741,0.006781900770526,-0.000313310937584,0.004127153085531,-0.000056256760176,-0.009815529973055,0.004437860716981,0.007401910617306,-0.006006177843280,-0.006060066141455,0.005140189986086,-0.008771741272023,-0.001986018970048,-0.002283215063488,-0.006254337660683,0.007858433817791,-0.004587638965932,-0.006337671956926,-0.000003429664143,-0.008930387287898,0.007474001306850,-0.000604720021242,0.007176653635043,-0.001240026720162,-0.007896341171276,-0.008875585414342,-0.003366138505543,-0.008919263910604,-0.002346471623779,-0.004522129176853,0.002692714241253,0.009663642674110,-0.003586267708138,0.007068253609971,0.009308553482814,0.002458259942370,-0.002026378312755,0.000684059720467,0.002882447556262,-0.007915619458608,0.004852218691145,-0.006118793437591,0.000182556495451,-0.000109109008871,0.005561304325550,-0.008759173499208,0.002051839396394,0.002622071658223,-0.002812066331480,-0.004346280752376,0.005406068724794,-0.004124694918792,-0.007265582337531,-0.006168099552546,0.009206611345542,0.006557678224439,0.003669178857782,0.000865766518965,0.003038284099053,0.003932764050458,0.009644265482159,-0.004885003125515,0.005919263484072,0.008688054319726,-0.009661270111221,0.006898506299084,-0.008537820088286,-0.005033181605160,0.007810079960831,0.007908086334908,-0.006175485757129,0.002572164778063,-0.007246246182795,-0.002994175398399,0.000967446368075,-0.000227877588423,0.005323165337660,0.005446367092216,0.004971395045341,0.005794849138395,-0.005332851763888,-0.008066705328809,-0.005626907022242,0.001972561337434,-0.003595401325269,-0.006258329807407,0.000984283298006,0.006638754606690,-0.000848098870570,-0.006511087830940,0.003760289308479,-0.001701208946985,0.001605844097526,-0.009784026854052,0.007622005599587,0.003504222644835,-0.002837138413865,-0.004639059889934,-0.003671828688713,0.002529568613179,0.001869761999564,0.000970070017376,-0.006687313616813,-0.001550131517275,-0.004859894573879,-0.005685293099606,-0.008451436171167,0.010067689615761,0.009877875942105,0.008476988058679,-0.006862967742661,-0.004227788549739,0.007701340438356,0.004764472105340,0.006848129671702,0.009796893705122,0.001537285996420,0.000579505247937,-0.002851950002018,-0.004782614871276,-0.002731457398047,-0.005559444072132,0.000611984716283,0.006904738719040,-0.003261481346559,0.007815198508386,0.005493193295177,-0.007413470647270,-0.003679519171326,0.005728983577537,-0.004742464782822,-0.000250608117471,0.009920779486635,-0.008222914702967,-0.008320830202393,-0.008053485853575,-0.003384741469086,0.008595187070714,0.004519428017002,-0.000588785699375,-0.007226481416273,0.004087027271367,0.004272328743347,-0.006776431704275,0.005249828651388,-0.006370288184403,0.003348694768120,0.000879318064110,0.004611109705731,-0.008227854198356,0.009410533423234,0.001017562945637,0.005889963519740,0.004056089056793,0.004526088242865,-0.008327006294550,-0.008598666101262,-0.004013299326869,0.005016235213604,0.002131329649764,-0.005788194327717,0.003712980460013,0.008561766851579,0.002998413613230,-0.004964040831615,-0.001537534895378,-0.007781706360012,-0.001439247582616,0.008853144819564,-0.004793060707117,-0.008588690163738,0.008095071175314,0.005884036231164,0.004770552125524,0.003793424287028,0.004486828995654,0.001049413750059,0.002775212047431,-0.009082208362474,-0.008936453332509,-0.004695517299979,-0.003885976657196,0.007362617743763,0.005670954112598,-0.005062125459889,-0.002441275297775,-0.007281748552683,0.005956635857449,-0.000325674412702,0.003716651725076,-0.000991510039122,0.008293497114813,0.008853583641972,0.006883099323725,-0.009820344252774,-0.007202700983388,-0.006779275475167,-0.005484634214009,0.000458525163985,-0.008835267777847,-0.005180473077078,-0.001238168549913,-0.005312505986855,-0.002570063249905,0.005928911178854,-0.009212391457347,
0.003916074262221,-0.001647886966477,0.002612633585894,0.003065678349611,0.000160884875597,-0.005083433931258,-0.004274555884938,0.007172792404237,-0.000348903556675,-0.009496074262221,-0.009001400330293,-0.008256280319088,0.000287705794602,-0.008215877759703,-0.003571675167043,0.002814636073617,0.007058330587404,-0.000274617626470,-0.007740384513688,0.004921799292632,-0.007671090012467,-0.007243038868665,0.005830870656225,0.004741835823381,0.004022488837310,0.004955360764232,-0.003159778235368,-0.001545982032357,0.008023397564520,-0.004565896877021,0.005478497460331,-0.008829822958537,0.000322986293535,0.006471535659165,0.007010832306653,0.003302844085778,0.000809963195189,0.001478132312917,-0.005627940925268,0.003127691013454,0.003713003862940,0.000656059515309,0.009788287921690,0.000905715800926,-0.000201782287877,0.003535899108800,0.002153384254134,0.006787159179311,-0.002677612360794,-0.006043813274630,-0.005881748517478,-0.007714369377058,0.001518054849869,0.004497631131426,0.007886525840555,-0.008076601185114,-0.004241134756313,-0.001230330615735,-0.002670429021226,-0.008898514182034,0.009276528913224,-0.002881099063045,0.000738643879409,-0.009263902711503,0.007447724177816,0.005450345486282,0.007974841121727,-0.008690139086038,-0.001792223319626,0.001433990033037,0.005092978777779,0.002189747389380,-0.009711818194701,0.002911252769035,0.004284926125619,-0.008737026860864,0.001464283974972,-0.008727728271970,0.003625503586681,-0.002484928038192,-0.008001051036579,0.004618473017532,-0.007116940715206,-0.004049964187242,0.005251265730178,0.009804855793892,0.006925658253952,-0.009120504200557,-0.008236089620879,0.003556865473503,0.004160320304513,-0.007124409826929,0.006944487317877,-0.001717378497301,-0.004939345760159,-0.004803503956059,-0.004063492128583,0.008209114084651,-0.003640187701089,-0.008158233945114,0.003971071758971,0.008114109244656,0.001428309437373,0.006003522162251,-0.001165595162689,-0.005063954861241,-0.005972740207474,0.006403875455303,0.004320767041401,0.006492662847954,-0.006418252113295,0.006532997440621,0.008482523711384,0.009461109550936,0.008369259502060,0.001197455782577,0.009140224033918,-0.000208350611907,-0.004045191347185,0.002751574677435,-0.006225278215591,-0.009374333700181,-0.006782965252951,0.009084233339972,0.000479032202629,0.006446151741245,-0.009511630017381,0.006099624239444,-0.004925838559233,-0.008835152462471,0.004223493475638,0.009755845241157,-0.001373971041425,0.000434954652211,0.003861794896745,-0.009816282123070,-0.004209631751157,-0.008043207658853,-0.002533600458673,0.003831383643389,-0.003750242063708,-0.004632605226391,-0.002483925539029,-0.002448517353265,0.004160055426875,-0.001689335648558,0.005487396358334,0.004194233261392,-0.002067875835156,0.009584653526164,-0.006020123329323,-0.008808051657519,0.007263415043023,0.003977017987380,0.009062187386503,0.007823404489559,0.008577875781295,-0.009522249337326,0.001550142774177,0.000682854346253,0.009816058625526,-0.005165954532132,0.006054570296032,0.002115852933996,0.003935342474075,0.000272038673243,-0.002881851411994,-0.007235667999922,0.009706962677730,-0.000809560730933,0.000660838148601,-0.000386015071560,-0.007991548536255,-0.009807842668184,-0.007515729285656,-0.000797257119282,-0.001433924308207,0.001215118395529,-0.002050150199366,0.007992870098971,0.000825618464895,0.009109585077879,-0.007217407471794,0.002252226197335,0.009432263470400,0.002886441975864,-0.006951919804582,-0.001132621374823,0.005892748738803,-0.006352914535459,-0.003737587413131,-0.002995617862269,0.007083929467246,-0.005739848002018,-0.007274180147675,0.002200072256433,-0.005465449611984,-0.008765548875747,-0.000365528781025,-0.006952243761987,-0.005941974642421,0.004785914674563,-0.006854848405491,0.005139679538014,-0.006833316179463,0.004228010446143,-0.003102853493113,0.001759767642607,-0.003799440512664,0.000824664251297,0.006280837698504,-0.000317754164752,0.008980698330921,-0.004479643670933,0.004566472832873,-0.003635979589466,0.005932312903104,-0.000704960776479,-0.004137077740181,-0.008408648982391,-0.001968728294820,0.005113358690788,0.007959585498873,0.002207734650295,0.007187758276177,0.005259775774530,-0.000746028274580,-0.008806806258418,0.007070484366604,-0.004139358870004,0.002594130589767,0.006900782763085,0.001072742847176,-0.004839397404064,-0.006000654499009,-0.000277899465488,0.004309110465465,-0.004539938030351,0.006714325481308,-0.004330325360827,-0.004853769877366,-0.003493047336959,-0.009045470583997,-0.001333329953186,-0.006556400895600,-0.000590027727478,-0.000045856792201,-0.003952312408140,-0.001592096228229,0.006131994598032,0.005989967669645,0.008272470346967,-0.002820057039207,0.001337311453706,-0.008754682332929,0.005795965491140,-0.008615693006828,0.003228153993397,0.008404710446285,0.007874508514281,0.007224757580581,-0.001010948820140,0.003673990663288,-0.002315858058953,0.000870092974313,-0.009242112742122,-0.003110832899842,-0.004752331316100,0.002969414852250,-0.009180549885383,-0.008420740980181,0.000366635899304,-0.006093303807354,0.002828465255179,0.005590865499891,0.009404365994646,-0.003924707489339,-0.008767527685012,0.002155523194092,0.005660235433830,-0.005496068743409,0.007657566463382,0.004282182696003,-0.005519234374071,-0.008675987090950,0.004267569129283,-0.002692939097846,-0.008844247888305,0.002067860766725,-0.003067729720708,0.005979349449227,0.001585341115796,-0.001994323699795,-0.009436600444710,-0.007849439655896,0.004549205072899,0.004650981502829,0.005840965201632,-0.005356319783899,-0.000062811412472,-0.004869450871880,0.003188536864854,0.000984860437238,0.005736514951175,-0.002891068296471,0.006269821820185,0.001481610999552,0.000613041837196,-0.004967599013153,-0.006163781775488,0.000218913135044,0.004987751316831,0.008850428364403,0.004214753304538,0.009641944924859,-0.003735641386482,-0.007615579731087,-0.009463148224833,-0.008489407569712,-0.002615383209451,0.003458455481626,-0.002483813686712,0.000380019686531,-0.004977470419207,-0.005417030380472,-0.004473774932428,-0.008717750545609,0.000497273457781,0.005900503971945,0.001848627451149,-0.008262318063995,0.002222584190860,0.005999294664877,-0.000057662787078,0.002902037117520,0.007561547818777,-0.005760556901985,0.003335741118456,0.003947344037602,-0.004369316966909,0.002164345356771,0.006536381176905,-0.008612403399175,0.009839498362852,0.006178372941205,0.001589069737981,-0.002300051047358,-0.003363413135815,0.005823909960033,0.005627689696134,-0.007902160364712,0.007190239383112,-0.007564404899932,-0.008501702079128,0.004100531679720,0.002536870750209,0.003016425234789,-0.002670275982297,-0.005499133891110,0.001660111394145,0.005468516804719,0.005647424720819,-0.008000840008830,0.002170832613114,-0.001140598894391,0.007116101369774,-0.009387267960648,-0.002536126221720,-0.000528661528387,0.005423235934666,-0.002480738646684,0.007312763287332,-0.002381900405945,-0.007867927980566,-0.004454206837575,0.009241729627811,-0.009170323462743,-0.007325154394292,-0.001866537436770,0.005589839054196,-0.001902689738710,0.003727127716466,0.002584386296485,0.008809025352796,0.008201587561099,-0.002004860651909,-0.003630723540776,0.003174186825552,-0.006934178701439,0.008594542464646,0.006018031625481,0.000056732835242,0.004061488711668,-0.005612677510674,0.008792692916040,0.009744438531083,-0.006434333670581,-0.000144644545770,-0.006837323404708,-0.001878332766535,0.009403688176973,0.004422101420946,-0.006148672185375,-0.006430459757417,-0.006681224535706,-0.009670107476917,
0.001015515431113,-0.004411898188924,0.002525437102609,-0.009055614146573,-0.000232889454906,0.002774913913036,0.002317510752682,-0.009074947458220,-0.000417456077663,0.001344484568887,0.004835807178773,-0.008372951441623,-0.004326630160056,-0.004763099877504,0.005491345162008,-0.001623174283113,-0.009523558372375,0.001137157191934,-0.000111981372450,0.000269710870715,0.001862800198281,0.009154584347593,0.008295718415846,-0.002794220848936,-0.005097021077284,-0.009550715007100,-0.006749197979033,-0.007676547800093,-0.006665008034563,-0.001388831145839,-0.005847967551984,-0.002977103126005,0.000917148646301,0.002550250373781,0.005410585675035,-0.009824803461489,0.004119224093715,0.007785122221534,-0.010179728878885,-0.002838728017895,0.000620014920519,-0.002312557681219,0.009052640943907,-0.008437555185087,0.000038171047048,0.002873588892739,0.000542988198324,0.007445457843868,-0.004256812191462,-0.006428494889539,0.001068301189608,-0.006573339412229,-0.009543457017587,0.002476898044808,-0.006852572136525,0.007748980552002,0.008730378145389,-0.006111163402661,-0.007494071942072,0.006486939230867,-0.006147686206915,-0.007673916303963,0.006945103155652,0.000077943510732,0.002842530822173,-0.005814868317621,-0.003325074255876,0.009188832985361,-0.009367576270203,-0.000882900144138,-0.006544740842028,-0.006447182912832,0.005973347914756,0.001419671201119,-0.002664015752761,-0.001698829267021,-0.000986923837607,0.005516396024458,0.000584971651879,-0.000005291528815,-0.005265049848018,0.007381178887143,0.008418885711115,0.009171028129800,0.001050140283684,-0.009256007416488,-0.006470255416543,0.005316772416476,0.007127448663906,0.005727475139557,0.008975602366735,-0.005234426450851,-0.002723434270965,0.008496022782373,0.004280586777136,-0.003982597337237,-0.001544563253183,-0.007359659598787,-0.009834259223640,-0.002568626898469,0.002087886113470,0.005777802272050,-0.005597433455283,-0.009399671269091,0.003867810455614,0.001476207899102,0.005930295620801,-0.000807973507834,0.004389651356500,-0.001034025644441,-0.006547550255758,0.007453658790864,0.006722387013740,0.000095673148011,-0.007856829551248,0.002918739869814,0.003407781726327,0.004590085486608,0.001502075116159,-0.008200196399053,0.006863781460666,0.009841003947024,0.006068080207459,-0.000590841457679,-0.008216018972686,-0.007296094920841,-0.005413596867718,0.005013393780455,-0.006624285200280,-0.008113120778128,-0.004595548072998,0.006563230937033,0.001605061589550,-0.009431408700290,0.007953914239546,0.007742323250496,0.003300279003031,-0.001694965327683,-0.001060435455636,0.002376308524180,-0.003134574568208,0.007389133370637,0.004369781589765,0.009595754464271,-0.004371096145081,0.000585580917708,0.000009945849551,0.002838738695931,0.002516048536425,-0.002855998621871,-0.007407710625990,-0.005901926174053,0.006466057761068,-0.004867756346497,0.002637004676747,0.003442567700202,-0.004665177452884,0.003339722216835,0.000569126953264,-0.008307170512310,-0.001899036648986,0.005553871473998,-0.008936833188773,-0.006728451247831,-0.002813616344909,0.006151991886465,0.002217373543451,-0.004643898367699,0.003482862180466,0.005065547292591,0.007129573823275,0.000237798822766,-0.006772473722083,-0.005170208042081,0.010012894897168,0.005139661804359,-0.001132674693834,-0.003753505290206,-0.000087105495327,0.007410654465145,0.002104305685515,-0.004258381346295,0.006168174819123,0.009222592212970,0.001110559720613,0.007334397025426,0.005284800490602,0.002937644982710,0.005543006885106,-0.009191402230082,-0.006558757397825,0.002193429952635,-0.002942056317233,-0.008062056971046,-0.005824292223537,-0.009222058696183,0.003951300539422,-0.002761005475208,-0.009978590137508,-0.001225070794916,-0.002752244349870,-0.008296542701657,0.004718885626679,-0.003110935008807,-0.006126774410026,-0.002447674055989,0.003218820443607,0.007549444922663,0.007289851703907,-0.007442677507575,-0.005165225970157,-0.009454986038295,-0.001769805313862,-0.009621766900731,0.007727904180223,-0.002338306448484,0.001071075991473,-0.000121672475099,0.004824945225925,-0.006173316420552,-0.008719127753092,-0.009922033993041,0.003127965186068,-0.003141140765498,0.007158374472209,0.009177793021622,0.005858162015453,0.000988332128826,-0.003991073342511,0.008685825344496,-0.000289300056435,0.003821353957048,0.009830738500983,-0.009570948338211,-0.007530561106591,-0.009342785646844,0.006727442759953,0.009040609021392,-0.009191572150931,0.008325553118176,-0.003910520105060,0.007921712510280,-0.005913804370014,0.003401648894438,0.005703148001882,-0.000345908589618,-0.001858889945749,0.008384763061183,0.001814429733120,0.009202963596549,0.004283053129282,0.006344680089889,0.000354425991427,0.007562884103192,0.002325954906368,0.000915500918484,-0.009726623347389,-0.003537387181137,-0.007800658468610,-0.003518493346803,0.001237518766841,0.009084217413782,0.001179963250345,0.008547508598297,0.007499060794648,0.000308646925776,0.004126441325797,0.005191725895399,-0.002540402595671,-0.010084127441424,0.008332933557681,0.009072081185545,0.002814829869402,-0.009520585768651,-0.003738702733507,0.008000893683068,0.001549493908587,-0.004435521792429,-0.008780246187108,-0.009390283946305,-0.009980102461304,-0.001232465995373,0.005586961374342,0.003085760552657,0.003532054162272,0.002858644202988,0.004035101294764,0.008442571587756,-0.004870935990406,-0.003174911883326,-0.004951410016409,-0.003920939298809,-0.001742090373360,0.007618694396478,-0.002360763544855,0.007192824861811,0.006863788208658,-0.009423913151598,-0.009494296459480,-0.005226991886214,0.008573823107964,-0.001982371693531,0.009545770354525,0.001658593626928,0.001458348665753,-0.002091033678623,-0.001676636002514,0.003525618349978,0.004185949485041,0.001357464178300,-0.002003370363031,-0.005985935788680,0.007449378502042,0.001981503055424,-0.000619083193097,-0.004567376948165,-0.007580012131437,-0.000612732972812,0.003715279371272,0.005992637887694,-0.009899388538760,0.001072709395176,-0.009809120527123,0.005105500213099,-0.006324276478407,-0.005314356962645,0.006176468260749,-0.009712648603116,0.004991947911880,-0.008405670983883,-0.005045174140115,-0.004022951276879,0.001323935891985,-0.009725028511579,-0.000379389679560,-0.007284956091583,0.007236213688479,-0.005852088076622,0.002764770317528,0.004670281142012,0.009112282034105,-0.007438477102717,-0.006376080180295,0.000073826357923,-0.005850819528672,0.005797149729775,0.001202053615487,0.000020700236057,0.008261609687599,0.000567827472236,-0.004041493085974,-0.000566483755973,-0.003113129211821,0.008820952398195,0.009006727878738,0.002213496723642,-0.008624557648404,-0.009089861790933,0.007573639322470,-0.002308419388610,-0.000222148620774,-0.005257703522726,0.008401694739127,-0.004077454610276,-0.008331846542874,0.001190906262941,0.007428054594495,-0.002448458605706,0.005718105114676,-0.000860893414332,0.001943562030456,0.003895085558996,0.008678436161008,0.004473946908516,-0.003099043971621,-0.000720232736617,0.003058026429953,0.008177739285891,-0.007929542080181,-0.005838222540248,0.004041818656786,0.006817641993117,-0.008650244836717,-0.008766375509203,0.007647244960411,0.000314644383032,0.002479582379236,-0.006332269202731,-0.002962364365930,-0.008791385139058,-0.006302597721032,-0.009349604994635,-0.008080984920872,0.001847828491509,-0.003569072280455,-0.008099557639699,0.007290833076979,-0.007768937775160,0.000444165381747,-0.004425478361513,-0.009264480352713,-0.003932754604926,-0.002020747290724,0.003605899718649,-0.003274447708412,0.001801336266138,
