0.012445134425432,0.008895890183826,0.004483661493788,-0.000948621714146,-0.001404999988154,-0.000932849987968,0.001846063153439,0.002335109475018,-0.002049921507172,-0.000620197985361,0.001024331708933,0.004188101913076,0.001563480007462,-0.000958836421554,-0.002855139233700,-0.003054999979213,-0.001202425378747,-0.001292270535908,0.005730539101845,-0.002284999936819,0.004382449421932,0.008868248349822,0.004387584371449,0.004801735747606,-0.000805000017863,0.006506355005784,0.002917988029167,0.002020000014454,0.002538340233827,0.004571172423302,-0.000141657456633,0.000130000000354,0.002184455662912,-0.003482057014480,0.001931866359927,-0.000027781730135,0.001644999952987,0.003150000004098,0.001691646962859,0.004765000194311,0.003666335760254,0.001966306878761,0.002172721527298,0.004592258948833,0.007421244415686,0.004195316687710,0.002752110435356,0.003943303654224,0.001798158239689,-0.000921800092328,0.000852935406484,-0.003630254883319,0.004214339280361,0.003836457636066,0.002300000051036,0.002086413857310,0.002428628253110,0.001800266562513,0.002439999952912,0.005442183242824,-0.002639960183324,0.001448956854097,-0.004014050588012,0.002179628238082,0.000745627865629,-0.001301739728116,0.003735000034794,-0.000906706748623,0.005643894842919,-0.003054803470150,0.003491100622341,0.001241819076154,-0.001134371164517,-0.003012640780928,0.004833727908599,-0.003876082133502,0.003622635500506,0.007699346522238,0.002180000068620,0.000257202392272,0.000725358084310,-0.000396044313675,-0.001728048127156,0.003544627356480,0.000971727905150,0.002079980345362,-0.001691107461592,0.002368472250814,-0.004361830186099,0.006396361081675,0.009132696248423,0.000012162050874,-0.000437696432892,0.000157416448928,-0.001635496038944,-0.002045830624848,0.000179466180271,-0.003206127556041,0.000329501991316,0.000431858818047,-0.000568804363630,-0.001850000000559,0.004674652977931,0.007798393050137,0.003917014226317,-0.003572226269171,0.004173821154230,-0.001278947920226,0.001733394960925,-0.000305345810631,0.005743599415794,0.000434545509052,0.000246342329774,-0.001158768234745,-0.003327193991408,0.002643200801685,-0.000097525299813,0.002224717056379,0.002367559447507,0.007218657395944,-0.001422011396893,0.000646309519652,0.001041459668846,-0.000917514137109,0.003683719784021,-0.001161016407423,0.001365029325747,-0.001270256245866,0.012494254087492,0.005361998757444,0.005079829916373,-0.001448431398128,0.000576569375468,0.004272182729508,0.000514855162465,-0.000018156641560,0.002852987559000,0.005445412699661,0.002105549076925,-0.001977044273927,0.005113965831697,-0.000281227149108,0.004618162951081,-0.000990239437670,0.001647349189640,-0.001758510191894,0.002214585430920,0.003809205375821,-0.004154621756308,0.003321102248025,-0.004765000194311,-0.000429737847298,-0.003036008263663,0.003602698349777,0.006798653571335,-0.000944502261638,0.004915507618240,0.001293228382099,0.002462411866637,-0.001502391513366,0.004987400956452,0.004166757177327,-0.003198522813688,-0.001461645122617,0.004199121286494,-0.006610998883843,0.007624605592338,0.006012350155646,0.001077338891200,0.000202026175160,-0.000963049067650,0.002026731033320,0.003256337449786,0.002439119209729,0.005398361478001,-0.000050338890532,0.004671389399891,0.001286013057851,0.000340647995472,0.007686154815217,0.005442989462985,-0.001664010753616,0.007450822813394,-0.002814017861995,0.002791855903175,0.000703534577042,0.000960380828474,-0.004727635998279,0.000936991127674,-0.004899316001683,0.006464552629630,-0.003859866876155,-0.001762367901392,0.006966150300635,0.006766386487826,0.003874828845636,0.003968070023980,-0.002832677819444,0.002517314627767,0.004567584240073,0.002660070909731,
0.045791615875990,0.008558423662094,0.010306087587161,0.007461212021387,-0.000974999973550,0.007178987884213,0.013813254485324,0.000100384223714,0.002931296986893,0.009678808584865,0.007656782337812,0.019865088807036,-0.004131118766963,-0.003422056679764,0.000500371039163,-0.000440000003437,0.005133654896160,0.001351871590702,0.009668655766614,-0.003865000093356,0.003191712250301,0.013983023595883,0.007782074670982,0.002028170740232,-0.000760000024457,0.011665865273106,0.001129648235866,-0.002584999892861,0.006386392136833,-0.000405212534611,-0.000720622055066,0.003710000077263,0.005601395586026,-0.000042618376028,0.006407657149918,-0.000359446061118,0.002640000078827,0.003430000040680,0.001389607645655,-0.004449999891222,0.005275731737875,0.005079914147328,0.002982038888003,0.004665308166295,0.008314316811293,0.004877572886816,0.005040715519586,0.000823156986394,0.000379994970077,-0.002920097904280,0.010480168292020,-0.004641902167350,0.003627735459800,0.007873869156394,0.002270000055432,0.003819426473948,0.006466620498809,0.003720611799198,-0.002374999923632,0.003316785785484,0.004003678555330,0.008842188769562,-0.003721592482179,0.003749453695491,0.013225825483258,0.003002311297222,-0.003680000081658,0.008463084527785,0.008314765285279,-0.003892371198162,0.007171276956797,0.003116247453937,0.005346411116711,0.001623790229149,0.008323324930457,0.003445746144280,0.000937877397519,0.004801307715270,0.004629999864846,0.003394858510701,-0.001275675836951,-0.000765725737438,0.000890776309359,0.001504550065912,0.001270235219388,0.005105980220505,0.006046242227825,0.004878925695710,0.002044652821496,0.004019621786936,0.008868436932485,0.007387020556377,0.007601665232631,0.002610733034089,0.000826420146041,0.000687536285003,0.007577282376587,0.006638406775892,0.007019734187591,0.002713020425290,0.004274993122391,-0.000274999998510,0.001181349541277,0.004739243965292,0.004983388818800,0.003233170602471,0.000101466296827,0.003363270100527,-0.000364068474449,0.001312399258039,0.002255764995340,-0.001551693654619,0.000894902157597,0.008620978307043,-0.000878581418864,0.008258746005595,0.006319712696394,0.003183975815773,-0.000884491836960,0.005169325761089,0.000895130152416,-0.000221544396481,-0.000213652787103,-0.000004276180837,-0.000098916862044,0.002239539055154,0.007619772004847,0.007670033839179,0.017538298348864,0.007968120953628,0.015059779650385,0.002130923404211,0.003060956794732,0.002608477054700,0.001524953585379,0.007003295278035,0.007129822345586,0.010164084758084,0.001784852473113,0.003305576840058,0.001589397783391,0.003245053077970,0.008428811953852,0.007174456026405,0.008743194358692,-0.001542513031713,0.000167899488588,0.003530770275491,0.002045359154239,0.006559050477404,-0.000835000013467,0.006103058811277,0.002809846106736,-0.000487322600269,0.012506356689593,-0.000150643176010,0.003283660917383,0.005798261292252,0.009755579862873,0.004883909898651,0.001273376052268,-0.001015772132478,0.003976879773919,0.003445681184530,0.011660138767220,0.003276955336332,0.006863405020789,0.007331400273319,-0.000954623360142,0.007995075777360,0.007117955014110,0.009040833957726,0.008766866808410,0.001360866754896,0.008282323367894,0.002100933053452,0.000104602789981,0.004496056923273,0.000294464058243,0.006949461617793,0.009265002034665,0.004293931391419,0.010293203824126,0.000060420675291,0.001720854329992,0.000583231449127,-0.002814569277689,0.000866733025759,0.003764256369323,-0.002053088042885,0.009762756733372,0.003378770314157,-0.002431769156829,0.004534780414560,0.009749410687812,0.003179749775331,0.004651573531961,0.003970911548823,0.003779727034271,0.003067579571902,0.008413127425927,
-0.011734050787112,-0.005147621712381,-0.006688450184462,0.000939871518684,-0.001700000022538,-0.005591609061325,-0.001772382423178,0.001348949730497,0.000223560877085,0.002362901846703,-0.000911634293997,-0.003386732976055,0.003143455367535,0.004612534647831,-0.005714146464485,-0.004275000188500,-0.003728665655173,-0.002049489955982,-0.004390826565053,-0.004310000222176,-0.003823296436692,-0.004527387113903,-0.000080486402376,0.001088598975912,-0.003335000015795,-0.002226414355762,-0.002213913077242,0.000654999981634,0.000793530209686,0.003300257065729,0.001672517995525,0.001075000036508,0.003538856619910,0.000072015231126,0.001704896056236,0.000995694947925,-0.003419999964535,-0.001664999988861,-0.003319300430446,-0.001924999989569,-0.001871166224613,-0.001857117473432,0.000919074811795,0.002806095406413,0.001033891506496,-0.002340805725146,0.002627590109076,-0.002440515519886,0.000012306043776,-0.002826468320563,-0.001664766032373,0.001999914413318,0.000334758309394,-0.003557455438767,0.004095000214875,-0.003989869596034,0.000790755785315,0.000236071643588,-0.001425000024028,-0.001719835606045,-0.000550974085607,-0.004471357352426,-0.001231635338627,0.002488925587386,-0.003394044710265,-0.004254175775120,-0.003024999983609,-0.005260288862414,-0.003398092452114,-0.003763972315937,-0.003402260132134,0.002402197763400,-0.003673178339770,0.003906722137768,-0.005215969251032,-0.000430246785982,-0.003680117893964,0.002429868508137,0.004455000162125,-0.000482505981087,0.001346404314972,0.001790378475562,-0.002252076316486,-0.006276304446060,-0.003059530573995,-0.003510658989569,-0.001136742901465,-0.004206233917590,-0.001885978272185,0.000869141500712,0.000898660147729,-0.001609085247536,-0.000905355128017,0.001184976194054,-0.001651505823247,0.001787038414561,0.002209528349340,-0.002325097098947,0.000604835749958,0.002849765820429,-0.002449334575208,-0.004319999832660,-0.003979550341176,0.002130014891720,-0.001077555585653,0.003454428864643,-0.004919362826722,0.003514649608215,-0.004629856353660,0.003072443633885,-0.001906754176775,0.003942690324038,0.003861662698910,0.002154476488666,-0.000055748269054,-0.006202633958310,0.001287341705993,-0.004313221201301,-0.000311864408318,-0.002354115385274,-0.004050247002908,-0.003565858583897,0.002908097489571,-0.003716806110252,-0.002404627623037,-0.002508841222152,0.000708344441760,0.000314387126651,-0.006683246313935,-0.002534392644784,-0.006666739852758,0.003549393578928,0.000565033012729,-0.000347651765810,0.000079197601994,-0.001482471614814,-0.005962241145880,-0.001569100516077,-0.006401083865737,-0.000784844647311,0.002171230269596,0.003417071989699,-0.001657696149498,-0.000568733259570,-0.003760918495532,-0.000969628045696,0.003321238793433,-0.004225648209594,0.000893769962498,-0.005928787719771,-0.001810000045225,-0.002549344208091,0.000410895920312,0.002719907437836,-0.002340749808966,-0.004272052011503,-0.005343640265202,0.000160566199446,0.000993289223388,-0.005221438016242,-0.002223558723927,0.001225325824922,0.002018676389873,-0.003057523630559,0.001133991497315,0.004777503199875,0.001968400603541,0.001130929206780,0.002625462075561,-0.004630596478255,0.001377619686536,-0.002019539335537,-0.004349932063543,-0.004615488254770,0.003408778924495,0.000144383326438,-0.000987132028480,-0.004659741668038,0.004222118761390,-0.000252417711949,0.000447496646790,0.002975195538796,-0.003887178628616,0.003940945047511,-0.006659072224588,-0.005566243082285,0.002740373602137,-0.003088756930083,0.004354126751423,-0.001716065104119,0.001110644656693,0.005263479426503,0.000077578981291,-0.003938133315455,-0.002253732788000,0.003734166682432,-0.004499121253423,0.000035088810052,0.002791771199554,-0.005970757699666,-0.002517111640007,
-0.049686928038447,-0.007522348491553,-0.009865984337458,-0.006835145435021,-0.001294999965467,-0.008375033970585,-0.009001948536095,-0.005114679618472,-0.000497426308578,-0.005410801299410,-0.003129025004494,-0.026123805906581,0.003853496396914,0.001084379616306,-0.001264367273142,0.003740000072867,-0.007336959325219,-0.008624280509220,-0.015196506369017,0.004805000033230,-0.006551857947667,-0.019568249086712,-0.003720266014261,0.003031302709132,0.003179999999702,-0.010166050954847,0.000753636215909,-0.004914999939501,-0.009334502379770,-0.002252275381851,0.003201121714496,-0.002945000072941,-0.006151588082325,-0.000537550717127,-0.008886431638950,-0.002436552034227,0.001180000021122,0.002425000071526,-0.004051779957813,-0.002240000059828,-0.009542470434906,0.001346015507053,-0.005998739083403,-0.003444153117016,-0.004571417590516,-0.005040688937076,-0.012444120640791,-0.004584474178178,-0.003172276084212,-0.003000380238518,-0.018579234717189,-0.003152334364131,-0.006358087810176,-0.008200397872219,-0.003409999888390,-0.005935630264136,-0.007401935668759,0.000078331901489,-0.004869999829680,-0.002529682153523,-0.000274563156588,-0.008332210474330,-0.004150547087193,-0.004248950164765,-0.015527574874194,-0.005493032354927,0.004399999976158,-0.011484388722858,-0.012333651064921,0.004101760685444,-0.001819608034566,-0.005216002304771,-0.006602107821812,-0.006375726900210,-0.001601632042935,0.001788315945305,0.001617565983906,-0.013538172795677,0.002994999988005,-0.012580805921582,-0.003198226448148,-0.007411911152303,-0.001662599082497,-0.002167731366737,-0.008740173263455,-0.003910534663487,-0.003111159176286,-0.004103691574631,-0.005594417452812,-0.005917059803151,-0.012229216854989,-0.011758151344043,-0.011724967422411,-0.003360140603036,0.000180937044206,-0.009637435196768,-0.009265870787203,-0.000802324386314,-0.004486335818767,0.000293511984637,-0.007508911762760,-0.001850000000559,-0.003522872782189,-0.011013595622091,-0.001577513176017,-0.003217218909413,-0.002743412855766,-0.000718728249306,-0.008165855096353,-0.004250776229784,-0.010253080918153,-0.002107334556058,0.003699271241203,-0.003182515864494,-0.002843035217429,-0.000397090450861,-0.011805915567564,-0.000595802091993,0.001838979583649,-0.009573597916021,-0.002719851170546,-0.004677705001086,-0.001306016655115,-0.003915392637002,0.003746142145246,0.003075108863413,-0.007184228615620,-0.003147160590546,-0.023310159981990,-0.013740559817519,-0.022324666325766,-0.007271111158020,-0.007293587198245,-0.003591595043295,-0.009092475047029,-0.009345554709436,-0.006355142842419,-0.010881602243892,-0.009983488591559,0.001810535588056,0.001850725733675,-0.005402287289076,-0.010102596316390,-0.003295617410913,-0.004378403082309,-0.004900415629461,-0.001382328104228,-0.008258468192179,-0.001842681266433,-0.004061586713150,-0.000995000009425,-0.006073218770325,0.002388652929729,0.001752640827869,-0.007825028588626,-0.004234507338635,-0.013235711573987,-0.004079676068215,-0.014185280458833,-0.006052455885833,0.002589589217678,-0.004136116800436,-0.002766111051872,-0.001338401692919,-0.010583749623275,-0.003293694928288,-0.012757637739310,-0.010539930940360,-0.000185148688985,-0.006063898971654,-0.006567807402462,-0.011180712538522,-0.010226310010621,-0.014108502980529,0.000349025474861,-0.003199071242632,-0.007162536560897,-0.014584439194897,-0.004054542630911,-0.011779040147174,-0.015542734394353,-0.000103649411649,-0.005049016653306,-0.002318686223231,-0.010986895398289,-0.005933790933341,-0.000714451016393,0.000095270821475,-0.001250129891559,-0.006767361424863,-0.012165581305796,-0.001164167770185,-0.004059025552124,-0.009112654636827,-0.004140893058796,-0.005193217784206,-0.005888366612400,-0.002373727080795,-0.002261638175696,-0.010215612519175,-0.014356422594410,
0.055974237867496,0.012662936035950,0.017637041319207,0.004602740918332,0.004894999787211,0.006372546216669,0.015402164483286,0.008536847065344,0.005196970957792,0.015670844088504,0.003153025724143,0.031159654130957,0.002143513644114,0.004513301346153,0.001622020072018,-0.004375000018626,0.002677694937468,0.006587985118619,0.012928652333075,-0.003379999892786,0.005745167133647,0.020051153635782,0.008732326381221,-0.002259857254103,-0.002644999884069,0.014121269519998,0.000290695959693,0.002825000090525,0.011033705420678,0.000581267696354,0.002436919693951,-0.004250000230968,0.010238048109038,-0.000783255614806,0.011719250077562,0.008092249007484,-0.002864999929443,-0.003920000046492,0.003860505147808,-0.002765000099316,0.011533241269576,0.004255158306404,0.006421535423454,0.005660413298756,0.006380802012102,0.005530869451785,0.013402359051505,0.002938928458574,0.007244911956613,-0.002480703406036,0.021948746645274,0.000224490824621,0.005289475863641,0.011576933504559,0.000380000012228,0.006807448154631,0.010048324372058,-0.000655283437028,-0.004935000091791,0.010433038472836,0.004548235034963,0.015232776654390,-0.002665289444849,0.007605097256601,0.018441606274605,0.003522232198163,0.003759999992326,0.009778625331055,0.017726395742485,-0.004700351040810,0.003465639194474,0.006849991732386,0.003337684832291,0.010671079783222,0.005565495897365,-0.001966653857380,-0.001590381376445,0.011367953094762,-0.002820000052452,0.010790408920778,-0.003104245988652,0.000133823807118,0.009598880993597,0.010273514703650,0.006767053694049,0.005780475039102,0.003606851203116,0.008208348765422,-0.003674278967083,0.012476364764750,0.011523958151236,0.010516034841690,0.014696818311401,0.003683041781187,0.000410029082559,0.001437305075903,0.005161157343537,0.003985728602856,0.007018016123332,0.003761769970879,0.008478554241885,0.002989999949932,0.011250501948689,0.006183811066098,-0.003360620932654,-0.001301282085478,-0.000093669666948,0.008028689619533,0.005830842529224,0.001948728891077,0.007387228056087,-0.002002437599003,0.003894398221746,0.012643999249686,0.000074131379985,0.001460114610381,0.012672210246921,0.005662339739501,0.000128773657628,0.016000837236750,0.003673638067924,-0.004078882280737,0.007592280937538,0.005432555065619,-0.000491555663757,-0.002305529313162,0.010811464020519,0.004994097146484,0.028446299762270,0.015615127971159,0.028536634367910,0.007069294728761,0.002434187113744,0.006376948548754,0.006596813477856,0.010213111741836,0.009520206165319,0.009721786961648,0.008694603766290,0.001260789349369,0.003318076953292,0.002908255414096,0.010726895740440,0.002226770855486,0.013504247745835,0.000215231219623,-0.003907856997102,0.012571376064910,-0.002896123821782,0.012102628609277,0.000769999984186,-0.001228976878338,0.003581286615058,0.003774343464759,0.019517854036258,0.000529544615491,0.012355742113641,0.000148763592065,0.018834072879324,0.005699642122944,-0.002657311270013,0.006016459274534,0.004992109805999,0.002830300247297,0.012110261726465,-0.001602721167728,0.016426146052177,0.014065292155349,0.006218675114703,0.013753047698632,0.000475228705909,0.008825436985911,0.012247523935545,0.013613338130695,-0.001123565016314,-0.002454306996236,0.008837783216844,0.015674210088411,0.003399915527552,0.012979072529431,0.011815779443694,0.005695691840055,0.014963144938387,0.012958063167429,0.007164953071729,0.004391652997583,0.000480526272440,0.002125111175701,-0.002780697308481,-0.002653516130522,0.015204458247525,-0.002940342295915,-0.004490517545491,0.013036197506917,0.011706092126966,0.003733845813626,0.000940767188706,0.004674317939174,-0.002140843775123,0.012474140292143,0.018293423494776,
-0.032222180204669,-0.010498401143853,-0.012964567257892,-0.002409408767506,-0.003684999886900,-0.007242161098473,-0.007740560959628,-0.008920866637578,-0.005233558387550,-0.010194328788138,-0.005368888888874,-0.013993395155258,0.001288493047468,-0.003504619595655,-0.004294080437337,0.004970000125468,-0.005225325391320,-0.004018570237859,-0.008902176752443,0.003319999901578,-0.002597907217286,-0.013035428973172,-0.002721203558280,0.003514185082167,-0.000065000000177,-0.011357598943393,0.001316939760117,-0.000609999988228,-0.003240978888108,-0.001511869028542,-0.003814637392522,0.001509999972768,-0.002787807074843,-0.003136809449643,-0.009698422983136,-0.003762359257400,0.000150000007125,-0.000554999976885,-0.001153001724102,-0.003269999986514,-0.003030251566034,-0.003194555928050,-0.007648189057725,0.001134157297201,-0.002933345233152,-0.004778606993095,-0.007613154531636,-0.003991834311112,0.003090441237087,0.001357758999802,-0.015173072160772,0.003664753865451,-0.007587507180352,-0.008729688534014,-0.002210000064224,-0.000694084053473,-0.008533875292048,0.000312300356670,0.004439999815077,-0.009358775052330,-0.011568495208348,-0.011050328562539,0.004399610683322,0.005513459909707,-0.014657482507205,-0.004399599453174,-0.000564999994822,-0.006292467247824,-0.010186797449864,-0.004200417548418,0.001021174597554,-0.005263296905849,0.002046686877259,-0.004980756792883,-0.003128433977645,-0.000376160285668,0.001325660850853,-0.012210143766645,0.000214999992750,-0.005940448818988,0.005314711946994,-0.001240862417035,-0.010512086701702,-0.001621251292764,-0.011067049590408,-0.001295730787988,-0.003738016844880,-0.006307486884451,0.004364154301584,-0.005315650990169,-0.012842504166880,-0.000784086371116,-0.006896912534852,-0.003254642011598,0.000923261279240,-0.003817264057324,0.001203007996082,0.004733188543469,-0.002663424910847,0.001675038132817,-0.005259097861267,0.004894999787211,-0.009398633413774,-0.002357898397427,0.002947096480057,-0.002037052530795,-0.003518381564513,-0.001265466353246,-0.001269375664483,-0.003559831291515,-0.011271665109381,0.003618603106588,0.003447786904871,-0.009655157124834,-0.000283035456064,-0.003955901600420,-0.006428392366537,0.001155806239694,0.004027884401106,-0.013164264036202,0.004714223827512,-0.003696108469740,-0.001126153791612,-0.001433687999916,0.004183745011687,-0.005177830345929,-0.001692439719623,0.000048251683061,-0.023286195367719,-0.009386764781799,-0.023704710579111,-0.004330353728574,-0.006186654156808,-0.002833611317285,-0.011721812427349,-0.002679240507163,-0.009053803288880,-0.002526754314311,-0.005819212340856,-0.006592654105328,-0.006008562166244,0.000742012553503,-0.007741748560602,-0.001929170219228,-0.003927582077257,-0.005071224131711,0.003331769257784,-0.011167563720451,-0.003900712163652,-0.010145692100919,0.001870000036433,0.006858067587018,-0.001745128889163,0.000721680142779,-0.014326427714709,0.004652951479851,-0.007433360275110,0.001328399737257,-0.014263983585994,-0.003593804077136,0.001506015309133,0.000631843667629,0.001485526617285,-0.002606163267046,-0.002874431543952,0.008995390497148,-0.007134844196663,-0.008227183678806,-0.004506015685422,-0.002391479690715,0.007296323776245,-0.005735476304831,-0.014247589672769,-0.008917207457567,-0.000716954993550,0.001980850818709,-0.000057626670185,-0.004194372139385,0.002603195840493,-0.008901043086469,-0.011318719784379,-0.002915205826305,-0.005216876802139,-0.008713988349992,-0.006239945557243,-0.009412529878318,0.002855547703803,0.005242402665317,0.004544342868030,0.006774058099836,-0.015916757593918,0.007077685091645,0.003109044395387,-0.009959402966037,-0.008584538085240,0.002001598641734,-0.001354410231635,-0.000557342778246,0.002408861881122,-0.005323825249236,-0.011643522221314,
-0.042577955414659,-0.012807955331720,-0.014684376558461,-0.003008460604529,0.000920000020415,-0.007245461490806,-0.011695190778409,-0.009026812195047,-0.003327970675161,-0.013182148076107,-0.000211232644965,-0.029992633916159,-0.004191937856376,-0.001333994842206,0.000409855093825,-0.002464999910444,-0.004679119000582,-0.001830319919644,-0.012171973082172,0.003914999775589,-0.005921614760011,-0.022891114665114,-0.012418420058292,-0.001062593888491,0.002760000061244,-0.017896723131839,-0.005380039697850,0.001754999975674,-0.007227688541726,-0.004791651824338,0.001443017688102,0.002074999967590,-0.006489227348460,0.004442853387445,-0.012877292220978,-0.009507074428400,0.003460000036284,-0.002339999889955,-0.004594028028160,-0.000399999989895,-0.006487698431021,0.001050353281794,-0.008857096865534,-0.005910861771554,-0.009184477088912,-0.006474722736881,-0.007968820405380,-0.004324730802763,-0.004395059637418,-0.002206634962931,-0.013989492877109,0.002655258867890,-0.010560680517493,-0.007875870647230,0.002564999973401,-0.005714738841847,-0.010068073847799,0.002910956516458,0.000995000009425,-0.008551534499873,-0.006525540260483,-0.007265099826342,0.003021534532309,0.000226028976613,-0.019550477251616,-0.003901749369566,-0.003670000005513,-0.009511099466971,-0.017324645183419,-0.001355642103590,-0.006666479166597,-0.006103328326775,-0.003248220802376,-0.007674110045135,-0.006349976642447,0.001242042984813,-0.004704480990767,-0.011160484502445,-0.000639999983832,-0.012416113681511,-0.003795650787652,-0.001195610966533,-0.006636743099166,-0.008359608132330,-0.002728573832411,-0.011044113225247,-0.002667903486472,-0.007313686241407,0.001513686962426,-0.008435200286793,-0.012747158489737,-0.003445420079729,-0.013937494586051,0.002071646740660,0.003721952671185,0.000381051817772,-0.003847416024655,0.002060788217932,-0.004919743868974,-0.003794397925958,-0.012999413472077,-0.004060000181198,-0.012008240251835,-0.004395286070151,0.002882877364755,-0.000086792962975,-0.004305030881995,-0.010022842631465,-0.009734515915192,-0.003656850822068,-0.002072632024088,0.003927320241928,-0.003555525094271,-0.010139325503900,-0.003741877947794,-0.005091575440019,-0.007788576692549,-0.005270949099213,-0.003509179974885,-0.004851347583081,-0.009585317320722,-0.003900341689587,-0.002957820674720,-0.008673484981251,-0.004087495151907,0.003373410087079,-0.005441732474024,-0.006979515522313,-0.023007244858137,-0.014456704664095,-0.024720765373185,-0.001388926472293,-0.002579907313389,-0.003749916494254,-0.005442595769820,-0.016494065274845,-0.001481254204887,-0.009998121236797,-0.003144382147395,-0.000746414282593,-0.005535611882806,-0.002942302698416,-0.014798248747888,0.000816065235995,-0.005266423241041,-0.000895502010063,-0.000499022309668,-0.007845913650001,-0.004165014337939,-0.007923388030629,0.003375000087544,-0.006839760113508,-0.007091002348454,0.000732501981016,-0.014686977290869,-0.001129085398808,-0.014373040392674,-0.001273014242506,-0.012281249766233,0.000842204573840,0.002216812223196,-0.000516644297256,-0.000929797513178,-0.000815768260509,-0.013094775183185,-0.005667746998370,-0.013048142650006,-0.013214948374764,0.000155452295947,-0.009202570820650,-0.001735109603032,-0.006894042115104,-0.012951724003536,-0.013784191013389,-0.006400421261787,0.003110064497213,-0.005740402274165,-0.009235494171646,0.003580768825486,-0.005115507377509,-0.013622819962942,-0.007400997189559,-0.012589180558318,-0.010732314954878,-0.006402695096726,-0.003264433005825,0.001645442564040,0.003224376589060,-0.001244720304385,-0.005740616470575,-0.011959211529486,-0.006351262796670,-0.001157100894488,-0.009775896779338,-0.003419677391898,0.001292754501627,-0.000289784549273,-0.004196286507110,-0.003334617242217,-0.012325772214317,-0.014135595185038,
0.016401706368573,0.006223755899907,0.003561455708705,0.003119873559493,0.001215000054799,0.002675626192408,0.008038538553682,0.005082871383683,0.002377784820630,0.003928820192828,-0.001481377599290,0.012807725282868,-0.003616439644247,0.004944096532328,-0.000302249769144,-0.001674999948591,0.004951528693184,-0.002412765766597,0.003758372039624,0.000004999999874,0.001002213555965,0.008050688868516,0.002150427974866,-0.004020125605166,0.001419999985956,0.003709967611147,0.001117110920783,-0.001934999949299,-0.000967471991988,0.002542654985902,0.002688821674517,-0.002709999913350,0.003192184697701,0.000067423112341,-0.000282214435667,0.006067205161042,0.000505000003614,-0.003809999907389,0.002317370208921,0.002180000068620,0.003703012971184,0.004315260619042,0.003642030567524,-0.001417538500391,0.003876220848147,0.003393766535804,0.004309022284909,0.003836523060748,-0.003095869760464,-0.003769816365093,0.004303498718795,-0.002970179542899,0.005333343981141,0.009126470906393,0.004575000144541,-0.001881662830754,0.000594874086751,-0.001658429904646,-0.003564999904484,-0.002496333989804,0.004155001670008,0.008080599375042,0.003983293659985,-0.002501441864297,0.008803959572912,-0.000039729261282,-0.000360000005458,-0.001956317768124,0.004757274891493,-0.004305742215365,-0.002681149169803,-0.000735538476122,-0.003146100702072,0.001205723810934,0.007478243565245,-0.004029950592667,-0.003826086875051,0.004757506354013,0.002249999903142,-0.000259926543585,0.001308347214945,-0.001149272080511,0.002418886826724,0.003644013195884,0.002980371767053,0.002311513358787,0.004415551648765,0.004571724126718,0.000414064415963,0.007688012493978,0.003152101449711,0.000193085984543,0.001817027616717,0.005030893720686,-0.001377754379064,-0.002157664514451,-0.000434277346358,0.004300933331251,0.005117778891566,-0.000784288102295,0.002934053690375,-0.003869999898598,-0.000280290626409,0.005491117934561,-0.003683831309900,0.000277025159448,-0.001712674953626,0.002523942811205,-0.000177671038105,0.004141720214515,0.001830318191649,0.001300978008658,0.002419302007183,0.001354429029114,0.002567004242297,0.006495909765363,0.000266910256252,-0.003013947745785,0.001892479570611,0.007812712592670,-0.004173564979430,-0.001498508150689,-0.001345324397672,0.004419004443314,-0.000569031224586,-0.000316318008117,-0.000589109291574,-0.001445591113297,0.009802009365565,0.009008904958956,0.012706929962539,0.004759450025935,-0.001316866206760,0.004297238945438,-0.000514261581439,0.001634377363883,0.002591946948135,0.003422430093339,0.003863038763273,-0.001629148428866,-0.001408635755070,0.000966450089839,0.006147344892685,-0.000189385566046,0.000895323167692,0.001925671082345,-0.004854368045926,0.002555255151717,-0.004540722496219,0.000849127246338,-0.002534999977797,0.005003392696381,0.004851267208498,-0.005247738381507,0.002933003134260,0.001178267538885,0.002545151248304,0.007346322111263,0.004033391565306,0.001963501548039,-0.002198413014412,-0.002097279535793,-0.000733467695409,0.002715199021623,-0.000186600478843,-0.004597203340381,0.001235113954929,0.005842842891566,-0.004460475723097,0.002076179862382,-0.001942872535437,0.007862724112404,0.002385899391244,0.001460089311843,0.001273593632504,0.003124345736479,-0.003204724519762,0.002327047934114,0.004593392368406,0.007034042324678,0.006255655396530,0.005774807394097,0.007626320686376,0.004276119176560,0.000606149237371,0.000192789666471,-0.003979400265962,0.002976210089400,-0.002972224261612,-0.002983406884596,0.002225522325405,0.003495825687423,-0.004390580579638,0.006247768322674,0.002909190365095,0.001221696655409,0.005463904892229,0.001662454560588,0.002686874242499,0.005040989894261,0.005881818099344,
-0.003648564831808,0.002489207682939,0.002273114201661,0.002857997498688,0.004619999788702,-0.003629115484324,-0.002610199651158,0.002913171671734,-0.004607119153145,-0.000887795015171,0.002033365511821,0.001920419175356,0.000558453553822,0.000246909380410,-0.000629557668078,0.002175000030547,-0.000137722398628,-0.000404118185800,-0.002086525175302,0.001805000007153,0.002187621728413,0.006520120061782,-0.000252416430946,-0.003710958873853,-0.004234999883920,-0.002167160867745,0.003382979716121,-0.000534999999218,-0.001609073675902,0.000464611686762,-0.001297720188692,0.000494999985676,0.003908689351247,0.001307187136263,0.004757023418388,0.000919161046577,-0.001189999980852,-0.001219999976456,-0.002927479814509,-0.001189999980852,-0.001563168156711,-0.001054183642536,-0.001637426070797,-0.004516287241131,-0.002023270702794,0.004151819202097,0.001595875835206,-0.001229298566638,-0.001721833146571,-0.001738076214679,-0.000766202533748,-0.004994797986001,-0.001392569741509,-0.002903595640867,-0.001279999967664,0.002757752240850,-0.000317552715195,-0.003107759967811,0.003125000046566,0.002754474443874,-0.002119540054425,0.000436229161975,0.001796005759388,-0.000496724620461,0.003746240558562,0.002155144121461,0.004120000172406,-0.002022901907796,-0.001842039989144,-0.000853799283504,-0.004669031128287,0.002110301690614,0.000280179058276,0.000898877373974,0.001607130209406,-0.004665001295507,-0.003629649989307,0.002558914032032,-0.003599999938160,-0.003339758292060,0.005215410143137,0.001269570784643,0.001589379316330,0.000151777411007,-0.003510518333327,-0.000488064527844,0.001198215973518,-0.000264238575212,0.000796206120867,0.000914995116165,0.002795493181660,-0.003276153873521,-0.000702910457004,0.002062802901492,-0.000946690619458,0.001122126814897,-0.005727747920901,-0.003345317440107,-0.003071981523027,-0.004857778549194,-0.004183430208639,-0.003264999948442,0.001001310113363,0.002907187473110,-0.004462448880076,0.000356908160029,-0.002233564244833,-0.001863538098095,0.002498767945137,0.000766395455160,0.001525452782420,0.003437049686909,0.002220509806648,0.000937343754497,-0.003584696456982,0.000202286202693,0.003127665844492,-0.000716288166586,-0.001369439255149,-0.001667086591075,0.001304341442555,-0.000164204509929,0.000879690121192,0.002144254616433,0.003746689297259,-0.004661629442126,0.002817733101460,0.001409889125404,0.003327373514291,-0.000638094655769,0.003523877456341,0.001591072302382,0.002269018270316,0.006083960272701,-0.003249572958544,-0.001544676046360,-0.002423537204332,-0.002566523880186,-0.000858904831463,0.003381305571651,-0.006107343360782,-0.004483677837502,0.003703935840708,0.000837527273688,-0.002370752794834,0.001897767264081,-0.002060041762888,0.003414753134441,-0.002995743919195,0.002204875360669,0.000245000002906,-0.004753004759550,-0.002035430075743,-0.000663566321858,0.003111238861264,-0.002229650603808,-0.000254876367480,-0.004183235883710,0.001566481219289,0.003836713910455,-0.004334846045822,0.002953556606181,-0.004144251349426,-0.001648152247071,0.001524271274178,0.001633849809878,0.003475420552597,0.005463176845512,-0.000781085705551,0.000231465997572,-0.003086745506153,-0.001583524013304,0.003261866005494,0.001221017859786,0.000898467609659,0.000673842574857,-0.000866561803558,-0.002991518101991,-0.002963416511193,-0.000728119747071,0.000246522152973,0.000130223195041,0.002779913484686,0.006362395669419,-0.001997751464046,-0.004419738892466,-0.004879498854280,0.004323535598814,-0.003808568930253,-0.000432311120676,0.000559971161157,0.003781274193898,0.003172070952132,0.000668755649730,0.001620589521844,0.000145758998273,0.002294241705998,-0.003007386785532,0.002145258942619,-0.003224097664730,-0.002328263420920,
-0.002263016832422,-0.002163885023667,-0.001737980381252,-0.001965056954446,-0.003100000089034,0.001959070101626,0.000050259697477,0.005865023134266,0.004941381901034,0.001563900448673,-0.004420345708792,0.004815591265821,-0.004706395789981,0.002383287264067,-0.001297703614707,0.002090000081807,0.001042338732210,-0.001523041048217,0.005541790229155,0.004840000066906,-0.002494486703103,0.008678949395952,0.001690381819447,0.002394543495029,0.003074999898672,0.005185492159509,-0.000825047067703,0.000239999993937,0.001917747152639,-0.003058954492484,-0.001672762899139,0.001144999987446,0.002034994257637,0.004647813271731,0.004963667095493,0.004993904544979,0.003634999971837,0.004664999898523,0.002091461609058,-0.004269999917597,0.005496434661072,-0.003792149916847,0.003339051125016,0.002700606593862,0.003361030090110,0.004450478577305,0.002563420795606,0.004318941051036,0.003604224487924,-0.002823781454936,0.001977417500295,-0.002349949441850,0.001969188974139,0.001618276446925,0.001715000020340,0.004529943375591,0.005162234592382,-0.000117065683044,-0.003855000017211,0.003199679013123,0.004942157225986,-0.001051749149682,-0.002522329799831,-0.004600475076586,-0.000443680663478,0.000235339355755,0.001290000043809,0.002582461776502,0.000952897241385,-0.001394661609083,-0.001870663254522,-0.001737390379993,0.000808017386422,-0.000232957729709,0.004438088152408,-0.002337009878829,0.003326977835968,-0.001656096299016,0.001419999985956,0.000632088621975,0.001918568392284,0.001210652873851,-0.000381366209125,-0.002343589406955,0.004261457611006,-0.003218843022970,0.003143070528721,0.002492866766603,-0.000906258937903,0.002368412574710,0.001062536522381,0.001549598768214,0.001514828790428,-0.003706728108227,0.002498847199604,0.003303137237008,-0.003090129466727,0.000214822372072,0.003566617251076,-0.002153502311558,-0.002283602403281,0.000360000005458,0.000241770685070,-0.002042989286423,-0.001353407860734,-0.002471959916875,0.003430807443607,-0.000606032547425,-0.003741662903482,0.002216117788349,0.002306768821433,0.002025277819484,-0.003578649368137,0.002029539700577,0.000723034278782,-0.002463056473061,-0.000763427035399,-0.003651629667729,0.000814295390798,0.004853885251508,0.003498657980331,0.002546844305471,0.003352440042578,0.000600348698130,-0.004448669031262,0.003323108423501,-0.002839835540941,0.003445863434392,0.004178618811922,0.007092366059039,0.005964825061819,-0.002456312770450,-0.003093748870305,0.004443964297633,0.005034901921807,-0.000971617885078,-0.000718985622828,0.001053390373443,0.002399027301263,-0.001728100855526,-0.002303242450580,-0.004324346734958,0.001005136601029,-0.004716673400253,0.006478963883762,0.003879124289889,-0.000611875671893,-0.000953767828603,-0.002943507841344,0.004742667188710,0.004224999807775,-0.003005477832630,-0.002864381597254,-0.003335145569025,0.001937074169343,-0.004335322776767,0.003175565118791,-0.002144616898992,0.004865290096039,0.004609118073661,-0.004659064579755,-0.003868130946352,-0.001121043149698,0.002131473040208,-0.001188224756551,-0.001486332854256,-0.001362469729142,0.007151070429790,-0.001854580654833,0.004425750832495,-0.000701541546732,0.002167568238203,-0.001647932873156,-0.000804042353027,-0.003134607104585,-0.002775703284970,-0.000649789659368,0.005767242514499,0.003768457565457,-0.001027602529484,0.002715825811072,-0.000480984884184,0.000218849121123,0.004546066309499,-0.001247450580171,0.000750526669435,-0.001464351429604,-0.001467246911488,-0.002563377376646,-0.005343378055841,0.001648642990245,-0.005451394710690,-0.005227333400398,0.001342435928534,0.002677171482260,0.002928817369945,-0.002381878100097,-0.000805352182848,-0.003872707951814,-0.001490226610170,0.006097474461583,
