-0.000643513269818,0.001360852695696,0.004090663295198,0.000405231367865,-0.003910000000000,-0.002260876793754,-0.004149018866698,-0.001352668493510,-0.000468314177294,-0.004586318607802,-0.002675966080235,-0.001916701543611,-0.003611240660078,0.002683467583154,-0.002013154376998,-0.004605000000000,-0.005489321727999,-0.005423304247827,-0.003530767473587,0.003060000000000,-0.002288108833883,0.003250366369109,0.003626037502704,0.004488846205533,0.004625000000000,-0.000932788364717,0.003959604893060,0.002485000000000,0.002204066576043,0.001642248538147,0.004596953861099,-0.000550000000000,-0.000717329871216,0.003118163031459,-0.005495326327058,0.001704140318750,-0.001635000000000,0.001645000000000,0.002696056507216,-0.001075000000000,0.004069982720766,0.001162918758688,0.001475000000000,0.000549626733765,0.003630055358970,0.005652264848563,0.002636484814189,-0.000757251114177,0.003583884134491,0.003239008242423,0.000228139347679,-0.002657685945332,-0.004106206274490,0.000689415195326,0.000875000000000,0.002300000000000,0.000678846113790,0.000925000000000,0.002005000000000,0.002890336311265,0.005314387998318,-0.006929145509148,-0.001715000000000,-0.004707295741482,0.002387581213266,-0.004595687241982,-0.002615000000000,0.003388331954940,-0.004004507137442,0.000505879361280,-0.003593151226579,0.003493969481702,0.001050289888082,-0.002565000000000,-0.005603227134992,0.003843805103823,-0.003420000000000,0.004158026745342,0.002560000000000,0.002628156862483,-0.003480443163292,-0.000119026755577,-0.001445000000000,-0.004014344299790,0.000107162158760,-0.002330000000000,0.002594338161724,-0.002760154785091,-0.001181846436340,-0.004432736343856,0.002969015478907,0.001798366709709,-0.005433867703415,-0.004663946562124,-0.001137884244406,-0.001720128976502,-0.003601834141911,-0.002023984563424,-0.007042284403310,-0.002817359448312,-0.000641612795274,-0.003418793072423,-0.001699806187789,0.002460726777297,0.003360000000000,0.004510976162590,-0.003921922051900,0.004209345493702,-0.001434228726253,0.000413161013777,-0.000934808685768,0.003615000000000,0.000640000000000,0.001168180756102,-0.002871992179388,-0.003530252333378,-0.001093648521513,-0.005156935868686,0.001150730163933,0.002855767624156,0.000050287074911,-0.001250387745918,-0.000331938352513,-0.001031875243636,-0.002797866927197,0.003730972806198,-0.001580217264172,-0.001761389859508,-0.003369271209894,-0.000688976154520,0.000065389812632,-0.003545000000000,-0.002827420061820,-0.002708770358232,0.003789480782544,-0.002730000000000,-0.001002254314768,-0.001035687477695,0.004240130101075,-0.001291691845702,-0.002163829766380,0.002755590931424,-0.000985455162103,0.000421103258878,-0.003182667069725,-0.001492372452436,-0.001503950929878,0.002575000000000,0.001749887020959,-0.005070781069108,0.001330000000000,-0.006039743896657,-0.000981797729729,-0.004073533038771,0.004484331065407,0.000791232476717,-0.000632778872317,0.001015948454532,-0.000480606698051,-0.001185309667931,-0.001973696950954,0.003903915239943,0.005312492124903,-0.003307154577918,-0.002385932933946,0.001250000000000,-0.004275766397190,0.004547547190472,0.005053466686452,0.001236254522517,-0.004228514930182,-0.001788296463491,-0.002658490943502,-0.001134150267882,-0.001206408129960,0.005678997572110,-0.000600000000000,0.007098700104708,-0.003049315311051,0.000188927708972,0.003402556483611,0.000126365455149,-0.003880121497878,0.004105000000000,-0.005347957680441,-0.001486963529782,-0.002097433798924,0.000995000000000,-0.004498573044959,0.000308966889262,-0.004301286149416,0.002490000000000,-0.002855223772930,-0.001824904623021,0.004485964786240,0.003978695905870,0.002665000000000,0.003793874680796,-0.002788303725498,0.002583662903966,-0.000040890399666,
-0.015369859260455,-0.001949972068122,0.001624038942243,0.000411590303736,0.004665000000000,-0.000865361608706,0.002911202582098,0.002248255422062,-0.005229849665464,0.000851440258235,0.003080502636117,0.006536102973737,0.002311230563599,-0.006427197935792,-0.007705001249841,-0.002930000000000,0.001010664947503,0.001502982030150,-0.001404607644315,0.003265000000000,-0.002976812528132,-0.006719204246802,-0.000098679056934,0.000601213171262,-0.000440000000000,-0.002559436718230,-0.004000647674379,0.000490000000000,-0.003037104726932,0.001503127048491,-0.003593096645829,-0.000620000000000,0.002993688005245,-0.000974828832121,-0.000951685137143,-0.001820290419326,-0.004550000000000,0.002640000000000,0.004189146904319,-0.003665000000000,-0.004878422466210,0.000122872058219,0.002655000000000,-0.000779647586075,-0.003780073168984,0.000833664817682,-0.001916948882506,-0.002844495916577,-0.002187869041782,-0.001908237395663,-0.006320215088396,-0.000517618540547,-0.006862501075556,0.001251644120985,0.001715000000000,0.002270000000000,-0.000692615333284,0.003800000000000,0.002450000000000,-0.002066781327088,-0.002150181756965,-0.000813278285595,0.000865000000000,-0.006261797796082,-0.001561161639905,0.002864618221398,0.001780000000000,-0.003412690115511,0.005550148079789,-0.001193497291831,-0.004013463178783,0.005658500387473,-0.001960844883624,0.003770000000000,-0.000519727528422,0.003913511022744,0.002390000000000,0.000800636173960,-0.004200000000000,0.004189460784888,-0.003146460200682,-0.001447370093856,-0.004060000000000,-0.003884214779800,-0.001228781674325,-0.004175000000000,0.000136365158339,0.002643264970321,-0.000032509318536,-0.001126186968837,-0.003787690065020,-0.000101346211539,0.001114442412487,-0.001167263057612,-0.002842675944547,-0.004103140497854,-0.005136438674032,0.000100867646754,0.006473982414516,0.003403176713337,-0.002248884542759,-0.001198980474065,-0.004336771780314,-0.006285219162974,-0.002575000000000,0.005329285757034,-0.000773160245175,-0.003233806856228,-0.000096620964555,-0.003747962617897,-0.000105789210175,-0.001650000000000,-0.001870000000000,0.000276119429486,0.005378167847007,-0.003070229958052,0.002948162310929,0.001489081902891,-0.002560432277901,-0.003343724382208,-0.000242679220800,-0.003828819698435,-0.001864182659936,-0.003656872881504,-0.004811124946523,-0.000268757396110,0.000688190855108,0.001033216457018,-0.000570751586844,0.004440220766459,0.001418578258935,0.004125000000000,-0.004288635350309,-0.001328364945831,-0.000820467229829,-0.004815000000000,-0.001035152796578,0.004158886331043,0.002339249127131,-0.004461571718173,-0.000381818135179,-0.001466203629265,-0.001138777740160,0.000739855666606,-0.000262347789077,0.003912587390667,-0.003207947424978,0.000095000000000,0.001748574010965,-0.000165677405318,0.003915000000000,-0.000205710709842,0.004619480098013,0.001996408865367,-0.002948569243312,0.004771704741850,-0.002881077520912,-0.002724268004683,0.001057184046980,0.003094220569550,0.003221319775861,-0.000501427207806,-0.006607425074127,-0.001784417652866,-0.000616505316436,0.003250000000000,0.001855810505913,-0.001618965725255,-0.002305049714213,-0.004937628740163,0.001488038947640,0.005992275231260,0.003525376637863,0.002086058546049,-0.005732354791350,0.003616166484185,0.002320000000000,-0.004634795835982,-0.002328127148892,-0.002688704600981,-0.004336743130416,-0.002055265878853,0.000129873027418,0.003555000000000,-0.005836961159949,-0.005308114509803,-0.004059492034722,-0.003125000000000,0.000995379810203,0.002817101855362,-0.003548329054589,0.001790000000000,0.002752426599021,-0.004226196597084,-0.003507369339388,0.006015247988588,0.000670000000000,0.000869021998919,0.002907570482051,-0.001935268178277,-0.002886435170684,
0.010658812519423,-0.001655142770174,-0.003245215859256,-0.004471829489057,0.001820000000000,-0.001250626055164,-0.002391291052896,0.000478552187786,0.000978665560882,0.005154961828921,0.006486951286691,0.001442481448933,0.001640939847980,0.003352760052360,0.003671322322856,-0.004590000000000,-0.004643277743317,0.001286019945246,-0.000345241222542,-0.002295000000000,-0.004614972961182,-0.001196832979053,-0.001660467680655,-0.001265995387023,0.001820000000000,-0.000459139643981,0.001686136982016,-0.002100000000000,0.001308112818334,0.005160012803251,0.004719665076221,0.002030000000000,0.001266083937852,0.005970869209363,0.002100746222248,0.002381126678413,0.002275000000000,-0.003420000000000,0.001492286137606,-0.002810000000000,-0.001425621116616,-0.000459659056866,-0.001100000000000,0.004622440564038,0.006099741149484,0.005442643697036,-0.000274443731130,0.004389085610875,-0.000512980078893,0.001214322388748,-0.002943848023936,0.002528897308346,0.003482496686066,0.002691891938876,-0.000765000000000,0.004095000000000,-0.003351229574462,0.001995000000000,0.000690000000000,-0.002669384660651,-0.000426766418411,0.003335325708382,-0.002400000000000,-0.000284465835436,0.003218809030807,0.002247076946211,-0.004210000000000,-0.003239878758992,0.000140863993308,0.002460748819728,-0.003681652640677,-0.000712916596595,0.001900610848372,-0.004110000000000,0.006504793508516,-0.002983338913335,-0.001040000000000,-0.002036206531584,0.004815000000000,0.006617761691381,0.003156472641697,0.000600005878027,0.002440000000000,-0.001215120502261,-0.003291207568092,-0.001000000000000,-0.004314715268889,0.003694745108807,-0.003488821090335,0.000011280124369,0.004772224134813,0.007158821376687,0.001216986396830,-0.000086692540912,-0.001137342626062,0.000492191072207,0.004425109759336,0.005487098565245,0.000274525201021,0.004112984283812,0.006659739043440,-0.000697052954494,-0.004089180770900,-0.002042008340827,0.004575000000000,0.000142795382771,0.004556969989061,-0.004621577613042,0.005491973969578,-0.004249022034136,0.004845462406850,-0.000745000000000,0.003860000000000,0.003059553275538,0.004251335009776,0.001935321334352,-0.005296948247960,0.006033419769105,-0.002416807231282,0.002147747445416,-0.000435276154112,-0.006204325032467,-0.003275266642893,0.004954210721470,-0.003495801824377,-0.003359142212698,-0.002293802817565,-0.000115270604844,0.000996503201571,-0.001284771160804,0.001134023027372,-0.002125000000000,0.004168652825240,0.001479299508288,0.001651570681260,0.002185000000000,-0.000396146936175,-0.002764771499092,0.001972543343524,-0.004336116252707,-0.000699958458078,0.003670859046487,0.007520646807474,-0.000611384684329,0.000874344766510,-0.001892529487759,-0.001150793904153,0.002965000000000,-0.003567422593529,0.000821438348980,-0.004425000000000,-0.001064525241517,-0.002037627173983,0.001606087083056,0.000450138842950,0.001131381297851,-0.003382889098991,-0.002715650667992,0.003963352256769,0.003224050089102,-0.004869079531770,-0.002246045949566,-0.001520012430316,0.001642482364176,-0.000267197508146,0.002845000000000,0.004422274978598,0.003992063419183,0.003044524986572,0.005850708462502,-0.002539369397003,0.002723315412219,0.002453546007551,-0.001852489937318,-0.003587099106851,0.004885963255882,0.000125000000000,-0.000796212159376,-0.002133138045071,0.007308534548943,0.003902994030136,0.003888044014196,0.006475670163115,-0.001750000000000,0.008184146198879,-0.004134603311184,-0.003240673310033,0.002775000000000,-0.003286252179960,0.004664606541729,-0.002457297024451,0.004655000000000,0.004127161489012,-0.001088086732597,-0.000332776562995,0.002348786679116,0.004200000000000,-0.004995263133362,-0.000164462368111,0.004471817677240,-0.003160144593493,
0.003925015224311,-0.002490725107649,0.004513344712884,0.001794704628920,-0.001305000000000,0.001396862801783,-0.001076262378997,0.003975911017168,0.000992118577684,0.004957036611352,0.002814535544838,0.000912513347768,-0.000352503412911,0.003883713441488,0.002495231253415,0.002895000000000,0.004447323588890,-0.003615218376737,-0.005282793418866,-0.003495000000000,0.003023197891400,0.000726933268963,-0.001861973228205,0.004793974999659,0.004225000000000,0.002837467881064,0.003885797643330,0.002930000000000,-0.004982074016138,-0.004334788472574,0.000808209449436,0.003695000000000,-0.002800637642510,-0.000181471631870,-0.001624133894157,0.000749460490049,0.002865000000000,0.001180000000000,0.001354808240016,0.002065000000000,-0.003494896189228,-0.001766426307263,0.003770000000000,-0.000742560676025,0.002249132832456,0.003628958882909,-0.000482116219133,-0.001529852206095,-0.001326932900004,-0.001347670947460,-0.003060710892092,-0.005100922211530,-0.004893323073163,-0.000937922726505,0.001730000000000,-0.003410000000000,-0.003800450778854,-0.001395000000000,0.000930000000000,-0.005706840662804,0.001791249682450,0.003562831648788,0.003400000000000,-0.003629255778895,0.001698281627727,-0.001619945175016,-0.001460000000000,0.004752928583048,-0.004694805285211,0.002474909303203,0.004389071100278,0.001818617924749,-0.000765150102847,-0.003155000000000,-0.001361168950875,0.005744421390194,0.003270000000000,0.001845970102387,-0.002440000000000,0.002874428379812,-0.004108683440370,-0.002341107011943,-0.004850000000000,0.005968941170716,0.004952651973942,-0.001580000000000,0.003613153473345,-0.002034969568294,0.002879323759866,-0.002798902497188,0.002292091715050,0.001068425253576,-0.003086645337115,0.000238868630581,-0.000650203096862,0.003942414978449,-0.005084519735236,-0.003302514581076,0.001394799546764,0.001174211963599,0.002853636703982,0.000829106626638,-0.001711415290148,0.002935766612765,-0.003185000000000,-0.001390380273897,-0.001531109993627,0.000903450216494,0.003042290919914,-0.002528271887604,-0.002343025930648,-0.004810000000000,-0.002130000000000,0.005059817511362,0.002390168376696,-0.001306721281843,0.003497799648302,-0.003333848154346,0.003897462381185,0.002612638927078,0.001560854889602,0.003553550215937,-0.002537531168999,0.001826038419547,0.001072108301493,0.004484891530777,0.004741713897496,-0.000446651832389,0.003116923147772,-0.001504716310497,-0.003422337934713,-0.003350000000000,-0.001686712865092,-0.002762052705063,0.001209658763962,-0.002320000000000,-0.000271620599161,-0.001664028051449,-0.001902888144440,-0.002636543954254,0.003142717199250,0.004810822772143,-0.000742168849964,-0.000691402656881,0.001441585002044,0.003917631391767,-0.002874170781762,-0.001030000000000,-0.002613631326260,-0.000332137334938,0.002240000000000,-0.000984491471988,-0.002394373567653,0.004986463594589,0.001509772307769,0.003460646462816,-0.003041602240159,-0.004892489067128,0.000353905569895,-0.002913954571153,-0.002993909483860,0.004000954601951,-0.000606266020454,0.000514106529089,0.000780078267290,0.000765000000000,-0.002729997214522,-0.000767078509702,-0.001244403077931,0.001940541570306,0.003238256281493,-0.003136633440986,-0.000130484008501,-0.000267825059034,-0.001451176840937,0.002807808021433,-0.002840000000000,-0.004832053574286,-0.003872151200273,-0.001893595717208,-0.001408551300333,-0.003793761687930,0.004173867962950,0.004775000000000,0.004676177206889,-0.004030245069105,-0.002926508391425,-0.000680000000000,0.000081626234665,0.000146445858668,-0.002774298956907,-0.001200000000000,0.002111024883898,-0.003482339307709,0.001442284302244,0.004618715733973,-0.002545000000000,-0.002536047195011,0.000550919106941,-0.000208324486363,-0.001503235564171,
0.006782840128930,-0.001967428842726,-0.000110392735307,0.004300768277812,-0.002485000000000,0.004465744788112,-0.001044035677476,-0.001530223510831,0.004377395314444,-0.001794835570695,0.002498508048937,0.001339350051755,0.001798996790318,0.001882220529795,0.005513984507901,-0.001825000000000,-0.003816787340270,-0.002255213082366,0.002565760899671,-0.001890000000000,-0.003136656608734,-0.000744130447306,0.001227586937078,0.001825433101375,-0.004150000000000,0.000236829745022,-0.001628288156345,-0.002010000000000,0.003327215217565,0.002942802656696,-0.003776844318866,0.000950000000000,-0.002137547651535,0.000626055436901,0.000451096579912,0.001855909501507,0.002005000000000,-0.002865000000000,-0.003648703066639,-0.003850000000000,-0.002700551920696,0.001128840362818,-0.000045000000000,0.001293939604390,0.003899064222909,-0.004053317013739,0.000165594989271,0.002371659015145,-0.002922923140234,0.004793912058150,-0.001831578814760,0.002700401939312,0.002867451634223,-0.000415620875477,-0.000570000000000,0.000380000000000,0.004394300313137,0.001210000000000,-0.004035000000000,-0.004479583315369,0.006277734541807,-0.000244478893265,0.002340000000000,-0.001549188083276,0.004627837487540,0.003355771816374,-0.001040000000000,0.003710165804444,0.003755823879880,0.002204263526153,-0.005132702307148,0.002742816601179,0.000514677876299,0.000940000000000,0.006218317937528,-0.002185887551265,-0.002665000000000,-0.000524388727406,-0.003525000000000,-0.002155579822866,0.002543169388739,-0.000061348331984,-0.002720000000000,-0.000134278049560,0.003090649313169,-0.003260000000000,-0.003192001929360,0.003079494647143,-0.000438468892315,-0.003008034361210,0.004714204672209,0.000187967364942,0.003321931177920,0.003906655946518,0.004390229668268,0.001711789809490,0.002774158155940,-0.000400520290464,0.002528579405529,0.002374923916908,0.002778553525440,-0.004506520861680,0.002224555016571,0.003390154852936,-0.001250000000000,-0.005374748652985,-0.002016626340578,-0.002833983196417,0.002486895469141,0.000877786901213,-0.000242936741691,-0.001250000000000,-0.002930000000000,0.004825574255893,0.006282455600870,0.001413836854894,-0.000881506221467,0.002611479048811,0.004096020799651,0.000734570526368,0.004653062721676,-0.002012384120330,-0.003664275989380,0.001821296191374,-0.002802897588225,0.000503250733016,-0.003898731186884,0.004306154105708,0.002418007444661,0.004624725235822,-0.000560944780387,0.002455000000000,-0.000386508994128,-0.002177848470332,0.002008362682686,-0.002795000000000,-0.003481268026192,0.005744985311426,-0.001691900974535,-0.001606914101221,0.000631127890286,0.000472278060703,-0.005805421131104,0.001335826872531,0.000898456701971,0.003872527489377,-0.002665045221376,-0.003545000000000,0.004189435265398,-0.003250081473397,0.003135000000000,0.000857602914153,-0.003585561988627,-0.001393746394268,0.007339322084514,0.005022309829824,-0.001612595691114,0.002011552610795,-0.003414664329790,0.003436753917492,-0.000221821439744,-0.004589379299725,0.004974199546887,0.001153175638920,0.002668004497729,0.002155000000000,0.003381482790072,0.004076672838774,-0.000566870095847,0.004074680222349,0.004036534488324,0.001614595984940,-0.003701939694118,0.000764870220772,0.003248159054953,-0.001420108070010,-0.003235000000000,0.003652117469613,0.005429711338745,0.003404476783007,-0.000286651653971,0.000808689600822,-0.001095531422093,0.001720000000000,0.004125320217844,0.006047601961118,-0.001348732835441,0.000515000000000,0.002277267361054,-0.004769645938007,-0.002382289739592,0.000135000000000,-0.003312046455215,-0.002715742423150,0.002410056963014,-0.001258557548765,0.000205000000000,-0.001847351951844,0.002494358465961,-0.004196498788240,0.003659412590094,
-0.003353281891835,-0.005887958197053,-0.003348713620858,-0.003537092182649,0.000965000000000,-0.004004094232488,-0.002757527888279,0.000434010242328,-0.006540958184744,-0.002250855476599,-0.002703898771145,-0.004783435400452,0.002601362684082,0.000915593081727,-0.002207902212689,-0.002325000000000,0.004491071526674,-0.003336569355082,-0.002166254357667,-0.002315000000000,0.003302315987065,0.000552373597766,-0.001710823784060,0.001799124107421,0.004480000000000,-0.002144387683383,-0.001965071150083,0.002780000000000,-0.001804127276494,-0.000435153521760,0.000258599789165,-0.003315000000000,0.000686559322811,0.001082028894136,-0.003861223494577,-0.004367665937245,0.000065000000000,0.000150000000000,-0.002188601028563,0.002280000000000,-0.002514633683369,0.002216994200349,-0.000005000000000,-0.004012216570190,-0.003305712712868,0.000025994688547,-0.001254089229538,-0.003155293190701,0.000267217653483,0.004175007396975,0.000724055935803,-0.003416797758667,0.003097012424226,-0.005068276411797,-0.001665000000000,-0.002210000000000,0.002981553065477,-0.002855000000000,0.002250000000000,0.004531971495115,-0.005331993025508,-0.007190626436970,-0.004075000000000,0.004037727539720,0.003168856166008,-0.004158410458488,-0.001625000000000,-0.000927822910065,-0.004322787432774,-0.004317827973350,-0.003903235431858,-0.002119027129187,-0.000665718626307,0.002725000000000,0.000717136779363,0.000110069865215,-0.002360000000000,-0.001002236373950,-0.002220000000000,-0.001613139758273,-0.000396108351739,-0.000163622736623,0.000280000000000,-0.005193887571874,0.003179980198552,-0.004925000000000,-0.000225044961451,-0.003135250582276,-0.000737972055071,0.001586259155329,0.001025748621809,-0.005890638545140,0.003345164460844,0.002172997334246,-0.002426641748849,-0.000995005781608,-0.006707273307559,0.002829489648559,0.003229786401497,-0.000600577074760,-0.001055477765195,0.002768457295372,0.004696240090317,-0.002233928776756,0.004055000000000,0.003373874933545,0.000158597668214,-0.003266405818873,0.001383425182967,0.000784069158382,-0.002499258835342,-0.004835000000000,0.003860000000000,-0.000583543032034,-0.001659294407575,-0.002804130685062,-0.000380475570092,0.001302722181503,-0.001066020190506,0.000820116523682,-0.003871096341950,0.004903355816211,-0.004132068643452,0.002686830453921,0.004417085297966,0.001128975342338,-0.004003896688782,0.002641874060277,0.001980474015803,-0.000255777374880,0.001523862041473,-0.001660000000000,0.002038521709796,-0.001436807316476,0.001453476505876,-0.002950000000000,0.004554643328674,-0.005394057302104,0.001641932472173,0.002478307165616,-0.004678796255578,-0.003379684921271,0.003991758762231,-0.001102217763456,-0.001626849327976,0.004027571028077,-0.004216466427930,0.002025000000000,-0.004772338030581,-0.005348588978458,-0.003350000000000,0.001239601122103,0.003478282462060,0.001331401326217,-0.001323635111353,-0.000437212644506,0.001955399184113,0.001342423865186,0.001931102539700,-0.004847836212601,0.001856264895563,0.003369169284072,0.001470955031861,0.004198737839459,-0.007345963563864,0.001535000000000,0.002068321138198,-0.000602685788755,0.002514186462312,-0.004276791344828,0.001720494833467,0.001685564875400,0.001494693777881,-0.005479934825249,-0.002368315957225,-0.002863973207455,0.002340000000000,0.001428117791298,-0.000617751819458,0.002132248513137,0.000171645649158,-0.001422140652171,0.003032410057702,0.004400000000000,-0.003383300506480,-0.003232818126773,-0.004382869916149,0.002890000000000,0.004534347890865,0.003229782537292,0.000722673819120,-0.004990000000000,0.001204967195942,0.001076973859440,-0.005685071883446,-0.001607502924394,0.004635000000000,-0.000588274846642,-0.004420192062611,0.004151723868688,0.002011740833909,
-0.005277749235677,0.003734510424850,-0.002698318915190,-0.000404684024931,0.002430000000000,0.000000117495851,-0.000113248269178,0.001961336057452,-0.006327615740939,0.000522999455816,-0.002335657997898,0.003773468869195,-0.004460954570170,-0.003680641267327,-0.000099033219790,0.003725000000000,-0.003862879054453,-0.000618360508122,0.004092752162926,0.000250000000000,0.004510335654978,-0.000285874797659,-0.006225362022755,-0.004868194419943,-0.000400000000000,0.001229447497480,-0.003382279135726,-0.003750000000000,0.002090371781090,-0.000446065342475,-0.002103456550752,0.001935000000000,0.001532742717236,0.000724932797491,0.002383514619092,-0.004675017404382,-0.004370000000000,0.003460000000000,-0.003015159603101,0.000650000000000,-0.000666232073603,0.001616989954053,0.004180000000000,-0.004347092271561,-0.003769443137822,-0.001976498875132,-0.000580391284960,0.001645904358872,-0.000605694396758,-0.001305096703621,-0.000782146878064,0.003510931733318,0.002550160972655,-0.005853297322542,0.002555000000000,0.002565000000000,-0.001604947666841,-0.002620000000000,0.004815000000000,0.000278667565571,-0.003568797078546,-0.002433712315476,0.003890000000000,0.001672074499511,0.003410841912693,-0.004908289089899,-0.000090000000000,-0.003124342762904,-0.003246052066781,-0.004895587012752,-0.001805234471691,-0.006097417926537,0.000581868338096,-0.000035000000000,-0.003358872325865,-0.000531959555212,0.002270000000000,-0.004194659586041,-0.000180000000000,-0.002071003128529,-0.005753321199463,-0.002783655875914,-0.000225000000000,0.001109091464201,-0.001124057016634,0.003865000000000,-0.002103680267191,-0.000936662823259,-0.001536706402760,0.001881236945418,-0.002330428778441,-0.006168070056835,0.001647951404051,-0.002997188903226,0.002135967347425,0.004052842320951,0.000666931506610,-0.000338401463048,0.002410684157316,-0.002719392232894,-0.002374190655091,-0.004115827988698,-0.004281521693157,-0.004609934779680,0.001415000000000,0.003316215535276,0.000320639241854,-0.000855958135940,-0.003643468085410,-0.004457168446891,-0.000630757452653,0.003685000000000,0.004165000000000,-0.002605425373931,-0.003071410609778,-0.003005773578543,-0.002730880940230,-0.000155038220934,-0.003032019594209,-0.002107529199435,0.002443756195919,-0.004239223854021,-0.005078258784192,-0.000493112926149,-0.003347915997534,-0.003019875293743,0.003784235991797,-0.000151491032628,-0.002251447569613,-0.004257869263371,-0.003827958663071,-0.004995000000000,0.004449068471432,0.001674800231280,0.000275759980503,0.001995000000000,-0.004916881803469,0.001545178538776,-0.000264308509223,0.004084901792318,0.001850384475270,-0.004014790498344,0.000480062360776,-0.003948913652205,0.000166646345093,0.001667601135017,0.001897197342724,-0.000145000000000,-0.000184159116637,-0.002691171439205,-0.001265000000000,0.001163714586395,-0.003137680735505,-0.004783549932940,0.001022611403190,-0.001396284112527,0.002379670179239,-0.006540099114935,0.001965669071289,0.000756149815790,0.005002738842427,0.003704635120251,0.004471596550917,0.003905233630008,-0.002496962601459,-0.002440000000000,-0.005262605351978,-0.002294321925402,-0.000749384353445,0.002711776311448,-0.000534107222487,0.001004394135795,0.000293586230729,-0.003974449544364,-0.004457096211120,-0.004206616170348,0.003325000000000,-0.001172814889380,0.000492979532454,0.001432615887163,0.002424870435147,-0.003971426064251,-0.000615657417614,-0.001605000000000,-0.005325828377396,-0.003091650131031,-0.000620313918068,0.001680000000000,0.003518151025836,-0.002182856987068,-0.004309148308052,-0.000640000000000,-0.005311956756292,-0.001793991465687,-0.001446243777748,0.004426352840501,0.003850000000000,0.003870574597318,-0.003401569680385,-0.002460068777834,-0.004315229701468,
0.005878852448640,-0.002870891606522,0.003230423312748,-0.000222236443925,0.000265000000000,0.001684278652719,-0.000304995961843,0.004267441548165,0.008075353667360,-0.001569962484267,-0.000119217347076,-0.002564748270711,0.003606771736078,-0.001352574121072,0.006556040693318,-0.002790000000000,-0.000997569175839,0.003009440682575,-0.005681791137874,0.000245000000000,-0.000577580560501,0.002459246550317,0.006584676535028,-0.002603197784729,-0.004575000000000,0.003774874843436,0.001287641900587,-0.000810000000000,-0.002836138119356,-0.003507054074661,0.002607324228890,0.002410000000000,-0.003027578129398,-0.000244235464604,0.001013507661942,-0.001821950466039,0.004875000000000,0.000505000000000,-0.004762887596827,0.001055000000000,0.002730954797782,0.001447868027716,0.003260000000000,0.003018040655137,-0.001532253866413,0.000728143892445,0.002733080808180,0.001339644821719,0.002952262312427,-0.004926779025142,-0.002289439613933,-0.002240310062585,-0.003320890875362,0.005920517589646,0.004965000000000,0.004575000000000,-0.003405259736874,-0.002015000000000,-0.002330000000000,-0.002700205029656,-0.002436713395662,0.003288284894552,0.003245000000000,0.007562666322050,-0.004524226628932,0.004754873668483,-0.002585000000000,-0.000431088898050,-0.006008823877329,0.002680884311580,-0.004033591062086,-0.004187573970606,-0.004815140769448,-0.004185000000000,-0.000735286020905,0.003923547044975,-0.003555000000000,-0.004353173543498,0.001060000000000,0.003668846401414,-0.002048710546049,0.001822322297226,-0.001965000000000,0.001626653484944,0.000272482888763,0.000570000000000,0.001411050561809,0.004466885261079,0.003780427194876,0.001060197412708,0.006973876337632,0.000449964047176,-0.000940472395769,-0.004226568264007,0.007380425325751,-0.001489370550292,-0.001932808571952,-0.005276837623844,0.004327344319566,0.003175431563125,0.002262409125561,-0.001541051897982,0.000618027468538,-0.000680327237508,0.002245000000000,-0.004519518211265,-0.000562816131003,-0.002496372488954,-0.000700752623386,-0.002201218311979,0.001260135971197,-0.000205000000000,0.001490000000000,0.003336740991133,-0.005006984343730,0.003452847897734,0.005364030105258,-0.001901487812895,-0.003484454958920,0.004175708514211,0.004497366859614,-0.004260361092343,-0.000197938499757,0.000103191772987,0.003432181456184,0.000518707349150,-0.001410776802994,-0.000072244111040,-0.002480523301112,-0.001667808070003,0.005581280089177,0.003135000000000,0.003192497588883,-0.003221715731403,0.004390212014800,-0.004530000000000,-0.001356547590004,0.002450010815400,0.002080642912935,0.001003178948464,-0.002733545278525,-0.002674402631858,0.001510771275025,0.002145841936841,0.002079501988042,-0.004413177435031,0.001935338041724,-0.004495000000000,-0.001838104445917,-0.004068823240845,-0.002430000000000,-0.001116987345043,0.003148822592270,0.003491362399344,-0.003612254402020,-0.005009126270742,0.002411959890308,0.003676793529407,0.004603542868525,-0.000930610366999,0.001103462610854,-0.003472452068588,-0.000831623985937,-0.003430502764068,0.007610411312927,-0.004870000000000,-0.002297150551391,-0.002050933949633,0.004089191195881,-0.004713290114364,-0.001230299596815,-0.003595507031684,0.005027642901636,-0.000787045490672,0.000176610243658,0.000104099332475,0.002940000000000,-0.001273216407476,-0.000649233230584,0.006855887436488,0.008293117970353,0.002972581941776,0.000258469754223,0.003865000000000,0.003991075943930,-0.001067180227872,-0.003142564654400,-0.003945000000000,0.003147534400255,-0.000711330000575,-0.000665883323238,-0.003400000000000,0.006908559591689,-0.002241709382019,0.006945045812854,-0.002072606893798,-0.000520000000000,0.004815239358500,0.005094970804697,0.004433740158019,0.002190251247271,
0.012272649048844,0.004988891287669,0.001447587929078,0.000130260869914,0.003970000000000,0.004874276256001,-0.005293063990493,-0.001642290245043,0.003538039853061,-0.004771733937334,-0.001853126751773,0.002254648377212,-0.001143881731742,0.001454924174421,0.003126739055886,0.000800000000000,0.003501385925758,0.000927432953384,0.000967378156000,-0.004135000000000,0.002951887803294,0.005502927887777,0.002443292480196,0.001964921200185,-0.002605000000000,-0.004602172892378,-0.004393709934349,0.004130000000000,0.002883902274494,-0.002053113798437,0.001562461948014,-0.000965000000000,0.002373057672319,0.006447184052676,0.003829949075736,0.003223991460143,-0.000275000000000,-0.001190000000000,0.001369759631098,-0.002020000000000,0.000301865068169,-0.003231260294291,-0.001470000000000,-0.001395085493680,0.001438868975873,0.001029065226262,0.004879129196452,0.002099658244803,-0.002667007168320,-0.002974782448620,-0.000561112806237,-0.002682431609033,-0.002546257715477,-0.002925045809345,-0.004100000000000,-0.001280000000000,0.002584580151418,-0.003215000000000,-0.002555000000000,0.004834499801922,-0.000700592781747,-0.002373025703133,0.000245000000000,0.003620138458252,0.003276032225567,-0.000647856079627,0.001885000000000,0.003895893147757,-0.003461715476253,-0.003773734117540,-0.000940359247512,-0.003983276394866,0.004906611965902,-0.000580000000000,-0.002271172889347,0.000337103019516,-0.004595000000000,-0.002690015682603,0.003410000000000,-0.003549160899914,-0.004678831213976,0.007323876621879,0.003395000000000,-0.000774296394131,-0.001812594169028,-0.003315000000000,-0.001934535860374,0.000786620862743,0.000917009542021,0.001242033589059,0.003003965246088,0.006842336048487,-0.001463655955006,0.000585375701620,0.005689759119912,0.000766399236357,0.006192776494630,0.002121549678139,-0.002993525491950,0.000004925002609,-0.003992695341716,-0.002914650521023,-0.002140008171445,0.001226464831094,0.004870000000000,-0.004468058434094,0.002607783332858,-0.002644125685839,-0.001133420838300,0.001444558423382,0.001936422965747,0.001195000000000,0.003675000000000,0.001571140552086,-0.000840224992324,-0.002757851618330,0.004236454366983,0.001205665815102,0.000902176606765,-0.001607728000485,-0.000068974797275,0.000412346989953,0.001941558429574,0.001032935269156,0.001507160617969,0.002446067594303,-0.003156307674011,0.003941017263635,0.005337762952542,0.003755701330574,-0.000893590354014,0.000360000000000,0.002387220630854,0.005014472251759,0.003413098120806,-0.004115000000000,-0.004417529791863,-0.005099789257942,-0.001913306797912,-0.001796918966724,0.004859650841122,-0.002788013347830,-0.003030834053972,0.004494386811002,0.005701147434250,-0.002337396578135,0.001005646009841,-0.002470000000000,0.002579655841823,-0.002480561859331,-0.000505000000000,0.001630487361034,-0.002977004512938,-0.001707222282136,0.000943118081430,0.001992940193596,-0.002723575596568,-0.002684785705882,-0.003031827778808,-0.001677625628984,0.001233103168649,-0.002201910613346,0.002322016499443,-0.002799588683396,0.000705356638763,0.001805000000000,0.001091676832178,0.003873223180377,0.001851792267367,-0.000671435946336,0.000801188875265,-0.002514794578039,-0.001374185666387,0.003284025559525,0.000277978030320,0.003330682298105,0.000955000000000,-0.001050528088165,-0.002836721467943,-0.001549300132832,0.001754288674057,0.001849164192171,0.002415380525137,0.000520000000000,0.007430973244269,0.001043128868608,0.000300360164947,-0.004845000000000,0.004094345202592,-0.002147438156244,-0.000422143792180,-0.000535000000000,0.003566054340027,0.004216341921745,-0.000854880698339,0.001393559919662,0.001295000000000,0.001700299910588,-0.002283974777239,0.004344697762320,-0.003525080532141,
-0.020728765712362,-0.004782135815969,-0.004813417061539,-0.006086713307686,-0.002600000000000,-0.004550321304353,-0.000611758496237,-0.002510324225576,0.003725164795011,0.003442267922372,-0.002282630568456,-0.008648679853827,-0.001130721247156,-0.006807265538755,-0.000773226774058,-0.002180000000000,0.002049389053053,0.000017789958779,-0.003429435963746,0.002190000000000,0.004656394155694,-0.008425805203112,0.003805712317603,-0.001186125193740,0.002825000000000,0.001209305335688,0.001925814631889,-0.001655000000000,-0.002239224528607,-0.000182015836678,-0.005639816837378,-0.001775000000000,0.000065961639195,-0.001298697493430,0.004708554694005,0.002510295778128,0.003720000000000,0.003635000000000,0.002673293874875,0.002675000000000,-0.004987445136995,0.004940862296576,-0.004605000000000,-0.002872444959797,0.001340620346395,0.000364079835426,0.002058699539175,0.000705940376135,0.002710042625590,0.002785316434209,-0.004493143166063,-0.002734464853282,-0.003462942703122,-0.000483305699167,-0.001975000000000,0.001715000000000,0.004000223446492,0.003340000000000,-0.000700000000000,-0.004937680178307,0.001721672234264,0.003767824891864,-0.003925000000000,-0.005565603584362,-0.005787851394772,-0.005902152607454,-0.000515000000000,0.001393503955332,-0.000318144677186,-0.003836038926471,-0.000705681533944,-0.002573692377313,-0.004082204534525,0.001210000000000,-0.003560793375001,0.003778728573345,-0.001500000000000,0.001396047423392,-0.004230000000000,0.000495229489605,-0.002032083914866,0.001624926008766,0.001395000000000,-0.002163544522444,-0.005796286105107,0.003295000000000,-0.004174929067951,0.000261026908827,0.000164563698595,-0.001705147055793,-0.004568007363047,-0.005730825987065,-0.000936834460827,-0.002737238285085,-0.004921633800630,0.000292008388802,-0.000536101485827,-0.005231747016841,0.001651108449052,0.000406675312576,-0.004106477298389,-0.004769686151645,-0.000525118681671,-0.005001694776346,-0.004070000000000,-0.001705442198975,-0.004203355469705,0.003019434085098,-0.003721094303696,-0.004355932198247,0.000399555512484,0.000545000000000,0.002265000000000,-0.002558158365634,-0.001247220301554,-0.001677046631771,-0.004712986930209,-0.005305058660551,-0.002821655698716,-0.001292567978785,0.000857698772416,0.005061248521414,0.000529902311547,0.001582358222835,0.000762071610243,-0.002905090453231,0.003009591690007,-0.003800214446227,-0.000137677094886,-0.003660728998779,0.003271698502597,-0.000945000000000,-0.004841683954856,-0.006098012463990,0.000188847697392,0.003805000000000,-0.001362241470464,-0.001840727408363,-0.004237093530728,0.001203368932383,-0.003525932512186,-0.004706455782191,-0.007955582268204,-0.002453095788986,-0.006724818051132,0.004302557518456,0.003560193295787,-0.000255000000000,-0.003861896626220,-0.001913615548379,0.003075000000000,0.004065052681363,-0.003047539443908,-0.004183671620458,-0.004294835028576,-0.002702591974879,-0.003407510233598,-0.002854425899299,-0.002552657546509,0.002824162055737,0.003106618112972,-0.005467459107186,-0.005625932243179,-0.000512072323404,0.001543711207141,-0.003595000000000,-0.002829046729879,-0.005865520730060,0.003327545642854,-0.003879814943431,0.003642777720297,-0.000714914125414,-0.002419745243152,-0.006144059201826,-0.007035296291489,-0.003698019516378,-0.002675000000000,-0.003474314410954,0.003448747352072,0.000593909573311,-0.007072527157741,-0.002697250920909,-0.004589361152960,-0.002995000000000,-0.000948645087544,-0.005989155924175,-0.000456771305786,-0.001430000000000,-0.001293826700550,-0.002375632600419,-0.005676997470693,-0.001370000000000,-0.005960967115152,-0.005080345249917,-0.003447009602435,-0.000812691700752,0.002465000000000,-0.002177073419261,-0.001419316245807,-0.006465482139518,-0.005830388709653,
