0.005038761481941,-0.023755253777276,-0.025521210971184,-0.001846349449249,0.055278271486229,0.034427309614266,0.045963518765880,0.020686662644523,-0.004659006132716,-0.006495590418922,-0.027867676061425,-0.072829433209274,0.019014292324075,0.059129448873356,0.048816285037254,0.040186466244482,0.023542503296796,0.013808540874475,0.013161521942191,0.010980533682792,-0.055484627825551,0.020097554946422,0.066688841022461,0.038946551089899,0.006389573897559,0.029792095124210,0.016921699052304,-0.013871404073282,0.009133749054886,-0.048796320735947,0.001235436018884,0.055588793039845,0.019154779567281,0.026173407692280,0.015410101127138,0.009619534484638,0.017967767136029,0.022616953065825,-0.006383311581444,-0.031895196002813,0.001404916127600,0.017534185594302,0.032315963781210,-0.002894594526142,0.016772587083520,0.023737338511552,0.066043565505644,0.096036779643194,0.003495977612337,-0.009280653089672,0.029989038998028,0.001682404617129,0.046349849156165,-0.001648069974877,0.001154934362996,0.086369351974629,0.068535639671694,0.044686663438459,-0.001623268791393,0.002246836243170,-0.046283343391099,0.025341817639252,-0.018499847034790,0.008680665567745,0.014568142767374,0.004142637936598,0.029130121736194,0.005081017467036,0.001353452604588,-0.033191486590869,-0.006858168486199,0.003487997591744,0.016518656415663,0.008629815937205,-0.021851733310150,-0.015041986143243,-0.000386023749502,0.009355238104084,-0.005372906582392,0.001594093163926,0.010785998305209,-0.008400329169655,-0.025190365615163,-0.050924754082845,-0.056376731058659,-0.027634270356964,0.000098736718965,0.015107352247448,-0.028332902840908,-0.042895540584128,-0.001347924514654,-0.008211842878507,-0.023606881650137,-0.011461364364766,-0.047280268635839,-0.033634346424889,-0.037238160850946,-0.042514393433619,-0.094838100152260,-0.042029391973974,0.009990452293754,0.017625789555128,0.010094027802980,-0.021592746814695,0.011382597125116,-0.010204985673142,0.006200757736291,-0.019782366154937,-0.017585831398724,-0.000905555245141,-0.012154113311495,-0.059693024436600,-0.082945683746586,-0.041232021154672,-0.015945561506755,-0.013503989039603,-0.009100918311271,0.020887322579343,0.017167143916574,-0.009510377683193,-0.016259271922961,-0.060473912089607,-0.069764097675126,-0.039510922279624,-0.019595470062141,0.005657792637453,0.023833695730457,0.002973743924639,-0.060924958510547,-0.065713199654160,-0.048484271539888,-0.069642083105045,-0.066566233664262,0.001246370201522,-0.011447549973426,0.021987862879802,-0.057849243958607,-0.144340148413501,-0.123472580112523,-0.037796353669304,-0.000763834882367,-0.010903280996097,0.035905064274922,0.023994505806837,0.035940846167464,-0.011334396660835,-0.065358602794122,-0.062250345731975,-0.069281929460139,-0.054754527885279,-0.022640241139205,0.032788161803088,0.013800662056615,0.019497810611289,-0.015081804894750,0.018496692765979,0.009740939305968,0.031349311209994,0.024274335000272,0.006474061413565,-0.017378111580839,-0.003343603914051,-0.009442784582807,-0.021024056272860,-0.060579897357852,-0.022320564422532,0.029121429234488,-0.002994281140499,0.000276638184905,-0.042498944228861,-0.030743599713248,-0.010760589318458,-0.009556575995979,-0.049545273046158,-0.054691806321356,-0.024240234481319,0.008792068136257,-0.018102854041062,-0.056073181929190,-0.069595328540281,-0.015011827275304,0.038877250473431,-0.034319929087936,0.030939811452104,0.044688249536571,0.054154402009595,-0.006423241606952,-0.004880404410767,-0.015521429541045,-0.021557885402142,0.024123464055849,-0.057322020114973,-0.038791944660183,0.034795069484837,0.049058940392407,-0.017770545915694,0.020803548560323,0.035467797558058,0.009255733741724,0.069245507207115,0.050192750930494,0.067998619628829,0.014255042733938,-0.029597175261798,-0.004713132139219,0.005938304213713,0.022412134216995,0.012125108011973,0.097049257409264,0.148827563953007,0.047291981715130,-0.016829784375613,-0.005795864113156,-0.033471643072343,-0.042751305310813,-0.010098309244384,0.028330044117795,0.076741885014945,0.076879158698780,0.013620532074618,-0.018444113366214,0.020084888602834,-0.034768862106346,-0.016013484279324,0.016811166213392,0.013592323583612,0.042201976843679,0.011249596441311,-0.013972166129028,-0.008534035533544,-0.000003746122043,-0.012276195847559,0.013914236163262,0.008602719485139,0.034233648278095,0.014420792548541,-0.023376233550493,-0.010221975692439,0.006830752028208,0.019323530617110,-0.001793512182070,-0.002564278659100,0.007465159292619,0.034078313787925,-0.015522616811011,-0.031649424959440,0.021908151617994,-0.019217359266296,0.025366594091796,0.032200089347721,0.005562688873643,-0.004129656830390,-0.027154292238408,-0.006832283041380,-0.007188138207489,-0.016978077302103,-0.004240989849131,0.029939584167598,0.017197118093881,0.024206712948455,0.003954057936682,-0.014056100348577,-0.000322742574046,-0.019156724753749,0.017645328025954,0.018086671176079,-0.010917213059270,0.031604063571036,0.023385687572940,-0.007785121647081,-0.017292211175392,-0.003061882661356,-0.010191140152423,-0.018607341064879,0.008395215701675,-0.007861348381708,0.006227965164010,-0.005124635968872,-0.000743291493636,-0.029212989266018,0.004998462511086,-0.000055247372299,-0.033133745526674,-0.020630407348430,0.004332939719468,-0.003811402333876,0.012855711249342,-0.008121161880343,-0.003184273382925,-0.032918573747498,0.008571888081158,0.006538456593596,-0.007412351154235,0.005363439015108,-0.008246988958933,-0.000310483338976,-0.002093669268918,-0.014427171052642,-0.009542452884413,0.017430561342151,0.042953883202790,0.017661956084156,-0.001994652755311,-0.028489585585610,-0.023084185465821,-0.009581728752344,0.009721292830470,0.010577794720300,0.010079315957435,0.010425441027982,0.021200931471875,-0.031053535378885,0.014628654378704,0.000161130127149,-0.022635030196755,-0.016588202902738,0.001603327141262,0.001266037129187,0.015124388736798,-0.014128225064573,-0.007357415765291,0.008138375711464,0.005836391753749,-0.014051478898630,0.008579238658624,0.007339862629259,0.029227293191362,-0.020480475114748,0.013055128090498,0.002619965616468,-0.027392819684545,-0.021199657180395,-0.004724663994288,0.011548829003132,-0.009821620531807,-0.017107144246355,-0.041648978173612,-0.026485018408875,-0.016804826745815,-0.029634047491338,-0.031758199075734,-0.047980874336573,-0.005235674290803,0.004668175934568,-0.003256350283299,-0.010809456853154,-0.020181054452739,-0.012991275420008,-0.010236363701562,-0.014785369966248,-0.034501949903163,0.006101559500162,-0.006295140178515,-0.037639819187545,0.000932656636239,-0.024527171331619,0.004880695184286,-0.001089092495794,0.007777266723827,-0.005235864262443,0.043616277819781,0.014036596091612,-0.012980092016645,-0.024096600621022,-0.042252270801487,-0.011718825920756,0.001581102061206,-0.009569928290883,-0.025059072963358,0.008271249417534,0.014765800639501,0.024597017630123,0.031954251053003,0.009703811662923,0.007673738465991,-0.024500219440028,-0.003561860139248,-0.004899985882006,-0.008333135555968,-0.006020267390637,0.021718417011086,0.027019737528517,0.022956980772234,0.015830031712627,-0.027783547347877,-0.003015840537022,0.010425125310451,-0.014016101375499,0.020341538425923,-0.003408151218383,-0.005600681559056,0.020991494114193,0.009421723028134,-0.002081622776654,0.015760413510951,-0.016915971275188,0.031750291137381,0.002025704427090,0.004081473642403,-0.014806197458190,0.021760450191017,-0.018170498129688,0.027707484943594,0.009799540767568,0.014042449557396,0.002431984347485,
0.009485658493471,0.025348045988090,0.029163506441791,-0.018579119474385,0.026024106787743,0.015040412196911,0.015181370397511,-0.001455846237089,0.018315312033137,0.005565209504639,0.016610342676910,0.025151962692535,-0.011394909808953,0.020220726871111,-0.006275724876803,0.010875233944067,0.007523404937170,-0.002221881262990,-0.002505476772876,0.002133918312202,-0.034244640614174,-0.020958123448975,0.054383323224564,-0.006820108387495,0.002559461223369,0.014594880697813,0.013384774554696,-0.007041150626314,-0.041009185364427,-0.017248086997179,-0.006385001456544,0.056904029010389,0.020878053882845,0.026576239165259,0.033417377213824,0.024920178199626,-0.004136848327029,-0.046567397387000,-0.038809240065321,-0.012596743412207,0.012413429879659,0.029908500992196,0.003541075365212,0.031736188996931,0.003752061156695,-0.003298564621305,-0.013595687088412,-0.021175061143911,-0.041420337438847,-0.014437954744388,0.005484601104792,-0.029802211599218,0.012165053708082,-0.001321544288574,0.020616287217631,0.008822795447844,-0.004338734400334,-0.012519799019298,0.009955506264922,0.007674466531292,-0.029953418614669,-0.022375728727736,0.009916444716101,0.009578797398333,0.012070049362166,-0.002687592698012,-0.018520334937164,0.014603567961875,-0.008173629374203,-0.058077192270051,-0.038017037285033,0.000837723306668,-0.006480865225178,0.014887657771641,0.012483541574223,0.003698088606313,0.013161294529002,-0.018548541582499,-0.034587874099075,-0.011746913556594,0.000654906508439,0.006272422749909,0.000501648898403,0.050127692065980,0.005992087982309,-0.019332509684795,-0.007774865130211,-0.021360652901031,-0.041397335850774,-0.032560421664812,-0.004408646522480,0.006702927072365,-0.025356536435958,-0.003776505917298,0.015667247094281,-0.016173565216722,-0.024517753898532,-0.059301011773203,-0.026718561459543,-0.013161717093001,0.009832626660552,0.004598779018662,0.001344593687325,-0.010709620908861,-0.022167622856832,0.024044442130028,0.052379790050651,0.045730448677527,0.012952026177509,-0.000672078331572,0.019149522821506,0.002674556290379,-0.073208185923389,-0.070469807906977,0.008937164889622,0.054180233125397,0.050806858157554,0.029791032410902,0.010681220730719,0.021748130644516,0.013813274110019,-0.047918765555780,-0.053711252500361,0.002381075780475,0.028776800744904,0.057500550924076,0.035453052517965,-0.006414149571043,-0.019904480218142,-0.008588321699484,-0.031663426124461,-0.023456242671020,0.011497284484321,-0.015123000934110,-0.012887604231532,-0.012394388268460,0.019110645708909,0.013373447336288,0.002122376482403,-0.005134562622787,0.002143418225889,0.007987082049656,-0.029573339087703,-0.040072294914386,-0.021957167615219,0.010536889593421,0.029623398021773,0.017416018623803,0.016775954950662,0.012587743378241,0.022502929076909,-0.012978285807049,-0.006879508409069,0.001875260337650,-0.003729672681701,0.006803993451703,0.019078780903352,0.008333068985312,-0.018350926168251,-0.007660733929683,-0.005717726643479,-0.000313010654818,-0.014148401101996,0.016031912900300,0.050101356383676,-0.013979801980768,-0.011865701187472,-0.034968090669429,-0.020073046177517,-0.062130984755854,-0.017456366960510,-0.020899135772854,0.033349889913887,0.006190837141482,-0.044761689360227,0.030780146342202,-0.000952038611809,-0.029610840917969,-0.071206466862827,-0.033772593117122,-0.002772270718532,-0.010608910626577,-0.028597886407538,-0.022070628603999,0.046970453689259,0.026321627408532,0.014873667328636,0.048669098637996,0.061271790577319,0.008243662752753,-0.017974450741114,-0.022694754598342,-0.012522227972690,-0.002083693263605,0.006814592778577,0.006425990473560,0.071014413683594,0.093876370640008,0.027502983110863,0.020992446891936,-0.011522757099665,-0.032095177580971,-0.038450280712316,-0.000027536233469,0.034994972964630,0.092854928114434,0.104611816441232,0.029072448128650,-0.009624572044603,-0.019739332201984,-0.026230295791829,-0.030706169244381,-0.011924187951771,0.005522828739931,0.046063544047848,0.066968560841223,0.011803006739051,-0.014417142731316,-0.003763460689837,-0.036526567618574,0.001266146870420,0.004137575566427,-0.041601332949563,-0.042310883941529,-0.018560906962385,-0.023748063226361,0.035778521936085,0.019294764179219,0.021977528323445,0.044913695588429,-0.004070279460321,-0.066568336877657,-0.046272196808006,-0.018070708887128,-0.008622946565641,0.037689862704738,0.023505139950276,0.022134927629234,0.004352092618566,-0.020134630780570,-0.061006695359166,-0.048504343870311,0.003627570169717,0.006363316171687,-0.005257037857578,0.005423750161282,-0.010600669555317,0.012705152469094,-0.011233549339657,-0.012608817839424,-0.011842066620811,-0.002975279026169,-0.010909466066050,-0.002930897686505,0.000578340364119,0.012693468944565,0.030602852493427,-0.017244203244877,-0.010231748405889,-0.016940737196583,-0.014262316931538,-0.005378944956235,-0.011316570324110,-0.012331385251130,0.001365327571068,-0.014532866839364,0.009741796795145,-0.002511474357460,-0.007023617957915,-0.014660438237139,-0.006294523901022,-0.006731295926367,-0.005008236645280,0.012095432645449,0.004232835140468,0.014051762576374,0.012286319457046,0.017428788520742,0.011778441972040,0.008546601967649,-0.014053755076856,-0.008571755364093,-0.012248399846545,-0.013099813642024,-0.029627270131506,-0.021896510466764,-0.029230489772169,-0.002881616073962,-0.001820194198542,0.019308637012971,0.012120724759316,-0.006269708397538,-0.003389567955794,-0.013970581828022,-0.012497318221720,0.002161390805594,0.009893311739187,0.007558633902149,-0.000620825017912,-0.016049395229205,0.001158058357184,-0.006849878340357,-0.022282086181281,-0.005048170043685,0.017481552929651,0.022872899755839,0.015488535617955,-0.018009948142618,-0.000465089256673,-0.001871265963613,-0.031333005014215,-0.015944157729656,0.012793026638665,0.002734235537611,-0.024233867989270,0.014122986201293,-0.009033133904688,0.005828715068866,0.005241858230974,-0.021002821343482,0.029592986854707,-0.004609255561857,-0.016381433493227,-0.008225649165407,-0.011794564831800,0.012068067165888,0.012626407389884,0.020946561642527,-0.006070000648068,-0.005450390378506,-0.007180533798442,0.000373257008074,0.000584464775055,-0.001477098010754,-0.017403821592273,0.016532029096397,0.003087813432559,0.001791785235403,0.014276895120395,-0.033518512501277,-0.007664490214068,-0.014794448323668,-0.007785887833303,0.005434879992524,-0.009124523113950,0.010074829501170,0.008128004396320,0.012965016469185,-0.008142345604462,0.000432060960884,0.006304333320593,0.004059126147696,-0.001953687115298,-0.021642484633508,0.004195491835857,-0.001168644706627,0.016114251745358,-0.006328062900972,0.014146642016002,0.031620811945892,0.025970269340095,0.004125595323755,-0.026134620024711,-0.010329691698633,-0.004581389122976,-0.019252380688432,-0.000776726889469,0.023297467846247,0.019460766346992,0.013070650119605,0.012943456486352,-0.006075361430516,-0.008166106062068,-0.003787482613060,-0.006814517234930,-0.008867637732044,0.013730069183128,0.015717577125531,0.011387031170961,-0.004488638625361,-0.011826570195891,-0.013448152808489,0.005799320718294,-0.001628313674768,-0.014832278946318,-0.021881578797539,-0.022095493642344,-0.010013108437256,0.004862191415972,0.001517196448248,-0.003059278466888,0.019192747429975,-0.007123110519725,-0.010481635817850,-0.028011651052464,-0.013752869370450,-0.027510955768500,-0.005918388356577,0.014178459811249,-0.002836246052669,0.016440998775031,0.006825204930380,-0.021486825195949,-0.023756768021008,0.000998306312668,-0.008457847560936,
-0.020505091452130,-0.043807816163314,-0.025984701483282,0.006998584975022,-0.018842351708462,-0.020708927466496,-0.026008908482959,0.021611218128992,-0.011840803668320,-0.013771135915229,-0.052692184354616,0.023724746070415,-0.005312660539839,-0.029610004541128,-0.044363594976857,-0.015975433262841,0.002262628960494,0.013657413742810,-0.026942432974879,-0.023309180465116,0.067257623793750,-0.008338670143716,-0.084001841634871,-0.103392409038279,-0.099992568956897,-0.090460440468571,-0.030153847130704,0.006617727297176,0.045374267903948,0.051645927350844,-0.007190642528707,-0.090281842946350,-0.155090942810188,-0.120491254348123,-0.109493662205784,-0.034339706422557,-0.008514351711172,0.038222414954600,0.042856935622903,0.011284376506257,-0.015817001250910,-0.129580777410140,-0.066664978942465,-0.060115271874285,-0.038046804981338,0.009702128415801,-0.029268415271636,0.023133480689636,0.033738605756958,-0.006601778034730,-0.085989385419183,-0.004389309991369,0.020634493822803,-0.012867861349011,0.008935141336907,-0.010219793820364,0.039734796160482,0.085030857137593,0.009935767763891,-0.013798109654713,0.001048276098072,0.030410502158756,-0.020881928107523,-0.006690164754665,-0.003016150310531,0.048856260093979,0.055852632662379,-0.025166757244697,0.000917852065209,0.020346723618539,-0.000567744837503,-0.016055561015505,-0.006514385200050,-0.012632416698444,0.004366425497134,0.046737272304168,-0.053752464568991,0.000147566116633,-0.017816041291853,-0.038113275418510,-0.010628175462992,0.007466707708273,-0.022607950537363,-0.050345612763348,-0.036509501382883,-0.052182108129194,-0.039933960645107,0.006447475967120,0.051955987532442,0.072439800325719,0.072463752610360,-0.013315243807728,-0.023672369924554,-0.018294310414549,-0.009124952533861,0.003228731203894,0.034336746225479,0.068804868980535,0.055107287009277,0.024251799563446,0.050457639141290,-0.009105387667157,-0.003875968779649,0.025785889790388,0.064660691114590,0.006427073543088,-0.035003891472596,-0.020552663709547,-0.003103912660391,0.024586280862767,0.024072523148032,0.032278417303957,0.124259878335925,0.175612893009994,0.143067785905900,0.077263217221339,0.032477890384212,-0.006381813904590,-0.028121176118228,-0.020352019786180,-0.014187155684695,0.069301152468856,0.150112453569953,0.187550579633305,0.143258236860660,0.069527341069985,0.022425791361710,-0.034222493544946,-0.028847502839308,-0.038958012992426,0.010167720918118,0.018770301535775,-0.003471405810756,0.014516127785597,-0.034161620877789,0.000423081897889,-0.018735825966172,0.021105238378959,0.029835554265621,0.061202581299078,0.011649200482572,0.014166549461763,-0.027413303021811,-0.062364412800713,-0.037791134221480,0.014756883634551,-0.010030861931593,0.014712771133914,0.033973650109624,0.050794415579609,0.001499215395681,-0.020506997855221,-0.022897188095708,-0.037326542580601,0.008168068509516,-0.029567781121749,-0.002554452886141,0.014186806192841,0.031775606615922,0.017459582547343,0.006996006622689,-0.007902862947211,0.008939078960730,-0.075963248941134,-0.093002300249814,-0.096104345699477,-0.067829512955989,-0.064342336648250,0.031197447225515,0.083855810405580,0.097985118020145,0.060131152645338,-0.050211168579938,-0.018582342746116,-0.058766349521418,-0.062190629427001,-0.035271651860746,0.027342376528438,0.094567636129845,0.066405568391224,0.043695745716245,0.020511703251976,0.075130608343574,0.043167074275725,-0.050675677283820,-0.128449505135148,-0.187104419285155,-0.131558860241388,-0.081088186257678,-0.015485735303736,0.071087708850931,0.133795120215706,0.117877721369202,0.040637255581950,-0.050571290462566,-0.067877882851613,-0.099125451473294,-0.059492772541163,-0.009384542377779,0.053308814395281,0.057698768418466,0.100848007670981,0.104594149366767,0.055809057141128,0.016090924379396,0.000370869555942,0.023484371383540,-0.002573692397708,-0.016092817439669,0.004295584749702,0.014036302734386,0.039174228487212,-0.026687878738309,-0.019834534262589,-0.028701911725678,-0.015379635473523,-0.063104585081895,0.028547403335835,0.018146640535620,0.073504258706531,0.017921381852053,-0.023378157611409,-0.012771052437397,-0.024041891265372,-0.029425643109658,-0.033422104690395,0.017578044054406,0.053126473137283,0.061675249621313,0.029410565492404,0.049065257311508,0.060132807188222,-0.013825878748349,-0.032691816470727,-0.011798939885771,0.006142693473572,0.003510914599758,0.055729279382096,0.031150409211266,0.042179432435772,0.046730946943929,0.022692773672727,-0.037055573003139,-0.036266468154161,-0.022256579256018,0.031678662440549,-0.003669588011672,0.002842255963944,-0.020855781188152,-0.020989828617010,0.016337994722561,-0.020142355583805,-0.018311557663759,-0.005161699849776,-0.002405089025357,-0.014816425801420,-0.016313865608128,-0.025144948793074,0.006598130919906,0.009662001789233,0.005539466595674,0.011801120171416,-0.006795970041898,-0.042554429865728,-0.020257618865837,-0.014376995457960,-0.016725033300395,-0.022584091165267,-0.016797404926955,0.015868370086086,0.045895430573317,0.024115087531491,-0.027029529964384,0.001151103329692,0.042925521972587,-0.035052415445899,-0.026974600724460,-0.061651096913424,-0.022199877023846,-0.040146075968669,0.042911654460775,-0.023061670259148,0.015374137485083,0.014209698076219,0.037540502638067,-0.006317803765528,-0.018455097209856,-0.014068988901406,-0.008169811105477,0.004437533995732,0.003718816379902,0.007055932448529,0.017999064567208,0.002007131572287,0.004246189406310,-0.010598040402885,0.013601262776040,-0.008807774042816,-0.003635102353098,0.004327407982060,0.024579719229606,0.013461426792130,0.006363952121686,0.002430973183399,-0.013146703738030,-0.007022143431526,-0.037369626361396,-0.013571055104729,0.005376678401483,-0.004817321703102,0.029674602316310,0.009266357463154,0.006111532935471,0.017898294737923,0.017462827292721,0.003585595748265,0.006538807110226,-0.000683681248344,0.018572687108487,-0.015406489202621,0.041496118024245,-0.021450573377811,0.041435158236092,-0.017988918584818,-0.037156725851189,-0.011542449649436,-0.016341914941891,-0.041295583919383,-0.030950397956996,-0.028273926825018,-0.040725946753404,-0.003145149537836,-0.000808743182668,0.044037525064731,-0.052853648931382,-0.029714558106368,0.001565976708763,-0.037918327225456,0.014229872928572,0.017206267441870,0.007083164307368,0.014412688582523,-0.000875241985915,-0.019248487024169,-0.000120046485777,-0.005002256204471,-0.016716117034018,-0.013826384696775,-0.025942376806360,0.002832237642241,-0.015253037920079,-0.001229984429409,0.022265342785722,0.021660370303397,0.048281001412336,0.009086056304228,-0.025940313446107,-0.053895398336707,-0.042576513003589,-0.028066028869235,-0.030507980742083,-0.007062134421716,0.015655752366444,0.024773453131321,0.052666154575563,0.049534556121335,-0.001005616977119,0.007088132937421,-0.014384067006992,-0.031704483391343,0.009663826512148,0.011497302073720,-0.010552467303123,0.017695906111984,0.028285924523290,0.010673631518939,0.003399522934964,0.014467850758519,-0.001474629015483,0.008142663785265,-0.005800367716704,0.000360186108463,0.005941461330261,0.003694121505553,0.003275510193311,0.008620313194010,-0.003053406179360,-0.010835495825621,0.021256342648529,0.002862018671225,0.031258491411881,0.040151537001416,0.007923116715609,0.000405196296663,0.013840015296627,-0.002404632793820,-0.024160214943416,-0.018571698808503,-0.039773654193739,0.027154996042718,0.011165477081625,-0.011219452858363,0.014476705991401,0.023921013832079,-0.008907625280184,-0.000470932006441,
-0.008200000000000,0.003790000000000,0.004880000000000,0.007620000000000,-0.001260000000000,0.003640000000000,-0.001050000000000,-0.007590000000000,-0.005420000000000,-0.005260000000000,-0.000310000000000,-0.001920000000000,-0.008910000000000,0.005350000000000,0.005670000000000,0.007850000000000,0.005930000000000,-0.008200000000000,0.005810000000000,0.009470000000000,-0.006650000000000,-0.002460000000000,-0.005200000000000,0.000120000000000,0.006670000000000,0.004280000000000,0.004220000000000,0.009100000000000,0.007580000000000,0.009650000000000,-0.006040000000000,-0.005870000000000,0.009080000000000,0.002150000000000,0.007540000000000,-0.005790000000000,0.002020000000000,0.004720000000000,-0.006830000000000,-0.000420000000000,0.009430000000000,-0.002070000000000,-0.008380000000000,-0.003090000000000,0.003620000000000,0.006840000000000,0.007770000000000,-0.004820000000000,-0.004590000000000,-0.000410000000000,0.004460000000000,0.000190000000000,-0.007260000000000,-0.007910000000000,0.003170000000000,-0.006250000000000,-0.004310000000000,-0.000650000000000,-0.002830000000000,0.009740000000000,-0.009930000000000,-0.002310000000000,0.002160000000000,0.000960000000000,-0.008340000000000,0.008450000000000,0.004810000000000,-0.000790000000000,-0.006780000000000,-0.005170000000000,0.006680000000000,0.009620000000000,0.006380000000000,0.005310000000000,0.006700000000000,-0.003430000000000,0.000530000000000,0.009810000000000,-0.008200000000000,0.007800000000000,-0.001800000000000,0.007240000000000,0.004120000000000,0.008640000000000,-0.003080000000000,0.006040000000000,-0.003060000000000,0.000220000000000,0.004030000000000,0.005430000000000,0.005040000000000,0.001820000000000,-0.007770000000000,-0.007750000000000,-0.005700000000000,0.003030000000000,-0.005100000000000,-0.001540000000000,0.001160000000000,-0.008900000000000,0.006390000000000,-0.008650000000000,0.001870000000000,0.004540000000000,0.008620000000000,-0.003190000000000,0.004520000000000,-0.007430000000000,0.007050000000000,0.007840000000000,-0.003750000000000,0.004600000000000,-0.000380000000000,-0.001810000000000,-0.001110000000000,-0.005720000000000,0.001750000000000,0.008710000000000,0.007580000000000,-0.002980000000000,-0.006430000000000,0.003810000000000,-0.004180000000000,-0.001810000000000,-0.007640000000000,-0.009810000000000,-0.008370000000000,-0.004130000000000,-0.008410000000000,-0.006740000000000,-0.009640000000000,0.002950000000000,-0.008320000000000,0.000530000000000,0.009230000000000,0.004830000000000,0.006700000000000,-0.004880000000000,0.006490000000000,-0.007430000000000,0.002100000000000,0.008560000000000,0.007710000000000,0.002760000000000,-0.002590000000000,-0.003940000000000,-0.005300000000000,0.001250000000000,-0.005750000000000,0.008390000000000,-0.002920000000000,0.005020000000000,-0.001400000000000,-0.001470000000000,-0.000670000000000,0.008810000000000,0.002530000000000,-0.002610000000000,-0.004000000000000,-0.004110000000000,-0.005560000000000,-0.003400000000000,-0.009500000000000,-0.002600000000000,-0.002030000000000,-0.007320000000000,0.004800000000000,0.004260000000000,-0.006380000000000,-0.009410000000000,0.005830000000000,0.003860000000000,0.008300000000000,-0.006440000000000,0.003240000000000,-0.009650000000000,-0.000760000000000,0.004780000000000,-0.005730000000000,0.008290000000000,-0.002370000000000,0.007350000000000,0.008010000000000,0.005940000000000,0.008320000000000,0.008820000000000,0.009670000000000,0.003250000000000,0.003380000000000,0.003640000000000,0.002290000000000,0.007840000000000,-0.003950000000000,0.002480000000000,0.006420000000000,0.004240000000000,0.005310000000000,0.002050000000000,0.002630000000000,0.004960000000000,0.002320000000000,0.006360000000000,-0.009960000000000,-0.001720000000000,-0.008110000000000,-0.009080000000000,0.008030000000000,-0.003670000000000,0.005190000000000,0.008420000000000,-0.005380000000000,-0.003810000000000,0.008770000000000,0.001870000000000,0.008450000000000,0.009860000000000,0.006850000000000,-0.000830000000000,0.007720000000000,-0.004330000000000,-0.000750000000000,-0.004720000000000,0.003390000000000,0.004810000000000,-0.001010000000000,-0.004860000000000,-0.005210000000000,0.005360000000000,0.004890000000000,-0.008100000000000,-0.007620000000000,-0.000010000000000,0.005600000000000,0.008270000000000,0.008400000000000,0.004820000000000,-0.002160000000000,-0.004800000000000,0.005250000000000,-0.002040000000000,-0.002230000000000,0.003860000000000,0.002040000000000,0.005430000000000,0.005680000000000,-0.000340000000000,-0.000440000000000,0.002730000000000,-0.009270000000000,-0.008170000000000,0.006200000000000,0.004870000000000,0.008200000000000,0.002610000000000,0.007810000000000,-0.004210000000000,0.005720000000000,0.001540000000000,-0.005920000000000,-0.005240000000000,-0.008410000000000,0.004480000000000,-0.000820000000000,0.000680000000000,-0.006250000000000,-0.000050000000000,0.009540000000000,-0.007970000000000,-0.005260000000000,-0.005060000000000,0.003630000000000,-0.004090000000000,-0.008110000000000,-0.009320000000000,0.007160000000000,-0.003950000000000,0.000100000000000,-0.002530000000000,0.000510000000000,-0.001160000000000,0.001480000000000,-0.003250000000000,0.007100000000000,0.009230000000000,0.004400000000000,-0.002600000000000,-0.000480000000000,-0.001900000000000,-0.001390000000000,-0.006090000000000,0.004530000000000,-0.003950000000000,-0.001010000000000,-0.004020000000000,-0.008740000000000,-0.003220000000000,0.001940000000000,0.000190000000000,-0.006200000000000,-0.004320000000000,0.002370000000000,0.005160000000000,-0.000020000000000,-0.003340000000000,-0.007590000000000,-0.001270000000000,0.002370000000000,0.005220000000000,0.007430000000000,-0.009010000000000,0.006070000000000,0.000870000000000,0.002930000000000,0.009120000000000,0.006710000000000,-0.008270000000000,0.005730000000000,0.000460000000000,0.005640000000000,-0.002560000000000,-0.010000000000000,0.007180000000000,-0.009310000000000,-0.000060000000000,-0.003230000000000,-0.003360000000000,0.007400000000000,-0.001110000000000,0.007790000000000,0.005580000000000,0.000920000000000,0.006020000000000,-0.008310000000000,0.002380000000000,0.009150000000000,0.005110000000000,-0.008370000000000,0.000530000000000,0.001860000000000,0.009710000000000,-0.000820000000000,-0.002550000000000,0.006490000000000,-0.000190000000000,-0.008570000000000,-0.005620000000000,0.005620000000000,-0.004960000000000,-0.003780000000000,0.009020000000000,0.008720000000000,0.007840000000000,0.004620000000000,-0.000990000000000,-0.008580000000000,-0.003220000000000,0.000870000000000,0.008110000000000,-0.000640000000000,-0.001560000000000,-0.003700000000000,-0.009610000000000,-0.007640000000000,-0.004530000000000,0.004830000000000,0.002110000000000,-0.008520000000000,-0.000530000000000,0.001720000000000,-0.006100000000000,-0.008350000000000,-0.009110000000000,0.000640000000000,0.000520000000000,-0.004880000000000,0.002570000000000,-0.004280000000000,0.000680000000000,-0.001300000000000,-0.008670000000000,-0.003910000000000,0.009320000000000,-0.005560000000000,-0.008300000000000,0.009610000000000,0.004830000000000,-0.002620000000000,-0.008540000000000,0.003320000000000,0.008590000000000,-0.007970000000000,0.002740000000000,-0.000060000000000,0.004190000000000,-0.001080000000000,-0.006410000000000,-0.004920000000000,-0.001200000000000,0.007950000000000,0.006330000000000,0.002280000000000,-0.008140000000000,-0.002980000000000,-0.005240000000000,-0.006820000000000,-0.004650000000000,
0.038389333843508,0.045348486501243,0.042684214907707,0.001005304328693,-0.020505741261456,-0.010161460439307,-0.011484063268022,-0.078372320230910,-0.029475237458957,-0.002350559498135,-0.009821083920316,-0.011185776746986,0.011132674359642,-0.031794472526107,0.015131281473997,-0.046425238104317,-0.080900746963524,0.019970674942202,-0.024539140415058,-0.072505055654666,-0.122052313529672,-0.031952863867519,0.059745677412392,-0.065912508316274,-0.063173898569290,-0.035130357483672,-0.012674372136845,-0.002539826249179,-0.126513344690480,-0.083267964995831,0.026996880954690,0.074334825537784,-0.126319550437617,-0.129591915843777,-0.079018956946105,0.003208276399135,0.015158860320096,-0.084267913720083,-0.006392303844650,0.003412402239484,-0.005552223230090,-0.045920312806022,-0.104911349565003,-0.044808655039624,-0.013955333250861,-0.037092252032997,-0.079722247100876,-0.056566724978171,0.009463378868140,-0.020192801221304,0.015508747320585,-0.027588126802549,-0.018669648155191,-0.056480728219990,-0.025178349989305,-0.010045314992512,-0.043661207453618,-0.030214168067819,0.007444548175788,0.020594238958953,0.001636243535517,-0.068844854981991,-0.008792260417694,-0.017993664560441,0.097704242458857,-0.021781328227811,-0.050923140787752,-0.005717550140120,-0.094646547300892,-0.018361223515695,0.023129694677844,-0.026406264294907,-0.025877724519674,0.075551560260642,0.006046104006331,0.005403462193387,-0.061430384778417,-0.058682699304421,-0.100704134658954,-0.010670031192694,-0.057823176778933,-0.021539211621413,0.008891009519343,0.068729291925091,0.063629803296836,0.026703860966003,0.025734390861776,-0.018786543010224,-0.023612533056780,-0.044767100574204,-0.051206436569465,-0.043483424859887,-0.049982627859390,-0.073584442404949,-0.079413928867000,-0.098391802868251,-0.043035485036350,0.040595033776140,-0.017477282141282,-0.020071331983796,-0.021690840182931,0.034917072683886,0.059920218760911,0.022255279593061,0.025615483359269,0.060122581928708,0.028000243454880,0.085728563124633,0.035235837214715,-0.027210919537604,0.044586361993301,0.123770391484251,0.017487001931788,0.027479865324467,0.057900679904161,0.132359626488311,0.072096276334339,0.005431974475387,0.031515717015176,-0.000430257622780,0.017371978068070,0.000632047027357,0.029864467153233,0.036686301656301,0.081679572811600,0.100908799822129,0.034305265615360,-0.027126151495163,0.001705741777226,0.018537184673071,0.027374713244151,0.039138798337832,0.029037640418782,-0.063143884096976,-0.045781703828626,-0.013817567909090,0.043758405553625,0.126399740131872,0.110135461953793,0.053564462709009,0.068003011948411,-0.043841265847166,-0.045383659471505,-0.112883184633192,-0.054725881298699,0.039689400784834,0.088911015311497,0.168933665987443,0.180856244971713,0.116405588134310,0.058821200181515,-0.037132641613369,-0.036414091549417,-0.037434166525376,-0.014405638416774,-0.001865641493701,0.057490844556158,0.073670879446112,-0.036269585321454,-0.015358592568093,-0.009461026114514,0.009507889912430,-0.041666773493213,0.037758716998434,0.141886650139960,0.108013333033418,0.069599958862659,0.018041528483887,-0.013510215204775,-0.043163859833386,-0.038899881601300,-0.022003757200161,0.034228565677266,0.022300415741665,-0.040149203023557,-0.032481252657363,-0.071743529142405,-0.096754519249539,-0.031315125521780,-0.008947700602245,-0.040168896905101,-0.062214278583825,-0.122836823114158,-0.086295563842251,0.101087940879731,0.120813284295418,0.111750598615872,0.087463623764186,0.084232911036706,0.031457706782981,-0.127457344708736,-0.076359933232767,0.083188485843577,0.201489952720202,0.115644756909591,0.018425089877246,0.093442042470804,0.148326019852201,0.013420412596395,-0.054951719179638,-0.012209798651524,0.026155615236167,0.067182051714350,0.023643408903508,0.037650211679673,0.137399771808809,0.129212329725401,0.014808484498581,-0.031956463685766,-0.024971306542325,-0.009141392959932,0.005999836570604,0.022017494435465,0.082467661540171,0.099207057311420,0.021157650762096,-0.024597470091483,-0.006587522217981,-0.000592681571038,-0.030643204497861,0.029485811071614,0.114184266547155,0.061274183754978,-0.027548637081862,-0.078015266523098,-0.063465474406978,0.122349822428186,0.055486822738876,0.101651687625936,0.152722563099991,0.091444686395934,-0.012274248501333,-0.037096833934821,-0.035013535009964,-0.039381527706581,0.086570975633428,0.099421881106360,0.118509035820284,0.084509531490285,-0.007373275945641,-0.035262109530164,-0.031062706291920,-0.019070899203404,0.020279280982614,-0.027511193129620,-0.010926246474485,-0.006605382818680,-0.000928795039423,0.008856239273267,0.002024402513421,-0.016488850320146,-0.028491841767208,0.026595822300417,-0.040921165879374,-0.030724927280464,0.032476591011415,-0.004683805048588,-0.001132294861333,-0.012978201254416,-0.028005935408577,-0.015126125929203,-0.022006653249265,-0.012115244010926,0.011889239316137,0.033367606650929,-0.007009753846688,-0.013979695394593,-0.051609363262974,0.044556251344509,-0.004876601818305,-0.028582155152137,0.002901769945581,0.017215034002784,-0.044837650371748,-0.036799901006320,0.009546070922314,0.033241950709486,0.026284335455906,0.034290145881453,0.015252620342295,-0.048789074040304,-0.048545346998399,-0.011200505765141,-0.084305838982881,0.036375469902342,-0.017473581889038,-0.022661537935203,-0.000884909753479,-0.016882405741398,-0.021035378249459,-0.017445425464516,0.003142240115048,-0.005753514134040,-0.025033354403566,-0.031313800222790,0.001660042540660,0.031073662064319,0.028542249635753,0.055355375509730,-0.023406839841075,-0.052686031661091,-0.026023649076329,-0.025268765336416,-0.013983030515121,0.022275023066523,0.024574263541733,-0.003197992562777,0.030512459714736,-0.019801872570201,-0.017590563124441,-0.032303913315262,-0.022119825820710,-0.002420443535097,0.001779656241537,0.031415136939829,-0.006771064791698,0.016907046011464,0.013269038075524,0.003941267858668,-0.042794447318842,0.019793058692558,0.029461098709362,-0.033012706849526,-0.057868549207401,-0.025574380986795,-0.050772951980055,0.049703391853185,0.003807310606815,-0.009511713359624,0.012870387068079,-0.052329251800358,-0.003271626088894,-0.013089408726098,-0.014844130180450,-0.010660978510365,0.010097276591373,0.025715895025659,-0.007878832269782,-0.008294658769008,-0.042175781143371,-0.033775201081816,-0.029765445122600,-0.017066309457004,-0.010495344474133,-0.067743324776399,-0.047773070828196,-0.043913533082513,-0.022126811579196,-0.008966791162542,0.001939480163922,0.014870282528189,-0.002226079085544,-0.043651345197973,-0.081245089259975,-0.025923639854443,0.007810887188526,0.009551425161544,-0.026465867256093,0.006608758980506,0.002636112628181,-0.009278200458933,-0.018400097462894,-0.012627956942296,-0.009343956557779,-0.003770433142539,0.013149110745971,-0.052092825512712,-0.002821281545272,0.002615234148755,-0.037033051225724,-0.016225161441648,-0.025006462285627,-0.019143146657361,-0.007411770330041,-0.002600429432779,0.022093000682145,0.028983856999674,0.036536307281770,0.037091045068135,-0.023388926679289,-0.019689666479361,-0.022646586477003,-0.021726435015828,-0.051711301127501,-0.007001228332126,-0.019465790170261,-0.018758025898156,-0.017036774344221,0.004314530778347,0.031440493269265,0.047605417435048,0.006606977941413,-0.009205328767481,-0.034480228236842,-0.070617371995340,-0.052358853495190,-0.026586460283515,-0.014172133437281,0.022731185609157,-0.006742116469612,0.020556994074771,-0.024942018446150,-0.017005095652722,-0.059485782745883,-0.052431152627338,-0.021113732694935,
0.000054651498514,-0.096719662540149,-0.099066296454966,-0.018049168563810,0.032314323245940,0.023886529896760,-0.034688271923802,0.006929796526384,0.004884628474617,0.009500976929635,-0.096114447792500,-0.078037478448829,-0.012050745080678,0.069708718505749,-0.014310803173630,-0.009485288194444,0.035702163230091,-0.003217089118233,0.001859212785651,-0.066458973620324,-0.107032207110266,-0.063117839357715,0.028897516991011,-0.008851292794085,-0.026885064565178,-0.043558157629413,-0.030821819746442,0.031131181591156,-0.031968407109981,-0.007733134344813,-0.097256307713451,0.024412974715110,-0.025752792659711,-0.051170090339247,-0.048600535353140,-0.011377240921543,0.009678026713995,-0.002186220898257,-0.042561362921322,-0.001246553052042,-0.014117952987501,0.005479503578204,-0.040942302463331,-0.007534746252396,-0.013879206524706,0.034333494886791,-0.047503389637503,-0.105149037565310,-0.041402879167300,-0.011822655325364,-0.035606867981173,-0.016616941910526,0.010076295886454,0.009696758931849,-0.030505848581276,-0.027065503861099,-0.037132008401672,0.000813857193647,-0.003084010384903,0.000183069355598,0.014477574198912,-0.001959092114423,-0.024620430842306,0.009494157390363,0.003137576435639,0.031273466166289,-0.002990313853689,-0.007728606990904,-0.042642058651439,0.006631073652178,-0.028008572393606,-0.026142230243712,0.008340618423253,0.060043191208363,0.020876625870569,0.003898387786591,0.022193153291018,-0.010498797571756,-0.026171529863891,0.000038648098859,0.019324108552108,0.013957499371806,-0.078477580421202,-0.032161917797139,0.026238282178898,0.087283849779330,0.074914212164435,0.063445472734624,0.002838435078382,0.024322082257517,-0.033648309747861,-0.008969879091299,-0.037351174345366,-0.015244190664119,-0.052998195868308,-0.082511002067559,-0.069205657407541,-0.034670141896311,-0.006821149037569,-0.004912256346404,0.038672307076639,0.090402146134883,0.025894661454681,-0.056917803076213,0.025682567445736,0.064979126800402,0.064592626130352,0.078133889169620,0.024371670225915,0.023169020001787,0.036680096191531,0.120615310281515,0.145097985350382,0.169302195620975,0.101149047512936,0.125522425439401,0.100087851406033,0.048689497254351,0.002615699693212,-0.015034161669893,0.055490926806889,0.108865748005086,0.092826278400230,0.079605370190157,0.091100824483482,0.088869349619043,0.046789883499735,-0.052687969807677,-0.036858231872219,0.005316994438221,0.053371519399380,0.075557245925830,0.045118325975914,-0.017302407920647,-0.003844477630384,-0.012775862838480,-0.037560109451777,0.095232467817860,0.144521972182651,0.065153192907728,0.048159414339043,0.025246588130009,-0.025288924105465,-0.072461840112811,-0.056488073341926,0.016545199777710,0.089590045379096,0.042046133319358,0.064349184993594,0.113494670685105,0.006198347021453,-0.095884474829161,-0.069891143557856,-0.018686659177170,0.018209558807938,0.022160141977115,0.004542854867336,0.000628763221927,0.019408592950479,0.028458250363756,0.006514394483256,-0.031673155986038,-0.016792001028684,-0.142641751276058,-0.188602203797167,-0.126248942034766,-0.016973584656787,-0.001783740096806,-0.036249416621767,-0.057121863672069,0.000270898768129,0.013589450803645,-0.139681479233193,-0.121234847258452,-0.085762861018133,-0.016253546012583,-0.092655076148759,-0.170526314336618,-0.089826474202940,-0.010780100726909,-0.041647883874082,-0.041304230416797,-0.089418789645300,-0.101581918494596,-0.093207544161580,-0.119311273043374,-0.144794338165996,-0.014412941311024,-0.001745839543363,0.021259286312582,0.012081323676860,0.040846242159277,-0.006018515528699,0.019049881912702,0.006615142248114,0.064397412592580,0.040498277775993,0.130877836734430,-0.016859557642291,0.028846026346429,-0.064964679211733,-0.084689118955263,0.006786705389682,0.104720026201886,0.080322823220133,0.095191915829248,0.131122604667217,-0.009651988505807,-0.083807818301121,-0.135495061548574,-0.090366342483723,0.034282415078721,0.016047411487555,0.058900102958974,0.076372558124633,0.022383151463019,-0.014087512779695,-0.086059148766122,-0.013145867541824,0.002011179995006,0.027034781537372,0.037857724006456,0.060266376957737,-0.055125416617191,-0.104793253359684,-0.052275138079619,-0.044848897531239,0.004576537163659,0.011216672289823,-0.055270731004888,-0.009757245614391,-0.020397353969470,-0.071265091215670,-0.099075728597416,-0.027525062182838,0.080626010380931,0.065681233717579,0.018218527079352,0.050658513778896,-0.006562284024658,-0.023934395033111,-0.056582686989754,-0.025767898085489,-0.012745533280978,-0.029268243016377,0.008467239482081,0.022133908931802,0.014645276199217,-0.050075781932251,-0.039615818402186,-0.022614459586386,0.008972743036614,0.013404040107287,-0.005403517222967,0.008042212537350,-0.003978567849796,-0.016178028905786,0.013913987992705,0.004754506918810,-0.014588114038171,-0.000913855157388,0.017778014590854,-0.031088562978749,-0.020058023389252,-0.001000418365002,-0.046221101209759,0.040876321650906,0.029953473690381,-0.014009115903063,0.029682163667931,0.001455275208230,0.030794192638640,0.006386382761841,-0.006622050981543,-0.001595706048813,0.033473635712223,-0.023368952212994,-0.023064596360117,0.000808562719112,0.013407981544010,-0.004004424999431,-0.008562165440244,0.033416957538369,-0.005984256840443,0.041107377822468,0.006541867309354,0.028794220578997,0.038082419199633,0.013097944605326,-0.032288259995536,0.012065389446514,-0.016057768174043,-0.004349701865895,-0.000146844603527,-0.020383033161117,-0.005957044477773,0.024782435962332,0.024274621814657,0.009840747884570,-0.005416506055634,0.001672244592380,-0.015029499253854,0.029029471131328,0.011760379896019,0.006011001221818,0.013432672759823,0.022610042526498,-0.020634296225102,-0.030594491589798,-0.030080604814132,0.038841254243721,0.038185120512457,0.020473573471044,0.059632925845491,-0.006066940157273,-0.029858456689521,0.028780453020696,-0.006292397794736,0.009372999677004,0.003394895204947,0.019990073466883,-0.029609482331668,-0.009077664035428,0.013220043099643,-0.002118617936282,0.000739970885267,-0.059000710978907,-0.040486837803516,-0.034901131380580,0.013445026825589,-0.035697756764509,-0.054377282382494,0.011545419990487,-0.019680723053934,-0.036891319133183,-0.042085469200619,-0.007746536960141,0.013135501294950,0.013579248258976,-0.010970919812752,0.000858515740652,0.003492992976640,-0.026796010517697,-0.004709530399300,-0.039062740895275,-0.050033911441775,-0.024620006451658,-0.015155984407993,-0.019720996985331,-0.055961437209052,0.001993733371705,0.023344838569878,-0.007688864502933,0.010264148746595,-0.024824383667852,0.018141356584539,0.031531686407292,0.015494078447663,0.010989480391968,-0.019026126750072,0.012435666036563,0.014873709872862,0.025423578419861,0.003853146020429,0.011996513453450,0.051492124110083,0.059243500697369,0.038470681761787,0.050756688608676,0.028031921315536,-0.034870322836728,-0.011567606862754,0.005242483504855,0.042262940798522,0.056856932929299,0.016681361954865,0.065212485540305,0.012847897299452,0.005765856547228,-0.005938569258102,-0.029010932298404,-0.017911783099167,-0.011250269814736,-0.009460457596587,0.001772547560008,0.030683450755165,-0.005746798785110,-0.034043908668044,-0.000560198014460,0.023897608060344,0.031161263376026,0.009156275111103,-0.032916767570027,-0.018968751596143,-0.014273432085677,-0.030854759702301,-0.049353085873016,0.025879133441512,0.001549003440297,0.000355703547776,0.026176214792518,-0.015096139814799,-0.009547899896115,-0.026805104884355,-0.015418322708153,0.001259570381699,
0.009084542360671,-0.001048825896565,0.017078988369813,0.002072957010145,0.013144638648377,-0.020926525807321,0.005718038162047,0.011239363805227,0.007533481176390,0.011797142950362,-0.007856139985816,-0.018549469698023,-0.005413306035835,0.007890065533403,0.002828996421416,0.012432619038632,0.041110099844797,-0.003640197321118,0.006623467480347,0.006379654271744,-0.001799403591202,0.015089820539293,0.042243314878843,0.026841074002451,0.011833841610242,0.009765291859573,0.001888144407616,-0.020524611306905,0.031551265719176,0.046974958704348,0.006791693328799,0.007102302071299,0.021997163069013,0.025976003210257,0.035945736715807,0.005413458227757,0.016595742136510,0.031412346842914,0.044903340581679,0.026111104905811,-0.048535711860502,0.025300881523968,0.089525685896799,0.042964969154794,0.044771681150857,0.003114711282776,0.041299658240145,0.033851090550177,-0.007984552925554,-0.056814527118779,0.068775396200574,0.079126061331097,0.075834380945474,-0.002458564007775,-0.012550054367868,0.035663257267263,0.077071196761038,0.053990758475795,-0.017622815252390,0.056268867544077,0.027594187790924,0.036447787803114,-0.014240580726770,0.005707698386687,0.035375701036313,0.030514192718351,0.055747978851479,0.038865336082500,0.004313637010465,-0.011639029073264,-0.020165285440681,-0.015827890219695,-0.015831838026640,0.008692406188479,-0.031405933917355,0.033144103158596,0.013067006654381,0.018735787517117,-0.021181217580210,-0.006209769953562,0.010911194111251,-0.006299317659119,-0.020904271285104,0.011759022965641,0.006938031148946,-0.006086865887367,-0.007333187368783,-0.015990409215548,0.000732032017813,0.039823684309730,0.014508383407317,-0.013282982028710,-0.063001878404680,-0.003941357090549,-0.020982838391804,-0.036633073706467,-0.018876535478738,-0.030143892214789,-0.026245068002543,0.022855816412908,0.009007770853377,0.015926562920035,-0.027944881763097,-0.017513211063875,-0.050639108187855,0.022344164830209,0.044232509626511,0.012614589983301,-0.007396460284856,0.015096819662337,0.015300396093269,-0.020931998596176,-0.106618024965911,-0.057715405617476,-0.005516413307089,0.012026882391733,0.035253550933282,0.002342123378870,-0.011335515431222,-0.027129115608898,-0.057143776156503,-0.095944945869400,-0.062900020100753,-0.050148919204700,-0.004664982326265,-0.012089304326520,-0.017604907513628,-0.076668252951067,-0.067749417664491,-0.045809501035600,-0.043919930380763,-0.036912307902520,-0.062328376056042,-0.083752521477803,-0.054502328154751,-0.030209271761167,-0.013156745297489,-0.060989381246777,-0.026122789410324,0.058369818206326,0.059269633792601,0.022912105415756,-0.088832349595955,-0.133253561146568,-0.085723669452023,-0.003941181720226,-0.002283092763870,0.013398890317983,0.042693158603329,0.063518347887127,0.023987204726356,-0.017880219896873,-0.050564416126414,-0.031258733480527,-0.022277586075418,0.000246572491935,0.017620734891011,0.020691368789841,0.009142732767243,-0.010673273434073,-0.002322986783719,-0.014579650326414,-0.004858560972222,-0.002144178580512,-0.028185122747965,0.002197230536707,0.016883447777344,-0.001771194553650,0.004596219869499,0.012526160613088,0.003201467635901,-0.019421584928418,-0.042997599576740,-0.055338194109023,-0.030051285898743,0.015923601184591,-0.030136132776061,-0.013738026773765,-0.039378056434635,-0.038887438097148,0.016410456716181,0.003824494713071,0.005196792470474,0.032025636748984,-0.038739745652166,-0.068308380381972,-0.000916081083761,0.000784225967313,0.019876377314334,0.024557481655362,0.043603956663403,0.088585745801825,0.013919753005739,-0.045560380554028,-0.081452429476066,-0.009711177536654,0.066236502389901,0.053293319577839,0.013693091137740,0.057910582202021,0.045085172184133,-0.029754677137758,-0.149107750051463,-0.083516600048900,0.043357239026399,0.044730142646955,0.071202524624238,0.028012183709282,0.000720676802058,0.024911138749134,-0.027171514407081,-0.116256547557332,-0.047146226046287,0.033460896951325,-0.011548516471179,0.033290416422015,-0.017348108879026,0.005577579133036,0.043301897511990,0.019182844803222,-0.006168505728549,0.049062919153817,0.070070325567676,-0.047345291837962,-0.067289540755629,-0.069605644453887,0.001588909013984,0.009596960982710,0.031213527952349,0.057297203850432,0.072110033705854,0.045687236706578,-0.067435749221227,-0.077429787438400,-0.035855302583591,0.026059023639261,0.011545987392490,0.028083549549366,0.039557570024498,0.090088635021387,-0.004275082298287,-0.031059624725394,-0.002301444042125,-0.011146559692867,0.023011512655069,-0.030316608970447,-0.003735358512565,0.002826844836074,-0.006860725978889,0.004582002086923,0.002625357959502,-0.014773552775795,-0.005272739122697,-0.021418019183134,0.000100686907959,0.010970249715890,0.005419123200916,0.006780023449850,-0.014368746431426,0.009244317123172,-0.009307646373224,-0.000847280230723,-0.017187004199086,-0.011397061110841,-0.002867695678930,-0.000988648586795,-0.000790238865831,0.011281190480202,0.020258710383702,0.009748510148544,-0.018482475302875,0.009209862687832,-0.007490510682699,-0.007497510864735,0.013452422845294,-0.010835915164797,0.007820729474696,0.017956246529304,-0.028102999229731,0.008339000998806,-0.007277064328777,-0.006912290616688,0.014612304825599,0.007265650112154,-0.026737809433552,-0.023450214179535,-0.003161055152545,0.006726339374016,0.012409494330555,-0.036593848630659,0.009147256622361,-0.016356721708339,-0.016892097958786,-0.011895200264481,-0.027324438198941,0.000221865943164,-0.011675672075668,0.013443418542710,-0.008112669922995,-0.031749860649114,0.033519461244838,0.012326190357608,-0.001374588557832,-0.016941518359274,-0.006507725909471,0.000520397555771,0.007699414192651,-0.012471484576252,0.004600632145349,0.001987754821745,0.001106867443032,0.014190047244402,0.004616398283734,0.030287019509866,-0.017771294414370,-0.021658272904296,-0.002396539519233,0.020655704711678,-0.005986417672943,-0.000536377968658,0.027272109688542,0.013332159839981,-0.003078639448058,-0.008617551633863,-0.040757497035301,-0.003614255398339,-0.007169258483034,-0.010985340498620,0.000172614328635,-0.006130248583342,-0.012954684461308,0.020559699177249,-0.017799162164229,0.007263925520240,-0.010624305348343,-0.006739168978946,-0.019789343874139,-0.002784741025634,-0.002704139364243,-0.038876418596253,-0.008409052715810,-0.009746469674870,-0.015899384829748,-0.032514239194663,-0.007587676217940,-0.007541664773667,-0.007862363908695,-0.006844330372433,-0.015053812728332,-0.002246491301704,-0.020674980984894,0.025323273395169,-0.007538687878785,-0.000690393197432,0.010532124600513,0.002970231498194,-0.031517778542022,-0.010240811752796,0.020414874605501,0.013218441267584,0.015858785160188,0.025316267060714,0.012744558044183,0.011361996061139,-0.000250541288259,-0.044643861561746,-0.011849830787526,0.029554895231029,0.031616177344644,0.021358003009337,0.007919017835702,0.019680484959884,0.023726874289253,-0.022198507734734,-0.034591751427207,-0.006774647913510,0.010181665565183,0.023774052652065,0.001520144344060,-0.005295183519725,-0.008578560548304,0.021609870312476,-0.035505255825863,-0.010081190296060,-0.029096049970324,-0.041277670679913,-0.030606411088894,-0.032388732411141,-0.011864240068985,-0.014504588525654,0.003977467989149,0.026559370989328,0.010967972873762,0.001937812519542,-0.040756911739919,-0.028140758039231,-0.036154860805638,0.004956040550255,0.006580311240687,0.005899074570322,0.015212096179348,-0.005459128668078,-0.021901674709048,-0.002471845277377,-0.022474738641589,-0.003838765888634,
0.001047454981568,0.131338283511416,0.128769045162708,0.082132414583651,-0.097287221366094,-0.068921036911115,-0.052372274601171,-0.143806116178787,-0.027958261184991,0.007372181653822,0.108178119127031,0.134960092181217,-0.052854948873061,-0.122556134171795,0.075311585447030,-0.082645270107426,-0.061836122889490,-0.039023154142680,-0.020749381266220,0.009131442387720,0.020266273796602,0.056952666447302,-0.025311381088626,0.071906922805991,0.085972696105804,0.107648575775485,0.066894955791631,0.030593004775822,-0.090745364168367,0.099995314207787,0.150148840894261,0.075286717985911,0.035523307087581,0.075681944775418,0.144376787974981,0.030917081709680,0.031737698812665,-0.101338024204753,0.102314902638740,0.075829059969474,0.033936897798687,0.060378896251173,0.048586379219821,-0.000591010409073,-0.057398488396807,0.033015009569161,-0.123760465277048,-0.062587672409785,-0.070959173535576,-0.014359354885239,0.026639219007122,0.106285433249708,0.002201842673024,-0.063985167148596,0.023299271985934,-0.145906778776922,-0.089920684709705,-0.192591528110070,-0.000200891003578,0.059864504103799,0.142883178837855,-0.052542608098197,-0.056603931987525,-0.046079247839610,0.062190648043559,-0.096454572834304,-0.158773644557207,0.047450035010669,0.040743306906202,0.214589452629979,0.015845937220489,-0.005634211362109,-0.047159593581875,0.035642111023955,-0.059474559365538,-0.011634076382614,0.060586516671674,0.074216470505846,0.180392555675132,0.014851951604033,-0.079261256635843,0.033708431998746,0.095052373494090,0.151399542905451,0.131893670677243,0.079273469537680,-0.049181566662051,-0.030885660559618,0.021529749059341,-0.009224227033694,-0.056651641956670,-0.026446162986055,-0.064782836677874,0.015781361370256,0.114410292896107,0.025064089653202,-0.072795784899987,0.078682141464168,0.088098020676786,0.006606275331623,-0.105379237341101,-0.053455758535773,0.035380942618302,0.137318720443670,0.057145368287571,-0.056236284748690,-0.052909175401224,-0.069901435123843,-0.054391118229970,-0.073146437415297,0.053508105611917,0.041681031181139,-0.085887724118940,-0.216664915424235,-0.291320409644673,-0.186546050023303,-0.150787748394225,-0.015613821422872,0.028116187844197,-0.006840318518811,-0.039760907353403,-0.097968059751236,-0.198237659976352,-0.335180023364800,-0.383757691303127,-0.183073975753927,-0.109534131201171,-0.015899986652181,-0.013352470886678,0.075555321566072,-0.012062481958293,-0.120811579890565,-0.156355800831826,-0.138941103811695,-0.048189808941566,-0.056673919213974,0.068034434053222,0.146024101096563,0.023925284206098,-0.071985346496997,-0.066233687113505,-0.126966321622269,-0.167088047086081,-0.087354417424829,-0.119261299687568,0.011558582656662,0.069334832309277,0.133018957331435,0.025471215647671,-0.068713937664489,-0.049228239432900,-0.019576945963198,-0.061399703922024,-0.053229917469017,-0.022355035617718,0.002131216780181,0.030958115494957,-0.073335037235774,-0.142459974205877,-0.084300443819302,0.064391606196655,0.002558140638551,-0.014310892697635,0.171968934772632,0.410799339407732,0.341726634001101,0.206365044297440,0.145868045527945,0.052187023613401,0.050464099418327,-0.042095996095273,-0.067439217396017,0.161558629594425,0.133456916411194,0.223281206718799,0.064919792536324,0.064654281131268,0.125445370008954,0.038011400203223,0.049794535142561,0.021561374194430,-0.007716672857671,0.052269062177531,-0.043535669199404,0.174687067156207,0.301672556632729,0.415510058619513,0.181451010777173,0.104269163195486,0.090884738066729,-0.243243545599568,-0.001168672383209,0.150257783228535,0.095048258231087,0.115382845862271,0.011422800694605,0.069940974940241,0.039913688578081,-0.112834222323087,-0.150076768676010,0.004945258398736,0.009422199968325,-0.070459192254169,-0.008000118454786,-0.133778690214441,-0.083305064331155,-0.201674317530912,-0.048509858880527,-0.133325154424233,-0.172287092415341,-0.086857430560579,-0.092433487654229,-0.063093858302142,0.070187628028682,-0.095051015983069,-0.147062678929150,-0.063462591915301,-0.149014242479039,-0.159821066713928,-0.137015640457729,-0.086940380672824,-0.025813224750994,0.002505860623629,0.083113469000886,-0.127399261925136,-0.046741358056719,-0.039513623143251,-0.059189463218402,-0.093585117758206,0.109218477065730,0.026903797228695,0.095212138560786,0.038943142276629,0.022393210671351,0.040196514852473,0.033663983105727,0.057924357605933,0.004935777873157,-0.021057471146573,0.037376620081601,0.051699763645055,0.173515757068635,0.080319394803050,-0.004710607557126,-0.056934667470336,0.050122630721209,-0.020501235001190,0.053054655777598,0.084695169871917,0.044736714717112,0.001630058320106,-0.010152543565087,-0.031960121243921,0.026968992135931,0.016703602120764,0.039266854215292,0.005025276257457,0.019085970355501,0.021838717583591,-0.011996124939036,0.001620620407071,-0.079702340812066,0.052895713318218,0.035471007795510,0.047777177841881,0.028238946872126,-0.109250501957819,-0.118559934809939,0.068832134531016,0.013277308670682,0.014816508122779,-0.044980242341194,0.068431911796080,0.035455969699491,-0.074198145708997,0.038630300474796,0.003732933849228,0.073135205702353,-0.019111322476470,0.056863320314713,-0.008390694816138,0.037016651833879,0.031754551599575,-0.032520576920653,-0.014171927151514,-0.038326472734711,-0.035924661176311,0.007988361450449,-0.009016936997155,0.080731839056832,0.010229912571995,-0.012759538217389,0.036755494233316,-0.029497649506931,0.059205805019064,-0.023479058962015,-0.073865104953305,-0.058872734659289,0.027392433390257,-0.166063423820075,-0.091034317801871,0.042537827169135,-0.064898578892058,-0.049635805291252,0.065619716851240,-0.030849856722676,0.017820154938012,0.048473591564632,-0.031996447542589,-0.057693423533417,-0.039290049414374,-0.071274143981958,-0.002302859674592,-0.010478099143288,-0.035344032288201,-0.035301687851598,-0.038815009562011,-0.036198539146796,0.021060295891861,-0.029488907443937,0.043524149695930,0.066492188913124,-0.000458561868704,0.051290257733242,0.015215446973825,-0.031720577851414,0.149396725197451,0.079584092672634,0.081005889137505,0.042304237461552,0.009889490415028,-0.009759980835915,-0.005175341168551,-0.035141928612674,0.113787296566360,0.016158075600383,0.065947519601007,0.081990906340820,-0.070571502235879,0.023812879924036,0.062450282088697,0.066580036818634,0.043630631357809,0.001901853883366,0.087846558626373,0.019649588920557,0.045553692471738,0.017653342379684,0.136999691691389,0.146891742075939,0.008605703407263,0.004119090486791,0.013391916240911,0.003105745107567,-0.020675684795833,-0.020677409397010,0.007130416343680,-0.024130141986162,0.035841644528987,0.029423604276346,-0.002477640951655,-0.000545960020739,-0.067799556931735,0.010229088922399,0.022152473805544,-0.026458793988826,0.005798894209458,-0.010025446238960,-0.063875764285529,0.011592114159375,-0.079938690430983,-0.038921269021544,0.026365813108234,-0.028682262461735,-0.072363165799981,0.018789950653380,-0.004743585493882,-0.050315331922819,-0.004984251436898,-0.104547042879527,-0.073582293639096,-0.045745701752799,-0.010338544824791,-0.110559349929180,-0.020862593069234,-0.013366936909807,-0.040769019240412,-0.025093075361576,-0.060234704451993,-0.007645074581087,-0.015995784797749,-0.044363014362535,-0.029499827666778,-0.031653435715714,-0.027334684845157,-0.048557462537213,-0.034764171762332,-0.000369117473810,-0.002959257096871,-0.006260786094210,-0.065548839340090,-0.061852826512107,0.050077686508642,0.062902696760392,-0.028988180271712,-0.024363660741985,
0.001582130903579,-0.023165760840578,-0.094194543804017,-0.052167234892895,-0.029343641000933,-0.003278157749408,-0.042958783790458,-0.015004215027097,-0.012083433936505,-0.011299373543264,-0.011105770258409,-0.048367443346783,0.017695719270805,0.004147856820253,-0.028582854980084,-0.030781801470298,0.015208201479753,-0.001213842839151,0.050580737760694,-0.078073090145634,-0.130149048614826,-0.040596404442912,-0.003645632096996,-0.002593152060250,0.014122879748292,-0.005416420295690,-0.018804939001108,0.018431617806527,-0.176556420551838,-0.111991973625454,-0.049079764624659,0.059654185870220,-0.008794477462484,-0.042875714637531,0.057352434101089,-0.008792256847529,-0.041611024373023,-0.106848320838472,-0.100244504239153,-0.028716716377579,0.022193965442296,-0.036984969662573,-0.068954570093175,-0.026369654137035,-0.009563623966010,-0.008957701793096,0.008312466805851,-0.098731397208881,-0.032280311820661,0.022106650422374,-0.031027916289590,-0.072907023608045,0.000854613645036,-0.036744924606807,0.007781672830723,-0.005194460061044,-0.053233268838026,-0.071861211141169,-0.053421941564612,-0.067627891997034,-0.011315142869560,-0.063746421190204,-0.018027959064088,0.004190575300519,0.053421056741796,0.000539541136406,-0.105434621203935,-0.048811962240022,-0.054629821213425,-0.020610003514918,-0.037799972143000,0.049074353544062,0.007127177490761,0.043093644844699,-0.002035179108964,-0.006994188746463,-0.051908408189057,-0.073052509830592,-0.033132907372472,-0.007004133943975,-0.004340100960129,0.014489938137517,-0.020126990537919,0.018540609488264,0.038721292085919,0.088044062032554,0.095244575014488,0.034567763276643,-0.012135722912537,-0.025461505572572,-0.030516846446202,0.002323932005861,0.027309724015785,0.022133180312331,0.003143821224785,-0.018812402588249,-0.045524828291836,-0.010340293524015,-0.029852282627753,-0.043382217568931,-0.040310404840911,0.035947108657258,0.012719352847548,-0.024831530333696,0.007634595062305,0.059977959379947,0.001237026628669,0.066157431756227,0.017766654554265,-0.023053036195364,0.024899094656072,0.064440379453529,0.102391667545396,0.079635617734805,0.057465958811698,0.020047892467418,0.027163646372513,0.012657988359794,0.030484839428382,0.026845729544220,0.123780152050253,0.134825978828356,0.043096559914255,0.063234649699851,0.018549043356558,-0.022938441463177,-0.004053422501254,0.058052697085274,0.056022309951326,0.099177139688784,0.123474021515654,0.117129274686447,0.121942471947199,0.091976714573627,0.068597202590275,0.056977740651156,0.030912929106721,0.074669212813568,0.090784782278307,-0.028713853238325,0.004794935242865,0.030815754172982,0.104527401974506,0.103302190575325,0.040724184870279,0.044330462068426,0.076879323693914,0.059643404083224,0.043530443698677,0.050593679647409,0.040623596136750,0.006861355168214,0.024349182284153,0.019875273666922,0.020216945995281,0.033832240311419,0.019403982628935,0.013888329345087,0.005928990227546,0.000383370687410,-0.008082304947552,-0.008394632454030,0.022070989128562,-0.040393882796102,-0.090057576937640,-0.035393305128685,0.026450719619097,0.041758157741748,-0.067205966319364,-0.092178419778811,-0.039223369187380,-0.046288047219645,-0.038232511366041,-0.033710589606308,0.003160905724471,-0.000176437792895,-0.035391153698894,-0.102612694311331,-0.058562108860831,0.001916998116453,-0.060986996270589,-0.143742100101810,-0.209430571860561,-0.144208850248261,-0.050903601799404,0.032061403723608,0.020064342884470,0.069850914436858,0.021195742938078,0.023717590413871,-0.185076110065114,-0.221063973394236,-0.071901283543698,0.086213310925805,0.140753062123671,0.090214689458474,0.056183284689617,0.043813833915669,0.018623747797682,-0.044756168826657,-0.077024614627514,-0.006452220384841,0.142272333628700,0.080363665734348,0.031039143532041,0.019512428674368,-0.034891331781184,-0.013269853736815,0.017648855288875,-0.028634810813741,0.023923898880810,0.111958869416223,0.079766692093599,0.071903153002120,0.106244774155285,-0.007974016404651,0.022660222500768,0.004529423866264,0.017459517566632,0.016543515996793,-0.006491096453982,0.007067353327440,0.065095873031784,0.098944238434916,0.081139177214572,0.030884807790384,0.057849354030169,0.037226398288067,-0.015955126868528,-0.084604546564330,-0.064554778418593,-0.031693618492637,-0.000050854198988,0.058148355085674,0.012693280385462,0.038454332756345,0.057913359604397,-0.018223284182701,-0.023635507058246,-0.046368307616147,-0.041050858982023,0.013358984336963,-0.014501350171079,0.015412904132718,-0.016037517666446,-0.038532338772579,-0.007877245210991,-0.014757866271240,0.006212446859493,-0.047557568057568,-0.045478625702232,-0.014258711156466,-0.021264608639907,-0.006535476422050,-0.007166204028950,-0.000185394016417,-0.007702876938321,-0.004249629048842,0.028015047255816,0.025808522833529,-0.051841985513397,0.013855323414237,-0.016421008831077,0.025607123992993,-0.008750613014781,-0.009245745491561,0.020330563890469,0.028302969972891,0.001718152813401,0.010187271690704,0.009880628685185,-0.029004405172173,-0.027894053478575,-0.020547179287733,0.010541061436343,-0.006557853602314,-0.028935371597771,0.006258843476712,0.018450402809757,0.007648679389335,-0.007246487330987,-0.027206005414919,-0.045805086371644,-0.068201196104987,0.026720591305649,0.026232926446713,0.001235170522318,0.000517600455525,0.012861154582780,0.024188063376184,-0.014922881754395,0.014175104593365,0.002532683695335,-0.004423025700371,0.022971959509562,-0.008520595526020,0.013954673101181,-0.001054283796882,-0.016886126976892,0.037959782239286,-0.065821967680788,0.000193103615069,0.000405368022590,-0.005967357484634,0.021406849112512,0.009203460384428,-0.008833610051381,0.053310287524382,0.033858314627404,0.000900459310677,-0.009444989956621,0.002984342412108,-0.028098609425912,0.010906927782168,0.000965981578166,0.026572902868205,-0.036014866167727,0.013705662906929,0.030680016718533,-0.011038612069926,-0.023231198428475,-0.045652574110039,-0.014960768233279,-0.020262294113995,0.028977182442096,0.011395867765749,-0.040630344204530,-0.009593270232786,0.005180632339291,-0.018800828873844,-0.002488155205057,-0.038818901494173,0.008223029340620,-0.010912051195916,-0.016654717617297,-0.000098891065529,0.022363419382329,-0.015403820157514,0.018930045964851,0.016431768378368,-0.050200794401682,-0.014253221272791,-0.032497390547380,-0.014270368401561,-0.018642767031704,-0.069035949129826,-0.008618097131498,-0.016034787227437,0.001576330570648,-0.014268141181981,0.004810252737419,0.017703129152197,-0.040386915497357,-0.055363316168375,-0.075664284430850,-0.008601908955402,0.008713788790702,0.026825634840108,0.041071298973961,0.043706100990865,-0.007511142383226,-0.049149801091542,-0.056471993163513,-0.058622164936926,-0.016766982664700,-0.000029008934660,-0.002883216810416,-0.016441478297403,0.016767183663224,0.013660023698682,0.005763762954160,-0.006768642338535,-0.000611449182876,0.002942096212580,0.015834105683634,0.019002591484812,0.011295426042593,-0.006694985803889,-0.000390707813101,0.044100003262214,0.009644971440439,0.013395027132081,0.016885714156478,0.010291112111289,-0.008864237265767,0.038127061981538,-0.011418839649368,0.018926878373747,-0.005891705365546,0.018083936897274,0.033988970785530,0.004230316426041,-0.030028438888480,-0.003942738106140,0.009860816571594,0.036221795932417,0.024015647429251,0.002978924335749,-0.010645136281695,-0.025452070877801,-0.022560541382340,-0.012022597529823,-0.030518999531740,-0.025284320159154,0.016612417549285,0.001467794278469,
-0.002963142253146,-0.030067736106044,-0.068111246394660,-0.045094256993785,0.004302853741179,0.022313882656661,-0.000282399259453,0.017597725035510,0.015256833906112,0.017471981038268,-0.011382407857077,-0.039789614611843,-0.031160997510976,0.053735349236174,-0.009387488663283,-0.023781556650294,-0.008223555199348,0.027569909887780,-0.005925911052745,-0.027313066031855,-0.039401281066306,0.016092902653107,0.064196536697261,0.026030461210838,-0.003253953874134,-0.010233746489334,0.011261723465351,0.023118552634412,-0.076412517606843,-0.084146343526712,-0.014146383588027,0.059118521002420,-0.004528937607132,0.026207281787989,0.022490635699950,0.007850915632945,0.034674440477256,-0.056933807382076,-0.093915281746363,-0.038975177703009,0.084497514381951,0.019490951726401,-0.014307462538099,0.006250629032786,-0.011060561681616,0.035486308242324,-0.006992617125175,-0.045426552696648,-0.014237024746749,0.064643833453458,0.009792942120927,-0.049294177085948,-0.035434237652114,-0.021765970302966,0.012842740815606,0.013874587082370,-0.012910692401438,0.026599193192989,0.024369070366479,-0.044480875686680,-0.067933403090088,0.019481554779954,0.017100827847195,0.006700468373511,-0.029432953069182,0.028222819575314,-0.008793957442180,-0.000417266766821,-0.006604214615303,-0.035494931661171,0.046818862352193,0.016075434375693,0.013575173988848,0.020714566833563,0.009043727999905,-0.043488077017983,-0.025590987461780,0.002594016940674,-0.028720523918309,0.028315096070553,0.019201946581864,0.027928673575381,0.018748639373990,-0.036598032762176,-0.086343786764196,-0.022075017787176,0.044129562018251,-0.013373637857771,-0.065356234302362,-0.006059987857264,-0.016071640787306,-0.014547738398196,0.031013615095795,0.024713412167732,0.037305396957564,0.074133337759348,0.053631189541121,-0.025745212234127,0.018184098204790,0.012056767522246,-0.001809434664331,-0.022347341164604,-0.016516627738992,-0.014067305258797,-0.034634867233017,-0.040271662522360,-0.008930999930615,-0.023496515402961,0.010963478778376,0.021596907706575,-0.056638761633081,-0.049318112375860,-0.021087546744860,-0.052654679697316,-0.006052057233643,-0.041718613581444,-0.051260879148586,-0.002992886767008,-0.021062899507911,0.014812209624829,-0.011577622665467,0.024951418554463,0.010197017862966,0.007111725641812,-0.018363423790220,-0.064239735639259,-0.038846414348688,0.049511861150784,0.018272934616621,-0.006082675878452,0.020349488219358,0.070557972366262,0.074425415137999,0.140826590112214,0.080373020912518,0.066293022287841,-0.007003307733553,-0.021089076153998,-0.026549282535879,-0.023289662125302,-0.023262415173900,0.072087325032193,0.136388067742975,0.150398554452550,0.111752177341132,0.024803612586140,0.002023286837634,-0.006262178261788,-0.027104739791029,-0.024609214889885,0.000076420696298,0.055288920410217,0.038516163691569,0.075387343021967,0.005450346145126,0.043150339977388,0.001103396935589,-0.002042274123150,-0.005650331796243,0.007747074337490,-0.020445590755589,0.044281016771145,0.021446774123375,-0.049757108132411,-0.114567753438488,-0.161896054363457,-0.114950528819018,-0.070075179203926,-0.076423233529022,-0.069256687907907,-0.015760584746051,0.013603883689076,-0.044654598512737,-0.065207001936174,-0.060544780766972,0.008704846951266,0.028371589945809,-0.074968917927273,-0.045635353020699,-0.014441296095430,-0.014550716721406,-0.102505796961109,-0.145856711716433,-0.084190178574167,-0.030190122954504,0.002981529646281,-0.157782029963310,-0.045633346124622,-0.062108662335664,-0.028753055520752,-0.128843659432009,-0.199607520117851,-0.147259859064926,-0.056396529041972,-0.022737412483509,-0.083722695731519,-0.071293103845889,-0.058528030276319,-0.014057046826379,-0.107896803820475,-0.128257287280720,-0.066179123452792,0.059646433223575,-0.013795644308191,-0.070257485926464,-0.135185483304437,-0.090395518255409,-0.011195143016473,-0.005185477430648,-0.025835077841076,0.036488693761467,0.141505642088024,0.096261811495968,-0.056677126415768,-0.026960273230870,-0.008729830632942,0.021837824658341,0.045894522339983,0.029021657545031,0.041953335273596,0.027033973525985,-0.001572472658154,-0.043707064993017,0.091070675132932,0.109395713700649,0.125111132696005,-0.004884598363355,0.023205453002492,-0.015837630280860,-0.079343873395618,-0.040273864148436,-0.022159563846278,0.054030616183697,0.110070983531204,0.066521011622271,-0.005015660308832,0.016700174619984,-0.034744432568417,-0.088681647817298,-0.060603649827977,-0.019312053982063,0.003161930379479,0.019182598607049,0.020450874793293,0.025661462243501,-0.003140153940449,-0.005118925772814,0.007363422530393,0.028645521953442,-0.013802975209682,0.009415310726504,0.011036480680307,0.006845124141925,0.023224002260612,0.033699491190120,-0.013153382954145,0.021211571020122,0.000862267164811,-0.025047774219588,0.028223742457109,-0.002640314361035,0.042004743457573,0.001290847957474,0.014043902634465,0.002777985399678,0.018271181459882,0.024027670069973,0.042873412337989,0.009464763288137,0.018575720120785,0.016959208283793,0.005376071194054,-0.029092043799848,0.000542896775561,0.002971136925646,-0.019000102344071,0.000444576131078,0.009686231009092,0.035946702799072,-0.015380718277746,0.017505820010687,-0.012690961669380,-0.013436654460771,0.013304057167676,0.049265583243107,0.011612703227062,-0.020582681125214,-0.003746440127123,0.008925091676312,-0.007115198794659,-0.025021571329195,-0.002592586666326,-0.008521922166516,-0.000303119834277,0.009726138713790,-0.018546476775580,-0.003516555568750,-0.013514859036492,-0.008382570020685,-0.000738052082562,0.005660169829658,0.004060198122144,0.022028223262139,0.018367168896566,-0.004097919641960,0.009461259863542,0.012935792217416,0.028343207008350,0.000492209668240,0.004237012113057,0.031652138151587,0.010825319242692,0.018409093052119,0.008886136143241,0.042455913750375,0.052377997895157,0.017047854677962,-0.009684707937110,0.028293268554433,-0.001632180704340,-0.012143351154723,-0.000430724281021,0.003488390616020,0.036982516803104,0.031211308417687,0.039442504461079,-0.010519488810079,-0.018107510110702,0.003546805010834,0.000130704850875,-0.005025519320079,-0.022092430878374,0.007483596104099,0.023376781786497,0.015388230497981,0.003729701666300,-0.016749831752900,-0.000655999466183,0.041516127223945,-0.000935268617725,-0.018563291727941,0.024689343444697,0.018296457513564,0.011187393665573,0.004371197137844,0.002937130040685,0.015618073455983,0.038988997988482,0.029634011666674,-0.045018300954524,0.007241304564278,0.016208926504176,0.004918911124320,-0.010528012333641,-0.059694047991173,-0.006251432205842,0.032764885821451,-0.026680933972700,-0.014126951340846,-0.015183305056116,-0.011122676245842,-0.028806843754309,-0.026497020269557,-0.001534683380261,-0.014873741298605,0.036679849752913,-0.003082830809486,-0.039834687941709,-0.009115751532068,0.006713048456482,-0.012574058399168,-0.007437978542782,-0.003021138201196,0.000521894237876,0.061126136688102,-0.012536389925677,-0.029293165573099,0.007401077853495,0.021058960674292,0.034221479724487,0.022478086644170,0.028668297580554,0.069328719109615,0.027160796442281,0.003715846842366,0.057154343523865,0.063364377422904,0.050742999550268,0.044369438773796,0.032486341488191,0.017357910950231,-0.005118792677257,0.022726548859553,0.012446702621378,0.059792408689276,0.072183850641451,0.080441476030874,-0.000241016762464,0.017174395275628,-0.010261092599032,-0.019902040788879,-0.004962016057377,0.020062180683636,0.019355898546285,0.030333859470411,0.023061847142193,
-0.039634470617315,-0.065492370496548,-0.189375768442944,-0.015929856575907,0.120957083095906,0.034229493273328,0.019439925150406,0.031881365000306,0.033047266439019,0.038312071736027,-0.107606577905537,-0.143463899022424,-0.038017018682561,0.142653690160892,0.000427360694830,0.025934133327091,0.058035687265513,-0.010838738540383,0.000997124709803,-0.050255452788440,-0.036307736517703,-0.016663253349548,0.065901431205206,0.067175564170733,0.012683228843413,-0.005048155222648,-0.016580310624874,0.015017429061792,0.029048992700817,-0.059354292107438,-0.070682284889742,0.098131498318773,0.057489592377282,0.039830620146491,-0.027243174857761,0.011964616516654,0.006211359019160,-0.013299981870011,-0.100499249263546,-0.065920916007936,0.103056881225844,0.074603377681667,0.059102211223378,0.066969431601865,0.049840211040767,0.022518229200275,0.036351802847843,-0.047914972140248,-0.056766637457838,0.036813511345807,0.043575492830707,0.014839436195341,0.096519976471700,0.007259505190261,0.042407240464039,-0.002895721824691,0.009859116336688,0.051417473717271,0.046664272871586,0.003207379227187,-0.001849398531997,0.057037346114038,0.013083397002160,0.025237288790886,-0.036231611940076,0.047023185663633,0.081857246750313,0.033482895586388,0.046135905890259,-0.015279156460454,0.003238456308548,0.032256850212895,0.004336000347057,0.056873795223863,0.012429889808600,0.001599695148310,0.031606426456346,0.063909495797364,0.002866340759148,0.047239167119676,0.023063554607770,0.063120916830711,-0.060740830118266,-0.088894404400567,-0.062979515913539,0.032161345790809,0.075512969712002,0.007899570826426,-0.061905004131197,-0.010690659575260,0.003231903701717,-0.024467594569187,-0.004863037921598,-0.031767150455518,-0.071441394673963,-0.031980229262445,-0.052688277534278,-0.076994253156347,-0.053474478222048,0.040592759362618,0.075805622798641,0.068620397544846,-0.050253528813959,-0.111764058047129,-0.037236280099453,-0.000603767010478,-0.014098151444762,0.025228211630365,0.049873421927522,0.047407624312201,0.017072508041142,-0.019916807469594,-0.051084419510655,0.028043872472047,0.081074965798386,0.042062798775617,0.102551294978958,0.068122391950151,-0.019867486924678,-0.007770588160030,0.001266210810927,0.003848505685002,0.007917421597684,0.007758565760326,0.062879293252759,-0.001896255015547,0.060904960118879,-0.041263556843388,-0.092247447528758,-0.093386932250381,-0.007112951182937,-0.017549292370414,0.004141122306910,-0.032739828025820,-0.005943091847843,-0.030313304963727,-0.055703881235347,-0.062221209287197,-0.026509209177902,-0.025147350189368,0.004464798905117,0.067500037295788,0.054915570826297,-0.017728505956809,-0.040589181725976,0.031317999856078,0.037878154961003,-0.088899728602662,-0.053391944234832,0.018754769468449,0.023431359049424,0.011556949133308,0.046955490488931,0.053290876125196,0.016955629424748,0.033668865201317,-0.030574277663019,-0.063053084677821,0.009044516285586,-0.015887316365217,0.022567821168055,0.031162384305242,0.029766244068101,-0.195468804731027,-0.355566392234568,-0.260418138575291,-0.094645109971822,-0.041847745948229,-0.071644976090467,-0.073393078171632,0.022796845325567,0.050997442869330,-0.199540594073290,-0.235631470460178,-0.156390159149709,0.025130473552346,-0.047474245357458,-0.182071124533950,-0.129066948057082,-0.060037191899304,0.006739887502973,-0.057282187070968,-0.079273795829947,-0.063766936707657,-0.128162628335528,-0.174370550638299,-0.323296539555002,-0.112672207997217,-0.072047770761098,-0.005469836522191,0.057324266018067,-0.045062035447053,-0.125591609966980,-0.093429387788235,-0.087726776192327,-0.026617541285073,0.003471307505448,0.056544261807694,-0.010544113622007,0.051444101701976,-0.075110351907040,-0.165081609506057,-0.064997696317990,0.035422166206670,-0.001641229522282,-0.035401268649253,0.075370563168358,0.080652800504230,-0.033361725632581,-0.100199955699817,-0.140106951046834,-0.009089474569809,-0.007968160950657,-0.082424338725556,-0.059423338195783,0.023366047670612,-0.012565773811347,-0.055784142836019,-0.023990207520694,-0.000214876389984,0.035050811133460,-0.005740883324380,-0.012110238588763,-0.063215363071655,0.005161955716328,-0.063803376551975,-0.023098121007430,-0.043101598158560,-0.060653407339269,-0.109551766188915,-0.064426486934446,0.033094908867934,-0.046934340272076,-0.035928663964101,0.002180431734337,0.040640245935250,-0.001637819236878,-0.066886171535662,-0.060723150018281,-0.015813300376847,-0.024203709069772,-0.054660942818828,0.016638576224820,0.029343730500086,0.021119603546335,-0.017185678075074,-0.027466920038494,-0.008845593207987,-0.014411041293923,-0.023388505194917,-0.005348762333730,0.021195452801840,0.006564894478124,0.052438184776395,0.009098487538532,-0.003773959677547,0.015239321814064,0.059725709410272,-0.011993082384945,0.049852470529202,0.017868692060364,0.059901059542204,0.012059776845350,0.033254140942334,-0.018029885710239,0.024387390355145,0.033526065713904,0.064069049418469,0.008115602562261,0.029500814325827,0.038132298711467,0.024082661858267,-0.031627907433414,-0.003958437036069,0.043301669385079,0.001627388305573,-0.046058886492801,-0.052368991855431,0.046749658931064,0.041865398057199,-0.007813834949843,0.013079165148083,-0.001681810826219,0.028906859691521,-0.062357273012696,0.030484286305295,0.061530465839554,-0.004095443818109,0.038012105232742,0.005206956666403,0.026033997605196,-0.030464043507056,-0.031124878267159,-0.005146585766587,0.021389305082690,0.056126693724578,0.010655129872135,0.045265626508112,-0.006863620966115,0.012032406683898,0.078041194666159,0.008265744244373,0.038583981531782,0.028389258088477,-0.029858873176314,0.059278538335709,0.019843221612876,0.034688975715068,0.066058520583314,0.012647473837224,0.030690893976586,0.058400373323033,0.070619670894495,0.037061148874491,0.005230880220393,0.004397484833398,0.000570177715108,-0.008044928688450,0.033840704023022,0.053323515719137,0.028783265044905,0.023996747820938,0.048011031387305,0.062008772581032,-0.016597489504242,0.020567390027958,-0.071840824203254,-0.032251896338627,-0.057026332777289,-0.024622679057517,-0.024766227842298,0.015214492439068,0.037957153399179,-0.002375261619594,-0.033814546132555,-0.063589694978413,-0.063872788827643,0.022410674377307,0.037731261542481,-0.031114624565395,-0.066689407191492,0.001097673845001,-0.000715993253613,-0.036783646359600,-0.001865508030494,0.002822356169100,0.031936909389597,0.047832622192206,-0.028102149720757,-0.091015474587797,-0.000267289467544,-0.041092628732412,0.037086434392644,0.023412627091905,0.040566098932526,0.000556755846870,0.023062305631054,0.002330795329862,0.033204022213441,0.056806260930713,0.032200944240831,0.040318748531114,0.031849705293431,-0.021675788479969,0.063204194327400,0.043604467593658,0.056678669207214,0.023797264284310,0.046849095488871,0.046121886270664,0.026763128439408,0.041434260492031,0.034234406607394,0.040500914118661,0.005964162716178,0.012240470210638,0.051450267349829,0.012894577608337,-0.019466238176822,-0.004739602279913,0.024268489455168,-0.009587042582665,0.019692212457480,0.039001526528926,-0.002463810521357,-0.005463060288873,-0.008802927815373,0.019978861345355,0.016779215756960,0.008757035700158,0.007110082567323,0.028861857284038,0.058778586902162,0.017056288429952,-0.010174278043371,-0.017484741176695,0.014262571180015,-0.022172183400553,0.006948068565271,-0.008456332295098,-0.014561127585664,0.057089395548775,-0.000988059591172,0.011336672388611,-0.005260712394107,-0.010111711819687,
0.003738494837420,-0.001622564385515,0.002770908580055,0.003200388331664,0.000407084914742,-0.004948036839885,-0.004053153266529,0.007271901591474,-0.000121461069875,-0.009315131356276,-0.009000227139566,-0.008200877424165,0.000469731542931,-0.008103111673410,-0.003452497230389,0.003028271333060,0.007206927853655,-0.000150560789635,-0.007619088951520,0.004939760552397,-0.007608095780985,-0.007052213412053,0.005924725568227,0.004768081767964,0.004142084665982,0.005096092316065,-0.002982056401689,-0.001335132396660,0.008268697405986,-0.004424690845330,0.005681647144968,-0.008767638505303,0.000435032768047,0.006564633935470,0.007198343858061,0.003464623799191,0.000845574359872,0.001859240491309,-0.005424091445788,0.003360704720745,0.003720372136990,0.000774243601710,0.010041625923627,0.001036293799991,-0.000063291838671,0.003685910715654,0.002627348165770,0.007109178735435,-0.002522941355523,-0.006083216655867,-0.005706334665035,-0.007479000419620,0.001710800436745,0.004548674328207,0.008210246923591,-0.007643171967106,-0.003877949782124,-0.001135751771596,-0.002621285494059,-0.008726888933777,0.009531902361592,-0.002645952457739,0.000898198804385,-0.009093471774758,0.007705858194092,0.005825783972421,0.008108194182649,-0.008596514249460,-0.001642269777035,0.001663506726890,0.005310164234352,0.002258328956195,-0.009658597301728,0.003195020899296,0.004578769135245,-0.008550129776501,0.001537718193787,-0.008709007512125,0.003715280200886,-0.002344183226254,-0.007868084459318,0.004823085771435,-0.007065141003526,-0.003942752886495,0.005276416287610,0.009926500584784,0.007024309141244,-0.009035173993278,-0.008054462929410,0.003707685766049,0.004320847125972,-0.007012132952767,0.007123585295166,-0.001592407830798,-0.004872232647847,-0.004634567788405,-0.003889001303956,0.008348353904617,-0.003576453511878,-0.008037865966196,0.004111380211732,0.008336646205931,0.001608285100415,0.006251901067880,-0.000974099584354,-0.004835714605874,-0.005733132744439,0.006617267845521,0.004461466779307,0.006697380666266,-0.006180181195632,0.006770690404501,0.008553581065233,0.009528163704312,0.008533883769027,0.001414088712420,0.009310145782936,-0.000046841724950,-0.003807673643811,0.002984738049540,-0.006113744264201,-0.009335271462018,-0.006664662365662,0.009223910450655,0.000661642076093,0.006597026329792,-0.009430886544798,0.006295684611236,-0.004735634501421,-0.008611517005733,0.004414448906131,0.009950419276627,-0.001205336523136,0.000594812642709,0.003915018642486,-0.009600163713689,-0.004041751010615,-0.007894831971168,-0.002264123425010,0.004165045202664,-0.003450571238857,-0.004424717245714,-0.002341744885278,-0.002451250505131,0.004247209460641,-0.001525115180176,0.005718083431152,0.004472295825576,-0.001659705471535,0.009936146917886,-0.005775629563548,-0.008651611880866,0.007416835164435,0.004167177564102,0.009223628730174,0.008042887169208,0.008754523992366,-0.009343609171633,0.001787971174185,0.000838809417864,0.009943563738049,-0.005026379000558,0.006197750287448,0.002258093617906,0.003981164819176,0.000394193256718,-0.002759202275414,-0.007097864744002,0.009822310435267,-0.000637174887855,0.000806302804011,-0.000243113662342,-0.007952934089705,-0.009751512227172,-0.007447267021786,-0.000760142369907,-0.001346174170853,0.001409999151562,-0.001805634482200,0.008123400160078,0.001009393193411,0.009219590365124,-0.007075122307135,0.002495125130155,0.009642040197173,0.003011612191726,-0.006757317075660,-0.000857816292384,0.006110576095239,-0.006160181967779,-0.003486146041534,-0.002736430727157,0.007360608554844,-0.005710861197480,-0.007245197070043,0.002359950821256,-0.005319453613881,-0.008623500355964,-0.000319996782390,-0.006602744343912,-0.005572552734899,0.005058946222154,-0.006787153004589,0.005161622872894,-0.006695604240469,0.004308523997743,-0.003052297521070,0.001855379935836,-0.003380205242648,0.001339885665105,0.006563036483312,-0.000254410794408,0.009007672380384,-0.004244008033973,0.004791183076904,-0.003554225839015,0.006077796425882,-0.000331572918700,-0.003630396843751,-0.008128466936899,-0.001813965503384,0.005335525165399,0.008328361260327,0.002423492021446,0.007305414152935,0.005366864469520,-0.000500928052977,-0.008377534673556,0.007438027321662,-0.003869243599473,0.002855169546881,0.007254530432938,0.001250190717962,-0.004737027021022,-0.005848972336099,-0.000087157338529,0.004555477074809,-0.004292691383006,0.006940471273851,-0.004076551697043,-0.004587824376055,-0.003278930770096,-0.008977932844710,-0.001160125983548,-0.006420606723250,-0.000439544950301,0.000044106017236,-0.003838543399145,-0.001473808848072,0.006405496030707,0.006119894714401,0.008369314526452,-0.002691871540784,0.001421175011978,-0.008632797336930,0.005996096278812,-0.008460398738177,0.003424142893599,0.008626507470140,0.008027622139326,0.007505805532110,-0.000897672798797,0.003806176113855,-0.002198421074324,0.001039596713912,-0.009094314782861,-0.002926140400991,-0.004685092379894,0.003133784457688,-0.009042884101626,-0.008367277849310,0.000490182895278,-0.005872666105142,0.002889901861396,0.005755227937413,0.009645314519388,-0.003742085230425,-0.008602100681244,0.002294279326411,0.005825833809721,-0.005409905829362,0.007785674800432,0.004377651344570,-0.005411411280414,-0.008518063662216,0.004426174665421,-0.002576759801792,-0.008664609301330,0.002154665630721,-0.002921550706650,0.006088288523545,0.001759705654310,-0.001869708065028,-0.009295423432341,-0.007691412986765,0.004702047231483,0.004844106761355,0.005934678227603,-0.005211202994302,0.000241236076107,-0.004562872397290,0.003437447673518,0.001072491630183,0.005922789278783,-0.002751444748876,0.006428869149871,0.001727172715585,0.000854297108647,-0.004815576228212,-0.005995687936493,0.000465648489625,0.005085463934113,0.008969563440386,0.004470601583211,0.009839062342906,-0.003558059335007,-0.007447570709011,-0.009177383650359,-0.008236373711526,-0.002526673431449,0.003675510061089,-0.002363945042867,0.000598671220710,-0.004777841809368,-0.005236197774860,-0.004379838234158,-0.008587331481223,0.000686362840489,0.006077943079394,0.002017950259786,-0.008094328168997,0.002396519481857,0.006051087445117,0.000041204653075,0.003109179261155,0.007634877614753,-0.005700195440445,0.003425473956318,0.004075040290354,-0.004227450180374,0.002369873464890,0.006636199879704,-0.008389233035049,0.010006839727794,0.006277197325817,0.001722220553403,-0.002182663214292,-0.003266978804289,0.005947753885848,0.005744324440339,-0.007756769244388,0.007323667190665,-0.007474209584599,-0.008311446006309,0.004247944243128,0.002695833901577,0.003150991417942,-0.002537314266262,-0.005412292575253,0.001822854963333,0.005676654900828,0.005910981528465,-0.007777302768317,0.002347969726855,-0.001035456982845,0.007257461152339,-0.009252452169643,-0.002433425920353,-0.000438956889659,0.005665270866158,-0.002276263397364,0.007651495613160,-0.002095294018356,-0.007709603598427,-0.004370476361943,0.009396877278209,-0.008961816991789,-0.007173630240231,-0.001733543574382,0.005824119270585,-0.001717080076586,0.004055185511648,0.002687228321972,0.008880207899081,0.008259776476684,-0.001882161338183,-0.003491996961820,0.003372799798876,-0.006802844553167,0.008761157725011,0.006225253663066,0.000324928918063,0.004237046737033,-0.005379738655434,0.008914571958878,0.009933481655897,-0.006280160476529,0.000038547651390,-0.006657645574918,-0.001637741199911,0.009514741129603,0.004576823221068,-0.005974475174457,-0.006296298588265,-0.006525849960520,-0.009522612742866,
-0.002245040653906,0.011783523472402,-0.021982771456493,-0.029156969743926,-0.054279793101031,-0.010251939083570,0.009269589319245,0.019557094800906,0.032129717732848,0.018278524705036,0.017055322390639,0.026159776898741,-0.009402483292510,-0.058646094744622,-0.073346116592515,0.025845527696833,0.022167531693388,-0.010880677252858,-0.016372903456221,0.063858156471595,0.109615707924722,0.005627544322273,-0.047125840251313,-0.008179619611997,-0.014116448229440,0.024957717115157,-0.033479194590632,-0.046873293318298,0.043361299192982,0.037888501502346,-0.029462882878140,-0.102515975662031,0.023772447855111,0.066672038620084,-0.011615252083596,-0.019583985816412,0.027800878879371,0.076234549377938,0.023894635483965,0.016064974280025,-0.063887700608090,-0.008628242859630,0.109733273306766,-0.007777644654593,0.017720873123025,-0.004852207249936,0.109442982563711,0.080626047436717,0.049662469363622,-0.075009552359313,-0.032252853835723,0.027125925888138,-0.002716903626660,-0.011905377426708,-0.004575522271236,0.078896940928986,0.088541859776587,0.072188673960407,-0.047123325795643,-0.022167911837938,-0.054768052007022,-0.013207570257683,-0.014445464122545,0.000793571804481,-0.005298475933776,0.033316311105806,0.067976522438490,-0.018251443412098,-0.046151906629560,-0.033254431040819,0.008735022470489,-0.032645895038123,0.014492033388504,-0.054901830715731,-0.033737012513759,0.004333073482761,-0.034725699463510,0.000036989317017,-0.060570197104668,-0.015578360779882,-0.025560901965802,0.043620239752388,0.014076331478659,0.020696231829748,-0.025837117783453,-0.036430206068463,-0.034812133568022,-0.019114861694825,0.016897923656785,0.072454503675704,0.038860705066191,0.004528189128662,0.046371721251529,0.073287519158888,0.073336925252010,0.084471619111953,0.065573598217019,-0.008644608025208,-0.007230480623715,0.013915040591818,0.019310335133408,-0.043277176085648,-0.075465641612991,-0.046861623297518,-0.065756435074193,0.004888909451614,-0.005552645734514,-0.038901119962155,-0.045079614750824,0.021340605917890,-0.040111873510342,-0.036147150217242,-0.008757784458445,-0.028474606413501,-0.003593600884806,-0.028726882828121,-0.023548187328824,0.000232470693407,-0.025128130264527,-0.013722823398154,-0.013423106159881,-0.028329338046243,0.003726262883505,0.000384400297166,0.003171823720686,0.018906852938133,-0.033861525075025,0.022351708897649,-0.010443161856262,-0.017263203738281,-0.021166781952385,0.061465428720179,0.084401558978065,0.089240595832158,0.066618942656089,0.005752011433877,0.000212858630796,-0.068849679002458,-0.045997137641967,0.052109800166869,0.052198735267300,0.067133838248074,0.071812844320351,0.059753077901016,0.016757889292228,-0.027055309685191,-0.089918932773099,-0.077511736413447,-0.020835672488228,0.019427610544513,-0.023263645595357,0.004965248739078,0.014197820760024,0.016757610898323,0.002878103655008,-0.045439453890103,-0.013863790882693,-0.009327321131235,0.032500610752980,0.000534455704687,0.005014461495363,0.005843060953596,-0.034352074332455,-0.001602748524148,-0.034030858237905,-0.048284075317478,-0.085080171818349,-0.075505310252076,0.044885306031478,0.059887593750601,0.045566839280015,0.021338536950019,0.036950546207488,0.011317506886276,0.046018283298159,0.032855043710582,0.003080604199396,0.043850090596022,0.063003739725487,0.025276973325019,0.024721055505088,0.067846369110665,0.073773456086461,0.043533230926356,-0.094464494771132,-0.170640965152768,-0.076972508882244,-0.017259284859148,-0.044003040818031,-0.043959431133254,0.084856912531238,0.053032108422783,-0.046842437533671,-0.163003789960347,-0.138036088796116,-0.018393175234405,-0.025081903728057,-0.079355822419572,-0.003177990698649,0.056100209707884,0.057590656588915,-0.024036959605372,-0.113329829491209,-0.099211765183922,-0.003908462524245,-0.024974914937728,-0.035315749378600,-0.005336434410265,0.112429377321091,0.109085315200596,0.049653671342765,-0.039109312977907,-0.014330558405882,0.046515562325349,0.024158627093510,0.046918682424687,0.025945193164704,0.123690979953963,0.103497331161512,0.107446849366815,-0.005572519813255,0.015639246584361,0.042620738072174,0.042063799198896,0.062764137856882,0.048568622610642,0.019786949536029,-0.005635177560786,0.013723706335144,-0.016825867234987,-0.010660277765403,-0.022410987347543,-0.025632234130619,-0.000520727860170,0.008046740555161,-0.059506256310524,-0.007454702841816,0.032501108241395,-0.006158089410625,0.006036796605611,-0.022741209930143,-0.043152942037002,-0.024147811613661,0.023275758955911,0.016813270511669,-0.012755644048177,-0.032928057620020,-0.036491428195938,-0.030550931929977,-0.040509999314287,0.039315500137507,0.007618777116982,-0.012306664756076,-0.002273451154599,0.041077634984368,-0.029120559879193,-0.058010974781330,-0.022100848366915,-0.034964326656783,0.029273576197029,0.014520504781266,0.010978736893247,0.009949877510656,0.010356382216317,-0.003365273063821,-0.041431136159542,0.044153230361240,0.026873784857397,0.011359304144100,0.007542780358331,0.014584241524903,0.005518435713424,-0.042974577952025,-0.017159575290288,0.007899852752786,-0.015810362863082,0.007527175015305,-0.020854165164399,-0.043950429041080,-0.049332915097199,-0.006579099543796,-0.003152611443796,-0.004280870928932,0.035954052192703,-0.014317861540260,-0.011720299981094,0.000245506308525,-0.006726875354207,-0.012541970213870,-0.000868253563477,-0.010097105508558,0.004727884348927,-0.002172147351199,0.008938355715945,-0.026625958946166,-0.005902298754911,0.001091983787728,0.007578724455118,-0.024005788558353,0.001860537994887,0.039725530301161,0.005758251092665,0.006257598088709,-0.040068957940175,0.002239410822164,-0.011131352025703,-0.008571944764308,-0.007666324951636,-0.006722851260754,0.020247782727287,-0.014530058001463,-0.009523386465158,-0.026520314788518,0.036942540967015,0.005422785363890,0.000922424767241,-0.009946171250220,0.004304035864442,0.005918174215918,0.010712282959951,0.003237580341729,0.005861227727555,-0.016968567276216,-0.043036741426476,0.002770783139794,-0.019042421857429,-0.019530431920881,-0.030912672068465,-0.027052815201894,-0.044822376991752,-0.016272219109399,0.024451919950381,-0.004611562079644,-0.011352284463511,-0.013133918779221,-0.001435568476306,0.005731114267691,-0.000150557125653,0.025116930625021,-0.008174025493305,0.013492072309348,0.003633084955816,0.015094280289958,-0.028808575890542,-0.011537813765141,0.004171457750304,0.004471233099500,-0.043309907045338,-0.002790218508171,-0.017154037803807,-0.005883755810420,-0.020533930559743,-0.008791760752821,-0.004386522716169,0.035892550003671,-0.007080121671391,-0.042410138512494,-0.029412504196955,-0.010797273121765,-0.019522473061831,-0.031228873160364,0.007051048313921,-0.021788661092049,0.013216116394357,-0.079250841012679,-0.059862043455993,0.003427582160534,-0.022647335514499,0.001202040561982,-0.008959247633504,-0.016537936059396,0.037501594787187,0.019188731177680,-0.011998951193822,-0.031492194946952,-0.029933257114298,0.008281248940651,0.015875083933513,-0.000058062698245,-0.001880876340485,0.042819631816498,0.045305185893774,-0.019425453289497,0.003667718037150,0.012408130983682,0.012849637326382,0.002019697579971,-0.015452855330015,-0.010712221825332,-0.013534323497119,-0.026260396248627,0.031299881799918,0.007125517833990,0.013011837572134,0.035479697771278,0.002276373287400,0.000464463806930,-0.024058276723473,-0.031449658594532,-0.009798193067107,-0.036756030518197,-0.018101471838666,-0.003131622878117,0.000408167305885,0.028027779658043,0.001241442348833,
