-0.047030163287916,-0.028098225379680,-0.034826649152680,-0.030185697754856,-0.001545207279748,0.028443145390173,0.017130773647414,0.009200192807008,-0.008168620562484,-0.031451572567177,0.032255750542551,-0.042537655636527,0.010533829960359,-0.015981757502436,0.041430149128876,-0.033155259051914,-0.008587450881636,0.040786887604880,-0.009581716415640,0.021273325744877,-0.032169836712084,-0.021321333687289,0.043165872197027,-0.053508118472375,-0.051181662436249,-0.042619084147289,0.012703664850024,-0.014230968596236,0.036763686326836,0.051905656515021,0.033882336798859,0.046096228195874,-0.009570607050615,0.021212224821212,0.045379744245665,0.049080923949995,0.029298125430362,-0.046918426404019,-0.008380937532003,0.041079241454766,-0.016323939744541,0.038802536756845,0.012021724396216,-0.048956785487397,0.012705939893653,-0.030606993594560,0.000072452730373,0.037317352855340,-0.020385083161125,0.020300927103772,0.050076069548104,0.054500676120346,0.004797171597259,-0.023569417657722,-0.046988431254809,-0.003453539788450,-0.014162543684217,0.022292041587944,0.011077915781790,-0.026714817318083,-0.037771629556786,0.000511246608800,-0.045998103048632,0.042302827562659,-0.054855833343865,-0.054144031413019,-0.004765763689722,-0.003731258032004,0.029309782919698,0.003794521472457,0.035614759365412,0.036047255494113,0.047782518984250,-0.035793713275307,-0.044312886707304,0.005605328383051,-0.008309311434848,-0.013063020862574,-0.049499268921396,0.012482724244049,0.024504614891935,-0.020225525315782,-0.047409010159362,0.066262006413648,-0.005573936721186,0.050002564850981,-0.001702973194025,0.027122976319890,0.062564448652150,-0.031780931010245,-0.003327201101158,-0.028794411743033,-0.008654116422756,0.002897585994373,-0.002382610476522,0.003859517664428,-0.051813494441048,-0.067548392408429,-0.019942102756855,-0.037094380391290,-0.012504387378534,0.004977913953070,-0.018277432121846,0.054670590572205,0.009061379411655,0.055118311148278,0.031079060280282,-0.056983224043723,0.023935064521157,-0.049090936932850,-0.018727911781335,-0.032626333828566,-0.009760467820623,-0.020876219169642,-0.069211657432045,0.017796527836306,-0.019837688538311,0.012477533964733,-0.006192770000795,-0.031595857479868,0.046309648431715,0.012015552088403,0.004251003664621,-0.005867913221926,-0.010226667040310,-0.017945415458254,0.012436763937776,0.023152886972149,-0.028824425634264,-0.042491916226895,0.015132745745232,0.023819963202743,0.032857825102127,0.052886045608367,0.045794187941782,0.024524758548041,0.003415509694125,-0.055502389499989,0.044097457533341,0.011695565099698,0.018834585779377,-0.040012026766717,0.031508866193924,-0.035918692487435,0.006488760864466,-0.013988935506447,-0.068804252672174,0.022652791427912,-0.044781200128727,-0.044954208866713,-0.029391589525294,0.036037650196588,0.068901750876749,0.043777994330677,-0.025889569513128,0.009682673553160,-0.008810181883736,-0.031179341135335,-0.015312303998384,0.028613333379198,0.016327728026849,-0.034020272974281,0.023018537727592,-0.036894400453950,0.021793653217737,-0.035588628391722,0.002621880523095,-0.056690778768909,0.033591970645199,-0.013102900645850,0.003099896504078,0.029934252120111,0.065452960926910,0.042233972513346,-0.020819624093519,-0.053382118584797,0.021239980830937,0.004331002129095,0.027625977727370,-0.030228735310775,-0.039393470823818,-0.011944263943167,-0.051682406926765,0.039214202791946,-0.043426285488346,0.052053023113952,-0.004914300894579,0.045210507081213,-0.019020953107418,0.005378209989424,0.078912686281012,0.038757727198074,0.032122386618153,-0.016185788457751,0.032894782326043,-0.033043194470928,-0.027162059344150,-0.021391056238241,-0.012251821646073,0.022712974628948,-0.037855028663340,0.034008100426982,-0.006147897886239,0.017644301718677,-0.032022685851752,0.023237430402085,-0.004504902097310,0.054130816097299,0.039219929353298,0.005922211803386,-0.002308844236839,0.032993356286834,0.059589697426908,-0.033789620371911,-0.025511548813939,-0.035176682910859,0.008109926400488,-0.028217150691383,0.005162437006643,-0.034370543510455,-0.026633997473939,0.033756522828553,0.015907111738830,0.029211577877439,0.023569371076138,0.022223931446535,0.043856620349934,0.020726873722445,0.028027889440603,0.088956083163032,0.029155489172564,0.055278566078360,0.043557710074781,-0.013390758237086,0.022323612466847,-0.004428887502553,-0.042335307466254,0.020423800763003,-0.026055889346783,-0.036686802697602,-0.048496953625646,-0.039594661228799,-0.035452374903690,0.052245517461634,0.068704327943837,-0.028652412594749,0.056047846858076,0.026017566450405,0.039115151911085,0.072285427511863,-0.019372753593426,-0.008923870578028,-0.040105434526824,-0.055385658668682,-0.061865112188072,-0.034258811155004,-0.041751183529989,-0.018931261236427,-0.013973346905732,-0.029605457937994,0.043325205734312,-0.041695740972964,0.052153172088195,0.039762864227277,0.050301696296858,0.060951843324234,-0.020545216436624,0.004947104689010,-0.023227996094581,0.050355011409420,0.034704924497766,-0.025140007166364,0.037008676084123,-0.021915008914830,0.007632658189227,-0.011451132363603,-0.021836314278713,-0.027397091059983,0.001268034296710,0.001652833244986,0.048539094335714,-0.008249050733763,0.039730554692587,0.056549212836665,0.002863023362657,-0.028362191015735,0.002653546408137,-0.009073711459584,-0.045210574792435,-0.057252203200716,-0.016820204130712,0.011614544344702,-0.047155259122617,0.026756414920556,0.042158845856735,0.005778479878896,-0.035467707034129,-0.040137862496029,0.049730004178342,0.018751266099854,0.056895985408386,0.028226322653193,-0.016744868074311,-0.002995296652206,0.016923736924194,-0.039957801286008,0.005297286696343,-0.041464397737235,-0.009433129542996,-0.003020476123600,-0.065534634884104,-0.067159247259047,0.013347930071497,0.042526228387517,-0.038889588512942,-0.013643068535622,-0.023832833351634,0.058669023485980,-0.004525988821279,-0.017196703582571,-0.011547427969347,0.034000103244008,0.056440007323630,0.013564844543854,-0.034763111297084,0.005729429646801,0.001196298275460,-0.047411569423568,-0.061200491164525,-0.074959247644601,-0.061452440214859,-0.073361107085848,-0.058224984029402,0.025712122956709,-0.054850494900470,0.032890965368150,0.021046337012185,-0.010123863178602,0.037535763178643,-0.036873572161354,-0.028354647915803,-0.025668084631730,0.016124221163496,-0.036780543474813,0.014173630259426,0.004611109261046,0.033723219604209,-0.013453946321849,-0.037824691957331,0.045625475211972,-0.018666906718752,0.020300694726241,0.024551392319168,0.036867358235529,-0.019253051903367,-0.030453636219036,0.013080989474917,-0.041351024124941,-0.001164053130843,-0.048389092879427,0.025730163287917,-0.029941996798388,0.004545844972357,-0.031032396333600,-0.044028342578818,0.042744817850642,-0.039517821384221,-0.049426657672442,0.011167912788330,-0.035571660156920,-0.026925523284565,0.023835974354528,-0.023262947137513,-0.024070843691381,0.010819396373184,-0.030413028616192,-0.032494477385032,-0.054741135948698,-0.046564506874412,-0.052686458484224,-0.012019836712084,0.043369656315523,0.045397909674124,0.015419043161331,-0.044011923194185,0.031639264150775,-0.029552436033082,-0.037630567071952,0.013841540192208,0.048104758402444,0.029800909831256,0.041301465600845,-0.038440921880437,-0.047531410170358,0.045560471809347,-0.043766410085583,0.023280163287917,-0.036769836712084,0.024830163287917,-0.042269836712084,0.037330163287916,
-0.032261972121895,0.033025625275786,-0.021955463248694,0.002742063919167,0.040150759682796,-0.004344133411735,-0.034863820272956,0.004958385047950,0.026996586570507,-0.013496960268049,-0.052509348808141,-0.037498091763731,-0.032628387584420,0.015130350824839,0.035043566059892,-0.007326111966065,0.043067996938072,-0.000639829348694,-0.043878606635000,-0.004401878981047,0.015911972121895,0.019534942657294,0.022560707833024,-0.023371928082384,-0.007390839235108,-0.033412024746648,-0.052517303320476,-0.003243417842520,-0.010792900973119,-0.029616901032290,0.016760513387115,-0.007042327867196,-0.044351167719877,-0.036343935319536,-0.008680784188303,-0.041065162637927,0.007314776618793,-0.037785829573768,-0.008513137221142,0.034991290720605,0.032872851778960,-0.012089292166976,-0.025736933904424,0.005638471040464,-0.029319187666275,-0.048404893331638,0.029080818349887,-0.020862320197387,0.010872459101594,-0.076495531401915,-0.079324785927084,-0.042382279200892,0.025907053779108,-0.014764542925143,-0.038270155981280,0.014228580508492,-0.027375246747895,-0.014915133684196,-0.019779114453771,0.041697990150544,0.020860768966292,-0.007948822437062,-0.036574437733445,-0.002928682258049,0.004593930821738,0.000475207741177,-0.038317628022064,0.000129798348432,0.039649063851537,-0.013693573536066,-0.028669664260364,-0.060311926151815,-0.042469889672448,0.034799523539113,-0.025374497488044,-0.034617983649366,-0.001843541526308,0.015337856093810,0.008246388570696,0.042892631962404,0.001344593723615,0.018460749937684,0.015300463179711,0.022001431351690,-0.029105893740152,-0.009052959815483,0.051441332562565,0.041223728517158,0.037233618695110,0.010745814380171,-0.042604031509447,-0.034272688493878,-0.007774330119077,-0.033523672593154,-0.006717719290174,0.049398106194417,0.023281702153696,-0.029082606144391,-0.018940976048911,0.015327728625822,-0.039487109292854,-0.049958340291663,-0.052472358409895,-0.003441956597783,-0.039585104208414,0.010200087303641,0.008954570254372,-0.020552605879906,0.029501651973464,0.012479077635971,0.017819567412552,0.026153105049200,-0.003061077703408,-0.027666764967240,0.057887466539432,0.011882643697251,0.009536379864114,-0.006147140602020,0.049389751850191,-0.004366941195677,0.033384899504158,-0.010935221102428,0.023804682395798,-0.032813132018572,-0.006568076204979,0.034515452532203,0.023087636567477,-0.046574095699101,-0.025234277319949,-0.041062107113198,-0.041456676461673,-0.015169272066506,-0.055681074236631,-0.042855792705368,0.008906587777788,0.005360439738757,0.000923974795980,0.049946854614372,-0.009705729902490,-0.029234791024499,-0.031461048766190,-0.005180915915238,0.021125471189034,0.026748771420790,-0.020173232510525,0.024187337700227,-0.002637149585410,0.006334735135992,-0.041205010607242,-0.063964448304543,-0.009614683357125,-0.047620419397276,-0.054034547565880,-0.049850175673807,0.003698523596613,0.020313264197131,0.016222404476428,-0.027413676996688,0.004908791353495,0.010930383058703,0.009383739580954,0.042389344241316,0.026318510868318,0.001742438967884,0.015157195416059,0.056248113906745,-0.033992395222719,0.002305013706078,-0.023184787518155,0.022825017887571,-0.055979397823173,-0.057175897509470,-0.064600489985286,-0.071241822125038,-0.043760362622881,-0.048674980156458,-0.023359031642347,-0.053329990224601,0.027116575422110,-0.056244012352531,-0.005572274224324,0.031123788179433,0.044142656698695,-0.004037659314813,0.023247307578227,0.045867022509198,-0.004559892350543,-0.000222216718148,0.014166259015546,0.000235088651708,-0.016267938796625,-0.012199173120629,0.016464348526135,-0.064035582847025,-0.013093351779183,-0.035418778750396,-0.017690989518407,-0.057783660337566,-0.059218017682326,0.027280009699759,-0.029313507783256,-0.008213463313351,-0.031852374898380,0.040070979975985,0.072708124495844,0.039833242666720,0.069225873033917,0.067703815961989,0.090356981218151,0.046845794811745,0.069610029461738,0.061758937915196,0.033474652941218,-0.026295711474290,-0.004883902941738,-0.053595580837058,-0.010336087590881,0.017600076465118,-0.038027558243610,0.018384911420081,0.044483285880472,-0.035276611879723,0.040888679043879,0.016026697299019,0.002901918086117,0.072110606799140,-0.014810536525064,-0.005323660627083,0.026015797891304,0.074945935673890,0.021962697787186,0.019420509828209,0.040586601896344,0.051679629712401,0.012434629387741,-0.032806930703428,-0.006529163099439,0.030010243625639,-0.036878457819253,-0.046079807502191,-0.022407786624123,-0.045394296860104,0.017386140617643,0.006702919934694,-0.045234839407310,0.003012498398238,-0.004348091508412,0.020708405069584,0.024925114886171,-0.025210824172087,0.008261650117630,0.026183608483910,0.064027806746192,-0.034945059635836,-0.015842095943370,-0.013965662583690,0.010498831675774,0.015693965048848,-0.023106050206509,0.041705881250251,0.002865873627455,0.018868492727868,0.012038274415943,-0.009181050720146,-0.023157029906939,-0.063805859613521,-0.007378469860320,-0.034048676946988,-0.007967521597933,-0.005927499762915,0.016247272093638,0.005960031020815,-0.024445507465926,-0.024041658442515,0.052518578724765,0.046552669172977,-0.015540219821882,0.008200758510546,0.045828251692359,0.021808990590125,0.021916467741241,0.026074443154120,0.025143104013477,-0.019342986453193,0.024908438823688,-0.040792696467770,0.013904301836562,0.043492093708918,-0.001273505915980,-0.042713838674132,-0.059168185627554,-0.046638324272493,-0.002596577575076,-0.042117590120347,0.056683535771775,0.043398805784333,0.034793636593813,0.014674699331345,0.030034905416007,-0.025059054713413,-0.035847554121750,-0.052572655298501,-0.052991811868013,-0.040852811397896,-0.015113825701669,0.041557112097617,0.022202862367141,-0.008128490410606,0.063397561356577,-0.006973709582223,-0.021535614891679,0.006840472656512,-0.003910902074530,0.033141323942713,-0.027663106351630,0.001789278441462,-0.034825567750818,0.016864415853531,-0.045420194407281,-0.051635574007636,0.016837365590343,0.027577344701498,-0.011332703346776,0.034943769364460,-0.021387155368985,0.040906966297651,0.046117198423296,0.033415597543043,0.043708406860241,0.024559747164962,0.050907198008157,-0.009213316274285,0.045399723160697,0.008504766188882,0.017101818367952,0.020944855460920,0.029099179550844,-0.010979063191379,0.031260760847650,-0.017621577467734,-0.008041371784835,0.027007612452580,-0.015123301352101,0.032332372391661,-0.016644624680984,0.030427129719200,0.027853847130812,0.002296685500492,0.075396197876815,-0.009580502807981,0.061223190547921,0.004292375911196,-0.018869751991691,0.009364795917863,0.025635540350441,-0.046156734748948,0.040313953208196,0.020610767919285,-0.044394538847450,-0.003541438435800,-0.036962796197157,0.004194560533454,0.005773846860454,-0.016899983332964,0.039230788070979,0.043685527292689,0.011590486824696,-0.013859736663000,0.035332240545121,0.024302357862318,-0.013971313672609,-0.055070148316459,0.030983368981714,-0.040792280169032,0.026769740806542,0.004612405813836,-0.052828618540288,-0.011716768186189,-0.026650956046707,-0.038506925295859,-0.036224941646393,-0.002854580853605,-0.018062703207277,0.033091210044057,0.019470150241351,-0.020326514909129,-0.048278953876689,0.008835125612823,0.038193079383665,0.043477996410246,-0.008321845280060,-0.041324376565287,-0.014820768144835,0.045528971071933,-0.015145958197595,0.013128856290816,0.025759958150048,-0.017638027878105,-0.002338027878105,-0.028338027878105,-0.016388027878105,
-0.042271719720369,-0.045620493371950,0.003522165941294,-0.001614312138617,0.043059874308992,0.034511601555134,0.016876276931703,0.046176780687811,0.058571608150893,0.030416924189156,-0.025371028955628,0.000124434755969,0.008558467633343,0.007122246883155,0.020311136690506,-0.018200332209173,0.014223882642425,-0.005976676240843,-0.039672478670801,-0.007128280279632,-0.029528280279632,0.019159202715844,-0.024852565280749,0.026170543819723,0.050909844913542,0.029462707993865,-0.033526960889532,0.056453925948969,-0.028243045828547,0.034457932505119,0.070420317725760,0.025207881004079,-0.011258046951015,-0.009218435460913,-0.032011598698655,-0.031274019250589,-0.034478185037357,-0.020152052393090,-0.025040335953013,0.033937574881390,0.011871719720368,-0.050014292628563,-0.021970218041188,-0.050886130443536,-0.013742962717609,0.030117995698430,0.003542024209418,0.058616437357152,-0.027360338847891,-0.005727712576542,0.060834647827570,0.002355209439122,-0.005581417456634,0.032525253837354,0.015188679065685,0.001391130713284,-0.047010908730863,0.030797337692105,-0.027068223864185,-0.055762769426521,-0.025157239623332,-0.041604025422027,0.035627378246495,0.025891267264024,0.048830946651606,0.058654772094387,0.014523932556270,-0.021004251580669,0.033678337217802,0.037940548082483,-0.032540626841572,0.012484668838262,-0.034121500916999,0.045556165567499,-0.026028313963382,-0.029262286638596,-0.047675214978259,-0.051711112401765,-0.051534608833670,-0.001832856588484,-0.041691382973433,-0.040223970170999,0.009579559246801,-0.043354564436818,0.036256743214832,0.030156524001956,0.037507366454662,0.016829089639068,-0.018699041074898,-0.022354294533000,0.029687110604886,0.028768636013760,0.058815986519480,0.064163709922801,0.052645501916469,-0.014049227072070,-0.012126039843987,0.024545743771093,-0.023093839136158,-0.008223991537218,0.005743644875590,0.033359953875026,-0.010366275431387,-0.022686406585676,0.059133248469484,0.037193294362491,0.081775540515180,0.037722385877092,0.060143208247059,-0.027676901340839,0.002451554741269,-0.012087286712614,0.063697956123806,0.067274969074888,0.052866117545223,0.026531313633094,-0.031323904736271,-0.029016842288058,-0.009124872353454,0.009714954194345,-0.021238347671485,0.031166121993138,-0.008449745396541,0.056795572247209,0.023820517744065,-0.009691164881807,0.040949566323307,-0.018249283717070,0.002858946991037,0.080159244176095,0.060560668591178,0.001486328786412,0.065700434954582,0.047071373618331,0.010252735489821,-0.009020761634619,-0.042671344257219,-0.019158783994568,0.053659285752585,-0.040864951518523,0.000862155683570,-0.040420101338656,-0.020915366146262,0.036117872590725,-0.021022111347985,0.006774575396909,-0.037672157596167,0.029779874697752,-0.029429532386529,0.066033731947338,-0.045599893373677,0.014156065664222,0.001282212951245,0.003593085422292,-0.031446610650283,0.035305718642302,0.048618541471832,-0.029057985132218,-0.050166500415522,0.030284469336859,0.000462155683570,0.044258162006819,-0.002697473380397,-0.025419832050990,0.049256155541777,-0.038218395793338,0.042055370872417,-0.009855899872195,-0.034721922666983,-0.043846545042948,-0.003414833309488,0.057062814713428,0.061547965770093,0.036286425190228,-0.039519178834996,0.016389583358369,-0.019475268016756,-0.002661699326713,-0.008550020544756,0.041474435308014,0.045391604222984,0.004947176566325,0.009172199667958,-0.019329268019986,-0.046554272140461,-0.019360708409594,-0.029504416633587,0.014468803457744,0.061413804202643,0.049851458788234,0.010173954254913,0.015443328901733,0.051892868380301,-0.005102974482232,-0.003839601175526,-0.047938523191379,-0.047135471467013,-0.049170442266861,-0.030035707337293,0.027338725737921,-0.016816916538425,0.044633945807216,0.018252004505115,-0.038467652938199,-0.028510654418278,-0.014169805653614,0.032749849947546,0.046300082528041,-0.012344444224985,0.016247860329567,0.052675174682192,0.068802698497904,0.034696775974036,0.024459003560906,-0.054522622536295,0.020816922915423,-0.009753694652655,-0.058829914590267,0.008879591211071,-0.027004045226199,0.044305457650692,0.045122772674696,0.012384588889622,0.042638885075372,-0.031247252524128,0.032941228550348,-0.016339862151670,0.060301946783157,0.015668383117186,0.014061117856101,0.054661819148485,0.052736840794511,0.050119077759212,-0.042357428957668,0.021643688188284,0.004471172541908,0.016897384859237,-0.023608891344788,-0.036767932093846,-0.002202407526004,-0.045441253008722,0.031777094890027,-0.034397684916598,0.005638702109631,0.039950784412287,-0.000577281431372,0.005089756688550,0.037253153189182,0.008093626176504,-0.029861256431204,0.031549267825821,0.030999037761668,-0.029039724723936,-0.059040123067296,-0.034823803541617,0.040001994216543,-0.010175055615303,0.041806304585492,-0.001338606060296,0.006487333019025,0.014251885113008,0.026529174377885,-0.039228970658123,-0.033740805299635,0.043767486679878,-0.011073490070984,0.023343430942006,-0.032923158305753,-0.031213635616313,0.000989001330967,0.016207869052983,-0.043823864453143,-0.074453846223950,-0.056951695115200,-0.002577323528109,-0.019318979750072,0.002126414243192,0.042773581338004,-0.021009749089489,0.024306353285684,-0.021818077511891,-0.011375378759195,-0.044446769862999,0.037602289092171,-0.008678832879558,-0.039954526315212,-0.018489626684567,-0.041679118029672,-0.081519022399594,-0.067005467202720,0.020067906675317,-0.058439488770895,-0.067397710175380,-0.049460479103325,-0.028815392383200,0.031004833256146,-0.048483498068442,-0.045753988956896,0.017765814943464,0.041685875629828,0.035569240287663,0.041679829221148,-0.014750637823327,-0.046576134179429,-0.043894382266140,-0.029495874515344,-0.059557340412386,-0.086188136385752,-0.083403296927383,-0.049286461328021,0.002634674160221,-0.017804214298732,-0.027458422273354,0.007347824955273,-0.018163638877201,-0.007540859443101,-0.039291188591961,0.032892389069205,-0.028201002966955,0.004542859938527,-0.019959572830463,-0.003930966531158,0.003678098378386,0.020293302041166,-0.027211970635988,0.026586735317613,-0.025785754928003,-0.064131540690316,-0.020930725287571,-0.040634055897149,0.018418104818084,-0.039581416242369,-0.019277097364450,-0.036740453653165,-0.011131059447770,0.023865225473030,0.020626896237033,-0.001969404321256,-0.045288977516393,-0.027265260614113,-0.027664666771389,0.022429994061529,-0.036213960730806,0.035705673556681,-0.038620703085129,-0.033743732841333,-0.014176879384376,-0.029334124655957,0.000073833234490,-0.042717006212873,-0.031726218847503,0.018027076390939,-0.043445881737083,0.031631872220288,-0.006921911267187,-0.031658289021227,0.025336231584912,0.048089451833258,0.002547028920648,-0.028802502467051,0.010713873332143,0.045005798296483,-0.039544394098165,-0.033737227684534,-0.032194188850537,0.041415459901954,0.021436410357550,-0.043079762289753,-0.014378773789427,0.002376577582520,0.014457506598377,-0.021522345358041,-0.029077801111753,-0.049921573726367,0.046718583284026,0.045331942559298,-0.038080848737502,0.023526112156314,-0.042076422111535,-0.023333027602136,0.002163873332143,-0.012704517242888,-0.007937548623622,-0.029414209062577,0.035152802930976,-0.043496623558060,-0.035734971402243,0.013586870400781,0.024898826457548,0.034363344595607,-0.031854303061584,0.025165873704952,0.022585859056841,-0.022669279743227,0.006187789429635,0.006928268530251,-0.011763393078758,-0.053128280279631,0.018721719720368,-0.042178280279631,0.027871719720368,
0.038841683173921,0.019751529087527,0.001111372798456,0.004933789848791,0.049715017009862,0.022158953353601,-0.036500300626601,-0.019827010618860,0.031590664158151,-0.024207910052060,-0.026904123709304,-0.010063007516841,-0.009261674929414,-0.005677053532302,0.026292799496579,-0.044733609072750,0.011458303430000,0.014936791689073,0.027096953587942,-0.016998965220314,0.007808316826079,-0.012294710501777,-0.041060109879395,-0.024278857705302,-0.020936348576252,0.011058467234624,0.011368603650995,-0.024900334435587,0.043435312213206,0.045242057165675,0.055820238129245,0.044830627731973,-0.034698567298011,0.035211422029037,0.052138669197506,-0.029121054523623,-0.006515673232775,-0.024865895745187,-0.003277016779692,0.025426775289799,0.011008316826079,0.016315153679897,0.047155712463686,0.041797564363557,0.054253885111094,-0.018859412262441,-0.007150011138554,0.066009603146364,0.026960038538044,0.054954479547725,-0.018313663303019,0.016421573875460,0.024096970158338,-0.039872163383895,-0.014291630470891,0.035701001167898,-0.009505649552844,-0.036656449811504,-0.018714848272575,0.013136251820671,0.027147536225727,0.038171854470702,-0.021817653772268,-0.016018489959678,0.008558181761064,0.068878738932572,0.054595228784119,0.003334586867759,-0.005247126727342,0.041392733615871,-0.011454804927946,-0.002551826723877,0.018959654905254,-0.002368423910090,0.046763527862856,-0.069491833743576,-0.023543249925106,0.003299930976407,0.002194636086714,-0.050614279686146,0.033639994831328,0.022502367902342,-0.000462011104715,-0.019233387285933,-0.004730251865777,0.066607497361182,0.081235699216686,0.068503490943969,0.051162712309152,0.053667919198728,-0.002073815430890,0.000762132460789,0.071959692658697,-0.024596306079194,0.049545677105262,-0.021853931130681,0.032489810077776,0.006584646139151,0.035653663880712,-0.027885653478212,0.019200205744512,-0.019095796696986,0.001388410326972,0.041845623185562,0.026256769979164,0.013321576108002,0.004692897425968,-0.027314010564584,-0.025674943801757,-0.014619021094455,0.028128603074036,-0.017824183068818,0.020908592881158,0.047334873995165,-0.015601782831357,0.040047597716645,-0.030472139863073,0.005470595806072,0.016221353839405,0.031017412074074,-0.024877132835948,0.016776968526752,-0.047193655758539,0.036077419521519,0.031631867384325,-0.038614852026038,0.016011671776708,-0.024589929174495,-0.008998207635131,-0.002755310864091,-0.003587740509255,0.027725224821176,0.076733242720438,0.073203634862607,0.019310585926194,-0.009937651807841,0.035065595932989,-0.008777007291129,0.001237555528286,-0.045028469254538,-0.055336820473573,-0.051782484834408,-0.037310110716652,-0.061324516282560,-0.070910772926841,-0.084610479705112,-0.013784786013699,-0.058779007297162,0.011638213303889,0.070421494383699,0.073564412070100,0.056074132148495,0.011269840747985,0.068989166497757,-0.006096706726108,0.031495449101287,0.054571179922565,0.053629682680139,0.024339177690524,-0.019236820473573,-0.027660960555284,-0.045057488354604,-0.015444061164787,-0.054463557904198,0.002190513859946,-0.046194008265881,0.009147602567993,-0.015819170809966,0.019514604052516,0.032389395686633,0.104909861058031,0.044095312153767,-0.009014522855257,-0.005895895705501,-0.008793970227452,-0.010512907664548,0.002897176166082,-0.038808195535347,-0.013364332881811,-0.020884584744080,-0.047399130063439,0.000036349377186,-0.001255193734874,-0.066322688373002,-0.090301612217567,0.011707367496587,0.022413551847235,0.054199473497349,-0.008834541750929,0.047561834000725,-0.014468909624034,0.011682808774126,0.008176071100677,-0.036811764603552,0.039232392294958,-0.000092474446426,0.050275668586804,0.045931320855694,0.027243839189106,0.030321176343304,0.033251953082207,0.030478433918657,0.012903310087758,0.011165641403831,0.012831824432054,0.011834447376710,0.057123188439957,0.006965579048028,0.029004411664629,0.044991501768560,0.035567917014717,0.039487477103717,0.013718127462731,0.018454870933170,0.026244255332705,0.016105694149931,0.032749147969596,-0.045538498624897,-0.012070563439059,-0.051979662499654,-0.056250313677200,0.043008559992015,-0.014961020528500,0.029635947835723,0.044512033537122,-0.011438786002984,0.008835780872281,0.057936216891126,0.014350219731617,0.029912544297180,0.046708628782175,0.052564608447833,0.019328829572607,0.046489052138994,-0.026984427011912,-0.003027853710497,-0.028706862053095,0.016571452170885,0.019499001665380,-0.015618325895670,-0.034953220484200,-0.019784224570934,0.041759914601976,0.045214927111587,-0.012631077397084,-0.010097738122929,0.023216679802859,0.024114537571839,0.046360151118572,0.023647471016657,0.039524965917747,0.012514525813699,0.016305608549978,0.063725132410546,-0.001567509562574,0.003078753748053,0.010346479909915,0.004294972539963,0.029480029539639,0.018607064554254,-0.012244075520224,-0.008828246376874,0.014271296094880,-0.032925332827197,-0.016249177826544,0.049792687270162,0.050866738636298,0.047189958628321,0.015387549375178,0.015765404829306,-0.021346877569898,0.037093774163544,0.024607420535687,0.005101016441954,-0.020166343482934,-0.042222015683111,0.006407137284155,-0.009003945391429,0.010677635899955,-0.038004044911489,-0.008981909508755,0.048852325709438,-0.030356133000886,-0.003645253184579,-0.002371623610087,0.032321925378534,-0.004581400707828,-0.030144685166584,-0.036296794040103,0.041497228048071,-0.005952578716850,0.014815986708219,0.004694844146050,0.017094646024411,-0.007048015027026,0.006031970285484,-0.023097285900061,0.028987335079796,0.055341415314369,0.017999778487273,-0.020453610261291,0.007057174598506,0.011713137682440,0.017877816855926,0.013617823948159,0.039632872701771,0.006855839561997,0.007925571643836,-0.015543503467971,-0.054429978894347,-0.010952138197882,0.011796703401934,0.004217833107407,-0.039961466062485,-0.030750922981209,0.005236294161872,0.022039127896060,-0.000268640046030,-0.014362056450385,-0.040202789368579,-0.012177470346642,0.021249175068092,0.042238068939186,0.068412388337563,-0.016769934384346,0.033084269709766,0.004002431984645,0.019365946562557,0.057011770652452,0.047619397247699,-0.021701035618676,0.037841055540091,0.011975461083572,0.024512185460612,-0.019419965174316,-0.054197355733516,0.033862379623128,-0.044131174009199,-0.003244233619233,-0.018383611009413,-0.025343223941722,0.043381768910961,0.000794011587832,0.070240423414890,0.056937657963902,0.021545699345996,0.045896993687869,-0.021066607950560,0.027666216904588,0.055565444167621,0.029965568608480,-0.024009574179127,0.023357984936510,0.003047155493662,0.049356713766855,-0.001183754445454,-0.012208265147734,0.029677146355625,-0.007413057574159,-0.049993246835025,-0.040239169636260,0.025993060097583,-0.024652262053100,-0.006888273108832,0.067761322848551,0.064761832597023,0.049160271979908,0.048335580145722,0.020841985972637,-0.023401011079462,-0.002305363381652,0.019402872871953,0.046511019321894,-0.003936736989355,-0.006583185698460,-0.024402861888558,-0.054909081870754,-0.045275576385857,-0.030784540270571,0.014350648296114,-0.001589169636260,-0.047706524692764,-0.008346096454775,0.003456555257451,-0.031784937677832,-0.037022449217120,-0.033519312660182,0.022499755575958,0.022325907737167,-0.011469196761208,0.020998226165464,-0.016599578725786,0.005038059592864,-0.009810558091633,-0.053142837255468,-0.029941683173920,0.036208316826079,-0.038191683173921,-0.051891683173921,0.037658316826079,0.013758316826079,
-0.004736877825526,-0.050862044681510,0.008834242580377,0.035195350097578,-0.046431118683903,0.010399097062941,-0.001154796290893,0.023873886026192,0.002273619288049,-0.018681075769935,-0.012320006396499,0.006073271318220,0.048011099552699,0.037378344823496,0.010479793409238,-0.048441793763042,-0.023587727693292,-0.034810334154246,-0.043368147226305,-0.031904694552494,0.008436877825526,0.014182001448784,-0.047470579867128,0.024165138381651,-0.039313416696624,0.044309210397460,-0.035814455158881,-0.024943950447611,0.044793028299719,-0.005443219352977,0.043329374984588,-0.032509844011601,0.038444829947205,-0.003632103167021,0.012092798411907,0.027062776959674,0.002561265844801,-0.033277777883744,-0.015691155303536,-0.037944724182699,-0.005152323803994,-0.034739033900240,-0.046734776889705,-0.054670395599052,-0.012996589212085,0.044381482867800,0.014327673727171,-0.034614728753297,-0.040377550103343,-0.006483865053196,0.068523998147378,0.018988878932553,-0.023118838242679,0.014087288867548,0.027207833850366,0.035388003174876,0.024864755088343,-0.014161568300466,-0.058570118915204,0.000392871021909,-0.014975396757702,-0.024691260949765,0.026068597120323,-0.017457684086290,-0.043788381526277,0.008924825579814,-0.007099030186983,-0.016696908267429,0.045101083126580,0.041581161261514,-0.019682535960374,-0.010168374228010,0.011035236416829,-0.016867556069846,-0.002713411914250,-0.041196354365410,0.010871232235033,-0.038240306723580,0.014674244862005,0.000694655864186,-0.040119782060513,-0.043327726610717,0.021849743092889,-0.040422122112928,0.010528652425846,-0.029094374964108,-0.013988567374458,-0.046151866633775,-0.009658311254592,0.025881753669882,0.021840262832048,-0.007390937984462,0.065385473570592,-0.017295748998974,0.037291665480753,-0.041142922109474,-0.062729096438266,-0.027811050863375,-0.028034900463493,-0.019122257646640,-0.042606734352590,-0.055946355672396,0.045779557772173,0.018822904307415,0.030027151229040,0.042996786311053,0.050933679204106,0.029194010763008,0.012153426770505,-0.026476318931009,-0.007767245751390,-0.032159438804926,0.024617500048374,-0.028668620765806,0.022148345121574,-0.031472375707366,-0.025381288451148,0.020025259748601,0.018868488596745,-0.014749728154294,-0.052725099985705,0.043481180527690,0.053193596175333,0.013364760220313,0.071191143874152,-0.019578617999637,0.002516964996941,0.063285223974131,0.021012204622153,0.062605636558538,0.048479869759158,-0.033999211613152,-0.023841667402236,-0.004627653748071,0.024614296322851,0.044825103074589,-0.025782099544927,-0.000259700759204,-0.034035790720933,-0.021399668615965,-0.045360292424062,0.036152464804968,0.028862955071352,-0.036477798652130,0.006910067418516,0.050313803945730,0.037850091613531,0.034565315266538,-0.015707442368005,0.037027603811821,0.001750369219564,-0.014852975008407,-0.008508559565015,0.066300328873436,-0.030853182817388,-0.011726901568634,0.023288658466152,-0.029408737954498,-0.038290517463156,-0.020484086165098,0.035680823368036,-0.033822447534904,0.015678385357824,0.040986418660332,0.013229097360396,-0.006295978979399,0.063582146347957,0.023267227707432,0.037328654961118,0.003469804690621,-0.045024492895446,0.027288635043828,-0.022543999299706,0.043835640941769,0.046357148987471,0.039967777858114,0.044755181614869,0.015511407880233,0.003009425490990,-0.023766110141669,-0.007677120083809,-0.010392674431599,-0.024493585205698,-0.034140385795914,0.037457676695433,0.039509342766141,0.049555830264484,0.056273410852293,0.004722987235940,-0.042226236431725,-0.006186997499957,0.010781773254424,0.044818429200905,-0.022048196507258,0.076239824063382,0.052248522245426,-0.000454776796043,-0.042949358094895,0.033912198022097,0.017992296919888,-0.025164569063703,0.004182104041924,-0.043970485701423,0.000914846219006,0.025460064645826,0.043543408235716,0.024518599133922,0.023990908933835,0.009107244979962,-0.044974835741550,-0.019632537090647,-0.004399452864357,0.038382609376307,0.026034891577916,0.058722704993938,-0.000266525338578,-0.026884204317936,-0.015877890220792,0.048860751372971,-0.043605497644883,-0.036348171362188,0.040927813823844,0.042353957309429,0.000969415743469,0.039538089220943,0.011338901735588,0.001960896396542,0.059784507991556,-0.036745548130990,0.005371484500481,0.024171769649160,0.018145421415926,0.034334335313780,0.057697115116653,0.058673480397947,-0.013584181359326,0.028643143966789,0.033907514680902,-0.000149836364713,0.051042993908868,0.000040792113008,0.038178502367745,-0.011108723817066,0.014618596114464,-0.008644668235580,-0.027705362211981,0.045352717523380,-0.027064669909657,0.009368307797810,0.020432099970012,0.007935119541777,-0.036878886103826,-0.047944157205513,-0.013589582160466,-0.000155387051217,-0.007191110966782,0.022239070206782,0.010026583321751,0.017100543521080,-0.016867273839641,-0.007716490813889,-0.020358133785824,-0.044992091794200,0.034424888768928,-0.017235417788270,0.029874211705443,-0.004479845975208,0.026979710997981,-0.037646251373659,-0.014487123530783,-0.069549736420753,-0.057742106143351,-0.011658979505918,-0.018308461996987,-0.021915200945199,-0.031703551746497,-0.051817743614978,0.043457094844380,-0.030733119145854,0.004500467797173,-0.056888375979674,0.011000335817460,0.030987103664172,0.032618044469348,0.029534125564256,0.018564627649805,0.022318195981116,-0.013662661637842,0.017103600946399,0.032527516216350,0.006292978282297,-0.036796743095772,0.018523097797625,-0.047254383650236,-0.019075333211448,-0.031071689971706,-0.025478176996323,-0.027091952833133,0.023764986874136,-0.021281433672278,-0.057647823771627,-0.058248968280112,0.042611555560837,-0.006599245787769,-0.051627971065966,-0.064666104347641,0.000127830653770,0.012942386703300,-0.023007524491046,-0.048974162261892,0.008145876765580,-0.005105184244229,-0.026950595923987,-0.010082506391877,-0.027046270268838,-0.036519265499157,-0.012368560953733,-0.005799818457062,0.021499497030569,0.016991534029413,-0.043199193271876,0.004853855822637,0.012768844416944,-0.027876056122000,0.022667217217524,0.032458863824749,-0.050707667342763,-0.050884189211613,-0.011451488554978,0.046889008639995,0.009945018506535,-0.041744461580498,-0.057561251078550,0.014525258286061,0.034400243419554,-0.010395121934675,-0.028147709802364,-0.012400682586687,0.000320509728335,-0.054208757075622,0.011812414474616,0.000515822589815,-0.002238394851313,-0.055054516022945,-0.015426745309952,0.029992259602075,0.026006353308295,-0.037584362351303,-0.027687031277995,-0.005140331086800,0.001276027549028,-0.000176142438668,0.032204816607989,-0.031944071546714,-0.016226649160062,0.004093932779899,-0.029733609880681,0.012269694420878,-0.011437531870053,0.015681482759783,0.017516190233719,-0.047867227187788,-0.012533989768322,-0.018001908414598,0.003923964018451,-0.037905728386998,-0.020049213929775,-0.014851355765664,-0.034138711744598,-0.013268929839533,0.038638932496850,0.039511081913464,0.026870271149786,-0.043696986685292,0.008747139679332,0.031939181559296,0.027460747977520,-0.043979354207895,0.002038373089455,-0.044622546070042,0.023866190233719,0.019409970767987,0.013143466257345,0.013632117730268,-0.028894304348205,-0.031794863514318,-0.018861677752731,-0.002840804571025,0.034428346899323,0.006026049379062,-0.002283536068870,-0.052340543099797,0.014196289660001,-0.017348270320388,0.015763817082991,0.039597747178314,0.022565709589678,-0.025963122174474,0.032686877825527,-0.023813122174474,-0.046713122174473,
0.020077979844801,-0.045454882338231,-0.037254882561285,0.017086467217735,0.010894004469475,-0.013593751157545,-0.007363207562669,-0.021364771255853,-0.033378062191573,0.040372167956154,0.050311210873112,-0.032713318377501,0.037171018541967,-0.040475083864649,-0.017955989503239,0.011140820541641,-0.006070389003539,-0.000663488294586,0.020689007935763,-0.012165191106414,-0.022577979844801,0.035900291322114,-0.025441359793198,0.020290841670199,0.055217345538520,-0.028161148832249,0.001497036269448,-0.029903394462667,0.032806179229741,0.017805534583575,0.062400901794416,-0.003284370707046,-0.030885010088919,0.051145888458427,0.023969976800874,-0.029948985142046,0.048097314791232,-0.010347712580140,0.031664373443961,0.003758138714768,0.026472020155199,-0.041523734824727,0.006088336233955,-0.029100586352169,-0.039892029355339,-0.009420157930041,-0.029270304891500,-0.012555649223622,0.000987783104571,-0.014205549886571,-0.031564812106429,-0.021409371831137,-0.017073649544345,-0.037432104335865,-0.036632490975220,-0.008201267768406,-0.032954075849791,-0.031682774588157,-0.009918149055174,-0.006501509503161,-0.048977979844802,-0.021511639064291,-0.009803339045091,-0.046015813903542,0.042049647851609,-0.022465446473325,0.019706395098463,-0.047248863250553,-0.029134601086384,-0.009559986777335,0.042491693850631,0.009948636149966,-0.049251920147154,-0.008161332724921,-0.002828777754061,-0.033992015251660,-0.051281301395332,0.033214744035843,-0.027279246218554,-0.025817502164928,-0.001413338615032,0.003749978320984,0.028868213099944,-0.030500360331647,0.029300850489726,0.014345418551059,0.015722007731742,-0.007887668274020,0.006369753785536,0.011797743324416,-0.011882799962548,0.043891903399567,0.000589166009229,-0.033453040153359,-0.020782473191431,0.042200029727391,-0.050196064561366,-0.025573262959745,0.050420468409250,0.011052413507199,0.036761298233343,0.023903926958705,0.033367654607238,0.054255620459607,0.035160711965564,0.020987951035890,0.044274850832810,-0.000636693224205,-0.021333622211843,-0.039201122951801,-0.018732103722338,0.031164351331472,-0.011997605132022,-0.012573337126113,-0.022061383660353,-0.050185222329104,-0.007030591197898,-0.028268690166262,-0.013777708388666,-0.020424571240229,0.006999836373592,-0.014076641610950,-0.027674097092709,0.049247112270087,-0.017287707481986,-0.052104477806042,0.035790132203355,0.016364812499300,0.053787924323123,0.009856252266373,-0.004136930654679,-0.004005238976575,0.006340767242103,0.022633888998761,0.006974980227304,-0.041955466290203,-0.001944384812184,-0.038231848048549,0.039012062944367,-0.023005250692893,-0.019599100776229,-0.038748087453102,-0.020418356850899,-0.037764142720824,-0.052926991551228,-0.042373114758154,0.040872770892703,-0.023970742048527,0.018067684738811,-0.028682382186801,0.000939912576598,0.002752562369762,-0.031721819218492,-0.017542876692708,0.023475141014451,-0.034502644247825,0.025047353714968,-0.002134483443283,-0.002496590038355,0.005281932072454,0.004200899223771,-0.051761153732525,-0.005799612531707,0.023313239947931,-0.027718356610479,0.013837455726179,0.052224879452117,-0.005071163166802,0.041891380568913,0.070778247351868,0.090703665627295,0.010443154257968,0.045508108808604,-0.030970726965180,0.023636696452570,0.016376331127996,-0.045507909420174,-0.025020224828198,-0.016222527764798,0.013112850830721,-0.009859181602869,0.014452062366830,-0.044031821078588,-0.054459338619825,0.025335466948562,0.015485894555715,-0.046514887408995,0.059566730391175,0.004414246657283,0.068197979961090,-0.010637912218462,0.058466935377586,-0.056902415622280,0.031350708214301,-0.036763627636743,0.016311290612778,-0.004337149931265,-0.032039758953357,-0.050657160337706,-0.018870053938119,0.006090818397130,-0.021570870476037,-0.049695305508609,0.020629704921514,0.009760951837670,-0.011324326750506,0.076257464855303,0.051027388653203,0.035144839727250,-0.002053866001209,0.056564998056696,-0.007410086188848,0.015309827499932,-0.003727509983712,0.000520642787404,0.058431337952084,0.039525089820159,-0.033468599092876,-0.011837595055494,-0.049777876228097,0.045538303267583,-0.039348645205001,-0.024756234765965,-0.034935583695362,0.059783852663310,0.054207522276370,0.021652271247083,-0.012352038024140,0.046640451035904,0.047840635040820,0.034641678599158,0.038183779452536,-0.029730133205539,-0.023638867889786,0.042787270414781,0.004540042620700,0.039743159364257,-0.050104307059817,0.011903469679800,-0.053079624824118,0.021465633144392,0.021219557186875,-0.013949263872719,-0.009601966758836,0.052357519513109,0.065407929168796,0.089741727366380,0.066956911526725,-0.026988633636911,0.015346247773588,0.040932530782651,-0.023210793088537,-0.002015083002503,0.009440784903681,-0.053870666829264,-0.043134892453737,-0.021502735186517,0.020700549364857,-0.016384963743443,-0.031508867496717,0.033196403121849,-0.014614433150186,0.039362543137586,0.087398226267790,0.003823210727349,0.016935868224091,0.058696856033804,0.062322448322709,0.061827084572619,-0.056838592296376,0.004585889415686,-0.000741582358462,0.006642670115996,0.041244624461552,0.044425290443091,0.051763656764560,0.010545391682225,0.013217909362177,0.047240019449894,0.024992110547176,0.031250996753965,-0.017493920989513,0.042830327180312,0.062888420974655,0.064557006769855,0.024784219384626,0.047530170118576,0.017401073640806,-0.001166176433781,-0.021151610865132,-0.036929074985626,0.054618631183094,0.006171172180573,0.010301731759986,0.040303728108002,0.006765671525689,-0.014401139245171,0.029363415108382,0.047176319118667,0.000857408086063,0.012590187549593,0.054896944936364,0.015231930380160,0.026297089344630,0.063919170413948,0.038405704586784,0.061551764088507,0.040368897289012,0.029664714622715,0.042341810644036,-0.034392482163967,-0.028655618786068,0.019058320253026,0.044304515870366,-0.036065679636250,-0.032237843412669,0.030513288408738,0.008826675266039,-0.008066093214198,-0.020855494999503,0.006255313374723,-0.005542271514944,0.034893499639855,0.070952317927644,-0.026795717157453,-0.049506489717269,0.023645767121452,0.040647630943327,-0.010713261860952,-0.005856179290034,-0.024368555149990,0.021767234046925,0.039567260789323,-0.015086912748076,-0.000974914723353,0.003796353220735,0.047809924249108,0.011374273134139,0.046622805343996,-0.020511625419703,-0.041297632273315,0.012394859755606,0.007750226741103,-0.015430854762022,0.042559428494383,-0.038712721094257,0.021957765035481,-0.024479512689548,0.010910506244468,0.010245210497193,-0.032881517665237,0.000051714890309,-0.001226792410963,-0.017090972612557,-0.003212398330952,0.037100064555966,0.004567226714526,0.033287229669522,-0.019543081531292,-0.040507134399873,-0.036301894864045,-0.014008392112828,-0.001651338231826,0.041369059273346,0.002648166050067,0.015033210656531,0.020692207692516,0.020110981827053,0.036823955726998,-0.024017147832031,-0.008357958575920,-0.015724133338458,-0.000014137940390,0.007034491947629,0.025122323964955,-0.031013344059598,0.050136976530861,-0.026317731762934,-0.004425301952904,-0.046889622449771,-0.020351894864045,-0.023250114281872,-0.023725894278014,-0.038633953386856,-0.034722941344201,0.031281874445275,0.000489301721610,-0.010614048542834,0.050014827808729,-0.023638119318748,0.039868620234550,0.007672035013283,-0.001660643798733,-0.026736743140467,-0.023545780974245,0.023605165090699,-0.029553849497149,-0.024077979844801,0.004422020155199,0.033972020155198,-0.026527979844801,
0.035828024389627,-0.026161082038983,0.020200667592551,0.022019782532105,-0.012783619900897,-0.040504437340829,-0.023321026478828,0.021913130679743,0.027511211416974,0.013380846441650,-0.046439625673675,-0.009694007404978,-0.032352886711298,-0.051706910925940,-0.022009905160659,-0.038396381891299,-0.048896172991523,-0.031404243196605,0.012744803239733,-0.011625189736739,-0.043228024389627,-0.006394501014642,-0.047801893706400,-0.004220926694647,0.024112204104712,-0.040043876204007,0.037695499254903,-0.020462762587973,-0.017612299941749,0.045005230015116,0.022446665727836,0.021493497803605,0.045166638159685,0.013543616036979,-0.011588617441479,-0.015834982681216,-0.025406823471586,-0.008117749753151,0.024898712542115,0.023580496614716,0.020335720135614,-0.023383867807254,-0.048056663271626,0.016153882664805,0.032747280781992,-0.033155584196024,-0.015834169122348,-0.049023340791652,0.021539945938785,0.061146865451176,0.013066511243547,0.038802388965694,-0.012392558717391,0.003098262117853,-0.031189316779024,-0.054146441031662,-0.053841312746100,-0.022314188664884,-0.024118842138555,-0.034011180869442,-0.049962337995139,-0.029990017854680,0.046491079997274,-0.003597958836251,0.032907591449095,-0.027482577201907,0.006396436094961,0.027672512643900,0.034485154708561,-0.007950673684599,-0.010706242815427,0.017371766602229,-0.007841610471016,0.013874555098773,0.036465775599356,0.042672404057268,0.034631580835577,0.035989933398515,0.009047060497398,-0.064288049270550,0.032304538452538,0.015492727335668,0.056503230063079,-0.048020552596376,-0.001637293829399,-0.038143615383239,-0.085564980528694,-0.065199035094873,-0.042660694988584,-0.055867940848030,-0.047887847406696,0.011027212401812,-0.016891347283384,0.065529903637211,0.053605372728516,-0.011133506590428,-0.034319288726210,-0.059196749269943,0.001817231020993,0.010066831705055,0.012072983655284,-0.016593130299005,-0.010309954851931,0.024249104869335,-0.065012618583673,-0.013133449214989,-0.091262713343986,-0.059946777651974,-0.057103012303559,0.028319457256016,0.046781441496440,0.014558295440235,0.024211880435109,-0.000001096682464,0.032757986073341,-0.001480568191875,-0.019335417664932,-0.006000692338081,0.008629715372730,0.019963658799628,0.020280817305565,-0.002098963081139,-0.016275130849030,0.044905008966287,0.041568982132058,-0.032014603195407,-0.032235744880348,-0.043182689498952,0.018541058768385,0.047127578468943,0.015375285949087,0.065303585522821,-0.006701129799093,0.023390758884478,0.030591684562023,0.028037684638725,0.053627001872125,0.044551366531093,-0.015038594586530,0.008286003063057,-0.043598873974172,-0.011735876390846,-0.046106576008893,0.012590699867643,0.035584312582374,-0.000711243161653,0.024822461214353,-0.021694144935122,0.012542220345752,0.021335614239726,0.101068821361647,0.059474237517477,0.077400852984287,0.047653979466186,0.057737778824843,-0.031467241520474,0.007374548426482,0.015697330662321,-0.020385912018053,-0.041851685637834,-0.008245162661301,0.036648911005826,-0.011926394484476,-0.025643959874114,0.013539322078673,0.006604771037035,0.024304384738799,-0.024234816758380,-0.001538935195170,0.068730226144083,-0.000031197720998,0.081330903443223,0.016091483333990,0.057473670557278,0.026924380443905,0.062450291781792,0.052418736921736,0.019152177635662,0.020409587256571,-0.047152283175757,-0.045561502636352,0.020645144387484,0.001746912702664,-0.038105372569054,-0.055308020522244,-0.021852929257830,0.025783815261969,0.034071341383791,-0.004592661439177,0.007530765103243,0.048321600078202,0.016923638725951,0.070558711257908,0.034964738829599,0.006043131803224,0.077497930043947,0.060434864384968,0.058767720607476,-0.006072802204470,0.048265799664740,-0.027997318584857,0.006990924560646,-0.016823565480192,-0.049036416580668,-0.020890953745030,0.005016430311058,0.038745803780726,0.007540494305060,-0.011928796998465,-0.028148367335803,-0.005644995051846,0.004847984207993,-0.005927810977155,0.049240696382873,0.001250371181142,-0.025414225784610,0.056603035030334,0.020609414855953,-0.004663194129778,0.010649611879572,0.031127389478406,0.001881873636111,-0.042809416393653,0.047553643249978,-0.055461699377213,-0.044740454023790,0.013113983579119,-0.030600099262476,-0.020529713203169,0.028145206073465,-0.030503775262058,0.023012506028484,-0.032744696095090,-0.051029658808336,0.040454903963505,-0.021670044956021,0.011245805694260,0.058620665712704,-0.034933833884838,-0.034644627548229,-0.036122393075192,-0.039539889714332,-0.009806341499607,-0.018177715097124,-0.083954884139589,-0.043165164192984,-0.050009298978224,-0.012893344444113,0.016631974988315,-0.006262936559050,-0.035138833262399,-0.026031158958381,-0.009113724717523,-0.004617332737079,-0.053539003409480,0.015654554705704,-0.002480945233755,0.036457076400795,0.037935369751196,0.015523887421072,-0.016945174273086,0.040785901245473,-0.024387718742279,-0.033392947517843,-0.011329544164763,-0.029382718367490,-0.030414703686437,-0.060573254157684,0.004361042747363,-0.010888161101291,-0.051492500614677,0.008659444336091,-0.105782226433558,-0.075400751588968,0.019066511725436,-0.038982169261868,-0.039170404261254,0.001125137564385,-0.046822978936049,0.021519526589160,-0.050057237611731,-0.009675488495771,-0.041407318077893,-0.067209040454405,-0.070434716774768,0.000637209342708,-0.043498744983163,-0.014160604160043,-0.009580493429987,-0.050749393867647,-0.064249288226811,-0.036620215259029,-0.066361209387497,-0.014877109211212,0.054430695418156,-0.025651821171213,0.016795104982952,-0.026473882017731,0.019440657588289,0.001008495078490,-0.053683358945310,-0.007592679984751,-0.028173502748275,-0.052879207433160,0.020549191036226,0.006992559307871,-0.012527578571111,0.009640437991342,-0.053490622108839,-0.084140951127972,-0.083523093108532,-0.005080848095693,-0.020801133253609,-0.015834073845467,0.038244102994465,0.031097804975010,0.027899958866677,-0.042506884636527,-0.036752479285640,-0.021628609815208,-0.042128647634238,-0.051102228871360,-0.021242547221122,-0.003487166372808,-0.053462211179609,0.014999655518124,-0.043496825648017,-0.007207656988670,-0.039030959886191,-0.098482870021434,-0.032210861636114,-0.055284573665139,0.029307033224546,-0.015363714485766,0.010555365408079,0.058105060843627,-0.002162325547671,-0.046790950471556,0.035791796110526,-0.048179275025520,-0.024064175086842,0.010290835281140,-0.054892970770354,0.011742819326227,-0.053470629704806,0.032607898350577,-0.013045504384288,-0.035797548174218,-0.066536282207633,-0.032538399366101,0.007586120207079,0.030562460250263,-0.003504233506380,-0.028079335665775,0.021652680045491,0.019731646215386,-0.004464909342180,-0.038302310602707,0.010038146132637,-0.026445392813583,0.018883780767172,0.015376013322861,-0.042795054747196,0.023251250856408,0.004691167916746,0.027045891749271,-0.022189455756730,-0.032637097856102,0.000745187962010,-0.029675633817200,-0.010478459665929,0.002805166047275,0.054303743198749,0.000192523158502,0.082868481242934,-0.016012974606464,-0.026245181056006,0.020255950419171,0.018289272808537,0.015557587672966,-0.029192913791988,0.022571975610372,-0.032195527464902,-0.036502030246165,-0.041057992650333,0.021448664310482,-0.025193180811670,-0.058965813520857,-0.045138958194071,0.022427874324327,0.016402145103811,-0.017415739907467,0.057116126347429,0.035957813989058,-0.008806791839086,0.012603789142931,-0.027576652799421,-0.014328024389627,0.041471975610373,0.034621975610373,-0.021528024389628,
0.025305768675548,0.035433788531933,-0.015260148271127,-0.017110130168113,0.028863488539347,-0.021040052387673,0.060403579605376,0.026526358488590,0.043195101608177,0.041462052906939,0.049092570080685,0.065786776185794,0.013526389392639,-0.022301791121631,-0.009105292540217,-0.026859935315291,-0.013266979016228,0.025797723204321,0.015385718906387,0.002683521397715,-0.029405768675548,0.042779477365120,0.043340091509536,0.009748864299660,0.047466281183109,0.000941846987631,0.056714161560991,0.096353105035373,0.063269416823109,0.004790031162658,-0.022747516604171,0.015254800932948,0.067708394062212,-0.021218781131973,-0.033562425759532,0.043975317148823,0.052699814234776,0.013421451871938,0.036401291720296,-0.038169580320173,-0.005468825847994,0.043171640865754,-0.007360020475236,0.000614194008444,0.013243791222447,0.067834779723946,0.084819224043621,0.045799714083864,0.022525877357571,-0.012849836242780,-0.046505298321750,-0.064944084177733,0.002869099756136,0.033752741870537,0.051468288311428,0.027962998737152,0.009122158369175,-0.001199986708442,0.062096803392590,0.031162419338204,-0.032942031049186,0.012834015962207,0.044050563500715,0.035711294679052,0.015687690095211,0.048936831080870,0.114929103411381,0.084302970071385,-0.001445821185327,-0.000990124581783,-0.064577178093030,-0.000260094474861,0.006493994979841,0.053129263732002,0.060718919300083,0.016434971776561,0.053351245712077,0.062569459433006,0.002131399068648,-0.013663198194322,0.035310976968517,0.013580981473004,0.000978062843901,-0.026997544668549,0.012525731105607,0.083352055957109,0.109542595270047,0.091102116806760,0.026817025676101,-0.039939457452447,0.012847596680025,0.060678864427205,0.042003402983541,0.021647422981964,0.074009138059609,0.079803667512261,0.071206538401553,0.019003816838550,0.054925961724312,0.040588644161999,-0.036264382951790,-0.028170274103263,-0.018950673044272,-0.012597281282059,0.061364237531641,0.084908111444989,0.098616457874734,0.106581412712948,0.101272215835965,0.036902741008921,0.057767240094817,0.075185401242655,0.090470411414916,0.118410142505668,0.090130842034364,0.031015122572760,0.051409686832853,0.079420666595196,0.034930823069335,0.013566527811093,-0.042785791717929,0.026632948623967,0.009147442162407,-0.017178112308621,0.008987448027731,-0.018052527139732,0.080783593482389,0.041424952195007,0.026101867163079,0.067420819832342,0.041729785134714,0.021359225052779,0.004864672542230,0.068567463952298,-0.026078802097756,-0.037738804134422,-0.000311665970890,0.047508173085086,-0.007350003254255,0.017978257498907,-0.047592503314420,0.014863409802506,-0.031017230035663,-0.003888928777205,-0.030573471120897,0.043661549638009,-0.017187982518093,0.074445862059449,0.091605615647353,0.060534456685734,-0.007765630599982,0.043794261165177,-0.029193942546924,0.000502301551041,0.004564998370203,-0.058705277605911,-0.033127226058280,-0.029764362940657,-0.022683188485835,-0.042662789851477,0.046194747627444,-0.025200910456250,-0.036147256562016,0.008616271166126,-0.012083768907839,-0.005524293957524,0.030639483649567,0.013625912831434,0.052069367228004,-0.011913588616839,-0.034350821428650,-0.033138291213663,-0.015949280426418,-0.047283322236370,-0.088101536394224,-0.093711880726418,-0.094973382169559,-0.094714949576370,-0.066047369237977,-0.048467178608033,-0.039798651507027,-0.036477246182485,-0.020697618268928,-0.030216030000361,-0.039477457082536,0.047696300704912,0.036507498041924,0.018961252995382,0.018181933788578,0.021903458720119,-0.018343187836922,0.010131601159712,-0.077838123226157,-0.029343681694738,-0.053884836988198,-0.038115318325206,-0.101656613790865,-0.069448130449542,-0.041691898496749,0.038285275020597,0.039821113513379,0.034675058781327,-0.019526902454453,-0.053902432212360,-0.038281050026152,-0.008165694975517,0.005347810725827,0.051534487864856,0.015220063525281,0.024779350710153,-0.023329528998698,-0.043269726041648,-0.054075970714791,-0.093375352884316,-0.067655976082670,-0.056349648616435,-0.071474520901573,-0.000365543749406,0.008890290073946,-0.038012267934070,-0.009231718494539,-0.047400748763870,0.007875001322215,-0.035454578485352,-0.030384190588018,-0.087108326829158,-0.049424500355521,0.055670293992057,0.009470830082109,0.069233247267377,0.060151235795743,-0.008636602325483,-0.038887114428727,0.002105337904370,-0.042815649573651,0.003654634015444,0.006207420255716,-0.064573213084294,0.019101160498080,0.030142156390825,-0.018190992941355,0.046106110761017,-0.015191478905015,-0.107517599718396,-0.104628329137180,-0.127381535731832,-0.023972321621158,-0.038888713716288,0.033906576276339,-0.057452145508426,0.003543946983345,-0.007202787369140,0.011314030773348,-0.004020880958015,0.001027063628953,-0.004014826622675,-0.028145994040921,-0.032503938693485,0.025380747572105,-0.045517448803677,-0.003112984653221,0.046951026528052,-0.036581418153343,-0.052485378640275,0.001186160883739,-0.099005318116747,-0.057023393273903,-0.071768506945313,-0.041079374797522,0.037391112032168,-0.038434123947102,-0.019084797704014,0.013122032224136,-0.019062009931409,0.050349807077554,0.031696534702253,0.012990617455460,0.026374774741724,-0.035580140531517,-0.045537563282234,0.002252160746714,-0.020152178588599,-0.020824963309779,0.006762034234933,-0.010725071477540,-0.052030769265882,-0.047051405226423,0.008654106709665,-0.040760823384889,0.032551640887843,0.044506816522263,0.047737585168602,0.037477333346467,-0.042343324165559,-0.024299067450260,-0.023806250927033,0.012409360176436,-0.023953334727756,-0.036806212591298,0.015857607887689,0.012539297941683,0.001489447031367,-0.018012332051776,-0.031382474856621,0.002985760542302,-0.018301553442952,-0.017603544121379,0.040360181531441,0.037865583737731,0.040716338211017,0.009738519700097,0.080125244575761,0.017999579930044,-0.059621364352336,0.067404006250908,-0.017130249817495,-0.058033205304830,0.022850961210789,-0.004996863777284,-0.007975066745990,-0.039691403253376,0.025614349173574,0.001000129189834,-0.025117281994666,0.052936878939553,0.003313521106784,-0.003500802658189,-0.000455533750619,0.057278086404924,-0.012084184750409,0.066537484337234,0.043988830726911,0.031733580065650,0.019028557975564,-0.062209382477543,-0.000371726255223,-0.008575263780008,-0.030625406391411,-0.042604053999775,0.001976804375019,-0.003939647204624,0.013399985445614,-0.049599676619285,0.026881441987324,0.011938784175120,0.026911744100070,0.097362538835817,0.010634772734824,0.044648402032052,0.041847406416779,0.072519754263051,0.048836622180617,0.037933218008714,0.003836670797313,-0.039981554216937,0.001991466171555,-0.010225904986275,-0.014509150777357,-0.000304477019540,-0.022459122952450,-0.022313529387428,0.042669304147219,0.030713487303137,0.038313361992691,0.009568804916309,0.006699701481291,0.052260539033076,0.094349326059855,0.012013371678793,0.010854908607398,-0.050176625041738,0.002125450992986,0.038729560567751,-0.053505996384213,0.004990750216346,-0.030822224550027,-0.005858988396264,0.021054838579094,0.048437090624570,0.031068121715435,-0.015052058410185,0.018190942517286,0.032267909598952,-0.011973735616134,0.013814338405302,0.042157325451287,0.007776860865892,-0.047263656267099,-0.012912048141686,0.045329456011523,-0.020245425543076,0.050207685837363,0.027833259457134,0.017943632355470,-0.050688295077447,0.040321173501541,-0.009742098325039,0.011844231324452,-0.007605768675548,-0.003805768675548,0.047194231324451,
-0.013791632303128,0.039019383292413,-0.037556004207751,-0.039251315402987,-0.046589647908837,-0.034586887272449,0.043925209179616,-0.004381615543919,0.004568290202300,0.055999913330497,-0.030709590681145,-0.021545547846242,0.042766607664857,-0.019682229715206,0.025474799590263,-0.002695601574393,-0.041895476030136,0.031484875580226,-0.044303207986030,0.044741632303128,0.002891632303128,0.025130666727084,-0.007911594248211,-0.047153508254127,0.057549092220233,0.029024770408046,-0.015991203038609,-0.031388836991590,-0.027256888134904,-0.028360322471514,0.019589891819554,-0.040443679187153,0.038545659984733,0.050804604970123,0.009698931767426,-0.045131956704485,-0.051543522445765,-0.046055285762663,-0.022910575246200,-0.032619353049175,0.006141632303128,0.000156582287278,-0.029980683425813,0.013333772394349,-0.024865833496434,0.053070125722167,-0.003160117748454,-0.043298251328596,0.021986795677685,0.004965743500779,-0.005424504628732,-0.023307767274369,-0.034425893185902,-0.027750241650530,-0.012992015677132,-0.036794321243788,0.004752077159375,-0.017153821372028,-0.031786940933385,-0.043056459660561,-0.055169380678732,-0.037393032105438,0.040903052353144,-0.005343957833305,0.032173743524912,0.061809728782676,0.019408324180987,-0.031913148079312,-0.029567552003740,0.010524127332731,-0.021868505100112,0.016395899205236,-0.052676742009798,0.013496074854840,0.009472911210884,-0.056926088531238,-0.074920190813151,-0.051120335478375,-0.031741260125751,-0.043352619661695,-0.041059582440367,-0.035260895124261,-0.000790851553227,-0.062903009664637,0.067264072736119,0.023426215832297,0.033648087470708,-0.020589945492313,-0.036839399507596,0.039795648486521,-0.007155719379215,0.005082162485556,-0.016436477366349,0.024350191300545,0.056116878611429,-0.055765711674771,-0.000314964073655,0.012106354073667,0.044993066059106,-0.038310495202074,-0.036257249530640,0.007147111330939,-0.018231317683649,0.037395563949406,0.077096512948844,0.001869016548458,0.029199778584733,0.054468620835525,-0.011709282270501,0.040059634774638,-0.008399187315644,0.071724979185875,-0.042264038025387,-0.031857844494059,-0.040253183038428,-0.035477523872567,-0.086361534404320,-0.051731453386107,-0.014962138735731,-0.012179326706724,-0.001419810247184,-0.003075527857998,0.000784503099557,0.050212073057813,0.056263495677665,0.051299403220023,0.070186571188209,-0.011851354013068,0.054980210221577,0.078197165076459,0.001782157709299,0.023649734380343,0.014712130934469,-0.024574932105722,0.046199910095506,-0.034238178130435,-0.019307368481467,-0.019005694032141,-0.024489684422796,-0.016578796796486,0.030632774902109,-0.023659578952857,-0.023510090680629,0.033051671679668,0.047941330798139,0.014718052565511,-0.020193456270378,0.070843118743564,-0.022314985319842,0.072943826738308,0.009149877656036,-0.009787027696446,0.028411197623219,-0.042735751545129,0.048037011245092,0.016663758036360,0.053656660265514,-0.033635502046694,0.051117808208259,-0.040391664088415,0.035814399097779,0.060775004362328,0.013969050961019,0.018897148474714,0.036387682106199,0.007391127087961,0.011319485017264,-0.020214865774164,-0.011204955022733,0.045948637958688,-0.011497574947488,0.021982923488869,0.031631577907045,0.020861294146189,0.080097102153011,0.083455730693193,0.008855145601829,-0.014622270054700,0.022971032354262,-0.009943107682209,0.015418538962808,0.065481666633750,0.039550165748172,0.016630924017423,0.034590566375190,-0.030827075436155,0.013230573073292,-0.014092580303631,0.014667876114789,0.001508999795785,0.036103974889225,-0.021469029604208,0.018487788781032,0.060035523570357,0.067980050984638,0.015883193403945,-0.007211689198178,0.003764102778125,0.021385386054844,-0.024350107013988,0.054043036824124,0.052657350383042,0.066614740694672,-0.006962767920250,0.001942845102142,0.023714724521882,-0.002192497561234,-0.049693514213532,-0.073344014118800,-0.029040962540843,-0.028429716044648,0.024578920974049,-0.025569011881676,-0.011216057162226,0.081049944540230,-0.008684210657265,0.057419921326658,0.051818929281558,0.006740938232472,0.008436146516573,0.008458184019998,0.019504165305813,-0.001200901242904,0.002283618379557,0.007107709247991,-0.009192333625189,0.013989133957590,0.011064992722878,-0.003389633539525,0.087394367659051,0.044895164552624,0.018015237449627,-0.011335321199931,0.018563542102828,0.066470112926398,0.067538022049104,0.064688108004134,-0.004911902808738,-0.015181166729388,0.032168533178405,-0.000441832886361,-0.011087008873548,0.013469276056988,0.034874454592584,-0.004518070970504,-0.039641508469702,-0.036228636378333,-0.008459525894445,-0.010158094656921,-0.054083081733823,-0.046028042939363,0.032739238998792,-0.074253632705274,-0.002356660350280,-0.030561464576467,-0.026842726504520,0.031586067356428,-0.002323683844282,0.050628086921919,0.011574810570512,-0.032405227469299,-0.051659552813543,0.024659577735204,-0.016311261265198,-0.032799326124402,-0.043454272021387,0.004962010257137,-0.070525289749949,-0.070424389167181,-0.044214180429853,-0.024161157671215,-0.003156201781403,-0.098572526504313,0.000933681730773,-0.073022547453228,-0.012048675133786,-0.039772240125061,0.037239579459585,-0.020224229086457,0.041484677398197,0.035698751734143,-0.026964609478127,0.017872694461952,-0.006412670335100,-0.053810443940448,-0.020167037500394,-0.011265846469766,-0.081251455603380,-0.003329674358041,-0.040292797477264,-0.059132523579849,-0.039610399002916,-0.082599200661309,0.002844283958072,-0.092593879996773,-0.065513850611764,-0.079673617368659,-0.054479054737029,0.008039158660349,0.026469105624691,-0.013180461112408,0.005327267045022,-0.047680207270580,-0.027692122640402,0.005567521374239,-0.031619166745751,-0.075330122157218,-0.056947433230996,-0.059374778251141,-0.031399073556050,0.032556103274213,-0.027240160569211,-0.079132086412351,-0.063435009040454,-0.006091782237878,0.005959981374133,-0.065200578573660,0.014490455616629,0.035275307830315,-0.023889702640582,-0.008742248886561,-0.032913445455913,0.022587192657058,-0.038539205790907,0.038332770646691,-0.004531463507413,-0.065834919825924,-0.064100726720879,-0.045947327478181,0.057711070936693,-0.017769045020092,-0.000104720124420,-0.001796261657534,-0.073434988764256,0.021315039952158,0.006676286263456,-0.014044803544253,0.024479015687256,0.000953547619769,-0.010447095508561,-0.013685117266029,-0.027433616183527,-0.026879454785113,-0.060032376643456,-0.022338053603316,-0.039813413792735,0.015523777509894,-0.053458056873648,0.004931741576846,-0.006315608797339,-0.034230228435698,0.025294269557393,0.001191714271289,-0.008400526811640,-0.057657658204869,-0.040330552388110,-0.022810471437310,-0.014324226343754,0.004397538036665,-0.047574411852712,0.034245984218559,0.000162583698018,0.018423648613702,-0.024763356473706,0.038956379738322,-0.021871678760048,-0.032259946497466,0.024688568571428,-0.061821840886520,0.059650170845996,0.045717554798388,-0.035590453253496,0.026925902834585,-0.038652623833857,-0.045570015458763,0.000522305791057,0.031458800260930,-0.049609090556086,0.000408904095709,0.043018241847559,0.015160803966968,-0.024092057054043,0.002769542169873,0.016341426318380,-0.053123897219596,-0.033972417640423,-0.020982982791375,-0.023677502468055,0.013400443858713,0.010687268750428,0.034925819314424,-0.032079684934230,-0.028765632557101,0.012543237251389,-0.048251770955789,0.012323381786844,-0.006370602071121,0.034341632303128,-0.005158367696872,0.030191632303128,-0.032458367696872,
-0.024307361115696,-0.048842638884305,-0.036492638884305,-0.035871214479652,-0.021513679414222,0.021463040488474,-0.025400683580797,-0.022091888075007,-0.009149178880295,0.015244212086482,-0.041507314127399,0.019863853365826,0.016808943821968,-0.009927971462180,0.048061650997425,0.034117409276282,0.031919366035562,-0.015592829638162,0.021688050407690,0.035960039444685,0.024157361115696,-0.028492638884304,0.026535328269306,-0.038899792735065,0.022829200784692,-0.036109163332470,-0.027579198884332,0.042265772779565,-0.004916971355295,0.030708262086973,0.051779418279809,0.051020196493819,-0.022592076825111,0.026248957635388,0.060536018417125,0.046895533242398,-0.015028434406373,0.017636718289883,-0.037157084875745,0.028398276927318,-0.027325555239700,-0.020764671730694,-0.050841531992465,0.014615187295356,0.010465567895678,-0.030805575403528,-0.044613403083808,0.043190928474761,0.008109281568370,-0.023794832789584,0.035906606726180,-0.008742228018716,0.000482819081311,-0.012134990341775,0.054448633629973,-0.013193346930863,-0.017519182103497,-0.061507386071534,-0.021445727664117,-0.045089440721131,-0.038811730791546,-0.053334160933140,-0.051449704365171,-0.003792812229911,-0.064128685081507,-0.000903921126376,0.028068606174884,0.034860554333726,0.019253725281561,0.061182991668179,-0.029712339684589,0.024348297044731,-0.022025448224976,0.019687423139847,-0.000340912081492,-0.033607573152618,-0.034271592353363,-0.055284417977891,0.032660523948886,-0.016159231224577,0.008758000681860,-0.002474838548602,-0.031392875928797,-0.013366221781037,-0.012026004998847,0.038667389484287,-0.028522353111817,0.019451706814275,0.045414052469568,0.006240819538863,0.083556630278919,0.008458282645675,-0.036163509668107,0.022792442547021,-0.034042676947996,-0.002392360253742,0.022103293176620,-0.041940036688933,-0.054715885562530,0.018970274895919,0.033432411178704,0.034923589824240,0.011236338009156,-0.039015505090912,-0.039952707995089,-0.046698909045110,0.007968210225960,-0.013052834356596,-0.029317994809049,0.006930273858970,0.014696882723176,0.033539840601822,0.033314470239939,-0.002064284119447,-0.039802015811809,0.033871980352940,0.038861613384357,0.041114752865403,0.026751100490682,-0.050267127625345,-0.007185443143967,-0.007446919677448,0.032915053700094,-0.042240134941390,0.037455788683061,-0.032642491402067,-0.011660812439510,-0.010487796767976,-0.058132747949934,0.013604980626113,0.059730004651807,0.059191409222788,0.019306643674209,0.018068332256283,-0.007450898283125,0.036618622783715,-0.028738361569110,-0.025987213461384,-0.040698412499645,-0.039308426088269,-0.005784053737992,0.021355463839884,-0.064216454775027,0.029037076771548,0.063718512234030,-0.053965020534072,-0.067898016732497,-0.000836881732798,0.035209936146622,-0.024252033861293,-0.034404261056832,0.040578810549311,0.014892712414135,-0.002414389386550,0.065258920915902,-0.013987940291590,-0.006853651829141,0.031240972550421,-0.026826797873183,0.018696381529655,-0.059298286024368,-0.053430367126675,0.009661732813445,0.025707589492407,0.037718856447133,-0.073659947597175,-0.034951751293340,-0.062819355778471,-0.044829946326721,-0.014568989717045,-0.012793003994050,0.011517351625333,-0.033691218334736,0.065393596129628,0.008863430975436,-0.025728804075865,-0.004528601657770,-0.032099356581649,0.014557165928751,0.000518803751250,0.029868313230384,-0.027749991608879,-0.012761300171281,-0.005901095682340,-0.044948301184465,0.034501191402292,0.020342361117294,-0.067321702510468,-0.053683606748532,-0.018409120590086,-0.028220824807875,-0.064796553784878,0.002437919525611,0.005195008885288,-0.002030949994162,-0.032737156075933,-0.030417521418895,-0.015826314030679,0.022112381145314,0.039563601567885,0.029440900269204,-0.029762755597378,-0.052139138925675,0.034564470076846,0.040604345185030,0.012934156530878,0.021720777142063,-0.033598755849913,-0.067471007693826,-0.078716146225262,-0.097378688821095,-0.075135865871830,-0.074510537413292,-0.055559981265454,-0.025132657961509,0.037838396466784,-0.056970945191532,-0.015328855984735,0.054029241697088,0.040933652842233,0.003374190053724,-0.001728282695990,-0.017866838175675,-0.025127632506484,0.045170872438785,0.069612033454746,-0.019957330675547,-0.027493500486194,0.022764896226592,0.000802200431257,-0.064541830314721,-0.038522533691941,0.017232818170391,-0.030304257886928,-0.045165499938850,-0.041619947389557,-0.030575512917877,0.016147520614329,-0.051309421697564,-0.046013715571697,0.005306429274762,0.002372041637227,-0.038814818816405,0.002114478790401,0.017926679863836,0.021828064881992,-0.010634756711688,0.019861156934009,0.018362958023427,-0.014127194874065,-0.075694846479226,-0.030372636300308,-0.022689733651730,0.019472309076039,-0.001956660723112,0.025892960604049,0.045683001778177,0.014046107437502,-0.034294737370860,-0.047720840772740,-0.023802103757993,-0.044243099310044,0.011969801626751,0.036691242658320,0.076683424173427,0.014913314580808,0.048379253046558,-0.003236143673313,0.024262428564363,-0.029461629856267,-0.003968764883008,0.014342707990243,0.018170433231165,0.057076838541876,0.024644007197619,0.022843827849680,0.001373344959482,0.014929184003944,0.041159446078863,0.027357380646591,-0.029173437906009,-0.032600648378661,-0.016517675948493,-0.027625002680603,0.051403331710135,0.033430040632974,0.016203387806178,0.071941291798081,-0.016517127625063,0.052453462306989,0.027742996349326,0.024179200044838,0.055549852033040,0.039124618668304,-0.037705088020161,-0.017704847878126,0.040561073477115,-0.005162647654627,0.003318122353330,0.042229469840332,0.013726251973121,0.019288323350495,0.006856228541531,-0.009310864638632,0.063043843780243,0.008320791549375,0.007434384429504,-0.016852728593660,0.032802580855504,0.056157153784343,-0.020697430106562,0.037743000011223,0.023588624769686,0.035913590057324,0.003989522310143,0.011548813772243,0.031914767998338,0.010498881514521,0.032918794904694,-0.040701574977503,-0.037463941266778,0.013988323350495,0.023878199578318,0.046812951932923,0.012079359136333,0.009854672026515,-0.069671005634530,-0.049709838990330,0.047982601039757,0.040186047442398,-0.018185636721265,0.001518615814894,-0.019577005815180,0.036706090464504,-0.043212400717644,-0.054994485072643,0.043190528707286,-0.015437609653206,0.003053135045524,0.026260972955412,0.008278055514044,0.018120891402658,0.030811650499073,0.014587339781671,-0.042066693044134,0.040725224619285,0.031167660144150,-0.059921744516087,-0.045209214013563,-0.047354080272485,0.016168067365125,0.054354148401574,-0.015042054731010,0.004553565474260,-0.008073609608861,0.020253039210529,-0.038705491864641,-0.031433324745643,-0.036406557303621,-0.001990971865516,-0.006284860446276,-0.043214732478915,-0.021148123467295,0.030938117091908,0.016330455630057,0.028324456691195,-0.014200513816191,0.036413221323613,0.012430021364168,0.050216487340283,0.056733769994110,-0.006873783678936,0.019746422667720,0.017544662148656,0.012598036421837,0.001869889972526,-0.043030174171040,-0.055192817687997,0.010272375751643,0.030563344232908,0.041175394596303,-0.023509524963737,-0.035128103269908,-0.062898157615884,-0.056263253733935,-0.014097416337845,0.044867198610400,0.027884290474668,-0.012828454215968,0.019268658397388,-0.004373630595447,-0.013172334125497,-0.011887513107766,-0.051156428471835,0.004122126390828,-0.006497986393778,0.019592260761017,-0.038142638884305,0.038157361115695,-0.030142638884304,-0.000942638884304,
0.006430210103402,-0.017690987930927,-0.024790598077557,-0.008848607412655,-0.038424897243149,0.031656269679725,0.007521032698418,0.014476115007707,-0.048621310952363,-0.027970183687002,0.025569268665435,-0.036468346370843,-0.032498243549450,-0.052266273721093,-0.030352565564390,-0.044734320277805,0.034034432853666,-0.048422510434770,0.036653994121726,-0.048411024933381,-0.017680210103401,-0.020873122300047,-0.023395137253381,-0.021510192140048,-0.032924684937429,0.015399107267017,0.032916486678485,-0.068689450898930,-0.059043465306212,-0.003931629486767,0.062909661952463,0.001301478442469,0.014375814463391,0.017026410242187,-0.025481507814443,0.015061397896959,0.023989019398434,-0.043815297449865,0.039799099017365,0.021462531301485,0.041488485335991,-0.019758606667577,0.021875134388517,0.006526000847327,0.035993053501878,-0.003071661205831,-0.015025328505077,-0.041825641232699,0.051804991688969,0.003120850876371,0.018483989865692,0.006752843405697,-0.065508839095189,-0.012803042550376,0.016471245509140,0.016471817558670,0.019453847482797,-0.045625195861628,-0.033295063465873,-0.001907450739902,-0.027750863515385,-0.040955614541995,-0.024547803858650,-0.043368549831918,-0.005370269255335,-0.070003812316357,-0.017733899365193,-0.038074354101629,-0.033627863711524,0.040249690930687,0.017452289130394,0.001332314432534,-0.039149011226696,-0.072901200187155,-0.069323410464065,-0.004553176200798,-0.025302841845278,0.002969809549971,0.038605195703657,-0.043436981072972,0.022518589720240,0.024654878400535,-0.060277620519622,0.020356415017891,-0.037597804482908,-0.066943522588805,-0.043498939481768,-0.086162259422398,-0.042099668379275,0.061254996602564,0.003126098693093,0.027515776490600,-0.086863782879402,-0.035855130430010,-0.107020521408654,-0.030952017491313,-0.034577929969679,0.029050760017461,0.032381111789650,0.013078082201491,-0.014767143603407,-0.049742613605305,0.012805620935229,-0.053010749375694,-0.022927484519059,-0.090365430356364,-0.012251146263450,-0.050986449162568,-0.031412578554697,0.001143026449504,0.009662160619928,0.021883298957155,-0.001821750854867,-0.084780905902044,-0.099418864522609,-0.070880423061016,-0.001861869340078,0.020319135096553,-0.017482886987970,-0.047493472721902,-0.026276408630144,-0.001645353898980,-0.033013853436604,0.035114744393359,-0.064072078878459,-0.093630637564458,-0.012308996007418,-0.064285004014718,-0.025595565958370,0.003098422477213,0.015028853669424,0.020950306773333,-0.066781787175230,0.014273533902581,-0.046205068363463,-0.041013789265988,-0.057372422598647,-0.057554897176335,-0.023486867403394,-0.021047112313003,0.019245919248584,0.026361040929324,0.042633607793444,-0.010809100852340,-0.065530494043164,-0.005728786698213,-0.079940743780246,-0.080670789509542,-0.056396224168024,0.023035577357582,-0.020515173600540,-0.042619399690715,-0.027960881172970,-0.005926724486028,-0.039542170143794,-0.030142987989543,0.024045528399769,0.062686121621512,-0.032398690689332,-0.032032476362341,-0.011775964755107,-0.023626938925904,-0.013056584054629,0.018501884593154,-0.028917793026242,-0.037781842059262,-0.044932764230643,-0.076252031102456,-0.075501690150758,0.045144524045493,-0.002056515760663,0.029645547230094,-0.026125127831044,-0.012589827180622,-0.006407819198375,-0.013308553377064,0.046805844114362,0.037026370053576,-0.011169801615888,-0.012110141038624,-0.022877715376446,-0.015823929102003,0.008466908176589,-0.018828497125511,-0.054169477927316,-0.071992851770119,-0.090459419625734,-0.028233392858113,-0.023829339997079,-0.021060433453707,-0.012717534379198,0.030080572024501,-0.009980210311681,-0.026423945581174,-0.044781791809570,0.041016139780470,-0.017541799114050,0.002563254838955,0.020521191744040,-0.051792396603671,0.004234612757450,0.013958753447666,-0.021014913215861,-0.039307185340306,0.030846322994048,0.020882438678315,-0.014434655434443,-0.071541156697851,-0.018685342727318,0.007070547573301,-0.015687782587640,-0.004551696725455,-0.011951450376350,-0.025933175077535,-0.045862680827813,-0.032378986380503,0.040080884117428,-0.024443132185651,-0.005825964713960,0.002329335052977,0.017268102571348,0.016197139493723,-0.068058010025620,-0.052572188160596,0.002836743761810,0.068385263593866,0.001245831505800,-0.037291104892777,-0.063044983862891,-0.073927069376187,-0.036849755662011,-0.012415428834539,-0.033096843572613,-0.012007707506301,-0.012350631309652,-0.047836699002791,-0.032223300377713,-0.002758435676780,-0.035962317433314,0.026817127705527,-0.051259073982331,-0.061804207726825,0.037022487134035,-0.011216214172364,-0.010183729776510,-0.030513080683657,0.020737723325758,-0.005683744345124,0.024292100058994,0.008631645085178,0.067868000386880,0.062829813220648,0.008350583051497,-0.008885962422311,-0.014630300889713,-0.040296442763350,0.029239818657869,0.028418688375558,-0.033723706497273,-0.037058437936410,0.018786254900606,-0.058213220695829,-0.011769768675741,0.006687238299329,-0.022097054779184,0.052652634426529,-0.012863910985980,-0.020385967263473,0.003529477328108,-0.030258219722986,0.060118584930257,0.038933840035676,0.046392758162186,-0.025681678467023,-0.055811458279885,-0.045280673182562,-0.013426173249809,-0.045495658416972,-0.009344525259591,-0.021948633212870,0.011738654713796,0.041531077050336,-0.019027322029640,0.044580606094179,0.043569040743239,0.003316795046395,-0.030032487970607,-0.006179704936507,0.020481480095650,-0.028136323807668,0.045837195665006,0.014954617119386,0.017964734008329,-0.003893023269308,0.018581018235236,-0.034431587226617,0.031412793741906,0.029428603314297,-0.007992601964776,-0.022591104073322,0.026239621842929,-0.023172702267264,-0.027938960875847,-0.016161142297199,0.045168944398698,0.025610878554726,0.012302406011148,-0.011565533232963,0.004410376927685,0.025091752680137,0.047426489713082,-0.004112120090966,0.042397810828229,0.046494651915550,-0.061300581642150,0.045301668050027,-0.020293910052517,-0.016576185903570,0.044057484247585,0.039471189720401,-0.027856157383483,0.010299125631811,-0.029095854870334,-0.005191970646892,0.010060301348743,-0.011577268357292,0.020792097255689,0.025291449426344,0.025755417210321,0.023977836509007,-0.035568272896869,-0.024845706501269,-0.009021670898893,0.011428589726784,-0.016046520680141,-0.017836039839644,0.023470879488968,0.040972422625021,0.004351158229207,-0.027714233731150,0.025525308255804,-0.011302284768110,0.014019130877952,-0.031661256955803,0.060874294009877,0.022866430165521,-0.030374531108878,-0.024385887826622,-0.019337246365673,0.000540569925561,-0.020637268915966,-0.011376712686707,-0.050916280799916,-0.033428407716624,-0.044246113179395,-0.029974562232435,-0.034783396692301,0.055572251080964,0.055524206433783,0.048526350201405,-0.029347857971434,-0.024703000101519,0.043139179957199,0.036417143289036,0.049483913076875,0.054421070682189,-0.004775263759291,-0.010609643146436,-0.018721530423779,-0.040386641412664,-0.038163330806422,-0.050272681727669,-0.012633292240390,0.021959205786823,-0.032763834297783,0.035663132000757,0.031926863090496,-0.032545708130601,-0.015496453198678,0.030811464000007,-0.022538186982622,-0.006549563224063,0.048515617924497,-0.036211277483613,-0.041513544180082,-0.047708047784255,-0.019262816330552,0.041204910960177,0.016219719340358,-0.030785574946052,-0.073974888231543,-0.005293654235347,0.000747314916796,-0.059519571231525,-0.001181391594529,-0.043230144342371,0.010619789896598,-0.001930210103402,0.017319789896598,-0.046580210103402,0.041319789896598,
0.005931619611251,0.026529319148376,0.016539065713706,0.016684949944499,-0.052312220829595,-0.055676212001425,-0.032233523381456,0.015451309175726,0.000003023863338,-0.038344664261845,0.008802308357799,0.026171852027977,-0.008281628132010,-0.049327344040138,-0.025185282592498,-0.045718357107610,-0.009054143080448,0.045744516355477,-0.020336492233266,-0.042367088800738,0.037918380388749,0.024868058909221,0.017101273127892,0.007750017608405,0.013073771732677,-0.001499725211608,-0.008642764265492,-0.085355766256325,-0.080673436914108,-0.038912752942348,-0.019014652620369,0.031062049155015,0.006996593874385,-0.042620744046222,-0.029679165156534,-0.045520838638413,0.025601273019028,0.000417976345931,0.022370846809349,-0.000526787951670,0.038375612318991,0.037501273127893,0.023864196761360,-0.061386000682187,-0.049835340438374,-0.069186509697681,-0.078798710152616,-0.042518620460345,-0.043019682609533,-0.014483911565043,-0.010655382168595,-0.045496985306236,-0.039543401887211,0.008267244072822,-0.062772547968400,0.016801823900735,0.000470804681463,0.028121639858143,0.025296097082685,0.001199877475928,-0.032170904889075,-0.030761035255003,0.024952860399632,-0.017524045449380,-0.076903912559716,-0.087444305443930,-0.082018413786121,-0.025543753641848,-0.059702581915713,-0.025715857954243,0.002797214269893,0.011296646459365,-0.025714115231001,-0.050792419806190,0.021094704494632,-0.043780979891789,-0.043574371310574,0.056516605511657,0.024452846164598,0.025714639120429,0.019283847643681,-0.024939201919311,-0.022430296409856,0.020573177441865,-0.057180467011426,-0.009116198559740,-0.065419463811164,-0.040308545000613,-0.009393015223662,-0.003100546472578,-0.012821268897783,-0.032658544822006,-0.031041319139461,-0.051432590888038,0.003193296586117,0.014076867558731,-0.016351656312507,0.050189500183419,-0.001505498624542,0.003266608003455,0.029305861397767,0.002277795539861,0.021762059940461,-0.032674623632231,-0.040371685899483,-0.055404265498543,-0.052421209878176,-0.027806770423795,-0.019085535832137,-0.006020028587777,-0.078515854640750,-0.045667433641850,-0.035335226535230,-0.053901071326355,-0.073201847350930,0.011191143956411,-0.069179392330889,-0.018087773399518,-0.043067337586552,0.053291453662173,0.038723444389471,0.034708382647963,-0.041813133829011,0.001564669557754,0.018233744789155,0.015103982676413,-0.000423849726943,-0.066225001308876,-0.001143441888152,-0.010562326292803,-0.082417319674516,-0.045751845794317,-0.114140374949940,-0.066006025630959,-0.064354332463259,-0.086183539822238,-0.025542040137792,-0.072093221038149,-0.037438125357506,0.020731206402074,0.046013532449056,0.037760586497821,-0.028929085787672,-0.033372169445692,0.027180463558793,0.024109758769322,-0.034360120421586,0.013768980487320,-0.060186472661638,-0.055476566420677,-0.030054722051574,-0.061707316370828,-0.000958366577888,-0.075701974125485,-0.081606900713746,-0.024001384183468,0.008247955422404,-0.012597661842832,0.017314678389371,-0.010677028724060,-0.026848731915391,-0.016134777470642,0.044915090558741,0.040448142121109,0.045986616087530,-0.026338431706347,0.037506807943153,0.068019575208862,0.038021611772000,0.071228810011373,0.032224774928633,0.039325908142881,0.003003695744413,-0.047319383300571,-0.015208660633190,-0.066031104407680,-0.075815958209110,-0.048965141564667,0.036854802417791,-0.002002583581392,0.032216508255257,-0.027260387065523,0.047621315935569,-0.005937893262995,-0.013925623143956,0.039330727737962,0.068231784100868,0.020483106700482,0.011448254484980,0.064511694283975,-0.025404229583355,-0.007104974189117,-0.029732614524194,0.003511207491625,0.022098778259515,-0.024543704185945,-0.031576346858093,-0.020220029238954,-0.015740227105116,0.019065413388645,-0.006542236227728,0.051411257219528,0.037840992840974,0.016684950283132,0.096359621112365,0.027370937130024,0.018479139928602,0.078524830338265,0.065279793881701,0.107060416587913,0.094420653399716,0.090079126159852,-0.021913718452881,0.057106415037491,0.021042336714902,0.062332016913787,-0.004695290467581,0.035209233270596,0.006630284063591,0.018409871476779,0.003236096704920,-0.001095328552071,-0.023304193100973,0.082632078933455,0.037543047251857,0.067659080993706,0.062377552663912,-0.006876699421740,-0.003767745463241,-0.021775860719723,0.007563780128883,0.027215896357738,-0.000245972742490,0.007969002232167,0.057895110056771,0.011982864664635,0.060351957499683,-0.022241490193146,0.009124620258027,0.045727402493222,0.016623775473695,-0.034415634135627,0.000482771725689,0.071360219801638,0.006111756535528,0.038876944015623,0.048094312053908,0.069242140567050,-0.023004584888445,-0.006063171159551,0.026659301549650,-0.011984368991481,-0.047606690100472,-0.024959711598330,-0.063183622153011,-0.023635859379500,0.037494768247620,-0.035865362739390,0.020790832536594,-0.037563558328884,0.020872707568963,-0.013929541257109,0.018854052239607,0.021572983954378,0.004891115134850,0.058232469311371,0.037236881996808,0.075864845430390,-0.004348502792708,0.017950403830691,-0.005925841827492,0.051106353088065,-0.016856192697428,-0.057846962504724,-0.060752481993811,-0.021584108528829,0.033000209767240,0.040209515556999,0.003194396845098,0.033108271182164,0.024127753978766,-0.012888657778207,-0.046312330500178,0.055384699653604,-0.015731939191830,0.021601687077165,0.048576094879423,0.029681408347276,0.013145539383639,-0.054347816129936,-0.005707939055881,0.025232802383844,-0.020382828893039,0.021209382276369,-0.029348462046767,-0.046573252886049,-0.005218347438600,-0.044937663380945,-0.024902763548546,-0.044969331613238,-0.008888531549119,-0.013850577287739,-0.022307089386009,0.002589613741658,0.022611608250577,0.031415077640292,0.058260407145904,-0.012438991500310,0.016616035359382,-0.034140142919287,0.029021656471532,-0.075063434755267,0.037097353883693,0.045536116423138,0.027125954131990,0.025540812553828,0.003756148943236,0.004218703955105,-0.029144277785308,-0.009696974324842,-0.058877214618636,-0.029050577287739,-0.022380556905377,0.027053954154456,-0.054837587441309,-0.055379478923578,0.028242883057442,-0.007550975666204,0.028947949740205,0.024918162733078,0.042611504879670,-0.016663274325585,-0.016417631657845,0.014946505999629,0.046623335384359,-0.029653398196344,0.036715238228815,0.000925761528363,-0.043897051858750,-0.058173458961218,0.010907324717811,-0.016512443572424,-0.033801783662432,0.027210251036295,0.006972056044181,0.034008479253575,0.005028066226994,0.017637850179209,-0.019687928695209,-0.019455361776311,0.013099524732395,0.011414357085301,0.023165266730308,-0.035360919187796,0.019094533659080,-0.027929353099077,0.018625597642873,-0.003180722376958,0.024787027610177,-0.018082999392200,0.026904495981743,0.006462813700494,0.014865195662141,-0.008225186718582,-0.015269247803799,0.007124989925380,0.021996768862649,0.043946657031826,0.038143776035078,0.063118082457723,-0.008173553711351,-0.023370149903720,-0.014182375734066,0.002142353699224,0.011307384250852,0.020880243381896,-0.010463971881400,-0.000543501096769,-0.027645376575294,-0.030249168008731,-0.025990249801511,-0.049141641045467,0.005328862514382,0.042044110004650,0.018235267576824,-0.040157158155489,0.010153700264770,0.039083096114553,0.011501484090398,0.011208370484395,0.030746511748004,-0.026944704741678,0.031570714752576,0.029219229158358,-0.017324735947973,0.006403180089108,0.031168380388749,-0.044631619611251,0.047668380388749,0.029218380388749,0.006368380388749,
-0.007588213642367,-0.020798321783192,0.024914201769569,0.022866272978782,-0.047578347625365,0.025772346014841,-0.049608612113943,-0.057975035944267,0.004853848691275,0.006111232246120,0.010520584162259,-0.012485923925961,-0.024469917909983,0.011984797755331,0.026569397206594,0.025394732081243,-0.049275756699383,0.002589489583473,-0.011775968519467,0.030620087404586,-0.050711786357633,-0.016739420847968,-0.007003408912290,0.019467573984751,-0.021469291706259,0.024520957799023,-0.027632771122225,-0.045179151295720,-0.017368376154553,0.044897289751947,-0.049034065562817,-0.034680702361954,0.001824585389619,0.045493126939261,0.004637391117671,0.023754052803585,0.010463147015070,0.034897754950369,0.029389450308452,-0.018065261249557,-0.021474799130334,0.011776233466481,-0.038996293685200,0.036348636001269,0.023411736084686,-0.019689356928373,0.007498818822604,-0.029402321554455,0.047521913575015,0.057881418966209,-0.021325629238976,0.007361405878873,-0.038074574073600,-0.010163407534011,0.050399679896849,0.025263874118835,-0.040453769691285,-0.041311442494571,-0.047125700316185,-0.062528296185435,0.000653945331530,-0.025115881853566,0.007434529337408,-0.048092961542840,-0.007630048856840,0.010948930710146,0.009925008699516,-0.034021928433235,0.013399426429985,0.030016041533111,0.042923571572690,-0.033216470494390,-0.016384335793364,-0.034742657737526,0.016306469703974,-0.005407965167119,-0.057142468391557,-0.009266175924669,-0.010988618156019,-0.012135472490513,0.003908780135798,0.042873946913232,0.034514659434485,-0.014363671136875,-0.027859909968834,-0.045756577739519,-0.046513246442183,-0.035427093576760,-0.015847271463950,0.023614746773376,0.008101660473501,-0.012408772730571,-0.001197088439321,-0.001300483165884,0.003384399200772,-0.058812174335739,0.012307606059852,0.023538954828826,-0.062628203464782,-0.025848990933518,-0.001111741329772,-0.016464472670290,0.035157225560759,-0.039445243917486,0.002973232146503,0.005700398552249,-0.017072775539946,0.045950538972074,-0.005148933751940,-0.015497588925120,0.019561490073182,-0.038907266799219,-0.059942897812284,0.005329997748095,-0.050407150510463,0.037240781361170,0.041217613293089,-0.037606070912460,-0.049094237932727,0.029592632125791,-0.033188134463724,-0.046626520773621,0.025172286097835,-0.004382314772554,0.032455953556817,-0.025106339189116,-0.030462380548266,0.043273692216540,-0.051826688189830,-0.004741159910003,-0.025744054830408,-0.036302685941763,0.032153509003955,0.026955748551915,-0.007615418763608,0.007260598553490,0.000113532998499,0.028322792082211,0.002658582968974,0.003645988390461,-0.028464631493477,0.028453487187711,0.034391100854938,0.039018815954530,0.019962511928741,-0.045061038714062,-0.033434708086441,0.016441291814514,0.033616156312028,0.026254186636028,0.040722584489900,-0.026646212461778,-0.003597964163264,0.074414241373000,0.043153304586351,0.004446794301395,-0.003717355276393,-0.029354204787174,-0.037619941587892,-0.007157254129325,0.007128795911309,0.020563044659203,-0.033942835917667,-0.039413886379579,0.032448102959188,0.006779010269644,0.041600528796882,-0.030660437116464,0.014323460847394,-0.020714249335016,-0.060831956908752,0.023295918848674,0.037651310405013,0.024824036500129,-0.005205838542026,0.046150276899512,0.042958302636024,0.045750366271084,0.024958646092805,-0.034306128845920,0.030288213642367,0.039801735346636,0.027617287241262,0.006723203810222,-0.032693248321894,-0.031473331444155,-0.014275934182458,0.014235096289005,-0.050168538091203,-0.077428651308444,-0.063826997019829,-0.000359015597553,-0.007193711962480,-0.043320419700348,0.053172589043403,0.064341192414228,0.041683424162404,0.015472442633151,0.013106148552329,0.017793140971415,-0.020469330149465,0.027934910396477,0.028120499881191,0.066050182796915,0.003429712243137,0.023663137275309,0.006864977509944,0.004547688026672,-0.006176906598241,-0.049765734218332,-0.084746550241126,-0.066637025976549,0.014668068893089,-0.024482100176406,0.025037817442888,0.035392829527111,-0.013480818822812,0.044024767314813,0.020950528316828,-0.034257878757112,-0.012590378563297,0.026727196091422,-0.036806096243465,-0.021767243858935,0.012948019707384,0.051578162410788,0.008784039665258,-0.036384330596555,-0.005422726286507,-0.005194963268506,-0.006005814334390,-0.024035964926058,-0.037018804241148,-0.025236696549109,0.055916326939148,0.033822340883884,-0.001168877407797,-0.001172650806768,0.008237052692830,0.041126632645733,0.006162160885152,-0.029640680560983,0.037387351273871,0.059468207392428,0.037651856195003,0.060418134134573,0.031846618386138,0.005179360129735,0.012279820721542,-0.073082329439311,-0.068826217309854,-0.006775425378102,-0.003316825224439,-0.026811954975437,-0.017585681241524,-0.041059206385769,0.026626369688275,-0.000453047396249,-0.045348684409818,-0.005910859417375,-0.020334902669661,-0.054744408926077,0.018013253698281,-0.019342684052845,-0.003536103866399,0.022807590375830,0.056015415466879,0.057495818310430,0.042358408878621,-0.037626134280136,-0.038107236414883,-0.045548809619208,0.002209813493630,-0.020918567524697,0.048692739839909,-0.016308138447718,0.011437853638257,0.008689651565336,0.027069213450695,-0.038788167508131,-0.049118244600182,-0.057363114373832,0.014799815881888,-0.021814045829881,0.057885689079116,0.074914673715492,0.060544418272644,0.030667751386920,0.014209221001952,0.069580086062520,0.011406806113537,0.022264563145889,0.058092135578481,-0.017855111159847,-0.029930992358017,-0.048131521109084,0.036146965275926,0.046754739902802,-0.043247991708707,0.040858463097013,-0.020452225737536,0.036533968171272,-0.026155417393375,0.019661989156269,0.050547651251899,0.011912680287088,0.012884793840480,0.067975733918925,0.044124128319596,0.068802330122092,0.047690447664956,0.051466334646138,0.018833429728983,0.056422469193621,0.010918105456960,0.002977294967136,-0.058795836445865,-0.017963380182961,-0.048037139039076,-0.020385643346877,0.004236935540261,0.041990189552355,0.009179804149108,0.050940558953911,0.055107120183045,0.005899262530303,0.013135232843024,0.022135432190522,-0.001713933604241,-0.039488989540558,0.047611293280448,0.048685515927917,0.008152633989038,-0.054650717296155,-0.028047425692487,0.028492746670206,-0.004506506821232,-0.027663387827462,-0.051903721234691,-0.050676357792611,-0.053232127467261,-0.011533862413649,0.026813149703671,0.025599166155508,0.029742739337251,0.029175300861194,0.017507973403509,0.038131123712565,-0.018061944072203,-0.007868959207498,-0.021358314949731,-0.009494531842208,0.005168976842134,0.035037912460123,-0.028274958071831,0.022070065035404,0.026560958894058,-0.052573584550679,-0.053609224589838,-0.032038793214413,0.037877710723073,-0.017112517684322,0.040276841390219,0.010169003779387,0.017543658785051,-0.005525118429871,-0.012198932084898,0.014098299850877,0.021436754062158,0.015586483629311,0.002637551344564,-0.023850808760298,0.038068970936907,-0.005064496150606,-0.027514349990612,-0.035647995934053,-0.043176241325355,-0.007356447684546,0.014787290410071,0.026308565368062,-0.052828810538067,-0.000583458684706,-0.055491378274678,0.018660585412142,-0.034620544647029,-0.027626363446244,0.029969293298053,-0.050133645122909,0.023303292887931,-0.048421751000959,-0.032003969556712,-0.026353902120472,0.001643637946750,-0.056700030247987,-0.009239751841250,-0.040468718289259,0.032584351640024,-0.032561786357633,0.010688213642367,0.020288213642367,0.042488213642367,
