0.057274062731421,-0.018501269275497,-0.085855949378498,-0.122873388318646,0.113546728303038,-0.007827964108609,-0.122727319685355,-0.094680732504230,-0.097908137706731,-0.134196111661409,0.277097935121755,-0.103930931928924,-0.125341346428600,0.224526023575752,-0.140494416082925,-0.055492192499388,-0.053484234827767,-0.069855037897446,-0.088385288699337,0.140831131071572,-0.048908053720951,-0.117186144717215,0.002960222842277,0.220220931392341,-0.120472384277499,0.024855492200926,0.119364892449856,0.249436304675781,-0.057942392616624,-0.053423817040257,-0.166684076131752,0.264510583002981,0.002172486066754,0.239331821613031,0.004540739435689,-0.113203884530535,0.186614357134214,-0.067188910300976,0.001977156141934,-0.122476151295286,-0.166731159615216,0.073382895070962,0.323423447001173,-0.180871326854316,-0.153782187172429,0.019504306484962,0.051742420876487,-0.143696640056305,0.092721846736093,-0.013993197662389,-0.071788054511578,-0.119085047012922,0.067595863970527,-0.063998409217007,-0.062743461738428,0.096460170303744,0.091521947877568,-0.030738239532217,0.019438113950798,0.021699163306437,-0.081535016102656,-0.083838576346589,-0.128465669903295,0.028922376237600,-0.026996947577404,0.013142323264123,-0.101992313770137,0.069107764166110,-0.109789716437812,-0.168834114914515,-0.118693078903033,0.002357791960532,0.032458050333726,-0.008254379478467,-0.032893067227725,-0.102100084417608,0.009035363982336,0.012395623908260,0.015865160535457,0.024217142992084,-0.010953566416045,-0.126083607155934,-0.088640085554673,-0.007639142860654,-0.049247180985997,-0.095095154235249,-0.079091839676215,0.074613114162464,0.145014117690735,-0.062977838559963,-0.029587675355775,-0.084635665501165,-0.007726281770871,0.013472557549509,0.190863156764836,-0.073064475384015,-0.066017412810306,-0.091324466312607,-0.126769200786388,0.049466241481670,-0.088825911204393,-0.081733864561431,-0.107798883090866,-0.109565713367671,-0.042716497380821,0.132067062266253,0.059880099136722,0.300297122143321,-0.012676156851808,-0.071482413190126,0.014328724616973,-0.118853028309097,0.279932044942001,-0.026648927182350,-0.019993724849491,0.009605645835083,0.343541507363289,0.023431836258231,0.072919351899004,-0.077663730724224,-0.034988211208161,-0.154450603734635,0.101246306093239,0.007405454105296,-0.109613369265785,-0.132355675289945,0.275649982388021,-0.067516995925965,0.053944097456445,-0.128332039169155,0.178815947645435,-0.032673433517646,-0.176864680486168,0.090303549913381,-0.078134577634535,-0.047066183571637,0.046730475989195,-0.090270054194024,-0.038366722039565,-0.075227942639651,0.108490708445544,-0.097847279672548,-0.130297975751892,-0.098253304833343,0.061799915375042,0.010644600472112,0.224569848910042,-0.095494552833446,0.074544539893677,-0.027076769476991,-0.043626429053379,-0.101540443706611,0.072897085381703,0.014001806533574,0.026745780426898,-0.122499749917388,0.140092126652099,0.325850258313972,-0.075648817098251,-0.035620600667176,0.117872819309763,-0.045405519343558,0.076808184914062,0.062697210866467,-0.054137124263515,0.012027702522368,0.217835310595091,-0.088296619033624,0.012254512305604,-0.045037208589221,-0.186824943768554,0.081323515806156,-0.003043682686198,-0.051810437840290,-0.100114594555556,-0.045295338898035,-0.073794597560438,-0.066092986692308,-0.168418244245867,-0.051361745167020,-0.114419395158891,-0.112411779384654,0.079981245410513,-0.033794138530286,0.006547586167737,0.342093474474008,0.105045201939088,0.122500385788812,-0.106938924374187,0.151850383067489,-0.040907801837302,0.032028072049297,-0.074671783786025,-0.006110837331783,-0.127600440253945,-0.145152003977784,-0.039912581218683,0.005379308689681,-0.088999956977145,0.333459096820710,-0.014512540411198,
-0.021332551870835,0.030573951156126,-0.056917741969669,-0.046268230624674,-0.114757276392406,-0.049446362294144,-0.043561353895349,0.054312015981767,-0.160673736123413,-0.170544946255348,0.001201493019137,0.220048641475770,0.027246177794008,-0.076695635353477,0.009982744456540,0.002366899791410,0.040150299514036,0.097730024994917,0.077637979484405,-0.086514437486174,0.066192789818130,-0.049911120619600,-0.097136097459616,-0.107646512164826,0.208083988015170,-0.120181430856230,-0.021756729932350,0.027351626807223,-0.084557672396459,-0.021533950985761,0.163176889618556,0.194411248788191,-0.097673435485851,-0.044092756482396,-0.043151273434310,-0.094788566454194,-0.052812471496726,-0.039477260945156,-0.041935681305923,0.064436418732413,-0.064364059000935,0.004557731586032,-0.098340383943153,0.077510785883996,-0.140115597511921,-0.012124901625047,0.219800395292352,0.198528327310663,-0.189097289220539,0.019673845087491,-0.094571390533604,-0.035146519800975,-0.044211043583174,0.087800556659355,-0.134001950933202,-0.073520710603187,0.002926215783939,-0.145790000534037,0.032434456072762,0.016798789569737,0.330440531422967,0.040061157582275,-0.120671299718504,0.167435450062426,0.118445548636323,-0.013369926181484,-0.021963446572890,-0.011420336423501,-0.111992440148071,0.189977983287970,-0.073015816165562,-0.025900505431338,-0.100779226312922,-0.038041665128125,-0.160971519751809,-0.030579523328177,0.034930156572123,-0.014152543275231,0.056546545846671,0.051225487568319,-0.053175747275164,0.089398156207772,-0.060509623879877,0.049418923692812,-0.038706532666249,-0.137417064483516,0.057274625087217,0.020870885508820,0.140032612565086,-0.132639558438624,-0.070073670616134,0.031624282831886,-0.040696073526116,0.061952119535321,-0.216683125700640,0.021160149149414,-0.014690219393770,0.327393836557117,-0.135645637154654,0.039263104626166,0.052444697872058,-0.101180667864837,-0.009265137763642,-0.011213656781283,-0.007858637685733,-0.075566466058472,0.034019037065480,-0.072474765115569,0.001295709350675,-0.015676631546113,0.024250749086008,-0.077310527957393,-0.105471075956193,-0.016098985290968,-0.007246283831509,-0.002507871465022,-0.045661363557066,0.107714247742959,-0.083768003964366,-0.066725359538154,0.065410520654864,0.215865846306895,0.148031304196712,-0.032870842185142,0.196021503764806,0.076441000736930,0.179439702511015,0.138513633145910,-0.031093887299057,0.246358324239380,-0.200210142395798,-0.140108929326059,-0.004469170966325,-0.142551822452354,-0.059340637679663,-0.123167485887367,-0.072558255770626,-0.153066910184075,0.157003040566980,-0.058508347300225,0.033359725570150,-0.096235644163649,-0.087296416769427,0.003737034309129,0.057889512968103,0.076776357281258,-0.135594296428939,-0.043316910739482,-0.131550437280685,-0.022117533128133,0.049078778509670,0.035668587996464,-0.037697199449743,-0.050093901715941,-0.020230202162756,-0.200062800996280,-0.124249989766607,-0.081615923327794,-0.186733906598348,-0.045127810991783,0.187659405540474,-0.228153050174631,0.028099849727772,0.123007134263825,-0.137011039239623,-0.152263339817242,-0.025134242461588,0.007652290105892,-0.032607101475220,-0.162028715524487,0.056628381133864,-0.073420228323477,-0.146681387076539,0.062973557584513,0.196137909062276,0.111217352512993,-0.097343591319536,-0.003225548449009,0.058935741566920,0.116255645106951,-0.122195140051960,0.054490389998888,0.108587498962894,-0.025730228278261,-0.039033146814717,0.151137604209187,-0.125236129085772,0.230271954486387,0.339449541280168,-0.102880145750504,0.038344863501471,0.081068448540653,-0.121420649004975,0.054075027843961,0.007329136850417,-0.061031023331802,-0.155608329880814,-0.099392372356181,-0.048280152645995,-0.047933799071935,0.116170150780961,
-0.007776975135851,0.055932240478429,-0.002231518608587,0.083152918676888,0.045411331754923,0.012432367609279,-0.062309705938113,-0.171799872151358,-0.080226276114527,-0.046503637297134,0.159443747174056,0.040332910251313,-0.081642067637481,0.017946282598729,-0.114134403891124,0.150232211158884,-0.042010410617549,0.233316002820292,0.216930854512644,-0.068067456458848,0.063345818380754,-0.109781181526104,0.011258215399297,-0.037529081194629,0.030722349729840,-0.028000774246183,0.066311627774245,-0.109970159823522,-0.037171917053044,0.063219180961857,-0.130748361754853,-0.026133387286025,0.009659972469798,0.234014977777540,-0.002636293066938,0.199529847182616,-0.144039701210280,-0.142658105904649,0.183157056191408,0.051286484640945,-0.158404844601181,0.186756808843473,-0.135276550494415,0.264629061966592,-0.082190416052385,-0.028682533208804,-0.234320310291303,0.083594511394534,0.148207548624053,0.003119937291884,0.090018810182312,-0.056154445946511,-0.083382479217087,0.001196850535800,-0.110847653716924,-0.149397656999804,0.026942796046045,-0.016565881807975,-0.017358864929542,0.044048979121491,-0.092197209132852,-0.016169733112710,-0.041390515664091,-0.169170508041050,-0.136478334097056,-0.035531966361073,0.081808086270795,-0.066409742674916,0.022175973280847,0.124508440837876,0.225985995447937,-0.005622948445833,0.315540659378559,0.029035349124171,-0.152954000355796,-0.086692823693869,-0.037292086295191,-0.024801475293510,-0.115601755265578,0.006092963595124,0.031065689294718,0.161096867571223,-0.039835469150739,-0.044597527966134,0.023231507305555,-0.137418127596884,-0.033852505430006,-0.032895093075877,-0.165202608504500,-0.119091180525192,0.026247070047577,-0.089442571786496,0.377106702227944,-0.088546236795423,0.117428359312509,0.025866709545890,-0.050877270171714,0.201806650661735,-0.135596902450788,0.040734393315130,-0.118960121141268,-0.045103172187862,-0.136951856326747,0.039647559647669,-0.063338929979916,-0.046579798709982,0.019605418969060,-0.044093288056197,0.004741733045208,0.050272411619996,-0.040669199396581,0.084131325870467,-0.095870412128565,-0.038650077185457,-0.117160451209084,-0.130150503621086,-0.171543889607487,-0.075969788480230,0.093486146453188,0.127720173442688,-0.088934646487624,0.315099683770695,-0.212754381137903,-0.066914583134632,-0.082577464879816,-0.146421078821473,-0.073551245535477,0.224576551659008,-0.019458219916536,0.250179674926610,0.226839999249629,0.126500485302854,0.081445234418355,-0.102447368374280,-0.052442510572507,0.014857851693574,-0.108230034579758,0.322270954901321,-0.121097641201525,0.081396235792491,-0.005138085747232,0.067413354835466,0.186515487711476,-0.171100978845468,0.032042892648066,-0.005668620904335,0.038450716752876,-0.026257013188893,0.236344816697702,-0.105535236796368,-0.091276634932179,-0.062023147967399,0.046985265696723,-0.047580283200633,0.015919451426472,-0.131267364683053,0.003442333576000,-0.001124998397736,0.258285134145818,-0.060673836379363,-0.120188019161603,-0.015468178115036,-0.147368147447861,-0.023232421728075,0.159790572997778,-0.126219722873188,-0.139146210000528,-0.033132089245764,-0.008149230781009,0.197148778915841,-0.144735957931015,0.046792318063326,-0.057343828014781,0.018154210770478,-0.078198594094127,0.032408030080136,-0.083729557421789,-0.051251507506777,0.147044721566587,-0.122092242792178,0.194131926228955,0.041941389073827,-0.013699183723425,-0.011495344957774,-0.101280750523212,0.171935371232649,-0.048808722933823,-0.203252834393115,0.075826753691134,0.075519668618806,-0.049155111210444,-0.033412112147256,0.242950548336930,0.027518838222438,-0.091637061424203,-0.198921177249258,0.325233488451176,-0.061572423209446,-0.048967282417227,-0.034454735583919,-0.237628361841816,
-0.007925035514946,0.033483080284359,0.097617639935538,-0.059736042888473,0.261048013937018,-0.019974482324019,0.034815007726695,0.252737855282280,0.016305784950274,-0.099470030235871,-0.087407118651732,0.193057093430330,0.036692899495066,0.079765613777708,0.216260192395173,0.243611027344725,0.005181788578215,0.053032012787264,-0.030232108553567,0.002255994376152,0.219748282161692,-0.071896209193570,0.010076322655294,-0.125664273073974,-0.285555330162539,0.140479185570617,0.080573202755978,0.106783403526690,-0.026065584403009,-0.054334913389837,-0.229863474170941,-0.100002956385325,-0.099876673305035,-0.114880933752306,-0.013708599388954,0.097817855384621,-0.207681368682386,0.138120699112505,-0.124252030853813,0.086209709632675,0.169395729326320,-0.059021546262020,-0.189808261675057,0.015742783143888,0.115401897623928,0.048638532783750,0.001796565663929,0.384362969864457,-0.209344773651417,-0.000231096492254,0.152288187742466,-0.132722528147073,-0.068777320393513,0.192004479874785,0.078002007923948,0.184292279053567,0.060548689124704,0.133324404253409,0.217029249199229,-0.035078670345753,-0.227549023083966,-0.047674838722537,-0.229734608003992,-0.048742568378854,-0.268489480088464,-0.007554149633440,0.076627224570053,-0.037677461678594,0.231703174928536,0.335059681116324,-0.109174270043606,-0.021106252801963,-0.254456742434984,0.042281764245858,-0.100172955703910,-0.042994635751855,-0.070640495927123,0.018750672777803,0.229633683132420,-0.063299741804203,-0.009506954465622,-0.075334276816926,-0.024371397548926,-0.059787057413681,-0.011573397758571,-0.140257673479316,0.049029968468164,-0.035366731865590,0.040400546458063,0.196098826066575,0.109541714843524,-0.060105881662164,-0.249328886738060,-0.035933068560872,-0.166274947735877,0.008526988436463,-0.027651802802539,-0.120359596655139,0.053833455130932,-0.003071905401479,0.126138631655834,-0.138971373695260,-0.122766515583478,-0.085027086223636,0.280281298779666,-0.171851220752568,0.007819449807959,-0.111670208238534,-0.054722307088825,0.001723334518176,0.006645026817610,-0.025171155419570,0.166641216145507,-0.017037073168366,0.170421659845587,-0.011424007051529,-0.031966329448261,-0.040696999636063,-0.123553684941134,0.235146067038620,-0.163820110196440,0.192468658070276,0.031971387014617,0.028164793666128,0.110144584835368,-0.169177015684023,-0.003580218321738,-0.206826858410942,0.104803714124363,-0.166741922082946,0.096874488294231,-0.028410411973492,-0.124576477597856,-0.225066779594153,-0.027723956139850,0.134400393370621,0.135078504080334,-0.143404735695787,-0.042228147754654,0.001414834164609,-0.107485953617796,0.040713958355603,0.070674824713479,0.188980851708794,0.123275823585353,-0.069124432393756,0.022656277734646,0.029522389510588,-0.159078615474920,0.089562236517257,-0.128258923502204,-0.119100165169966,0.071711807644692,-0.040271604289719,0.001031454779473,0.323976530366243,0.110847703537582,-0.020921916444152,0.200372953678124,0.050580234702514,-0.094141004456876,0.219785734911689,0.025186877673913,-0.198229921388686,-0.067620073025941,-0.087361996942134,0.157803031966949,-0.066688361901138,-0.032942807939452,0.037556266011833,-0.025027782652734,0.079562388780529,0.231765497622323,0.006860766839152,0.217417315273914,-0.123368525082807,-0.082301073637047,-0.053651402626764,-0.212963629365049,-0.202874689564368,0.188798130340698,0.106262148962976,-0.140280866413726,-0.036209084881316,0.080087788320050,0.183275255907123,-0.003154240436569,0.152818587142527,-0.066560323595094,-0.187484967179850,-0.003220273034791,0.127107099572943,-0.007885212083864,-0.040113491213345,-0.009942801114643,0.202769384008936,-0.232071732557003,-0.045006129073026,-0.034285930990304,-0.180647087618905,0.069060042463984,
0.068956025685225,0.044021302552015,0.038782742816329,0.263266511320389,-0.112161657730912,0.021960473378329,0.083909687077854,0.007384731239121,0.030983334476873,0.513135724830610,-0.094068750637407,0.007840781543171,0.155726385906102,-0.063792221140447,-0.028133766369073,-0.101325547276108,-0.058391057861360,-0.144687607832250,-0.019890430086242,0.092669710283795,-0.109348971838197,-0.196246135391399,-0.103571166555964,-0.159423756722099,-0.111038386557201,-0.020147037057712,-0.126835708335446,-0.042537694448529,0.093031889944796,0.132160432151758,0.074416745245598,-0.051999529780466,0.005142433022807,-0.096220190557446,-0.027311273512132,0.198207200185612,0.056753669112470,0.180287447557092,0.130191211701723,0.124235028376679,-0.002679161346559,-0.093359913577489,-0.148221088078661,-0.029438581614953,0.262456146574165,0.029776060581777,0.317812596764057,-0.007225152389482,0.117655807706165,0.035708706300692,-0.139301802003421,0.028003256871394,0.160277381844965,0.031904042410742,0.230308253097151,-0.016131586901175,-0.031870038339374,-0.173387077093026,-0.033141525715076,-0.017150883692491,-0.094796701417076,0.076413791220197,-0.237217948075796,-0.043496250891829,0.197085042825323,-0.025054488702932,-0.198850845850575,-0.076942804081563,-0.146316873211494,-0.243597631723031,0.022792830199560,-0.044966855571996,-0.105879334768310,0.039823672401025,0.251918924661185,0.295321320882669,0.113445317517335,0.045639966604607,-0.076451283828510,-0.031206628637322,0.002006531617829,0.006102468843018,0.037398571839595,-0.033088821878830,-0.023488973206215,-0.210359576984003,-0.097531975558086,-0.023811451330552,0.205044642213485,0.223925270544165,-0.051651376072128,0.343204872921072,-0.072326849761869,0.064028422044419,0.230707642914622,0.051593070358788,0.014242044952744,-0.149377633095653,0.049230008216110,-0.029741996682958,0.083293294315443,0.133862872747326,-0.098218219525835,0.198623298572501,-0.120535769444765,-0.155505368552494,0.027011455289581,-0.088929990308120,0.031354422628058,0.178921796572158,-0.062395204863230,-0.023176939435630,0.065377043186979,-0.041577781092887,-0.046602598774790,0.121528041673400,-0.062360846972434,-0.016469645222146,-0.125600824359569,0.058545584297123,0.142709223381986,-0.125997322182098,0.088684194252251,-0.072419007136852,-0.111693611729898,0.174829720866038,-0.111031833996768,-0.216179800122274,0.068188482925113,-0.155257581432271,0.202705397545542,0.151534124059344,-0.209419320730905,0.103475606006548,0.291563305508439,0.047249021455370,-0.181103096595197,-0.083745788351962,0.242789850725285,0.031481849641919,0.026451818094019,-0.024132042623752,-0.073931333325033,-0.111647246031456,0.008362924394864,-0.175261591310455,0.007174724245983,-0.061727987331545,-0.004113855950124,0.066459254527726,-0.108075739955902,-0.004512715426662,-0.031816524172374,0.068465716568510,-0.044106777878956,-0.182008184536158,-0.127357971040474,-0.100760470290856,0.006229094312992,-0.007341820960530,-0.110145759588481,0.171755161558410,-0.165435969949030,-0.099700930801074,-0.222344194958132,-0.125091634686671,0.061310878039259,-0.001806337244951,-0.040086527247844,-0.120012260933497,-0.219276858771801,0.043369992555324,0.445591850399388,0.132619193935374,-0.075609942604449,-0.087012334358721,0.199270511860597,-0.043728295007050,-0.235134387469621,-0.152074983715137,0.048869125293078,0.040219471597827,-0.134027999284682,0.061974931571782,-0.029080970058882,-0.117928609381186,-0.123307060881820,0.068244523132629,-0.007310641588409,-0.174033062024659,0.003888150521095,-0.201365253878088,0.075480301978564,-0.037292999614475,-0.085179446409014,0.106835413032107,0.138947991207709,0.209418772588370,0.198987096111532,-0.005139069386416,-0.134682115719081,
-0.043458398507226,-0.039495350955507,-0.054091268499905,-0.019530491238527,-0.194717916263547,-0.034899567197098,-0.205442428973952,-0.262724622236424,0.191576264224611,-0.122941654506678,-0.195942985813270,-0.212050791562922,-0.159270483793558,-0.054729186205782,0.211627095181124,-0.148404501411996,0.285279802551626,0.134397777031383,0.113553646023149,0.086895152449445,-0.066557536634331,0.178329718668872,0.039743246204906,0.123155265531953,0.079700083916862,0.178434321225843,-0.120119309637120,-0.093193432854243,0.069769049393763,-0.147775526303677,0.046176016190374,-0.092557937837349,0.063908278908438,-0.084232838714742,-0.011726663887451,0.214843673029104,0.004677613635461,0.006513786832714,-0.003728939240628,0.045709256675603,0.247287219196683,0.055949893734493,-0.065234074026168,0.205344208731437,0.192201769080180,0.003097240643832,-0.184643322663120,-0.154986240522480,0.097736499447994,0.001998219373131,0.230352047770617,0.109136569553664,0.031317921384883,0.047302547957846,0.273649843935201,0.069406120864169,-0.116255450693392,-0.083326606390959,-0.069146971802091,0.013890366484556,-0.177335383645116,-0.085269081673552,0.129817924982884,-0.178354976677320,-0.010711184429683,-0.027908887552840,0.133894390476959,-0.014630947888489,-0.061175130040081,-0.387270155309494,-0.016865177185888,-0.083881911814740,0.072330982656562,0.028491466932548,0.103183228685842,-0.129716248552319,0.054072747713374,-0.014457492123305,-0.166715362492750,0.010470599422765,-0.019430622102529,0.039575888219433,-0.161453318253232,-0.014823699587688,-0.052484984908359,0.349039646472527,0.101606253054978,-0.068551592105437,-0.160446316663150,-0.121493873817624,-0.041484107822992,-0.139930997604372,-0.105326579546819,-0.104499501264243,-0.151477936176875,-0.034125144559989,-0.042983323117413,-0.143852103669672,0.277951785219446,0.033526133267184,0.128200535258023,-0.116453118488182,0.281872202272895,-0.209871989707220,0.071608789632507,-0.003809347678252,0.035921985973038,-0.066104485249617,-0.013456181302023,-0.093322118298511,-0.066115092392318,-0.108017734315444,-0.166156894836586,0.006665701087351,0.146036192362317,0.015424591959823,-0.132463569157149,0.014657087916303,-0.018187583011016,-0.094534675815979,0.117568625846230,-0.196507751646406,-0.031331868978390,-0.118925869069277,0.082015550095734,0.141740721081243,-0.296588174535458,-0.104249443052298,-0.075033907685196,0.178024446663438,-0.060992439981731,-0.042084027739051,0.047330070708709,0.241740629103853,0.023593304801298,-0.102143595049352,0.176336032491975,-0.078774376779376,0.017116405908023,-0.084166445742924,-0.299890386220873,0.033496967939072,0.205576968441703,0.243714984968761,-0.078327918267654,-0.001609482391743,-0.171152347430387,0.016711739105686,-0.339490345062108,0.075687174498159,-0.105436977825918,-0.072674754831819,0.041451770560885,0.016343376855657,-0.011814276259722,0.043314173491820,0.091891912557173,-0.009878911621554,-0.159698952560868,-0.036203238891111,-0.015998966568007,-0.245955207476198,0.279768310512370,0.167712235821735,0.120587654259169,-0.217793804813184,-0.083596636392946,-0.084992234918462,-0.014306297888436,0.143983771082119,0.261261607863144,-0.064665452598404,0.214849093716200,-0.011516218635191,-0.079652165859629,0.114727726190263,0.111442107503576,-0.178115854986995,0.165697863072907,-0.233119824687716,0.010203457377625,-0.094023645590112,0.054392172218246,-0.097349672930785,0.147566476853087,-0.163156182171404,0.194814973575161,-0.155794881926070,-0.079542793276390,0.221954082030013,0.040795927587592,0.110728531157065,0.183861440310939,-0.089248021846431,0.160825191449090,0.194041804872058,-0.159630332545379,-0.087003634141324,0.108976821141718,-0.088612869503428,0.276704298638830,
-0.013478998545070,0.027945970940059,0.095507197730760,-0.153600166207055,-0.089632956780281,0.020617161917923,0.311516010093341,0.145321469688486,-0.318733500683308,-0.191621431847270,-0.105090457348193,0.050465523490306,0.218721973051536,-0.125168915601913,0.210376638425287,-0.230757344192393,-0.129684877687148,-0.008707593878152,-0.019463989797491,0.064345816617267,-0.058864786776568,-0.045858338234607,0.061353516809706,-0.074318139841771,-0.059960373987661,-0.163856854416765,-0.058300132932287,0.270820528633285,-0.041618874020246,0.037457743601150,0.026035626913369,-0.193183716370864,0.333892649418060,0.288038201654478,-0.033839419457883,-0.132528532901490,0.090080313286447,0.075689235406527,-0.056887564159419,-0.146112285841428,0.142068349959977,0.095619768901284,-0.151351783406641,-0.143871606606163,-0.214860130775908,-0.056814640119556,-0.070310855477994,-0.186656100108404,0.068838716672039,0.035512441073802,-0.092065534488196,0.045879385954885,0.095247950781519,0.073384076345151,0.009625621638803,-0.082315717091928,-0.001638934495009,-0.059706535294215,-0.083499965126519,-0.023001581708215,0.166639613784731,0.112757080875308,-0.163342361862239,0.357475324069374,-0.015744120128933,-0.052240677915140,0.208289278131697,-0.036859879053348,0.139766949601045,0.091787076427529,0.132607692294559,0.072586822435995,0.166964733523533,-0.045487802591147,0.123576356026943,-0.045589607185551,-0.048974643370399,-0.040569700672869,-0.218591318145449,-0.049669025789290,-0.060998943952256,0.024638586133810,0.299872775755525,-0.009696922079681,0.006572604302397,-0.190775047532016,-0.010194737658492,0.033620933666938,-0.033144905992236,-0.012211272801653,-0.001625485367471,-0.062192861166761,-0.075180296248727,0.118545875900457,0.212460718216763,-0.088754309096667,-0.004822482535522,-0.036285934386862,-0.221474523651400,-0.025832106517837,0.296252815369996,0.131821720919031,0.046933474820464,0.009482916257823,-0.156807872241404,-0.012183415821410,-0.023423356562293,-0.054442439852070,-0.001216980570368,0.035755380792324,-0.007419075197509,0.178409334020201,-0.048736008575431,-0.022605546627165,-0.176604410648361,-0.094008841177878,-0.128904311988467,0.049892870566902,-0.073930191167040,-0.122358651887501,0.023577812933047,0.049889271009147,0.062731229843546,0.071924402586551,0.140010291774960,0.179943020149692,0.266302574656781,-0.131690537443129,-0.026801907813395,-0.183743475746019,-0.244860723646526,-0.026182915070432,0.279334537833358,0.332714255932157,-0.032556543732887,0.006376118303359,-0.112177514588077,-0.018348020742776,0.022740625461206,0.105623719549299,0.208521653780224,-0.091920073891113,-0.155181937562521,-0.056525294508947,0.000606239257657,0.196039135627955,-0.086112073149577,0.146127944765213,0.142220101281352,-0.066699461829732,0.221419524150756,0.048417465985981,-0.067093684773146,0.040881360610013,0.030991589001111,0.189012905133405,0.141694117929502,-0.188852819094111,-0.083123676108953,0.046348259424071,0.070429577246395,0.092842690659429,-0.182192635237767,0.039158413459606,-0.264011018162628,-0.001608904540106,0.157238202778748,0.094137156411556,0.031071499644543,-0.263709220886806,0.230703589372162,0.136324354607184,-0.189492052291464,-0.090245136751406,-0.006727354730169,0.003951875475992,0.038100753032672,0.063126012570267,0.187566534132263,-0.128306342525709,-0.166194803049390,-0.117813242781209,-0.144839061409441,0.022372044957794,0.055772394328342,-0.251454196600499,-0.066507777220492,0.028262977569620,-0.140355618998112,-0.024292650499898,0.035386556547191,-0.047911051399688,0.019224984571694,0.053352121994840,-0.062547422443448,-0.151752009370474,0.019409548165274,0.015400434894946,-0.086128900918126,-0.053000153123621,0.075120327289318,
-0.059450551853756,-0.042406520570086,0.007670571102409,0.009333031602314,-0.002768159260825,0.039748891114979,0.018255202106392,-0.018129596603425,-0.032782421697272,0.034174222080439,-0.092014380150793,-0.049791242535212,0.022255170274076,-0.071255373357072,-0.123965560748157,-0.115045174352225,-0.009677125749613,-0.075620984896426,0.002481382023519,0.036869249100018,-0.084165747896907,0.146554355041777,-0.077792681941783,0.090770221412242,0.159940101668576,0.259699766237006,-0.000752990073615,-0.062921595338929,0.128683524851315,-0.010309400657723,0.085008299438005,0.070298748768876,-0.096404984528870,-0.174802058730367,-0.027146199472094,-0.155934797060358,-0.014943788046869,0.018501689261111,0.083251144984038,0.058499545579511,0.057065902652958,-0.138631791268072,0.296738660406687,-0.020399354770810,-0.021014984130349,-0.060929611072346,-0.002248819810805,-0.026524659519952,0.003027168302891,0.009489519118812,0.208704484842230,-0.063122475228217,0.011199916919307,-0.003303688326661,-0.019916837159979,-0.011493122056614,0.045747028302587,-0.128187578486867,-0.056541219433650,0.031848254619280,-0.102610709301974,-0.009466005031983,-0.181063854520442,-0.196768003985392,-0.062667069530911,-0.048336258098805,-0.169784376326102,0.087257379627849,-0.171001750473715,0.124807545460430,-0.079075433586320,0.039007546995282,-0.202303443003620,0.050133197242678,0.047811132652019,0.032900661232521,0.059086614320149,0.024399268965189,-0.109379414814039,-0.071481197871210,-0.025643645051393,-0.016967386729879,-0.002335978052249,-0.025850836029514,0.003374196458751,0.299582673467685,0.080826975761021,-0.009758352772757,-0.012774548455572,0.034473800547724,-0.037244513220703,0.194879004430494,0.367714337816061,0.013710129988275,-0.023881970854264,0.013689614850409,-0.007402454231566,-0.100113059268592,-0.127326989198871,0.045662264207839,-0.074908251691426,0.242517951938936,-0.158923172196316,0.057083657703978,-0.100362224187421,0.120625709290161,-0.015438070274188,0.266247830280769,0.018504102541076,0.026206330332989,0.061902536712655,-0.031427250776244,-0.002625791731608,-0.043330165990639,-0.031651541098976,0.000319921865336,-0.067193710105256,-0.054068603111145,0.084199508192519,-0.073695188695393,-0.016187301736510,-0.110741456166788,-0.038064840070910,0.015588416178472,-0.101484750160484,0.047919436453796,-0.156486151166671,0.315783975785837,0.016450669428730,0.043420585487098,0.047226645638566,0.017433674185739,-0.174638067909744,-0.110721128967930,-0.036276441356981,-0.031537812115343,0.128471959143882,0.299385807327767,0.028132000537805,0.018846529913291,-0.079077080338645,0.042516171811504,0.249116284308844,-0.172785212607771,0.018379660540482,-0.143144065541757,-0.057236689312608,-0.058050226133842,0.017018160871904,0.016461209856192,-0.093405454614967,-0.048953627144290,-0.074411938536359,0.019899010761519,0.032282425359542,-0.225644670269187,-0.106797001586995,-0.004803879771679,0.055249670045242,-0.018988113854245,0.090335937472655,0.070000066916696,0.230243631192667,0.121306052760075,0.235944821650989,-0.113590212055574,0.000675247462882,0.174706151474852,-0.026045079826074,-0.104944254999409,0.090790512319138,-0.022950961241044,-0.239568778144308,-0.063519801267264,0.079662794222527,0.129818698294405,0.085113913117965,0.294406865061793,-0.111226110191757,0.152796587228936,-0.130884381548941,-0.076168700779985,0.152486970621517,-0.023782214904953,0.116336211203246,-0.159745711324144,0.261711377156792,0.049625101467180,0.015027839665727,-0.015599618542328,0.005736689528522,0.181872187599007,-0.120350651590581,0.007943977670476,0.292522165726288,-0.113220442155249,-0.078617246360011,0.003064155124944,0.113730724102942,-0.009047093360653,-0.085391801484926,
0.045947682924807,-0.007915321767741,0.040333175332804,-0.058289015772392,0.286954908128773,0.042535199969849,0.157356042353190,-0.087486248832556,0.295543713485624,-0.038485716930973,0.050032056145557,0.093486459026775,-0.093810940396784,-0.070664392391384,-0.119063345911134,0.357358496970547,-0.030188196172570,-0.098767458670084,0.020070116474548,0.123763495477000,0.120750771711123,0.172801425462685,0.274836605804171,-0.133149091538081,-0.085944376460634,-0.027070924364911,0.144635937675627,-0.181725405241267,-0.004130033391888,-0.044228707867492,-0.001100271923250,0.030374265978064,0.075133733083128,-0.085822476260417,0.021819502962756,-0.053184830797779,-0.069588361253650,0.067002607425655,-0.072369380759292,0.014247780271802,0.111385249866089,0.074014718570851,-0.069245004251600,-0.038525245646763,-0.115799419766959,-0.030719413304353,-0.155815618427758,-0.144518349659276,-0.047371867225572,0.023836133506928,-0.128736576467757,-0.056449408224320,-0.081835579360915,-0.005637821541357,-0.141187857773713,0.122196014654148,0.094246567955456,0.263809553810898,-0.049180311249134,0.010798669232200,-0.105762472616081,-0.034104697339254,0.477511043240746,-0.126903390621324,-0.007981707755676,0.059164615563370,-0.004754383040183,0.000746000334051,-0.006588518348563,-0.134639766173546,0.090948701844621,0.049753581515025,0.139458666716550,-0.023746054063650,0.042116103548194,-0.186175769918362,-0.020848974267680,-0.048502085692250,0.318986265219293,0.057666125306242,0.010927957540253,0.074309297593827,0.002370694118672,0.084200412920036,-0.029586668561660,0.023050237195484,-0.003069117693981,-0.033390438263117,-0.075323216931090,-0.093229345784932,0.031241042608422,-0.090066056506965,-0.075152544831166,-0.010851059151848,-0.124029063814404,0.163307247199820,0.025249144586133,-0.070904353683635,0.195775809069920,-0.031913637810531,-0.122284884803109,-0.040991629176726,0.215637214537293,0.158367362632548,-0.019696283359688,0.006528652765810,-0.048848489661513,-0.078787417624508,0.093955286324908,0.012972494396230,-0.008898375334403,0.152124908112509,-0.094978984297061,0.063315881870160,0.213492575672525,0.061456052634799,0.327082501693580,-0.071616397684739,0.053612608032974,0.023115681179633,0.091955330721791,0.088888923225588,-0.136017470840985,0.196030325028390,-0.093209859677703,-0.134964139213068,-0.170459593670202,-0.091255710241005,-0.039874420164970,-0.050393384125314,-0.092422314070553,-0.004673551259067,-0.001545951101006,-0.094487388666668,-0.068280109745317,0.127782111110673,0.078225671765746,-0.035626090088294,-0.007202464247756,0.004308742824411,0.156746145938126,-0.015026787436436,-0.038906956091961,-0.090418950396558,0.000388966563024,0.047756249787734,0.005290739652183,-0.053778759770109,0.316307535817430,0.040336624544507,0.204227721147751,0.078168955597995,-0.075888974623080,0.011017722922098,-0.029150472913599,0.027629816399710,0.264089619791019,-0.023501406381620,-0.004362946261573,0.015885067325029,-0.019545791129256,-0.075949441216070,-0.153161589597215,-0.072514226708987,0.042159128174410,0.432357036029830,-0.162759312002705,0.001552676318177,0.000972353386648,-0.133768875869460,0.072236813862982,-0.097047038849019,-0.141715168970459,-0.093227990742581,-0.110960344166546,-0.028163321278981,-0.084032957823979,0.101047080440696,0.118144759882957,0.088659503697178,-0.090463825786146,-0.034712213813409,-0.054352189298589,-0.009792948234427,-0.048819050330017,-0.112199374378032,-0.060199973244788,-0.013677988877800,0.022181738476132,0.027903165153602,0.053500500374271,-0.113089333521863,-0.077299972826999,0.014454580195678,-0.005419974127087,-0.049205925208451,-0.163646648755085,-0.035590321844821,-0.052117069491563,0.232161770126437,-0.122366764593795,
0.006744740086227,-0.037838082842157,-0.057464848461178,0.156844873450166,-0.158573015695773,0.041204281933512,-0.168261140864695,0.188865000136340,0.171214975187876,0.236253581823636,-0.003401538859117,-0.217558443190603,-0.143577768264362,0.044367804097890,-0.119305177455720,-0.168943875533465,-0.053275987727866,-0.022837134459499,-0.053952161381623,-0.248798655430231,-0.109592565204752,-0.000606369490841,-0.125378183758289,0.076534436198839,0.182374328115085,-0.160361744292595,0.017529210255116,-0.119043575936480,-0.012797990308605,0.035368959529982,0.100682606574895,-0.079217318878085,-0.186454459649235,-0.041183746547386,-0.039540520178682,-0.169407964037597,0.063689737521326,-0.108041188444824,-0.049602972700023,0.050614213227087,-0.216473226438142,-0.210518565599514,0.147265038467833,-0.139670724232917,0.207652922131685,-0.038145041164214,0.111036948074154,-0.038728666313760,-0.083023657391707,-0.023764507598096,-0.071500172533073,0.140461211980084,-0.003032612346511,-0.193852634698656,-0.248437965272858,0.023154208777085,-0.106918821562532,0.245167961074990,-0.116332960966777,0.044196913412759,0.281056370092032,-0.049759097451154,0.383707289524741,0.136902548226373,0.251738252146473,-0.069110584381780,0.124126386110379,0.000330027672399,0.080168330849301,0.133950940990444,-0.094211443902267,-0.065427268840966,-0.089634346089097,-0.061385548684889,-0.068264202534936,0.212226710732545,-0.120214000244921,-0.027202235198694,0.049507479812481,0.052084275217492,-0.038140699189790,-0.088785993866344,0.034353830725901,-0.032635328796670,-0.045590569979653,0.151350087175298,-0.015897646354596,0.036418726075107,-0.004500322380825,0.109045172769521,-0.021912999044326,-0.175234125955518,-0.196283527620367,0.033120760754405,0.037737167073315,0.040600149499887,-0.059546224476044,0.127816659853318,0.112322195605698,-0.012592490485183,-0.213900805631164,-0.113118719630994,-0.060619107143767,0.026223651265292,0.016326125867573,0.073274193250950,-0.008247529743846,-0.147792357979479,0.065320371923101,0.084679414802871,-0.060380090049204,-0.138908931789804,-0.010161136749052,0.043916973580321,-0.112941417468223,0.113856969347072,-0.154529988220749,-0.105324608350075,0.075872672865438,-0.136899899296826,-0.060341243909189,-0.232515248652676,0.107454139627831,-0.034483090038931,0.027787125242813,-0.135705990279180,0.089404957670505,0.014995184604851,-0.106174621055493,0.039735371239174,-0.183576858278802,-0.079035014662190,0.203903825831582,-0.073859552900559,-0.161801833447994,-0.051500419309899,-0.011123741937469,-0.094570786192790,-0.217236947955800,-0.057569176203219,0.144521454096479,-0.097928625154147,-0.213618945674673,0.226398116236863,-0.113118017064940,0.117191849372993,0.072203099025777,-0.063336623384170,-0.164001900794217,0.056822501287385,0.201854136076371,-0.005450155333699,0.022612392270695,-0.104063205045078,0.034031028221538,0.143849345010885,-0.333052851649309,0.120710067015536,0.001331446445816,0.016991860292595,0.007321801334928,0.040197742279275,0.146001488211099,-0.070203546544879,0.216891272567504,0.284694877175914,-0.110076269985168,-0.116582631966541,0.010188679821239,0.288211720793082,-0.066505361427195,-0.128038888800576,-0.002711544554174,0.083961856107217,0.012144977451757,-0.054684162935246,-0.092925507752020,-0.116114362803861,0.134152751050666,0.464418092419070,0.073004906354971,0.010516182715846,0.024501412916694,0.070806656188227,-0.162896539145627,-0.142607631967696,-0.072057648867780,-0.197247824390175,-0.223677571280965,0.023213145127335,-0.014069501977605,-0.052526587972068,-0.063289005905679,0.017120804078641,-0.165199348253454,0.132685979379927,0.305995843492808,-0.161247790673139,-0.135865347915828,-0.146886059298270,0.071476764877715,
