0.022047647382907,-0.017377868614238,-0.045698852207257,-0.216998483142289,-0.033181045714753,0.024527020880204,-0.022668704651650,-0.088738394429461,-0.187818583580398,-0.026177574394464,0.236074643749547,-0.023299832592293,-0.056381213240865,0.269416481795057,-0.041838433783766,-0.048412158592922,-0.023383496142983,-0.090549429474395,-0.165338787740446,0.292040128143462,0.001256711303823,-0.133127101839323,0.019050551835682,0.086984104261116,-0.053837103731434,0.043103224294700,-0.106347933253816,0.374857038067976,-0.172268418576673,-0.022543221892669,-0.094345970929239,0.157996819303051,0.138213133260289,0.265392129695809,0.006899150277278,-0.006947664747059,0.010002865548834,-0.034532996567618,-0.018711693724200,-0.247447148205576,0.008740696706770,-0.049178179888621,0.081791448196147,-0.176932747622341,-0.049585271369812,0.001780995006589,0.023117320107233,-0.114721090433885,0.078806622992427,-0.110818265025654,-0.019470608889999,-0.151197954233214,0.010844969395151,0.002440636477393,-0.006453422716801,0.106657861497066,0.272052356888487,-0.022812195542401,0.062467575112866,0.246841135799915,-0.171318095487146,-0.038107543709436,-0.043341701126583,0.044401745433708,0.005048892302287,0.009371940379047,-0.018438591209230,0.214513341901967,-0.179027304368595,-0.156260790384078,-0.096121447054362,-0.039659837018995,0.022014842719771,-0.100705442685634,0.067628097589892,-0.094408636474722,0.091081748184373,-0.007484898639871,-0.019657751292152,-0.052944867375991,-0.021466446391561,-0.149111776757757,-0.225404782926907,-0.148748039549150,-0.037718126088395,-0.016328040858860,-0.200028786060177,0.243467962003827,0.035492083984110,0.022241629264233,-0.018105469381873,-0.057003164901909,-0.017108463701154,0.007582003094084,0.013873599651404,-0.104634287608546,-0.058954209480169,-0.021600000000000,-0.031613809316454,0.048495113954029,-0.113289364532935,-0.141017656772208,-0.092375197998275,-0.092380672072896,-0.030066051178181,0.071964329854514,0.263831203954881,0.222969150328372,-0.003611368318157,-0.036986522051160,-0.017392493376860,0.028646200759568,0.238224435403670,-0.152672362429408,-0.045713238423293,0.020549200216160,0.285630150434618,0.028944449039006,0.138016636440674,-0.033800000000000,-0.124286213319748,-0.051169628660129,0.073808079451590,-0.032225152087007,-0.089169092758124,-0.102836653477767,0.218299380441269,0.029562720059184,0.190302156821319,-0.215443491545224,0.020075776930028,-0.061704421928972,-0.217979102428699,0.024963059715210,-0.143244969520608,0.066854939849399,0.124473130232700,-0.103946835031859,-0.011801623262722,-0.075046352468398,0.072129996872580,-0.130564257699327,-0.034687654715831,-0.088525331959374,0.022198179619681,0.012971789435927,0.032917173352098,-0.109163379246153,0.204370848788190,-0.082327214811427,0.012802700422018,-0.136733958867307,0.073131916579953,0.016116765921110,0.026076268277826,-0.206855960201255,0.033976080118871,0.204164040515424,-0.211775743286571,-0.036513184201161,0.036455450215320,0.007095851164851,0.083455080570505,-0.040951842453682,-0.005532360523920,-0.077567849423616,0.339510067411922,-0.186297666302137,0.013095027291035,0.003207537836461,-0.191706767096253,0.125711469042842,0.008546285115413,-0.006474941391199,-0.008681540437081,-0.052730164826410,-0.013562864113486,-0.038108520282449,-0.194873355894699,0.008595969789045,-0.195185871696892,-0.176155822813499,0.007350407544239,-0.128142208503848,0.028034444040850,0.279880545429089,0.023858499764086,0.070263225473920,-0.054574526262470,0.091135455304725,-0.146205481142089,0.015702998572838,-0.189075045381207,-0.009085288580421,-0.129403376858152,-0.061500490177048,-0.012599589267552,-0.114142354960406,-0.100324097339016,0.264413328522163,0.020058298159473,
0.320493426257418,0.030613481282719,-0.032422789036798,-0.053827390061073,-0.112793128473324,-0.050588442795414,0.016148518189862,0.110609326782001,-0.160881358130550,-0.012056999542846,-0.001558622273629,0.272774056471612,0.051158215850230,-0.104491726368258,0.012588920245348,0.142516139590129,0.042070145047620,0.424157255023335,0.008471068801979,-0.128884640981468,0.009312922151977,-0.147093641747553,-0.051601654734504,-0.068246915663251,0.207616386238970,-0.022642492037657,0.127744848154537,0.000050030754191,-0.237497084022679,0.033935002126364,0.076317081031598,0.066625069090455,-0.128257238244797,-0.013005674678300,-0.041728160925900,0.094492758350183,0.001462873786344,-0.118874123567193,-0.012279110313452,0.192270795657339,0.017959587857111,0.045790072794750,-0.133793944520593,0.046731015265948,0.002360665095529,-0.015387967985668,0.052177641027636,0.095744577145750,0.007184694567882,0.147601903081866,-0.002265170889278,-0.110455181270465,-0.004093470690349,0.121727030214313,-0.044453082394417,-0.177558271598599,-0.025424383619990,-0.210202550497232,0.046148904326726,-0.069952578950184,0.476627680489396,0.005901894425437,-0.028252637515932,0.084156761078216,0.044961497798667,0.048606400060900,0.005336918693999,-0.058594796441729,0.053936372535193,0.162291605613796,-0.010552787568205,-0.008539718667355,-0.062442893028721,0.016530181461088,-0.323970273187133,0.022147127931361,-0.053174069803983,-0.035623651519979,0.138345496325561,0.089078696737359,-0.034105994468746,0.066474739167640,0.123240025192969,0.230392773616904,-0.036556269008789,0.002029743966613,0.282549268640530,0.051655357835407,0.192437750191044,-0.027395294435122,-0.050333419104854,0.016685515478265,-0.015655921368479,0.027068531543154,-0.034120745433828,-0.012450423429891,-0.011568654979370,0.040650000000000,-0.030626447265051,0.042158786959532,-0.053143229562298,-0.209693610723060,-0.046037207971902,-0.016532078632271,-0.016608358565287,-0.053725723397271,0.007176148662801,-0.035389284429240,0.004086841387244,0.019241634033653,0.044249385981578,-0.329339517478425,-0.145060736158517,-0.056866681215485,0.039568281020815,0.006539304031266,-0.005818803186850,0.049353999110524,-0.195944943996522,-0.025850000000000,0.162900701330264,0.153188731408422,0.338145646778643,-0.035912263837143,0.276135303368395,0.207769014635451,0.380193342442656,0.082146779209341,0.014895224768601,0.216304413352051,-0.045460419693441,-0.100580983581863,0.051221751548322,-0.112968975989699,0.023005011143376,-0.174128994444418,-0.104989157681192,-0.189896307424093,0.100756240400017,-0.046557690077674,-0.027557443046075,-0.086650640340042,-0.005682114336615,0.120656656548017,0.237645378785939,0.053353319268754,-0.048333508989887,-0.067319258369578,-0.177417868774695,-0.097290382781624,0.219665241856988,0.123354451990493,-0.354558828657305,-0.053515938524780,-0.020021735858030,0.009578592409694,-0.025145561030635,-0.042637790629931,-0.130512895275071,-0.008029636787494,0.106752177992275,-0.239353719223764,0.023171421711105,0.133435620554043,-0.004822162675061,-0.185501192228583,-0.075668033827433,0.068660641140979,-0.031987603875016,-0.120729216261836,-0.008789710147390,0.006374063075685,-0.035045754400597,0.010901828615332,0.027876233155833,0.195710045060459,-0.044375900098741,0.030047469473623,0.122958613900256,-0.111602428192757,0.149797747968911,0.280920213658322,0.017277060667254,0.029054338022962,-0.018807646333965,0.163737305150032,-0.047797005181240,0.147643760313397,0.065384432562344,-0.157669289011515,0.180658340115705,0.026828445822499,0.062077337463826,0.087624278083739,0.038849969109959,0.001204554977082,-0.032685318423695,-0.209532842049224,-0.025056093028347,-0.206437609434567,0.037710635441603,
0.002303240241839,0.055505203740633,0.008583981623255,0.055468273938898,0.049445347187959,-0.007111839553168,-0.010068621535743,-0.216021771356089,-0.123611104298504,-0.053433925635939,0.105316771447511,0.006994573414034,-0.142237590948501,0.057757068375504,-0.018059237856665,0.330345069138791,-0.013837065832551,0.252853712853192,0.175701679539899,-0.035970998870381,0.011166060927646,-0.195631316506433,0.013823978684945,0.101040545949199,-0.017319757556162,-0.000264038389670,0.159275628912465,-0.014675941843253,-0.013912629041891,-0.008073486053862,-0.078063479700290,0.010406897835345,0.003079656915734,0.044273284216855,-0.004668941341676,0.523623991416274,-0.054614210052594,-0.435204720830054,0.064656515684533,0.126519940747672,-0.039852751313357,0.296663290018144,-0.170089685601554,0.314139163159091,0.010789455232975,-0.015298003472055,-0.037193679730751,0.081284199707532,0.059602589491352,-0.035431488681337,0.016793044768577,-0.131113708157229,-0.008209607034043,0.036621344032785,-0.091401794441280,-0.039169904145593,0.001499991375569,0.019113378503784,-0.050336218212589,0.026215185193383,-0.039715933688407,-0.042912660097638,-0.017764709924225,-0.161811402351976,-0.041309030308882,-0.037319193466682,0.043426513510192,-0.140427090847321,0.284831710537078,0.125533629083153,0.235808372462864,0.040267638617612,0.058506248463133,-0.019041136971998,-0.003650238718063,-0.073885793992841,-0.066506814249292,-0.069683035086838,-0.033274863649879,-0.040764126093414,0.012663329962271,-0.029714633695034,-0.252989056539362,-0.056129597503477,0.028150613276901,-0.085526119658835,-0.147548454319228,0.118699505627996,-0.066635200888410,-0.088342940713566,0.015629357047283,-0.021388509123465,0.038757235779450,-0.030941826447403,0.060288753863273,-0.001646757468942,-0.046476787166100,0.021900000000000,-0.017334605985122,0.039433580231330,-0.159541785140171,-0.171761841402863,-0.225773605346301,0.113212675182655,-0.004857219123389,-0.020608003360167,-0.061897654080221,0.074968799385662,-0.001491512038065,0.033323458152725,-0.016091105720872,-0.022583245827786,0.177299345853949,-0.129569797132080,0.036920451543868,-0.044764717058500,-0.144736749013654,-0.050499142732578,0.154596121972516,0.023450000000000,-0.183104989225260,0.133380284097677,-0.188722832037683,-0.067408145672033,-0.035221145637118,-0.133370761806070,-0.145641214340310,0.079688696657104,0.005154588253694,0.213232453752210,0.045065848237884,0.075953686309638,-0.036689007615395,-0.044331930463726,-0.119299433024179,0.098266350422068,-0.102207870066312,0.284257813812990,-0.108684742768465,0.031309186852651,-0.064860736614990,0.001766728742564,0.033172779900404,-0.141365073954529,0.026178168389577,0.008646349875075,0.012448477767017,-0.021887169119882,0.309227621466211,-0.221665807140351,-0.283905749078183,-0.055527676530906,-0.120437047082780,-0.041193039659449,0.022324246940588,0.092958859525536,0.019821951392508,0.029299427035385,0.244990632005002,-0.041262100362829,-0.055851706537066,0.020194804493534,-0.142483721172736,-0.042114133315821,0.038766081241200,-0.210048910154104,-0.187944717543011,-0.098905876728363,-0.007613226712860,0.383755507822287,-0.174390853988419,0.132443048103619,0.028023070946966,0.038280721153574,-0.043864871171217,0.024631990694674,-0.041707345974241,-0.033690492766573,0.214641001265378,-0.143758795103860,0.287662705408499,-0.013395251067986,-0.025526261252595,-0.135359064389345,-0.026370163422922,0.207846157974451,-0.018763728484192,-0.149005897520834,-0.033892050440661,0.068607498990119,-0.230440342231727,0.002438915194306,0.479769697180182,0.227499598524245,-0.115480233726022,-0.028931188876425,0.052863233008640,-0.089896424294825,-0.064987261532267,-0.013824608088927,-0.092058034854495,
-0.069706048856543,0.031554121630100,0.020581420562816,-0.150346145870214,0.228715385256283,-0.041718919670294,0.006982961443679,0.239996002209805,-0.009940825135293,-0.009585727613216,-0.071418874749492,0.035420557452081,-0.009514119776140,0.174817166135600,0.044063331955873,0.321359702956803,0.004998487336829,0.027250667099933,0.045818966236225,-0.165753388217042,0.056937058457464,-0.099456060445636,-0.000562448979131,-0.132829512636700,-0.127171004210364,0.030105650445004,0.213834219672065,0.033944098331105,0.004970868456933,-0.024246697070242,-0.139580449019341,-0.109570028568943,-0.175004251147812,-0.117480857500142,-0.013917077715379,-0.045619434520997,-0.150778704503082,0.253037238258446,-0.098468613503720,-0.039305151327177,0.021562730541075,-0.033549325654342,-0.317781013446867,-0.033711997381832,0.025198095085405,0.046730564364033,0.014880915866779,0.246297932330885,-0.098280686681643,0.161889660281850,0.082416695534403,-0.026861239350141,-0.016106039954727,0.029444585327629,-0.010086066179473,0.439836159184321,0.087805924560457,0.156828844690080,0.252839886140414,-0.025916276014923,-0.251443166364750,-0.069151377402297,-0.046581438589584,0.055608246494039,-0.053969726662744,-0.030394679878283,0.027718116602320,-0.205324749638031,0.241763617498026,0.230234856857921,-0.103211695592674,-0.055418856137557,-0.171593586126598,0.218669493471561,-0.123998013626230,-0.078363294582650,-0.175019770372082,0.102545293436504,0.094326125076117,-0.119483859075394,0.005759205118646,0.021315980651255,-0.188840845657745,-0.106580982545654,-0.013115536959229,-0.050772563621091,0.245923766614493,-0.047567368674555,-0.015517018580135,0.124830807895130,0.044445607740130,-0.006926362556090,-0.040426380504740,0.022662198151361,-0.098704594789306,0.006534986722184,-0.038019949911440,-0.016900000000000,0.010036807218902,-0.005298312792368,0.266329340763742,-0.148878288553525,-0.117582476579900,-0.198268512252638,0.048051073865287,-0.204386165925283,0.018095625951612,-0.073598904695072,-0.037098140230230,0.017599087492263,0.117278043395344,-0.300051856497264,0.179155857296311,0.052063240410916,0.248428383890677,0.005549890771022,0.084480091534258,-0.039200692331944,-0.198579188043112,0.029600000000000,-0.140830092509535,0.093472966641193,0.175682165373919,-0.038497112129041,0.109937413036974,-0.128722751481712,0.230640213289632,-0.060674663763009,0.120630196964260,-0.162661012012882,0.010502389607972,-0.012030945630217,-0.150824193846057,-0.192365544083102,0.017371077007236,0.120311518406082,0.149002736213611,-0.141714120066217,0.066966002443581,-0.027501192992958,-0.180755764795411,0.072052269255070,0.017915317249543,0.258946516335695,0.232606967515833,-0.012932185970543,-0.000225459321477,0.111480427057440,-0.132372901548063,0.097625473925421,-0.211355859739329,-0.140686991080601,0.419716670450692,-0.015846359020647,0.000533821640949,0.233206887908891,0.039558599724127,-0.019862496488623,0.255676529947350,0.030044348775233,-0.025840834177186,0.144168907913374,-0.067247972437206,-0.166966569355168,-0.036663357770375,-0.029414784918877,0.143288767911194,-0.186938903071742,-0.032659141160114,-0.090796223334737,0.110580272840326,-0.017169482269508,0.095876934254437,0.002266643522334,0.066048230795875,-0.108143504938638,-0.017352916782461,-0.024062990146553,-0.155430812549328,-0.212857930621486,0.092904019482045,0.084334408077048,-0.037481918882660,-0.143401287837531,0.020245858790281,-0.009561277277053,0.020711516329060,0.160139595444676,0.023857233988812,-0.116059487016227,0.092728007436235,0.030563346233370,-0.001261432067662,-0.003966536587768,0.169296671639957,0.019323150269307,-0.043952279520967,-0.153052804935595,0.002977837587634,-0.214069515232937,0.012393395690875,
-0.066560615179582,0.039599928902711,0.014671313545339,0.272312073161981,0.005882641078288,0.066469972280974,0.001786573059728,0.086389485919784,-0.210095630934153,0.179112830039329,-0.085696093020250,-0.030815932286931,0.122474011641068,-0.051380332961327,-0.014662218135956,0.015838217619730,-0.027152743179590,-0.200509470526893,-0.092885916259676,0.191478899439301,-0.031371937931139,-0.248516581881083,-0.048302321410472,-0.169525246583923,-0.038681629952197,0.012388398759955,-0.254765356812362,-0.020484927132487,0.149922069133912,0.007137243219569,-0.081145114682315,-0.094989488631094,-0.019475434900005,-0.028477794577773,-0.022474806339659,-0.017753514183204,0.010791714523690,0.611080552102828,0.049556692641913,0.212533873881790,-0.017954050367809,-0.362117728837951,-0.133195985292033,-0.171384325990559,0.043555043573595,0.004360255161588,0.044028996990903,-0.033948572035656,0.038156286378180,0.040435209450035,-0.034507684677247,0.102991726648437,0.027715338898815,0.013622361187673,-0.025926185513698,-0.146246981072303,-0.000515783989045,-0.237199765861316,-0.079311417843329,-0.124125968609416,-0.022265032360107,0.206784991559640,-0.044588562368277,0.076601895358709,0.047535656203432,-0.035306069424032,-0.048022853981887,-0.104703355082432,-0.286972448165176,-0.111340207951829,-0.019150782657981,-0.125996920740423,-0.176179692868217,0.214795879753210,0.074514678069475,0.302255418426497,0.229870127904261,0.264871322661642,-0.030330688702762,-0.006452317557021,0.012628923396995,-0.014118649227715,0.231887701265817,-0.300575241000512,-0.022798893060832,-0.058349939569834,-0.260087227272509,-0.030978380854983,0.055207928004042,-0.048593049816706,-0.044307755397053,0.105062052459895,-0.013232535489143,0.023165383253095,0.126315865148522,0.051892878312098,-0.020450787559845,-0.026200000000000,0.016302986157233,-0.035176235213902,0.036915305510549,0.182728837213515,-0.115777738264019,0.092383648140452,-0.045327259290085,-0.151479783830715,0.080951497267687,-0.032745824810627,0.025960893273895,0.087418344710226,-0.140064924879169,-0.029347584009463,0.143941655027924,-0.146572845509252,-0.119920452441918,0.020523929435010,0.045873966763559,-0.011689366554397,-0.198702085370070,0.007750000000000,0.233395266980061,-0.176415548030496,0.061935387904415,-0.113028253933323,-0.022464560199571,0.251728307905013,0.039518694848098,-0.103415335012243,0.160012006567319,-0.050720225895080,0.045789938188886,0.245919070425928,-0.114833444973633,-0.008103037951205,0.307988521331912,0.094083880160600,-0.205757349209123,-0.043020165172970,0.158610648412917,0.014361288868395,-0.031675853687125,0.021353240300861,-0.004599076329596,-0.119933539057590,-0.064816861913334,-0.060394469454566,-0.005548846941766,-0.127043436322352,-0.174762214368891,0.128447267937828,0.091193828304305,0.105662611618443,0.221353215814092,-0.006544335642687,-0.043870824172590,-0.149619795362891,-0.029390856450952,-0.036956478050464,0.125861650053712,0.012862908047762,-0.027669316849240,0.115802900340432,-0.092475037596386,-0.066035515591525,-0.046563524332442,0.206223571818681,0.221729998719280,-0.077809104303409,-0.039833655804286,-0.214060820744777,-0.249737418796041,-0.072600447586134,0.112492447307677,0.036192341176268,-0.015206592915907,-0.042831437008770,0.038749234661159,-0.053686171237025,-0.316899995283408,-0.103869342660437,0.125818222324498,0.187638152583419,-0.031799134938038,0.527336929743367,-0.008934475320957,-0.161439293027530,-0.026336621514046,-0.053096147747061,-0.022028497152312,-0.054192743236067,-0.065283084569568,-0.047010190293590,-0.095641665060971,-0.192924130408165,-0.166662364023372,0.003324402061287,-0.005585411229609,0.356277353318894,0.277576170655776,0.073444685623106,-0.033291154481883,
-0.031615314209682,-0.041733190209688,-0.011118742415167,-0.181297056674093,-0.203851168263164,-0.075945438602706,-0.016558265840144,-0.292619727388288,0.437801758116017,-0.081675414229748,-0.162608787891244,-0.084845027387213,-0.070219635618570,-0.200964300620923,0.052219670819588,-0.188532068805759,0.030166286097422,-0.039558656403162,0.222753586416179,0.069762725048108,-0.009066561272475,0.281775207645000,0.075208056125186,0.168892123899954,0.054592937922521,0.025586378310192,-0.029158552649617,-0.061473729351331,-0.030862125590831,-0.085307226411399,-0.099723069681581,-0.055938093930733,0.071431344169121,0.147386195427946,-0.011667366219190,-0.011846044040984,-0.034309835660181,0.067874444253176,-0.050594027562538,-0.153804219160591,0.054003495331614,0.021097992300182,0.356232113446145,0.123880562331899,0.021994588235433,-0.007753030921345,-0.050799434452331,-0.097276312427665,0.007953421694464,0.021117811108785,0.010799619686688,0.145738361663619,0.026416864364418,0.001947469484884,0.276857878088182,-0.082739776391498,-0.249926587113946,-0.020514960967386,-0.101255426078634,-0.175664862680193,-0.216663859880496,-0.118340039152614,0.060043467766087,-0.084084085403217,0.008081864589410,-0.039017483566496,0.029059502575153,-0.079454207140021,0.012701631059282,-0.172930311887807,-0.127653497415544,-0.086694434435331,0.144522160784797,0.002052246986762,0.202154094988306,-0.172532598988834,0.079246003755075,-0.049630950498604,-0.048733632769339,0.088065785697760,-0.037492656591426,0.317316216968759,0.138335665949508,0.060775248888749,-0.040171639445857,0.104683986338756,0.159199673425393,-0.297877395813384,-0.074651482716104,-0.061311324529837,-0.018964005154995,-0.004395188017702,-0.034112689107332,-0.072455235226377,-0.048933461689060,0.006192590761117,-0.030540582876976,-0.018500000000000,0.083805780946044,0.032399639694494,0.289138347123536,0.075947438213272,0.383655694084114,0.029589895400699,0.022341524707816,-0.018529525585559,0.129636621145609,-0.065186272035644,0.012032134416413,-0.046071218721164,-0.113274003613700,0.045222607793513,-0.397389712452926,0.007925478094433,0.065128547637397,0.027860001762854,-0.140696905427719,0.001880514123763,-0.092594768771968,-0.027950000000000,0.235239381128704,-0.166695985552805,-0.140349566777694,-0.035124617431912,-0.026686221753145,0.164091106702697,-0.299640296101794,-0.143640598468115,-0.199475283823551,0.072060392626697,-0.027480624307881,-0.096472840723322,0.036978973026807,0.275905414749543,0.148693739038822,-0.161491132876009,0.281480021328502,-0.124962397612703,0.083962959935490,-0.070105272588321,-0.027222404444712,-0.001301287766394,0.029040143176033,0.060357910796904,-0.137566022450362,0.008289028890881,-0.048074869426780,0.058386949920164,-0.407468000522575,-0.039336138105318,-0.090548832982330,-0.124065544791426,0.159676473821397,0.039602621364812,-0.012360443852346,0.016690129193861,0.046145393173016,0.056209530349660,0.017152711721198,-0.022240906761981,0.013050516013742,-0.145918946281377,0.247392012475922,0.076486778268504,0.028057284590314,-0.028195047762259,-0.066204825034603,0.169669541425171,-0.013612968879653,0.013086596944556,0.413893086369013,-0.150387989660235,0.119794638615290,0.000045573381744,-0.041804897834054,0.050881669577899,0.010530540393402,-0.090266347633419,0.272834196342872,-0.163354396203039,-0.009915379314686,-0.275741780033014,0.009319255791307,-0.202635202337496,0.018026735215636,-0.215534415713466,0.099585851906542,-0.048040996680770,-0.001631177509190,0.255874092572925,0.080870526630533,0.036618875936371,0.169201728477292,-0.182740329441061,0.146703898674642,0.030217581667160,-0.031608800078343,0.018236080571830,0.040817213779995,0.199769723143293,0.061432185844146,
-0.020010195570289,0.026644580019872,0.040978405050742,-0.227000621710857,-0.115139809550902,0.038048045404910,0.043120056354191,0.029617725928413,-0.393550189419197,-0.108411529067536,-0.140148570930333,-0.048003524146737,0.322148626117739,-0.013711957687222,0.044329956930253,-0.199034025136758,-0.025249774082014,-0.049031523957640,-0.054273662261515,0.154444916479168,-0.016589252450305,0.042887889561470,-0.043657963322444,-0.050021272244936,-0.049067046602126,-0.013820325111125,-0.063156262462704,0.291949057029931,-0.148405612503186,0.060129085515531,0.119530220695707,-0.104526389083155,0.416082441900682,0.372716879802627,-0.034709377438701,-0.177529911671242,0.012952427363022,0.062265197606357,0.018104940584555,-0.311323571070358,-0.047457181371262,0.048296017690199,-0.229492694110400,-0.214765366209851,-0.030382962290790,-0.049964702005853,-0.008342503325507,-0.095936728300121,-0.027130750885458,0.055385361549544,0.030725370775197,0.136857204908077,0.039130793850001,0.012748306673275,0.138237890066458,-0.205949179217174,-0.137568040997450,0.232874919176089,-0.154880783603445,-0.233374732728683,0.076207681596009,0.085443106841307,-0.045176533733956,0.386074490417308,-0.010098903639083,-0.050128645568674,0.101569440410507,-0.229804407819165,-0.000381637602909,-0.076177519100376,0.135952958580603,0.007617057934721,0.152818481310051,-0.064082581195887,0.087277964744824,-0.009889309303424,-0.126343355773394,-0.066065243067773,-0.112139119137546,-0.048320481829958,-0.053995524923331,-0.012804140166051,0.219352617006647,-0.073907680708055,-0.005439156141211,-0.071979829257053,-0.105407729687070,0.157468417493199,-0.061181798046713,-0.040792821483583,-0.015885044209940,-0.067004674605592,0.005981309261727,0.073995999764974,0.131901642956253,-0.164784521792005,-0.011273149778680,-0.002750000000000,-0.076513311853547,-0.026198392851085,0.009503378406798,0.031179211375322,-0.035752724212742,0.035779530565592,-0.049061558679229,0.006890041262045,0.044615644204207,-0.103415360793911,0.003775228566335,0.041524309157833,-0.037932468332730,0.428955996089298,0.088575258213561,0.032781984190478,-0.184063628482234,-0.011040717003331,-0.206707535241335,-0.007235583860820,-0.169211097818109,-0.048150000000000,-0.045090921386455,0.141501504589218,0.024793765994466,0.041029162343880,0.040380056446975,0.262114889450144,-0.070300206460689,-0.047170345487989,-0.104111398560424,-0.152563878192019,-0.048308692741570,0.052790469238759,0.458551428054568,0.196094058351176,-0.056785612699747,0.014605082351911,-0.130083268002270,-0.026650719959184,-0.080738966582931,0.136574521358315,0.204983427107405,-0.102959252509059,-0.002415300003453,0.033834493869069,-0.048805603774477,0.050302125139113,-0.008244190715949,0.191932663563237,0.181862739867957,-0.163858545530851,0.204681495124938,0.040492692367728,-0.240349943325418,0.049543078187495,0.028088565553342,0.130928974932982,0.001998916606745,-0.180732620328584,-0.135145006230096,0.026804305251825,0.015642960563306,0.020821745811520,-0.013444003459241,0.182843502958005,-0.057315971498521,0.074216072302443,0.141529471946593,-0.010697053609207,0.031926213037693,-0.110372277133651,0.086203470363948,0.164812539614984,-0.100459045310998,-0.048166042385777,0.088707989963245,0.008505994706549,0.017791570549796,0.049001892249730,0.172278956793415,-0.223772736411705,-0.144812781097367,-0.144840686811976,-0.027977740747101,-0.003143312085583,0.017987505734441,-0.072970360772482,-0.013024134227036,-0.075255680182229,-0.067414814144235,0.017242135523000,-0.101650460635404,0.005633406634301,0.020012641866047,-0.015042632499879,-0.050262711359860,-0.005546150339855,0.034342086671021,0.049830854424182,-0.070844242273263,0.029899371845684,-0.005037812528759,
0.120510396651186,-0.036083964700710,0.009004044727862,0.060245897350969,-0.073883185727125,0.049010254854787,-0.004759158344777,0.001316719151879,0.282516214661267,0.122959926148817,-0.137157667770753,0.021076182055906,-0.042818391607795,-0.097689952304278,-0.010567802425681,-0.260007584137013,-0.010871149883890,-0.022369617642982,0.117064010359152,-0.049963075501392,-0.030537935606214,0.088788163508429,-0.050287195681411,0.067312445233272,0.088962404097762,0.057021281814674,-0.047881409523193,-0.129554127343205,0.306749553003487,0.000311205766655,0.042553988950726,0.081426090349848,-0.171965130715949,-0.197119793949051,-0.028668460533686,-0.041849172682683,0.116514199943589,-0.254987047437100,0.095686019717718,0.023052602200521,0.199492591318287,-0.057977537481282,0.336469960485915,0.213033805893596,-0.002449814317361,-0.027638339214698,0.016628284241949,0.072892516744526,0.035715086579697,-0.081584274910408,0.040227708156500,-0.208308484209006,0.023901159529625,0.012917978578113,-0.036854673633968,0.129280752762103,0.172871925531755,-0.177372418787713,-0.013127215872326,0.198624990757824,-0.009373139628554,-0.069919058902288,-0.031987491431495,-0.236056297623632,-0.003126841096922,-0.046464197176310,-0.024293268494958,0.378454189722973,-0.016304197598691,0.093705673198472,-0.176359486758017,0.252764208810263,-0.094915447980671,0.000947310057749,0.141743948438289,0.014064576596102,0.400222208651489,0.001626150842192,-0.003157095267961,-0.104613008973768,-0.000638020894586,-0.161986882184858,-0.085301856241979,-0.061609575825346,-0.013733653606707,0.052995929199259,0.017699264495550,-0.188662591136369,0.051613974193328,0.087728591340541,-0.013879574182690,0.096808309959847,0.043859193448972,-0.017097705005080,0.061685721416485,0.120939824524322,-0.011034835759122,-0.043200000000000,-0.042558606945770,0.053066713982364,0.065328168373514,0.295005772910926,-0.101713546687090,0.077364378613783,-0.046842874140979,0.172941414817278,-0.031688097714644,0.128993075912615,0.031137238185476,0.074136307263192,0.159493514463424,-0.237483739935213,-0.138385577505558,-0.174646253281418,-0.040923497416731,-0.009467053057858,-0.143079574925198,-0.038146160160326,0.397340982024089,-0.035150000000000,-0.011853116465530,-0.055687767650214,-0.074090977111991,-0.005010219520472,-0.051356122199053,-0.063740943775938,-0.171260943874563,0.169866178256999,0.011956775778706,0.149032596689159,0.021738024962735,0.018928468550685,-0.213819929003577,0.008728238166296,-0.083715109193632,-0.154336582842441,0.146433343698368,0.332876613885675,-0.019417093202726,-0.006817795735192,-0.275196002831902,0.010955892876852,0.031403799278510,-0.104073476545046,-0.017827778300044,-0.069320503911046,-0.010010494102040,-0.126417091550858,-0.082507812911587,0.054356025460020,-0.161026459369717,-0.153497693238067,-0.005581966291709,0.016729034080960,0.032074037741840,-0.233609453090445,-0.018792671003296,0.012280239892176,0.127674133037876,-0.031318805394711,0.047912670515835,0.061494000239176,0.128229644956436,0.035913392860506,0.058496635991868,-0.344315339356590,0.015457370473695,0.168830219992099,-0.025638608842035,0.098202564710339,0.172614105536853,-0.040797785781761,-0.001670025007501,-0.035866929835776,0.045068294504601,0.155461165001791,0.037027424269371,0.062092704961492,-0.056778888028410,0.283443088646155,-0.074399422232713,-0.121351558802857,0.027292683989279,-0.203897031863031,0.046702066622687,-0.068655202834541,0.098655739204331,0.032430089466839,0.004975466601490,0.120858512275362,-0.000517354226949,0.041680828655126,-0.101449696490330,0.015822167320963,0.135157652194939,-0.035546878202002,0.008097573065068,-0.102500886478287,0.009958207113110,0.028963385855936,0.074548333505389,
-0.244672624782304,-0.012308117607031,0.038985897920674,0.130959612764847,0.298324355061368,0.008573111855131,0.005911198122158,-0.105133692610071,0.208734007162900,0.007997441932444,0.206850947364917,0.006761919785297,-0.150605274715002,0.022532159396147,-0.029970693101792,0.116135852985569,-0.005638352629533,-0.123404128142432,-0.065306557959206,0.120734661239715,0.022618747497643,0.198145539094886,0.058074730777313,-0.172249078485775,-0.101667880704895,-0.000169586400305,-0.012040196419070,-0.107858106860293,0.094907135261346,-0.017635971924869,0.047002383919875,-0.041910933259432,0.145068869934597,-0.128108377782784,0.020046771287195,-0.180566869914696,-0.083343010575347,0.014502266709819,-0.088544403537677,0.088770730620647,0.087654831715519,0.319518370204821,-0.160686463747516,-0.106350639620367,-0.010182473765085,-0.034868515294681,-0.034691079153127,-0.063979498994389,-0.037486529504062,0.020808819624588,-0.041357631563499,-0.137273151374771,-0.023647297756688,-0.007798084731039,-0.172167490557187,0.137733855782750,0.180363202945834,0.122830748652966,-0.036257750345175,0.215420436920457,-0.242446333286162,-0.025723632912099,0.029698804315148,-0.160603106354994,-0.002264409543547,0.036002488134667,-0.005139718527851,0.064473141375321,-0.112282496323731,-0.157386957448673,0.217076129818634,-0.025781090684325,0.163960445783916,-0.108473687757547,-0.081385322072601,-0.080070705950682,-0.206874873083716,-0.058407466644338,0.040304435000061,0.009603017209216,-0.012976932620397,0.163087112318777,-0.079128902959186,0.375844413786534,-0.033332676299500,0.021663043313634,-0.046131872714774,-0.101708419917779,-0.059920771300992,-0.064664680173978,0.016683245392735,-0.109539007779261,-0.032796839146648,0.007286598983455,-0.032862282265090,0.244805861855220,0.004559493227985,-0.018500000000000,0.011450910104925,-0.033709655231131,-0.151789281507226,-0.075035882437771,0.105959491221399,0.128505150362991,-0.028226735113262,0.036545003754068,-0.191955653194287,-0.118512692673647,0.049413164897563,0.015600584950292,-0.058235932417681,0.399855390240318,-0.015055274096487,0.184423529741825,0.165839023813656,-0.003720976881330,0.163039885932717,-0.049056576118963,-0.027717203578856,0.010750000000000,-0.005179568316514,0.063697457714162,-0.204321144208739,0.211121097442402,-0.089780921049874,-0.400032939989268,-0.078685535570350,-0.082801245744171,-0.078443985557607,-0.161180839120934,-0.023387610856827,-0.052063750623181,0.063657898403635,-0.086260412304925,-0.195320329512317,0.019228117755321,-0.088358260773076,-0.073707628073844,-0.022640450127312,0.010689456857972,0.221479209415610,0.119596137515034,-0.011573766078158,-0.102477986978362,0.000747178662426,0.015687842946398,-0.010628279835195,-0.117039337975051,0.389745990498571,0.152162208233092,-0.011514464954115,0.086273854019214,-0.306391277682436,-0.022011227503222,-0.030896224884502,-0.019413559849617,0.035073154848301,-0.048609608264587,-0.210478599843856,-0.008338886810504,-0.021964373481964,-0.077984895715788,-0.200097153801909,0.010872391427398,-0.010224257972079,0.187016057872786,-0.241713215065018,-0.106661231113359,-0.004096817628993,-0.279040578822064,0.038021619203561,-0.006691509487005,-0.085174262675090,-0.046317107731757,-0.069862701474782,-0.080311697233587,-0.045109800031635,0.082446909101421,-0.037021881930577,0.146776779119739,-0.298652280399780,-0.106361396476551,-0.007763890322500,-0.175716911029888,-0.005704146530487,-0.098639631357307,-0.079304570093216,-0.021576039345640,-0.056272664425169,-0.096445686543920,0.157618671833948,-0.027753459880118,-0.216535491199133,0.059588647041318,0.081711201419691,-0.021440820491337,-0.051932277507745,-0.129410696616747,-0.107014524081114,0.081142512501849,-0.071620146677671,
-0.007289911934946,-0.030614174444368,-0.020214679771466,0.362783840241829,-0.009169390854621,0.055086235345573,-0.016344556797305,0.248384325792029,0.172145711557917,-0.038929027636844,-0.039803745926273,-0.134162972765760,-0.167004627702168,-0.151984605760301,-0.034953494647200,-0.296609145618567,-0.017202336731310,-0.080838808828955,0.026745612867399,-0.303639226779485,-0.021125813078419,0.118427902610241,0.024604266704834,0.041592806271039,0.034422694497920,-0.047458491685767,0.113145014381698,-0.321753391652629,0.073596243879581,-0.007105933275079,0.174554409414861,0.106980056894661,-0.269673391171864,-0.225425990655199,-0.041811731050281,-0.144654138005591,0.084071679625725,-0.036410810528686,0.090393680012868,0.335382146655729,-0.165599950417946,-0.239792971145927,0.280496264590772,0.015810530174410,0.038652674520110,-0.028361255637911,0.035043538427215,-0.126207023736971,-0.065170734632836,-0.128054736479270,0.000038657098659,0.240422425374687,0.008447289397797,-0.056871627245025,-0.153303052717819,0.000805483198932,-0.235908605581671,0.141054000633138,-0.082587553624501,0.049982670311822,0.296740198610214,-0.031025680650015,0.057100802608816,-0.076988247048154,0.043341000357383,-0.062150559494137,0.016183940421753,0.074367933968438,-0.131315247570468,0.128080022019422,-0.074487763815317,-0.041758047678606,-0.062990559057457,-0.147842263119304,0.013035063773236,0.087283216339185,-0.199901205212731,-0.150647521482934,-0.041882905582099,0.171931161261211,-0.044225882587865,-0.112507967075010,0.115699434910238,-0.013961319159990,-0.042784662666382,0.013283790147411,0.102932096877792,0.057252913436634,0.022254535159832,0.118199082652889,-0.001832942748744,-0.084198970913988,-0.012464909172655,0.023734051888736,-0.072594498858654,-0.018050151875564,-0.010740535716283,0.029900000000000,0.019350296938841,-0.009671238733263,-0.122000879435507,0.032176020176400,0.095297311754726,-0.095904015308367,0.007497457517310,0.027388412411089,-0.170465336197648,-0.095832686188509,0.048895519859527,0.004264015012141,-0.076780015499335,-0.092074251134548,-0.143355251581924,0.291083707129999,-0.147513871142228,0.072071137784707,-0.061984526870404,-0.052801440514265,0.147845547141357,-0.028000000000000,-0.044240448215990,-0.093272014557025,0.055069474633080,0.068555504824648,-0.054374709255452,-0.154749268162549,-0.104023434673962,-0.047412185707101,-0.175970281212319,0.165189590346025,-0.028134630327787,-0.128438752037447,0.044235626834037,-0.042560870189569,-0.100092894570858,0.051856821217494,0.009656674258794,0.010613745642193,-0.125362975247844,0.000693849925212,0.295175572024621,-0.143198830375557,-0.039924128140837,0.044679830945217,-0.139059606535243,0.046996703780006,0.005949998213979,-0.002530367956962,-0.122478402495096,0.295787112813221,0.336508100415437,0.002728254512439,0.122190786373523,-0.054280599203591,0.033752288612923,-0.007564675466753,-0.042645007378684,0.041945755969544,-0.071543412129539,0.003841958243861,0.025112455744979,0.077329351258037,0.171449728753498,-0.073483625352257,0.066051632949015,0.312737421850102,-0.215834884992624,0.146699432569973,0.010770782574230,0.154146908983421,-0.127437804285608,-0.140443905052489,-0.030734288845600,0.043387913495257,0.005819855413488,-0.097574061033966,-0.022189942873164,-0.037374453720248,0.062092165384512,0.452699791638326,-0.042366960442507,0.103253721687097,0.002059538150815,0.352903750280406,-0.045980178795563,-0.123313827571186,0.004714452295711,0.018248090777705,-0.030303403218605,-0.133200488858398,0.102521176789313,-0.000203166875103,-0.070498074788032,0.014924226547023,-0.196760707071780,0.015945839111832,0.043160783283181,0.117641721020165,-0.036053210882511,-0.243401274735601,0.009814299901320,
