0.067563870847300,0.001203510211781,0.000209727775655,-0.000435102119809,-0.000140499992995,-0.000860564701725,-0.001076622866094,0.000249086122494,0.000304304121528,-0.000070689078711,-0.000703379104380,-0.001777266385034,0.000155614237883,0.000596523634158,0.000049828275223,-0.000305499997921,0.000060152488004,-0.000266428425675,-0.000872339180205,-0.000228499993682,-0.000279498868622,0.000538637745194,0.001667595468462,0.000404775899369,-0.000080500001786,-0.000749673461542,-0.000055585976952,0.000201999995625,0.000407958228607,0.000650411297102,-0.000322182982927,0.000012999999853,-0.000317069585435,-0.000430032814620,0.000303391221678,-0.000229708282859,0.000164500001119,0.000315000012051,-0.000423632940510,0.000476499990327,0.000100078425021,0.000899860286154,0.000038999998651,0.000754361273721,0.000056482807850,0.000284014793579,-0.001178127131425,0.003417947795242,0.000335909251589,-222.163528442382812,-0.001255269628018,0.000029626567994,-0.000268772273557,-0.000546863710042,0.001235627220012,-1004.706176757812500,-0.000347876281012,0.001008468214422,0.000453316490166,0.000248163210927,0.000879575032741,0.000214192608837,-0.000077609453001,-0.000900839746464,-0.000434441579273,-0.000015934729163,0.000353590643499,-0.000971732893959,-0.000788774807006,-0.000366031774320,0.000565534108318,0.000238615568378,-0.000168949947692,-0.000475500011817,0.000288842886221,-0.000693874433637,0.000405802711612,-1.857743859291077,0.001959820743650,-0.001220909180120,-9.355095863342285,-0.000383941835025,-0.000133384644869,0.000035849214328,-0.001187377609313,0.000247499992838,-0.000113045483886,0.000025650899261,-0.000504743191414,0.000110709304863,-0.000294504716294,0.000205170901609,-0.001550009939820,-0.000054803625972,-0.000325935892761,-0.001137763145380,0.000069696870924,-0.000754681765102,0.000375479168724,-0.000313871016260,-0.000616483972408,-0.000185232114745,0.013440971262753,-0.000490987964440,0.000410000007832,-0.000569863652345,0.000190151054994,0.000480256101582,0.000315652898280,-0.000224956878810,0.000870098825544,0.000063184394094,0.000125999999000,-0.000332790223183,0.000744929653592,0.000338568934239,-0.000719387433492,0.000236970212427,0.000235890925978,0.001395275699906,-646.171386718750000,-0.000157373971888,-0.000425628124503,-0.000532070116606,0.000445499987109,-0.000283297238639,0.000163900142070,-0.000200427064556,-0.001023199874908,-0.000955589581281,-0.000025940875275,-0.000235493949731,-0.000429464271292,-0.000082706159446,0.000252079189522,0.000006482752724,0.000559223059099,0.000005246187811,-0.000006183848200,-0.000185922661331,0.000570905918721,-0.000685734674335,-0.000860578205902,-0.000292111129966,0.000229335011682,-0.000316281424602,-0.001228620181791,0.000308692513499,0.000102777165012,-0.000448998325737,0.000440346484538,-0.000145415280713,-7.792797565460205,0.000713967194315,0.001848723972216,-0.001716319937259,-0.000079975994595,-0.000373445975129,-0.000315361859975,-0.000234999999520,-0.000843844260089,0.000672411348205,-0.009951484389603,-0.000427203776781,-0.000594117096625,-1114.946777343750000,0.004736521281302,0.001357024302706,0.000144325778820,-0.000636210257653,-0.000634120311588,-0.001094505307265,0.000111253953946,-0.000763599178754,-0.000037926205550,-0.000259966618614,0.000915742595680,0.000364453706425,-0.000858496932779,-0.000522565678693,0.000307184178382,-0.000468464015285,0.000787271885201,0.000192245192011,-0.000950409565121,0.000123871388496,0.000168247832335,-0.000492338964250,-0.000190773280337,-0.000771712628193,0.000763683230616,-0.000562759523746,0.000120882461488,0.000682688434608,0.001078815781511,-0.000413459696574,0.000543566828128,0.004445572849363,0.000236204141402,0.000240099107032,-0.001734240911901,
-0.010114566421741,0.000023252459869,0.000819421955384,0.001103008049540,-0.000097500000265,0.002071823691949,0.003276439383626,0.000298349506920,0.002432279288769,0.001853995840065,0.000113438196422,0.004660641774535,-0.000413845147705,-0.004373992327601,0.000153083834448,-0.000044000000344,0.001674481783994,0.000860270578414,0.003078105626628,-0.000386500003515,0.002022285014391,0.001828389707953,0.014743846841156,0.000535885395948,-0.000075999996625,0.002620525192469,0.000453591608675,-0.000258499989286,0.001362320734188,-0.000434647401562,0.000038228314224,0.000371000001905,0.001164673245512,0.000854485726450,0.001264073303901,-0.000012979518942,0.000264000002062,0.000342999992426,0.001522065722384,-0.000445000012405,0.001808900851756,0.002330306917429,0.000103500002297,0.002177071059123,0.002088027773425,0.000222786839004,0.002975572366267,0.006434714421630,-0.000601233972702,94.722396850585938,0.002661409322172,-0.000657731841784,-0.001731483964249,0.001383917988278,-0.000908426183742,428.368408203125000,0.001358075416647,-0.000563994573895,-0.000478205096442,0.001135405269451,-0.001245827414095,0.002197806257755,-0.000560272950679,0.001821493380703,0.000634559779428,-0.000433485140093,-0.000194767344510,0.002554598962888,0.003002562327310,-0.000282519118628,0.001046910765581,-0.002358346711844,0.001075069885701,-0.000134500005515,0.001000783056952,0.001040422008373,0.000039306931285,0.792261242866516,0.007297843229026,0.002265185350552,3.989238023757935,0.001155738136731,-0.000368044566130,-0.000191155966604,0.001788635505363,-0.000024000000849,0.001184592023492,0.001203842810355,0.001058175228536,0.000309244176606,0.002412500325590,0.003553284797817,0.001836320152506,0.000466439552838,0.000391561596189,0.001941764261574,0.003409467171878,0.002922909334302,0.002586146583781,0.001155029865913,0.000847462157253,-0.000027737914934,0.032110676169395,0.001786399749108,0.000488999998197,0.000908034679014,0.000114887072414,0.002321852138266,-0.000356390984962,0.004381105303764,-0.000388347485568,-0.000187799509149,0.000019999999495,0.001407863805071,0.003510097973049,0.000576408114284,0.000928751600441,0.000312122836476,-0.001231007976457,0.002233116654679,275.504638671875000,0.000324801396346,0.000548225478269,-0.000212607556023,-0.000060999998823,0.000873434182722,0.000024198145184,0.001423505949788,0.003810565220192,0.001918979571201,0.002994011389092,-0.000396318384446,0.000234388222452,-0.000268219853751,0.001470356015489,-0.000259892898612,-0.000070338581281,0.000761200150009,0.000421312230173,-0.000557373918127,0.000600880885031,0.000961040554103,0.002422646153718,0.001912609790452,0.002845702692866,0.000712310953531,0.000597801816184,-0.000041381725168,0.000451216677902,-0.000766278884839,-0.000928791007027,0.001824298291467,3.323316574096680,-0.000513131788466,0.006173683796078,0.002647287212312,0.000351979804691,0.002230256097391,0.001742942258716,0.000392499990994,0.000770991609897,-0.001804772997275,0.004333869554102,0.000771021761466,0.002293011406437,475.369995117187500,0.011080215685070,-0.000934726209380,-0.000309814582579,0.002096624812111,0.002943282015622,0.003158761421219,0.000498418114148,0.000742556469049,0.001034575281665,0.001142582972534,-0.000905267719645,0.002607648493722,0.002205221448094,0.001284919795580,0.002476170659065,0.000808149692602,0.000000530229613,-0.001199955120683,0.001927080680616,0.001777534023859,-0.000283681292785,0.000195772750885,0.000520608155057,0.000335156859364,0.002165825339034,0.001756206271239,-0.000441192998551,0.000794982246589,0.000556268321816,0.000819036969915,0.000063584331656,0.013647284358740,0.000702073622961,0.001148589071818,0.004044751636684,
-0.089271155762341,0.001244683982804,0.000059942645748,0.000457384390756,-0.000169999999343,0.000331777206156,0.001302707125433,0.001280055264942,0.001401518587954,0.001719767926261,0.000859040243085,0.000902115192730,0.000313612748869,0.002619173843414,0.000398397794925,-0.000427499995567,0.000459199334728,0.000730978208594,0.000468966114568,-0.000430999993114,-0.000260588654783,0.000846372742672,0.006620310246944,0.000004533408628,-0.000333500007400,0.000971641333308,-0.000016698484615,0.000065499996708,0.001010668464005,0.001301636570133,0.001459049177356,0.000107499996375,0.000982377794571,0.000513071950991,0.001049250829965,0.001026800600812,-0.000342000013916,-0.000166500001797,0.000274694059044,-0.000192499996047,0.000613410084043,-0.001300955656916,0.000194499996724,0.002263518748805,0.000630244961940,0.000095713650808,0.001233655144460,-0.005710757803172,-0.001569325802848,92.246200561523438,0.001229161862284,0.001002990989946,0.001884816447273,0.000653908820823,-0.000477054651128,417.169311523437500,0.000342986546457,-0.001261461176910,-0.000640865007881,0.001937912544236,-0.001101446803659,0.001379515742883,-0.000485911441501,0.000792571401689,0.000302525091683,0.000134506990435,-0.000670180656016,0.000457027461380,0.000659544602968,-0.000953931070399,0.000155113506480,0.003584434743971,0.000187392870430,0.000487499986775,0.000669793924317,0.000403763813665,-0.000406197301345,0.770735263824463,0.005637758877128,0.000410544133047,3.884283065795898,0.000779070600402,-0.000643988547381,-0.000434736342868,0.000875819183420,-0.000385999999708,0.000632979266811,0.000444364006398,0.000417778268456,0.000655469193589,0.000843450485263,0.002492911648005,0.000685712671839,0.000298300117720,0.000047200981498,0.001062324154191,0.002237873151898,0.000247075426159,0.001708328258246,0.000535519793630,0.000589608447626,-0.000432242173702,0.005018408875912,0.000798149500042,-0.000101500001620,0.000481686438434,-0.000148416380398,-0.000407718529459,0.000422735931352,0.002085661981255,-0.000463194970507,0.000385182880564,0.000312499993015,0.001106983749196,-0.000359649362508,0.000282107590465,0.000513832899742,0.000143125202158,0.001534816808999,0.001725250738673,268.299896240234375,-0.000575584243052,0.000491238839459,-0.001075799693353,-0.000301499996567,0.000131707216497,-0.000298456550809,0.000268102536211,0.000365847517969,0.000044963158871,0.001269432948902,0.000305433670292,0.000242440393777,-0.000020979014153,0.001823194092140,-0.000256435421761,-0.001313092536293,0.000241096247919,0.000532684905920,-0.000753292290028,0.000919634243473,0.000320790742990,0.002077042823657,0.000993917579763,0.001381371635944,0.000631924427580,-0.000835441809613,-0.000671325717121,0.000515082734637,-0.001689725671895,-0.000967040483374,0.000546196009964,3.236061811447144,-0.000335534597980,0.000558539235499,-0.000815326522570,-0.000102465011878,0.000883771164808,0.001382339629345,-0.000486500008265,0.002186060883105,0.000252143567195,0.003858942072839,0.000380487239454,0.000711312110070,462.943298339843750,0.002268475480378,-0.000668212946039,0.000281624554191,0.000209227568121,0.000533710001037,0.000598911778070,0.000135619251523,-0.000224115399760,0.000491813989356,0.001397025771439,-0.000830520351883,0.001665807329118,0.001218245364726,0.001289559062570,0.001572577864863,0.000511634338181,-0.000353295326931,-0.000266445422312,0.000587141490541,0.001291455002502,0.000213447216083,-0.000415906368289,0.000662501552142,0.000947759079281,0.001434720819816,0.001861720811576,-0.000664205290377,0.000056455119193,0.001516802236438,0.000760693277698,-0.000499781046528,0.003745988942683,-0.000114247130114,0.000236514897551,0.001118822023273,
-0.034483590477385,-0.000776254513767,-0.000049901347666,-0.000295644102152,-0.000129499996547,-0.000069854526373,0.000085362371465,-0.001394492108375,-0.001064231852069,-0.000532065925654,-0.000481081893668,-0.000140736607136,0.000384618382668,-0.000559829175472,-0.001092293765396,0.000373999995645,-0.001317047164775,-0.001014881883748,-0.000346777116647,0.000480499991681,-0.000177072288352,-0.001184682711028,-0.009371199645102,0.000141515120049,0.000318000005791,0.000193801126443,0.000420542462962,-0.000491500017233,-0.001215730095282,-0.000626653491054,-0.000578198872972,-0.000294500001473,-0.000022136993721,-0.000025366438422,-0.001060917275026,-0.001304834382609,0.000118000003567,0.000242499998421,-0.000265645649051,-0.000224000003072,-0.001030674553476,0.001392839010805,-0.000173499996890,-0.001981755718589,-0.000454247667221,0.000033411135519,-0.000562779663596,-0.000103693637357,0.000112047782750,259.637268066406250,-0.000702808378264,-0.000553865160327,-0.002071510069072,0.000181277879165,-0.000202728639124,1174.174194335937500,-0.000345078820828,0.000574344769120,-0.000223669689149,0.000067016764660,0.000577886297833,-0.001372360740788,-0.000135896305437,-0.000160774186952,-0.000915963551961,0.001332697458565,0.000771662569605,-0.000193868589122,-0.000062838131271,0.000875597121194,-0.000382501166314,-0.000853392586578,-0.000675703107845,-0.000191500002984,0.000254345708527,0.000029185121093,0.000204311960260,2.168725490570068,-0.002955453703180,-0.000288038427243,10.935331344604492,-0.000834076316096,0.000682976446114,0.000322286534356,-0.000404205056839,0.000302000000374,-0.000535030092578,-0.000530001358129,-0.000370318855857,-0.000472650193842,-0.000598596641794,-0.002338004764169,-0.000205650358112,-0.000511935679242,-0.000045190077799,-0.000356557080522,-0.002672738395631,0.000015879641069,-0.001705872244202,-0.000009988900274,-0.000095393857919,-0.000185231969226,-0.025259358808398,-0.000553884601686,-0.000147500002640,-0.000392794143409,-0.000220768561121,-0.000168298836797,-0.000851679593325,-0.002099827630445,-0.000739243288990,-0.000212159910006,0.000468999991426,-0.000169349717908,-0.000886241206899,-0.000582504959311,-0.000647948880214,-0.000153549190145,0.000029188469853,-0.002513563726097,755.161193847656250,-0.000111730405479,0.000181118593900,-0.000302305939840,0.000449999992270,0.000029723900298,-0.000112047193397,-0.000148795836139,-0.000340501923347,-0.000001685659868,-0.001993770478293,-0.000325412751408,-0.000537111773156,-0.000446933001513,-0.001687072799541,-0.000109751308628,0.000376398325898,-0.001550057437271,-0.001266405568458,0.000257655658061,-0.001031095627695,-0.000257173378486,-0.000433553912444,-0.001126237446442,-0.000922683568206,-0.000184109332622,0.001013888628222,-0.000121665332699,-0.000638187397271,-0.000917870376725,0.000112196816190,-0.001305279321969,9.105755805969238,0.000241991961957,-0.004410826135427,-0.001760045648552,-0.001184322522022,-0.000150813037180,-0.000503517279867,-0.000306500005536,-0.000228998324019,-0.000396913499571,0.008892877958715,-0.000691882043611,-0.000311025563860,1303.009521484375000,-0.009477385319769,0.000246054201853,0.000151200511027,0.000103170183138,-0.000400606426410,-0.000205935619306,-0.000328375259414,-0.000219888650463,0.000116039242130,-0.001164324115962,0.000004999849352,-0.001835619099438,-0.000251878489507,-0.000386361381970,-0.001874648383819,0.000321599858580,0.000483112060465,0.000247009389568,-0.000666343374178,-0.001556537928991,-0.000129136824398,-0.000033667885873,-0.000479380280012,-0.001157774589956,-0.001245075836778,-0.000308958289679,-0.000136563990964,-0.001004392746836,-0.001508118468337,-0.000279911502730,-0.000254908547504,-0.010825807228684,-0.000334783748258,-0.001117999199778,-0.000395874812966,
-0.238235723018469,-0.000149066981976,-0.000000358141563,-0.000279857020359,0.000489500002004,-0.000454677414382,-0.000476631335914,-0.000319906597724,-0.001167142298073,-0.000707103987224,-0.000202166178497,-0.000189165220945,0.000213614679524,0.002615718171000,-0.000236199266510,-0.000437500013504,-0.000902816420421,-0.000260871340288,-0.000220313930186,-0.000338000012562,-0.000119831776829,-0.000894223980140,0.002085557905957,-0.000124088517623,-0.000264500005869,-0.000002207911393,-0.000365734536899,0.000282499997411,-0.000081215694081,0.000484722870169,0.000241025743890,-0.000425000005635,-0.000251419580309,-0.000267548661213,-0.000778115354478,0.000673120142892,-0.000286499998765,-0.000391999987187,-0.000573253375478,-0.000276500009932,-0.000208422701689,-0.001124484580941,-0.000049999998737,-0.000776870292611,-0.000325819040881,-0.000470997882076,0.000344359723385,-0.003091973252594,-0.001044905046001,-203.242660522460938,0.000412479770603,0.000855140155181,0.002233534352854,-0.000390878441976,-0.001430548029020,-919.138061523437500,0.000226024203585,-0.002515315078199,-0.001114120590501,-0.000712973996997,-0.002249913755804,-0.000128752275486,-0.001058572204784,0.000378393626306,-0.000252028345130,-0.000807638105471,-0.000795843778178,-0.000131953740492,-0.000054096770327,-0.001531144604087,-0.000446681689937,0.002785360906273,-0.000177516049007,0.000310000003083,-0.000497860135511,-0.000255102728261,-0.000115198541607,-1.696665883064270,-0.001385967480019,-0.000218575092731,-8.562392234802246,-0.000640950922389,-0.001259840908460,0.000104370097688,-0.000420707481680,-0.000314500008244,-0.000624861917458,-0.000306179164909,-0.000791526865214,-0.000304525048705,-0.000236915991991,-0.001081489026546,-0.000141313867061,0.000440869771410,-0.000025186160201,-0.000022787544367,-0.000915740733035,-0.000050562761317,-0.001662478898652,-0.000178946371307,-0.000638019992039,0.000298763538012,-0.030430957674980,0.000077330601925,-0.000457499991171,-0.000219777997700,-0.000568876159377,-0.001329153077677,0.001064483425580,-0.004453018307686,-0.000931593822315,-0.000293820339721,0.000491500017233,-0.000498871784657,-0.001304857665673,-0.000735792564228,0.000424038211349,0.000386900530430,0.000405376893468,-0.001114189042710,-591.140075683593750,-0.000598785583861,0.000038555059291,-0.000895232195035,0.000028500000553,-0.000800751440693,-0.000293990102364,-0.000954259710852,0.000139672978548,-0.000426006125053,-0.000843763933517,-0.000009178042092,0.000003790375558,0.000097581272712,-0.001101763220504,-0.000801169895567,-0.001842154422775,-0.000677129137330,-0.000872758508194,-0.001457021106035,0.000118650030345,0.000060160789872,-0.001429452444427,-0.000556169718038,-0.001106562674977,-0.000777747889515,-0.001217538840137,-0.000119225405797,-0.000655344687402,-0.000135733513162,-0.001227083033882,-0.001163309207186,-7.129307746887207,-0.000400664284825,-0.003670743666589,0.000747980957385,0.000312161690090,-0.000556534505449,0.000541150686331,0.000028500000553,-0.000474950065836,-0.000927966961171,-0.006124665495008,0.000103018661321,0.000010058449334,-1019.987426757812500,-0.009033001959324,-0.001435329904780,0.000326796376612,0.000073825372965,-0.000354803574737,-0.000549441960175,-0.000325400760630,0.000148466380779,-0.000260387023445,0.000249131378951,-0.001194699667394,-0.000501950504258,-0.000084032872110,-0.000062069782871,-0.000987854553387,-0.000107951680548,-0.000116767303552,-0.000177192850970,-0.000017883765395,-0.000719964562450,0.000021964424377,0.000279453379335,-0.000373828370357,0.000280087115243,-0.000719798088539,-0.000419076066464,-0.001417299965397,0.000272148929071,-0.001390906167217,-0.000300159095787,-0.000187251804164,-0.011604021303356,0.000722953584045,-0.000071126094554,-0.000131213499117,
0.114445569716659,-0.000090899462521,-0.000890108465683,-0.000057334109442,-0.000368500011973,-0.000616016972344,-0.000456920184661,-0.000451904197689,-0.000478332047351,-0.000245206145337,0.001972387079149,-0.000537843850907,0.000128118568682,-0.001614529290237,-0.000388061744161,0.000497000000905,-0.000056416523876,-0.000162219337653,-0.000518761458807,0.000331999995979,0.000468450336484,0.000206027441891,-0.011438835412264,0.000065384490881,-0.000006499999927,-0.000832507968880,0.000636225682683,-0.000060999998823,0.000259601132711,0.000206822733162,-0.000576203281526,0.000151000000187,-0.000118541138363,-0.000293465971481,-0.000503422168549,-0.000635536387563,0.000014999999621,-0.000055500000599,-0.000183920798008,-0.000326999987010,0.000345716543961,0.001577207003720,-0.000219499997911,0.000375277973944,-0.000203886273084,-0.000041560837417,-0.000752775114961,0.005058364942670,-0.000783336407039,-54.535919189453125,-0.000760088791139,0.000922894047108,0.000811797799543,-0.000864056637511,-0.000652162067126,-246.631195068359375,-0.000387106847484,-0.000537572603207,0.000179004855454,-0.001138033345342,-0.001099820132367,-0.000719888368621,0.000147856320837,0.000027656564271,-0.000675761373714,0.000259976135567,-0.000387934414903,-0.000724873796571,-0.000865166250151,-0.000734245870262,-0.000399562646635,0.001674918108620,-0.000201631788514,0.000108499996713,-0.000109675143904,-0.000753920932766,0.000010304932403,-0.455760359764099,-0.004870152100921,-0.000418391457060,-2.297108888626099,-0.000035436605685,-0.000784505391493,0.000351539405528,-0.001028372207657,-0.000017500000467,-0.000312578777084,-0.000889834191184,-0.000281564891338,-0.000309413153445,-0.000813597172964,0.000174926710315,-0.000867514696438,-0.000107036401459,-0.000906064698938,-0.000732281187084,0.000447523751063,-0.000229734287132,-0.000865120324306,-0.000786825956311,-0.000168822516571,0.000489266298246,0.006849406752735,0.000112790621642,0.000359500001650,-0.000123914738651,-0.000198072419153,0.001406230847351,0.000040089424147,0.002485490869731,-0.000508513941895,0.000385193387046,-0.000058500001614,-0.000505372299813,0.002306225243956,-0.000721251475625,0.000128490748466,-0.000415422022343,0.000421877019107,0.001069580786861,-158.621124267578125,-0.000318481324939,0.000209376885323,0.000204977812245,0.000132999994094,-0.001356522087008,-0.000045424596465,-0.000076133925177,-0.000530198158231,0.000160289971973,-0.000531143799890,0.000046598474000,-0.000176382425707,0.001645138836466,0.000163494798471,0.000058633799199,-0.000937881646678,-0.001853298861533,-0.000385892577469,-0.001063477946445,-0.000160883413628,-0.000739163777325,0.003698170650750,-0.000115838411148,0.000030398514355,0.001871571876109,-0.000264702190179,-0.000363865430700,-0.000346329965396,-0.001630664570257,-0.000150211519212,0.000450490304502,-1.913287520408630,-0.000164251134265,0.002876845886931,0.000612501287833,-0.000090918118076,-0.000337256409694,-0.001058932859451,0.000033000000258,0.004602898843586,0.000484519638121,-0.001787935150787,-0.000538790714927,-0.000289231073111,-273.691650390625000,0.006799964699894,-0.000227021402679,-0.000322830252117,-0.000188148740563,-0.000435131107224,-0.000292367127258,-0.000746896257624,-0.000260849541519,-0.000349225883838,0.001078413217328,-0.000001736895456,-0.000002080849526,0.000007259646736,-0.000127866180264,-0.000110384142317,0.000084879939095,0.000898730882909,-0.000294243742246,-0.000547361036297,-0.000597902748268,0.000225494630286,0.000411009474192,-0.000070033551310,-0.000427832099376,-0.000153841436259,-0.001221728743985,-0.000429108564276,-0.000428262923378,-0.001480176346377,0.000610900169704,-0.000062606006395,0.003896049922332,-0.000895479985047,0.000107945415948,-0.000632492301520,
0.182275077054216,-0.000604192784522,-0.000910509086680,0.000091479290859,0.000092000002041,-0.000951993628405,-0.001155078760348,-0.001412047771737,-0.002858719322830,-0.002037486759946,0.000198839916266,-0.002272496232763,-0.000412580964621,0.000640696089249,-0.000767890829593,-0.000246500014327,-0.001225521205924,-0.001069018500857,-0.001493966672570,0.000391500012483,-0.000750252918806,-0.002194605069235,-0.017497127875686,-0.000389910448575,0.000276000006124,-0.001483889645897,-0.000687558494974,0.000175499997567,-0.001934441272169,-0.000948540226091,-0.000607757654507,0.000207499993849,-0.000921271275729,0.000078742181358,-0.001682862406597,-0.001548300031573,0.000345999986166,-0.000234000006458,-0.000441117590526,-0.000039999998990,-0.001277602743357,-0.001019722782075,-0.000350999995135,-0.003086091019213,-0.000859692285303,0.000219044770347,-0.001426017144695,-0.000623826461378,0.001030549872667,117.369781494140625,-0.001488836132921,-0.000541084038559,-0.002387874992564,-0.000603023217991,0.001314329565503,530.795227050781250,-0.000807986420114,0.001944192335941,0.000474506698083,-0.001312029315159,0.001113533508033,-0.001962563488632,0.000788846809883,-0.000610618270002,-0.000037936108129,-0.001214920426719,0.000575842801481,-0.001244911225513,-0.001612152322195,0.000289200572297,-0.001476890058257,-0.002767384052277,-0.001032823813148,-0.000172500003828,-0.001006088685244,-0.000285926595097,-0.000427689374192,0.981299281120300,-0.006643955595791,-0.001676634536125,4.942763805389404,-0.001298232586123,0.000872321019415,-0.000030399734896,-0.001192897208966,-0.000204500000109,-0.001288631698117,-0.001347629819065,-0.000968023494352,-0.000174512781086,-0.000904882559553,-0.003589286468923,-0.001377036329359,0.000416473398218,0.000090217596153,-0.000890086870641,-0.003387834411114,-0.000672080263030,-0.001848729560152,-0.000630848167930,-0.000859119638335,-0.000403881800594,-0.011058642528951,-0.000787527300417,0.000352000002749,-0.000644084531814,-0.000498693960253,-0.000585550675169,-0.001093877828680,-0.002270359778777,0.000129699561512,0.000415716785938,-0.000255999999354,-0.001653364859521,-0.001229115179740,-0.000523154449183,-0.000230627643759,-0.000734570960049,-0.001369879581034,-0.002333543496206,341.377380371093750,-0.000611818803009,-0.000197931469302,0.000101446021290,-0.000333000003593,-0.000341000995832,0.000879750412423,-0.001380987232551,-0.001838262076490,-0.000938911107369,-0.003017523093149,0.000468367448775,-0.000010599621419,0.000806580821518,-0.002776806475595,-0.000019591077944,0.001623014220968,-0.000137871873449,-0.000702924153302,0.001174947596155,-0.001832378446124,-0.000563919369597,-0.001810308778659,-0.001037650043145,-0.002889809431508,-0.001538725104183,0.001930664177053,0.000285309855826,-0.000699523137882,0.001173452241346,0.001180451479740,-0.001627753023058,4.115961551666260,0.000757089350373,-0.001941817230545,0.000483700219775,-0.000999876065180,-0.000820872141048,-0.000622251187451,0.000468999991426,-0.001254956005141,0.001725930720568,0.004511755425483,-0.000406416249461,-0.001069598132744,589.034667968750000,-0.004110189154744,0.001029443345033,0.000290023570415,-0.000737379072234,-0.001393837155774,-0.001149741699919,-0.000585533736739,-0.000930223381147,-0.000280049949652,0.000160011069966,0.001100716064684,-0.003266349900514,-0.000891373725608,-0.000929294328671,-0.002703879959881,-0.000186151548405,0.000006198569736,-0.000115227732749,-0.001073808409274,-0.002417674520984,0.000171883468283,0.000433606066508,-0.000407593732234,-0.001042938791215,-0.002069407375529,-0.001953192753717,0.000636604439933,-0.000910218746867,-0.000309563503833,-0.000175359775312,0.000400535209337,-0.006275027059019,-0.000871659955010,-0.001771345501766,-0.002131931018084,
-0.046506609339611,0.000245256087510,0.000413838133682,0.000484827905893,0.000121500001114,0.000327313784510,0.000867012131494,0.002123245503753,0.002247293479741,0.001482062973082,-0.000804161129054,0.001431423937902,-0.000362385151675,0.001829936169088,0.001499764039181,-0.000167499994859,0.001324339886196,0.000746094796341,0.000451131694717,0.000000499999999,-0.000550254364498,0.001889014150947,0.006707001011819,-0.000143150056829,0.000142000004416,0.000407807820011,0.000050347378419,-0.000193500003661,0.001195781165734,-0.000076367294241,0.000937455333769,-0.000270999997156,0.001001419732347,0.000231082318351,0.001092293299735,0.001784384832717,0.000050499998906,-0.000380999990739,0.000606744317338,0.000218000001041,0.001434825593606,-0.000163438977324,0.000167499994859,0.002391428919509,0.000596969854087,0.000196506021894,0.000996022019535,-0.000083482387709,0.000476248824270,117.297348022460938,0.000532383040991,-0.001210830872878,0.001066274242476,0.000634258904029,-0.000185057171620,530.468078613281250,0.000282795022940,-0.000702596036717,-0.000335751072271,-0.000551446049940,-0.000220704707317,0.001768668415025,0.000083528422692,0.000620760780293,0.000910236209165,-0.000180179704330,-0.000448567239800,0.000012657212210,0.000483239738969,-0.000772583764046,0.000935937976465,-0.002237939275801,0.000827908632345,-0.000122500001453,0.000897018529940,-0.000435851456132,-0.000337258417858,0.979636192321777,0.001978285377845,0.000347417080775,4.942273616790771,0.000814352708403,-0.000601615640335,0.000177832131158,0.000094641603937,0.000099999997474,0.001768697984517,0.000196897235583,0.001305273501202,0.000463469012175,0.000404726248235,0.002759209368378,0.000303727079881,0.000125985854538,0.000053659634432,0.000147594124428,0.002287431387231,0.000840356224217,0.002939346013591,0.000151801941684,0.000554724305402,-0.000387237581890,0.010814085602760,0.000792275881395,-0.000439499999629,0.000566490401980,0.000339423975674,-0.000032607040339,-0.000659824931063,0.000917228753679,-0.000027860176488,0.000148209190229,0.000342999992426,0.001214010990225,-0.000247175863478,0.000732543703634,0.000020733274141,-0.000071309535997,-0.000005309642802,0.002739642979577,341.170928955078125,-0.000050680166169,0.000115406670375,0.001344731310382,0.000019999999495,0.000229185869102,-0.000507597287651,0.001283743418753,0.000660149788018,0.000846867216751,0.002623364794999,0.000302700063912,-0.000253190693911,0.000939777120948,0.002106643281877,-0.000213461855310,-0.000453337008366,0.001539155025966,0.001042282907292,0.000666568754241,0.001174257602543,0.000651203677990,0.001207098714076,0.000953768903855,0.002826570067555,0.001767219859175,0.000220984380576,0.000062349376094,-0.000020632822270,0.000933308270760,-0.000592698750552,0.001643586554565,4.115041255950928,-0.000452329899417,-0.000873086391948,-0.001784566906281,0.000363012601156,0.001147150411271,0.000359579542419,0.000055500000599,-0.000187292564078,0.000157366099302,0.003558298340067,0.001193501986563,0.000030484368835,588.672058105468750,-0.001873815082945,-0.000151884261868,-0.000405005324865,0.000336260651238,0.000581872824114,0.001084016053937,-0.000291129748803,-0.000180398958037,0.000058759102103,-0.000681782548781,-0.000811120902654,0.001829172717407,0.001010038540699,0.000264783710008,0.002384055871516,0.000387981242966,0.000263897993136,0.000877984566614,-0.000001871646305,0.001445563742891,-0.000337122735800,0.000420673663029,-0.000183266776730,-0.000502290786244,0.000529181445017,0.000701167387888,-0.000266353512416,0.001034738845192,0.001687637413852,0.000916848366614,0.000412741996115,0.003201295388862,0.000893569842447,0.001471365103498,0.001186100649647,
0.155817656274107,-0.000199292975594,-0.000510031182785,-0.001082929549739,0.000461999996332,-0.002856228034943,-0.003457705490291,-0.000647948007099,-0.003120429581031,-0.002309305127710,0.001262575970031,-0.004878031089902,0.000055117725424,-0.000885492132511,-0.001483823871240,0.000217499997234,-0.001925862510689,-0.002008646028116,-0.003173170145601,0.000180500006536,-0.000372073496692,-0.002323357854038,-0.001852408051491,-0.000654104049318,-0.000423499994213,-0.003257835283875,0.000215803971514,-0.000053499999922,-0.002106877509505,-0.000022075333618,0.000007077256214,0.000049499998568,-0.001135596190579,-0.001107752555981,-0.001183340675198,-0.000728551356588,-0.000118999996630,-0.000121999997646,-0.002326077548787,-0.000118999996630,-0.002290134318173,-0.001385863171890,-0.000342999992426,-0.003782857209444,-0.001884576398879,-0.000075554657087,-0.003446147777140,-0.004057173617184,0.000556080020033,-28.190975189208984,-0.003832583082840,-0.000330837938236,0.000418122886913,-0.001950604957528,0.001134823309258,-127.488258361816406,-0.001398909487762,0.001347884302959,0.000728913990315,-0.000142028075061,0.001154730445705,-0.002599188126624,0.000597648846451,-0.002168712439016,-0.000706479535438,-0.000413650064729,0.001196824247018,-0.002774494932964,-0.002904746681452,0.000777147593908,-0.000900109589566,0.001334267552011,-0.001372331753373,-0.000042499999836,-0.000787734868936,-0.001447487738915,-0.000409198924899,-0.234770983457565,-0.001492423820309,-0.002312127500772,-1.186920642852783,-0.001786269131117,0.001000522868708,-0.000323597894749,-0.002822305774316,-0.000178500005859,-0.001250876812264,-0.001347824698314,-0.001632030471228,-0.000570595264435,-0.002029248280451,-0.005123987793922,-0.002106304746121,-0.000452602573205,-0.000682309502736,-0.002798235975206,-0.004326624795794,-0.002378130797297,-0.001934671308845,-0.001456497935578,-0.001795041258447,-0.000326729583321,0.003152097808197,-0.001960462890565,-0.000403999991249,-0.001055705710314,-0.000800644338597,-0.001677478081547,-0.000055747947044,-0.002393385628238,0.000073125323979,0.000366678548744,0.000165000004927,-0.001349901081994,-0.001758763450198,-0.001018877606839,-0.001021958538331,-0.000839801854454,0.000333271018462,-0.003149912459776,-81.993415832519531,-0.000360138888936,-0.000989637686871,0.000099659395346,0.000312999996822,-0.001215792261064,0.000550795928575,-0.001187832211144,-0.003504576627165,-0.001907016383484,-0.003180899657309,0.000151964908582,-0.000463471515104,0.000738885893952,-0.003716897917911,0.000008788017112,0.000928984838538,-0.000706817780156,-0.001796109834686,0.001327517325990,-0.001558388001285,-0.001635660068132,-0.000580271880608,-0.002014093566686,-0.003553352318704,-0.000593315344304,0.000701604294591,0.000088003893325,-0.001165905734524,0.002055425429717,0.001034636283293,-0.001818669959903,-0.988917052745819,0.000416292314185,-0.001434036646970,0.000736403570045,-0.000668575463351,-0.002443998819217,-0.003020703326911,0.000216500004171,-0.000807589327451,0.000309487106279,-0.001214678050019,-0.001031708903611,-0.001787050394341,-141.476501464843750,-0.003234829287976,0.001235775649548,-0.000208225203096,-0.002003703266382,-0.002482490148395,-0.003090699436143,-0.000633105519228,-0.001032742089592,-0.000601253414061,-0.000730142346583,0.000809347548056,-0.003885555313900,-0.002351838862523,-0.001981356879696,-0.002866852330044,-0.000968238280620,0.000052152623539,0.000625777931418,-0.002728973049670,-0.003452378790826,-0.000365735002561,0.000345775129972,-0.000258166051935,-0.000139293668326,-0.002123875776306,-0.000294495548587,0.000880489358678,-0.001026626559906,-0.000533269951120,-0.001139515079558,0.000146062448039,-0.000935483956710,0.000548722804524,-0.002269340911880,-0.004172385670245,
-0.102644283874459,-0.000827996642329,0.000089977613243,0.000395667942939,-0.000310000003083,0.001595419947989,0.001724437461235,0.000587561517023,0.002298956736922,0.001137027866207,-0.002380992518738,0.002927358262241,-0.000471385108540,-0.000011709584214,0.000484695192426,0.000209000005270,0.001058988273144,0.001023222226650,0.002115126466379,0.000483999989228,-0.000469163584057,0.001901428331621,0.008890261873603,0.000739658134989,0.000307500013150,0.001869840547442,-0.000401933153626,0.000024000000849,0.001130937132984,-0.000591309159063,-0.000218992296141,0.000114499998745,0.001144560752437,0.000702284160070,0.001473649172112,0.001473105628975,0.000363500003004,0.000466500001494,0.001340642571449,-0.000426999991760,0.001221901155077,-0.000394247908844,0.000165999997989,0.002292914316058,0.001523994607851,0.000333136616973,0.002242736984044,-0.001311118598096,0.001862465287559,-173.142242431640625,0.002143151825294,-0.000835802522488,-0.000467905396363,0.001778564997949,0.001271197572351,-783.011230468750000,0.000994077650830,0.001058050082065,-0.000045631233661,0.000517011678312,0.001588986837305,0.001409570919350,0.000189882033737,0.001191569142975,0.000314289471135,0.000291126081720,0.000199873349629,0.001356553402729,0.001373427920043,0.000356511474820,0.000306248432025,-0.001734034740366,0.000940084981266,-0.000163999997312,0.000885574903805,0.001278292271309,0.000375816045562,-1.448213696479797,0.001582750584930,0.001117030740716,-7.291923999786377,0.001454245881177,0.000368060602341,-0.000176987363375,0.003011269727722,-0.000343499996234,0.001145255635493,0.002583217341453,0.001037980546243,0.001799305202439,0.001178568811156,0.002825762843713,0.002524572424591,0.000026309546229,0.001697045518085,0.001892028958537,0.002247446915135,0.001284469384700,0.001259072450921,0.001548126223497,0.000224587565754,0.000035763274354,-0.005720698274672,0.001169916591607,-0.000138999996125,0.000513429520652,0.000609009817708,0.000159967748914,-0.000627440284006,0.001740558887832,0.001540330238640,0.000232114573009,-0.000257500010775,0.001141293323599,-0.001910449354909,0.001746951951645,0.000283076456981,0.000602034328040,0.000145275203977,0.000892840442248,-503.589111328125000,0.000598792452365,0.000911775219720,0.000660701363813,-0.000368500011973,0.002321316394955,0.000196371038328,0.001477084821090,0.002210498088971,0.001687109121121,0.002051730174571,-0.000088161272288,0.000233101600315,-0.001653124229051,0.001839772448875,0.000217897584662,0.000739180482924,0.002604975830764,0.002297991886735,0.000220400383114,0.000466417433927,0.001272954395972,-0.004257794935256,0.001218302524649,0.002315530320629,-0.002294849604368,-0.001346639124677,-0.000083891412942,0.000006846687484,0.001599085400812,0.001052693813108,0.000904357177205,-6.072111606597900,0.000093570502941,0.001635215594433,-0.000245115516009,0.000662478967570,0.000861242704559,0.001672756625339,0.000379500008421,-0.004112319089472,-0.000136206595926,-0.006118984892964,0.000667472777423,0.001276157563552,-868.924926757812500,0.003173050936311,0.001050378778018,-0.000214595202124,0.001385832321830,0.001769123948179,0.001791998976842,0.000814649858512,0.000507293967530,0.000651154317893,-0.000925447908230,0.000407040293794,0.002412972040474,0.001575355301611,0.001854753238149,0.001374127343297,0.000247060350375,-0.000362832302926,0.000866548798513,0.001347430516034,0.001908530131914,-0.000202361828997,-0.000187377328984,0.000677932170220,-0.000102659505501,0.001112091937102,0.000764115713537,0.000000749491960,0.000529486977030,0.002085509244353,0.000892926356755,-0.000271443452220,0.000361163518392,-0.000415354588768,0.000685296603478,0.002484963508323,
