-0.004806803671583,0.000420791020423,0.000125316911592,-0.000450371224312,-0.000140499992995,-0.000449472534363,-0.000334559158548,0.000072686783766,-0.000353736251935,-0.000387443114969,-0.000155406789448,-0.000566637831703,0.000156349109602,-0.000239776914162,-0.000537607472433,-0.000305499997921,-0.000453872599017,-0.000338007968964,0.000246251854803,-0.000228499993682,0.000305035348943,0.000254060903644,0.000335662699530,0.000425128175320,-0.000080500001786,0.000143841140948,0.000218622518157,0.000201999995625,0.000042132534100,0.000247423525474,-0.000055200727199,0.000012999999853,0.000025292852502,-0.000413886972916,-0.000116343105368,-0.000195813133695,0.000164500001119,0.000315000012051,-0.000190854680156,0.000476499990327,0.000095880613457,0.000147500002640,0.000038999998651,0.000220305789853,0.000389926290602,0.000239107278422,-0.000189636513698,0.000409933563787,0.000231371953968,-0.000100665412901,-0.000568151605901,-0.000359643658157,0.000233985618559,0.000027782559798,0.000230000005104,0.000095499999588,0.000092371621577,0.000200499998755,0.000243999995291,0.000454929278931,-0.000476999994135,-0.000266612303900,-0.000395999988541,0.000021004177757,-0.000453213450817,-0.000290625959293,0.000373499991838,-0.000368627028797,0.000012558989945,-0.000337708945524,0.000342112908298,-0.000033217890219,-0.000291727244301,-0.000475500011817,0.000347301292326,-0.000367128259493,0.000406000006478,0.000156533111828,0.000218000001041,-0.000302028825127,0.000190644530688,-0.000218631035780,-0.000311999989208,0.000038892582031,-0.000309366621381,0.000247499992838,-0.000301657883826,-0.000181610360604,-0.000443299803121,0.000185504688000,0.000165861411627,-0.000573557920499,-0.000511951533870,-0.000228289474690,-0.000206475276955,-0.000470978405261,-0.000478830346408,-0.000506741090816,-0.000248656014344,-0.000112784869439,-0.000364695623152,-0.000184999997145,0.000384463560392,0.000210044202321,0.000410000007832,-0.000401766601707,0.000396162840935,-0.000277499988442,0.000012092571982,-0.000098876048490,0.000329486376581,0.000063999999838,0.000125999999000,-0.000300346751201,-0.000309532181199,-0.000171400636401,-0.000405492746464,0.000047886498380,0.000339625458102,0.000167669800783,-0.000025720849802,0.000067631500642,-0.000078117726970,-0.000329130780993,0.000445499987109,-0.000209855475573,-0.000012464455428,-0.000220263552915,0.000122352816395,0.000115748556504,-0.000458559034419,-0.000241000001552,-0.000291382941256,0.000331684264173,-0.000332517363425,-0.000104999999166,0.000056500000937,0.000310916002578,-0.000206797257958,-0.000213452221942,0.000308843495730,-0.000273215355737,0.000207993129036,-0.000424300848058,-0.000253810414111,-0.000148758699652,0.000257500010775,0.000155999994604,-0.000476281710982,0.000113262936881,-0.000476499990327,-0.000134390365898,-0.000432389300585,0.000403000012739,0.000104652836678,-0.000165409612789,0.000123510784034,-0.000108237390105,-0.000136001178634,-0.000234999999520,0.000412258521718,0.000416343609643,-0.000482503083369,-0.000153436192075,0.000014799341747,-0.000491000013426,0.000378856658407,0.000395000010030,0.000141180222272,-0.000301309588134,-0.000084357938986,-0.000254758383537,-0.000205453261971,-0.000116829183821,0.000378261509264,-0.000072962740569,0.000487999990582,-0.000177475772114,-0.000050184817100,0.000237657809810,-0.000073699167260,-0.000525095817456,0.000371986143925,-0.000440000003437,-0.000272683390046,-0.000365391350066,0.000096263232990,-0.000460500014015,0.000097469467388,-0.000471406911607,0.000183719087931,-0.000279500003671,-0.000206046081963,0.000428526069887,0.000300184264031,0.000233442784635,0.000425000005635,-0.000325847614877,0.000029196286449,-0.000001778264181,-0.000382746487952,
0.014688820930590,0.000348285465045,0.000306734704858,0.000611151422049,-0.000097500000265,0.000424934022038,0.000720139350369,-0.000245267315266,0.000109324686869,0.000359364287945,0.000582080470162,0.000708286191218,-0.000413110363297,-0.000407888446353,-0.000069225286521,-0.000044000000344,0.000201108108995,-0.000120288749920,0.000479948603135,-0.000386500003515,-0.000031037446549,0.000465384272693,0.000345612104529,0.000084989425501,-0.000075999996625,0.000182683339917,0.000120075119162,-0.000258499989286,0.000234965398546,-0.000118822330794,-0.000062201738762,0.000371000001905,0.000221213700724,0.000020234906007,0.000232137186584,-0.000335419822429,0.000264000002062,0.000342999992426,-0.000114161225669,-0.000445000012405,0.000097183994815,0.000265500013484,0.000103500002297,0.000162537819015,0.000498731471965,0.000075689936093,0.000059638534182,-0.000137222203193,-0.000268788870759,-0.000409668777138,0.000134699233337,-0.000492707535159,0.000184732963367,0.000337280520446,0.000226999996812,0.000091000001703,0.000379870994948,0.000245000002906,-0.000237500004005,-0.000095585288364,-0.000067499997385,0.000370642569198,-0.000462500000140,0.000135450943987,0.000468898132343,0.000228966759038,-0.000368000008166,0.000550690977082,0.000290518614961,-0.000365379695468,0.000553847267468,-0.000050310982296,0.000447682299270,-0.000134500005515,0.000565780690741,0.000287749729406,0.000039499998820,-0.000089497113489,0.000463000003947,-0.000025042374918,-0.000201491099718,-0.000177393763464,-0.000478500005556,-0.000194805240730,-0.000178764910849,-0.000024000000849,0.000474496685973,0.000269499120527,0.000124348894971,0.000019224653510,0.000461271795000,0.000570688822279,0.000272038123050,0.000221789146443,-0.000020958892125,-0.000083580340741,0.000527274604275,0.000573322024258,0.000588543422378,0.000031466773520,-0.000041063312422,-0.000027500000215,-0.000433038259752,0.000139390977806,0.000488999998197,0.000332445731909,-0.000222265483736,-0.000089000001026,-0.000233611451584,-0.000053563650736,-0.000076661567697,-0.000186999997823,0.000019999999495,0.000481169243154,-0.000117821378485,0.000718988561728,0.000088990767388,0.000068407728266,-0.000309874499923,0.000212027650969,-0.000288507906855,-0.000036289113451,-0.000332827883994,-0.000317445514666,-0.000060999998823,0.000197846895417,0.000247957660811,0.000387621008747,0.001003297635104,0.000157099327626,0.000702399883523,-0.000210500002140,0.000100974533209,-0.000037178847663,-0.000294593726031,-0.000059000001784,0.000411999993958,0.000569420389248,-0.000208659819033,0.000038046669943,0.000040403552251,0.000287321041364,0.000128130982987,0.000612195468943,0.000686010451086,-0.000319260027027,0.000009499999578,0.000080500001786,0.000103635217507,0.000432423428323,-0.000083500002802,0.000436037056749,0.000241865595954,-0.000186499994015,0.000532336240532,-0.000120317264116,-0.000256229513862,0.000369971663033,0.000332149399212,0.000392499990994,0.000108328835633,-0.000451316167706,0.000071688123072,0.000230783320213,0.000661165341354,0.000232999998843,0.000116720925458,-0.000097500000265,-0.000328183523379,0.000241596044965,0.000528154927046,0.000625412987173,0.000542008471344,-0.000338356107455,0.000660956649679,0.000237732625857,-0.000236000007135,-0.000128273047644,-0.000000378939422,0.000274277641434,0.000465709514211,0.000131041045235,0.000462247493106,-0.000475000008009,0.000001134202603,-0.000086079266343,-0.000283368281089,0.000079999997979,0.000301527444894,-0.000340297401250,0.000376997239356,0.000234999999520,-0.000283442517478,-0.000055544005459,0.000678725800757,0.000165389638033,0.000091499998234,0.000350629980173,0.000306698574222,0.000013569461244,0.000546865721142,
-0.005306288317091,-0.000425201251643,-0.000529678228713,0.000122634929126,-0.000169999999343,-0.000476966893294,0.000000451561293,0.000226688471756,0.000207269999420,0.000358061175060,-0.000054902323125,0.000018377149575,0.000314349425025,0.000448225303080,-0.000536099490674,-0.000427499995567,-0.000244866989714,-0.000236501938024,-0.000289242014620,-0.000430999993114,-0.000279460107714,-0.000195929489995,0.000119167394601,0.000144632017969,-0.000333500007400,0.000087352760971,-0.000239874383358,0.000065499996708,0.000305633980962,0.000430426316832,0.000202799297090,0.000107499996375,0.000366300122081,-0.000024385893876,0.000249163452918,0.000195190217392,-0.000342000013916,-0.000166500001797,-0.000364346078604,-0.000192499996047,-0.000100615258410,-0.000110000000859,0.000194499996724,0.000287817463847,0.000273934363101,-0.000229887952376,0.000329875268511,-0.000101065998024,-0.000020627100951,-0.000303665350657,0.000107355635612,0.000203356408747,0.000149487019949,-0.000136211290191,0.000409500004025,-0.000342000013916,0.000199371643248,0.000069000001531,-0.000142499993672,-0.000016570549633,0.000132000001031,-0.000335102481721,-0.000119999996969,0.000200516344058,-0.000035711245470,-0.000450122994468,-0.000302500004182,-0.000377123235759,-0.000120432101561,-0.000422206493101,-0.000328884087843,0.000264786307946,-0.000446223626618,0.000487499986775,-0.000453193847156,-0.000129125666690,-0.000406000006478,0.000382043397394,0.000445499987109,0.000107475323135,0.000029645187194,0.000169876602451,-0.000142000004416,-0.000514101964072,-0.000176358769491,-0.000385999999708,-0.000020157026740,-0.000324100440711,-0.000287793966545,0.000278012190582,0.000357875646640,-0.000111044467969,0.000024558621002,0.000162714318263,-0.000172970730780,0.000198030179434,0.000282686075028,-0.000213735431360,0.000251847373749,0.000302721975026,-0.000140188485917,-0.000432000000728,-0.000298035244288,0.000331557154457,-0.000101500001620,0.000339735426845,-0.000501334057295,0.000472499988973,-0.000509402616198,0.000319624808330,-0.000106510322878,0.000385999999708,0.000312499993015,0.000338654840298,-0.000033531355783,-0.000571887614650,0.000221510743522,-0.000487604014849,-0.000047373231721,-0.000052819087901,-0.000532717476962,-0.000370368113704,0.000360887046877,-0.000401125664647,-0.000301499996567,-0.000271350564796,0.000133536410690,0.000010242821562,-0.000254629248002,-0.000013747705140,-0.000316548282000,0.000426999991760,0.000131121779583,0.000048186394878,0.000158988737177,-0.000020999999833,-0.000434999994468,-0.000058076804997,-0.000511289161327,-0.000110452172521,0.000317849168968,0.000450789394670,-0.000103503140816,-0.000045789162086,-0.000293799623675,-0.000113258676720,0.000296499987599,-0.000336500001140,0.000071218976773,-0.000462235015690,-0.000180999995791,-0.000287383020247,0.000135613271546,0.000219499997911,-0.000036340380717,-0.000505405530021,-0.000440986121999,0.000068770775071,0.000305000710612,-0.000486500008265,-0.000242737666746,0.000083344270191,0.000233001576813,-0.000303934351468,0.000174310700815,0.000342000013916,0.000394864156304,0.000334499985911,0.000286681082798,-0.000392803207605,0.000071148595696,0.000010749837158,-0.000325945956394,-0.000394324196016,0.000357269408877,-0.000000461407959,-0.000083999999333,-0.000397469236495,0.000419817895045,0.000248667328718,0.000319311469387,0.000359909734566,-0.000213509877665,0.000480499991681,-0.000608669906955,-0.000500378235258,0.000274263555184,-0.000349000009010,0.000449471959939,-0.000302402283870,0.000400225817634,0.000424500001827,-0.000090041594871,-0.000199469094838,-0.000045305134322,0.000386946193213,-0.000471500010462,0.000023652949496,0.000303704022300,-0.000468270793768,-0.000021738513231,
-0.005229808608010,0.000313298448841,0.000151821564296,-0.000189865340910,-0.000129499996547,-0.000118967132841,0.000308951128487,0.000002688399184,0.000418269742893,0.000361060988097,0.000071597489127,-0.000359123448706,0.000385349412682,0.000276725176452,0.000212400180339,0.000373999995645,-0.000216367202648,-0.000386502169706,-0.000409242291886,0.000480499991681,-0.000148960287460,-0.000306929870255,0.000323667216276,0.000385131829372,0.000318000005791,0.000296352301552,0.000263125481086,-0.000491500017233,-0.000340866065576,0.000015426226954,0.000369299283485,-0.000294500001473,0.000016299809267,-0.000046885931956,-0.000036836835734,0.000254190103844,0.000118000003567,0.000242499998421,0.000123153588954,-0.000224000003072,-0.000211115429700,0.000376999989385,-0.000173499996890,0.000133817044198,0.000274934036013,0.000052611866556,-0.000263625203364,-0.000115566013847,-0.000083627125267,-0.000285665330011,-0.000446644664989,-0.000313643598929,-0.000048513030829,0.000113288458906,-0.000341000006301,-0.000264500005869,-0.000139628362376,0.000093000002380,-0.000487000012072,0.000273929443210,0.000472499988973,0.000244897097990,-0.000419999996666,-0.000009484140565,-0.000279711315414,-0.000175123095803,0.000440000003437,-0.000426123404264,0.000061567541513,0.000423793443778,0.000048615810099,-0.000062213856005,-0.000350723754759,-0.000191500002984,0.000451805928055,0.000301874213946,0.000204500000109,-0.000343457032021,0.000299500010442,-0.000538024870356,-0.000204354847000,-0.000559123714301,0.000467500009108,0.000442897768726,-0.000234359075706,0.000302000000374,-0.000032157067574,0.000221899154364,-0.000381294172098,0.000155511894475,-0.000190624949227,-0.000429545000122,-0.000201441791916,-0.000217785835022,0.000140029087637,-0.000563470169066,-0.000469314581708,0.000100264352639,-0.000041652776205,0.000339221733704,0.000039811233692,-0.000184999997145,0.000319464679079,-0.000444443352930,-0.000147500002640,-0.000276764659995,0.000059165795194,0.000373499991838,-0.000304402840809,-0.000170875222968,-0.000513010438254,-0.000213000006624,0.000468999991426,0.000267154776844,-0.000121031385350,0.000256111886362,-0.000467489404405,0.000306395627320,0.000362126724239,-0.000005319532980,0.000145282452739,-0.000464868141488,0.000221386828202,0.000057874120618,0.000449999992270,0.000398649288591,-0.000136463615781,0.000144742568012,-0.000444629987074,-0.000342247857915,-0.000439048730131,-0.000315499986755,-0.000362878385544,0.000004686316049,-0.000291511489449,-0.000050999999075,-0.000144499994349,-0.000238077071902,-0.000341289506020,0.000435547844972,0.000363348947724,-0.000211710784048,-0.000023503295553,-0.000037289623729,0.000287199935969,-0.000289258663543,-0.000102999998489,-0.000228000004427,-0.000050281054424,0.000204264902268,-0.000099500000942,-0.000285883284967,0.000473613182261,0.000228000004427,0.000391659319301,-0.000146405653161,-0.000497986230148,0.000029270443529,-0.000309499336491,-0.000306500005536,0.000334762175218,-0.000099155761630,0.000086001396597,0.000018065570919,-0.000033689746384,-0.000197999994271,-0.000262636134051,-0.000141500000609,0.000173181062564,0.000269196485750,-0.000295851700121,-0.000320750471679,-0.000109946253715,-0.000521824421187,0.000326769119201,-0.000296961453484,-0.000369999994291,-0.000462969497683,-0.000330682228026,-0.000303333053894,-0.000497188956091,0.000409909461899,0.000438989953848,0.000326000008499,-0.000523170466346,-0.000272878791141,-0.000071236449003,0.000029999999242,-0.000073028166759,-0.000437402495131,-0.000185274461278,0.000021500000003,-0.000325541767093,0.000035030691693,0.000389194440393,-0.000287553956028,-0.000228000004427,0.000032652927113,-0.000074296256177,-0.000199271106371,-0.000420238845948,
0.004730260462108,-0.000089580035426,0.000465225040191,-0.000168863510311,0.000489500002004,-0.000236458345891,-0.000055597971400,0.000222516547135,-0.000193717161111,0.000457315820093,-0.000063443602757,0.000414370263570,0.000214349478483,0.000281351273237,-0.000112534507968,-0.000437500013504,-0.000349273695223,0.000100657358293,-0.000101988427918,-0.000338000012562,-0.000039121252890,0.000270928283959,0.000022054114836,-0.000390204982357,-0.000264500005869,-0.000126841538133,-0.000178633447125,0.000282499997411,0.000307896029135,-0.000331258602774,0.000096808486283,-0.000425000005635,0.000181313690888,-0.000059560633587,0.000110468255604,0.000225884352032,-0.000286499998765,-0.000391999987187,-0.000298362894529,-0.000276500009932,0.000148258438235,-0.000004500000159,-0.000049999998737,0.000307717330281,-0.000276876134660,-0.000386176346564,0.000364432326194,-0.000364065926988,0.000441552432910,-0.000308665330522,0.000434850789097,0.000025856417778,-0.000181993343063,0.000014009594305,0.000037999998312,0.000254499987932,0.000120871634863,-0.000403499987442,-0.000493499974255,0.000393929454731,-0.000334999989718,0.000358420677325,-0.000365499989130,0.000549307037686,0.000224921484090,-0.000069029564343,0.000376000010874,0.000271666485142,0.000456253750467,-0.000464119437586,0.000272336563463,-0.000074359681071,0.000154415642707,0.000310000003083,-0.000229847213379,-0.000214859717082,-0.000115000002552,-0.000249442768576,-0.000281999993604,0.000233865318148,-0.000206373511512,-0.000197796850337,-0.000012000000424,0.000111525145892,-0.000240736963362,-0.000314500008244,0.000019009301014,-0.000059235014314,-0.000355093254363,0.000162803255183,0.000013191923018,0.000301601274661,0.000393896097691,0.000264948565741,0.000026847803649,-0.000074595687801,0.000053493628003,0.000314391713112,0.000095807765719,0.000276030965491,-0.000306082007589,0.000299000006635,-0.000016891619082,-0.000016291667369,-0.000457499991171,-0.000180904361111,-0.000243500858280,0.000050499998906,0.000137717601602,-0.000069509861149,-0.000080506087680,-0.000292999990052,0.000491500017233,0.000440269284643,-0.000271443293456,-0.000200316188540,0.000182364731015,0.000510253003292,-0.000084047105313,0.000442762060828,-0.000120489103917,-0.000391499173044,0.000269353052563,-0.000228572512602,0.000028500000553,-0.000347185316811,0.000314554873918,-0.000060616252483,0.000280901905090,-0.000219043404244,0.000372004332025,-0.000014500000361,-0.000165566070086,0.000174158045432,-0.000241108285069,-0.000321500003338,0.000276500009932,0.000156291250969,-0.000078444675827,-0.000234952167375,0.000068075149283,-0.000167526339425,-0.000125734719848,-0.000050646581446,0.000498856143968,-0.000264758680714,-0.000354499992682,0.000422999990406,-0.000346248748574,0.000341743310421,0.000076999996963,-0.000290027003964,-0.000095557890767,0.000389499997254,0.000341861534180,-0.000153296353658,0.000211811135872,-0.000371443354899,0.000381233330201,0.000028500000553,-0.000361816125627,0.000382422702962,0.000010365108333,0.000233783040791,0.000312512194931,-0.000044000000344,0.000441897301363,0.000023000000510,0.000342681159964,0.000336793223072,-0.000022613053225,-0.000249676596976,0.000174802026744,0.000440628242300,-0.000255826956734,-0.000282248909915,0.000292999990052,0.000498070978154,0.000216499542884,0.000016371959722,-0.000092304478478,0.000071794220725,0.000202636394723,0.000348500005202,0.000265572942032,0.000043513673843,0.000048263598728,0.000230499994359,-0.000422724264894,-0.000147766819559,0.000078924417904,-0.000318000005791,-0.000450010982888,0.000144134488915,-0.000011125966291,0.000032699349046,-0.000232000005781,0.000057392225621,-0.000413249299750,0.000292728042038,0.000517539923208,
-0.005429590199002,-0.000301698266351,-0.000471176324408,0.000037137260698,-0.000368500011973,-0.000274964726895,0.000020455681583,-0.000513310854401,-0.000216227616042,-0.000346437227152,-0.000386400610515,0.000108382937374,0.000128849569592,-0.000186773887028,-0.000309596403398,0.000497000000905,-0.000225864823685,-0.000155999624723,-0.000291239649843,0.000331999995979,0.000030541641347,-0.000351925790481,0.000246669238445,0.000410633486872,-0.000006499999927,-0.000279642785762,0.000248126787092,-0.000060999998823,0.000107134585707,0.000030927405456,-0.000331700690441,0.000151000000187,0.000144802872752,-0.000311385471720,-0.000415834070264,-0.000025808496099,0.000014999999621,-0.000055500000599,0.000144657226935,-0.000326999987010,0.000186886352176,-0.000000499999999,-0.000219499997911,-0.000228177995229,0.000082437451063,0.000151113881527,-0.000425620185027,0.000034934160794,0.000425373260688,0.000201334682060,-0.000353141597271,0.000369856425095,-0.000466012449670,-0.000226208916222,-0.000220999994781,0.000339999998687,-0.000285628339043,0.000224999996135,0.000444000004791,-0.000478070462123,-0.000454499997431,-0.000502598734330,0.000484999996843,0.000274521021647,-0.000326710410787,-0.000191621837036,-0.000056500000937,-0.000377121809656,-0.000531928667167,-0.000410205507416,-0.000138382908764,0.000020787923039,0.000237277791138,0.000108499996713,0.000045308025689,-0.000261124646325,0.000010499999917,-0.000321452695927,0.000021500000003,-0.000027523091492,0.000111145440605,-0.000046120451490,-0.000446499994723,0.000400900070198,-0.000568855681882,-0.000017500000467,-0.000104656694228,-0.000087096637997,0.000100208255934,0.000352515077846,-0.000490618886581,0.000350460708914,0.000049062511995,-0.000207284227124,-0.000045468989067,-0.000579466476990,0.000257692395602,0.000375266737767,0.000173848657389,-0.000149775399803,0.000187814264727,0.000489500002004,-0.000031534796928,0.000279562160796,0.000359500001650,-0.000158763788554,-0.000358832915797,0.000372000009520,0.000033599198862,-0.000274374875505,-0.000515509077171,0.000385999999708,-0.000058500001614,-0.000229344554688,-0.000095031033097,-0.000099882593154,0.000301012064660,-0.000196600348294,0.000256127263812,-0.000485314807873,0.000378783917696,-0.000381867935305,0.000246888839746,0.000392376320899,0.000132999994094,-0.000429848618214,0.000372036742322,0.000260245278260,-0.000200622343370,0.000381753765582,-0.000270044171522,0.000184499993338,-0.000171876387633,0.000137187229878,-0.000354508895365,0.000425000005635,-0.000326999987010,-0.000024074049351,0.000170213919102,-0.000390452158172,-0.000422648612170,0.000312291225799,-0.000021501721085,-0.000129784679115,0.000298204509508,-0.000421758682933,0.000202499999432,-0.000422000011895,-0.000477780775956,-0.000354734270895,0.000186999997823,0.000380119795000,0.000108114285245,-0.000045500000851,-0.000003837776207,0.000287596095469,0.000298015065375,0.000240273914567,-0.000504498531050,0.000033000000258,0.000230763784741,0.000060344513759,0.000327003382110,-0.000481433656858,0.000043315085263,0.000344000000041,-0.000083632956927,0.000195999993593,-0.000300318584777,0.000335699228840,0.000144151098865,0.000093253000027,-0.000511943142138,-0.000217822290479,-0.000258227556184,0.000221039102929,0.000307000009343,0.000018533219617,0.000335318884637,0.000049671002498,-0.000265684434033,0.000216911802305,0.000401491685844,-0.000125999999000,-0.000222664746608,-0.000620873227037,0.000285763700958,0.000477499997942,0.000408972845906,0.000136599449748,-0.000564271584303,0.000308999995468,0.000212960130947,-0.000457467275862,-0.000203801078162,0.000430447516834,-0.000034500000766,-0.000099346834761,0.000392707032742,0.000201232039120,-0.000062735431921,
0.005473193862744,-0.000096918055721,-0.000169432602638,0.000296352531984,0.000092000002041,0.000113611821523,0.000258547682579,-0.000339355730756,0.000203281313008,-0.000233007708464,0.000431906203766,-0.000336728841526,-0.000419184827479,0.000055086213030,0.000447124211856,-0.000246500014327,0.000101822819507,0.000403404406489,0.000075715067247,0.000391500012483,-0.000004167680251,-0.000378976602260,-0.000425484592956,0.000001929647038,0.000276000006124,-0.000258516265762,-0.000329835982240,0.000175499997567,-0.000022298793662,-0.000231763846357,0.000193298748474,0.000207499993849,0.000133787250077,0.000451248343951,-0.000302654765082,-0.000401120033361,0.000345999986166,-0.000234000006458,0.000155559495206,-0.000039999998990,0.000214501752422,0.000418000010541,-0.000350999995135,-0.000108895071844,-0.000077751441215,0.000069639555019,0.000277767768003,0.000002250692887,-0.000105868614200,-0.000156167167006,0.000330749029916,0.000268856296316,-0.000399507595842,0.000315217427557,0.000256500003161,-0.000169999999343,-0.000262128713075,0.000481499999296,0.000099500000942,-0.000231073034229,0.000036500001443,0.000459307375453,0.000346499989973,0.000441567123032,-0.000425547706072,0.000038901904622,-0.000367000000551,-0.000183247781116,-0.000356803428242,-0.000121744904866,-0.000434321523384,0.000024570916558,0.000031150879881,-0.000172500003828,0.000034800232623,0.000248138133700,-0.000427499995567,0.000078364289486,-0.000063999999838,-0.000421504722252,-0.000263508602734,0.000064267215085,0.000187500001630,-0.000071756054645,0.000464810475236,-0.000204500000109,0.000036819338446,-0.000045387122846,0.000336950845890,0.000028680044466,-0.000234801355322,0.000483257238132,-0.000270364458568,0.000326585772714,0.000495172317925,0.000440286274650,0.000076907553501,0.000388154453195,-0.000057609258227,-0.000067111014530,-0.000352071549325,-0.000406000006478,-0.000308677886673,0.000261047502658,0.000352000002749,0.000036758154758,-0.000073013561209,-0.000372999988031,-0.000405654455013,-0.000063390836641,0.000395716964196,0.000416499999119,-0.000255999999354,-0.000290405805987,-0.000204010362512,-0.000210279502229,0.000149018424396,-0.000158128765817,-0.000106693932828,0.000521305016743,-0.000390629740496,-0.000387111372664,0.000182311868018,-0.000292979666823,-0.000333000003593,0.000429391218462,0.000206686214662,-0.000110780011217,-0.000199778211625,-0.000147557038622,-0.000403568842988,0.000467000005301,0.000183206152499,0.000051885555748,0.000261896426159,-0.000480499991681,0.000418999989051,-0.000052325958355,0.000466297886234,0.000318570761010,-0.000373525941344,0.000107376520495,-0.000233203462537,0.000376734073808,0.000251599100467,0.000177240610356,-0.000014500000361,-0.000103500002297,-0.000225018229219,-0.000110582162820,0.000337500008754,-0.000359974402409,-0.000430472638097,0.000165499994182,-0.000015591539977,0.000205944505363,-0.000412861582964,0.000351767245541,0.000109143245486,0.000468999991426,0.000302570714159,0.000390986127670,0.000381383474959,0.000071428269243,-0.000137549887092,-0.000398500007577,-0.000128170724439,-0.000096000003396,0.000309668394038,0.000142379202311,0.000191388607665,0.000218018316973,-0.000281059766552,-0.000326303932101,-0.000345678319306,0.000334219044501,-0.000112499998068,0.000247757850194,0.000433851905902,0.000487708456267,-0.000191607199297,-0.000238379435051,-0.000111162611979,-0.000311500014504,-0.000062494736484,-0.000002673467799,0.000164760145708,0.000342999992426,-0.000006216780050,-0.000333090028454,-0.000009941739596,-0.000449999992270,-0.000034642233610,0.000078624828176,0.000539720776001,0.000432310715284,0.000427499995567,-0.000103267437687,-0.000179977720184,-0.000298254709138,-0.000310783195756,
0.004617879840865,0.000358433904847,-0.000015449108811,0.000105061049712,0.000121500001114,0.000019724069430,0.000404720757884,0.000389978685005,0.000017002485548,0.000067468356497,-0.000324621107638,0.000523836374361,-0.000361650396371,0.000434103284657,-0.000184753173558,-0.000167499994859,0.000401554667905,-0.000328750509551,0.000091788032731,0.000000499999999,0.000031095098289,0.000286758228147,-0.000263177609887,-0.000428999348876,0.000142000004416,-0.000041921271699,-0.000040353836581,-0.000193500003661,-0.000336864062094,0.000234291817675,0.000240798787262,-0.000270999997156,0.000059897785432,0.000030894674496,-0.000368919481331,0.000500520165967,0.000050499998906,-0.000380999990739,0.000176056504755,0.000218000001041,0.000198254757655,0.000326000008499,0.000167499994859,-0.000154744019632,0.000144804413159,0.000141183081172,0.000218430935130,0.000221934198635,-0.000344130688438,-0.000374506518710,-0.000114419935821,-0.000293643563055,0.000302848342719,0.000558271240602,0.000457499991171,-0.000316499994369,-0.000200343682081,-0.000232999998843,-0.000356500007911,-0.000443847529823,0.000127499995870,0.000416261923517,0.000424500001827,-0.000271401385938,0.000417499465846,-0.000217595858952,-0.000036000001273,-0.000441863466499,0.000203139651489,-0.000438012722274,-0.000320052427963,-0.000332110586396,-0.000372900631996,-0.000122500001453,0.000546438122350,-0.000326269508721,-0.000338999991072,0.000172833777364,0.000224999996135,-0.000318662790138,0.000249003296800,-0.000141322563727,0.000014500000361,0.000229157849680,0.000112858029238,0.000099999997474,0.000280618444330,0.000273243448810,0.000109567728404,0.000472732263427,-0.000078390664748,-0.000264256356915,-0.000237903289555,0.000468897466447,-0.000121228725275,-0.000240775984350,-0.000172762877440,0.000459554469015,0.000267679953570,-0.000032206315847,-0.000002139440202,-0.000387000007322,-0.000440178591336,0.000355033378780,-0.000439499999629,-0.000009708413450,-0.000216710147427,0.000083500002802,-0.000162527250772,0.000304216962355,0.000011518559092,0.000148999999510,0.000342999992426,-0.000260458872184,0.000355464632479,0.000532456068671,-0.000242932132448,-0.000296890930819,0.000209857205036,0.000481839702269,-0.000395562588697,-0.000139391046405,-0.000282150736302,0.000384260870542,0.000019999999495,-0.000074440677882,-0.000325415699283,-0.000385170216898,0.000110386335956,0.000431994050260,0.000425473681794,0.000211499995203,-0.000283836889828,0.000289520679631,-0.000383615925817,-0.000119999996969,0.000108000000182,0.000085087969395,0.000190556243384,-0.000441452168161,-0.000266537683574,-0.000179899115014,0.000152832727903,-0.000087527073237,-0.000305148730869,0.000197830173420,-0.000449499988463,0.000004999999874,-0.000482180849161,-0.000209670735838,-0.000253500009421,0.000540775583350,0.000368990001705,-0.000455000001239,-0.000254551823390,0.000171609474058,-0.000120297825146,0.000566594379268,-0.000075026885687,0.000055500000599,-0.000271650647373,-0.000221157121904,-0.000282437838306,0.000289614838045,-0.000365471539185,-0.000329000002239,-0.000210119104780,0.000207000004593,-0.000478751055198,-0.000067437641392,-0.000112810250327,0.000554760978117,-0.000166061836450,-0.000157514058117,0.000088946346351,0.000323068171352,-0.000449000013759,-0.000067728501368,0.000422125073035,0.000309154980260,0.000172352377755,0.000273095890241,0.000430845047133,0.000076999996963,-0.000146168713387,-0.000139967863451,-0.000397736293962,0.000318500009598,-0.000342913565386,-0.000177923707088,-0.000265822785575,0.000453999993624,-0.000383646581565,0.000425607971057,-0.000022970764569,-0.000011570729330,0.000383500009775,0.000170328541168,0.000202318019427,0.000207595435142,0.000168823006933,
-0.004534658963200,0.000076285664515,-0.000107186441731,0.000337624568152,0.000461999996332,-0.000502476508231,-0.000392566549602,0.000114685624397,-0.000510240550104,-0.000312946104352,0.000252090120900,-0.000280148214754,0.000055848897318,0.000045221569541,0.000002887073343,0.000217499997234,-0.000085876450956,-0.000125012136625,-0.000473252448533,0.000180500006536,0.000159532246063,0.000190554215320,-0.000083840571967,-0.000297874509419,-0.000423499994213,-0.000424166882749,0.000383120418593,-0.000053499999922,-0.000401368480783,0.000054421616349,-0.000096700740888,0.000049499998568,0.000395287869941,0.000137612282610,0.000344152374979,-0.000059815408755,-0.000118999996630,-0.000121999997646,-0.000285360587631,-0.000118999996630,-0.000345622245648,-0.000146999998833,-0.000342999992426,-0.000245702306782,-0.000274579228795,0.000361103955089,0.000096355378385,-0.000254066690104,-0.000298628685454,-0.000139665455208,-0.000392156571848,-0.000496143708006,-0.000261015326674,-0.000469721682464,-0.000127999999677,0.000094000002719,-0.000321628380334,-0.000255499995546,0.000312499993015,0.000079429170000,-0.000399000011384,-0.000070619055950,0.000224000003072,0.000152495776976,-0.000032214938064,0.000159371950437,0.000411999993958,-0.000484629606210,-0.000521447163637,-0.000071710674918,-0.000399389184757,0.000246279232659,-0.000093229740764,-0.000042499999836,0.000033797935083,-0.000484630016577,-0.000409000000218,0.000241526013066,-0.000360000005458,-0.000523031641884,0.000462144069095,0.000265363700237,-0.000038499998482,-0.000196111157222,-0.000407872063696,-0.000178500005859,0.000038341467240,-0.000065617188438,0.000098196214831,0.000003999495042,0.000300351613978,-0.000376067211950,-0.000153958539045,0.000324707916446,-0.000053478386901,0.000188515645321,-0.000221341672449,-0.000269244942773,-0.000394158342608,-0.000393289596321,-0.000447700561654,-0.000326500012306,-0.000026537262758,0.000361035210879,-0.000403999991249,0.000080731979280,-0.000288839263769,-0.000292499986244,0.000118089270738,0.000100623357861,0.000087484102623,0.000367500004359,0.000165000004927,-0.000076847840872,-0.000443032765463,0.000316590372169,0.000142004883505,0.000062379952937,-0.000210375395826,-0.000283337893284,-0.000014223208710,-0.000014868773984,0.000046879005345,0.000101365686002,0.000312999996822,-0.000374858878291,0.000168034955551,0.000167232056670,0.000082340429307,-0.000342254024318,-0.000068066420624,0.000088000000687,0.000216113796722,0.000476682789413,-0.000471021612501,-0.000479500013171,-0.000495999993291,-0.000360088931672,-0.000257302831541,0.000408047751989,-0.000432160376351,-0.000413718634199,0.000183990587858,0.000312691088236,-0.000338317881255,0.000102241283457,-0.000246999989031,0.000059499998315,-0.000281782172368,-0.000070238464582,0.000024499999199,-0.000416395469794,-0.000199391141244,-0.000092000002041,0.000027148149400,-0.000248912451598,-0.000296991338710,-0.000353743027668,-0.000189502492103,0.000216500004171,-0.000353244079310,0.000161843196894,-0.000358506347483,-0.000130937480558,0.000070291512310,0.000062999999500,0.000168351500485,0.000207999997656,-0.000202820345294,-0.000228813999048,-0.000294862455313,-0.000306764064801,0.000099041691408,-0.000151832609404,0.000262756031852,0.000082536343426,-0.000215499996557,-0.000543980227899,-0.000221186689793,-0.000122348752918,-0.000102706502937,0.000070900360938,0.000013483420478,0.000479999987874,-0.000080192685574,-0.000120900373960,-0.000487736979267,0.000413000001572,-0.000313532239688,-0.000075910046427,-0.000118785557458,0.000339999998687,0.000332450812240,-0.000213977195972,0.000085676961378,0.000096440424997,0.000174500004505,-0.000436847972509,0.000366690909682,-0.000555283386378,-0.000518752048508,
-0.005355003399107,-0.000534696936655,-0.000524175492689,-0.000319361713469,-0.000310000003083,0.000018036221240,-0.000297542488450,0.000380689403855,0.000314273448157,-0.000032436485200,-0.000518399855569,-0.000104614551305,-0.000470650353236,0.000150226491947,-0.000295095122436,0.000209000005270,0.000021136113378,-0.000234498618716,0.000159261370761,0.000483999989228,-0.000511457528533,0.000379075867575,-0.000065329969229,0.000245134161334,0.000307500013150,0.000158359208258,-0.000195372692354,0.000024000000849,0.000132634830731,-0.000387072095022,-0.000177700693246,0.000114499998745,-0.000017195906017,0.000471614688898,0.000278667029596,0.000339692088922,0.000363500003004,0.000466500001494,0.000184158677333,-0.000426999991760,0.000434387020685,-0.000460500014015,0.000165999997989,0.000252323976656,0.000131938792020,0.000322114712753,-0.000041118240328,0.000231934245676,0.000397873426041,-0.000255665305303,-0.000194140365730,-0.000231643556617,-0.000027012219390,-0.000257207906443,0.000171499996213,0.000396499992348,0.000333871663315,-0.000070000001870,-0.000385499995900,0.000111929541163,0.000361499987775,-0.000487597069758,-0.000226499993005,-0.000502476903132,-0.000419210063390,-0.000080621331400,0.000128999992739,0.000175378853467,-0.000262427164339,-0.000134705069674,-0.000191882385554,-0.000337711377064,0.000085778393829,-0.000163999997312,0.000252808842487,-0.000175124244953,0.000376000010874,-0.000522450957525,0.000142000004416,-0.000180022410973,0.000278645552795,0.000065380835259,-0.000107499996375,-0.000411598985686,0.000253145601452,-0.000343499996234,0.000215843453332,0.000030905035840,-0.000030790765141,-0.000152483625508,-0.000342616558334,-0.000073037025800,-0.000261435775409,-0.000468283604471,0.000253531755335,0.000292034938640,-0.000459304840829,0.000004267698737,0.000215849219441,-0.000180774250868,-0.000530184533852,0.000036000001273,-0.000233034589104,-0.000532935640722,-0.000138999996125,-0.000298263464063,0.000267167593205,-0.000152499997057,-0.000487899985833,0.000174625296657,0.000022491496802,0.000226499993005,-0.000257500010775,-0.000009344300737,0.000104969098787,-0.000475380401831,-0.000289987337976,-0.000389598767315,0.000090127487072,-0.000054312944509,0.000457284459754,0.000257632128741,0.000247889688769,0.000026877161902,-0.000368500011973,0.000269652200622,-0.000410963107002,0.000310746334459,-0.000549619312326,0.000407254349077,-0.000198542364381,-0.000376000010874,-0.000512375560815,0.000279187568482,0.000320992158324,-0.000155999994604,-0.000259499996901,-0.000162572840197,0.000040715270328,-0.000179452137672,-0.000335647664563,-0.000527208034947,-0.000132501087686,-0.000589782642975,0.000325706380198,0.000357741315383,-0.000025499999538,-0.000291000003926,-0.000285280617169,0.000287766071954,0.000422499986598,-0.000274378943656,-0.000443385298367,-0.000269499985734,-0.000324836626354,-0.000418903219576,-0.000044484393098,-0.000353724717830,0.000265001747782,0.000379500008421,-0.000509235594522,-0.000387655365269,-0.000027995810582,0.000245566670177,-0.000469682983295,0.000020999999833,-0.000487131685063,0.000472999992780,-0.000209818419535,0.000304200260371,0.000002652188049,-0.000119245632078,-0.000565941934704,-0.000429321432732,-0.000391726227066,-0.000280460654879,-0.000126500002807,0.000402034293797,0.000353319381529,-0.000513327391188,-0.000163682637691,-0.000139587242769,-0.000338007691686,0.000396999996156,-0.000475662458285,-0.000131871040546,-0.000146236241562,-0.000125999999000,-0.000201026705642,-0.000431899797195,-0.000202270448791,-0.000413500005379,-0.000488039107991,-0.000184466477259,-0.000007299271797,0.000213448077233,-0.000245500006713,-0.000012346752525,-0.000461791663580,-0.000532266716598,0.000120265916324,
